svm_type c_svc
kernel_type rbf
gamma 128
nr_class 2
total_sv 391
rho 0.883838
label 1 -1
nr_sv 125 266
SV
1.532043894998878 1:0.088586 2:0.020443 3:0.045997 4:0.0477 5:0.051107 6:0.091993 7:0.030664 8:0.091993 9:0.042589 10:0.098807 11:0.022147 12:0.039182 13:0.032368 14:0.034072 15:0.034072 16:0.059625 17:0.06644 18:0.052811 19:0.015332 20:0.034072 
0.1353367451983911 1:0.138889 2:0.036111 3:0.033333 4:0.022222 5:0.044444 6:0.080556 7:0.011111 8:0.022222 9:0.005556 10:0.180556 11:0.005556 12:0.013889 13:0.072222 14:0.013889 15:0.094444 16:0.077778 17:0.036111 18:0.061111 19:0.025 20:0.025 
4 1:0.100592 2:0.02071 3:0.038462 4:0.04142 5:0.088757 6:0.050296 7:0.02071 8:0.04142 9:0.04142 10:0.076923 11:0.029586 12:0.059172 13:0.071006 14:0.050296 15:0.038462 16:0.068047 17:0.050296 18:0.068047 19:0.017751 20:0.026627 
0.6287290609848526 1:0.116625 2:0 3:0.044665 4:0.052109 5:0.044665 6:0.091811 7:0 8:0.111663 9:0.054591 10:0.094293 11:0.012407 12:0.022333 13:0.037221 14:0.029777 15:0.054591 16:0.047146 17:0.064516 18:0.104218 19:0.004963 20:0.012407 
0.4957634605668152 1:0.048523 2:0.010549 3:0.059072 4:0.040084 5:0.044304 6:0.063291 7:0.016878 8:0.061181 9:0.056962 10:0.092827 11:0.040084 12:0.044304 13:0.040084 14:0.027426 15:0.056962 16:0.07384 17:0.07173 18:0.078059 19:0.016878 20:0.056962 
1.737521220772138 1:0.057895 2:0.021053 3:0.047368 4:0.021053 5:0.142105 6:0.026316 7:0 8:0.052632 9:0.031579 10:0.115789 11:0.021053 12:0.015789 13:0.036842 14:0.010526 15:0.031579 16:0.226316 17:0.047368 18:0.068421 19:0.010526 20:0.015789 
4 1:0.054054 2:0.019459 3:0.025946 4:0.035676 5:0.071351 6:0.11027 7:0.027027 8:0.046486 9:0.048649 10:0.099459 11:0.020541 12:0.04973 13:0.059459 14:0.034595 15:0.038919 16:0.090811 17:0.078919 18:0.057297 19:0.005405 20:0.025946 
1.661614573778331 1:0.074257 2:0.089109 3:0.024752 4:0.049505 5:0.049505 6:0.123762 7:0.024752 8:0.074257 9:0.019802 10:0.143564 11:0.014851 12:0.034653 13:0.019802 14:0.034653 15:0.014851 16:0.069307 17:0.029703 18:0.054455 19:0.019802 20:0.034653 
4 1:0.063158 2:0.010526 3:0.066316 4:0.083158 5:0.061053 6:0.042105 7:0.016842 8:0.065263 9:0.067368 10:0.098947 11:0.025263 12:0.046316 13:0.031579 14:0.037895 15:0.052632 16:0.076842 17:0.054737 18:0.052632 19:0.009474 20:0.037895 
4 1:0.088757 2:0.017751 3:0.043393 4:0.051282 5:0.051282 6:0.057199 7:0.017751 8:0.061144 9:0.043393 10:0.118343 11:0.029586 12:0.04142 13:0.061144 14:0.033531 15:0.045365 16:0.08284 17:0.04931 18:0.061144 19:0.015779 20:0.029586 
3.156680262700557 1:0.065053 2:0.018154 3:0.049924 4:0.043873 5:0.027231 6:0.043873 7:0.016641 8:0.089259 9:0.057489 10:0.11649 11:0.025719 12:0.071104 13:0.024206 14:0.033283 15:0.024206 16:0.083207 17:0.086233 18:0.075643 19:0.015129 20:0.033283 
0.6014142911659593 1:0.024324 2:0.037838 3:0.037838 4:0.018919 5:0.054054 6:0.018919 7:0.016216 8:0.17027 9:0.045946 10:0.094595 11:0.02973 12:0.059459 13:0.024324 14:0.013514 15:0.051351 16:0.102703 17:0.067568 18:0.051351 19:0.008108 20:0.072973 
1.377407124552347 1:0.023256 2:0.03876 3:0.031008 4:0.007752 5:0.193798 6:0.023256 7:0.023256 8:0.108527 9:0.031008 10:0.116279 11:0.015504 12:0.03876 13:0.023256 14:0.03876 15:0.062016 16:0.069767 17:0.03876 18:0.093023 19:0.007752 20:0.015504 
1.388458419970498 1:0.088517 2:0.023923 3:0.016746 4:0.057416 5:0.04067 6:0.064593 7:0.009569 8:0.0311 9:0.016746 10:0.102871 11:0.028708 12:0.028708 13:0.076555 14:0.028708 15:0.074163 16:0.088517 17:0.045455 18:0.126794 19:0.019139 20:0.0311 
4 1:0.073887 2:0.018219 3:0.041498 4:0.062753 5:0.050607 6:0.076923 7:0.025304 8:0.047571 9:0.04251 10:0.11336 11:0.02834 12:0.015182 13:0.072874 14:0.045547 15:0.040486 16:0.076923 17:0.053644 18:0.073887 19:0.01417 20:0.026316 
3.210337497726242 1:0.066667 2:0.055556 3:0.040741 4:0.037037 5:0.048148 6:0.055556 7:0.037037 8:0.055556 9:0.055556 10:0.111111 11:0.011111 12:0.044444 13:0.048148 14:0.02963 15:0.059259 16:0.051852 17:0.044444 18:0.081481 19:0.025926 20:0.040741 
4 1:0.05042 2:0.019608 3:0.043417 4:0.067227 5:0.044818 6:0.042017 7:0.02381 8:0.088235 9:0.084034 10:0.09944 11:0.018908 12:0.060924 13:0.042717 14:0.035014 15:0.036415 16:0.084034 17:0.04972 18:0.062325 19:0.009804 20:0.037115 
0.7825207329769936 1:0.061497 2:0.026738 3:0.048128 4:0.064171 5:0.069519 6:0.024064 7:0.010695 8:0.069519 9:0.064171 10:0.106952 11:0.018717 12:0.045455 13:0.045455 14:0.040107 15:0.050802 16:0.090909 17:0.045455 18:0.042781 19:0.040107 20:0.034759 
1.418380136874659 1:0.09434 2:0.016173 3:0.043127 4:0.040431 5:0.072776 6:0.080863 7:0.016173 8:0.059299 9:0.037736 10:0.056604 11:0.040431 12:0.053908 13:0.040431 14:0.043127 15:0.061995 16:0.037736 17:0.056604 18:0.053908 19:0.018868 20:0.075472 
1.156369949221601 1:0.019685 2:0.015748 3:0.031496 4:0.043307 5:0.11811 6:0.055118 7:0.011811 8:0.114173 9:0.090551 10:0.173228 11:0.023622 12:0.043307 13:0.027559 14:0.003937 15:0.015748 16:0.047244 17:0.023622 18:0.066929 19:0.015748 20:0.059055 
0.6112893509762656 1:0.143333 2:0.033333 3:0.013333 4:0.01 5:0.05 6:0.113333 7:0.016667 8:0.016667 9:0.02 10:0.183333 11:0.003333 12:0.03 13:0.07 14:0.013333 15:0.05 16:0.066667 17:0.04 18:0.066667 19:0.026667 20:0.033333 
1.190847876329597 1:0.079681 2:0.003984 3:0.039841 4:0.059761 5:0.047809 6:0.039841 7:0.031873 8:0.083665 9:0.01992 10:0.119522 11:0.031873 12:0.043825 13:0.027888 14:0.039841 15:0.047809 16:0.063745 17:0.091633 18:0.059761 19:0.003984 20:0.063745 
2.812097474708503 1:0.079772 2:0.02849 3:0.039886 4:0.042735 5:0.019943 6:0.119658 7:0.034188 8:0.014245 9:0.019943 10:0.19943 11:0.008547 12:0.019943 13:0.088319 14:0.051282 15:0.039886 16:0.048433 17:0.037037 18:0.065527 19:0.022792 20:0.019943 
4 1:0.074364 2:0.019569 3:0.052838 4:0.062622 5:0.062622 6:0.072407 7:0.029354 8:0.058708 9:0.035225 10:0.093933 11:0.023483 12:0.035225 13:0.058708 14:0.021526 15:0.066536 16:0.052838 17:0.056751 18:0.064579 19:0.019569 20:0.039139 
4 1:0.059016 2:0.005738 3:0.052459 4:0.059836 5:0.039344 6:0.059836 7:0.016393 8:0.063934 9:0.064754 10:0.10082 11:0.019672 12:0.065574 13:0.040164 14:0.031148 15:0.046721 16:0.109836 17:0.077049 18:0.059016 19:0.004098 20:0.02459 
4 1:0.045817 2:0.01992 3:0.052789 4:0.040837 5:0.042829 6:0.061753 7:0.023904 8:0.065737 9:0.050797 10:0.100598 11:0.023904 12:0.050797 13:0.064741 14:0.033865 15:0.044821 16:0.104582 17:0.052789 18:0.068725 19:0.01494 20:0.035857 
0.9218862636093906 1:0.160338 2:0.004219 3:0.050633 4:0.008439 5:0.033755 6:0.084388 7:0.012658 8:0.059072 9:0.004219 10:0.139241 11:0.021097 12:0.004219 13:0.046414 14:0.008439 15:0.059072 16:0.025316 17:0.097046 18:0.109705 19:0.029536 20:0.042194 
2.131045143123817 1:0.097046 2:0.021097 3:0.046414 4:0.042194 5:0.063291 6:0.067511 7:0.004219 8:0.050633 9:0.042194 10:0.07173 11:0.008439 12:0.075949 13:0.016878 14:0.037975 15:0.033755 16:0.059072 17:0.097046 18:0.118143 19:0.004219 20:0.042194 
4 1:0.056747 2:0.02396 3:0.050441 4:0.058008 5:0.056747 6:0.037831 7:0.020177 8:0.056747 9:0.066835 10:0.132409 11:0.032787 12:0.04918 13:0.032787 14:0.03657 15:0.04918 16:0.081967 17:0.046658 18:0.059269 19:0.013871 20:0.037831 
0.5346026547217186 1:0.06051 2:0.035032 3:0.038217 4:0.009554 5:0.070064 6:0.038217 7:0.025478 8:0.066879 9:0.028662 10:0.175159 11:0.057325 12:0.035032 13:0.041401 14:0.031847 15:0.025478 16:0.095541 17:0.057325 18:0.06051 19:0.006369 20:0.041401 
3.794776228539838 1:0.079019 2:0.00545 3:0.065395 4:0.035422 5:0.046322 6:0.057221 7:0.016349 8:0.089918 9:0.032698 10:0.057221 11:0.016349 12:0.089918 13:0.043597 14:0.035422 15:0.049046 16:0.100817 17:0.073569 18:0.035422 19:0.019074 20:0.051771 
1.603588236655663 1:0.0875 2:0.0625 3:0.0375 4:0.0125 5:0.0125 6:0.05 7:0.025 8:0.1625 9:0.025 10:0.15 11:0.0125 12:0.05 13:0.075 14:0.0375 15:0 16:0.025 17:0.05 18:0.0625 19:0.0125 20:0.05 
0.03266956011617604 1:0.090625 2:0.003125 3:0.03125 4:0.065625 5:0.034375 6:0.046875 7:0.015625 8:0.1625 9:0.05 10:0.128125 11:0.03125 12:0.034375 13:0.0375 14:0.009375 15:0.025 16:0.075 17:0.04375 18:0.05625 19:0.01875 20:0.040625 
2.170191152416438 1:0.037369 2:0.023916 3:0.061286 4:0.056801 5:0.059791 6:0.035874 7:0.020927 8:0.06278 9:0.064275 10:0.133034 11:0.019432 12:0.064275 13:0.026906 14:0.019432 15:0.043348 16:0.103139 17:0.050822 18:0.064275 19:0.011958 20:0.040359 
4 1:0.077739 2:0.038869 3:0.048292 4:0.070671 5:0.038869 6:0.054181 7:0.03298 8:0.04947 9:0.060071 10:0.078916 11:0.024735 12:0.045936 13:0.040047 14:0.041225 15:0.051826 16:0.083628 17:0.058893 18:0.048292 19:0.010601 20:0.044759 
0.1064281167159896 1:0.062651 2:0.014458 3:0.040964 4:0.038554 5:0.063855 6:0.059036 7:0.019277 8:0.066265 9:0.03494 10:0.089157 11:0.027711 12:0.045783 13:0.044578 14:0.03253 15:0.051807 16:0.146988 17:0.051807 18:0.066265 19:0.007229 20:0.036145 
0.982082686770034 1:0.014205 2:0.022727 3:0.045455 4:0.053977 5:0.065341 6:0.039773 7:0.011364 8:0.127841 9:0.085227 10:0.116477 11:0.011364 12:0.045455 13:0.022727 14:0.028409 15:0.034091 16:0.096591 17:0.056818 18:0.039773 19:0.022727 20:0.059659 
4 1:0.081633 2:0.014577 3:0.039359 4:0.04519 5:0.034985 6:0.08309 7:0.017493 8:0.027697 9:0.026239 10:0.170554 11:0.021866 12:0.023324 13:0.046647 14:0.065598 15:0.062682 16:0.068513 17:0.04519 18:0.080175 19:0.017493 20:0.027697 
4 1:0.095279 2:0.026609 3:0.042918 4:0.052361 5:0.048069 6:0.064378 7:0.024893 8:0.04721 9:0.036052 10:0.117597 11:0.032618 12:0.03691 13:0.039485 14:0.04206 15:0.071245 16:0.060086 17:0.048069 18:0.072103 19:0.011159 20:0.030901 
1.785741020358101 1:0.03811 2:0.007622 3:0.042683 4:0.045732 5:0.059451 6:0.028963 7:0.016768 8:0.091463 9:0.067073 10:0.117378 11:0.022866 12:0.080793 13:0.018293 14:0.050305 15:0.02439 16:0.094512 17:0.102134 18:0.047256 19:0.016768 20:0.027439 
2.009518315796285 1:0.063492 2:0.025397 3:0.053968 4:0.063492 5:0.04127 6:0.053968 7:0.006349 8:0.095238 9:0.04127 10:0.098413 11:0.038095 12:0.038095 13:0.034921 14:0.025397 15:0.073016 16:0.107937 17:0.047619 18:0.044444 19:0.012698 20:0.034921 
0.6515359601754561 1:0.094225 2:0.024316 3:0.033435 4:0.036474 5:0.091185 6:0.051672 7:0.015198 8:0.042553 9:0.018237 10:0.100304 11:0.015198 12:0.042553 13:0.066869 14:0.072948 15:0.039514 16:0.088146 17:0.051672 18:0.069909 19:0.021277 20:0.024316 
3.778526609909775 1:0.030181 2:0.014085 3:0.054326 4:0.056338 5:0.064386 6:0.038229 7:0.01006 8:0.088531 9:0.074447 10:0.086519 11:0.022133 12:0.090543 13:0.036217 14:0.024145 15:0.042254 16:0.092555 17:0.066398 18:0.04829 19:0.014085 20:0.046278 
0.1976172492746401 1:0.075606 2:0.03709 3:0.031384 4:0.042796 5:0.064194 6:0.041369 7:0.012839 8:0.075606 9:0.054208 10:0.135521 11:0.018545 12:0.057061 13:0.054208 14:0.029957 15:0.034237 16:0.077033 17:0.0699 18:0.041369 19:0.008559 20:0.038516 
4 1:0.038869 2:0.010601 3:0.028269 4:0.113074 5:0.053004 6:0.028269 7:0.031802 8:0.091873 9:0.102473 10:0.102473 11:0.021201 12:0.028269 13:0.021201 14:0.045936 15:0.084806 16:0.053004 17:0.028269 18:0.060071 19:0.007067 20:0.04947 
1.346154468817782 1:0.126126 2:0.036036 3:0 4:0 5:0.099099 6:0.027027 7:0.045045 8:0.054054 9:0.045045 10:0.153153 11:0.009009 12:0.018018 13:0.018018 14:0.045045 15:0.099099 16:0.063063 17:0.072072 18:0.036036 19:0.018018 20:0.036036 
4 1:0.077083 2:0.014583 3:0.053125 4:0.042708 5:0.048958 6:0.079167 7:0.023958 8:0.045833 9:0.055208 10:0.103125 11:0.021875 12:0.040625 13:0.057292 14:0.029167 15:0.05 16:0.077083 17:0.05 18:0.065625 19:0.015625 20:0.048958 
1.224803149147101 1:0.041667 2:0.003788 3:0.034091 4:0.030303 5:0.05303 6:0.018939 7:0.034091 8:0.079545 9:0.026515 10:0.136364 11:0.026515 12:0.049242 13:0.07197 14:0.041667 15:0.056818 16:0.109848 17:0.056818 18:0.056818 19:0.022727 20:0.049242 
1.885042009249844 1:0.086991 2:0.010188 3:0.04232 4:0.061912 5:0.051724 6:0.076019 7:0.01489 8:0.07837 9:0.061129 10:0.089342 11:0.026646 12:0.043887 13:0.022727 14:0.045455 15:0.043887 16:0.070533 17:0.054075 18:0.080721 19:0.010188 20:0.028997 
4 1:0.036247 2:0.016347 3:0.046908 4:0.04833 5:0.061123 6:0.051173 7:0.02914 8:0.083866 9:0.075338 10:0.088842 11:0.0199 12:0.122246 13:0.026297 14:0.029851 15:0.024165 16:0.08742 17:0.056148 18:0.054016 19:0.007107 20:0.035537 
2.156075783265426 1:0.08596 2:0.002865 3:0.034384 4:0.063037 5:0.088825 6:0.048711 7:0.051576 8:0.057307 9:0.071633 10:0.097421 11:0.040115 12:0.045845 13:0.04298 14:0.034384 15:0.031519 16:0.028653 17:0.057307 18:0.051576 19:0.017192 20:0.048711 
4 1:0.061678 2:0.034539 3:0.044408 4:0.0625 5:0.032072 6:0.072368 7:0.023026 8:0.078125 9:0.063322 10:0.078947 11:0.015625 12:0.041941 13:0.027961 14:0.025493 15:0.04523 16:0.111842 17:0.066612 18:0.089638 19:0.004934 20:0.019737 
4 1:0.040498 2:0.018692 3:0.037383 4:0.063863 5:0.042056 6:0.042056 7:0.018692 8:0.084112 9:0.066978 10:0.124611 11:0.021807 12:0.066978 13:0.049844 14:0.034268 15:0.046729 16:0.066978 17:0.060748 18:0.060748 19:0.010903 20:0.042056 
0.514530390992558 1:0.043103 2:0 3:0.043103 4:0.043103 5:0.060345 6:0.094828 7:0.017241 8:0.146552 9:0 10:0.155172 11:0.025862 12:0.017241 13:0.025862 14:0.025862 15:0.077586 16:0.068966 17:0.034483 18:0.068966 19:0.017241 20:0.034483 
4 1:0.046053 2:0.016447 3:0.059211 4:0.088816 5:0.082237 6:0.049342 7:0.023026 8:0.075658 9:0.036184 10:0.095395 11:0.006579 12:0.039474 13:0.069079 14:0.032895 15:0.0625 16:0.049342 17:0.0625 18:0.069079 19:0.006579 20:0.029605 
4 1:0.057011 2:0.033898 3:0.03698 4:0.064715 5:0.047766 6:0.047766 7:0.024653 8:0.058552 9:0.057011 10:0.09245 11:0.024653 12:0.049307 13:0.05547 14:0.052388 15:0.047766 16:0.07396 17:0.057011 18:0.057011 19:0.023112 20:0.038521 
4 1:0.054591 2:0.016749 3:0.066377 4:0.065757 5:0.049007 6:0.060794 7:0.014268 8:0.060794 9:0.061414 10:0.094913 11:0.01861 12:0.057692 13:0.03536 14:0.031638 15:0.058933 16:0.075682 17:0.058313 18:0.07072 19:0.013027 20:0.03536 
4 1:0.05148 2:0.043758 3:0.043758 4:0.07722 5:0.052767 6:0.046332 7:0.029601 8:0.046332 9:0.05148 10:0.078507 11:0.027027 12:0.046332 13:0.055341 14:0.033462 15:0.048906 16:0.091377 17:0.063063 18:0.047619 19:0.018018 20:0.047619 
4 1:0.076233 2:0.008969 3:0.052317 4:0.041854 5:0.047833 6:0.073244 7:0.026906 8:0.043348 9:0.043348 10:0.061286 11:0.032885 12:0.082212 13:0.050822 14:0.037369 15:0.043348 16:0.103139 17:0.064275 18:0.058296 19:0.014948 20:0.037369 
2.451037377494568 1:0.074169 2:0.018542 3:0.046675 4:0.051151 5:0.059463 6:0.057545 7:0.017263 8:0.06266 9:0.058184 10:0.088235 11:0.025575 12:0.042199 13:0.04156 14:0.042199 15:0.044118 16:0.092072 17:0.061381 18:0.053708 19:0.014706 20:0.048593 
2.969534069536996 1:0.048544 2:0.009709 3:0.024272 4:0.048544 5:0.053398 6:0.048544 7:0.004854 8:0.087379 9:0.092233 10:0.11165 11:0.019417 12:0.063107 13:0.029126 14:0.067961 15:0.043689 16:0.097087 17:0.048544 18:0.058252 19:0.004854 20:0.038835 
1.405688342487058 1:0.12 2:0.017143 3:0.042857 4:0.025714 5:0.068571 6:0.065714 7:0.034286 8:0.025714 9:0.04 10:0.151429 11:0.02 12:0.014286 13:0.057143 14:0.02 15:0.054286 16:0.062857 17:0.042857 18:0.048571 19:0.031429 20:0.057143 
3.55773847857007 1:0.074919 2:0.016287 3:0.032573 4:0.039088 5:0.04886 6:0.084691 7:0.003257 8:0.065147 9:0.087948 10:0.074919 11:0.045603 12:0.045603 13:0.042345 14:0.032573 15:0.045603 16:0.065147 17:0.058632 18:0.084691 19:0.009772 20:0.042345 
1.162774486002743 1:0.040958 2:0.016229 3:0.054869 4:0.064915 5:0.055641 6:0.027048 7:0.020866 8:0.078053 9:0.056414 10:0.131376 11:0.021638 12:0.046368 13:0.028594 14:0.03864 15:0.044822 16:0.103555 17:0.056414 18:0.061824 19:0.01391 20:0.037867 
0.08613000043178318 1:0.104348 2:0.034783 3:0.043478 4:0.026087 5:0.086957 6:0.034783 7:0.026087 8:0.06087 9:0.052174 10:0.13913 11:0.017391 12:0.052174 13:0.026087 14:0.026087 15:0.017391 16:0.069565 17:0.052174 18:0.104348 19:0 20:0.026087 
4 1:0.036975 2:0.053782 3:0.047059 4:0.057143 5:0.057143 6:0.053782 7:0.023529 8:0.058824 9:0.060504 10:0.080672 11:0.013445 12:0.040336 13:0.058824 14:0.043697 15:0.063866 16:0.068908 17:0.055462 18:0.065546 19:0.015126 20:0.045378 
4 1:0.057355 2:0.020243 3:0.062078 4:0.056005 5:0.047233 6:0.067476 7:0.027665 8:0.05803 9:0.061404 10:0.069501 11:0.027665 12:0.049933 13:0.048583 14:0.033063 15:0.048583 16:0.10054 17:0.047908 18:0.066802 19:0.012821 20:0.037112 
1.126664514428991 1:0.096491 2:0.039474 3:0.04386 4:0.02193 5:0.065789 6:0.092105 7:0.004386 8:0.074561 9:0.065789 10:0.070175 11:0.030702 12:0.035088 13:0.02193 14:0.013158 15:0.013158 16:0.100877 17:0.087719 18:0.061404 19:0.02193 20:0.039474 
1.119504865938988 1:0.055556 2:0.008547 3:0.042735 4:0.064103 5:0.064103 6:0.08547 7:0.008547 8:0.081197 9:0.051282 10:0.076923 11:0.025641 12:0.034188 13:0.042735 14:0.017094 15:0.025641 16:0.064103 17:0.059829 18:0.115385 19:0.017094 20:0.059829 
4 1:0.054455 2:0.011551 3:0.036304 4:0.036304 5:0.041254 6:0.125413 7:0.036304 8:0.062706 9:0.037954 10:0.070957 11:0.034653 12:0.041254 13:0.064356 14:0.041254 15:0.051155 16:0.070957 17:0.054455 18:0.084158 19:0.011551 20:0.033003 
4 1:0.058929 2:0.019643 3:0.042857 4:0.05 5:0.064286 6:0.060714 7:0.035714 8:0.05 9:0.067857 10:0.1125 11:0.026786 12:0.023214 13:0.041071 14:0.026786 15:0.053571 16:0.076786 17:0.076786 18:0.073214 19:0.014286 20:0.025 
4 1:0.079937 2:0.029781 3:0.029781 4:0.056426 5:0.029781 6:0.084639 7:0.051724 8:0.018809 9:0.012539 10:0.125392 11:0.014107 12:0.017241 13:0.07837 14:0.03605 15:0.07837 16:0.094044 17:0.053292 18:0.059561 19:0.020376 20:0.029781 
1.008928880737917 1:0.041176 2:0 3:0.011765 4:0.047059 5:0.082353 6:0.070588 7:0 8:0.194118 9:0.105882 10:0.117647 11:0.017647 12:0.035294 13:0.011765 14:0.005882 15:0.041176 16:0.052941 17:0.047059 18:0.047059 19:0.005882 20:0.064706 
0.5372121091356096 1:0.146245 2:0.003953 3:0.011858 4:0.019763 5:0.067194 6:0.134387 7:0.019763 8:0.083004 9:0.01581 10:0.090909 11:0.01581 12:0.055336 13:0.047431 14:0.003953 15:0.019763 16:0.059289 17:0.067194 18:0.098814 19:0.019763 20:0.019763 
4 1:0.037572 2:0.021195 3:0.058767 4:0.085742 5:0.047206 6:0.024085 7:0.021195 8:0.086705 9:0.065511 10:0.124277 11:0.021195 12:0.046243 13:0.033719 14:0.043353 15:0.035645 16:0.096339 17:0.047206 18:0.069364 19:0.007707 20:0.026975 
0.838578262603195 1:0.086124 2:0.033493 3:0.028708 4:0.028708 5:0.057416 6:0.055024 7:0.014354 8:0.052632 9:0.043062 10:0.074163 11:0.038278 12:0.04067 13:0.055024 14:0.035885 15:0.057416 16:0.090909 17:0.064593 18:0.083732 19:0.035885 20:0.023923 
0.2370313758476364 1:0.073733 2:0.009217 3:0 4:0.018433 5:0.0553 6:0.046083 7:0.004608 8:0.082949 9:0.0553 10:0.179724 11:0.02765 12:0.032258 13:0.046083 14:0.036866 15:0.036866 16:0.092166 17:0.032258 18:0.087558 19:0.013825 20:0.069124 
2.290719629246401 1:0.036842 2:0.014035 3:0.033333 4:0.054386 5:0.064912 6:0.038596 7:0.02807 8:0.1 9:0.057895 10:0.124561 11:0.010526 12:0.075439 13:0.049123 14:0.014035 15:0.045614 16:0.092982 17:0.05614 18:0.038596 19:0.010526 20:0.054386 
4 1:0.057377 2:0.013661 3:0.062842 4:0.054645 5:0.032787 6:0.030055 7:0.02459 8:0.04918 9:0.04918 10:0.139344 11:0.030055 12:0.032787 13:0.040984 14:0.027322 15:0.046448 16:0.10929 17:0.071038 18:0.062842 19:0.019126 20:0.046448 
4 1:0.107001 2:0.021136 3:0.046235 4:0.046235 5:0.046235 6:0.114927 7:0.023778 8:0.047556 9:0.029062 10:0.080581 11:0.018494 12:0.025099 13:0.128137 14:0.023778 15:0.05284 16:0.048877 17:0.046235 18:0.050198 19:0.015852 20:0.027741 
1.912307665301423 1:0.122378 2:0.02972 3:0.027972 4:0.045455 5:0.047203 6:0.11014 7:0.015734 8:0.026224 9:0.027972 10:0.094406 11:0.013986 12:0.015734 13:0.062937 14:0.017483 15:0.078671 16:0.085664 17:0.038462 18:0.103147 19:0.015734 20:0.020979 
4 1:0.068433 2:0.015453 3:0.048565 4:0.059603 5:0.055188 6:0.081678 7:0.013245 8:0.065121 9:0.060706 10:0.080574 11:0.027594 12:0.045254 13:0.03532 14:0.04415 15:0.049669 16:0.077263 17:0.050773 18:0.066225 19:0.016556 20:0.038631 
4 1:0.071143 2:0.016787 3:0.059952 4:0.06235 5:0.059952 6:0.051958 7:0.017586 8:0.067146 9:0.06235 10:0.094325 11:0.020783 12:0.047162 13:0.027978 14:0.043165 15:0.057554 16:0.055156 17:0.067146 18:0.059153 19:0.015188 20:0.043165 
4 1:0.077787 2:0.025929 3:0.042351 4:0.067416 5:0.055315 6:0.05618 7:0.020743 8:0.06223 9:0.06828 10:0.110631 11:0.038029 12:0.036301 13:0.041487 14:0.028522 15:0.039758 16:0.050994 17:0.067416 18:0.072602 19:0.0121 20:0.025929 
4 1:0.072951 2:0.016393 3:0.053279 4:0.07459 5:0.039344 6:0.077869 7:0.013934 8:0.069672 9:0.061475 10:0.090984 11:0.02459 12:0.038525 13:0.048361 14:0.042623 15:0.046721 16:0.057377 17:0.063115 18:0.080328 19:0.009836 20:0.018033 
4 1:0.096443 2:0.028458 3:0.042688 4:0.06166 5:0.045059 6:0.075099 7:0.03004 8:0.04585 9:0.039526 10:0.100395 11:0.028458 12:0.041897 13:0.040316 14:0.051383 15:0.066403 16:0.057708 17:0.037945 18:0.07668 19:0.008696 20:0.025296 
4 1:0.095975 2:0.026316 3:0.05418 4:0.043344 5:0.04644 6:0.091331 7:0.01548 8:0.040248 9:0.03096 10:0.109907 11:0.018576 12:0.02322 13:0.047988 14:0.040248 15:0.080495 16:0.055728 17:0.044892 18:0.083591 19:0.013932 20:0.037152 
4 1:0.093697 2:0.017888 3:0.056218 4:0.043441 5:0.035775 6:0.087734 7:0.016184 8:0.043441 9:0.045145 10:0.096252 11:0.024702 12:0.030664 13:0.051959 14:0.041738 15:0.051107 16:0.082624 17:0.075809 18:0.07155 19:0.00937 20:0.024702 
1.736256109880305 1:0.221311 2:0 3:0 4:0.008197 5:0.02459 6:0.122951 7:0 8:0.07377 9:0.02459 10:0.081967 11:0.04918 12:0.008197 13:0.016393 14:0.008197 15:0.02459 16:0.139344 17:0.057377 18:0.131148 19:0 20:0.008197 
0.6378623657424947 1:0.09596 2:0.005051 3:0.050505 4:0.055556 5:0.050505 6:0.075758 7:0.005051 8:0.15404 9:0.085859 10:0.093434 11:0.017677 12:0.017677 13:0.04798 14:0.020202 15:0.025253 16:0.04798 17:0.05303 18:0.068182 19:0.005051 20:0.025253 
0.9964379800989835 1:0.157459 2:0.024862 3:0.030387 4:0.030387 5:0.033149 6:0.077348 7:0.016575 8:0.013812 9:0.01105 10:0.176796 11:0.005525 12:0.008287 13:0.060773 14:0.035912 15:0.09116 16:0.085635 17:0.044199 18:0.063536 19:0.01105 20:0.022099 
4 1:0.078261 2:0.010435 3:0.055652 4:0.071304 5:0.041739 6:0.06087 7:0.015652 8:0.052174 9:0.043478 10:0.121739 11:0.031304 12:0.029565 13:0.045217 14:0.041739 15:0.062609 16:0.053913 17:0.048696 18:0.066087 19:0.017391 20:0.052174 
0.6358963198032116 1:0.065574 2:0.02459 3:0.02459 4:0.077869 5:0.053279 6:0.07377 7:0.016393 8:0.090164 9:0.040984 10:0.110656 11:0.028689 12:0.028689 13:0.045082 14:0.020492 15:0.028689 16:0.118852 17:0.061475 18:0.057377 19:0.008197 20:0.02459 
4 1:0.076109 2:0.020516 3:0.044341 4:0.060225 5:0.054269 6:0.062872 7:0.023825 8:0.052283 9:0.05096 10:0.090007 11:0.031105 12:0.045665 13:0.034414 14:0.035076 15:0.046327 16:0.07677 17:0.050298 18:0.076109 19:0.017869 20:0.05096 
1.881310747762274 1:0.060185 2:0.00463 3:0.027778 4:0.060185 5:0.037037 6:0.069444 7:0.009259 8:0.069444 9:0.013889 10:0.064815 11:0.00463 12:0.009259 13:0.041667 14:0.009259 15:0.023148 16:0.134259 17:0.217593 18:0.106481 19:0 20:0.037037 
0.1229040480693961 1:0.102564 2:0.021368 3:0.029915 4:0.029915 5:0.08547 6:0.042735 7:0.012821 8:0.042735 9:0.029915 10:0.132479 11:0.029915 12:0.042735 13:0.068376 14:0.047009 15:0.034188 16:0.098291 17:0.055556 18:0.059829 19:0.017094 20:0.017094 
4 1:0.052 2:0.009333 3:0.061333 4:0.046667 5:0.056 6:0.062667 7:0.025333 8:0.076 9:0.058667 10:0.101333 11:0.024 12:0.050667 13:0.041333 14:0.033333 15:0.032 16:0.093333 17:0.06 18:0.058667 19:0.017333 20:0.04 
4 1:0.066132 2:0.036072 3:0.056112 4:0.046092 5:0.044088 6:0.058116 7:0.026052 8:0.0501 9:0.04008 10:0.118236 11:0.026052 12:0.032064 13:0.056112 14:0.034068 15:0.044088 16:0.074148 17:0.046092 18:0.086172 19:0.024048 20:0.036072 
2.968075949767698 1:0.054575 2:0.014446 3:0.051364 4:0.051364 5:0.067416 6:0.057785 7:0.022472 8:0.065811 9:0.064205 10:0.102729 11:0.022472 12:0.044944 13:0.041734 14:0.040128 15:0.044944 16:0.060995 17:0.060995 18:0.064205 19:0.017657 20:0.049759 
4 1:0.042269 2:0.010011 3:0.051168 4:0.091212 5:0.041157 6:0.031146 7:0.028921 8:0.064516 9:0.05673 10:0.121246 11:0.012236 12:0.054505 13:0.03782 14:0.048943 15:0.051168 16:0.116796 17:0.048943 18:0.043382 19:0.011123 20:0.036707 
3.090628720250913 1:0.091603 2:0 3:0.045802 4:0.083969 5:0.022901 6:0.076336 7:0.007634 8:0.114504 9:0.083969 10:0.068702 11:0.030534 12:0.038168 13:0.076336 14:0.007634 15:0.038168 16:0.030534 17:0.030534 18:0.122137 19:0 20:0.030534 
1.170790657967944 1:0.04 2:0.01 3:0.04 4:0.08 5:0.02 6:0.05 7:0.01 8:0.16 9:0.06 10:0.1 11:0.01 12:0.03 13:0.07 14:0.01 15:0.05 16:0.07 17:0.04 18:0.11 19:0.02 20:0.02 
0.01175236206573734 1:0.033445 2:0.023411 3:0.053512 4:0.036789 5:0.046823 6:0.070234 7:0.033445 8:0.073579 9:0.036789 10:0.133779 11:0.020067 12:0.053512 13:0.0301 14:0.0301 15:0.046823 16:0.123746 17:0.036789 18:0.056856 19:0.016722 20:0.043478 
0.687453118088508 1:0.075188 2:0.022556 3:0.022556 4:0.037594 5:0.052632 6:0.06015 7:0.037594 8:0.075188 9:0.030075 10:0.090226 11:0.037594 12:0.045113 13:0.075188 14:0.030075 15:0.022556 16:0.075188 17:0.067669 18:0.097744 19:0.015038 20:0.030075 
1.001332408327607 1:0.057971 2:0 3:0.021739 4:0.014493 5:0.166667 6:0.115942 7:0.007246 8:0.123188 9:0.036232 10:0.152174 11:0.014493 12:0.014493 13:0.043478 14:0.021739 15:0.043478 16:0.036232 17:0.043478 18:0.065217 19:0.014493 20:0.007246 
2.092658091046952 1:0.070953 2:0.008869 3:0.050998 4:0.037694 5:0.055432 6:0.039911 7:0.013304 8:0.053215 9:0.068736 10:0.086475 11:0.035477 12:0.062084 13:0.050998 14:0.02439 15:0.042129 16:0.073171 17:0.086475 18:0.077605 19:0.019956 20:0.042129 
4 1:0.073327 2:0.014665 3:0.064161 4:0.055912 5:0.047663 6:0.065995 7:0.018332 8:0.074244 9:0.057745 10:0.082493 11:0.026581 12:0.054995 13:0.033914 14:0.025665 15:0.03758 16:0.086159 17:0.063245 18:0.079743 19:0.014665 20:0.022915 
4 1:0.040724 2:0.037707 3:0.054299 4:0.063348 5:0.036199 6:0.051282 7:0.016591 8:0.06184 9:0.06184 10:0.110106 11:0.019608 12:0.063348 13:0.040724 14:0.040724 15:0.039216 16:0.075415 17:0.064857 18:0.05279 19:0.022624 20:0.046757 
4 1:0.038596 2:0.002005 3:0.031579 4:0.036591 5:0.052632 6:0.035088 7:0.014035 8:0.062155 9:0.094737 10:0.112782 11:0.015539 12:0.084211 13:0.040602 14:0.05213 15:0.062657 16:0.078697 17:0.087719 18:0.042105 19:0.015038 20:0.041103 
4 1:0.052142 2:0.026071 3:0.03352 4:0.063315 5:0.039106 6:0.040968 7:0.020484 8:0.05959 9:0.063315 10:0.094972 11:0.040968 12:0.05959 13:0.054004 14:0.020484 15:0.065177 16:0.05959 17:0.078212 18:0.063315 19:0.013035 20:0.052142 
4 1:0.091205 2:0.021716 3:0.058632 4:0.068404 5:0.053203 6:0.096634 7:0.018458 8:0.051031 9:0.038002 10:0.103149 11:0.014115 12:0.021716 13:0.045603 14:0.024973 15:0.052117 16:0.053203 17:0.052117 18:0.091205 19:0.014115 20:0.030402 
4 1:0.057292 2:0.018229 3:0.0625 4:0.059896 5:0.075521 6:0.052083 7:0.054688 8:0.03125 9:0.070313 10:0.119792 11:0.023438 12:0.033854 13:0.046875 14:0.018229 15:0.026042 16:0.046875 17:0.054688 18:0.0625 19:0.023438 20:0.0625 
1.621846459576319 1:0.116319 2:0.013889 3:0.019097 4:0.048611 5:0.059028 6:0.090278 7:0.026042 8:0.059028 9:0.043403 10:0.078125 11:0.038194 12:0.039931 13:0.048611 14:0.036458 15:0.019097 16:0.0625 17:0.064236 18:0.064236 19:0.03125 20:0.041667 
4 1:0.051601 2:0.02669 3:0.05694 4:0.032028 5:0.062278 6:0.065836 7:0.012456 8:0.074733 9:0.053381 10:0.087189 11:0.030249 12:0.069395 13:0.060498 14:0.037367 15:0.023132 16:0.065836 17:0.069395 18:0.069395 19:0.010676 20:0.040925 
4 1:0.035256 2:0.010684 3:0.047009 4:0.060897 5:0.068376 6:0.029915 7:0.026709 8:0.057692 9:0.084402 10:0.106838 11:0.014957 12:0.082265 13:0.030983 14:0.037393 15:0.034188 16:0.128205 17:0.065171 18:0.050214 19:0.002137 20:0.026709 
0.08113764818675706 1:0.084746 2:0.016949 3:0 4:0.016949 5:0.084746 6:0.067797 7:0.016949 8:0.144068 9:0.025424 10:0.144068 11:0.076271 12:0.050847 13:0.025424 14:0.025424 15:0.016949 16:0.067797 17:0.067797 18:0.050847 19:0 20:0.016949 
4 1:0.083238 2:0.010262 3:0.052452 4:0.036488 5:0.047891 6:0.059293 7:0.023945 8:0.079818 9:0.04675 10:0.082098 11:0.014823 12:0.04333 13:0.063854 14:0.022805 15:0.04675 16:0.079818 17:0.059293 18:0.099202 19:0.009122 20:0.038769 
4 1:0.118705 2:0.017986 3:0.052758 4:0.043165 5:0.027578 6:0.063549 7:0.017986 8:0.044365 9:0.034772 10:0.088729 11:0.021583 12:0.05036 13:0.047962 14:0.065947 15:0.043165 16:0.082734 17:0.080336 18:0.067146 19:0.010791 20:0.020384 
2.019172648524163 1:0.086134 2:0.006303 3:0.039916 4:0.063025 5:0.031513 6:0.142857 7:0.134454 8:0.029412 9:0.02521 10:0.117647 11:0.012605 12:0.008403 13:0.042017 14:0.016807 15:0.037815 16:0.079832 17:0.039916 18:0.067227 19:0.012605 20:0.006303 
1.608867202593865 1:0.164905 2:0.031712 3:0.048626 4:0.02537 5:0.042283 6:0.073996 7:0.006342 8:0.040169 9:0.016913 10:0.109937 11:0.016913 12:0.023256 13:0.095137 14:0.016913 15:0.080338 16:0.069767 17:0.033827 18:0.065539 19:0.019027 20:0.019027 
3.103218198234774 1:0.038055 2:0.006342 3:0.063425 4:0.046512 5:0.057082 6:0.038055 7:0.023256 8:0.054968 9:0.044397 10:0.095137 11:0.044397 12:0.029598 13:0.05074 14:0.031712 15:0.073996 16:0.090909 17:0.071882 18:0.071882 19:0.02537 20:0.042283 
4 1:0.073052 2:0.006494 3:0.04789 4:0.076299 5:0.043831 6:0.073864 7:0.030844 8:0.038149 9:0.040584 10:0.12987 11:0.018669 12:0.012987 13:0.091721 14:0.027597 15:0.066558 16:0.077922 17:0.049513 18:0.068182 19:0.010552 20:0.015422 
4 1:0.069272 2:0.017762 3:0.071048 4:0.095915 5:0.042629 6:0.053286 7:0.008881 8:0.042629 9:0.072824 10:0.087034 11:0.023091 12:0.058615 13:0.031972 14:0.05151 15:0.044405 16:0.053286 17:0.058615 18:0.081705 19:0.012433 20:0.023091 
1.483429821323028 1:0.190909 2:0 3:0.022727 4:0.022727 5:0.059091 6:0.177273 7:0 8:0.095455 9:0.027273 10:0.122727 11:0.031818 12:0.013636 13:0.031818 14:0.027273 15:0.004545 16:0.036364 17:0.040909 18:0.081818 19:0.004545 20:0.009091 
0.2910922321510054 1:0.076923 2:0.032967 3:0.010989 4:0.032967 5:0.098901 6:0.142857 7:0.021978 8:0.131868 9:0.043956 10:0.131868 11:0.010989 12:0.021978 13:0.010989 14:0.021978 15:0 16:0.032967 17:0.043956 18:0.076923 19:0.021978 20:0.032967 
-2.341314180144722 1:0.058052 2:0.014981 3:0.052434 4:0.052434 5:0.041199 6:0.069288 7:0.037453 8:0.086142 9:0.059925 10:0.095506 11:0.016854 12:0.073034 13:0.035581 14:0.026217 15:0.02809 16:0.088015 17:0.078652 18:0.052434 19:0.003745 20:0.029963 
-0.01358291413891169 1:0 2:0 3:0.077922 4:0.064935 5:0.012987 6:0.077922 7:0.012987 8:0.116883 9:0.051948 10:0.077922 11:0.025974 12:0.051948 13:0.038961 14:0.012987 15:0.142857 16:0.090909 17:0.025974 18:0.051948 19:0.025974 20:0.038961 
-0.07015318643209843 1:0.095238 2:0 3:0.047619 4:0.142857 5:0 6:0.047619 7:0 8:0.047619 9:0.095238 10:0 11:0 12:0.047619 13:0 14:0.047619 15:0.047619 16:0.190476 17:0.095238 18:0.095238 19:0 20:0 
-0.4045533273939154 1:0.106227 2:0 3:0.03663 4:0.043956 5:0.054945 6:0.120879 7:0.010989 8:0.051282 9:0.054945 10:0.113553 11:0.025641 12:0.03663 13:0.062271 14:0.043956 15:0.03663 16:0.069597 17:0.040293 18:0.040293 19:0.018315 20:0.032967 
-0.1874232646789363 1:0.162162 2:0 3:0.027027 4:0 5:0.027027 6:0.054054 7:0 8:0.081081 9:0 10:0.216216 11:0.054054 12:0.027027 13:0.027027 14:0.027027 15:0.135135 16:0.081081 17:0 18:0.054054 19:0.027027 20:0 
-0.1015100409677998 1:0.082353 2:0.023529 3:0.047059 4:0.082353 5:0.035294 6:0.082353 7:0.011765 8:0.070588 9:0.070588 10:0.035294 11:0.035294 12:0.129412 13:0.023529 14:0.035294 15:0.011765 16:0.070588 17:0.058824 18:0.070588 19:0.011765 20:0.011765 
-0.7463211851302053 1:0.06044 2:0.027473 3:0.06044 4:0.032967 5:0.043956 6:0.043956 7:0 8:0.049451 9:0.098901 10:0.098901 11:0.010989 12:0.032967 13:0.038462 14:0.016484 15:0.032967 16:0.131868 17:0.082418 18:0.10989 19:0.016484 20:0.010989 
-0.1195095618128109 1:0.266667 2:0 3:0.066667 4:0.066667 5:0 6:0 7:0 8:0 9:0.066667 10:0.2 11:0 12:0 13:0 14:0.066667 15:0 16:0.066667 17:0.133333 18:0.066667 19:0 20:0 
-0.6219787468409368 1:0.075107 2:0.008584 3:0.055794 4:0.066524 5:0.049356 6:0.055794 7:0.012876 8:0.060086 9:0.05794 10:0.096567 11:0.025751 12:0.034335 13:0.053648 14:0.040773 15:0.049356 16:0.092275 17:0.040773 18:0.079399 19:0.008584 20:0.036481 
-0.1111998383479531 1:0 2:0.041667 3:0.208333 4:0.083333 5:0.083333 6:0.041667 7:0.041667 8:0.041667 9:0.083333 10:0 11:0.083333 12:0 13:0.083333 14:0 15:0 16:0 17:0.041667 18:0.083333 19:0.083333 20:0 
-0.01271030252064478 1:0.09375 2:0.052083 3:0.114583 4:0.125 5:0.041667 6:0.0625 7:0.010417 8:0.041667 9:0.041667 10:0.052083 11:0 12:0 13:0.03125 14:0.03125 15:0.010417 16:0.083333 17:0.0625 18:0.104167 19:0 20:0.041667 
-3.167498790363815 1:0.060209 2:0.015707 3:0.060209 4:0.057592 5:0.036649 6:0.068063 7:0.02356 8:0.044503 9:0.04712 10:0.099476 11:0.031414 12:0.036649 13:0.039267 14:0.020942 15:0.081152 16:0.08377 17:0.081152 18:0.073298 19:0.02356 20:0.015707 
-0.00353719704781559 1:0.082803 2:0 3:0.031847 4:0.095541 5:0.038217 6:0.012739 7:0 8:0.095541 9:0.082803 10:0.127389 11:0.025478 12:0.050955 13:0.006369 14:0.101911 15:0.019108 16:0.089172 17:0.044586 18:0.031847 19:0 20:0.063694 
-0.4664601483409682 1:0.056338 2:0 3:0.014085 4:0.112676 5:0.042254 6:0.056338 7:0 8:0.084507 9:0.056338 10:0.042254 11:0.014085 12:0.084507 13:0.014085 14:0.028169 15:0.070423 16:0.098592 17:0.070423 18:0.098592 19:0.014085 20:0.042254 
-0.6681643565339571 1:0.08776 2:0.013857 3:0.057737 4:0.071594 5:0.053118 6:0.076212 7:0.018476 8:0.073903 9:0.080831 10:0.078522 11:0.020785 12:0.034642 13:0.034642 14:0.018476 15:0.039261 16:0.053118 17:0.073903 18:0.057737 19:0.018476 20:0.036952 
-0.4207916015087433 1:0.067164 2:0.027363 3:0.054726 4:0.059701 5:0.032338 6:0.09204 7:0.007463 8:0.059701 9:0.052239 10:0.094527 11:0.012438 12:0.042289 13:0.037313 14:0.052239 15:0.042289 16:0.084577 17:0.052239 18:0.077114 19:0.007463 20:0.044776 
-4 1:0.074074 2:0.031746 3:0.042328 4:0.047619 5:0.058201 6:0.058201 7:0.005291 8:0.058201 9:0.05291 10:0.074074 11:0.031746 12:0.042328 13:0.058201 14:0.042328 15:0.042328 16:0.111111 17:0.037037 18:0.074074 19:0.021164 20:0.037037 
-1.265421407704008 1:0.101887 2:0.003774 3:0.056604 4:0.041509 5:0.067925 6:0.113208 7:0.011321 8:0.026415 9:0.049057 10:0.101887 11:0.030189 12:0.05283 13:0.064151 14:0.026415 15:0.026415 16:0.045283 17:0.045283 18:0.083019 19:0.022642 20:0.030189 
-0.9903834877982519 1:0.073892 2:0.014778 3:0.064039 4:0.073892 5:0.024631 6:0.078818 7:0.014778 8:0.08867 9:0.044335 10:0.083744 11:0.054187 12:0.034483 13:0.044335 14:0.034483 15:0.044335 16:0.049261 17:0.029557 18:0.08867 19:0.009852 20:0.049261 
-1.098734345745106 1:0.088983 2:0.033898 3:0.04661 4:0.067797 5:0.055085 6:0.072034 7:0.004237 8:0.04661 9:0.059322 10:0.088983 11:0.016949 12:0.067797 13:0.038136 14:0.025424 15:0.055085 16:0.072034 17:0.059322 18:0.084746 19:0 20:0.016949 
-0.06824235137151356 1:0.091892 2:0.005405 3:0.048649 4:0.043243 5:0.032432 6:0.032432 7:0.010811 8:0.108108 9:0.097297 10:0.124324 11:0.021622 12:0.048649 13:0.016216 14:0.054054 15:0.016216 16:0.102703 17:0.086486 18:0.043243 19:0 20:0.016216 
-3.999940344264059 1:0.066298 2:0.027624 3:0.033149 4:0.055249 5:0.049724 6:0.060773 7:0.022099 8:0.060773 9:0.071823 10:0.071823 11:0.027624 12:0.044199 13:0.071823 14:0.027624 15:0.038674 16:0.088398 17:0.049724 18:0.066298 19:0.022099 20:0.044199 
-0.1201434466330514 1:0.25 2:0 3:0 4:0.083333 5:0.083333 6:0.166667 7:0 8:0 9:0 10:0 11:0 12:0.083333 13:0.083333 14:0 15:0 16:0.083333 17:0 18:0.083333 19:0 20:0.083333 
-0.1671932520291647 1:0.072464 2:0.021739 3:0.050725 4:0.057971 5:0.050725 6:0.043478 7:0.014493 8:0.057971 9:0.065217 10:0.072464 11:0.014493 12:0.057971 13:0.057971 14:0.050725 15:0.057971 16:0.065217 17:0.043478 18:0.065217 19:0.021739 20:0.057971 
-2.759121332366798 1:0.069767 2:0.023256 3:0.05168 4:0.067183 5:0.041344 6:0.087855 7:0.01292 8:0.049096 9:0.069767 10:0.105943 11:0.023256 12:0.033592 13:0.03876 14:0.023256 15:0.03876 16:0.085271 17:0.069767 18:0.072351 19:0.005168 20:0.031008 
-4 1:0.109051 2:0.017448 3:0.056707 4:0.050164 5:0.033806 6:0.070883 7:0.02072 8:0.057797 9:0.04253 10:0.091603 11:0.022901 12:0.035987 13:0.039258 14:0.037077 15:0.057797 16:0.087241 17:0.050164 18:0.081788 19:0.011996 20:0.025082 
-1.166270884338765 1:0.101215 2:0.02834 3:0.044534 4:0.032389 5:0.040486 6:0.089069 7:0.020243 8:0.040486 9:0.044534 10:0.11336 11:0.024291 12:0.048583 13:0.064777 14:0.02834 15:0.032389 16:0.072874 17:0.076923 18:0.064777 19:0.016194 20:0.016194 
-0.7435400852130855 1:0.138889 2:0 3:0.027778 4:0 5:0.027778 6:0.027778 7:0 8:0.083333 9:0.027778 10:0.138889 11:0.055556 12:0.027778 13:0.027778 14:0.055556 15:0.083333 16:0.083333 17:0.027778 18:0.111111 19:0.027778 20:0.027778 
-1.635823840363607 1:0.060827 2:0.019465 3:0.053528 4:0.065693 5:0.043796 6:0.053528 7:0.012165 8:0.053528 9:0.058394 10:0.099757 11:0.012165 12:0.053528 13:0.055961 14:0.038929 15:0.053528 16:0.082725 17:0.065693 18:0.068127 19:0.014599 20:0.034063 
-0.1068533120594595 1:0.066667 2:0.005556 3:0.022222 4:0.088889 5:0.038889 6:0.055556 7:0.016667 8:0.072222 9:0.055556 10:0.127778 11:0.022222 12:0.077778 13:0.005556 14:0.055556 15:0.077778 16:0.061111 17:0.061111 18:0.061111 19:0.005556 20:0.022222 
-3.272526397817573 1:0.067797 2:0 3:0.055085 4:0.067797 5:0.042373 6:0.042373 7:0.016949 8:0.084746 9:0.080508 10:0.097458 11:0.025424 12:0.072034 13:0.025424 14:0.021186 15:0.038136 16:0.084746 17:0.055085 18:0.067797 19:0.004237 20:0.050847 
-0.5102415622933496 1:0.083333 2:0.038889 3:0.033333 4:0.044444 5:0.038889 6:0.072222 7:0.005556 8:0.038889 9:0.066667 10:0.061111 11:0.027778 12:0.022222 13:0.044444 14:0.061111 15:0.033333 16:0.094444 17:0.077778 18:0.083333 19:0.027778 20:0.044444 
-1.03058731165516 1:0.095361 2:0.012887 3:0.059278 4:0.046392 5:0.033505 6:0.128866 7:0.010309 8:0.07732 9:0.051546 10:0.085052 11:0.023196 12:0.030928 13:0.033505 14:0.018041 15:0.041237 16:0.090206 17:0.043814 18:0.090206 19:0.005155 20:0.023196 
-2.381373393492632 1:0.092896 2:0.032787 3:0.054645 4:0.032787 5:0.054645 6:0.032787 7:0.005464 8:0.038251 9:0.04918 10:0.054645 11:0.043716 12:0.071038 13:0.065574 14:0.060109 15:0.054645 16:0.065574 17:0.065574 18:0.065574 19:0.021858 20:0.038251 
-0.3987622888110483 1:0.054945 2:0.032967 3:0.032967 4:0.071429 5:0.043956 6:0.082418 7:0.010989 8:0.054945 9:0.082418 10:0.065934 11:0.032967 12:0.027473 13:0.016484 14:0.054945 15:0.098901 16:0.076923 17:0.032967 18:0.087912 19:0.005495 20:0.032967 
-2.271859888463452 1:0.07563 2:0.058824 3:0.033613 4:0.05042 5:0.033613 6:0.092437 7:0.02521 8:0.02521 9:0.016807 10:0.134454 11:0.008403 12:0 13:0.092437 14:0.033613 15:0.10084 16:0.07563 17:0.02521 18:0.067227 19:0.042017 20:0.008403 
-0.9987231224346308 1:0.06986 2:0.05988 3:0.041916 4:0.077844 5:0.041916 6:0.053892 7:0.02994 8:0.035928 9:0.051896 10:0.10978 11:0.015968 12:0.031936 13:0.047904 14:0.045908 15:0.061876 16:0.07984 17:0.047904 18:0.065868 19:0.005988 20:0.023952 
-2.201405196268915 1:0.067358 2:0.012953 3:0.051813 4:0.059585 5:0.031088 6:0.064767 7:0.023316 8:0.059585 9:0.044041 10:0.126943 11:0.036269 12:0.041451 13:0.064767 14:0.036269 15:0.051813 16:0.046632 17:0.064767 18:0.07772 19:0.010363 20:0.028497 
-0.323038765575139 1:0.04 2:0.008 3:0.032 4:0.08 5:0.04 6:0.088 7:0.008 8:0.088 9:0.08 10:0.048 11:0.016 12:0.072 13:0.032 14:0.056 15:0.032 16:0.064 17:0.088 18:0.104 19:0.008 20:0.016 
-0.1057111593640603 1:0.075 2:0 3:0.025 4:0.2 5:0.075 6:0 7:0 8:0.075 9:0.025 10:0.05 11:0.05 12:0.05 13:0.05 14:0.125 15:0 16:0.05 17:0.1 18:0.025 19:0 20:0.025 
-0.1279491377430668 1:0.050725 2:0.007246 3:0.07971 4:0.086957 5:0.014493 6:0.07971 7:0.007246 8:0.137681 9:0.094203 10:0.021739 11:0.028986 12:0.014493 13:0.050725 14:0.028986 15:0.050725 16:0.043478 17:0.072464 18:0.101449 19:0.007246 20:0.021739 
-1.67767330483064 1:0.019194 2:0.017274 3:0.051823 4:0.06142 5:0.03263 6:0.049904 7:0.028791 8:0.086372 9:0.049904 10:0.067179 11:0.017274 12:0.117083 13:0.046065 14:0.042226 15:0.047985 16:0.105566 17:0.067179 18:0.040307 19:0.007678 20:0.044146 
-0.2307026693772648 1:0.070175 2:0.065789 3:0.050439 4:0.076754 5:0 6:0.08114 7:0.015351 8:0.019737 9:0.030702 10:0.214912 11:0.004386 12:0.037281 13:0.035088 14:0.054825 15:0.048246 16:0.083333 17:0.050439 18:0.041667 19:0.010965 20:0.008772 
-2.006586544775946 1:0.053623 2:0.033333 3:0.046377 4:0.073913 5:0.057971 6:0.057971 7:0.021739 8:0.056522 9:0.073913 10:0.098551 11:0.027536 12:0.034783 13:0.052174 14:0.046377 15:0.043478 16:0.078261 17:0.047826 18:0.069565 19:0.002899 20:0.023188 
-1.36503902148512 1:0.017483 2:0.013986 3:0.048951 4:0.087413 5:0.066434 6:0.045455 7:0.020979 8:0.059441 9:0.094406 10:0.094406 11:0.027972 12:0.031469 13:0.055944 14:0.031469 15:0.041958 16:0.073427 17:0.048951 18:0.062937 19:0.034965 20:0.041958 
-0.3837059502470367 1:0.03876 2:0.007752 3:0.03876 4:0.062016 5:0.054264 6:0.100775 7:0.023256 8:0.085271 9:0.085271 10:0.069767 11:0.031008 12:0.03876 13:0.023256 14:0.023256 15:0.085271 16:0.062016 17:0.023256 18:0.108527 19:0.007752 20:0.031008 
-0.8070301577101409 1:0.074783 2:0.015652 3:0.048696 4:0.097391 5:0.057391 6:0.05913 7:0.034783 8:0.066087 9:0.078261 10:0.088696 11:0.017391 12:0.026087 13:0.045217 14:0.013913 15:0.06087 16:0.04 17:0.041739 18:0.071304 19:0.01913 20:0.043478 
-1.23692987241157 1:0.084229 2:0.026882 3:0.041219 4:0.069892 5:0.044803 6:0.043011 7:0.028674 8:0.055556 9:0.037634 10:0.148746 11:0.026882 12:0.023297 13:0.044803 14:0.066308 15:0.051971 16:0.064516 17:0.048387 18:0.050179 19:0.023297 20:0.019713 
-3.52284066834509 1:0.046205 2:0.039604 3:0.062706 4:0.066007 5:0.052805 6:0.072607 7:0.019802 8:0.069307 9:0.059406 10:0.092409 11:0.019802 12:0.049505 13:0.042904 14:0.029703 15:0.046205 16:0.029703 17:0.066007 18:0.066007 19:0.019802 20:0.049505 
-0.1144662413938474 1:0.045455 2:0 3:0.045455 4:0.272727 5:0 6:0.090909 7:0.045455 8:0.090909 9:0.090909 10:0.090909 11:0 12:0 13:0.090909 14:0.090909 15:0 16:0 17:0 18:0.045455 19:0 20:0 
-3.755444534703622 1:0.117166 2:0.013624 3:0.046322 4:0.06812 5:0.049046 6:0.081744 7:0.019074 8:0.035422 9:0.035422 10:0.117166 11:0.024523 12:0.016349 13:0.065395 14:0.054496 15:0.070845 16:0.038147 17:0.043597 18:0.06267 19:0.013624 20:0.027248 
-1.373050104595012 1:0.056291 2:0.013245 3:0.066225 4:0.086093 5:0.086093 6:0.049669 7:0.009934 8:0.043046 9:0.05298 10:0.115894 11:0.033113 12:0.043046 13:0.02649 14:0.033113 15:0.096026 16:0.059603 17:0.043046 18:0.059603 19:0.006623 20:0.019868 
-1.44787775500919 1:0.059211 2:0.019737 3:0.085526 4:0.046053 5:0.072368 6:0.059211 7:0.032895 8:0.026316 9:0.065789 10:0.105263 11:0.046053 12:0.046053 13:0.026316 14:0.032895 15:0.046053 16:0.065789 17:0.052632 18:0.065789 19:0.013158 20:0.032895 
-0.6902007826637885 1:0.08547 2:0.031339 3:0.039886 4:0.074074 5:0.042735 6:0.088319 7:0.022792 8:0.08547 9:0.088319 10:0.076923 11:0.02849 12:0.051282 13:0.034188 14:0.025641 15:0.019943 16:0.042735 17:0.051282 18:0.088319 19:0.005698 20:0.017094 
-0.5004161516230005 1:0.094421 2:0.004292 3:0.055794 4:0.081545 5:0.034335 6:0.077253 7:0 8:0.072961 9:0.077253 10:0.081545 11:0.017167 12:0.030043 13:0.025751 14:0.060086 15:0.051502 16:0.060086 17:0.038627 18:0.090129 19:0 20:0.04721 
-0.6437002847852411 1:0.044199 2:0.01105 3:0.055249 4:0.044199 5:0.066298 6:0.066298 7:0.038674 8:0.049724 9:0.044199 10:0.055249 11:0.033149 12:0.044199 13:0.071823 14:0.022099 15:0.071823 16:0.077348 17:0.066298 18:0.110497 19:0.005525 20:0.022099 
-0.1172562466032532 1:0.08 2:0 3:0 4:0 5:0.08 6:0.2 7:0 8:0.04 9:0.08 10:0.04 11:0 12:0.08 13:0 14:0 15:0.12 16:0.04 17:0.04 18:0.2 19:0 20:0 
-0.1234762038284858 1:0.042945 2:0 3:0.030675 4:0.06135 5:0.006135 6:0.251534 7:0.06135 8:0.02454 9:0.079755 10:0.018405 11:0.04908 12:0.01227 13:0.02454 14:0.067485 15:0.03681 16:0.055215 17:0.141104 18:0.02454 19:0 20:0.01227 
-4 1:0.063776 2:0.02551 3:0.028061 4:0.07398 5:0.068878 6:0.084184 7:0.028061 8:0.038265 9:0.040816 10:0.096939 11:0.030612 12:0.040816 13:0.056122 14:0.053571 15:0.053571 16:0.056122 17:0.053571 18:0.068878 19:0.012755 20:0.02551 
-0.1334892905581458 1:0.142857 2:0 3:0.047619 4:0 5:0.047619 6:0.095238 7:0 8:0 9:0.095238 10:0.095238 11:0 12:0 13:0.047619 14:0.047619 15:0 16:0.047619 17:0.095238 18:0.238095 19:0 20:0 
-0.07770743472391781 1:0.079422 2:0.025271 3:0.054152 4:0.079422 5:0.036101 6:0.079422 7:0.01444 8:0.086643 9:0.061372 10:0.061372 11:0.054152 12:0.025271 13:0.036101 14:0.028881 15:0.039711 16:0.068592 17:0.057762 18:0.079422 19:0.01083 20:0.021661 
-0.1159138779041931 1:0.019737 2:0.105263 3:0 4:0.098684 5:0 6:0 7:0.032895 8:0.006579 9:0.098684 10:0.006579 11:0.006579 12:0.006579 13:0.328947 14:0.131579 15:0 16:0.019737 17:0.032895 18:0.098684 19:0 20:0.006579 
-1.190289879797216 1:0.075658 2:0.003289 3:0.046053 4:0.059211 5:0.0625 6:0.078947 7:0.046053 8:0.065789 9:0.059211 10:0.065789 11:0.029605 12:0.0625 13:0.036184 14:0.046053 15:0.023026 16:0.059211 17:0.0625 18:0.052632 19:0.029605 20:0.036184 
-4 1:0.089059 2:0.022901 3:0.045802 4:0.066158 5:0.053435 6:0.089059 7:0.020356 8:0.05598 9:0.05598 10:0.086514 11:0.022901 12:0.035623 13:0.048346 14:0.038168 15:0.045802 16:0.05598 17:0.061069 18:0.083969 19:0.010178 20:0.012723 
-0.08127843804946787 1:0.181818 2:0.007576 3:0.07197 4:0.05303 5:0.022727 6:0.056818 7:0.015152 8:0.041667 9:0.022727 10:0.034091 11:0.011364 12:0.030303 13:0.102273 14:0.045455 15:0.05303 16:0.068182 17:0.041667 18:0.083333 19:0.037879 20:0.018939 
-4 1:0.066116 2:0.024793 3:0.057851 4:0.033058 5:0.049587 6:0.057851 7:0.008264 8:0.082645 9:0.057851 10:0.066116 11:0.049587 12:0.033058 13:0.049587 14:0.049587 15:0.057851 16:0.066116 17:0.07438 18:0.082645 19:0 20:0.033058 
-2.617372325855472 1:0.025825 2:0.018651 3:0.053085 4:0.050215 5:0.041607 6:0.057389 7:0.028694 8:0.077475 9:0.07891 10:0.077475 11:0.025825 12:0.070301 13:0.04878 14:0.037303 15:0.02726 16:0.117647 17:0.07604 18:0.040172 19:0.012912 20:0.034433 
-0.0428731866835026 1:0.037736 2:0.009434 3:0.075472 4:0.028302 5:0.061321 6:0.136792 7:0.023585 8:0.056604 9:0.066038 10:0.070755 11:0.023585 12:0.028302 13:0.051887 14:0.014151 15:0.037736 16:0.061321 17:0.070755 18:0.113208 19:0.014151 20:0.018868 
-0.001129200172007871 1:0.066838 2:0.03599 3:0.01928 4:0.079692 5:0.017995 6:0.066838 7:0.023136 8:0.024422 9:0.017995 10:0.097686 11:0.006427 12:0.014139 13:0.152956 14:0.068123 15:0.078406 16:0.105398 17:0.056555 18:0.05527 19:0.006427 20:0.006427 
-0.2304367285673299 1:0.054386 2:0.010526 3:0.059649 4:0.121053 5:0.061404 6:0.066667 7:0.022807 8:0.070175 9:0.07193 10:0.070175 11:0.019298 12:0.021053 13:0.036842 14:0.024561 15:0.075439 16:0.038596 17:0.04386 18:0.092982 19:0.008772 20:0.029825 
-0.113907085420913 1:0.337838 2:0 3:0.027027 4:0.013514 5:0.013514 6:0.013514 7:0 8:0 9:0.135135 10:0.040541 11:0.027027 12:0.054054 13:0.040541 14:0.027027 15:0.027027 16:0.054054 17:0.121622 18:0.054054 19:0 20:0.013514 
-0.176543125701716 1:0.024267 2:0.010111 3:0.038423 4:0.031345 5:0.035389 6:0.032356 7:0.025278 8:0.053589 9:0.048534 10:0.060667 11:0.028311 12:0.18908 13:0.057634 14:0.064712 15:0.026289 16:0.154702 17:0.064712 18:0.031345 19:0.004044 20:0.019211 
-4 1:0.049763 2:0.018167 3:0.054502 4:0.075829 5:0.045814 6:0.052133 7:0.017378 8:0.052923 9:0.066351 10:0.109005 11:0.022117 12:0.042654 13:0.048183 14:0.037915 15:0.050553 16:0.057662 17:0.062401 18:0.079779 19:0.015798 20:0.041074 
-1.647751002734228 1:0.031579 2:0.007018 3:0.052632 4:0.066667 5:0.070175 6:0.070175 7:0.014035 8:0.070175 9:0.084211 10:0.091228 11:0.035088 12:0.059649 13:0.049123 14:0.024561 15:0.035088 16:0.063158 17:0.049123 18:0.045614 19:0.042105 20:0.038596 
-0.4542906813995161 1:0.050725 2:0 3:0.065217 4:0.101449 5:0.057971 6:0.072464 7:0 8:0.094203 9:0.065217 10:0.07971 11:0.028986 12:0.007246 13:0.043478 14:0.028986 15:0.086957 16:0.050725 17:0.043478 18:0.043478 19:0 20:0.07971 
-0.5098988824070763 1:0.047233 2:0.010796 3:0.05668 4:0.072874 5:0.062078 6:0.05803 7:0.018893 8:0.052632 9:0.071525 10:0.099865 11:0.035088 12:0.052632 13:0.05803 14:0.022942 15:0.048583 16:0.080972 17:0.05803 18:0.060729 19:0.009447 20:0.022942 
-3.653422822140699 1:0.089385 2:0.01676 3:0.050279 4:0.072626 5:0.044693 6:0.094972 7:0.011173 8:0.039106 9:0.044693 10:0.162011 11:0.005587 12:0.005587 13:0.061453 14:0.039106 15:0.067039 16:0.061453 17:0.03352 18:0.072626 19:0.005587 20:0.022346 
-0.9446313084866843 1:0.107735 2:0.019337 3:0.030387 4:0.063536 5:0.024862 6:0.09116 7:0.024862 8:0.049724 9:0.063536 10:0.11326 11:0.019337 12:0.019337 13:0.049724 14:0.041436 15:0.033149 16:0.077348 17:0.052486 18:0.096685 19:0.01105 20:0.01105 
-0.1388559901968712 1:0.051044 2:0 3:0.060325 4:0.099768 5:0.046404 6:0.085847 7:0 8:0.088167 9:0.088167 10:0.102088 11:0.023202 12:0.027842 13:0.037123 14:0.018561 15:0.067285 16:0.046404 17:0.030162 18:0.076566 19:0.013921 20:0.037123 
-4 1:0.044721 2:0.011975 3:0.055718 4:0.077224 5:0.053275 6:0.036657 7:0.020283 8:0.075513 9:0.075269 10:0.121945 11:0.022239 12:0.054252 13:0.02737 14:0.041789 15:0.043255 16:0.079179 17:0.054741 18:0.062317 19:0.012952 20:0.029326 
-0.0839802176374646 1:0.091652 2:0.004537 3:0.059891 4:0.170599 5:0.009074 6:0.020871 7:0.017241 8:0.032668 9:0.124319 10:0.130672 11:0.024501 12:0.04265 13:0.000907 14:0.07804 15:0.059891 16:0.051724 17:0.041742 18:0.027223 19:0.002722 20:0.009074 
-2.100547036644273 1:0.050505 2:0.015152 3:0.035354 4:0.065657 5:0.055556 6:0.065657 7:0.045455 8:0.090909 9:0.035354 10:0.085859 11:0.020202 12:0.035354 13:0.080808 14:0.035354 15:0.025253 16:0.085859 17:0.045455 18:0.080808 19:0.015152 20:0.030303 
-1.173816301582046 1:0.047368 2:0.010526 3:0.05 4:0.026316 5:0.052632 6:0.055263 7:0.073684 8:0.071053 9:0.042105 10:0.113158 11:0.015789 12:0.026316 13:0.071053 14:0.028947 15:0.042105 16:0.078947 17:0.042105 18:0.057895 19:0.034211 20:0.060526 
-3.561102063546244 1:0.0625 2:0.023438 3:0.039063 4:0.054688 5:0.050781 6:0.097656 7:0.035156 8:0.0625 9:0.039063 10:0.070313 11:0.023438 12:0.035156 13:0.054688 14:0.015625 15:0.054688 16:0.097656 17:0.0625 18:0.054688 19:0.015625 20:0.050781 
-4 1:0.070496 2:0.020888 3:0.044386 4:0.036554 5:0.049608 6:0.060052 7:0.052219 8:0.046997 9:0.044386 10:0.10705 11:0.015666 12:0.02611 13:0.062663 14:0.023499 15:0.052219 16:0.060052 17:0.046997 18:0.086162 19:0.02611 20:0.067885 
-1.154842678162032 1:0.064748 2:0.002398 3:0.05036 4:0.059952 5:0.045564 6:0.052758 7:0.019185 8:0.045564 9:0.055156 10:0.136691 11:0.019185 12:0.031175 13:0.064748 14:0.035971 15:0.05036 16:0.103118 17:0.067146 18:0.064748 19:0.009592 20:0.021583 
-0.1659716341033298 1:0.188679 2:0.113208 3:0.018868 4:0.037736 5:0.056604 6:0.037736 7:0.037736 8:0.037736 9:0.018868 10:0.09434 11:0.037736 12:0.056604 13:0.037736 14:0.056604 15:0 16:0.037736 17:0.037736 18:0.075472 19:0 20:0.018868 
-0.2567942101099319 1:0.05 2:0.033333 3:0.025 4:0.041667 5:0.008333 6:0.016667 7:0.008333 8:0.066667 9:0.075 10:0.133333 11:0.008333 12:0.075 13:0.083333 14:0.041667 15:0.058333 16:0.066667 17:0.066667 18:0.091667 19:0.016667 20:0.033333 
-0.4697718005491203 1:0.133929 2:0.071429 3:0.044643 4:0.008929 5:0.026786 6:0.089286 7:0.017857 8:0.044643 9:0.017857 10:0.107143 11:0.008929 12:0.0625 13:0.080357 14:0.044643 15:0.008929 16:0.0625 17:0.071429 18:0.098214 19:0 20:0 
-0.007426637954854888 1:0.068966 2:0.103448 3:0.022989 4:0.045977 5:0.022989 6:0.114943 7:0.011494 8:0.011494 9:0.091954 10:0.103448 11:0.022989 12:0.057471 13:0.011494 14:0.034483 15:0.011494 16:0.022989 17:0.057471 18:0.057471 19:0.034483 20:0.091954 
-1.174765231676244 1:0.020833 2:0.069444 3:0.034722 4:0.034722 5:0.034722 6:0.041667 7:0.006944 8:0.034722 9:0.0625 10:0.131944 11:0.020833 12:0.048611 13:0.055556 14:0.048611 15:0.055556 16:0.104167 17:0.104167 18:0.0625 19:0.006944 20:0.020833 
-4 1:0.072658 2:0.028681 3:0.051625 4:0.059273 5:0.063098 6:0.068834 7:0.042065 8:0.045889 9:0.034417 10:0.10325 11:0.022945 12:0.045889 13:0.053537 14:0.030593 15:0.038241 16:0.051625 17:0.055449 18:0.072658 19:0.013384 20:0.045889 
-0.5864614486388777 1:0.073394 2:0.055046 3:0.027523 4:0.06422 5:0.018349 6:0.073394 7:0.027523 8:0.027523 9:0.009174 10:0.155963 11:0.036697 12:0.06422 13:0.045872 14:0.082569 15:0.045872 16:0.055046 17:0.027523 18:0.055046 19:0.018349 20:0.036697 
-0.3490313717531712 1:0.087912 2:0.076923 3:0.032967 4:0.076923 5:0.010989 6:0.087912 7:0 8:0.010989 9:0.032967 10:0.087912 11:0.054945 12:0.010989 13:0.021978 14:0.021978 15:0.098901 16:0.076923 17:0.021978 18:0.10989 19:0.010989 20:0.065934 
-4 1:0.046025 2:0.037657 3:0.054393 4:0.037657 5:0.050209 6:0.033473 7:0.029289 8:0.050209 9:0.054393 10:0.142259 11:0.037657 12:0.037657 13:0.033473 14:0.041841 15:0.066946 16:0.087866 17:0.046025 18:0.050209 19:0.016736 20:0.046025 
-0.2824052353281197 1:0.142857 2:0.083333 3:0.02381 4:0.083333 5:0.059524 6:0.071429 7:0.02381 8:0.071429 9:0.059524 10:0.083333 11:0.011905 12:0.02381 13:0.011905 14:0.02381 15:0.071429 16:0.02381 17:0.035714 18:0.083333 19:0 20:0.011905 
-0.8193550286873171 1:0.037313 2:0.029851 3:0.037313 4:0.067164 5:0.014925 6:0.067164 7:0.014925 8:0.074627 9:0.044776 10:0.097015 11:0.037313 12:0.037313 13:0.074627 14:0.037313 15:0.029851 16:0.097015 17:0.052239 18:0.067164 19:0.022388 20:0.059701 
-0.04555316986840622 1:0.04878 2:0.033537 3:0.060976 4:0.07622 5:0.033537 6:0.04878 7:0.018293 8:0.054878 9:0.073171 10:0.07622 11:0.012195 12:0.027439 13:0.04878 14:0.042683 15:0.036585 16:0.106707 17:0.070122 18:0.060976 19:0.033537 20:0.036585 
-4 1:0.078329 2:0.018277 3:0.065274 4:0.02611 5:0.057441 6:0.088773 7:0.023499 8:0.046997 9:0.05483 10:0.096606 11:0.018277 12:0.031332 13:0.039164 14:0.046997 15:0.049608 16:0.078329 17:0.070496 18:0.046997 19:0.020888 20:0.041775 
-0.7316003326734565 1:0.026316 2:0.035088 3:0.061404 4:0.04386 5:0.030702 6:0.039474 7:0.02193 8:0.065789 9:0.048246 10:0.135965 11:0.04386 12:0.035088 13:0.035088 14:0.061404 15:0.061404 16:0.087719 17:0.070175 18:0.057018 19:0.013158 20:0.026316 
-1.313613041734839 1:0.072917 2:0.072917 3:0.03125 4:0.03125 5:0.041667 6:0.041667 7:0.03125 8:0.0625 9:0.104167 10:0.145833 11:0.03125 12:0.052083 13:0.020833 14:0.020833 15:0.03125 16:0.0625 17:0.052083 18:0.0625 19:0.010417 20:0.020833 
-0.06988759522892957 1:0.067909 2:0.003995 3:0.001332 4:0.001332 5:0.002663 6:0.011984 7:0.003995 8:0.014647 9:0.191744 10:0.01731 11:0.002663 12:0.011984 13:0.241012 14:0.002663 15:0.005326 16:0.11984 17:0.103862 18:0.005326 19:0 20:0.190413 
-0.5438106009799027 1:0.03268 2:0.026144 3:0.026144 4:0.084967 5:0.03268 6:0.03268 7:0.013072 8:0.045752 9:0.084967 10:0.163399 11:0.026144 12:0.052288 13:0.019608 14:0.052288 15:0.019608 16:0.111111 17:0.084967 18:0.058824 19:0.006536 20:0.026144 
-0.3321347358628682 1:0.032258 2:0.024194 3:0.048387 4:0.040323 5:0.032258 6:0.048387 7:0.024194 8:0 9:0.024194 10:0.145161 11:0.032258 12:0.008065 13:0.072581 14:0.048387 15:0.104839 16:0.120968 17:0.064516 18:0.072581 19:0.040323 20:0.016129 
-4 1:0.061538 2:0.026923 3:0.057692 4:0.05 5:0.046154 6:0.088462 7:0.019231 8:0.084615 9:0.026923 10:0.076923 11:0.011538 12:0.053846 13:0.042308 14:0.042308 15:0.030769 16:0.076923 17:0.057692 18:0.084615 19:0.019231 20:0.042308 
-0.4349761007301463 1:0.101928 2:0.022039 3:0.055096 4:0.038567 5:0.052342 6:0.104683 7:0.011019 8:0.049587 9:0.013774 10:0.090909 11:0.022039 12:0.035813 13:0.082645 14:0.038567 15:0.041322 16:0.110193 17:0.057851 18:0.057851 19:0.00551 20:0.008264 
-0.1414887556067676 1:0.048077 2:0.057692 3:0.038462 4:0.038462 5:0.019231 6:0.019231 7:0.019231 8:0.096154 9:0.096154 10:0.105769 11:0.009615 12:0.028846 13:0.057692 14:0.038462 15:0.048077 16:0.086538 17:0.086538 18:0.076923 19:0.009615 20:0.019231 
-1.281266802619704 1:0.110553 2:0.01005 3:0.060302 4:0.015075 5:0.005025 6:0.070352 7:0.020101 8:0.015075 9:0.015075 10:0.21608 11:0.025126 12:0.005025 13:0.085427 14:0.040201 15:0.100503 16:0.075377 17:0.040201 18:0.065327 19:0.020101 20:0.005025 
-0.333324329268322 1:0.07907 2:0.018605 3:0.023256 4:0.065116 5:0.046512 6:0.134884 7:0.032558 8:0.032558 9:0.032558 10:0.069767 11:0.037209 12:0.037209 13:0.106977 14:0.051163 15:0.032558 16:0.051163 17:0.046512 18:0.074419 19:0.013953 20:0.013953 
-4 1:0.108696 2:0.054348 3:0.032609 4:0.065217 5:0.054348 6:0.032609 7:0 8:0.054348 9:0.043478 10:0.086957 11:0.021739 12:0.032609 13:0.054348 14:0.043478 15:0.043478 16:0.065217 17:0.086957 18:0.054348 19:0.021739 20:0.043478 
-0.1480414890281096 1:0.059701 2:0.014925 3:0.014925 4:0.035821 5:0.065672 6:0.19403 7:0.01194 8:0.01791 9:0.00597 10:0.032836 11:0.032836 12:0.041791 13:0.128358 14:0.113433 15:0.053731 16:0.059701 17:0.032836 18:0.038806 19:0.023881 20:0.020896 
-1.129426641824523 1:0.088889 2:0.077778 3:0.033333 4:0.066667 5:0.033333 6:0.088889 7:0.022222 8:0.033333 9:0.044444 10:0.122222 11:0.022222 12:0.011111 13:0.033333 14:0.011111 15:0.055556 16:0.088889 17:0.011111 18:0.055556 19:0.033333 20:0.066667 
-1.814089492631183 1:0.044643 2:0.044643 3:0.053571 4:0.0625 5:0.03125 6:0.075893 7:0.008929 8:0.066964 9:0.049107 10:0.098214 11:0.013393 12:0.040179 13:0.044643 14:0.053571 15:0.053571 16:0.084821 17:0.053571 18:0.035714 19:0.040179 20:0.044643 
-0.460495777580491 1:0.046154 2:0.082051 3:0.030769 4:0.076923 5:0.066667 6:0.071795 7:0.020513 8:0.046154 9:0.05641 10:0.051282 11:0.005128 12:0.025641 13:0.051282 14:0.041026 15:0.066667 16:0.066667 17:0.071795 18:0.092308 19:0.005128 20:0.025641 
-0.523592764913865 1:0.068 2:0.052 3:0.052 4:0.048 5:0.02 6:0.092 7:0.028 8:0.04 9:0.02 10:0.092 11:0.044 12:0.032 13:0.068 14:0.032 15:0.04 16:0.068 17:0.048 18:0.08 19:0.028 20:0.048 
-0.254600563192419 1:0.087349 2:0.006024 3:0.066265 4:0.03012 5:0.057229 6:0.087349 7:0.012048 8:0.039157 9:0.045181 10:0.069277 11:0.021084 12:0.051205 13:0.042169 14:0.039157 15:0.018072 16:0.120482 17:0.087349 18:0.048193 19:0.027108 20:0.045181 
-0.05158460225779499 1:0.077348 2:0.005525 3:0.027624 4:0.044199 5:0.027624 6:0.01105 7:0.005525 8:0.066298 9:0.01105 10:0.071823 11:0.038674 12:0.088398 13:0.132597 14:0.033149 15:0.038674 16:0.082873 17:0.088398 18:0.088398 19:0.005525 20:0.055249 
-0.06036346038520943 1:0.117359 2:0 3:0.03912 4:0.026895 5:0.022005 6:0.102689 7:0.026895 8:0.06357 9:0.031785 10:0.070905 11:0.00978 12:0.061125 13:0.03912 14:0.022005 15:0.026895 16:0.117359 17:0.0978 18:0.07824 19:0.017115 20:0.02934 
-2.021130623827637 1:0.040541 2:0.040541 3:0.054054 4:0.058559 5:0.072072 6:0.040541 7:0.031532 8:0.063063 9:0.076577 10:0.103604 11:0.018018 12:0.063063 13:0.036036 14:0.031532 15:0.067568 16:0.045045 17:0.076577 18:0.027027 19:0.018018 20:0.036036 
-0.07065301216593242 1:0.026376 2:0.00344 3:0.001147 4:0.001147 5:0.002294 6:0.011468 7:0.004587 8:0.047018 9:0.198394 10:0.008028 11:0.002294 12:0.006881 13:0.251147 14:0.009174 15:0.011468 16:0.106651 17:0.110092 18:0.006881 19:0 20:0.191514 
-0.4150470634991636 1:0.147826 2:0.017391 3:0.052174 4:0.034783 5:0.034783 6:0.108696 7:0.004348 8:0.056522 9:0.030435 10:0.1 11:0.008696 12:0.047826 13:0.047826 14:0.030435 15:0.065217 16:0.065217 17:0.078261 18:0.03913 19:0.004348 20:0.026087 
-0.1970997825473342 1:0.027778 2:0 3:0.037037 4:0.111111 5:0.055556 6:0.064815 7:0.009259 8:0.037037 9:0.074074 10:0.083333 11:0.027778 12:0.009259 13:0.018519 14:0.027778 15:0.083333 16:0.25 17:0.037037 18:0.037037 19:0 20:0.009259 
-3.591732898393137 1:0.024691 2:0.037037 3:0.030864 4:0.08642 5:0.061728 6:0.024691 7:0.037037 8:0.08642 9:0.04321 10:0.12963 11:0.030864 12:0.074074 13:0.018519 14:0.024691 15:0.024691 16:0.080247 17:0.074074 18:0.061728 19:0.006173 20:0.04321 
-0.0104760570508145 1:0.148148 2:0.012346 3:0.037037 4:0.185185 5:0.037037 6:0.074074 7:0 8:0.024691 9:0.123457 10:0.111111 11:0.024691 12:0.012346 13:0 14:0.037037 15:0.024691 16:0.074074 17:0 18:0.061728 19:0.012346 20:0 
-0.3357667607811797 1:0.024242 2:0.060606 3:0.027273 4:0.075758 5:0.036364 6:0.063636 7:0.015152 8:0.048485 9:0.048485 10:0.057576 11:0.015152 12:0.054545 13:0.075758 14:0.039394 15:0.060606 16:0.09697 17:0.069697 18:0.054545 19:0.024242 20:0.051515 
-2.665189662049198 1:0.052516 2:0.030635 3:0.056893 4:0.037199 5:0.04814 6:0.09628 7:0.019694 8:0.070022 9:0.028446 10:0.070022 11:0.008753 12:0.065646 13:0.045952 14:0.043764 15:0.04814 16:0.089716 17:0.061269 18:0.070022 19:0.015317 20:0.041575 
-1.146890131198991 1:0.069231 2:0.030769 3:0.076923 4:0.023077 5:0.046154 6:0.092308 7:0.007692 8:0.038462 9:0.053846 10:0.1 11:0.030769 12:0 13:0.053846 14:0.038462 15:0.061538 16:0.076923 17:0.023077 18:0.092308 19:0.030769 20:0.053846 
-0.1411692016878653 1:0.12 2:0.08 3:0.026667 4:0.053333 5:0.026667 6:0.053333 7:0.013333 8:0.066667 9:0.013333 10:0.093333 11:0.093333 12:0.04 13:0.053333 14:0.04 15:0.053333 16:0.066667 17:0.066667 18:0.013333 19:0 20:0.026667 
-0.5820566695358812 1:0.080645 2:0 3:0.032258 4:0.080645 5:0.024194 6:0.096774 7:0.032258 8:0.040323 9:0.040323 10:0.185484 11:0.024194 12:0.024194 13:0.056452 14:0.008065 15:0.048387 16:0.096774 17:0.056452 18:0.048387 19:0.016129 20:0.008065 
-0.1081745577107739 1:0.05102 2:0.061224 3:0 4:0.061224 5:0.020408 6:0.030612 7:0 8:0.112245 9:0.102041 10:0.102041 11:0.030612 12:0.05102 13:0.071429 14:0.040816 15:0.061224 16:0.102041 17:0.05102 18:0.05102 19:0 20:0 
-0.2864054596372831 1:0.058201 2:0.058201 3:0.031746 4:0.026455 5:0.026455 6:0.031746 7:0.015873 8:0.031746 9:0.037037 10:0.063492 11:0.005291 12:0.063492 13:0.074074 14:0.021164 15:0.031746 16:0.126984 17:0.169312 18:0.10582 19:0.010582 20:0.010582 
-0.2666418673536216 1:0.105769 2:0.009615 3:0.073077 4:0.013462 5:0.061538 6:0.076923 7:0.034615 8:0.055769 9:0.009615 10:0.067308 11:0.009615 12:0.065385 13:0.076923 14:0.030769 15:0.028846 16:0.073077 17:0.080769 18:0.084615 19:0.013462 20:0.028846 
-3.183559158761407 1:0.082873 2:0.027624 3:0.066298 4:0.022099 5:0.044199 6:0.082873 7:0.022099 8:0.049724 9:0.055249 10:0.082873 11:0.022099 12:0.066298 13:0.038674 14:0.01105 15:0.049724 16:0.071823 17:0.077348 18:0.071823 19:0.016575 20:0.038674 
-0.08514184717229176 1:0.081081 2:0.054054 3:0.045045 4:0.054054 5:0 6:0.045045 7:0.027027 8:0.036036 9:0.036036 10:0.171171 11:0.018018 12:0.018018 13:0.054054 14:0.108108 15:0.027027 16:0.072072 17:0.045045 18:0.081081 19:0.009009 20:0.018018 
-0.1166543380785136 1:0.039088 2:0.061889 3:0.009772 4:0.009772 5:0 6:0.029316 7:0 8:0.013029 9:0.117264 10:0.042345 11:0.003257 12:0.016287 13:0.14658 14:0.042345 15:0.016287 16:0.016287 17:0.423453 18:0.009772 19:0.003257 20:0 
-0.7082284147435248 1:0.055825 2:0.01699 3:0.046117 4:0.055825 5:0.063107 6:0.055825 7:0.01699 8:0.055825 9:0.070388 10:0.128641 11:0.029126 12:0.055825 13:0.046117 14:0.058252 15:0.014563 16:0.072816 17:0.063107 18:0.065534 19:0.007282 20:0.021845 
-0.1972406248248866 1:0.032258 2:0.03871 3:0.032258 4:0.051613 5:0.012903 6:0.03871 7:0.045161 8:0.064516 9:0.03871 10:0.090323 11:0.019355 12:0.103226 13:0.090323 14:0.012903 15:0.070968 16:0.077419 17:0.058065 18:0.083871 19:0.012903 20:0.025806 
-4 1:0.066502 2:0.007389 3:0.044335 4:0.041872 5:0.061576 6:0.059113 7:0.03202 8:0.051724 9:0.044335 10:0.133005 11:0.03202 12:0.051724 13:0.034483 14:0.041872 15:0.029557 16:0.091133 17:0.068966 18:0.064039 19:0.014778 20:0.029557 
-1.420821003518422 1:0.069307 2:0.00495 3:0.014851 4:0.009901 5:0.064356 6:0.079208 7:0.054455 8:0.019802 9:0.024752 10:0.168317 11:0.009901 12:0.024752 13:0.084158 14:0.054455 15:0.044554 16:0.113861 17:0.049505 18:0.064356 19:0.009901 20:0.034653 
-0.03897989829683068 1:0.1 2:0.021053 3:0.094737 4:0.078947 5:0.042105 6:0.052632 7:0.005263 8:0.026316 9:0.052632 10:0.063158 11:0.031579 12:0.094737 13:0.021053 14:0.031579 15:0.021053 16:0.031579 17:0.063158 18:0.089474 19:0.021053 20:0.057895 
-0.7401953881393505 1:0.109705 2:0.008439 3:0.042194 4:0.016878 5:0.042194 6:0.097046 7:0.012658 8:0.042194 9:0.033755 10:0.063291 11:0.008439 12:0.059072 13:0.029536 14:0.067511 15:0.012658 16:0.105485 17:0.101266 18:0.054852 19:0.042194 20:0.050633 
-0.2920135763287449 1:0.117188 2:0.027344 3:0.03125 4:0.011719 5:0.03125 6:0.105469 7:0.023438 8:0.046875 9:0 10:0.066406 11:0.011719 12:0.101563 13:0.035156 14:0.042969 15:0.082031 16:0.070313 17:0.058594 18:0.085938 19:0.027344 20:0.023438 
-0.2519090185421271 1:0.079848 2:0.038023 3:0.038023 4:0.038023 5:0.026616 6:0.106464 7:0.026616 8:0.038023 9:0.030418 10:0.076046 11:0.026616 12:0.053232 13:0.045627 14:0.038023 15:0.041825 16:0.072243 17:0.072243 18:0.098859 19:0.030418 20:0.022814 
-4 1:0.074419 2:0.004651 3:0.051163 4:0.051163 5:0.053488 6:0.060465 7:0.027907 8:0.048837 9:0.046512 10:0.12093 11:0.034884 12:0.039535 13:0.039535 14:0.032558 15:0.04186 16:0.086047 17:0.076744 18:0.062791 19:0.018605 20:0.027907 
-4 1:0.070718 2:0.00884 3:0.062983 4:0.077348 5:0.045304 6:0.037569 7:0.01989 8:0.076243 9:0.055249 10:0.093923 11:0.01989 12:0.041989 13:0.037569 14:0.027624 15:0.049724 16:0.097238 17:0.057459 18:0.091713 19:0.00221 20:0.026519 
-1.169286016887087 1:0.038462 2:0.019231 3:0.064103 4:0.070513 5:0.032051 6:0.032051 7:0.025641 8:0.083333 9:0.083333 10:0.102564 11:0.057692 12:0.051282 13:0.019231 14:0.012821 15:0.044872 16:0.057692 17:0.064103 18:0.083333 19:0.00641 20:0.051282 
-0.3020993049172024 1:0.082935 2:0.027113 3:0.043062 4:0.044657 5:0.038278 6:0.07177 7:0.036683 8:0.033493 9:0.030303 10:0.121212 11:0.014354 12:0.038278 13:0.095694 14:0.033493 15:0.052632 16:0.070175 17:0.044657 18:0.052632 19:0.036683 20:0.031898 
-1.396640470708112 1:0.102102 2:0.03003 3:0.024024 4:0.051051 5:0.048048 6:0.066066 7:0.027027 8:0.033033 9:0.072072 10:0.072072 11:0.033033 12:0.072072 13:0.036036 14:0.048048 15:0.021021 16:0.087087 17:0.039039 18:0.063063 19:0.03003 20:0.045045 
-4 1:0.047778 2:0.012222 3:0.057778 4:0.062222 5:0.058889 6:0.055556 7:0.03 8:0.064444 9:0.058889 10:0.071111 11:0.021111 12:0.06 13:0.038889 14:0.032222 15:0.037778 16:0.075556 17:0.065556 18:0.068889 19:0.027778 20:0.053333 
-1.614107330325895 1:0.065836 2:0.014235 3:0.035587 4:0.049822 5:0.046263 6:0.090747 7:0.030249 8:0.021352 9:0.023132 10:0.113879 11:0.010676 12:0.035587 13:0.080071 14:0.049822 15:0.048043 16:0.097865 17:0.058719 18:0.076512 19:0.019573 20:0.032028 
-2.356469926175682 1:0.08498 2:0.027668 3:0.047431 4:0.041502 5:0.043478 6:0.112648 7:0.035573 8:0.025692 9:0.021739 10:0.132411 11:0.017787 12:0.021739 13:0.096838 14:0.039526 15:0.035573 16:0.06917 17:0.061265 18:0.045455 19:0.005929 20:0.033597 
-3.569152933819818 1:0.058642 2:0.007716 3:0.044753 4:0.060185 5:0.044753 6:0.064815 7:0.029321 8:0.044753 9:0.037037 10:0.100309 11:0.016975 12:0.044753 13:0.054012 14:0.046296 15:0.061728 16:0.058642 17:0.061728 18:0.078704 19:0.027778 20:0.057099 
-4 1:0.07767 2:0.013592 3:0.050485 4:0.038835 5:0.058252 6:0.067961 7:0.023301 8:0.042718 9:0.040777 10:0.108738 11:0.019417 12:0.036893 13:0.064078 14:0.034951 15:0.050485 16:0.083495 17:0.062136 18:0.062136 19:0.025243 20:0.038835 
-3.413985235397252 1:0.090508 2:0.00883 3:0.04415 4:0.046358 5:0.048565 6:0.075055 7:0.019868 8:0.055188 9:0.03532 10:0.07947 11:0.02649 12:0.055188 13:0.072848 14:0.030905 15:0.050773 16:0.090508 17:0.072848 18:0.066225 19:0.002208 20:0.028698 
-1.806924347927918 1:0.084475 2:0.020548 3:0.038813 4:0.063927 5:0.025114 6:0.098174 7:0.022831 8:0.050228 9:0.03653 10:0.118721 11:0.034247 12:0.03653 13:0.03653 14:0.043379 15:0.073059 16:0.075342 17:0.050228 18:0.050228 19:0.011416 20:0.02968 
-1.393443322703737 1:0.043103 2:0.017241 3:0.017241 4:0.017241 5:0.034483 6:0.077586 7:0 8:0.103448 9:0.112069 10:0.086207 11:0.008621 12:0.077586 13:0.017241 14:0.017241 15:0.068966 16:0.103448 17:0.043103 18:0.12931 19:0.008621 20:0.017241 
-0.2185352925527884 1:0.055556 2:0.007663 3:0.05364 4:0.074713 5:0.063218 6:0.051724 7:0.028736 8:0.070881 9:0.076628 10:0.09387 11:0.030651 12:0.047893 13:0.045977 14:0.030651 15:0.051724 16:0.045977 17:0.063218 18:0.051724 19:0.01341 20:0.042146 
-1.010624838278348 1:0.05042 2:0.010504 3:0.039916 4:0.05042 5:0.035714 6:0.056723 7:0.018908 8:0.090336 9:0.077731 10:0.113445 11:0.016807 12:0.077731 13:0.052521 14:0.042017 15:0.031513 16:0.084034 17:0.05042 18:0.054622 19:0.006303 20:0.039916 
-1.349444175722408 1:0.118343 2:0.011834 3:0.011834 4:0.023669 5:0.04142 6:0.118343 7:0.029586 8:0.005917 9:0.017751 10:0.136095 11:0.023669 12:0.017751 13:0.08284 14:0.023669 15:0.04142 16:0.04142 17:0.047337 18:0.076923 19:0.076923 20:0.053254 
-0.1228283827371223 1:0.057143 2:0.009524 3:0.066667 4:0.066667 5:0.085714 6:0.114286 7:0.038095 8:0.028571 9:0 10:0.07619 11:0.019048 12:0 13:0.066667 14:0.047619 15:0.095238 16:0.07619 17:0.038095 18:0.047619 19:0.047619 20:0.019048 
-1.891306837429972 1:0.075812 2:0.00722 3:0.028881 4:0.079422 5:0.057762 6:0.046931 7:0.032491 8:0.043321 9:0.054152 10:0.122744 11:0.021661 12:0.036101 13:0.039711 14:0.054152 15:0.064982 16:0.075812 17:0.046931 18:0.054152 19:0.025271 20:0.032491 
-4 1:0.103512 2:0.020333 3:0.055453 4:0.049908 5:0.051756 6:0.088725 7:0.02403 8:0.07024 9:0.042514 10:0.072089 11:0.022181 12:0.040665 13:0.046211 14:0.027726 15:0.062847 16:0.05915 17:0.049908 18:0.086876 19:0.003697 20:0.022181 
-1.362310690612197 1:0.122449 2:0.006803 3:0.044218 4:0.05102 5:0.027211 6:0.095238 7:0.027211 8:0.027211 9:0.027211 10:0.119048 11:0.010204 12:0.040816 13:0.064626 14:0.027211 15:0.095238 16:0.05102 17:0.040816 18:0.068027 19:0.013605 20:0.040816 
-0.1878178494485669 1:0.065421 2:0.004673 3:0.028037 4:0.084112 5:0.037383 6:0.046729 7:0.023364 8:0.079439 9:0.088785 10:0.088785 11:0.028037 12:0.028037 13:0.042056 14:0.084112 15:0.046729 16:0.046729 17:0.037383 18:0.088785 19:0.004673 20:0.046729 
-0.6313958385063394 1:0.009091 2:0.009091 3:0.027273 4:0.072727 5:0.081818 6:0.045455 7:0.036364 8:0.072727 9:0.136364 10:0.118182 11:0.018182 12:0.009091 13:0.045455 14:0.036364 15:0.090909 16:0.045455 17:0.054545 18:0.036364 19:0.018182 20:0.036364 
-4 1:0.060367 2:0.011811 3:0.053806 4:0.059055 5:0.057743 6:0.052493 7:0.020997 8:0.051181 9:0.064304 10:0.107612 11:0.024934 12:0.05643 13:0.036745 14:0.035433 15:0.052493 16:0.090551 17:0.049869 18:0.069554 19:0.007874 20:0.036745 
-0.9288375444425373 1:0.08972 2:0.013084 3:0.042991 4:0.052336 5:0.04486 6:0.069159 7:0.02243 8:0.031776 9:0.042991 10:0.136449 11:0.016822 12:0.024299 13:0.063551 14:0.059813 15:0.071028 16:0.048598 17:0.042991 18:0.072897 19:0.018692 20:0.035514 
-4 1:0.058394 2:0.014599 3:0.058394 4:0.051095 5:0.046229 6:0.043796 7:0.029197 8:0.060827 9:0.048662 10:0.104623 11:0.03163 12:0.048662 13:0.058394 14:0.046229 15:0.048662 16:0.092457 17:0.041363 18:0.07056 19:0.004866 20:0.041363 
-0.5498373016540022 1:0.086957 2:0.012422 3:0.052795 4:0.049689 5:0.037267 6:0.052795 7:0.024845 8:0.062112 9:0.052795 10:0.102484 11:0.021739 12:0.031056 13:0.049689 14:0.021739 15:0.059006 16:0.118012 17:0.07764 18:0.052795 19:0.015528 20:0.018634 
-3.59860818663102 1:0.081664 2:0.012327 3:0.05547 4:0.052388 5:0.044684 6:0.061633 7:0.020031 8:0.049307 9:0.064715 10:0.09245 11:0.027735 12:0.050847 13:0.049307 14:0.032357 15:0.046225 16:0.063174 17:0.070878 18:0.075501 19:0.013867 20:0.035439 
-1.848137522585062 1:0.089947 2:0 3:0.037037 4:0.074074 5:0.05291 6:0.068783 7:0.031746 8:0.068783 9:0.05291 10:0.095238 11:0.021164 12:0.015873 13:0.063492 14:0.010582 15:0.095238 16:0.042328 17:0.042328 18:0.068783 19:0.015873 20:0.05291 
-0.06895276830655325 1:0.148936 2:0 3:0.042553 4:0.021277 5:0.021277 6:0.106383 7:0 8:0.042553 9:0.06383 10:0.06383 11:0.042553 12:0.021277 13:0.021277 14:0.021277 15:0.148936 16:0.042553 17:0.06383 18:0.12766 19:0 20:0 
-0.5317131748648555 1:0.057143 2:0 3:0.028571 4:0 5:0.057143 6:0.142857 7:0.028571 8:0.085714 9:0.085714 10:0.085714 11:0.085714 12:0.085714 13:0.085714 14:0 15:0 16:0.028571 17:0.028571 18:0.057143 19:0 20:0.057143 
-4 1:0.053232 2:0.011407 3:0.070342 4:0.04943 5:0.041825 6:0.04943 7:0.015209 8:0.104563 9:0.076046 10:0.10076 11:0.011407 12:0.051331 13:0.028517 14:0.036122 15:0.045627 16:0.119772 17:0.053232 18:0.057034 19:0.001901 20:0.022814 
-0.4315960248735746 1:0.090343 2:0.009346 3:0.034268 4:0.080997 5:0.049844 6:0.080997 7:0.034268 8:0.037383 9:0.068536 10:0.084112 11:0.05296 12:0.028037 13:0.040498 14:0.015576 15:0.056075 16:0.056075 17:0.043614 18:0.071651 19:0.024922 20:0.040498 
-0.5368338629928571 1:0.053846 2:0.003846 3:0.073077 4:0.046154 5:0.05 6:0.034615 7:0.023077 8:0.05 9:0.065385 10:0.123077 11:0.030769 12:0.042308 13:0.034615 14:0.046154 15:0.038462 16:0.065385 17:0.088462 18:0.080769 19:0.015385 20:0.034615 
-2.947975328886068 1:0.081481 2:0 3:0.051852 4:0.074074 5:0.059259 6:0.059259 7:0.014815 8:0.044444 9:0.074074 10:0.066667 11:0.022222 12:0.081481 13:0.014815 14:0.044444 15:0.059259 16:0.074074 17:0.074074 18:0.051852 19:0.007407 20:0.044444 
-4 1:0.067542 2:0.020638 3:0.035647 4:0.06379 5:0.037523 6:0.050657 7:0.030019 8:0.078799 9:0.054409 10:0.101313 11:0.016886 12:0.052533 13:0.043152 14:0.030019 15:0.054409 16:0.086304 17:0.071295 18:0.067542 19:0.007505 20:0.030019 
-1.79709600334904 1:0.04878 2:0 3:0.03252 4:0.04878 5:0.065041 6:0.03252 7:0.01626 8:0.04878 9:0.04065 10:0.073171 11:0.04065 12:0.04878 13:0.056911 14:0.04878 15:0.121951 16:0.081301 17:0.081301 18:0.04878 19:0.02439 20:0.04065 
-0.4480513085249569 1:0.114206 2:0.02507 3:0.041783 4:0.066852 5:0.038997 6:0.091922 7:0.016713 8:0.077994 9:0.052925 10:0.072423 11:0.036212 12:0.036212 13:0.052925 14:0.033426 15:0.044568 16:0.047354 17:0.030641 18:0.083565 19:0.011142 20:0.02507 
-0.1277520782633988 1:0.08 2:0 3:0 4:0.12 5:0.08 6:0 7:0 8:0.08 9:0 10:0.12 11:0.04 12:0.08 13:0.04 14:0 15:0.08 16:0.12 17:0.12 18:0 19:0 20:0.04 
-0.8111907560620997 1:0.079687 2:0.021875 3:0.054688 4:0.057813 5:0.04375 6:0.104688 7:0.020313 8:0.028125 9:0.023438 10:0.0875 11:0.035937 12:0.026562 13:0.0875 14:0.025 15:0.092188 16:0.059375 17:0.0375 18:0.065625 19:0.029687 20:0.01875 
-0.1163587554525484 1:0 2:0 3:0.090909 4:0.272727 5:0.090909 6:0.090909 7:0.181818 8:0 9:0 10:0 11:0 12:0 13:0 14:0 15:0 16:0.181818 17:0.090909 18:0 19:0 20:0 
-0.6820644425087685 1:0.042857 2:0.014286 3:0.042857 4:0.057143 5:0.042857 6:0.114286 7:0.042857 8:0.071429 9:0.042857 10:0.1 11:0.042857 12:0.028571 13:0.028571 14:0 15:0.085714 16:0.057143 17:0.028571 18:0.071429 19:0.028571 20:0.057143 
-1.796761356880121 1:0.093385 2:0.015564 3:0.042802 4:0.050584 5:0.062257 6:0.054475 7:0.038911 8:0.046693 9:0.050584 10:0.085603 11:0.007782 12:0.035019 13:0.050584 14:0.019455 15:0.042802 16:0.108949 17:0.066148 18:0.093385 19:0.015564 20:0.019455 
-0.1058920732989221 1:0.282051 2:0 3:0 4:0 5:0 6:0 7:0 8:0.012821 9:0.179487 10:0 11:0.012821 12:0 13:0.064103 14:0.025641 15:0.25641 16:0.102564 17:0.012821 18:0.051282 19:0 20:0 
-0.2613686211042697 1:0.059829 2:0.012821 3:0.034188 4:0.081197 5:0.038462 6:0.059829 7:0.021368 8:0.038462 9:0.042735 10:0.051282 11:0.025641 12:0.059829 13:0.029915 14:0.076923 15:0.081197 16:0.128205 17:0.055556 18:0.034188 19:0.012821 20:0.055556 
-4 1:0.044571 2:0.014857 3:0.057143 4:0.049143 5:0.04 6:0.052571 7:0.009143 8:0.081143 9:0.077714 10:0.107429 11:0.020571 12:0.068571 13:0.046857 14:0.036571 15:0.037714 16:0.083429 17:0.081143 18:0.045714 19:0.013714 20:0.032 
-0.1069751528508418 1:0.059701 2:0.00995 3:0.084577 4:0.149254 5:0.029851 6:0.0199 7:0.0199 8:0.039801 9:0.089552 10:0.094527 11:0.00995 12:0.049751 13:0.034826 14:0.039801 15:0.034826 16:0.109453 17:0.029851 18:0.084577 19:0 20:0.00995 
-0.4352933704489386 1:0.057101 2:0.010249 3:0.071742 4:0.01757 5:0.014641 6:0.04978 7:0.052709 8:0.055637 9:0.038067 10:0.04978 11:0.035139 12:0.136164 13:0.048316 14:0.054173 15:0.030747 16:0.128843 17:0.077599 18:0.040996 19:0.002928 20:0.027818 
-0.3955645876015281 1:0.099502 2:0.0199 3:0.014925 4:0.0199 5:0.0199 6:0.131841 7:0.084577 8:0.042289 9:0.024876 10:0.062189 11:0.027363 12:0.044776 13:0.069652 14:0.047264 15:0.054726 16:0.106965 17:0.037313 18:0.059701 19:0.004975 20:0.027363 
-4 1:0.056367 2:0.014614 3:0.05428 4:0.066806 5:0.050104 6:0.025052 7:0.016701 8:0.08977 9:0.064718 10:0.114823 11:0.014614 12:0.058455 13:0.043841 14:0.041754 15:0.039666 16:0.077244 17:0.06263 18:0.045929 19:0.010438 20:0.052192 
-1.983770189784902 1:0.103448 2:0.017241 3:0.034483 4:0.034483 5:0.045977 6:0.022989 7:0.017241 8:0.063218 9:0.068966 10:0.103448 11:0.045977 12:0.022989 13:0.034483 14:0.04023 15:0.051724 16:0.08046 17:0.04023 18:0.114943 19:0.034483 20:0.022989 
-0.137674765840951 1:0.036111 2:0.008333 3:0.072222 4:0.063889 5:0.072222 6:0.016667 7:0.033333 8:0.052778 9:0.066667 10:0.05 11:0.008333 12:0.1 13:0.055556 14:0.061111 15:0.022222 16:0.130556 17:0.069444 18:0.013889 19:0.002778 20:0.063889 
-0.07744953278928705 1:0.148515 2:0 3:0 4:0 5:0.009901 6:0.054455 7:0.00495 8:0.024752 9:0.287129 10:0.029703 11:0.014851 12:0.034653 13:0.079208 14:0.00495 15:0.074257 16:0.153465 17:0.039604 18:0.034653 19:0 20:0.00495 
-0.1993901113500929 1:0.125 2:0.002632 3:0.017105 4:0.031579 5:0.025 6:0.056579 7:0.015789 8:0.046053 9:0.031579 10:0.110526 11:0.022368 12:0.053947 13:0.068421 14:0.101316 15:0.019737 16:0.125 17:0.103947 18:0.036842 19:0.003947 20:0.002632 
-0.2062583132048545 1:0.048443 2:0.038062 3:0.076125 4:0.065744 5:0.027682 6:0.034602 7:0.031142 8:0.031142 9:0.031142 10:0.086505 11:0.020761 12:0.041522 13:0.086505 14:0.027682 15:0.076125 16:0.138408 17:0.058824 18:0.044983 19:0.00346 20:0.031142 
-0.1146088561639923 1:0.171429 2:0 3:0 4:0 5:0 6:0.028571 7:0 8:0 9:0.2 10:0 11:0 12:0 13:0.057143 14:0 15:0.2 16:0.285714 17:0.057143 18:0 19:0 20:0 
-4 1:0.034279 2:0.004728 3:0.042553 4:0.067376 5:0.059102 6:0.035461 7:0.021277 8:0.080378 9:0.065012 10:0.126478 11:0.021277 12:0.078014 13:0.034279 14:0.036643 15:0.043735 16:0.092199 17:0.052009 18:0.046099 19:0.00591 20:0.053191 
-0.0757100449781873 1:0.289916 2:0 3:0.021008 4:0.021008 5:0.008403 6:0.021008 7:0.012605 8:0.029412 9:0.247899 10:0.029412 11:0.008403 12:0.004202 13:0.12605 14:0.008403 15:0.021008 16:0.037815 17:0.054622 18:0.05042 19:0 20:0.008403 
-0.151229536419854 1:0.103839 2:0.008811 3:0.020138 4:0.024544 5:0.013845 6:0.071114 7:0.01888 8:0.039018 9:0.038389 10:0.064821 11:0.020768 12:0.038389 13:0.066079 14:0.181246 15:0.01825 16:0.095028 17:0.108244 18:0.061045 19:0.001888 20:0.005664 
-0.7686659919012074 1:0.138075 2:0.031381 3:0.046025 4:0.050209 5:0.056485 6:0.10251 7:0.027197 8:0.01046 9:0.035565 10:0.106695 11:0.004184 12:0.008368 13:0.119247 14:0.018828 15:0.056485 16:0.100418 17:0.037657 18:0.029289 19:0.006276 20:0.014644 
-1.810742446406193 1:0.048843 2:0.01671 3:0.061697 4:0.09126 5:0.042416 6:0.042416 7:0.017995 8:0.073265 9:0.064267 10:0.104113 11:0.033419 12:0.034704 13:0.041131 14:0.034704 15:0.062982 16:0.069409 17:0.053985 18:0.059126 19:0.005141 20:0.042416 
-1.898492551922869 1:0.085987 2:0.05414 3:0.035032 4:0.05414 5:0.035032 6:0.066879 7:0.031847 8:0.041401 9:0.035032 10:0.085987 11:0.031847 12:0.050955 13:0.044586 14:0.031847 15:0.038217 16:0.11465 17:0.063694 18:0.070064 19:0.009554 20:0.019108 
-0.05133915621997445 1:0.036585 2:0.02439 3:0.054878 4:0.060976 5:0.036585 6:0.067073 7:0.012195 8:0 9:0.030488 10:0.054878 11:0.006098 12:0.054878 13:0.085366 14:0 15:0.243902 16:0.134146 17:0.012195 18:0.04878 19:0.012195 20:0.02439 
-0.1106493158279396 1:0.03125 2:0 3:0 4:0 5:0 6:0.09375 7:0 8:0 9:0.03125 10:0 11:0.03125 12:0 13:0.09375 14:0 15:0.59375 16:0.09375 17:0 18:0.03125 19:0 20:0 
-1.319637941716801 1:0.043286 2:0.009717 3:0.061837 4:0.068021 5:0.056537 6:0.026502 7:0.016784 8:0.075088 9:0.068905 10:0.128092 11:0.013251 12:0.084806 13:0.033569 14:0.034452 15:0.024735 16:0.09629 17:0.061837 18:0.056537 19:0.006184 20:0.033569 
-4 1:0.058971 2:0.031368 3:0.051443 4:0.072773 5:0.047679 6:0.031368 7:0.025094 8:0.067754 9:0.06399 10:0.099122 11:0.035132 12:0.055207 13:0.043915 14:0.046424 15:0.052698 16:0.070263 17:0.048934 18:0.053952 19:0.012547 20:0.031368 
-0.09508942035953862 1:0.1875 2:0 3:0.03125 4:0 5:0.03125 6:0.15625 7:0 8:0.03125 9:0.15625 10:0.03125 11:0 12:0 13:0.03125 14:0.0625 15:0.09375 16:0.09375 17:0 18:0.09375 19:0 20:0 
-0.2702502778327821 1:0 2:0.016667 3:0.016667 4:0.083333 5:0.083333 6:0 7:0 8:0.05 9:0.15 10:0.1 11:0.033333 12:0.066667 13:0.016667 14:0.066667 15:0.15 16:0.05 17:0.033333 18:0.033333 19:0.016667 20:0.033333 
-0.1135954507073032 1:0.210526 2:0 3:0.026316 4:0.026316 5:0 6:0 7:0.026316 8:0.052632 9:0.105263 10:0 11:0.026316 12:0 13:0.263158 14:0 15:0.052632 16:0.105263 17:0.026316 18:0.052632 19:0 20:0.026316 
-0.07764158068902209 1:0.055961 2:0 3:0.138686 4:0.19708 5:0.029197 6:0.075426 7:0.009732 8:0.029197 9:0.128954 10:0.06326 11:0.014599 12:0.024331 13:0.041363 14:0.024331 15:0.014599 16:0.053528 17:0.034063 18:0.041363 19:0.009732 20:0.014599 
-0.2061220244422425 1:0.020668 2:0.009539 3:0.054054 4:0.062003 5:0.062003 6:0.020668 7:0.014308 8:0.084261 9:0.08903 10:0.109698 11:0.015898 12:0.085851 13:0.038156 14:0.039746 15:0.034976 16:0.054054 17:0.077901 18:0.055644 19:0.025437 20:0.046105 
-0.06737495398906526 1:0.14433 2:0 3:0.025773 4:0.025773 5:0.005155 6:0.036082 7:0.005155 8:0.030928 9:0.283505 10:0.025773 11:0.010309 12:0.020619 13:0.087629 14:0.025773 15:0.046392 16:0.113402 17:0.041237 18:0.051546 19:0.005155 20:0.015464 
-0.6496517112570371 1:0.064914 2:0.015612 3:0.054232 4:0.076417 5:0.046836 6:0.072309 7:0.021364 8:0.055053 9:0.042728 10:0.099425 11:0.021364 12:0.046015 13:0.050123 14:0.039441 15:0.052588 16:0.060805 17:0.05834 18:0.083813 19:0.007395 20:0.031224 
-0.06136664533869157 1:0.085526 2:0 3:0.105263 4:0.138158 5:0.026316 6:0.052632 7:0.019737 8:0.052632 9:0.111842 10:0.039474 11:0.013158 12:0.059211 13:0.032895 14:0.019737 15:0.019737 16:0.039474 17:0.039474 18:0.111842 19:0.006579 20:0.026316 
-2.088697145630728 1:0.02924 2:0.023392 3:0.052632 4:0.052632 5:0.064327 6:0.081871 7:0.023392 8:0.087719 9:0.076023 10:0.070175 11:0.023392 12:0.02924 13:0.046784 14:0.040936 15:0.035088 16:0.087719 17:0.046784 18:0.093567 19:0 20:0.035088 
-0.06778452540124977 1:0.04386 2:0.008772 3:0.035088 4:0.175439 5:0.026316 6:0.035088 7:0 8:0.052632 9:0.078947 10:0.114035 11:0.017544 12:0.070175 13:0.026316 14:0.078947 15:0.061404 16:0.035088 17:0.070175 18:0.052632 19:0 20:0.017544 
-4 1:0.050926 2:0.015432 3:0.041667 4:0.074074 5:0.04784 6:0.030864 7:0.013889 8:0.069444 9:0.067901 10:0.117284 11:0.018519 12:0.061728 13:0.044753 14:0.035494 15:0.044753 16:0.112654 17:0.058642 18:0.032407 19:0.012346 20:0.049383 
-0.3004249290534956 1:0.142415 2:0.01548 3:0.027864 4:0.055728 5:0.04644 6:0.164087 7:0.006192 8:0.012384 9:0.052632 10:0.049536 11:0.01548 12:0.027864 13:0.126935 14:0.04644 15:0.06192 16:0.04644 17:0.018576 18:0.03096 19:0.006192 20:0.04644 
-0.1089003411263192 1:0.138614 2:0 3:0 4:0 5:0.009901 6:0.019802 7:0.029703 8:0.009901 9:0.207921 10:0.039604 11:0.009901 12:0.029703 13:0.039604 14:0 15:0.267327 16:0.138614 17:0.009901 18:0.049505 19:0 20:0 
-0.4248277425072233 1:0.049383 2:0.028807 3:0.065844 4:0.09465 5:0.028807 6:0.041152 7:0.041152 8:0.028807 9:0.057613 10:0.102881 11:0.016461 12:0.045267 13:0.020576 14:0.032922 15:0.090535 16:0.148148 17:0.057613 18:0.024691 19:0 20:0.024691 
-0.8756473236540627 1:0.055046 2:0.018349 3:0.055046 4:0.055046 5:0.045872 6:0.036697 7:0 8:0.045872 9:0.045872 10:0.119266 11:0.009174 12:0.091743 13:0.009174 14:0.082569 15:0.06422 16:0.055046 17:0.082569 18:0.091743 19:0.009174 20:0.027523 
-4 1:0.035068 2:0.020362 3:0.044118 4:0.045249 5:0.066742 6:0.026018 7:0.024887 8:0.093891 9:0.084842 10:0.113122 11:0.015837 12:0.076923 13:0.036199 14:0.041855 15:0.040724 16:0.078054 17:0.05543 18:0.05543 19:0.00905 20:0.036199 
-0.08336140811316718 1:0.034884 2:0.011628 3:0.023256 4:0.081395 5:0.05814 6:0.069767 7:0.023256 8:0.046512 9:0.046512 10:0.104651 11:0.023256 12:0.104651 13:0.046512 14:0.023256 15:0.046512 16:0.081395 17:0.046512 18:0.093023 19:0 20:0.034884 
-0.5518080284029654 1:0.04386 2:0.030702 3:0.04386 4:0.048246 5:0.035088 6:0.026316 7:0.02193 8:0.131579 9:0.109649 10:0.092105 11:0.013158 12:0.114035 13:0.02193 14:0.026316 15:0.030702 16:0.061404 17:0.04386 18:0.061404 19:0 20:0.04386 
-0.1637054061732336 1:0.078947 2:0 3:0.078947 4:0.078947 5:0.026316 6:0.052632 7:0.026316 8:0.052632 9:0.052632 10:0.157895 11:0 12:0.052632 13:0 14:0.026316 15:0.052632 16:0.052632 17:0.026316 18:0.131579 19:0.026316 20:0.026316 
-1.003664608478591 1:0.109792 2:0.008902 3:0.035608 4:0.041543 5:0.047478 6:0.083086 7:0.023739 8:0.026706 9:0.032641 10:0.089021 11:0.011869 12:0.023739 13:0.145401 14:0.050445 15:0.077151 16:0.068249 17:0.029674 18:0.05638 19:0.008902 20:0.029674 
-0.1112286665510703 1:0.024291 2:0.012146 3:0.125506 4:0.226721 5:0.016194 6:0.052632 7:0.004049 8:0.032389 9:0.072874 10:0.117409 11:0.012146 12:0.064777 13:0.02834 14:0.016194 15:0.036437 16:0.052632 17:0.024291 18:0.048583 19:0 20:0.032389 
-0.07433072440795573 1:0.295238 2:0 3:0.004762 4:0.02381 5:0.009524 6:0.042857 7:0.004762 8:0.02381 9:0.319048 10:0.028571 11:0.009524 12:0.019048 13:0.057143 14:0.028571 15:0.02381 16:0.028571 17:0.033333 18:0.038095 19:0 20:0.009524 
-0.07439818625030752 1:0.050725 2:0.014493 3:0 4:0.028986 5:0.007246 6:0.050725 7:0.007246 8:0.028986 9:0.181159 10:0.028986 11:0.014493 12:0.057971 13:0.057971 14:0.086957 15:0.15942 16:0.065217 17:0.07971 18:0.050725 19:0.007246 20:0.021739 
-0.3307636628672904 1:0.11194 2:0.003731 3:0.033582 4:0.037313 5:0.026119 6:0.097015 7:0.011194 8:0.014925 9:0.052239 10:0.074627 11:0.007463 12:0.014925 13:0.197761 14:0.041045 15:0.05597 16:0.059701 17:0.05597 18:0.044776 19:0.014925 20:0.044776 
-0.07939449734080463 1:0.050388 2:0.015504 3:0.104651 4:0.073643 5:0.065891 6:0.046512 7:0.007752 8:0.093023 9:0.069767 10:0.124031 11:0.023256 12:0.023256 13:0.031008 14:0.034884 15:0.031008 16:0.093023 17:0.046512 18:0.050388 19:0 20:0.015504 
-0.02901980576931521 1:0.042604 2:0.011834 3:0.04497 4:0.160947 5:0.017751 6:0.010651 7:0.015385 8:0.040237 9:0.147929 10:0.121893 11:0.024852 12:0.062722 13:0.008284 14:0.062722 15:0.04142 16:0.061538 17:0.063905 18:0.04142 19:0.001183 20:0.017751 
-0.09547011177816964 1:0.25731 2:0.005848 3:0.011696 4:0.011696 5:0.005848 6:0.035088 7:0.011696 8:0.040936 9:0.192982 10:0.023392 11:0.005848 12:0.023392 13:0.05848 14:0.02924 15:0.134503 16:0.081871 17:0.017544 18:0.040936 19:0 20:0.011696 
-0.1110586204655042 1:0.096774 2:0 3:0 4:0 5:0 6:0 7:0 8:0 9:0 10:0 11:0 12:0 13:0.064516 14:0 15:0.677419 16:0.096774 17:0 18:0.064516 19:0 20:0 
-0.1095529037802512 1:0.018519 2:0 3:0.037037 4:0 5:0 6:0.111111 7:0.055556 8:0 9:0.185185 10:0.055556 11:0.018519 12:0.055556 13:0.018519 14:0 15:0.203704 16:0.166667 17:0.018519 18:0.018519 19:0 20:0.037037 
-0.01941382193009443 1:0.070111 2:0.099631 3:0.055351 4:0.070111 5:0.01107 6:0.195572 7:0.03321 8:0.01476 9:0.051661 10:0.00369 11:0.01845 12:0.01845 13:0.04428 14:0.02214 15:0.092251 16:0.114391 17:0.0369 18:0.00369 19:0 20:0.04428 
-0.01741934224869976 1:0.056338 2:0.014085 3:0.014085 4:0.112676 5:0.042254 6:0.042254 7:0.042254 8:0.056338 9:0.098592 10:0.070423 11:0.014085 12:0.028169 13:0.028169 14:0.056338 15:0.169014 16:0.014085 17:0.070423 18:0 19:0.028169 20:0.042254 
-0.5648996654943254 1:0.041667 2:0.020833 3:0.020833 4:0.145833 5:0.020833 6:0.020833 7:0.020833 8:0.083333 9:0.125 10:0.083333 11:0.020833 12:0.041667 13:0.020833 14:0.0625 15:0.0625 16:0.104167 17:0.041667 18:0.020833 19:0.041667 20:0 
-0.1117009473254102 1:0.024715 2:0.007605 3:0.04943 4:0.020913 5:0.024715 6:0.288973 7:0.005703 8:0.015209 9:0.026616 10:0.005703 11:0.015209 12:0.045627 13:0.051331 14:0.098859 15:0.070342 16:0.129278 17:0.036122 18:0.009506 19:0.005703 20:0.068441 
-1.186590602379458 1:0.042901 2:0.018386 3:0.069459 4:0.055158 5:0.046987 6:0.039837 7:0.020429 8:0.071502 9:0.061287 10:0.108274 11:0.022472 12:0.097038 13:0.032686 14:0.042901 15:0.033708 16:0.096016 17:0.057201 18:0.037794 19:0.008172 20:0.037794 
-0.3723803043472079 1:0.058824 2:0.042017 3:0.05042 4:0.07563 5:0.008403 6:0.058824 7:0.02521 8:0.05042 9:0.033613 10:0.134454 11:0.016807 12:0.008403 13:0.10084 14:0.042017 15:0.07563 16:0.084034 17:0.033613 18:0.07563 19:0 20:0.02521 
-0.2021697299261531 1:0.082192 2:0.013699 3:0.089041 4:0.054795 5:0.034247 6:0.041096 7:0 8:0.041096 9:0.034247 10:0.109589 11:0.020548 12:0.068493 13:0.034247 14:0.041096 15:0.061644 16:0.082192 17:0.061644 18:0.061644 19:0.006849 20:0.061644 
-0.1446495080992614 1:0.033333 2:0 3:0.016667 4:0.083333 5:0.033333 6:0.016667 7:0.016667 8:0.05 9:0.166667 10:0.05 11:0 12:0.05 13:0.016667 14:0.05 15:0.15 16:0.016667 17:0.1 18:0.1 19:0.016667 20:0.033333 
-0.008083375620220261 1:0.086475 2:0.002217 3:0.037694 4:0.044346 5:0.011086 6:0.022173 7:0.044346 8:0.022173 9:0.042129 10:0.093126 11:0.028825 12:0.097561 13:0.02439 14:0.16408 15:0.042129 16:0.101996 17:0.070953 18:0.042129 19:0 20:0.022173 
-0.2659698526049653 1:0.119403 2:0.007463 3:0.041045 4:0.033582 5:0.052239 6:0.078358 7:0.014925 8:0.067164 9:0.063433 10:0.074627 11:0.026119 12:0.05597 13:0.067164 14:0.037313 15:0.048507 16:0.070896 17:0.063433 18:0.05597 19:0 20:0.022388 
-0.09955639911442268 1:0.036199 2:0 3:0.054299 4:0.040724 5:0.0181 6:0.063348 7:0.013575 8:0.004525 9:0.054299 10:0.022624 11:0.022624 12:0.004525 13:0.076923 14:0.004525 15:0.244344 16:0.217195 17:0.031674 18:0.049774 19:0 20:0.040724 
-0.1161019468788823 1:0 2:0 3:0.024691 4:0.024691 5:0 6:0.037037 7:0 8:0.012346 9:0.123457 10:0 11:0 12:0 13:0.024691 14:0 15:0.333333 16:0.407407 17:0 18:0 19:0 20:0.012346 
-0.09331595292709098 1:0.029851 2:0.084577 3:0.0199 4:0.074627 5:0.044776 6:0.069652 7:0.059701 8:0.034826 9:0.139303 10:0.044776 11:0.0199 12:0.0199 13:0.029851 14:0.054726 15:0.064677 16:0.064677 17:0.069652 18:0.014925 19:0.004975 20:0.054726 
-0.1161114889423023 1:0 2:0.04902 3:0.009804 4:0.068627 5:0 6:0.068627 7:0.147059 8:0.009804 9:0 10:0.029412 11:0.019608 12:0.019608 13:0.009804 14:0.058824 15:0.343137 16:0.068627 17:0.019608 18:0.04902 19:0 20:0.029412 
-4 1:0.066062 2:0.018135 3:0.062176 4:0.068653 5:0.045337 6:0.042746 7:0.024611 8:0.060881 9:0.056995 10:0.111399 11:0.027202 12:0.028497 13:0.042746 14:0.037565 15:0.063472 16:0.07513 17:0.053109 18:0.067358 19:0.007772 20:0.040155 
-0.04797604853159865 1:0.278351 2:0 3:0.005155 4:0.030928 5:0.005155 6:0.051546 7:0 8:0.005155 9:0.298969 10:0.036082 11:0 12:0.015464 13:0.092784 14:0 15:0.010309 16:0.061856 17:0.030928 18:0.072165 19:0 20:0.005155 
-0.3583212247613594 1:0.144578 2:0.012048 3:0.078313 4:0.042169 5:0.078313 6:0.072289 7:0.006024 8:0.066265 9:0.066265 10:0.060241 11:0 12:0.018072 13:0.072289 14:0.006024 15:0.018072 16:0.060241 17:0.066265 18:0.108434 19:0 20:0.024096 
-2.153759407366083 1:0.071186 2:0.030508 3:0.047458 4:0.037288 5:0.057627 6:0.050847 7:0.016949 8:0.023729 9:0.071186 10:0.145763 11:0.020339 12:0.030508 13:0.037288 14:0.050847 15:0.071186 16:0.054237 17:0.037288 18:0.081356 19:0.010169 20:0.054237 
-0.8800913515128619 1:0.107649 2:0.022663 3:0.053824 4:0.053824 5:0.028329 6:0.096317 7:0.014164 8:0.070822 9:0.056657 10:0.093484 11:0.025496 12:0.031161 13:0.05949 14:0.022663 15:0.053824 16:0.053824 17:0.03966 18:0.09915 19:0 20:0.016997 
-0.219548701241659 1:0.088012 2:0.013657 3:0.060698 4:0.062215 5:0.033384 6:0.059181 7:0.037936 8:0.051593 9:0.051593 10:0.091047 11:0.042489 12:0.039454 13:0.028832 14:0.042489 15:0.059181 16:0.053111 17:0.068285 18:0.062215 19:0.010622 20:0.044006 
-4 1:0.078987 2:0.013413 3:0.04769 4:0.04769 5:0.040238 6:0.041729 7:0.022355 8:0.078987 9:0.0462 10:0.120715 11:0.023845 12:0.04918 13:0.059613 14:0.0462 15:0.043219 16:0.055142 17:0.058122 18:0.076006 19:0.017884 20:0.032787 
-4 1:0.057279 2:0.031026 3:0.0358 4:0.073986 5:0.069212 6:0.059666 7:0.019093 8:0.069212 9:0.066826 10:0.105012 11:0.019093 12:0.050119 13:0.050119 14:0.02864 15:0.052506 16:0.069212 17:0.047733 18:0.040573 19:0.00716 20:0.047733 
-0.6302448890380282 1:0.092025 2:0.030675 3:0.021472 4:0.058282 5:0.021472 6:0.076687 7:0.042945 8:0.027607 9:0.027607 10:0.156442 11:0.009202 12:0.003067 13:0.052147 14:0.042945 15:0.119632 16:0.06135 17:0.039877 18:0.055215 19:0.021472 20:0.039877 
-0.9989026320128813 1:0.064516 2:0.020528 3:0.046921 4:0.052786 5:0.035191 6:0.085044 7:0.026393 8:0.055718 9:0.061584 10:0.093842 11:0.017595 12:0.017595 13:0.064516 14:0.038123 15:0.055718 16:0.067449 17:0.061584 18:0.090909 19:0.02346 20:0.020528 
-4 1:0.076866 2:0.028086 3:0.046563 4:0.06578 5:0.04952 6:0.076127 7:0.02439 8:0.069475 9:0.05765 10:0.076866 11:0.031781 12:0.042868 13:0.051737 14:0.036955 15:0.044346 16:0.061345 17:0.051737 18:0.06578 19:0.006652 20:0.035477 
-3.585921260445906 1:0.040825 2:0.011414 3:0.058385 4:0.057068 5:0.036435 6:0.03863 7:0.026339 8:0.061457 9:0.076383 10:0.083406 11:0.018437 12:0.080773 13:0.046532 14:0.03468 15:0.046532 16:0.122476 17:0.072432 18:0.045215 19:0.007902 20:0.03468 
-0.3841126629999725 1:0.076023 2:0.002924 3:0.046784 4:0.04386 5:0.055556 6:0.073099 7:0.002924 8:0.038012 9:0.040936 10:0.087719 11:0.035088 12:0.096491 13:0.067251 14:0.04386 15:0.052632 16:0.073099 17:0.040936 18:0.064327 19:0.008772 20:0.049708 
-1.582335752206023 1:0.089337 2:0.002882 3:0.043228 4:0.040346 5:0.048991 6:0.072046 7:0.005764 8:0.04611 9:0.04611 10:0.086455 11:0.014409 12:0.092219 13:0.054755 14:0.037464 15:0.04611 16:0.092219 17:0.04611 18:0.074928 19:0.008646 20:0.051873 
-4 1:0.044248 2:0.00885 3:0.059735 4:0.04646 5:0.084071 6:0.061947 7:0.017699 8:0.070796 9:0.090708 10:0.088496 11:0.017699 12:0.073009 13:0.033186 14:0.030973 15:0.013274 16:0.059735 17:0.075221 18:0.066372 19:0.00885 20:0.048673 
