svm_type c_svc
kernel_type rbf
gamma 128
nr_class 2
total_sv 65
rho 1.42638
label 1 -1
nr_sv 8 57
SV
4 1:0.036904 2:0.014401 3:0.054005 4:0.067507 5:0.029703 6:0.032403 7:0.024302 8:0.088209 9:0.077408 10:0.10081 11:0.018002 12:0.105311 13:0.026103 14:0.062106 15:0.036904 16:0.10441 17:0.065707 18:0.034203 19:0.0009 20:0.020702 
1.922742463960413 1:0.113772 2:0 3:0.055888 4:0.177645 5:0.013972 6:0.01996 7:0.007984 8:0.01996 9:0.095808 10:0.117764 11:0.021956 12:0.031936 13:0.007984 14:0.081836 15:0.103792 16:0.067864 17:0.031936 18:0.025948 19:0 20:0.003992 
4 1:0.069307 2:0.006601 3:0.023102 4:0.059406 5:0.039604 6:0.042904 7:0.016502 8:0.036304 9:0.056106 10:0.066007 11:0.036304 12:0.046205 13:0.072607 14:0.085809 15:0.069307 16:0.138614 17:0.082508 18:0.039604 19:0.0033 20:0.009901 
4 1:0.058962 2:0.008255 3:0.058962 4:0.071934 5:0.038915 6:0.054245 7:0.020047 8:0.0625 9:0.067217 10:0.095519 11:0.025943 12:0.048349 13:0.068396 14:0.04717 15:0.064858 16:0.066038 17:0.048349 18:0.068396 19:0.005896 20:0.020047 
0.01686552976149924 1:0.091652 2:0.004537 3:0.059891 4:0.170599 5:0.009074 6:0.020871 7:0.017241 8:0.032668 9:0.124319 10:0.130672 11:0.024501 12:0.04265 13:0.000907 14:0.07804 15:0.059891 16:0.051724 17:0.041742 18:0.027223 19:0.002722 20:0.009074 
4 1:0.064317 2:0.013216 3:0.063436 4:0.085463 5:0.05022 6:0.043172 7:0.025551 8:0.065198 9:0.060793 10:0.090749 11:0.038767 12:0.056388 13:0.037004 14:0.036123 15:0.073128 16:0.05022 17:0.046696 18:0.055507 19:0.005286 20:0.038767 
4 1:0.093082 2:0.008647 3:0.063072 4:0.123601 5:0.027467 6:0.044761 7:0.019329 8:0.0412 9:0.098678 10:0.105799 11:0.018311 12:0.046287 13:0.016277 14:0.072228 15:0.06409 16:0.053917 17:0.034079 18:0.04527 19:0.008138 20:0.015768 
4 1:0.087629 2:0.008763 3:0.051546 4:0.133505 5:0.028866 6:0.03866 7:0.019588 8:0.049485 9:0.111856 10:0.101031 11:0.026804 12:0.038144 13:0.016495 14:0.06701 15:0.050515 16:0.054639 17:0.046392 18:0.042784 19:0.004639 20:0.021649 
-0.9139024713667326 1:0.048913 2:0.01087 3:0.054348 4:0.081522 5:0.021739 6:0.048913 7:0.01087 8:0.092391 9:0.043478 10:0.119565 11:0.021739 12:0.103261 13:0.016304 14:0.059783 15:0.070652 16:0.076087 17:0.054348 18:0.043478 19:0.005435 20:0.016304 
-0.1277772525098433 1:0.074681 2:0.003643 3:0.052823 4:0.125683 5:0.04918 6:0.061931 7:0.025501 8:0.07286 9:0.078324 10:0.100182 11:0.021858 12:0.038251 13:0.025501 14:0.010929 15:0.058288 16:0.047359 17:0.038251 18:0.071038 19:0.009107 20:0.034608 
-0.1534295436560654 1:0.064114 2:0.012048 3:0.055508 4:0.068847 5:0.039587 6:0.062823 7:0.026678 8:0.062392 9:0.047332 10:0.091652 11:0.032272 12:0.04389 13:0.048193 14:0.04389 15:0.061962 16:0.067126 17:0.045181 18:0.080465 19:0.011618 20:0.034423 
-0.1251071938654331 1:0.019194 2:0.017274 3:0.051823 4:0.06142 5:0.03263 6:0.049904 7:0.028791 8:0.086372 9:0.049904 10:0.067179 11:0.017274 12:0.117083 13:0.046065 14:0.042226 15:0.047985 16:0.105566 17:0.067179 18:0.040307 19:0.007678 20:0.044146 
-0.4688860005385018 1:0.134783 2:0 3:0.078261 4:0.086957 5:0.03913 6:0.056522 7:0.013043 8:0.069565 9:0.082609 10:0.078261 11:0.026087 12:0.030435 13:0.021739 14:0.065217 15:0.065217 16:0.043478 17:0.043478 18:0.03913 19:0.004348 20:0.021739 
-0.1354591180290393 1:0.068548 2:0.012097 3:0.055108 4:0.073925 5:0.040323 6:0.071237 7:0.016129 8:0.073925 9:0.076613 10:0.104839 11:0.02957 12:0.045699 13:0.043011 14:0.049731 15:0.047043 16:0.061828 17:0.045699 18:0.064516 19:0.005376 20:0.014785 
-0.5461036561270807 1:0.052632 2:0.002288 3:0.06865 4:0.100686 5:0.050343 6:0.064073 7:0.02746 8:0.06865 9:0.059497 10:0.102975 11:0.034325 12:0.020595 13:0.057208 14:0.020595 15:0.066362 16:0.05492 17:0.050343 18:0.066362 19:0.006865 20:0.025172 
-0.2225904727735608 1:0.056291 2:0.013245 3:0.066225 4:0.086093 5:0.086093 6:0.049669 7:0.009934 8:0.043046 9:0.05298 10:0.115894 11:0.033113 12:0.043046 13:0.02649 14:0.033113 15:0.096026 16:0.059603 17:0.043046 18:0.059603 19:0.006623 20:0.019868 
-1.125117645033707 1:0.084071 2:0.004425 3:0.057522 4:0.10177 5:0.026549 6:0.026549 7:0.00885 8:0.070796 9:0.110619 10:0.123894 11:0.022124 12:0.048673 13:0.026549 14:0.075221 15:0.066372 16:0.030973 17:0.026549 18:0.070796 19:0 20:0.017699 
-0.1857123294800127 1:0.074703 2:0.003396 3:0.074703 4:0.105263 5:0.013582 6:0.059423 7:0.013582 8:0.047538 9:0.06961 10:0.091681 11:0.022071 12:0.050934 13:0.013582 14:0.06961 15:0.095076 16:0.054329 17:0.056027 18:0.049236 19:0.010187 20:0.025467 
-0.5205896091146107 1:0.063652 2:0.0134 3:0.056951 4:0.092127 5:0.041876 6:0.060302 7:0.031826 8:0.067002 9:0.080402 10:0.088777 11:0.035176 12:0.041876 13:0.051926 14:0.031826 15:0.048576 16:0.038526 17:0.061977 18:0.053601 19:0.00335 20:0.036851 
-0.3612795443114496 1:0.089686 2:0.026906 3:0.049327 4:0.098655 5:0.058296 6:0.067265 7:0.026906 8:0.03139 9:0.067265 10:0.107623 11:0.026906 12:0.053812 13:0.040359 14:0.058296 15:0.035874 16:0.053812 17:0.022422 18:0.071749 19:0.004484 20:0.008969 
-0.1949776697477321 1:0.07483 2:0 3:0.058503 4:0.07483 5:0.027211 6:0.063946 7:0.017687 8:0.082993 9:0.063946 10:0.097959 11:0.02585 12:0.044898 13:0.051701 14:0.028571 15:0.059864 16:0.061224 17:0.04898 18:0.085714 19:0.009524 20:0.021769 
-0.1508419241234214 1:0.061728 2:0.012346 3:0.041152 4:0.096708 5:0.063786 6:0.028807 7:0.020576 8:0.067901 9:0.08642 10:0.115226 11:0.020576 12:0.037037 13:0.04321 14:0.055556 15:0.04321 16:0.084362 17:0.037037 18:0.047325 19:0.010288 20:0.026749 
-0.1555852072496613 1:0.105978 2:0.008152 3:0.065217 4:0.122283 5:0.027174 6:0.067935 7:0.019022 8:0.043478 9:0.081522 10:0.059783 11:0.048913 12:0.043478 13:0.059783 14:0.038043 15:0.070652 16:0.05163 17:0.024457 18:0.040761 19:0.008152 20:0.013587 
-2.783541947254786 1:0.068376 2:0.003419 3:0.059829 4:0.129915 5:0.02906 6:0.035897 7:0.018803 8:0.051282 9:0.094017 10:0.094017 11:0.02735 12:0.035897 13:0.042735 14:0.075214 15:0.078632 16:0.02906 17:0.035897 18:0.046154 19:0.011966 20:0.032479 
-0.1833748497207063 1:0.118321 2:0 3:0.045802 4:0.122137 5:0.019084 6:0.007634 7:0.015267 8:0.026718 9:0.072519 10:0.125954 11:0.034351 12:0.030534 13:0.034351 14:0.080153 15:0.053435 16:0.034351 17:0.080153 18:0.049618 19:0 20:0.049618 
-0.5915137508423363 1:0.090909 2:0 3:0.056818 4:0.121212 5:0.026515 6:0.022727 7:0.007576 8:0.022727 9:0.087121 10:0.140152 11:0.026515 12:0.018939 13:0.037879 14:0.068182 15:0.075758 16:0.045455 17:0.05303 18:0.060606 19:0.011364 20:0.026515 
-0.2411811709337985 1:0.148148 2:0.012346 3:0.037037 4:0.185185 5:0.037037 6:0.074074 7:0 8:0.024691 9:0.123457 10:0.111111 11:0.024691 12:0.012346 13:0 14:0.037037 15:0.024691 16:0.074074 17:0 18:0.061728 19:0.012346 20:0 
-0.004780419504700614 1:0.067293 2:0.007825 3:0.050078 4:0.078247 5:0.025039 6:0.045383 7:0.01252 8:0.035994 9:0.057903 10:0.118936 11:0.028169 12:0.039124 13:0.101721 14:0.054773 15:0.043818 16:0.093897 17:0.057903 18:0.057903 19:0.00939 20:0.014085 
-0.09023288372407666 1:0.055556 2:0.007663 3:0.05364 4:0.074713 5:0.063218 6:0.051724 7:0.028736 8:0.070881 9:0.076628 10:0.09387 11:0.030651 12:0.047893 13:0.045977 14:0.030651 15:0.051724 16:0.045977 17:0.063218 18:0.051724 19:0.01341 20:0.042146 
-0.1068370055702821 1:0.052632 2:0.015038 3:0.048872 4:0.058271 5:0.046992 6:0.054511 7:0.022556 8:0.056391 9:0.050752 10:0.092105 11:0.033835 12:0.048872 13:0.06015 14:0.056391 15:0.075188 16:0.048872 17:0.052632 18:0.058271 19:0.020677 20:0.046992 
-0.9308272955610424 1:0.10687 2:0 3:0.071247 4:0.109415 5:0.022901 6:0.066158 7:0.005089 8:0.033079 9:0.124682 10:0.068702 11:0.012723 12:0.048346 13:0.015267 14:0.058524 15:0.063613 16:0.086514 17:0.025445 18:0.030534 19:0.025445 20:0.025445 
-0.06623879657357855 1:0.047727 2:0.013636 3:0.059091 4:0.095455 5:0.029545 6:0.029545 7:0.018182 8:0.065909 9:0.084091 10:0.109091 11:0.020455 12:0.090909 13:0.020455 14:0.029545 15:0.063636 16:0.068182 17:0.043182 18:0.063636 19:0.004545 20:0.043182 
-0.3365889899306135 1:0.066313 2:0.01061 3:0.034483 4:0.04244 5:0.04244 6:0.037135 7:0.026525 8:0.034483 9:0.03183 10:0.055703 11:0.037135 12:0.06366 13:0.100796 14:0.100796 15:0.055703 16:0.111406 17:0.061008 18:0.05305 19:0.007958 20:0.026525 
-0.544193802053104 1:0.053883 2:0.017433 3:0.060222 4:0.093502 5:0.038035 6:0.047544 7:0.011094 8:0.069731 9:0.085578 10:0.107765 11:0.020602 12:0.03962 13:0.033281 14:0.060222 15:0.057052 16:0.063391 17:0.049128 18:0.063391 19:0.004754 20:0.023772 
-0.3411870548582107 1:0.0625 2:0.014423 3:0.064904 4:0.0625 5:0.040865 6:0.067308 7:0.021635 8:0.048077 9:0.048077 10:0.072115 11:0.026442 12:0.038462 13:0.064904 14:0.052885 15:0.079327 16:0.064904 17:0.050481 18:0.088942 19:0.002404 20:0.028846 
-2.565223257472287 1:0.051621 2:0.0012 3:0.046819 4:0.058824 5:0.030012 6:0.038415 7:0.026411 8:0.069628 9:0.07563 10:0.079232 11:0.02401 12:0.07443 13:0.051621 14:0.070828 15:0.048019 16:0.103241 17:0.072029 18:0.04922 19:0.003601 20:0.02521 
-1.133528869782294 1:0.090592 2:0.001742 3:0.055749 4:0.125436 5:0.012195 6:0.047038 7:0.019164 8:0.022648 9:0.066202 10:0.121951 11:0.017422 12:0.029617 13:0.017422 14:0.062718 15:0.108014 16:0.090592 17:0.04878 18:0.041812 19:0.006969 20:0.013937 
-0.0625178436863347 1:0.0384 2:0.0048 3:0.064 4:0.0832 5:0.0496 6:0.0368 7:0.0208 8:0.072 9:0.0848 10:0.1088 11:0.0224 12:0.0928 13:0.0464 14:0.048 15:0.024 16:0.0704 17:0.0416 18:0.04 19:0.0048 20:0.0464 
-0.08561909611926088 1:0.079818 2:0.006842 3:0.038769 4:0.128848 5:0.014823 6:0.027366 7:0.012543 8:0.021665 9:0.107184 10:0.077537 11:0.013683 12:0.033067 13:0.063854 14:0.078677 15:0.099202 16:0.084379 17:0.042189 18:0.050171 19:0.003421 20:0.015964 
-0.2573189228096314 1:0.057654 2:0.00994 3:0.059642 4:0.076541 5:0.043738 6:0.050696 7:0.020875 8:0.054672 9:0.069583 10:0.082505 11:0.025845 12:0.082505 13:0.054672 14:0.039761 15:0.059642 16:0.062624 17:0.038767 18:0.054672 19:0.013917 20:0.04175 
-0.06507206755105469 1:0.044562 2:0.007553 3:0.056647 4:0.096677 5:0.036254 6:0.036254 7:0.010574 8:0.058912 9:0.095166 10:0.111027 11:0.018882 12:0.068731 13:0.021903 14:0.046073 15:0.052115 16:0.104985 17:0.053625 18:0.056647 19:0.002266 20:0.021148 
-0.1207587232930488 1:0.093371 2:0.00784 3:0.047755 4:0.054882 5:0.023521 6:0.05417 7:0.035638 8:0.02067 9:0.044191 10:0.081967 11:0.04134 12:0.046329 13:0.069138 14:0.127584 15:0.040627 16:0.118318 17:0.043478 18:0.034212 19:0.002138 20:0.01283 
-1.173226670266693 1:0.058971 2:0.031368 3:0.051443 4:0.072773 5:0.047679 6:0.031368 7:0.025094 8:0.067754 9:0.06399 10:0.099122 11:0.035132 12:0.055207 13:0.043915 14:0.046424 15:0.052698 16:0.070263 17:0.048934 18:0.053952 19:0.012547 20:0.031368 
-0.2730494702278244 1:0.060823 2:0.007156 3:0.035778 4:0.051878 5:0.021467 6:0.055456 7:0.039356 8:0.021467 9:0.044723 10:0.09839 11:0.030411 12:0.051878 13:0.071556 14:0.100179 15:0.037567 16:0.127013 17:0.059034 18:0.057245 19:0.008945 20:0.019678 
-0.1446810062861207 1:0.067841 2:0.022907 3:0.042291 4:0.075771 5:0.037885 6:0.051982 7:0.022026 8:0.047577 9:0.047577 10:0.0837 11:0.019383 12:0.044053 13:0.068722 14:0.055507 15:0.071366 16:0.093392 17:0.052863 18:0.05815 19:0.007048 20:0.029956 
-0.3737958406485259 1:0.070664 2:0.008565 3:0.051392 4:0.029979 5:0.06424 6:0.044968 7:0.025696 8:0.047109 9:0.053533 10:0.08137 11:0.03212 12:0.055675 13:0.089936 14:0.062099 15:0.062099 16:0.092077 17:0.059957 18:0.047109 19:0.006424 20:0.014989 
-0.5068685599086898 1:0.094488 2:0 3:0.031496 4:0.11811 5:0.015748 6:0.055118 7:0 8:0.031496 9:0.102362 10:0.141732 11:0.015748 12:0.023622 13:0.015748 14:0.133858 15:0.062992 16:0.047244 17:0.031496 18:0.055118 19:0 20:0.023622 
-0.1597395137894879 1:0.072727 2:0.022727 3:0.018182 4:0.095455 5:0.05 6:0.05 7:0.027273 8:0.022727 9:0.05 10:0.063636 11:0.027273 12:0.054545 13:0.059091 14:0.05 15:0.072727 16:0.136364 17:0.059091 18:0.009091 19:0.013636 20:0.045455 
-0.01641459810555478 1:0.048287 2:0.007788 3:0.073209 4:0.065421 5:0.031153 6:0.034268 7:0.021807 8:0.062305 9:0.0919 10:0.095016 11:0.028037 12:0.096573 13:0.037383 14:0.040498 15:0.040498 16:0.079439 17:0.05919 18:0.05919 19:0.004673 20:0.023364 
-0.3234202119246666 1:0.0625 2:0.014423 3:0.0625 4:0.076923 5:0.019231 6:0.052885 7:0.028846 8:0.081731 9:0.096154 10:0.100962 11:0.0625 12:0.0625 13:0.014423 14:0.072115 15:0.067308 16:0.048077 17:0.014423 18:0.043269 19:0.004808 20:0.014423 
-0.3687992027427976 1:0.055556 2:0.024691 3:0.049383 4:0.114198 5:0.04321 6:0.037037 7:0.018519 8:0.04321 9:0.080247 10:0.080247 11:0.021605 12:0.058642 13:0.046296 14:0.067901 15:0.052469 16:0.067901 17:0.058642 18:0.040123 19:0 20:0.040123 
-0.1255589283022041 1:0.040777 2:0.007767 3:0.042718 4:0.102913 5:0.038835 6:0.042718 7:0.009709 8:0.064078 9:0.079612 10:0.102913 11:0.023301 12:0.07767 13:0.042718 14:0.04466 15:0.067961 16:0.099029 17:0.034951 18:0.036893 19:0.007767 20:0.03301 
-2.088852344546039 1:0.090604 2:0.015101 3:0.060403 4:0.097315 5:0.036913 6:0.048658 7:0.025168 8:0.043624 9:0.092282 10:0.088926 11:0.015101 12:0.055369 13:0.02349 14:0.035235 15:0.058725 16:0.073826 17:0.053691 18:0.062081 19:0.005034 20:0.018456 
-0.1924939588294874 1:0.056842 2:0.012632 3:0.063158 4:0.058947 5:0.042105 6:0.071579 7:0.018947 8:0.035789 9:0.058947 10:0.075789 11:0.033684 12:0.04 13:0.067368 14:0.054737 15:0.084211 16:0.063158 17:0.050526 18:0.082105 19:0.004211 20:0.025263 
-0.1566963732043425 1:0.04186 2:0.009302 3:0.055814 4:0.093023 5:0.032558 6:0.032558 7:0.060465 8:0.051163 9:0.083721 10:0.07907 11:0.069767 12:0.069767 13:0.027907 14:0.055814 15:0.060465 16:0.065116 17:0.027907 18:0.055814 19:0.004651 20:0.023256 
-0.8048119130597254 1:0.046296 2:0.00463 3:0.023148 4:0.046296 5:0.027778 6:0.037037 7:0.018519 8:0.032407 9:0.027778 10:0.064815 11:0.046296 12:0.041667 13:0.115741 14:0.078704 15:0.083333 16:0.12037 17:0.097222 18:0.041667 19:0.013889 20:0.032407 
-0.9879131454480359 1:0.042901 2:0.018386 3:0.069459 4:0.055158 5:0.046987 6:0.039837 7:0.020429 8:0.071502 9:0.061287 10:0.108274 11:0.022472 12:0.097038 13:0.032686 14:0.042901 15:0.033708 16:0.096016 17:0.057201 18:0.037794 19:0.008172 20:0.037794 
-0.6625199245595893 1:0.044057 2:0.01127 3:0.039959 4:0.156762 5:0.022541 6:0.018443 7:0.015369 8:0.044057 9:0.144467 10:0.116803 11:0.016393 12:0.056352 13:0.020492 14:0.061475 15:0.036885 16:0.064549 17:0.064549 18:0.040984 19:0.004098 20:0.020492 
-0.4403540979957769 1:0.043129 2:0.009027 3:0.042126 4:0.156469 5:0.02006 6:0.014042 7:0.015045 8:0.046138 9:0.142427 10:0.114343 11:0.025075 12:0.060181 13:0.016048 14:0.059178 15:0.035105 16:0.074223 17:0.062187 18:0.042126 19:0.004012 20:0.019057 
-0.1057087085255426 1:0.029372 2:0.009346 3:0.069426 4:0.097463 5:0.029372 6:0.020027 7:0.009346 8:0.044059 9:0.108144 10:0.140187 11:0.018692 12:0.125501 13:0.013351 14:0.069426 15:0.036048 16:0.072096 17:0.044059 18:0.032043 19:0.008011 20:0.024032 
-0.3690862692250825 1:0.065359 2:0.013889 3:0.062908 4:0.07598 5:0.04085 6:0.06781 7:0.026961 8:0.074346 9:0.060458 10:0.086601 11:0.03268 12:0.033497 13:0.043301 14:0.039216 15:0.064542 16:0.061275 17:0.05719 18:0.049837 19:0.005719 20:0.037582 
-0.5082788092439608 1:0.056277 2:0.008658 3:0.060606 4:0.069264 5:0.030303 6:0.047619 7:0.008658 8:0.034632 9:0.073593 10:0.064935 11:0.012987 12:0.047619 13:0.056277 14:0.069264 15:0.099567 16:0.138528 17:0.060606 18:0.030303 19:0.012987 20:0.017316 
-0.1226549901260052 1:0.107807 2:0.011152 3:0.033457 4:0.055762 5:0.040892 6:0.05948 7:0.026022 8:0.026022 9:0.040892 10:0.05948 11:0.02974 12:0.040892 13:0.070632 14:0.040892 15:0.070632 16:0.171004 17:0.052045 18:0.011152 19:0.011152 20:0.040892 
-0.02848198507763684 1:0.036247 2:0.016347 3:0.046908 4:0.04833 5:0.061123 6:0.051173 7:0.02914 8:0.083866 9:0.075338 10:0.088842 11:0.0199 12:0.122246 13:0.026297 14:0.029851 15:0.024165 16:0.08742 17:0.056148 18:0.054016 19:0.007107 20:0.035537 
-0.1083050865101247 1:0.046053 2:0.016447 3:0.059211 4:0.088816 5:0.082237 6:0.049342 7:0.023026 8:0.075658 9:0.036184 10:0.095395 11:0.006579 12:0.039474 13:0.069079 14:0.032895 15:0.0625 16:0.049342 17:0.0625 18:0.069079 19:0.006579 20:0.029605 
