svm_type c_svc
kernel_type rbf
gamma 128
nr_class 2
total_sv 95
rho 1.42201
label 1 -1
nr_sv 22 73
SV
3.587090861705472 1:0.081505 2:0.009404 3:0.089342 4:0.081505 5:0.050157 6:0.051724 7:0.017241 8:0.043887 9:0.105016 10:0.07837 11:0.010972 12:0.032915 13:0.057994 14:0.031348 15:0.029781 16:0.051724 17:0.050157 18:0.075235 19:0.010972 20:0.040752 
4 1:0.065649 2:0.003053 3:0.076336 4:0.082443 5:0.036641 6:0.067176 7:0.00916 8:0.087023 9:0.096183 10:0.082443 11:0.012214 12:0.056489 13:0.038168 14:0.044275 15:0.036641 16:0.042748 17:0.058015 18:0.082443 19:0.001527 20:0.021374 
4 1:0.048128 2:0.016043 3:0.037433 4:0.069519 5:0.053476 6:0.053476 7:0.058824 8:0.069519 9:0.037433 10:0.074866 11:0.02139 12:0.037433 13:0.069519 14:0.042781 15:0.037433 16:0.074866 17:0.064171 18:0.069519 19:0.026738 20:0.037433 
4 1:0.066667 2:0.010753 3:0.027957 4:0.047312 5:0.055914 6:0.098925 7:0.019355 8:0.045161 9:0.032258 10:0.094624 11:0.017204 12:0.075269 13:0.055914 14:0.113978 15:0.045161 16:0.053763 17:0.049462 18:0.060215 19:0.012903 20:0.017204 
2.695535884360874 1:0.080078 2:0.007813 3:0.064453 4:0.091797 5:0.074219 6:0.054688 7:0.023438 8:0.048828 9:0.095703 10:0.070313 11:0.003906 12:0.048828 13:0.058594 14:0.039063 15:0.011719 16:0.060547 17:0.044922 18:0.087891 19:0.005859 20:0.027344 
2.967323917140124 1:0.050505 2:0.015152 3:0.035354 4:0.065657 5:0.055556 6:0.065657 7:0.045455 8:0.090909 9:0.035354 10:0.085859 11:0.020202 12:0.035354 13:0.080808 14:0.035354 15:0.025253 16:0.085859 17:0.045455 18:0.080808 19:0.015152 20:0.030303 
4 1:0.047619 2:0.009524 3:0.07619 4:0.057143 5:0.085714 6:0.085714 7:0.019048 8:0.028571 9:0.07619 10:0.114286 11:0.009524 12:0.019048 13:0.047619 14:0.066667 15:0.038095 16:0.057143 17:0.047619 18:0.066667 19:0.019048 20:0.028571 
4 1:0.056093 2:0.009671 3:0.065764 4:0.083172 5:0.052224 6:0.034816 7:0.029014 8:0.081238 9:0.058027 10:0.104449 11:0.01354 12:0.052224 13:0.052224 14:0.038685 15:0.027079 16:0.06383 17:0.056093 18:0.071567 19:0.005803 20:0.044487 
4 1:0.07946 2:0.005997 3:0.077961 4:0.092954 5:0.035982 6:0.086957 7:0.007496 8:0.073463 9:0.094453 10:0.074963 11:0.014993 12:0.041979 13:0.029985 14:0.032984 15:0.044978 16:0.038981 17:0.065967 18:0.073463 19:0.004498 20:0.022489 
0.9012947548879566 1:0.047368 2:0.010526 3:0.05 4:0.026316 5:0.052632 6:0.055263 7:0.073684 8:0.071053 9:0.042105 10:0.113158 11:0.015789 12:0.026316 13:0.071053 14:0.028947 15:0.042105 16:0.078947 17:0.042105 18:0.057895 19:0.034211 20:0.060526 
4 1:0.0625 2:0.023438 3:0.039063 4:0.054688 5:0.050781 6:0.097656 7:0.035156 8:0.0625 9:0.039063 10:0.070313 11:0.023438 12:0.035156 13:0.054688 14:0.015625 15:0.054688 16:0.097656 17:0.0625 18:0.054688 19:0.015625 20:0.050781 
4 1:0.075415 2:0.001508 3:0.082956 4:0.090498 5:0.043741 6:0.073906 7:0.00905 8:0.063348 9:0.087481 10:0.07994 11:0.015083 12:0.049774 13:0.034691 14:0.031674 15:0.039216 16:0.05279 17:0.060332 18:0.082956 19:0.001508 20:0.024133 
4 1:0.05 2:0.021429 3:0.035714 4:0.078571 5:0.028571 6:0.121429 7:0.021429 8:0.064286 9:0.085714 10:0.128571 11:0.021429 12:0.007143 13:0.05 14:0.035714 15:0.057143 16:0.064286 17:0.042857 18:0.057143 19:0.014286 20:0.014286 
0.3679089428381203 1:0.071104 2:0.003026 3:0.081694 4:0.093797 5:0.033283 6:0.075643 7:0.009077 8:0.068079 9:0.104387 10:0.072617 11:0.016641 12:0.049924 13:0.033283 14:0.037821 15:0.039334 16:0.040847 17:0.065053 18:0.078669 19:0.003026 20:0.022693 
0.1557605287374767 1:0.077744 2:0.003049 3:0.083841 4:0.082317 5:0.036585 6:0.079268 7:0.01372 8:0.064024 9:0.097561 10:0.077744 11:0.015244 12:0.042683 13:0.039634 14:0.03811 15:0.039634 16:0.042683 17:0.059451 18:0.083841 19:0.003049 20:0.019817 
4 1:0.072271 2:0.010324 3:0.070796 4:0.067847 5:0.057522 6:0.056047 7:0.025074 8:0.044248 9:0.069322 10:0.10177 11:0.026549 12:0.042773 13:0.048673 14:0.025074 15:0.039823 16:0.057522 17:0.058997 18:0.070796 19:0.007375 20:0.047198 
3.988693360250629 1:0.039474 2:0.007895 3:0.044737 4:0.026316 5:0.057895 6:0.071053 7:0.068421 8:0.05 9:0.05 10:0.107895 11:0.015789 12:0.031579 13:0.063158 14:0.034211 15:0.036842 16:0.084211 17:0.05 18:0.063158 19:0.036842 20:0.060526 
4 1:0.076389 2:0 3:0.072917 4:0.104167 5:0.017361 6:0.083333 7:0.013889 8:0.072917 9:0.076389 10:0.059028 11:0.013889 12:0.055556 13:0.048611 14:0.052083 15:0.027778 16:0.059028 17:0.052083 18:0.090278 19:0.003472 20:0.020833 
2.587200470106679 1:0.057143 2:0.006349 3:0.146032 4:0.114286 5:0.053968 6:0.050794 7:0.034921 8:0.034921 9:0.092063 10:0.066667 11:0.028571 12:0.028571 13:0.025397 14:0.034921 15:0.04127 16:0.034921 17:0.038095 18:0.053968 19:0.019048 20:0.038095 
3.149974423618918 1:0.103448 2:0.011494 3:0.086207 4:0.091954 5:0.057471 6:0.045977 7:0.021073 8:0.047893 9:0.06705 10:0.088123 11:0.017241 12:0.047893 13:0.042146 14:0.036398 15:0.01341 16:0.06705 17:0.028736 18:0.076628 19:0.007663 20:0.042146 
4 1:0.070496 2:0.020888 3:0.044386 4:0.036554 5:0.049608 6:0.060052 7:0.052219 8:0.046997 9:0.044386 10:0.10705 11:0.015666 12:0.02611 13:0.062663 14:0.023499 15:0.052219 16:0.060052 17:0.046997 18:0.086162 19:0.02611 20:0.067885 
4 1:0.07804 2:0.00726 3:0.085299 4:0.049002 5:0.041742 6:0.088929 7:0.010889 8:0.047187 9:0.068966 10:0.087114 11:0.012704 12:0.059891 13:0.041742 14:0.032668 15:0.025408 16:0.054446 17:0.038113 18:0.088929 19:0.030853 20:0.050817 
-0.241674559651873 1:0.09375 2:0.052083 3:0.114583 4:0.125 5:0.041667 6:0.0625 7:0.010417 8:0.041667 9:0.041667 10:0.052083 11:0 12:0 13:0.03125 14:0.03125 15:0.010417 16:0.083333 17:0.0625 18:0.104167 19:0 20:0.041667 
-4 1:0.059406 2:0.009901 3:0.049505 4:0.044554 5:0.044554 6:0.056931 7:0.066832 8:0.044554 9:0.049505 10:0.108911 11:0.022277 12:0.042079 13:0.079208 14:0.014851 15:0.044554 16:0.066832 17:0.042079 18:0.066832 19:0.037129 20:0.049505 
-0.4287643614134765 1:0.094708 2:0.008357 3:0.052925 4:0.086351 5:0.058496 6:0.089136 7:0.019499 8:0.069638 9:0.052925 10:0.075209 11:0.022284 12:0.05571 13:0.027855 14:0.02507 15:0.027855 16:0.064067 17:0.050139 18:0.083565 19:0.002786 20:0.033426 
-0.2054307202693116 1:0.060367 2:0.026247 3:0.060367 4:0.049869 5:0.028871 6:0.076115 7:0.018373 8:0.089239 9:0.060367 10:0.07874 11:0.018373 12:0.052493 13:0.052493 14:0.03937 15:0.023622 16:0.091864 17:0.049869 18:0.07874 19:0 20:0.044619 
-0.6828929833842625 1:0.04 2:0.008 3:0.032 4:0.08 5:0.04 6:0.088 7:0.008 8:0.088 9:0.08 10:0.048 11:0.016 12:0.072 13:0.032 14:0.056 15:0.032 16:0.064 17:0.088 18:0.104 19:0.008 20:0.016 
-0.2014081885063816 1:0.071429 2:0.020408 3:0.05102 4:0.102041 5:0.071429 6:0.030612 7:0.030612 8:0.030612 9:0.102041 10:0.061224 11:0.030612 12:0.030612 13:0.05102 14:0.05102 15:0.030612 16:0.05102 17:0.081633 18:0.081633 19:0 20:0.020408 
-0.0818047093682641 1:0.072893 2:0.002278 3:0.056948 4:0.104784 5:0.056948 6:0.079727 7:0.022779 8:0.066059 9:0.08656 10:0.079727 11:0.025057 12:0.036446 13:0.056948 14:0.006834 15:0.036446 16:0.045558 17:0.027335 18:0.063781 19:0.015945 20:0.056948 
-2.125212301660031 1:0.052786 2:0.01173 3:0.073314 4:0.061584 5:0.046921 6:0.061584 7:0.029326 8:0.049853 9:0.085044 10:0.123167 11:0.020528 12:0.035191 13:0.029326 14:0.041056 15:0.032258 16:0.064516 17:0.035191 18:0.079179 19:0.014663 20:0.052786 
-0.2699412598905938 1:0.062868 2:0.019646 3:0.064833 4:0.094303 5:0.031434 6:0.076621 7:0.005894 8:0.058939 9:0.084479 10:0.125737 11:0.019646 12:0.017682 13:0.033399 14:0.047151 15:0.064833 16:0.045187 17:0.031434 18:0.078585 19:0.003929 20:0.033399 
-1.136758291215176 1:0.048352 2:0.013187 3:0.081319 4:0.065934 5:0.07033 6:0.043956 7:0.015385 8:0.052747 9:0.105495 10:0.103297 11:0.010989 12:0.054945 13:0.048352 14:0.032967 15:0.041758 16:0.041758 17:0.057143 18:0.061538 19:0.015385 20:0.035165 
-0.9572562427052286 1:0.046729 2:0.009346 3:0.056075 4:0.065421 5:0.046729 6:0.121495 7:0.028037 8:0.056075 9:0.074766 10:0.065421 11:0.018692 12:0.009346 13:0.056075 14:0.046729 15:0.056075 16:0.056075 17:0.065421 18:0.084112 19:0.009346 20:0.028037 
-0.3945877944977071 1:0.048206 2:0.013453 3:0.066143 4:0.105381 5:0.036996 6:0.066143 7:0.020179 8:0.097534 9:0.107623 10:0.079596 11:0.019058 12:0.052691 13:0.030269 14:0.020179 15:0.049327 16:0.0213 17:0.04148 18:0.077354 19:0.012332 20:0.034753 
-0.9181972538769069 1:0.094421 2:0.004292 3:0.055794 4:0.081545 5:0.034335 6:0.077253 7:0 8:0.072961 9:0.077253 10:0.081545 11:0.017167 12:0.030043 13:0.025751 14:0.060086 15:0.051502 16:0.060086 17:0.038627 18:0.090129 19:0 20:0.04721 
-0.1310135850046087 1:0.067941 2:0.002123 3:0.067941 4:0.070064 5:0.046709 6:0.072187 7:0.021231 8:0.055202 9:0.065817 10:0.087049 11:0.023355 12:0.027601 13:0.067941 14:0.021231 15:0.050955 16:0.057325 17:0.057325 18:0.065817 19:0.012739 20:0.059448 
-0.2855529568259674 1:0.031579 2:0.010526 3:0.042105 4:0.094737 5:0.021053 6:0.084211 7:0.042105 8:0.084211 9:0.042105 10:0.094737 11:0.021053 12:0.042105 13:0.073684 14:0.094737 15:0.084211 16:0.052632 17:0.021053 18:0.042105 19:0.010526 20:0.010526 
-3.895101338412829 1:0.070707 2:0.015152 3:0.080808 4:0.055556 5:0.060606 6:0.090909 7:0.015152 8:0.050505 9:0.070707 10:0.085859 11:0.005051 12:0.035354 13:0.055556 14:0.020202 15:0.050505 16:0.050505 17:0.050505 18:0.090909 19:0.010101 20:0.035354 
-3.018857182270748 1:0.056 2:0.002667 3:0.090667 4:0.114667 5:0.045333 6:0.053333 7:0.008 8:0.074667 9:0.109333 10:0.077333 11:0.021333 12:0.048 13:0.029333 14:0.026667 15:0.032 16:0.058667 17:0.058667 18:0.048 19:0.008 20:0.037333 
-0.3686145139201877 1:0.073113 2:0.007075 3:0.063679 4:0.068396 5:0.037736 6:0.075472 7:0.033019 8:0.080189 9:0.087264 10:0.061321 11:0.021226 12:0.03066 13:0.070755 14:0.033019 15:0.04717 16:0.033019 17:0.056604 18:0.091981 19:0.004717 20:0.023585 
-0.7316179183487487 1:0.055556 2:0 3:0.083333 4:0.083333 5:0.055556 6:0.111111 7:0 8:0.027778 9:0.138889 10:0.083333 11:0 12:0.027778 13:0.027778 14:0.027778 15:0.027778 16:0.083333 17:0.055556 18:0.055556 19:0.027778 20:0.027778 
-1.790232670682752 1:0.074184 2:0.008902 3:0.080119 4:0.080119 5:0.020772 6:0.062315 7:0.020772 8:0.091988 9:0.077151 10:0.05638 11:0.035608 12:0.04451 13:0.047478 14:0.023739 15:0.041543 16:0.04451 17:0.05638 18:0.097923 19:0.002967 20:0.032641 
-0.1592984222801475 1:0.088435 2:0.010204 3:0.068027 4:0.064626 5:0.057823 6:0.081633 7:0.02381 8:0.037415 9:0.112245 10:0.047619 11:0.017007 12:0.027211 13:0.02381 14:0.037415 15:0.081633 16:0.030612 17:0.057823 18:0.071429 19:0.003401 20:0.057823 
-1.755683761018231 1:0.076923 2:0.003497 3:0.083916 4:0.066434 5:0.038462 6:0.055944 7:0.020979 8:0.094406 9:0.101399 10:0.062937 11:0.006993 12:0.055944 13:0.066434 14:0.024476 15:0.020979 16:0.045455 17:0.066434 18:0.048951 19:0.020979 20:0.038462 
-1.062871908417406 1:0.054441 2:0.008596 3:0.04298 4:0.097421 5:0.022923 6:0.057307 7:0.025788 8:0.077364 9:0.08596 10:0.068768 11:0.022923 12:0.048711 13:0.068768 14:0.037249 15:0.025788 16:0.057307 17:0.04298 18:0.083095 19:0.020057 20:0.051576 
-0.3260730317360556 1:0.048433 2:0 3:0.058405 4:0.062678 5:0.088319 6:0.041311 7:0.025641 8:0.04416 9:0.075499 10:0.069801 11:0.025641 12:0.058405 13:0.064103 14:0.039886 15:0.032764 16:0.052707 17:0.021368 18:0.075499 19:0.008547 20:0.106838 
-0.3767118280326618 1:0.056931 2:0.022277 3:0.056931 4:0.024752 5:0.034653 6:0.09901 7:0.04703 8:0.076733 9:0.042079 10:0.069307 11:0.022277 12:0.066832 13:0.042079 14:0.034653 15:0.049505 16:0.10396 17:0.049505 18:0.054455 19:0.019802 20:0.027228 
-0.7191565693989836 1:0.072178 2:0.013123 3:0.048556 4:0.051181 5:0.060367 6:0.089239 7:0.031496 8:0.028871 9:0.02231 10:0.085302 11:0.020997 12:0.031496 13:0.08399 14:0.059055 15:0.049869 16:0.066929 17:0.049869 18:0.074803 19:0.019685 20:0.040682 
-0.5697794710280981 1:0.037313 2:0.029851 3:0.037313 4:0.067164 5:0.014925 6:0.067164 7:0.014925 8:0.074627 9:0.044776 10:0.097015 11:0.037313 12:0.037313 13:0.074627 14:0.037313 15:0.029851 16:0.097015 17:0.052239 18:0.067164 19:0.022388 20:0.059701 
-0.1167017418101169 1:0.061538 2:0.026923 3:0.057692 4:0.05 5:0.046154 6:0.088462 7:0.019231 8:0.084615 9:0.026923 10:0.076923 11:0.011538 12:0.053846 13:0.042308 14:0.042308 15:0.030769 16:0.076923 17:0.057692 18:0.084615 19:0.019231 20:0.042308 
-1.005691628376703 1:0.050228 2:0.009132 3:0.057078 4:0.045662 5:0.059361 6:0.089041 7:0.027397 8:0.047945 9:0.041096 10:0.084475 11:0.006849 12:0.086758 13:0.041096 14:0.059361 15:0.031963 16:0.059361 17:0.045662 18:0.070776 19:0.045662 20:0.041096 
-3.8428510927913 1:0.08 2:0.0075 3:0.06 4:0.0825 5:0.06 6:0.0575 7:0.025 8:0.07 9:0.0725 10:0.11 11:0.0175 12:0.0375 13:0.0525 14:0.03 15:0.0325 16:0.06 17:0.05 18:0.0675 19:0.005 20:0.0225 
-0.8499425411564753 1:0.088372 2:0 3:0.088372 4:0.07907 5:0.04186 6:0.046512 7:0.037209 8:0.069767 9:0.069767 10:0.093023 11:0.037209 12:0.04186 13:0.027907 14:0.027907 15:0.032558 16:0.051163 17:0.037209 18:0.116279 19:0 20:0.013953 
-0.6314678848367 1:0.059633 2:0.009174 3:0.057339 4:0.059633 5:0.059633 6:0.073394 7:0.022936 8:0.066514 9:0.059633 10:0.100917 11:0.018349 12:0.038991 13:0.050459 14:0.052752 15:0.034404 16:0.087156 17:0.050459 18:0.043578 19:0.018349 20:0.036697 
-0.6405741998815043 1:0.036199 2:0.022624 3:0.040724 4:0.063348 5:0.063348 6:0.072398 7:0.031674 8:0.040724 9:0.099548 10:0.099548 11:0.0181 12:0.040724 13:0.067873 14:0.049774 15:0.022624 16:0.040724 17:0.049774 18:0.085973 19:0.013575 20:0.040724 
-1.13508880214294 1:0.063915 2:0.009321 3:0.04261 4:0.057257 5:0.055925 6:0.073236 7:0.047936 8:0.029294 9:0.031957 10:0.091877 11:0.01731 12:0.037284 13:0.082557 14:0.039947 15:0.058589 16:0.061252 17:0.05992 18:0.070573 19:0.023968 20:0.045273 
-0.1129610945491796 1:0.069307 2:0.00495 3:0.014851 4:0.009901 5:0.064356 6:0.079208 7:0.054455 8:0.019802 9:0.024752 10:0.168317 11:0.009901 12:0.024752 13:0.084158 14:0.054455 15:0.044554 16:0.113861 17:0.049505 18:0.064356 19:0.009901 20:0.034653 
-0.4682037886866964 1:0.1 2:0.021053 3:0.094737 4:0.078947 5:0.042105 6:0.052632 7:0.005263 8:0.026316 9:0.052632 10:0.063158 11:0.031579 12:0.094737 13:0.021053 14:0.031579 15:0.021053 16:0.031579 17:0.063158 18:0.089474 19:0.021053 20:0.057895 
-2.799610224006522 1:0.070866 2:0.006749 3:0.068616 4:0.086614 5:0.048369 6:0.070866 7:0.015748 8:0.046119 9:0.057368 10:0.087739 11:0.008999 12:0.058493 13:0.035996 14:0.031496 15:0.033746 16:0.074241 17:0.061867 18:0.07649 19:0.022497 20:0.03712 
-0.4335725137114246 1:0.071942 2:0.014388 3:0.115108 4:0.064748 5:0.021583 6:0.100719 7:0.014388 8:0.064748 9:0.064748 10:0.043165 11:0.021583 12:0.043165 13:0.035971 14:0.014388 15:0.021583 16:0.079137 17:0.043165 18:0.057554 19:0.028777 20:0.079137 
-0.02278100529078503 1:0.052174 2:0.023188 3:0.049275 4:0.037681 5:0.034783 6:0.118841 7:0.017391 8:0.066667 9:0.057971 10:0.084058 11:0.023188 12:0.037681 13:0.057971 14:0.04058 15:0.023188 16:0.075362 17:0.055072 18:0.081159 19:0.011594 20:0.052174 
-0.5878200310699314 1:0.072464 2:0.021739 3:0.039855 4:0.039855 5:0.057971 6:0.094203 7:0.028986 8:0.014493 9:0.061594 10:0.086957 11:0.007246 12:0.032609 13:0.072464 14:0.061594 15:0.032609 16:0.097826 17:0.054348 18:0.054348 19:0.036232 20:0.032609 
-2.927419859071521 1:0.099476 2:0.005236 3:0.064572 4:0.075044 5:0.017452 6:0.097731 7:0.005236 8:0.075044 9:0.092496 10:0.08377 11:0.031414 12:0.034904 13:0.033159 14:0.029668 15:0.038394 16:0.04363 17:0.059337 18:0.099476 19:0.001745 20:0.012216 
-0.09426001212916417 1:0.062201 2:0.016746 3:0.055024 4:0.066986 5:0.043062 6:0.07177 7:0.019139 8:0.08134 9:0.066986 10:0.050239 11:0.021531 12:0.047847 13:0.062201 14:0.033493 15:0.038278 16:0.074163 17:0.059809 18:0.069378 19:0.011962 20:0.047847 
-0.09981276262851024 1:0.062903 2:0.029032 3:0.046774 4:0.05 5:0.025806 6:0.095161 7:0.030645 8:0.03871 9:0.040323 10:0.108065 11:0.032258 12:0.016129 13:0.067742 14:0.043548 15:0.070968 16:0.109677 17:0.048387 18:0.045161 19:0.006452 20:0.032258 
-2.00675779204767 1:0.053738 2:0.028037 3:0.077103 4:0.063084 5:0.058411 6:0.074766 7:0.044393 8:0.051402 9:0.035047 10:0.081776 11:0.018692 12:0.049065 13:0.049065 14:0.03972 15:0.042056 16:0.051402 17:0.042056 18:0.067757 19:0.004673 20:0.067757 
-0.9177386185499165 1:0.067961 2:0.012136 3:0.104369 4:0.123786 5:0.029126 6:0.065534 7:0.004854 8:0.029126 9:0.140777 10:0.053398 11:0.024272 12:0.043689 13:0.06068 14:0.048544 15:0.01699 16:0.055825 17:0.026699 18:0.072816 19:0.004854 20:0.014563 
-0.8007091179922212 1:0.133758 2:0 3:0.070064 4:0.070064 5:0.038217 6:0.063694 7:0.025478 8:0.038217 9:0.11465 10:0.089172 11:0.019108 12:0.057325 13:0.038217 14:0.082803 15:0.012739 16:0.044586 17:0.031847 18:0.063694 19:0 20:0.006369 
-0.4014261665982713 1:0.072508 2:0.018127 3:0.024169 4:0.05136 5:0.02719 6:0.084592 7:0.072508 8:0.024169 9:0.042296 10:0.054381 11:0.012085 12:0.042296 13:0.07855 14:0.060423 15:0.036254 16:0.129909 17:0.075529 18:0.039275 19:0.006042 20:0.048338 
-0.1867929092996934 1:0.068702 2:0.007634 3:0.160305 4:0.091603 5:0.007634 6:0.076336 7:0.007634 8:0.10687 9:0.061069 10:0.053435 11:0.045802 12:0.030534 13:0.045802 14:0.030534 15:0.045802 16:0.022901 17:0.038168 18:0.053435 19:0.007634 20:0.038168 
-1.575433313172709 1:0.092233 2:0 3:0.106796 4:0.072816 5:0.038835 6:0.048544 7:0.004854 8:0.043689 9:0.058252 10:0.058252 11:0.019417 12:0.063107 13:0.038835 14:0.082524 15:0.048544 16:0.067961 17:0.043689 18:0.07767 19:0 20:0.033981 
-0.4370519138144158 1:0.064626 2:0.013605 3:0.098639 4:0.119048 5:0.02381 6:0.057823 7:0.010204 8:0.017007 9:0.119048 10:0.081633 11:0.027211 12:0.02381 13:0.07483 14:0.044218 15:0.02381 16:0.068027 17:0.057823 18:0.054422 19:0.006803 20:0.013605 
-1.933285895589681 1:0.085526 2:0 3:0.105263 4:0.138158 5:0.026316 6:0.052632 7:0.019737 8:0.052632 9:0.111842 10:0.039474 11:0.013158 12:0.059211 13:0.032895 14:0.019737 15:0.019737 16:0.039474 17:0.039474 18:0.111842 19:0.006579 20:0.026316 
-0.3444461069674151 1:0.066445 2:0.018272 3:0.068106 4:0.069767 5:0.051495 6:0.056478 7:0.023256 8:0.066445 9:0.076412 10:0.081395 11:0.023256 12:0.048173 13:0.063123 14:0.033223 15:0.031561 16:0.068106 17:0.063123 18:0.068106 19:0.003322 20:0.019934 
-1.242391882845786 1:0.074074 2:0 3:0.051852 4:0.088889 5:0.022222 6:0.059259 7:0.022222 8:0.074074 9:0.096296 10:0.096296 11:0.014815 12:0.051852 13:0.044444 14:0.044444 15:0.037037 16:0.022222 17:0.066667 18:0.066667 19:0.007407 20:0.059259 
-0.1240861411124629 1:0.090411 2:0.013699 3:0.090411 4:0.09589 5:0.030137 6:0.052055 7:0.008219 8:0.057534 9:0.073973 10:0.060274 11:0.046575 12:0.052055 13:0.032877 14:0.027397 15:0.032877 16:0.076712 17:0.063014 18:0.073973 19:0 20:0.021918 
-0.04349233013758123 1:0.032258 2:0 3:0.064516 4:0.107527 5:0.032258 6:0.064516 7:0.021505 8:0.086022 9:0.053763 10:0.129032 11:0.032258 12:0.064516 13:0.053763 14:0.032258 15:0.032258 16:0.043011 17:0.043011 18:0.096774 19:0.010753 20:0 
-1.219536831399695 1:0.058923 2:0.021886 3:0.043771 4:0.050505 5:0.035354 6:0.06734 7:0.031987 8:0.048822 9:0.047138 10:0.072391 11:0.03367 12:0.058923 13:0.060606 14:0.112795 15:0.040404 16:0.072391 17:0.045455 18:0.053872 19:0.011785 20:0.031987 
-2.764867595266445 1:0.06156 2:0.01368 3:0.069767 4:0.079343 5:0.060192 6:0.051984 7:0.024624 8:0.069767 9:0.086183 10:0.088919 11:0.021888 12:0.032832 13:0.042408 14:0.05472 15:0.036936 16:0.073871 17:0.043776 18:0.064295 19:0.005472 20:0.017784 
-0.7716312086891354 1:0.071651 2:0.006231 3:0.046729 4:0.090343 5:0.040498 6:0.149533 7:0.015576 8:0.028037 9:0.062305 10:0.080997 11:0.015576 12:0.028037 13:0.037383 14:0.077882 15:0.065421 16:0.062305 17:0.040498 18:0.046729 19:0.003115 20:0.031153 
-0.09548789119013944 1:0.038835 2:0.009709 3:0.053398 4:0.07767 5:0.014563 6:0.092233 7:0.019417 8:0.053398 9:0.072816 10:0.116505 11:0.004854 12:0.048544 13:0.067961 14:0.058252 15:0.072816 16:0.07767 17:0.048544 18:0.048544 19:0.009709 20:0.014563 
-0.2403441316085281 1:0.096774 2:0 3:0.050179 4:0.053763 5:0.043011 6:0.09319 7:0.043011 8:0.071685 9:0.035842 10:0.053763 11:0.017921 12:0.064516 13:0.032258 14:0.071685 15:0.02509 16:0.060932 17:0.0681 18:0.071685 19:0.003584 20:0.043011 
-1.333857164439961 1:0.060694 2:0.017341 3:0.034682 4:0.060694 5:0.037572 6:0.092486 7:0.034682 8:0.060694 9:0.040462 10:0.115607 11:0.014451 12:0.040462 13:0.063584 14:0.031792 15:0.052023 16:0.069364 17:0.052023 18:0.054913 19:0.031792 20:0.034682 
-1.641535691845717 1:0.090361 2:0.018072 3:0.048193 4:0.072289 5:0.048193 6:0.060241 7:0.03012 8:0.048193 9:0.078313 10:0.066265 11:0.012048 12:0.042169 13:0.060241 14:0.024096 15:0.018072 16:0.078313 17:0.066265 18:0.096386 19:0.012048 20:0.03012 
-0.5007171082101151 1:0.042079 2:0.027228 3:0.044554 4:0.042079 5:0.066832 6:0.059406 7:0.034653 8:0.054455 9:0.037129 10:0.121287 11:0.022277 12:0.019802 13:0.044554 14:0.019802 15:0.05198 16:0.076733 17:0.064356 18:0.091584 19:0.029703 20:0.049505 
-0.4827273723380133 1:0.041667 2:0.003788 3:0.034091 4:0.030303 5:0.05303 6:0.018939 7:0.034091 8:0.079545 9:0.026515 10:0.136364 11:0.026515 12:0.049242 13:0.07197 14:0.041667 15:0.056818 16:0.109848 17:0.056818 18:0.056818 19:0.022727 20:0.049242 
-0.3590415271165603 1:0.046053 2:0.016447 3:0.059211 4:0.088816 5:0.082237 6:0.049342 7:0.023026 8:0.075658 9:0.036184 10:0.095395 11:0.006579 12:0.039474 13:0.069079 14:0.032895 15:0.0625 16:0.049342 17:0.0625 18:0.069079 19:0.006579 20:0.029605 
-0.09477272162971118 1:0.054455 2:0.011551 3:0.036304 4:0.036304 5:0.041254 6:0.125413 7:0.036304 8:0.062706 9:0.037954 10:0.070957 11:0.034653 12:0.041254 13:0.064356 14:0.041254 15:0.051155 16:0.070957 17:0.054455 18:0.084158 19:0.011551 20:0.033003 
-2.404218141883665 1:0.041026 2:0.015385 3:0.035897 4:0.030769 5:0.076923 6:0.082051 7:0.025641 8:0.071795 9:0.05641 10:0.097436 11:0.030769 12:0.015385 13:0.051282 14:0.020513 15:0.051282 16:0.087179 17:0.051282 18:0.071795 19:0.025641 20:0.061538 
-1.015553742193737 1:0.075188 2:0.022556 3:0.022556 4:0.037594 5:0.052632 6:0.06015 7:0.037594 8:0.075188 9:0.030075 10:0.090226 11:0.037594 12:0.045113 13:0.075188 14:0.030075 15:0.022556 16:0.075188 17:0.067669 18:0.097744 19:0.015038 20:0.030075 
-0.7711311377746324 1:0.090141 2:0.016901 3:0.033803 4:0.059155 5:0.056338 6:0.070423 7:0.03662 8:0.073239 9:0.022535 10:0.095775 11:0.022535 12:0.033803 13:0.03662 14:0.04507 15:0.028169 16:0.073239 17:0.061972 18:0.08169 19:0.016901 20:0.04507 
-0.9774816177474789 1:0.054054 2:0.004505 3:0.04955 4:0.045045 5:0.054054 6:0.04955 7:0.031532 8:0.076577 9:0.036036 10:0.09009 11:0.022523 12:0.040541 13:0.054054 14:0.031532 15:0.045045 16:0.09009 17:0.099099 18:0.058559 19:0.027027 20:0.040541 
-1.258647217617558 1:0.057292 2:0.018229 3:0.0625 4:0.059896 5:0.075521 6:0.052083 7:0.054688 8:0.03125 9:0.070313 10:0.119792 11:0.023438 12:0.033854 13:0.046875 14:0.018229 15:0.026042 16:0.046875 17:0.054688 18:0.0625 19:0.023438 20:0.0625 
-2.364786365629691 1:0.069272 2:0.017762 3:0.071048 4:0.095915 5:0.042629 6:0.053286 7:0.008881 8:0.042629 9:0.072824 10:0.087034 11:0.023091 12:0.058615 13:0.031972 14:0.05151 15:0.044405 16:0.053286 17:0.058615 18:0.081705 19:0.012433 20:0.023091 
-1.487580482981533 1:0.060311 2:0.009728 3:0.060311 4:0.075875 5:0.050584 6:0.085603 7:0.027237 8:0.060311 9:0.07393 10:0.097276 11:0.011673 12:0.054475 13:0.046693 14:0.027237 15:0.035019 16:0.064202 17:0.054475 18:0.064202 19:0.011673 20:0.029183 
