svm_type c_svc
kernel_type rbf
gamma 128
nr_class 2
total_sv 519
rho 0.522248
label 1 -1
nr_sv 160 359
SV
4 1:0.064748 2:0.002398 3:0.05036 4:0.059952 5:0.045564 6:0.052758 7:0.019185 8:0.045564 9:0.055156 10:0.136691 11:0.019185 12:0.031175 13:0.064748 14:0.035971 15:0.05036 16:0.103118 17:0.067146 18:0.064748 19:0.009592 20:0.021583 
1.17509635792252 1:0.188679 2:0.113208 3:0.018868 4:0.037736 5:0.056604 6:0.037736 7:0.037736 8:0.037736 9:0.018868 10:0.09434 11:0.037736 12:0.056604 13:0.037736 14:0.056604 15:0 16:0.037736 17:0.037736 18:0.075472 19:0 20:0.018868 
1.616534403364671 1:0.05 2:0.033333 3:0.025 4:0.041667 5:0.008333 6:0.016667 7:0.008333 8:0.066667 9:0.075 10:0.133333 11:0.008333 12:0.075 13:0.083333 14:0.041667 15:0.058333 16:0.066667 17:0.066667 18:0.091667 19:0.016667 20:0.033333 
1.548695986037192 1:0.099744 2:0.066496 3:0.063939 4:0.033248 5:0.028133 6:0.079284 7:0.030691 8:0.023018 9:0.035806 10:0.079284 11:0.015345 12:0.023018 13:0.033248 14:0.033248 15:0.120205 16:0.056266 17:0.063939 18:0.066496 19:0.02046 20:0.028133 
4 1:0.090452 2:0.002513 3:0.047739 4:0.082915 5:0.027638 6:0.070352 7:0.015075 8:0.050251 9:0.067839 10:0.125628 11:0.020101 12:0.047739 13:0.032663 14:0.040201 15:0.052764 16:0.072864 17:0.047739 18:0.070352 19:0.017588 20:0.017588 
0.9393621943414043 1:0.133929 2:0.071429 3:0.044643 4:0.008929 5:0.026786 6:0.089286 7:0.017857 8:0.044643 9:0.017857 10:0.107143 11:0.008929 12:0.0625 13:0.080357 14:0.044643 15:0.008929 16:0.0625 17:0.071429 18:0.098214 19:0 20:0 
2.69295261355055 1:0.060669 2:0.07113 3:0.052301 4:0.080544 5:0.039749 6:0.067992 7:0.034519 8:0.037657 9:0.060669 10:0.083682 11:0.021967 12:0.043933 13:0.026151 14:0.044979 15:0.056485 16:0.075314 17:0.051255 18:0.062762 19:0.002092 20:0.026151 
0.878810756387656 1:0.068966 2:0.103448 3:0.022989 4:0.045977 5:0.022989 6:0.114943 7:0.011494 8:0.011494 9:0.091954 10:0.103448 11:0.022989 12:0.057471 13:0.011494 14:0.034483 15:0.011494 16:0.022989 17:0.057471 18:0.057471 19:0.034483 20:0.091954 
4 1:0.068441 2:0.026616 3:0.064639 4:0.068441 5:0.038023 6:0.117871 7:0.015209 8:0.041825 9:0.102662 10:0.053232 11:0.011407 12:0.026616 13:0.068441 14:0.007605 15:0.022814 16:0.060837 17:0.068441 18:0.076046 19:0.022814 20:0.038023 
4 1:0.066964 2:0.022321 3:0.053571 4:0.084821 5:0.03125 6:0.03125 7:0.03125 8:0.058036 9:0.053571 10:0.142857 11:0.022321 12:0.058036 13:0.035714 14:0.026786 15:0.044643 16:0.071429 17:0.066964 18:0.053571 19:0.017857 20:0.026786 
1.052756663684333 1:0.132258 2:0.025806 3:0.051613 4:0.054839 5:0.032258 6:0.090323 7:0.045161 8:0.032258 9:0.012903 10:0.06129 11:0.012903 12:0.03871 13:0.054839 14:0.019355 15:0.045161 16:0.096774 17:0.080645 18:0.06129 19:0.022581 20:0.029032 
0.3190516624672968 1:0.020833 2:0.069444 3:0.034722 4:0.034722 5:0.034722 6:0.041667 7:0.006944 8:0.034722 9:0.0625 10:0.131944 11:0.020833 12:0.048611 13:0.055556 14:0.048611 15:0.055556 16:0.104167 17:0.104167 18:0.0625 19:0.006944 20:0.020833 
4 1:0.07113 2:0.029289 3:0.066946 4:0.07113 5:0.048117 6:0.077406 7:0.018828 8:0.029289 9:0.041841 10:0.066946 11:0.014644 12:0.031381 13:0.077406 14:0.054393 15:0.075314 16:0.07113 17:0.039749 18:0.046025 19:0.020921 20:0.048117 
3.029989356583327 1:0.048433 2:0 3:0.058405 4:0.062678 5:0.088319 6:0.041311 7:0.025641 8:0.04416 9:0.075499 10:0.069801 11:0.025641 12:0.058405 13:0.064103 14:0.039886 15:0.032764 16:0.052707 17:0.021368 18:0.075499 19:0.008547 20:0.106838 
4 1:0.052229 2:0.026752 3:0.054777 4:0.077707 5:0.043312 6:0.058599 7:0.035669 8:0.054777 9:0.059873 10:0.089172 11:0.02293 12:0.033121 13:0.047134 14:0.040764 15:0.070064 16:0.052229 17:0.054777 18:0.06242 19:0.012739 20:0.050955 
1.797663750149898 1:0.056931 2:0.022277 3:0.056931 4:0.024752 5:0.034653 6:0.09901 7:0.04703 8:0.076733 9:0.042079 10:0.069307 11:0.022277 12:0.066832 13:0.042079 14:0.034653 15:0.049505 16:0.10396 17:0.049505 18:0.054455 19:0.019802 20:0.027228 
0.6138454313145389 1:0.044444 2:0.005556 3:0.011111 4:0.1 5:0.061111 6:0.005556 7:0.022222 8:0.083333 9:0.072222 10:0.05 11:0.022222 12:0.044444 13:0.072222 14:0.105556 15:0.033333 16:0.055556 17:0.055556 18:0.094444 19:0.011111 20:0.05 
4 1:0.072658 2:0.028681 3:0.051625 4:0.059273 5:0.063098 6:0.068834 7:0.042065 8:0.045889 9:0.034417 10:0.10325 11:0.022945 12:0.045889 13:0.053537 14:0.030593 15:0.038241 16:0.051625 17:0.055449 18:0.072658 19:0.013384 20:0.045889 
0.01907331148799194 1:0.090909 2:0.060606 3:0.030303 4:0.030303 5:0.020202 6:0.010101 7:0.010101 8:0.060606 9:0.121212 10:0.090909 11:0.030303 12:0.020202 13:0.060606 14:0.060606 15:0.030303 16:0.090909 17:0.090909 18:0.060606 19:0.010101 20:0.020202 
2.825582376312109 1:0.118943 2:0.006608 3:0.063877 4:0.028634 5:0.028634 6:0.096916 7:0.017621 8:0.055066 9:0.048458 10:0.070485 11:0.004405 12:0.04185 13:0.046256 14:0.030837 15:0.022026 16:0.110132 17:0.077093 18:0.092511 19:0.011013 20:0.028634 
4 1:0.072178 2:0.013123 3:0.048556 4:0.051181 5:0.060367 6:0.089239 7:0.031496 8:0.028871 9:0.02231 10:0.085302 11:0.020997 12:0.031496 13:0.08399 14:0.059055 15:0.049869 16:0.066929 17:0.049869 18:0.074803 19:0.019685 20:0.040682 
1.059478948510891 1:0.098976 2:0.023891 3:0.047782 4:0.023891 5:0.040956 6:0.098976 7:0.010239 8:0.05802 9:0.037543 10:0.09215 11:0.006826 12:0.09215 13:0.047782 14:0.068259 15:0.006826 16:0.095563 17:0.040956 18:0.047782 19:0.020478 20:0.040956 
0.8628383813238473 1:0.075653 2:0.056396 3:0.055021 4:0.044017 5:0.033012 6:0.075653 7:0.026135 8:0.03989 9:0.041265 10:0.057772 11:0.019257 12:0.048143 13:0.071527 14:0.041265 15:0.088033 16:0.086657 17:0.056396 18:0.046768 19:0.011004 20:0.026135 
0.5159344881717566 1:0.07611 2:0.012685 3:0.071882 4:0.021142 5:0.05074 6:0.078224 7:0.038055 8:0.057082 9:0.023256 10:0.097252 11:0.010571 12:0.069767 13:0.086681 14:0.035941 15:0.033827 16:0.035941 17:0.088795 18:0.063425 19:0.019027 20:0.029598 
2.615044325469571 1:0.04698 2:0.040268 3:0.033557 4:0.060403 5:0.053691 6:0.04698 7:0.013423 8:0.060403 9:0.080537 10:0.053691 11:0.013423 12:0.04698 13:0.080537 14:0.040268 15:0.026846 16:0.087248 17:0.04698 18:0.120805 19:0.020134 20:0.026846 
2.091376832253731 1:0.073394 2:0.055046 3:0.027523 4:0.06422 5:0.018349 6:0.073394 7:0.027523 8:0.027523 9:0.009174 10:0.155963 11:0.036697 12:0.06422 13:0.045872 14:0.082569 15:0.045872 16:0.055046 17:0.027523 18:0.055046 19:0.018349 20:0.036697 
4 1:0.048035 2:0.026201 3:0.052402 4:0.078603 5:0.034934 6:0.061135 7:0.043668 8:0.061135 9:0.048035 10:0.148472 11:0.0131 12:0.056769 13:0.021834 14:0.039301 15:0.052402 16:0.087336 17:0.039301 18:0.056769 19:0.0131 20:0.017467 
0.9037241215362938 1:0.087912 2:0.076923 3:0.032967 4:0.076923 5:0.010989 6:0.087912 7:0 8:0.010989 9:0.032967 10:0.087912 11:0.054945 12:0.010989 13:0.021978 14:0.021978 15:0.098901 16:0.076923 17:0.021978 18:0.10989 19:0.010989 20:0.065934 
0.6343099467628682 1:0.070866 2:0.11811 3:0.047244 4:0.062992 5:0.055118 6:0.070866 7:0.015748 8:0.023622 9:0.031496 10:0.015748 11:0.015748 12:0.031496 13:0.141732 14:0.047244 15:0.055118 16:0.070866 17:0.031496 18:0.062992 19:0.015748 20:0.015748 
4 1:0.046025 2:0.037657 3:0.054393 4:0.037657 5:0.050209 6:0.033473 7:0.029289 8:0.050209 9:0.054393 10:0.142259 11:0.037657 12:0.037657 13:0.033473 14:0.041841 15:0.066946 16:0.087866 17:0.046025 18:0.050209 19:0.016736 20:0.046025 
1.943933668755459 1:0.070539 2:0.049793 3:0.053942 4:0.041494 5:0.020747 6:0.099585 7:0.037344 8:0.041494 9:0.033195 10:0.078838 11:0.029046 12:0.045643 13:0.029046 14:0.033195 15:0.029046 16:0.103734 17:0.041494 18:0.099585 19:0.016598 20:0.045643 
2.02055006627503 1:0.070796 2:0.061947 3:0.026549 4:0.044248 5:0.044248 6:0.044248 7:0.00885 8:0.044248 9:0.088496 10:0.097345 11:0.053097 12:0.026549 13:0.061947 14:0.044248 15:0.00885 16:0.132743 17:0.035398 18:0.079646 19:0 20:0.026549 
1.861193279146606 1:0.142857 2:0.083333 3:0.02381 4:0.083333 5:0.059524 6:0.071429 7:0.02381 8:0.071429 9:0.059524 10:0.083333 11:0.011905 12:0.02381 13:0.011905 14:0.02381 15:0.071429 16:0.02381 17:0.035714 18:0.083333 19:0 20:0.011905 
3.522989892719698 1:0.098361 2:0.008197 3:0.040984 4:0.114754 5:0.057377 6:0.081967 7:0.016393 8:0.008197 9:0.065574 10:0.07377 11:0.04918 12:0.02459 13:0.040984 14:0.008197 15:0.016393 16:0.081967 17:0.065574 18:0.098361 19:0.02459 20:0.02459 
0.9733892172218729 1:0.045977 2:0.103448 3:0.011494 4:0.057471 5:0.034483 6:0.126437 7:0 8:0.011494 9:0.114943 10:0.091954 11:0.022989 12:0.057471 13:0.045977 14:0.011494 15:0 16:0.057471 17:0.068966 18:0.034483 19:0.034483 20:0.068966 
0.3582331046990287 1:0.061674 2:0.022026 3:0.030837 4:0.044053 5:0.035242 6:0.030837 7:0.039648 8:0.039648 9:0.070485 10:0.15859 11:0.026432 12:0.07489 13:0.022026 14:0.052863 15:0.044053 16:0.096916 17:0.052863 18:0.026432 19:0.030837 20:0.039648 
4 1:0.037313 2:0.029851 3:0.037313 4:0.067164 5:0.014925 6:0.067164 7:0.014925 8:0.074627 9:0.044776 10:0.097015 11:0.037313 12:0.037313 13:0.074627 14:0.037313 15:0.029851 16:0.097015 17:0.052239 18:0.067164 19:0.022388 20:0.059701 
1.92146101864869 1:0.104278 2:0.016043 3:0.032086 4:0.072193 5:0.024064 6:0.197861 7:0.005348 8:0.018717 9:0.05615 10:0.072193 11:0.02139 12:0.040107 13:0.109626 14:0.045455 15:0.048128 16:0.05615 17:0.032086 18:0.034759 19:0.005348 20:0.008021 
4 1:0.04878 2:0.033537 3:0.060976 4:0.07622 5:0.033537 6:0.04878 7:0.018293 8:0.054878 9:0.073171 10:0.07622 11:0.012195 12:0.027439 13:0.04878 14:0.042683 15:0.036585 16:0.106707 17:0.070122 18:0.060976 19:0.033537 20:0.036585 
1.497651658304952 1:0.118321 2:0 3:0.045802 4:0.122137 5:0.019084 6:0.007634 7:0.015267 8:0.026718 9:0.072519 10:0.125954 11:0.034351 12:0.030534 13:0.034351 14:0.080153 15:0.053435 16:0.034351 17:0.080153 18:0.049618 19:0 20:0.049618 
2.852323152238304 1:0.090909 2:0.050505 3:0.040404 4:0.030303 5:0.040404 6:0.020202 7:0.020202 8:0.050505 9:0.121212 10:0.10101 11:0.020202 12:0.020202 13:0.060606 14:0.060606 15:0.050505 16:0.060606 17:0.10101 18:0.030303 19:0.010101 20:0.020202 
4 1:0.078329 2:0.018277 3:0.065274 4:0.02611 5:0.057441 6:0.088773 7:0.023499 8:0.046997 9:0.05483 10:0.096606 11:0.018277 12:0.031332 13:0.039164 14:0.046997 15:0.049608 16:0.078329 17:0.070496 18:0.046997 19:0.020888 20:0.041775 
1.925513053813259 1:0.097087 2:0.029126 3:0.029126 4:0.097087 5:0.038835 6:0.038835 7:0.048544 8:0.038835 9:0.019417 10:0.106796 11:0.029126 12:0.058252 13:0.029126 14:0.048544 15:0.135922 16:0.029126 17:0.019417 18:0.048544 19:0 20:0.058252 
2.361799162456559 1:0.026316 2:0.035088 3:0.061404 4:0.04386 5:0.030702 6:0.039474 7:0.02193 8:0.065789 9:0.048246 10:0.135965 11:0.04386 12:0.035088 13:0.035088 14:0.061404 15:0.061404 16:0.087719 17:0.070175 18:0.057018 19:0.013158 20:0.026316 
4 1:0.071545 2:0.056911 3:0.066667 4:0.081301 5:0.052033 6:0.039024 7:0.021138 8:0.056911 9:0.078049 10:0.069919 11:0.03252 12:0.027642 13:0.042276 14:0.056911 15:0.045528 16:0.068293 17:0.039024 18:0.060163 19:0.001626 20:0.03252 
1.185318011904966 1:0.071429 2:0.060924 3:0.052521 4:0.090336 5:0.035714 6:0.029412 7:0.018908 8:0.029412 9:0.088235 10:0.105042 11:0.018908 12:0.029412 13:0.065126 14:0.027311 15:0.029412 16:0.092437 17:0.067227 18:0.054622 19:0 20:0.033613 
4 1:0.067797 2:0.045198 3:0.050847 4:0.079096 5:0.039548 6:0.039548 7:0.022599 8:0.028249 9:0.056497 10:0.112994 11:0.022599 12:0.00565 13:0.062147 14:0.039548 15:0.073446 16:0.107345 17:0.050847 18:0.056497 19:0.011299 20:0.028249 
4 1:0.050584 2:0.023346 3:0.050584 4:0.066148 5:0.015564 6:0.046693 7:0.015564 8:0.054475 9:0.070039 10:0.093385 11:0.019455 12:0.042802 13:0.054475 14:0.050584 15:0.081712 16:0.101167 17:0.050584 18:0.054475 19:0.015564 20:0.042802 
1.578428523292845 1:0.067039 2:0.011173 3:0.03352 4:0.072626 5:0.055866 6:0.011173 7:0.01676 8:0.055866 9:0.083799 10:0.03352 11:0.011173 12:0.03352 13:0.067039 14:0.117318 15:0.01676 16:0.156425 17:0.044693 18:0.061453 19:0.005587 20:0.044693 
0.5106672375601273 1:0.072917 2:0.072917 3:0.03125 4:0.03125 5:0.041667 6:0.041667 7:0.03125 8:0.0625 9:0.104167 10:0.145833 11:0.03125 12:0.052083 13:0.020833 14:0.020833 15:0.03125 16:0.0625 17:0.052083 18:0.0625 19:0.010417 20:0.020833 
0.9207682671221591 1:0.067909 2:0.003995 3:0.001332 4:0.001332 5:0.002663 6:0.011984 7:0.003995 8:0.014647 9:0.191744 10:0.01731 11:0.002663 12:0.011984 13:0.241012 14:0.002663 15:0.005326 16:0.11984 17:0.103862 18:0.005326 19:0 20:0.190413 
1.001700842657549 1:0.106796 2:0.106796 3:0.038835 4:0.058252 5:0.029126 6:0.029126 7:0.009709 8:0.029126 9:0.029126 10:0.07767 11:0.038835 12:0.019417 13:0.048544 14:0.019417 15:0.048544 16:0.106796 17:0.097087 18:0.067961 19:0.019417 20:0.019417 
1.163519819353605 1:0.121951 2:0 3:0.04878 4:0.089431 5:0.03252 6:0.081301 7:0.03252 8:0.01626 9:0.04065 10:0.178862 11:0.00813 12:0.02439 13:0.065041 14:0.00813 15:0.073171 16:0.089431 17:0.04065 18:0.03252 19:0.00813 20:0.00813 
4 1:0.046632 2:0.024611 3:0.068653 4:0.05829 5:0.050518 6:0.064767 7:0.044041 8:0.051813 9:0.056995 10:0.073834 11:0.023316 12:0.049223 13:0.049223 14:0.03886 15:0.067358 16:0.067358 17:0.055699 18:0.055699 19:0.016839 20:0.036269 
2.418749036836902 1:0.023364 2:0.046729 3:0.074766 4:0.037383 5:0.070093 6:0.046729 7:0.023364 8:0.051402 9:0.088785 10:0.093458 11:0.028037 12:0.060748 13:0.051402 14:0.023364 15:0.046729 16:0.056075 17:0.093458 18:0.03271 19:0.018692 20:0.03271 
1.128382928201683 1:0.032258 2:0.024194 3:0.048387 4:0.040323 5:0.032258 6:0.048387 7:0.024194 8:0 9:0.024194 10:0.145161 11:0.032258 12:0.008065 13:0.072581 14:0.048387 15:0.104839 16:0.120968 17:0.064516 18:0.072581 19:0.040323 20:0.016129 
4 1:0.061538 2:0.026923 3:0.057692 4:0.05 5:0.046154 6:0.088462 7:0.019231 8:0.084615 9:0.026923 10:0.076923 11:0.011538 12:0.053846 13:0.042308 14:0.042308 15:0.030769 16:0.076923 17:0.057692 18:0.084615 19:0.019231 20:0.042308 
2.476535717568909 1:0.0625 2:0.04375 3:0.075 4:0.075 5:0.0875 6:0.0625 7:0.00625 8:0.0625 9:0.08125 10:0.03125 11:0.0125 12:0.05 13:0.03125 14:0.0375 15:0.0125 16:0.08125 17:0.0875 18:0.05625 19:0.00625 20:0.0375 
0.8020361328331889 1:0.080605 2:0.010076 3:0.078086 4:0.027708 5:0.050378 6:0.110831 7:0.015113 8:0.060453 9:0.040302 10:0.06801 11:0.017632 12:0.06801 13:0.030227 14:0.037783 15:0.012594 16:0.11335 17:0.065491 18:0.060453 19:0.007557 20:0.04534 
1.788487007191593 1:0.037594 2:0.052632 3:0.022556 4:0.037594 5:0.007519 6:0.112782 7:0.007519 8:0.037594 9:0.105263 10:0.090226 11:0.030075 12:0.022556 13:0.097744 14:0.075188 15:0.067669 16:0.097744 17:0.037594 18:0.022556 19:0.015038 20:0.022556 
4 1:0.101928 2:0.022039 3:0.055096 4:0.038567 5:0.052342 6:0.104683 7:0.011019 8:0.049587 9:0.013774 10:0.090909 11:0.022039 12:0.035813 13:0.082645 14:0.038567 15:0.041322 16:0.110193 17:0.057851 18:0.057851 19:0.00551 20:0.008264 
1.712500075178855 1:0.106109 2:0.057878 3:0.048232 4:0.073955 5:0.006431 6:0.096463 7:0.03537 8:0.019293 9:0.038585 10:0.086817 11:0.032154 12:0.022508 13:0.099678 14:0.045016 15:0.07717 16:0.045016 17:0.038585 18:0.045016 19:0.006431 20:0.019293 
1.225140294233915 1:0.076923 2:0.010989 3:0.010989 4:0.065934 5:0.049451 6:0.010989 7:0.010989 8:0.087912 9:0.043956 10:0.054945 11:0.005495 12:0.054945 13:0.126374 14:0.065934 15:0.043956 16:0.043956 17:0.104396 18:0.093407 19:0 20:0.038462 
0.1479723328515316 1:0.113475 2:0.002364 3:0.073286 4:0.016548 5:0.037825 6:0.089835 7:0.014184 8:0.044917 9:0.06383 10:0.082742 11:0.018913 12:0.073286 13:0.037825 14:0.028369 15:0.026005 16:0.082742 17:0.059102 18:0.049645 19:0.021277 20:0.06383 
1.24412950674234 1:0.048077 2:0.057692 3:0.038462 4:0.038462 5:0.019231 6:0.019231 7:0.019231 8:0.096154 9:0.096154 10:0.105769 11:0.009615 12:0.028846 13:0.057692 14:0.038462 15:0.048077 16:0.086538 17:0.086538 18:0.076923 19:0.009615 20:0.019231 
0.4714861019728916 1:0.102362 2:0.110236 3:0.03937 4:0.070866 5:0.015748 6:0.047244 7:0 8:0.047244 9:0.031496 10:0.125984 11:0.031496 12:0.015748 13:0.094488 14:0.031496 15:0.047244 16:0.094488 17:0.03937 18:0.03937 19:0.007874 20:0.007874 
3.866697698553386 1:0.036036 2:0.04955 3:0.045045 4:0.058559 5:0.027027 6:0.054054 7:0.031532 8:0.04955 9:0.067568 10:0.130631 11:0.036036 12:0.018018 13:0.063063 14:0.04955 15:0.067568 16:0.058559 17:0.040541 18:0.054054 19:0.027027 20:0.036036 
3.317105192127896 1:0.074219 2:0.019531 3:0.027344 4:0.0625 5:0.042969 6:0.058594 7:0.011719 8:0.023438 9:0.027344 10:0.15625 11:0.015625 12:0.039063 13:0.078125 14:0.074219 15:0.050781 16:0.101563 17:0.035156 18:0.039063 19:0.03125 20:0.03125 
1.895916139578692 1:0.081425 2:0.033079 3:0.043257 4:0.030534 5:0.043257 6:0.101781 7:0.02799 8:0.068702 9:0.040712 10:0.053435 11:0.017812 12:0.063613 13:0.040712 14:0.038168 15:0.02799 16:0.101781 17:0.068702 18:0.089059 19:0.012723 20:0.015267 
0.6402583561354708 1:0.054545 2:0.10303 3:0.036364 4:0.060606 5:0.018182 6:0.09697 7:0.024242 8:0.036364 9:0.036364 10:0.151515 11:0.018182 12:0.024242 13:0.084848 14:0.042424 15:0.048485 16:0.042424 17:0.030303 18:0.036364 19:0.012121 20:0.042424 
2.139955071420859 1:0.110553 2:0.01005 3:0.060302 4:0.015075 5:0.005025 6:0.070352 7:0.020101 8:0.015075 9:0.015075 10:0.21608 11:0.025126 12:0.005025 13:0.085427 14:0.040201 15:0.100503 16:0.075377 17:0.040201 18:0.065327 19:0.020101 20:0.005025 
4 1:0.071486 2:0.046399 3:0.041543 4:0.05611 5:0.028055 6:0.097383 7:0.035878 8:0.031832 9:0.019423 10:0.079579 11:0.012139 12:0.029943 13:0.081467 14:0.057729 15:0.055571 16:0.090639 17:0.059347 18:0.069868 19:0.009442 20:0.026167 
4 1:0.09607 2:0.048035 3:0.061135 4:0.056769 5:0.045124 6:0.084425 7:0.021834 8:0.042213 9:0.066958 10:0.07278 11:0.02329 12:0.030568 13:0.034934 14:0.030568 15:0.040757 16:0.081514 17:0.058224 18:0.061135 19:0.011645 20:0.032023 
2.846533607116667 1:0.07907 2:0.018605 3:0.023256 4:0.065116 5:0.046512 6:0.134884 7:0.032558 8:0.032558 9:0.032558 10:0.069767 11:0.037209 12:0.037209 13:0.106977 14:0.051163 15:0.032558 16:0.051163 17:0.046512 18:0.074419 19:0.013953 20:0.013953 
1.532177515953273 1:0.086207 2:0 3:0.017241 4:0.12931 5:0.017241 6:0.034483 7:0.017241 8:0.043103 9:0.068966 10:0.112069 11:0.034483 12:0.034483 13:0.060345 14:0.051724 15:0.077586 16:0.060345 17:0.034483 18:0.112069 19:0 20:0.008621 
1.352440627036507 1:0.052632 2:0.026316 3:0.039474 4:0.072368 5:0.032895 6:0.013158 7:0.006579 8:0.059211 9:0.092105 10:0.164474 11:0.032895 12:0.065789 13:0.019737 14:0.059211 15:0.026316 16:0.065789 17:0.092105 18:0.046053 19:0.006579 20:0.026316 
4 1:0.049947 2:0.048884 3:0.058448 4:0.070138 5:0.031881 6:0.074389 7:0.034006 8:0.044633 9:0.052072 10:0.090329 11:0.017003 12:0.023379 13:0.069075 14:0.03932 15:0.061637 16:0.083953 17:0.056323 18:0.05526 19:0.018066 20:0.021254 
3.056673560111334 1:0.089514 2:0.01023 3:0.079284 4:0.015345 5:0.040921 6:0.086957 7:0.005115 8:0.076726 9:0.066496 10:0.079284 11:0.002558 12:0.061381 13:0.043478 14:0.048593 15:0.015345 16:0.084399 17:0.079284 18:0.069054 19:0.002558 20:0.043478 
4 1:0.050228 2:0.009132 3:0.057078 4:0.045662 5:0.059361 6:0.089041 7:0.027397 8:0.047945 9:0.041096 10:0.084475 11:0.006849 12:0.086758 13:0.041096 14:0.059361 15:0.031963 16:0.059361 17:0.045662 18:0.070776 19:0.045662 20:0.041096 
1.603361375109541 1:0.081395 2:0.069767 3:0.069767 4:0.093023 5:0.023256 6:0.034884 7:0.011628 8:0.069767 9:0.046512 10:0.069767 11:0.034884 12:0.011628 13:0.046512 14:0.034884 15:0.05814 16:0.05814 17:0.034884 18:0.116279 19:0.011628 20:0.023256 
2.70449982776515 1:0.07027 2:0.043243 3:0.037838 4:0.086486 5:0.032432 6:0.064865 7:0.021622 8:0.027027 9:0.054054 10:0.145946 11:0.021622 12:0.010811 13:0.048649 14:0.048649 15:0.07027 16:0.108108 17:0.032432 18:0.048649 19:0.010811 20:0.016216 
4 1:0.108696 2:0.054348 3:0.032609 4:0.065217 5:0.054348 6:0.032609 7:0 8:0.054348 9:0.043478 10:0.086957 11:0.021739 12:0.032609 13:0.054348 14:0.043478 15:0.043478 16:0.065217 17:0.086957 18:0.054348 19:0.021739 20:0.043478 
1.136918624712156 1:0.059701 2:0.014925 3:0.014925 4:0.035821 5:0.065672 6:0.19403 7:0.01194 8:0.01791 9:0.00597 10:0.032836 11:0.032836 12:0.041791 13:0.128358 14:0.113433 15:0.053731 16:0.059701 17:0.032836 18:0.038806 19:0.023881 20:0.020896 
2.268269809551949 1:0.132353 2:0.019608 3:0.058824 4:0.02451 5:0.004902 6:0.053922 7:0.019608 8:0.034314 9:0.039216 10:0.058824 11:0.009804 12:0.063725 13:0.083333 14:0.04902 15:0.039216 16:0.088235 17:0.058824 18:0.068627 19:0.04902 20:0.044118 
2.991530797979033 1:0.060241 2:0 3:0.048193 4:0.084337 5:0.060241 6:0.036145 7:0 8:0.036145 9:0.108434 10:0.120482 11:0.024096 12:0.036145 13:0.060241 14:0.024096 15:0.048193 16:0.084337 17:0.036145 18:0.108434 19:0.024096 20:0 
3.152955095044866 1:0.074074 2:0.014815 3:0.066667 4:0.051852 5:0.037037 6:0.051852 7:0.022222 8:0.037037 9:0.096296 10:0.074074 11:0.02963 12:0.074074 13:0.014815 14:0.037037 15:0.051852 16:0.051852 17:0.066667 18:0.044444 19:0.014815 20:0.088889 
1.238561112384051 1:0.088889 2:0.077778 3:0.033333 4:0.066667 5:0.033333 6:0.088889 7:0.022222 8:0.033333 9:0.044444 10:0.122222 11:0.022222 12:0.011111 13:0.033333 14:0.011111 15:0.055556 16:0.088889 17:0.011111 18:0.055556 19:0.033333 20:0.066667 
1.03701748960257 1:0.132132 2:0.081081 3:0.027027 4:0.117117 5:0.015015 6:0.087087 7:0.006006 8:0.018018 9:0.039039 10:0.024024 11:0.012012 12:0.021021 13:0.069069 14:0.045045 15:0.093093 16:0.048048 17:0.021021 18:0.06006 19:0.048048 20:0.036036 
1.843165974029405 1:0.061224 2:0.047619 3:0.07483 4:0.108844 5:0.020408 6:0.095238 7:0.013605 8:0.034014 9:0.034014 10:0.068027 11:0.013605 12:0.061224 13:0.040816 14:0.034014 15:0.020408 16:0.095238 17:0.088435 18:0.040816 19:0.027211 20:0.020408 
1.852618272232776 1:0.064815 2:0.051852 3:0.038889 4:0.075926 5:0.031481 6:0.061111 7:0.044444 8:0.027778 9:0.027778 10:0.088889 11:0.009259 12:0.046296 13:0.105556 14:0.07037 15:0.07037 16:0.062963 17:0.051852 18:0.033333 19:0.014815 20:0.022222 
2.044927228085158 1:0.044643 2:0.044643 3:0.053571 4:0.0625 5:0.03125 6:0.075893 7:0.008929 8:0.066964 9:0.049107 10:0.098214 11:0.013393 12:0.040179 13:0.044643 14:0.053571 15:0.053571 16:0.084821 17:0.053571 18:0.035714 19:0.040179 20:0.044643 
0.8462409346901372 1:0.046154 2:0.082051 3:0.030769 4:0.076923 5:0.066667 6:0.071795 7:0.020513 8:0.046154 9:0.05641 10:0.051282 11:0.005128 12:0.025641 13:0.051282 14:0.041026 15:0.066667 16:0.066667 17:0.071795 18:0.092308 19:0.005128 20:0.025641 
0.4756689539848241 1:0.068 2:0.052 3:0.052 4:0.048 5:0.02 6:0.092 7:0.028 8:0.04 9:0.02 10:0.092 11:0.044 12:0.032 13:0.068 14:0.032 15:0.04 16:0.068 17:0.048 18:0.08 19:0.028 20:0.048 
3.58059568923552 1:0.087349 2:0.006024 3:0.066265 4:0.03012 5:0.057229 6:0.087349 7:0.012048 8:0.039157 9:0.045181 10:0.069277 11:0.021084 12:0.051205 13:0.042169 14:0.039157 15:0.018072 16:0.120482 17:0.087349 18:0.048193 19:0.027108 20:0.045181 
4 1:0.08 2:0.0075 3:0.06 4:0.0825 5:0.06 6:0.0575 7:0.025 8:0.07 9:0.0725 10:0.11 11:0.0175 12:0.0375 13:0.0525 14:0.03 15:0.0325 16:0.06 17:0.05 18:0.0675 19:0.005 20:0.0225 
0.5275899147415113 1:0.068852 2:0.062295 3:0.036066 4:0.072131 5:0.009836 6:0.114754 7:0.029508 8:0.016393 9:0.045902 10:0.118033 11:0.022951 12:0.032787 13:0.101639 14:0.052459 15:0.065574 16:0.042623 17:0.039344 18:0.04918 19:0.003279 20:0.016393 
1.019738355182329 1:0.053333 2:0.066667 3:0.04 4:0.006667 5:0.04 6:0.026667 7:0.066667 8:0.046667 9:0.053333 10:0.133333 11:0.02 12:0.053333 13:0.08 14:0.066667 15:0.033333 16:0.066667 17:0.033333 18:0.06 19:0.02 20:0.033333 
1.326589173427091 1:0.077348 2:0.005525 3:0.027624 4:0.044199 5:0.027624 6:0.01105 7:0.005525 8:0.066298 9:0.01105 10:0.071823 11:0.038674 12:0.088398 13:0.132597 14:0.033149 15:0.038674 16:0.082873 17:0.088398 18:0.088398 19:0.005525 20:0.055249 
4 1:0.106667 2:0.033333 3:0.013333 4:0.02 5:0.04 6:0.06 7:0.04 8:0.033333 9:0.073333 10:0.113333 11:0.02 12:0.06 13:0.046667 14:0.033333 15:0.06 16:0.106667 17:0.02 18:0.066667 19:0.026667 20:0.026667 
0.7263243850575549 1:0.098667 2:0.016 3:0.034667 4:0.066667 5:0.026667 6:0.194667 7:0.005333 8:0.010667 9:0.061333 10:0.074667 11:0.021333 12:0.026667 13:0.101333 14:0.053333 15:0.037333 16:0.058667 17:0.037333 18:0.056 19:0.005333 20:0.013333 
0.07347745013718714 1:0.058696 2:0.034783 3:0.054348 4:0.023913 5:0.028261 6:0.082609 7:0.017391 8:0.076087 9:0.052174 10:0.054348 11:0.008696 12:0.073913 13:0.03913 14:0.065217 15:0.026087 16:0.102174 17:0.071739 18:0.093478 19:0.013043 20:0.023913 
3.283383236719055 1:0.066038 2:0.028302 3:0.051887 4:0.028302 5:0.033019 6:0.033019 7:0.033019 8:0.04717 9:0.051887 10:0.127358 11:0.04717 12:0.028302 13:0.056604 14:0.061321 15:0.056604 16:0.127358 17:0.061321 18:0.04717 19:0.004717 20:0.009434 
1.554093765654739 1:0.090909 2:0 3:0.056818 4:0.121212 5:0.026515 6:0.022727 7:0.007576 8:0.022727 9:0.087121 10:0.140152 11:0.026515 12:0.018939 13:0.037879 14:0.068182 15:0.075758 16:0.045455 17:0.05303 18:0.060606 19:0.011364 20:0.026515 
4 1:0.040541 2:0.040541 3:0.054054 4:0.058559 5:0.072072 6:0.040541 7:0.031532 8:0.063063 9:0.076577 10:0.103604 11:0.018018 12:0.063063 13:0.036036 14:0.031532 15:0.067568 16:0.045045 17:0.076577 18:0.027027 19:0.018018 20:0.036036 
0.9213395782643857 1:0.026376 2:0.00344 3:0.001147 4:0.001147 5:0.002294 6:0.011468 7:0.004587 8:0.047018 9:0.198394 10:0.008028 11:0.002294 12:0.006881 13:0.251147 14:0.009174 15:0.011468 16:0.106651 17:0.110092 18:0.006881 19:0 20:0.191514 
2.328783514735791 1:0.053812 2:0.013453 3:0.022422 4:0.112108 5:0.044843 6:0.008969 7:0.022422 8:0.058296 9:0.112108 10:0.058296 11:0.022422 12:0.058296 13:0.058296 14:0.071749 15:0.03139 16:0.06278 17:0.067265 18:0.053812 19:0.013453 20:0.053812 
0.06907949738202999 1:0.083333 2:0.095238 3:0.035714 4:0.095238 5:0.047619 6:0.059524 7:0 8:0.02381 9:0.02381 10:0.059524 11:0.035714 12:0.047619 13:0.083333 14:0.035714 15:0.035714 16:0.02381 17:0.095238 18:0.095238 19:0.011905 20:0.011905 
3.470593801546428 1:0.147826 2:0.017391 3:0.052174 4:0.034783 5:0.034783 6:0.108696 7:0.004348 8:0.056522 9:0.030435 10:0.1 11:0.008696 12:0.047826 13:0.047826 14:0.030435 15:0.065217 16:0.065217 17:0.078261 18:0.03913 19:0.004348 20:0.026087 
1.645575373604293 1:0.027778 2:0 3:0.037037 4:0.111111 5:0.055556 6:0.064815 7:0.009259 8:0.037037 9:0.074074 10:0.083333 11:0.027778 12:0.009259 13:0.018519 14:0.027778 15:0.083333 16:0.25 17:0.037037 18:0.037037 19:0 20:0.009259 
3.630714235195589 1:0.024691 2:0.037037 3:0.030864 4:0.08642 5:0.061728 6:0.024691 7:0.037037 8:0.08642 9:0.04321 10:0.12963 11:0.030864 12:0.074074 13:0.018519 14:0.024691 15:0.024691 16:0.080247 17:0.074074 18:0.061728 19:0.006173 20:0.04321 
0.2632261424446847 1:0.046809 2:0.012766 3:0.021277 4:0.119149 5:0.046809 6:0.008511 7:0.025532 8:0.07234 9:0.110638 10:0.042553 11:0.025532 12:0.051064 13:0.042553 14:0.076596 15:0.012766 16:0.097872 17:0.06383 18:0.059574 19:0.012766 20:0.051064 
4 1:0.070905 2:0.00978 3:0.041565 4:0.06357 5:0.056235 6:0.051345 7:0.031785 8:0.046455 9:0.06846 10:0.119804 11:0.02934 12:0.0489 13:0.041565 14:0.05379 15:0.01956 16:0.07824 17:0.05868 18:0.07335 19:0.00978 20:0.026895 
0.9068891348109983 1:0.027211 2:0.054422 3:0.054422 4:0.040816 5:0.027211 6:0.068027 7:0.034014 8:0.054422 9:0.013605 10:0.081633 11:0.040816 12:0.061224 13:0.040816 14:0.054422 15:0.115646 16:0.054422 17:0.07483 18:0.068027 19:0.006803 20:0.027211 
1.67454846908627 1:0.148148 2:0.012346 3:0.037037 4:0.185185 5:0.037037 6:0.074074 7:0 8:0.024691 9:0.123457 10:0.111111 11:0.024691 12:0.012346 13:0 14:0.037037 15:0.024691 16:0.074074 17:0 18:0.061728 19:0.012346 20:0 
1.114539267568783 1:0.024242 2:0.060606 3:0.027273 4:0.075758 5:0.036364 6:0.063636 7:0.015152 8:0.048485 9:0.048485 10:0.057576 11:0.015152 12:0.054545 13:0.075758 14:0.039394 15:0.060606 16:0.09697 17:0.069697 18:0.054545 19:0.024242 20:0.051515 
2.756579803302883 1:0.06619 2:0.051878 3:0.044723 4:0.076923 5:0.026834 6:0.060823 7:0.033989 8:0.028623 9:0.033989 10:0.096601 11:0.010733 12:0.041145 13:0.112701 14:0.062612 15:0.075134 16:0.046512 17:0.051878 18:0.042934 19:0.014311 20:0.021467 
4 1:0.069231 2:0.030769 3:0.076923 4:0.023077 5:0.046154 6:0.092308 7:0.007692 8:0.038462 9:0.053846 10:0.1 11:0.030769 12:0 13:0.053846 14:0.038462 15:0.061538 16:0.076923 17:0.023077 18:0.092308 19:0.030769 20:0.053846 
1.860873054079307 1:0.12 2:0.08 3:0.026667 4:0.053333 5:0.026667 6:0.053333 7:0.013333 8:0.066667 9:0.013333 10:0.093333 11:0.093333 12:0.04 13:0.053333 14:0.04 15:0.053333 16:0.066667 17:0.066667 18:0.013333 19:0 20:0.026667 
2.492264806522303 1:0.080268 2:0.0301 3:0.083612 4:0.040134 5:0.056856 6:0.070234 7:0.043478 8:0.0301 9:0.036789 10:0.073579 11:0.003344 12:0.050167 13:0.020067 14:0.0301 15:0.033445 16:0.123746 17:0.06689 18:0.056856 19:0.020067 20:0.050167 
0.6397953457665421 1:0.080645 2:0 3:0.032258 4:0.080645 5:0.024194 6:0.096774 7:0.032258 8:0.040323 9:0.040323 10:0.185484 11:0.024194 12:0.024194 13:0.056452 14:0.008065 15:0.048387 16:0.096774 17:0.056452 18:0.048387 19:0.016129 20:0.008065 
1.074359262996218 1:0.05102 2:0.061224 3:0 4:0.061224 5:0.020408 6:0.030612 7:0 8:0.112245 9:0.102041 10:0.102041 11:0.030612 12:0.05102 13:0.071429 14:0.040816 15:0.061224 16:0.102041 17:0.05102 18:0.05102 19:0 20:0 
4 1:0.046745 2:0.056761 3:0.055092 4:0.09182 5:0.071786 6:0.026711 7:0.021703 8:0.046745 9:0.085142 10:0.09182 11:0.015025 12:0.055092 13:0.046745 14:0.045075 15:0.040067 16:0.058431 17:0.056761 18:0.0601 19:0 20:0.028381 
4 1:0.063177 2:0.023466 3:0.064982 4:0.068592 5:0.036101 6:0.074007 7:0.023466 8:0.043321 9:0.061372 10:0.055957 11:0.019856 12:0.045126 13:0.074007 14:0.028881 15:0.041516 16:0.064982 17:0.070397 18:0.068592 19:0.028881 20:0.043321 
1.273003444788522 1:0.095552 2:0.057661 3:0.067545 4:0.095552 5:0.054366 6:0.031301 7:0.031301 8:0.023064 9:0.102142 10:0.113674 11:0.001647 12:0.018122 13:0.049423 14:0.028007 15:0.041186 16:0.056013 17:0.046129 18:0.054366 19:0.003295 20:0.029654 
4 1:0.088372 2:0 3:0.088372 4:0.07907 5:0.04186 6:0.046512 7:0.037209 8:0.069767 9:0.069767 10:0.093023 11:0.037209 12:0.04186 13:0.027907 14:0.027907 15:0.032558 16:0.051163 17:0.037209 18:0.116279 19:0 20:0.013953 
4 1:0.076253 2:0.030501 3:0.067538 4:0.045752 5:0.037037 6:0.089325 7:0.045752 8:0.019608 9:0.043573 10:0.091503 11:0.010893 12:0.023965 13:0.067538 14:0.028322 15:0.061002 16:0.078431 17:0.052288 18:0.058824 19:0.041394 20:0.030501 
1.000442603697973 1:0.089286 2:0.071429 3:0.017857 4:0.053571 5:0.026786 6:0.0625 7:0 8:0.107143 9:0.0625 10:0.080357 11:0.017857 12:0.071429 13:0.0625 14:0.053571 15:0 16:0.107143 17:0.035714 18:0.080357 19:0 20:0 
4 1:0.059633 2:0.009174 3:0.057339 4:0.059633 5:0.059633 6:0.073394 7:0.022936 8:0.066514 9:0.059633 10:0.100917 11:0.018349 12:0.038991 13:0.050459 14:0.052752 15:0.034404 16:0.087156 17:0.050459 18:0.043578 19:0.018349 20:0.036697 
1.815917609052735 1:0.058201 2:0.058201 3:0.031746 4:0.026455 5:0.026455 6:0.031746 7:0.015873 8:0.031746 9:0.037037 10:0.063492 11:0.005291 12:0.063492 13:0.074074 14:0.021164 15:0.031746 16:0.126984 17:0.169312 18:0.10582 19:0.010582 20:0.010582 
0.2828155635895747 1:0.106145 2:0.011173 3:0.055866 4:0.036313 5:0.050279 6:0.094972 7:0.01676 8:0.039106 9:0.053073 10:0.072626 11:0.00838 12:0.072626 13:0.058659 14:0.01676 15:0.01676 16:0.078212 17:0.089385 18:0.067039 19:0.01676 20:0.039106 
4 1:0.082873 2:0.027624 3:0.066298 4:0.022099 5:0.044199 6:0.082873 7:0.022099 8:0.049724 9:0.055249 10:0.082873 11:0.022099 12:0.066298 13:0.038674 14:0.01105 15:0.049724 16:0.071823 17:0.077348 18:0.071823 19:0.016575 20:0.038674 
2.049212075230562 1:0.081081 2:0.054054 3:0.045045 4:0.054054 5:0 6:0.045045 7:0.027027 8:0.036036 9:0.036036 10:0.171171 11:0.018018 12:0.018018 13:0.054054 14:0.108108 15:0.027027 16:0.072072 17:0.045045 18:0.081081 19:0.009009 20:0.018018 
1.488399611702229 1:0.074725 2:0 3:0.07033 4:0.136264 5:0.030769 6:0.030769 7:0.030769 8:0.010989 9:0.063736 10:0.118681 11:0.026374 12:0.030769 13:0.061538 14:0.085714 15:0.076923 16:0.03956 17:0.041758 18:0.048352 19:0.004396 20:0.017582 
4 1:0.070093 2:0.004673 3:0.03271 4:0.093458 5:0.03271 6:0.042056 7:0.018692 8:0.046729 9:0.065421 10:0.102804 11:0.028037 12:0.051402 13:0.088785 14:0.065421 15:0.03271 16:0.084112 17:0.028037 18:0.051402 19:0.009346 20:0.051402 
1.259052202885082 1:0.048673 2:0.004425 3:0.026549 4:0.061947 5:0.022124 6:0.013274 7:0.022124 8:0.061947 9:0.053097 10:0.137168 11:0.017699 12:0.022124 13:0.172566 14:0.110619 15:0.013274 16:0.039823 17:0.039823 18:0.097345 19:0.004425 20:0.030973 
1.172938908574941 1:0.077558 2:0.066007 3:0.062706 4:0.039604 5:0.029703 6:0.059406 7:0.031353 8:0.033003 9:0.080858 10:0.062706 11:0.013201 12:0.042904 13:0.062706 14:0.042904 15:0.069307 16:0.069307 17:0.054455 18:0.049505 19:0.016502 20:0.036304 
4 1:0.070313 2:0.007813 3:0.070313 4:0.074219 5:0.050781 6:0.039063 7:0.023438 8:0.054688 9:0.09375 10:0.078125 11:0.03125 12:0.046875 13:0.023438 14:0.03125 15:0.039063 16:0.0625 17:0.058594 18:0.070313 19:0.015625 20:0.058594 
4 1:0.076046 2:0.019011 3:0.064639 4:0.076046 5:0.015209 6:0.04943 7:0.034221 8:0.060837 9:0.045627 10:0.079848 11:0.019011 12:0.04943 13:0.053232 14:0.030418 15:0.068441 16:0.064639 17:0.064639 18:0.091255 19:0.015209 20:0.022814 
4 1:0.036199 2:0.022624 3:0.040724 4:0.063348 5:0.063348 6:0.072398 7:0.031674 8:0.040724 9:0.099548 10:0.099548 11:0.0181 12:0.040724 13:0.067873 14:0.049774 15:0.022624 16:0.040724 17:0.049774 18:0.085973 19:0.013575 20:0.040724 
1.531308305450212 1:0.067568 2:0.040541 3:0.067568 4:0.081081 5:0.040541 6:0.081081 7:0 8:0.040541 9:0.108108 10:0.148649 11:0.067568 12:0.027027 13:0 14:0.040541 15:0.027027 16:0.081081 17:0.067568 18:0.013514 19:0 20:0 
4 1:0.063915 2:0.009321 3:0.04261 4:0.057257 5:0.055925 6:0.073236 7:0.047936 8:0.029294 9:0.031957 10:0.091877 11:0.01731 12:0.037284 13:0.082557 14:0.039947 15:0.058589 16:0.061252 17:0.05992 18:0.070573 19:0.023968 20:0.045273 
3.546956729653318 1:0.066225 2:0.039735 3:0.039735 4:0.02649 5:0.019868 6:0.092715 7:0.02649 8:0.092715 9:0.07947 10:0.072848 11:0.006623 12:0.039735 13:0.059603 14:0.039735 15:0.039735 16:0.099338 17:0.046358 18:0.05298 19:0.006623 20:0.05298 
4 1:0.05668 2:0.008097 3:0.068826 4:0.048583 5:0.044534 6:0.137652 7:0.032389 8:0.024291 9:0.052632 10:0.093117 11:0.020243 12:0.040486 13:0.068826 14:0.032389 15:0.02834 16:0.036437 17:0.072874 18:0.068826 19:0.008097 20:0.05668 
1.522203184969133 1:0.039088 2:0.061889 3:0.009772 4:0.009772 5:0 6:0.029316 7:0 8:0.013029 9:0.117264 10:0.042345 11:0.003257 12:0.016287 13:0.14658 14:0.042345 15:0.016287 16:0.016287 17:0.423453 18:0.009772 19:0.003257 20:0 
4 1:0.086538 2:0.019231 3:0.038462 4:0.105769 5:0.028846 6:0.067308 7:0.038462 8:0.009615 9:0.038462 10:0.105769 11:0.038462 12:0.019231 13:0.076923 14:0.086538 15:0.076923 16:0.076923 17:0.019231 18:0.028846 19:0.019231 20:0.019231 
4 1:0.055825 2:0.01699 3:0.046117 4:0.055825 5:0.063107 6:0.055825 7:0.01699 8:0.055825 9:0.070388 10:0.128641 11:0.029126 12:0.055825 13:0.046117 14:0.058252 15:0.014563 16:0.072816 17:0.063107 18:0.065534 19:0.007282 20:0.021845 
2.018079982888248 1:0.082019 2:0.003155 3:0.037855 4:0.129338 5:0.009464 6:0.056782 7:0.009464 8:0.006309 9:0.031546 10:0.126183 11:0.025237 12:0.012618 13:0.031546 14:0.078864 15:0.119874 16:0.069401 17:0.047319 18:0.078864 19:0.031546 20:0.012618 
1.533081841615191 1:0.032258 2:0.03871 3:0.032258 4:0.051613 5:0.012903 6:0.03871 7:0.045161 8:0.064516 9:0.03871 10:0.090323 11:0.019355 12:0.103226 13:0.090323 14:0.012903 15:0.070968 16:0.077419 17:0.058065 18:0.083871 19:0.012903 20:0.025806 
4 1:0.066502 2:0.007389 3:0.044335 4:0.041872 5:0.061576 6:0.059113 7:0.03202 8:0.051724 9:0.044335 10:0.133005 11:0.03202 12:0.051724 13:0.034483 14:0.041872 15:0.029557 16:0.091133 17:0.068966 18:0.064039 19:0.014778 20:0.029557 
2.318600174316687 1:0.069307 2:0.00495 3:0.014851 4:0.009901 5:0.064356 6:0.079208 7:0.054455 8:0.019802 9:0.024752 10:0.168317 11:0.009901 12:0.024752 13:0.084158 14:0.054455 15:0.044554 16:0.113861 17:0.049505 18:0.064356 19:0.009901 20:0.034653 
3.257177125897644 1:0.092279 2:0.007533 3:0.048964 4:0.026365 5:0.033898 6:0.077213 7:0.041431 8:0.05838 9:0.026365 10:0.082863 11:0.013183 12:0.062147 13:0.084746 14:0.026365 15:0.054614 16:0.065913 17:0.073446 18:0.080979 19:0.013183 20:0.030132 
2.310606686720417 1:0.1 2:0.021053 3:0.094737 4:0.078947 5:0.042105 6:0.052632 7:0.005263 8:0.026316 9:0.052632 10:0.063158 11:0.031579 12:0.094737 13:0.021053 14:0.031579 15:0.021053 16:0.031579 17:0.063158 18:0.089474 19:0.021053 20:0.057895 
2.16482270904127 1:0.072917 2:0.026042 3:0.03125 4:0.078125 5:0.020833 6:0.052083 7:0.005208 8:0.041667 9:0.041667 10:0.182292 11:0.020833 12:0.026042 13:0.078125 14:0.036458 15:0.072917 16:0.057292 17:0.0625 18:0.0625 19:0.010417 20:0.020833 
4 1:0.067769 2:0.052853 3:0.053178 4:0.059987 5:0.026265 6:0.081712 7:0.030804 8:0.037938 9:0.047341 10:0.094358 11:0.014591 12:0.047665 13:0.048962 14:0.04572 15:0.05415 16:0.081064 17:0.057069 18:0.059339 19:0.008106 20:0.031128 
4 1:0.087819 2:0.055241 3:0.056657 4:0.063739 5:0.036827 6:0.069405 7:0.028329 8:0.028329 9:0.072238 10:0.089235 11:0.007082 12:0.043909 13:0.043909 14:0.031161 15:0.045326 16:0.070822 17:0.049575 18:0.067989 19:0.014164 20:0.038244 
4 1:0.085227 2:0.053977 3:0.066761 4:0.0625 5:0.041193 6:0.069602 7:0.022727 8:0.028409 9:0.090909 10:0.079545 11:0.015625 12:0.06108 13:0.041193 14:0.024148 15:0.035511 16:0.065341 17:0.051136 18:0.06108 19:0.011364 20:0.03267 
0.2136578560780041 1:0.117188 2:0.027344 3:0.03125 4:0.011719 5:0.03125 6:0.105469 7:0.023438 8:0.046875 9:0 10:0.066406 11:0.011719 12:0.101563 13:0.035156 14:0.042969 15:0.082031 16:0.070313 17:0.058594 18:0.085938 19:0.027344 20:0.023438 
2.520767903511608 1:0.079848 2:0.038023 3:0.038023 4:0.038023 5:0.026616 6:0.106464 7:0.026616 8:0.038023 9:0.030418 10:0.076046 11:0.026616 12:0.053232 13:0.045627 14:0.038023 15:0.041825 16:0.072243 17:0.072243 18:0.098859 19:0.030418 20:0.022814 
4 1:0.074419 2:0.004651 3:0.051163 4:0.051163 5:0.053488 6:0.060465 7:0.027907 8:0.048837 9:0.046512 10:0.12093 11:0.034884 12:0.039535 13:0.039535 14:0.032558 15:0.04186 16:0.086047 17:0.076744 18:0.062791 19:0.018605 20:0.027907 
4 1:0.126289 2:0.012887 3:0.051546 4:0.033505 5:0.030928 6:0.110825 7:0.025773 8:0.059278 9:0.048969 10:0.064433 11:0.015464 12:0.03866 13:0.03866 14:0.025773 15:0.036082 16:0.103093 17:0.07732 18:0.059278 19:0.005155 20:0.036082 
-1.333597729706155 1:0.043011 2:0.075269 3:0.11828 4:0.075269 5:0.032258 6:0.096774 7:0.010753 8:0.032258 9:0.064516 10:0.086022 11:0 12:0 13:0.043011 14:0.032258 15:0.010753 16:0.107527 17:0.086022 18:0.043011 19:0 20:0.043011 
-0.5602891461789574 1:0 2:0 3:0.077922 4:0.064935 5:0.012987 6:0.077922 7:0.012987 8:0.116883 9:0.051948 10:0.077922 11:0.025974 12:0.051948 13:0.038961 14:0.012987 15:0.142857 16:0.090909 17:0.025974 18:0.051948 19:0.025974 20:0.038961 
-0.3728540102732259 1:0.095238 2:0 3:0.047619 4:0.142857 5:0 6:0.047619 7:0 8:0.047619 9:0.095238 10:0 11:0 12:0.047619 13:0 14:0.047619 15:0.047619 16:0.190476 17:0.095238 18:0.095238 19:0 20:0 
-1.229601614742212 1:0.166667 2:0.055556 3:0.071429 4:0.039683 5:0.02381 6:0.071429 7:0.007937 8:0.02381 9:0.039683 10:0.055556 11:0.047619 12:0.007937 13:0.047619 14:0.039683 15:0.047619 16:0.079365 17:0.079365 18:0.055556 19:0 20:0.039683 
-0.9435184618241099 1:0.068592 2:0.00361 3:0.054152 4:0.036101 5:0.036101 6:0.072202 7:0.043321 8:0.043321 9:0.072202 10:0.104693 11:0.01444 12:0.061372 13:0.025271 14:0.021661 15:0.021661 16:0.108303 17:0.093863 18:0.083032 19:0.00361 20:0.032491 
-0.3497253739247486 1:0.107822 2:0.021142 3:0.05074 4:0.048626 5:0.038055 6:0.103594 7:0.02537 8:0.065539 9:0.05074 10:0.071882 11:0.02537 12:0.052854 13:0.044397 14:0.027484 15:0.052854 16:0.084567 17:0.044397 18:0.059197 19:0.004228 20:0.021142 
-0.5522113425407841 1:0.162162 2:0 3:0.027027 4:0 5:0.027027 6:0.054054 7:0 8:0.081081 9:0 10:0.216216 11:0.054054 12:0.027027 13:0.027027 14:0.027027 15:0.135135 16:0.081081 17:0 18:0.054054 19:0.027027 20:0 
-0.3954273572471201 1:0.06044 2:0.027473 3:0.06044 4:0.032967 5:0.043956 6:0.043956 7:0 8:0.049451 9:0.098901 10:0.098901 11:0.010989 12:0.032967 13:0.038462 14:0.016484 15:0.032967 16:0.131868 17:0.082418 18:0.10989 19:0.016484 20:0.010989 
-1.815459392575019 1:0.09009 2:0.009009 3:0.045045 4:0.040541 5:0.031532 6:0.108108 7:0.045045 8:0.031532 9:0.040541 10:0.094595 11:0.009009 12:0.04955 13:0.063063 14:0.018018 15:0.018018 16:0.108108 17:0.112613 18:0.085586 19:0 20:0 
-0.4776482334969011 1:0.266667 2:0 3:0.066667 4:0.066667 5:0 6:0 7:0 8:0 9:0.066667 10:0.2 11:0 12:0 13:0 14:0.066667 15:0 16:0.066667 17:0.133333 18:0.066667 19:0 20:0 
-0.4679621832420449 1:0 2:0.041667 3:0.208333 4:0.083333 5:0.083333 6:0.041667 7:0.041667 8:0.041667 9:0.083333 10:0 11:0.083333 12:0 13:0.083333 14:0 15:0 16:0 17:0.041667 18:0.083333 19:0.083333 20:0 
-0.414032527580249 1:0.09375 2:0.052083 3:0.114583 4:0.125 5:0.041667 6:0.0625 7:0.010417 8:0.041667 9:0.041667 10:0.052083 11:0 12:0 13:0.03125 14:0.03125 15:0.010417 16:0.083333 17:0.0625 18:0.104167 19:0 20:0.041667 
-2.079556383466968 1:0.060209 2:0.015707 3:0.060209 4:0.057592 5:0.036649 6:0.068063 7:0.02356 8:0.044503 9:0.04712 10:0.099476 11:0.031414 12:0.036649 13:0.039267 14:0.020942 15:0.081152 16:0.08377 17:0.081152 18:0.073298 19:0.02356 20:0.015707 
-0.2302998852023182 1:0.082803 2:0 3:0.031847 4:0.095541 5:0.038217 6:0.012739 7:0 8:0.095541 9:0.082803 10:0.127389 11:0.025478 12:0.050955 13:0.006369 14:0.101911 15:0.019108 16:0.089172 17:0.044586 18:0.031847 19:0 20:0.063694 
-0.4344478784100791 1:0.069767 2:0.02907 3:0.065891 4:0.050388 5:0.042636 6:0.075581 7:0.021318 8:0.077519 9:0.05814 10:0.079457 11:0.023256 12:0.046512 13:0.03876 14:0.03876 15:0.04845 16:0.079457 17:0.056202 18:0.05814 19:0.005814 20:0.034884 
-2.502188920553085 1:0.101796 2:0.041916 3:0.053892 4:0.047904 5:0.017964 6:0.065868 7:0.011976 8:0.053892 9:0.071856 10:0.077844 11:0.023952 12:0.02994 13:0.065868 14:0.005988 15:0.053892 16:0.065868 17:0.05988 18:0.107784 19:0.023952 20:0.017964 
-0.9520171681022617 1:0.045872 2:0.018349 3:0.06422 4:0.036697 5:0.027523 6:0.036697 7:0.027523 8:0.100917 9:0.082569 10:0.06422 11:0.027523 12:0.045872 13:0.055046 14:0.036697 15:0.027523 16:0.06422 17:0.091743 18:0.110092 19:0.018349 20:0.018349 
-4 1:0.074324 2:0.054054 3:0.054054 4:0.067568 5:0.047297 6:0.047297 7:0.02027 8:0.033784 9:0.081081 10:0.060811 11:0.033784 12:0.02027 13:0.047297 14:0.040541 15:0.060811 16:0.094595 17:0.060811 18:0.060811 19:0.006757 20:0.033784 
-0.5802998873838796 1:0.056738 2:0.014184 3:0.070922 4:0.056738 5:0.021277 6:0.163121 7:0.056738 8:0.035461 9:0.035461 10:0.099291 11:0.007092 12:0.042553 13:0.049645 14:0.021277 15:0.028369 16:0.049645 17:0.092199 18:0.099291 19:0 20:0 
-0.5256783677666919 1:0.083721 2:0.013953 3:0.044186 4:0.069767 5:0.018605 6:0.090698 7:0.02093 8:0.07907 9:0.05814 10:0.05814 11:0.018605 12:0.046512 13:0.062791 14:0.030233 15:0.046512 16:0.069767 17:0.062791 18:0.05814 19:0.027907 20:0.039535 
-1.147783988300852 1:0.073684 2:0.042105 3:0.073684 4:0.126316 5:0.052632 6:0.094737 7:0.010526 8:0.042105 9:0.042105 10:0.094737 11:0.010526 12:0 13:0.042105 14:0.021053 15:0.010526 16:0.094737 17:0.073684 18:0.073684 19:0 20:0.021053 
-2.006115673561616 1:0.120155 2:0.011628 3:0.05814 4:0.050388 5:0.042636 6:0.081395 7:0.011628 8:0.031008 9:0.081395 10:0.077519 11:0.003876 12:0.042636 13:0.042636 14:0.03876 15:0.034884 16:0.093023 17:0.065891 18:0.05814 19:0.007752 20:0.046512 
-0.8589146934367804 1:0.140777 2:0.024272 3:0.038835 4:0.038835 5:0.024272 6:0.11165 7:0.019417 8:0.033981 9:0.048544 10:0.092233 11:0.024272 12:0.033981 13:0.058252 14:0.014563 15:0.048544 16:0.072816 17:0.058252 18:0.072816 19:0.024272 20:0.019417 
-4 1:0.090526 2:0.033684 3:0.058947 4:0.054737 5:0.042105 6:0.098947 7:0.027368 8:0.044211 9:0.054737 10:0.086316 11:0.021053 12:0.035789 13:0.029474 14:0.023158 15:0.058947 16:0.04 17:0.069474 18:0.063158 19:0.016842 20:0.050526 
-1.280859203060207 1:0.101887 2:0.003774 3:0.056604 4:0.041509 5:0.067925 6:0.113208 7:0.011321 8:0.026415 9:0.049057 10:0.101887 11:0.030189 12:0.05283 13:0.064151 14:0.026415 15:0.026415 16:0.045283 17:0.045283 18:0.083019 19:0.022642 20:0.030189 
-0.6463306332920395 1:0.091892 2:0.005405 3:0.048649 4:0.043243 5:0.032432 6:0.032432 7:0.010811 8:0.108108 9:0.097297 10:0.124324 11:0.021622 12:0.048649 13:0.016216 14:0.054054 15:0.016216 16:0.102703 17:0.086486 18:0.043243 19:0 20:0.016216 
-0.4630662073449482 1:0.097222 2:0.048611 3:0.0625 4:0.0625 5:0.055556 6:0.041667 7:0.027778 8:0.027778 9:0.0625 10:0.041667 11:0.034722 12:0.034722 13:0.0625 14:0.034722 15:0.0625 16:0.055556 17:0.076389 18:0.083333 19:0.006944 20:0.020833 
-0.4627986225741056 1:0.25 2:0 3:0 4:0.083333 5:0.083333 6:0.166667 7:0 8:0 9:0 10:0 11:0 12:0.083333 13:0.083333 14:0 15:0 16:0.083333 17:0 18:0.083333 19:0 20:0.083333 
-0.3387881365493791 1:0.092683 2:0.014634 3:0.039024 4:0.068293 5:0.04878 6:0.141463 7:0.009756 8:0.034146 9:0.039024 10:0.102439 11:0.019512 12:0.029268 13:0.068293 14:0.04878 15:0.039024 16:0.04878 17:0.039024 18:0.058537 19:0.02439 20:0.034146 
-4 1:0.101215 2:0.02834 3:0.044534 4:0.032389 5:0.040486 6:0.089069 7:0.020243 8:0.040486 9:0.044534 10:0.11336 11:0.024291 12:0.048583 13:0.064777 14:0.02834 15:0.032389 16:0.072874 17:0.076923 18:0.064777 19:0.016194 20:0.016194 
-0.1670242029854771 1:0.042471 2:0.003861 3:0.046332 4:0.073359 5:0.030888 6:0.03861 7:0.027027 8:0.135135 9:0.127413 10:0.100386 11:0.003861 12:0.158301 13:0.011583 14:0.023166 15:0.019305 16:0.046332 17:0.042471 18:0.034749 19:0 20:0.034749 
-0.1746545423042575 1:0.08046 2:0.022989 3:0.034483 4:0.103448 5:0.011494 6:0.126437 7:0.022989 8:0.057471 9:0.034483 10:0.034483 11:0.022989 12:0.068966 13:0.045977 14:0.034483 15:0.011494 16:0.103448 17:0.022989 18:0.08046 19:0.022989 20:0.057471 
-0.4673547284723464 1:0.070423 2:0.008451 3:0.08169 4:0.039437 5:0.042254 6:0.121127 7:0.011268 8:0.061972 9:0.056338 10:0.092958 11:0.022535 12:0.022535 13:0.039437 14:0.016901 15:0.050704 16:0.095775 17:0.059155 18:0.076056 19:0.005634 20:0.025352 
-0.2143030220447797 1:0.180952 2:0.028571 3:0 4:0.057143 5:0.019048 6:0.066667 7:0 8:0.038095 9:0.057143 10:0.028571 11:0.057143 12:0.047619 13:0.038095 14:0.028571 15:0.085714 16:0.07619 17:0.104762 18:0.07619 19:0 20:0.009524 
-0.05407554347500243 1:0.138889 2:0 3:0.027778 4:0 5:0.027778 6:0.027778 7:0 8:0.083333 9:0.027778 10:0.138889 11:0.055556 12:0.027778 13:0.027778 14:0.055556 15:0.083333 16:0.083333 17:0.027778 18:0.111111 19:0.027778 20:0.027778 
-0.005448682863966336 1:0.040404 2:0.010101 3:0.035354 4:0.070707 5:0.020202 6:0.050505 7:0.030303 8:0.075758 9:0.131313 10:0.09596 11:0.025253 12:0.025253 13:0.045455 14:0.025253 15:0.035354 16:0.116162 17:0.065657 18:0.080808 19:0.010101 20:0.010101 
-0.5752292382544237 1:0.09375 2:0.0625 3:0.125 4:0.052083 5:0.020833 6:0.09375 7:0.010417 8:0.052083 9:0.041667 10:0.072917 11:0 12:0 13:0.03125 14:0.0625 15:0.010417 16:0.083333 17:0.072917 18:0.0625 19:0 20:0.052083 
-0.04175483639926684 1:0.084158 2:0.009901 3:0.039604 4:0.044554 5:0.024752 6:0.118812 7:0.044554 8:0.029703 9:0.034653 10:0.108911 11:0.00495 12:0.049505 13:0.059406 14:0.024752 15:0.024752 16:0.084158 17:0.09901 18:0.108911 19:0 20:0.00495 
-0.6105222674167975 1:0.066667 2:0.005556 3:0.022222 4:0.088889 5:0.038889 6:0.055556 7:0.016667 8:0.072222 9:0.055556 10:0.127778 11:0.022222 12:0.077778 13:0.005556 14:0.055556 15:0.077778 16:0.061111 17:0.061111 18:0.061111 19:0.005556 20:0.022222 
-1.114066594905137 1:0.071823 2:0.022099 3:0.033149 4:0.066298 5:0.038674 6:0.038674 7:0.016575 8:0.055249 9:0.077348 10:0.066298 11:0.01105 12:0.033149 13:0.066298 14:0.027624 15:0.033149 16:0.143646 17:0.044199 18:0.110497 19:0.016575 20:0.027624 
-0.4952521260193123 1:0.015625 2:0 3:0.03125 4:0.09375 5:0.03125 6:0.0625 7:0 8:0.046875 9:0.078125 10:0.03125 11:0.015625 12:0.0625 13:0.015625 14:0.015625 15:0.078125 16:0.09375 17:0.0625 18:0.1875 19:0.015625 20:0.0625 
-0.4911689512491789 1:0.15102 2:0.004082 3:0.069388 4:0.032653 5:0.053061 6:0.093878 7:0.004082 8:0.032653 9:0.077551 10:0.069388 11:0.008163 12:0.044898 13:0.032653 14:0.02449 15:0.044898 16:0.089796 17:0.040816 18:0.081633 19:0.008163 20:0.036735 
-2.447911853303695 1:0.090278 2:0.041667 3:0.0625 4:0.090278 5:0.034722 6:0.090278 7:0.013889 8:0.055556 9:0.055556 10:0.069444 11:0.020833 12:0.020833 13:0.048611 14:0.020833 15:0.027778 16:0.097222 17:0.069444 18:0.0625 19:0 20:0.027778 
-0.2991287426932611 1:0.114504 2:0 3:0.068702 4:0.091603 5:0.015267 6:0.053435 7:0.015267 8:0.091603 9:0.030534 10:0.099237 11:0.022901 12:0.045802 13:0.030534 14:0.045802 15:0.076336 16:0.045802 17:0.068702 18:0.068702 19:0.015267 20:0 
-4 1:0.116915 2:0.032338 3:0.064677 4:0.032338 5:0.034826 6:0.10199 7:0.017413 8:0.052239 9:0.037313 10:0.079602 11:0.0199 12:0.044776 13:0.029851 14:0.037313 15:0.057214 16:0.09204 17:0.044776 18:0.077114 19:0.012438 20:0.014925 
-1.556332897080929 1:0.083333 2:0.038889 3:0.033333 4:0.044444 5:0.038889 6:0.072222 7:0.005556 8:0.038889 9:0.066667 10:0.061111 11:0.027778 12:0.022222 13:0.044444 14:0.061111 15:0.033333 16:0.094444 17:0.077778 18:0.083333 19:0.027778 20:0.044444 
-0.5397810005902488 1:0.084 2:0.012 3:0.036 4:0.104 5:0.056 6:0.048 7:0.028 8:0.028 9:0.072 10:0.092 11:0.016 12:0.056 13:0.044 14:0.036 15:0.044 16:0.096 17:0.024 18:0.088 19:0.004 20:0.032 
-0.4993496448008395 1:0.07563 2:0.058824 3:0.033613 4:0.05042 5:0.033613 6:0.092437 7:0.02521 8:0.02521 9:0.016807 10:0.134454 11:0.008403 12:0 13:0.092437 14:0.033613 15:0.10084 16:0.07563 17:0.02521 18:0.067227 19:0.042017 20:0.008403 
-0.0262755067301936 1:0.105058 2:0.013619 3:0.089494 4:0.050584 5:0.009728 6:0.044747 7:0.009728 8:0.044747 9:0.038911 10:0.087549 11:0.01751 12:0.085603 13:0.050584 14:0.035019 15:0.031128 16:0.124514 17:0.083658 18:0.052529 19:0.005837 20:0.019455 
-2.075773107250158 1:0.060367 2:0.026247 3:0.060367 4:0.049869 5:0.028871 6:0.076115 7:0.018373 8:0.089239 9:0.060367 10:0.07874 11:0.018373 12:0.052493 13:0.052493 14:0.03937 15:0.023622 16:0.091864 17:0.049869 18:0.07874 19:0 20:0.044619 
-4 1:0.06986 2:0.05988 3:0.041916 4:0.077844 5:0.041916 6:0.053892 7:0.02994 8:0.035928 9:0.051896 10:0.10978 11:0.015968 12:0.031936 13:0.047904 14:0.045908 15:0.061876 16:0.07984 17:0.047904 18:0.065868 19:0.005988 20:0.023952 
-1.196987066180064 1:0.071895 2:0.013072 3:0.078431 4:0.052288 5:0.039216 6:0.156863 7:0.052288 8:0.058824 9:0.058824 10:0.045752 11:0 12:0.045752 13:0.039216 14:0.039216 15:0.03268 16:0.052288 17:0.078431 18:0.071895 19:0.006536 20:0.006536 
-0.6591858267482305 1:0.039106 2:0 3:0.072626 4:0.083799 5:0.03352 6:0.061453 7:0.011173 8:0.072626 9:0.106145 10:0.067039 11:0.050279 12:0.027933 13:0.072626 14:0.011173 15:0.027933 16:0.050279 17:0.027933 18:0.111732 19:0.005587 20:0.067039 
-0.110777925308791 1:0.121212 2:0.022727 3:0.022727 4:0.075758 5:0.015152 6:0.030303 7:0.015152 8:0.015152 9:0.19697 10:0.068182 11:0.045455 12:0.007576 13:0.037879 14:0.030303 15:0.05303 16:0.098485 17:0.045455 18:0.060606 19:0.007576 20:0.030303 
-0.5664201766961745 1:0.075 2:0 3:0.025 4:0.2 5:0.075 6:0 7:0 8:0.075 9:0.025 10:0.05 11:0.05 12:0.05 13:0.05 14:0.125 15:0 16:0.05 17:0.1 18:0.025 19:0 20:0.025 
-1.327473761291909 1:0.072289 2:0.028112 3:0.048193 4:0.068273 5:0.032129 6:0.068273 7:0.02008 8:0.076305 9:0.080321 10:0.056225 11:0.012048 12:0.080321 13:0.040161 14:0.028112 15:0.028112 16:0.080321 17:0.064257 18:0.076305 19:0.016064 20:0.024096 
-0.6108353043306962 1:0.070175 2:0.065789 3:0.050439 4:0.076754 5:0 6:0.08114 7:0.015351 8:0.019737 9:0.030702 10:0.214912 11:0.004386 12:0.037281 13:0.035088 14:0.054825 15:0.048246 16:0.083333 17:0.050439 18:0.041667 19:0.010965 20:0.008772 
-0.2553273276989605 1:0.12037 2:0.012346 3:0.092593 4:0.123457 5:0.024691 6:0.070988 7:0.021605 8:0.080247 9:0.049383 10:0.089506 11:0.037037 12:0.006173 13:0.018519 14:0.009259 15:0.052469 16:0.058642 17:0.030864 18:0.074074 19:0.003086 20:0.024691 
-4 1:0.073841 2:0.016496 3:0.053417 4:0.088767 5:0.042419 6:0.040063 7:0.018068 8:0.057345 9:0.076984 10:0.130401 11:0.025137 12:0.050275 13:0.032207 14:0.046347 15:0.042419 16:0.054988 17:0.047133 18:0.062058 19:0.006284 20:0.03535 
-1.096985026079004 1:0.079365 2:0.042328 3:0.055556 4:0.047619 5:0.042328 6:0.095238 7:0.015873 8:0.07672 9:0.087302 10:0.074074 11:0.007937 12:0.044974 13:0.044974 14:0.015873 15:0.026455 16:0.060847 17:0.060847 18:0.095238 19:0.007937 20:0.018519 
-2.30549865335791 1:0.071429 2:0.020408 3:0.05102 4:0.102041 5:0.071429 6:0.030612 7:0.030612 8:0.030612 9:0.102041 10:0.061224 11:0.030612 12:0.030612 13:0.05102 14:0.05102 15:0.030612 16:0.05102 17:0.081633 18:0.081633 19:0 20:0.020408 
-0.002558562846602202 1:0.060302 2:0.020101 3:0.080402 4:0.035176 5:0.075377 6:0.080402 7:0.015075 8:0.090452 9:0.095477 10:0.055276 11:0.015075 12:0.035176 13:0.065327 14:0.040201 15:0.030151 16:0.065327 17:0.040201 18:0.060302 19:0.01005 20:0.030151 
-1.528533377495369 1:0.045455 2:0.017483 3:0.048951 4:0.090909 5:0.041958 6:0.076923 7:0.027972 8:0.027972 9:0.045455 10:0.097902 11:0.034965 12:0.017483 13:0.062937 14:0.062937 15:0.066434 16:0.06993 17:0.038462 18:0.08042 19:0.020979 20:0.024476 
-0.4574704754970695 1:0.092715 2:0 3:0.059603 4:0.10596 5:0.039735 6:0.07947 7:0.019868 8:0.059603 9:0.05298 10:0.05298 11:0.039735 12:0.033113 13:0.039735 14:0.013245 15:0.072848 16:0.046358 17:0.033113 18:0.119205 19:0.019868 20:0.019868 
-0.379326768389152 1:0.079167 2:0.008333 3:0.05 4:0.195833 5:0.033333 6:0.083333 7:0.0125 8:0.016667 9:0.1125 10:0.045833 11:0.016667 12:0.0375 13:0.0875 14:0.020833 15:0.041667 16:0.066667 17:0.029167 18:0.033333 19:0.008333 20:0.020833 
-4 1:0.084229 2:0.026882 3:0.041219 4:0.069892 5:0.044803 6:0.043011 7:0.028674 8:0.055556 9:0.037634 10:0.148746 11:0.026882 12:0.023297 13:0.044803 14:0.066308 15:0.051971 16:0.064516 17:0.048387 18:0.050179 19:0.023297 20:0.019713 
-0.9499978444124028 1:0.046205 2:0.039604 3:0.062706 4:0.066007 5:0.052805 6:0.072607 7:0.019802 8:0.069307 9:0.059406 10:0.092409 11:0.019802 12:0.049505 13:0.042904 14:0.029703 15:0.046205 16:0.029703 17:0.066007 18:0.066007 19:0.019802 20:0.049505 
-0.464983994878103 1:0.045455 2:0 3:0.045455 4:0.272727 5:0 6:0.090909 7:0.045455 8:0.090909 9:0.090909 10:0.090909 11:0 12:0 13:0.090909 14:0.090909 15:0 16:0 17:0 18:0.045455 19:0 20:0 
-1.833074188281247 1:0.08209 2:0.029851 3:0.059701 4:0.074627 5:0.033582 6:0.085821 7:0.022388 8:0.063433 9:0.037313 10:0.074627 11:0.026119 12:0.044776 13:0.074627 14:0.048507 15:0.059701 16:0.041045 17:0.033582 18:0.05597 19:0.033582 20:0.018657 
-0.05150843632506992 1:0.031056 2:0.024845 3:0.062112 4:0.074534 5:0.068323 6:0.062112 7:0.037267 8:0.099379 9:0.118012 10:0.037267 11:0.018634 12:0.074534 13:0.031056 14:0.043478 15:0.018634 16:0.055901 17:0.049689 18:0.043478 19:0.012422 20:0.037267 
-2.263698875027496 1:0.059211 2:0.019737 3:0.085526 4:0.046053 5:0.072368 6:0.059211 7:0.032895 8:0.026316 9:0.065789 10:0.105263 11:0.046053 12:0.046053 13:0.026316 14:0.032895 15:0.046053 16:0.065789 17:0.052632 18:0.065789 19:0.013158 20:0.032895 
-0.4468541255510799 1:0.099237 2:0.045802 3:0.068702 4:0.091603 5:0.007634 6:0.076336 7:0.015267 8:0.061069 9:0.122137 10:0.091603 11:0.015267 12:0.030534 13:0.022901 14:0.030534 15:0.038168 16:0.030534 17:0.015267 18:0.10687 19:0.007634 20:0.022901 
-1.16357657245669 1:0.083582 2:0.002985 3:0.116418 4:0.077612 5:0.032836 6:0.089552 7:0.014925 8:0.047761 9:0.023881 10:0.065672 11:0.023881 12:0.044776 13:0.041791 14:0.026866 15:0.032836 16:0.065672 17:0.068657 18:0.107463 19:0.00597 20:0.026866 
-0.452288510795442 1:0.08 2:0 3:0 4:0 5:0.08 6:0.2 7:0 8:0.04 9:0.08 10:0.04 11:0 12:0.08 13:0 14:0 15:0.12 16:0.04 17:0.04 18:0.2 19:0 20:0 
-0.4137288812436663 1:0.042945 2:0 3:0.030675 4:0.06135 5:0.006135 6:0.251534 7:0.06135 8:0.02454 9:0.079755 10:0.018405 11:0.04908 12:0.01227 13:0.02454 14:0.067485 15:0.03681 16:0.055215 17:0.141104 18:0.02454 19:0 20:0.01227 
-0.4429718135597672 1:0.142857 2:0 3:0.047619 4:0 5:0.047619 6:0.095238 7:0 8:0 9:0.095238 10:0.095238 11:0 12:0 13:0.047619 14:0.047619 15:0 16:0.047619 17:0.095238 18:0.238095 19:0 20:0 
-0.5025890440947174 1:0.05379 2:0.02445 3:0.06357 4:0.075795 5:0.03423 6:0.061125 7:0.03912 8:0.03912 9:0.08313 10:0.066015 11:0.02934 12:0.026895 13:0.031785 14:0.022005 15:0.05379 16:0.090465 17:0.066015 18:0.085575 19:0.02934 20:0.02445 
-0.5012775683769064 1:0.156627 2:0.024096 3:0.072289 4:0.084337 5:0.036145 6:0.036145 7:0 8:0.024096 9:0.168675 10:0.13253 11:0.036145 12:0.048193 13:0 14:0.024096 15:0 16:0.048193 17:0.036145 18:0.048193 19:0 20:0.024096 
-1.028911529235302 1:0.062069 2:0.016092 3:0.032184 4:0.085057 5:0.05977 6:0.066667 7:0.016092 8:0.041379 9:0.050575 10:0.126437 11:0.029885 12:0.032184 13:0.078161 14:0.052874 15:0.066667 16:0.068966 17:0.029885 18:0.029885 19:0.013793 20:0.041379 
-0.03549191630042126 1:0.075581 2:0.023256 3:0.040698 4:0.087209 5:0.034884 6:0.05814 7:0.011628 8:0.104651 9:0.063953 10:0.05814 11:0.040698 12:0.023256 13:0.052326 14:0.040698 15:0.046512 16:0.098837 17:0.052326 18:0.034884 19:0.011628 20:0.040698 
-2.343268991911025 1:0.083643 2:0.026022 3:0.053903 4:0.078067 5:0.033457 6:0.048327 7:0.022305 8:0.052045 9:0.085502 10:0.107807 11:0.039033 12:0.035316 13:0.033457 14:0.031599 15:0.048327 16:0.057621 17:0.05948 18:0.066914 19:0.01487 20:0.022305 
-0.4782091843039087 1:0.019737 2:0.105263 3:0 4:0.098684 5:0 6:0 7:0.032895 8:0.006579 9:0.098684 10:0.006579 11:0.006579 12:0.006579 13:0.328947 14:0.131579 15:0 16:0.019737 17:0.032895 18:0.098684 19:0 20:0.006579 
-1.850346842650033 1:0.089686 2:0.026906 3:0.049327 4:0.098655 5:0.058296 6:0.067265 7:0.026906 8:0.03139 9:0.067265 10:0.107623 11:0.026906 12:0.053812 13:0.040359 14:0.058296 15:0.035874 16:0.053812 17:0.022422 18:0.071749 19:0.004484 20:0.008969 
-0.2428904499573236 1:0.031579 2:0.010526 3:0.042105 4:0.094737 5:0.021053 6:0.084211 7:0.042105 8:0.084211 9:0.042105 10:0.094737 11:0.021053 12:0.042105 13:0.073684 14:0.094737 15:0.084211 16:0.052632 17:0.021053 18:0.042105 19:0.010526 20:0.010526 
-2.916856356656052 1:0.069565 2:0.069565 3:0.058696 4:0.076087 5:0.008696 6:0.069565 7:0.01087 8:0.026087 9:0.034783 10:0.2 11:0.004348 12:0.036957 13:0.030435 14:0.052174 15:0.052174 16:0.097826 17:0.028261 18:0.054348 19:0.013043 20:0.006522 
-0.5700661866713452 1:0.138889 2:0 3:0 4:0.083333 5:0.055556 6:0.055556 7:0 8:0.027778 9:0.111111 10:0.111111 11:0.083333 12:0.111111 13:0.027778 14:0 15:0.027778 16:0.083333 17:0 18:0.055556 19:0.027778 20:0 
-0.717945919512442 1:0.075949 2:0.008439 3:0.059072 4:0.105485 5:0.037975 6:0.033755 7:0.054852 8:0.059072 9:0.101266 10:0.084388 11:0.016878 12:0.033755 13:0.033755 14:0.050633 15:0.050633 16:0.067511 17:0.004219 18:0.101266 19:0.004219 20:0.016878 
-0.09859800750069118 1:0.190141 2:0.007042 3:0.049296 4:0.056338 5:0.070423 6:0.112676 7:0.014085 8:0.014085 9:0.070423 10:0.06338 11:0.035211 12:0.042254 13:0.021127 14:0.035211 15:0.007042 16:0.084507 17:0.042254 18:0.049296 19:0.028169 20:0.007042 
-0.7565887128546076 1:0.181818 2:0.007576 3:0.07197 4:0.05303 5:0.022727 6:0.056818 7:0.015152 8:0.041667 9:0.022727 10:0.034091 11:0.011364 12:0.030303 13:0.102273 14:0.045455 15:0.05303 16:0.068182 17:0.041667 18:0.083333 19:0.037879 20:0.018939 
-0.2326534746128823 1:0.055556 2:0 3:0.083333 4:0.083333 5:0.055556 6:0.111111 7:0 8:0.027778 9:0.138889 10:0.083333 11:0 12:0.027778 13:0.027778 14:0.027778 15:0.027778 16:0.083333 17:0.055556 18:0.055556 19:0.027778 20:0.027778 
-0.456824678075795 1:0.037736 2:0.009434 3:0.075472 4:0.028302 5:0.061321 6:0.136792 7:0.023585 8:0.056604 9:0.066038 10:0.070755 11:0.023585 12:0.028302 13:0.051887 14:0.014151 15:0.037736 16:0.061321 17:0.070755 18:0.113208 19:0.014151 20:0.018868 
-0.4146471020122602 1:0.066838 2:0.03599 3:0.01928 4:0.079692 5:0.017995 6:0.066838 7:0.023136 8:0.024422 9:0.017995 10:0.097686 11:0.006427 12:0.014139 13:0.152956 14:0.068123 15:0.078406 16:0.105398 17:0.056555 18:0.05527 19:0.006427 20:0.006427 
-0.4639990844857367 1:0.337838 2:0 3:0.027027 4:0.013514 5:0.013514 6:0.013514 7:0 8:0 9:0.135135 10:0.040541 11:0.027027 12:0.054054 13:0.040541 14:0.027027 15:0.027027 16:0.054054 17:0.121622 18:0.054054 19:0 20:0.013514 
-0.3604996833777814 1:0.071749 2:0.004484 3:0.06278 4:0.080717 5:0.040359 6:0.044843 7:0.013453 8:0.049327 9:0.107623 10:0.139013 11:0.040359 12:0.035874 13:0.058296 14:0.03139 15:0.053812 16:0.040359 17:0.026906 18:0.053812 19:0.004484 20:0.040359 
-0.2452238806003307 1:0.024267 2:0.010111 3:0.038423 4:0.031345 5:0.035389 6:0.032356 7:0.025278 8:0.053589 9:0.048534 10:0.060667 11:0.028311 12:0.18908 13:0.057634 14:0.064712 15:0.026289 16:0.154702 17:0.064712 18:0.031345 19:0.004044 20:0.019211 
-0.7485266723779531 1:0.068345 2:0.028777 3:0.039568 4:0.079137 5:0.032374 6:0.046763 7:0.017986 8:0.017986 9:0.053957 10:0.035971 11:0.035971 12:0.071942 13:0.133094 14:0.046763 15:0.061151 16:0.079137 17:0.046763 18:0.05036 19:0.021583 20:0.032374 
-0.8416097525732964 1:0.04 2:0.048 3:0.112 4:0.072 5:0.056 6:0.032 7:0.024 8:0.04 9:0.056 10:0.048 11:0.024 12:0.024 13:0.056 14:0.072 15:0.112 16:0.056 17:0.048 18:0.024 19:0.032 20:0.024 
-0.9438444512918047 1:0.027211 2:0.013605 3:0.054422 4:0.098639 5:0.068027 6:0.037415 7:0.030612 8:0.057823 9:0.102041 10:0.071429 11:0.037415 12:0.047619 13:0.054422 14:0.027211 15:0.037415 16:0.05102 17:0.040816 18:0.068027 19:0.02381 20:0.05102 
-1.549655202279712 1:0.061728 2:0.012346 3:0.041152 4:0.096708 5:0.063786 6:0.028807 7:0.020576 8:0.067901 9:0.08642 10:0.115226 11:0.020576 12:0.037037 13:0.04321 14:0.055556 15:0.04321 16:0.084362 17:0.037037 18:0.047325 19:0.010288 20:0.026749 
-0.709946736494502 1:0.065693 2:0.024331 3:0.041363 4:0.087591 5:0.041363 6:0.07056 7:0.019465 8:0.048662 9:0.06326 10:0.107056 11:0.029197 12:0.03163 13:0.048662 14:0.024331 15:0.043796 16:0.085158 17:0.058394 18:0.055961 19:0.021898 20:0.03163 
-0.7189622304091517 1:0.062992 2:0.023622 3:0.07874 4:0.031496 5:0.062992 6:0.062992 7:0.03937 8:0.094488 9:0.047244 10:0.07874 11:0.03937 12:0.03937 13:0.03937 14:0.102362 15:0.015748 16:0.062992 17:0.03937 18:0.031496 19:0.023622 20:0.023622 
-0.587089856842098 1:0.054441 2:0.008596 3:0.04298 4:0.097421 5:0.022923 6:0.057307 7:0.025788 8:0.077364 9:0.08596 10:0.068768 11:0.022923 12:0.048711 13:0.068768 14:0.037249 15:0.025788 16:0.057307 17:0.04298 18:0.083095 19:0.020057 20:0.051576 
-0.6568634259019052 1:0.022556 2:0.022556 3:0.082707 4:0.082707 5:0.052632 6:0.082707 7:0.015038 8:0.030075 9:0.112782 10:0.067669 11:0.015038 12:0.06015 13:0 14:0.052632 15:0.045113 16:0.015038 17:0.112782 18:0.075188 19:0.030075 20:0.022556 
-0.6737077959596786 1:0.1 2:0 3:0 4:0.175 5:0.025 6:0.05 7:0.025 8:0 9:0.125 10:0.125 11:0 12:0.075 13:0.025 14:0.025 15:0 16:0.05 17:0.1 18:0.05 19:0 20:0.05 
-1.57227765371639 1:0.114035 2:0.026316 3:0.061404 4:0.070175 5:0.061404 6:0.035088 7:0.017544 8:0.04386 9:0.105263 10:0.096491 11:0.026316 12:0.026316 13:0.035088 14:0.04386 15:0.008772 16:0.052632 17:0.061404 18:0.087719 19:0.026316 20:0 
-0.216250933059806 1:0.068376 2:0.003419 3:0.059829 4:0.129915 5:0.02906 6:0.035897 7:0.018803 8:0.051282 9:0.094017 10:0.094017 11:0.02735 12:0.035897 13:0.042735 14:0.075214 15:0.078632 16:0.02906 17:0.035897 18:0.046154 19:0.011966 20:0.032479 
-1.810372188539495 1:0.082353 2:0 3:0.023529 4:0.082353 5:0.035294 6:0.058824 7:0.047059 8:0.058824 9:0.035294 10:0.082353 11:0.035294 12:0.047059 13:0.070588 14:0.023529 15:0.035294 16:0.047059 17:0.082353 18:0.094118 19:0.011765 20:0.047059 
-0.3535828061641113 1:0.057851 2:0.01157 3:0.057851 4:0.123967 5:0.034711 6:0.05124 7:0.019835 8:0.059504 9:0.054545 10:0.095868 11:0.031405 12:0.028099 13:0.054545 14:0.018182 15:0.069421 16:0.064463 17:0.036364 18:0.079339 19:0.013223 20:0.038017 
-2.24859194433203 1:0.066946 2:0.031799 3:0.05272 4:0.074477 5:0.029289 6:0.061925 7:0.025105 8:0.041841 9:0.07113 10:0.101255 11:0.022594 12:0.035146 13:0.050209 14:0.041841 15:0.057741 16:0.096234 17:0.049372 18:0.060251 19:0.014226 20:0.0159 
-0.3617032029804679 1:0.020339 2:0.013559 3:0.057627 4:0.081356 5:0.067797 6:0.040678 7:0.023729 8:0.054237 9:0.108475 10:0.067797 11:0.047458 12:0.050847 13:0.050847 14:0.027119 15:0.027119 16:0.074576 17:0.044068 18:0.081356 19:0.020339 20:0.040678 
-3.760334046205786 1:0.069307 2:0.046205 3:0.09571 4:0.059406 5:0.049505 6:0.062706 7:0.016502 8:0.049505 9:0.085809 10:0.072607 11:0.026403 12:0.046205 13:0.046205 14:0.026403 15:0.052805 16:0.062706 17:0.039604 18:0.056106 19:0.006601 20:0.029703 
-0.3337324570991915 1:0.113772 2:0 3:0.055888 4:0.177645 5:0.013972 6:0.01996 7:0.007984 8:0.01996 9:0.095808 10:0.117764 11:0.021956 12:0.031936 13:0.007984 14:0.081836 15:0.103792 16:0.067864 17:0.031936 18:0.025948 19:0 20:0.003992 
-0.4164045837686316 1:0.091652 2:0.004537 3:0.059891 4:0.170599 5:0.009074 6:0.020871 7:0.017241 8:0.032668 9:0.124319 10:0.130672 11:0.024501 12:0.04265 13:0.000907 14:0.07804 15:0.059891 16:0.051724 17:0.041742 18:0.027223 19:0.002722 20:0.009074 
-0.1061156390074998 1:0.048128 2:0.016043 3:0.037433 4:0.069519 5:0.053476 6:0.053476 7:0.058824 8:0.069519 9:0.037433 10:0.074866 11:0.02139 12:0.037433 13:0.069519 14:0.042781 15:0.037433 16:0.074866 17:0.064171 18:0.069519 19:0.026738 20:0.037433 
-1.117115032021143 1:0.066667 2:0.010753 3:0.027957 4:0.047312 5:0.055914 6:0.098925 7:0.019355 8:0.045161 9:0.032258 10:0.094624 11:0.017204 12:0.075269 13:0.055914 14:0.113978 15:0.045161 16:0.053763 17:0.049462 18:0.060215 19:0.012903 20:0.017204 
-2.195830449410799 1:0.080078 2:0.007813 3:0.064453 4:0.091797 5:0.074219 6:0.054688 7:0.023438 8:0.048828 9:0.095703 10:0.070313 11:0.003906 12:0.048828 13:0.058594 14:0.039063 15:0.011719 16:0.060547 17:0.044922 18:0.087891 19:0.005859 20:0.027344 
-0.8549819372649348 1:0.050505 2:0.015152 3:0.035354 4:0.065657 5:0.055556 6:0.065657 7:0.045455 8:0.090909 9:0.035354 10:0.085859 11:0.020202 12:0.035354 13:0.080808 14:0.035354 15:0.025253 16:0.085859 17:0.045455 18:0.080808 19:0.015152 20:0.030303 
-1.530354885537203 1:0.047619 2:0.009524 3:0.07619 4:0.057143 5:0.085714 6:0.085714 7:0.019048 8:0.028571 9:0.07619 10:0.114286 11:0.009524 12:0.019048 13:0.047619 14:0.066667 15:0.038095 16:0.057143 17:0.047619 18:0.066667 19:0.019048 20:0.028571 
-0.1528299848436502 1:0.039474 2:0.007895 3:0.044737 4:0.026316 5:0.057895 6:0.071053 7:0.068421 8:0.05 9:0.05 10:0.107895 11:0.015789 12:0.031579 13:0.063158 14:0.034211 15:0.036842 16:0.084211 17:0.05 18:0.063158 19:0.036842 20:0.060526 
-0.5802706292602715 1:0.103448 2:0.011494 3:0.086207 4:0.091954 5:0.057471 6:0.045977 7:0.021073 8:0.047893 9:0.06705 10:0.088123 11:0.017241 12:0.047893 13:0.042146 14:0.036398 15:0.01341 16:0.06705 17:0.028736 18:0.076628 19:0.007663 20:0.042146 
-0.9578056384711058 1:0.07804 2:0.00726 3:0.085299 4:0.049002 5:0.041742 6:0.088929 7:0.010889 8:0.047187 9:0.068966 10:0.087114 11:0.012704 12:0.059891 13:0.041742 14:0.032668 15:0.025408 16:0.054446 17:0.038113 18:0.088929 19:0.030853 20:0.050817 
-1.283496993096892 1:0.070866 2:0.006749 3:0.068616 4:0.086614 5:0.048369 6:0.070866 7:0.015748 8:0.046119 9:0.057368 10:0.087739 11:0.008999 12:0.058493 13:0.035996 14:0.031496 15:0.033746 16:0.074241 17:0.061867 18:0.07649 19:0.022497 20:0.03712 
-4 1:0.090339 2:0.027604 3:0.053952 4:0.056462 5:0.028858 6:0.081556 7:0.035132 8:0.033877 9:0.031368 10:0.080301 11:0.010038 12:0.041405 13:0.06399 14:0.045169 15:0.058971 16:0.071518 17:0.069009 18:0.071518 19:0.02133 20:0.027604 
-1.677921902405875 1:0.067293 2:0.007825 3:0.050078 4:0.078247 5:0.025039 6:0.045383 7:0.01252 8:0.035994 9:0.057903 10:0.118936 11:0.028169 12:0.039124 13:0.101721 14:0.054773 15:0.043818 16:0.093897 17:0.057903 18:0.057903 19:0.00939 20:0.014085 
-3.639113339508929 1:0.089918 2:0.032698 3:0.073569 4:0.051771 5:0.029973 6:0.059946 7:0.021798 8:0.054496 9:0.046322 10:0.087193 11:0.024523 12:0.032698 13:0.043597 14:0.046322 15:0.051771 16:0.070845 17:0.038147 18:0.06267 19:0.027248 20:0.054496 
-0.3504836059853972 1:0.071942 2:0.014388 3:0.115108 4:0.064748 5:0.021583 6:0.100719 7:0.014388 8:0.064748 9:0.064748 10:0.043165 11:0.021583 12:0.043165 13:0.035971 14:0.014388 15:0.021583 16:0.079137 17:0.043165 18:0.057554 19:0.028777 20:0.079137 
-2.265551787634279 1:0.067729 2:0.017928 3:0.057769 4:0.039841 5:0.049801 6:0.065737 7:0.039841 8:0.025896 9:0.023904 10:0.121514 11:0.015936 12:0.035857 13:0.079681 14:0.049801 15:0.063745 16:0.065737 17:0.059761 18:0.059761 19:0.01992 20:0.039841 
-0.9671450015940677 1:0.06383 2:0.024316 3:0.039514 4:0.06383 5:0.018237 6:0.088146 7:0.024316 8:0.042553 9:0.085106 10:0.085106 11:0.024316 12:0.075988 13:0.036474 14:0.033435 15:0.036474 16:0.072948 17:0.033435 18:0.069909 19:0.027356 20:0.054711 
-0.1130583883894795 1:0.02649 2:0.019868 3:0.033113 4:0.059603 5:0.033113 6:0.092715 7:0.039735 8:0.039735 9:0.086093 10:0.10596 11:0.019868 12:0.086093 13:0.02649 14:0.033113 15:0.05298 16:0.07947 17:0.05298 18:0.059603 19:0.013245 20:0.039735 
-0.9012254181691104 1:0.102102 2:0.03003 3:0.024024 4:0.051051 5:0.048048 6:0.066066 7:0.027027 8:0.033033 9:0.072072 10:0.072072 11:0.033033 12:0.072072 13:0.036036 14:0.048048 15:0.021021 16:0.087087 17:0.039039 18:0.063063 19:0.03003 20:0.045045 
-4 1:0.052174 2:0.023188 3:0.049275 4:0.037681 5:0.034783 6:0.118841 7:0.017391 8:0.066667 9:0.057971 10:0.084058 11:0.023188 12:0.037681 13:0.057971 14:0.04058 15:0.023188 16:0.075362 17:0.055072 18:0.081159 19:0.011594 20:0.052174 
-0.08532977149457088 1:0.047778 2:0.012222 3:0.057778 4:0.062222 5:0.058889 6:0.055556 7:0.03 8:0.064444 9:0.058889 10:0.071111 11:0.021111 12:0.06 13:0.038889 14:0.032222 15:0.037778 16:0.075556 17:0.065556 18:0.068889 19:0.027778 20:0.053333 
-1.80073235830769 1:0.065836 2:0.014235 3:0.035587 4:0.049822 5:0.046263 6:0.090747 7:0.030249 8:0.021352 9:0.023132 10:0.113879 11:0.010676 12:0.035587 13:0.080071 14:0.049822 15:0.048043 16:0.097865 17:0.058719 18:0.076512 19:0.019573 20:0.032028 
-0.7879472318877828 1:0.08498 2:0.027668 3:0.047431 4:0.041502 5:0.043478 6:0.112648 7:0.035573 8:0.025692 9:0.021739 10:0.132411 11:0.017787 12:0.021739 13:0.096838 14:0.039526 15:0.035573 16:0.06917 17:0.061265 18:0.045455 19:0.005929 20:0.033597 
-3.626029952932688 1:0.040169 2:0.021142 3:0.057082 4:0.052854 5:0.033827 6:0.084567 7:0.040169 8:0.042283 9:0.044397 10:0.109937 11:0.016913 12:0.042283 13:0.084567 14:0.029598 15:0.052854 16:0.065539 17:0.065539 18:0.048626 19:0.023256 20:0.044397 
-3.258661401388313 1:0.073733 2:0.02765 3:0.059908 4:0.046083 5:0.036866 6:0.110599 7:0.013825 8:0.032258 9:0.082949 10:0.041475 11:0.018433 12:0.059908 13:0.046083 14:0.046083 15:0.013825 16:0.087558 17:0.050691 18:0.073733 19:0.023041 20:0.0553 
-3.358374962856427 1:0.072464 2:0.021739 3:0.039855 4:0.039855 5:0.057971 6:0.094203 7:0.028986 8:0.014493 9:0.061594 10:0.086957 11:0.007246 12:0.032609 13:0.072464 14:0.061594 15:0.032609 16:0.097826 17:0.054348 18:0.054348 19:0.036232 20:0.032609 
-4 1:0.062771 2:0.010823 3:0.051948 4:0.062771 5:0.04329 6:0.069264 7:0.034632 8:0.028139 9:0.054113 10:0.093074 11:0.019481 12:0.04329 13:0.062771 14:0.032468 15:0.036797 16:0.0671 17:0.049784 18:0.069264 19:0.062771 20:0.045455 
-0.3770218887862489 1:0.065421 2:0.018692 3:0.046729 4:0.102804 5:0.056075 6:0.130841 7:0.018692 8:0.018692 9:0.130841 10:0.074766 11:0.009346 12:0.046729 13:0.037383 14:0.018692 15:0.046729 16:0.018692 17:0.074766 18:0.037383 19:0.009346 20:0.037383 
-0.3392488011220492 1:0.074597 2:0.014113 3:0.078629 4:0.050403 5:0.064516 6:0.058468 7:0.040323 8:0.032258 9:0.03629 10:0.072581 11:0.022177 12:0.042339 13:0.078629 14:0.024194 15:0.082661 16:0.044355 17:0.058468 18:0.072581 19:0.016129 20:0.03629 
-0.1040102718139475 1:0.043103 2:0.017241 3:0.017241 4:0.017241 5:0.034483 6:0.077586 7:0 8:0.103448 9:0.112069 10:0.086207 11:0.008621 12:0.077586 13:0.017241 14:0.017241 15:0.068966 16:0.103448 17:0.043103 18:0.12931 19:0.008621 20:0.017241 
-0.254893979255386 1:0.085714 2:0.030075 3:0.04812 4:0.061654 5:0.034586 6:0.099248 7:0.037594 8:0.03609 9:0.039098 10:0.081203 11:0.02406 12:0.028571 13:0.040602 14:0.040602 15:0.070677 16:0.066165 17:0.058647 18:0.069173 19:0.01203 20:0.03609 
-4 1:0.060201 2:0.023411 3:0.053512 4:0.053512 5:0.036789 6:0.06689 7:0.046823 8:0.020067 9:0.040134 10:0.100334 11:0.013378 12:0.0301 13:0.070234 14:0.043478 15:0.073579 16:0.080268 17:0.053512 18:0.06689 19:0.0301 20:0.036789 
-1.480996846728252 1:0.057143 2:0.009524 3:0.066667 4:0.066667 5:0.085714 6:0.114286 7:0.038095 8:0.028571 9:0 10:0.07619 11:0.019048 12:0 13:0.066667 14:0.047619 15:0.095238 16:0.07619 17:0.038095 18:0.047619 19:0.047619 20:0.019048 
-2.87185229704341 1:0.094595 2:0.054054 3:0.054054 4:0.067568 5:0.040541 6:0.013514 7:0.013514 8:0.027027 9:0.054054 10:0.081081 11:0.013514 12:0.040541 13:0.067568 14:0.054054 15:0.054054 16:0.054054 17:0.121622 18:0.040541 19:0.013514 20:0.040541 
-0.2957557559952581 1:0.009091 2:0.009091 3:0.027273 4:0.072727 5:0.081818 6:0.045455 7:0.036364 8:0.072727 9:0.136364 10:0.118182 11:0.018182 12:0.009091 13:0.045455 14:0.036364 15:0.090909 16:0.045455 17:0.054545 18:0.036364 19:0.018182 20:0.036364 
-0.5123440343367698 1:0.038462 2:0 3:0.025641 4:0.070513 5:0.057692 6:0.032051 7:0.025641 8:0.032051 9:0.185897 10:0.108974 11:0.019231 12:0.044872 13:0.070513 14:0.025641 15:0.044872 16:0.076923 17:0.032051 18:0.044872 19:0.00641 20:0.057692 
-1.021592279459512 1:0.054054 2:0.027027 3:0.045045 4:0.081081 5:0.036036 6:0.09009 7:0.018018 8:0.063063 9:0.144144 10:0.063063 11:0.009009 12:0.027027 13:0.063063 14:0.018018 15:0.036036 16:0.045045 17:0.063063 18:0.063063 19:0.009009 20:0.045045 
-0.1404529971106962 1:0.086957 2:0.012422 3:0.052795 4:0.049689 5:0.037267 6:0.052795 7:0.024845 8:0.062112 9:0.052795 10:0.102484 11:0.021739 12:0.031056 13:0.049689 14:0.021739 15:0.059006 16:0.118012 17:0.07764 18:0.052795 19:0.015528 20:0.018634 
-4 1:0.086053 2:0.029674 3:0.086053 4:0.041543 5:0.023739 6:0.094955 7:0.011869 8:0.035608 9:0.047478 10:0.04451 11:0.014837 12:0.050445 13:0.041543 14:0.032641 15:0.008902 16:0.139466 17:0.077151 18:0.071217 19:0.017804 20:0.04451 
-4 1:0.071429 2:0.056391 3:0.052632 4:0.033835 5:0.026316 6:0.041353 7:0.015038 8:0.052632 9:0.078947 10:0.109023 11:0.033835 12:0.045113 13:0.052632 14:0.052632 15:0.056391 16:0.06391 17:0.067669 18:0.033835 19:0.015038 20:0.041353 
-0.2188244354531053 1:0.070313 2:0.007813 3:0.03125 4:0.070313 5:0.039063 6:0.039063 7:0.007813 8:0.070313 9:0.0625 10:0.125 11:0.007813 12:0.054688 13:0.085938 14:0.03125 15:0.109375 16:0.046875 17:0.054688 18:0.007813 19:0.007813 20:0.070313 
-1.373472960580303 1:0.028169 2:0.056338 3:0.042254 4:0.056338 5:0.042254 6:0.056338 7:0 8:0.028169 9:0.056338 10:0.112676 11:0.042254 12:0.112676 13:0.042254 14:0.070423 15:0.070423 16:0.028169 17:0.070423 18:0.070423 19:0 20:0.014085 
-0.9661557971604346 1:0.05914 2:0.010753 3:0.064516 4:0.053763 5:0.026882 6:0.075269 7:0.032258 8:0.010753 9:0.032258 10:0.05914 11:0.064516 12:0.037634 13:0.107527 14:0.037634 15:0.075269 16:0.037634 17:0.026882 18:0.075269 19:0.037634 20:0.075269 
-0.1762126882937358 1:0.148936 2:0 3:0.042553 4:0.021277 5:0.021277 6:0.106383 7:0 8:0.042553 9:0.06383 10:0.06383 11:0.042553 12:0.021277 13:0.021277 14:0.021277 15:0.148936 16:0.042553 17:0.06383 18:0.12766 19:0 20:0 
-0.1344835672343803 1:0.057143 2:0 3:0.028571 4:0 5:0.057143 6:0.142857 7:0.028571 8:0.085714 9:0.085714 10:0.085714 11:0.085714 12:0.085714 13:0.085714 14:0 15:0 16:0.028571 17:0.028571 18:0.057143 19:0 20:0.057143 
-0.1787152291630591 1:0.118056 2:0.020833 3:0.041667 4:0.034722 5:0.041667 6:0.097222 7:0.055556 8:0.0625 9:0.076389 10:0.083333 11:0.027778 12:0.0625 13:0.048611 14:0.055556 15:0 16:0.041667 17:0.055556 18:0.041667 19:0.020833 20:0.013889 
-0.2847594907314386 1:0.115385 2:0.019231 3:0.048077 4:0.028846 5:0.028846 6:0.096154 7:0.019231 8:0.038462 9:0.125 10:0.086538 11:0.009615 12:0.067308 13:0.028846 14:0.067308 15:0.028846 16:0.019231 17:0.067308 18:0.048077 19:0.009615 20:0.048077 
-1.207136635482193 1:0.053846 2:0.003846 3:0.073077 4:0.046154 5:0.05 6:0.034615 7:0.023077 8:0.05 9:0.065385 10:0.123077 11:0.030769 12:0.042308 13:0.034615 14:0.046154 15:0.038462 16:0.065385 17:0.088462 18:0.080769 19:0.015385 20:0.034615 
-1.406211747314136 1:0.025641 2:0.012821 3:0.044872 4:0.083333 5:0.070513 6:0.038462 7:0.032051 8:0.057692 9:0.067308 10:0.128205 11:0.041667 12:0.044872 13:0.025641 14:0.051282 15:0.054487 16:0.064103 17:0.041667 18:0.048077 19:0.00641 20:0.060897 
-1.548042084228405 1:0.084507 2:0.00939 3:0.018779 4:0.061033 5:0.023474 6:0.046948 7:0.004695 8:0.051643 9:0.093897 10:0.117371 11:0.042254 12:0.028169 13:0.042254 14:0.037559 15:0.051643 16:0.098592 17:0.070423 18:0.093897 19:0 20:0.023474 
-0.6725117388558147 1:0.072727 2:0 3:0.090909 4:0.018182 5:0.036364 6:0.109091 7:0.054545 8:0.018182 9:0.036364 10:0.072727 11:0.018182 12:0.054545 13:0.036364 14:0.054545 15:0.109091 16:0.018182 17:0.018182 18:0.072727 19:0.072727 20:0.036364 
-0.5257972337251209 1:0.08 2:0 3:0 4:0.12 5:0.08 6:0 7:0 8:0.08 9:0 10:0.12 11:0.04 12:0.08 13:0.04 14:0 15:0.08 16:0.12 17:0.12 18:0 19:0 20:0.04 
-0.4775972907923849 1:0 2:0 3:0.090909 4:0.272727 5:0.090909 6:0.090909 7:0.181818 8:0 9:0 10:0 11:0 12:0 13:0 14:0 15:0 16:0.181818 17:0.090909 18:0 19:0 20:0 
-0.7678167165581922 1:0.102151 2:0.026882 3:0.080645 4:0.053763 5:0.021505 6:0.112903 7:0.016129 8:0.053763 9:0.032258 10:0.107527 11:0.032258 12:0.032258 13:0.016129 14:0.021505 15:0.080645 16:0.075269 17:0.069892 18:0.053763 19:0.005376 20:0.005376 
-1.744936542356023 1:0.062903 2:0.029032 3:0.046774 4:0.05 5:0.025806 6:0.095161 7:0.030645 8:0.03871 9:0.040323 10:0.108065 11:0.032258 12:0.016129 13:0.067742 14:0.043548 15:0.070968 16:0.109677 17:0.048387 18:0.045161 19:0.006452 20:0.032258 
-0.4349237687076947 1:0.282051 2:0 3:0 4:0 5:0 6:0 7:0 8:0.012821 9:0.179487 10:0 11:0.012821 12:0 13:0.064103 14:0.025641 15:0.25641 16:0.102564 17:0.012821 18:0.051282 19:0 20:0 
-0.3422059670733807 1:0.059701 2:0.00995 3:0.084577 4:0.149254 5:0.029851 6:0.0199 7:0.0199 8:0.039801 9:0.089552 10:0.094527 11:0.00995 12:0.049751 13:0.034826 14:0.039801 15:0.034826 16:0.109453 17:0.029851 18:0.084577 19:0 20:0.00995 
-3.148388099789965 1:0.053738 2:0.028037 3:0.077103 4:0.063084 5:0.058411 6:0.074766 7:0.044393 8:0.051402 9:0.035047 10:0.081776 11:0.018692 12:0.049065 13:0.049065 14:0.03972 15:0.042056 16:0.051402 17:0.042056 18:0.067757 19:0.004673 20:0.067757 
-0.00731207615668674 1:0.057101 2:0.010249 3:0.071742 4:0.01757 5:0.014641 6:0.04978 7:0.052709 8:0.055637 9:0.038067 10:0.04978 11:0.035139 12:0.136164 13:0.048316 14:0.054173 15:0.030747 16:0.128843 17:0.077599 18:0.040996 19:0.002928 20:0.027818 
-0.8524836980347699 1:0.099502 2:0.0199 3:0.014925 4:0.0199 5:0.0199 6:0.131841 7:0.084577 8:0.042289 9:0.024876 10:0.062189 11:0.027363 12:0.044776 13:0.069652 14:0.047264 15:0.054726 16:0.106965 17:0.037313 18:0.059701 19:0.004975 20:0.027363 
-0.4335456150936687 1:0.079235 2:0.005464 3:0.032787 4:0.051913 5:0.02459 6:0.032787 7:0.027322 8:0.062842 9:0.04918 10:0.068306 11:0.021858 12:0.068306 13:0.092896 14:0.051913 15:0.04918 16:0.087432 17:0.084699 18:0.065574 19:0.005464 20:0.038251 
-1.321560227805564 1:0.058824 2:0.021569 3:0.056863 4:0.07451 5:0.04902 6:0.060784 7:0.033333 8:0.015686 9:0.041176 10:0.07451 11:0.029412 12:0.021569 13:0.139216 14:0.068627 15:0.054902 16:0.070588 17:0.029412 18:0.043137 19:0.007843 20:0.04902 
-2.655972561113028 1:0.090592 2:0.001742 3:0.055749 4:0.125436 5:0.012195 6:0.047038 7:0.019164 8:0.022648 9:0.066202 10:0.121951 11:0.017422 12:0.029617 13:0.017422 14:0.062718 15:0.108014 16:0.090592 17:0.04878 18:0.041812 19:0.006969 20:0.013937 
-0.5698502581197418 1:0.050218 2:0.039301 3:0.045852 4:0.058952 5:0.034934 6:0.056769 7:0.021834 8:0.054585 9:0.065502 10:0.093886 11:0.030568 12:0.032751 13:0.093886 14:0.041485 15:0.048035 16:0.098253 17:0.065502 18:0.039301 19:0.002183 20:0.026201 
-0.4633922037890405 1:0.063063 2:0.018018 3:0.045045 4:0.018018 5:0.054054 6:0.072072 7:0.036036 8:0.054054 9:0.045045 10:0.063063 11:0.027027 12:0.036036 13:0.081081 14:0.036036 15:0.126126 16:0.09009 17:0.045045 18:0.018018 19:0.018018 20:0.054054 
-0.532939325359014 1:0.130631 2:0.027027 3:0.024775 4:0.027027 5:0.006757 6:0.137387 7:0.040541 8:0.011261 9:0.029279 10:0.06982 11:0.022523 12:0.038288 13:0.083333 14:0.027027 15:0.047297 16:0.126126 17:0.060811 18:0.042793 19:0.011261 20:0.036036 
-1.75000704599663 1:0.048499 2:0.032333 3:0.046189 4:0.071594 5:0.04157 6:0.046189 7:0.046189 8:0.053118 9:0.046189 10:0.092379 11:0.016166 12:0.04157 13:0.050808 14:0.071594 15:0.048499 16:0.108545 17:0.055427 18:0.055427 19:0.002309 20:0.025404 
-0.306334094922232 1:0.148515 2:0 3:0 4:0 5:0.009901 6:0.054455 7:0.00495 8:0.024752 9:0.287129 10:0.029703 11:0.014851 12:0.034653 13:0.079208 14:0.00495 15:0.074257 16:0.153465 17:0.039604 18:0.034653 19:0 20:0.00495 
-0.380496297209708 1:0.125 2:0.002632 3:0.017105 4:0.031579 5:0.025 6:0.056579 7:0.015789 8:0.046053 9:0.031579 10:0.110526 11:0.022368 12:0.053947 13:0.068421 14:0.101316 15:0.019737 16:0.125 17:0.103947 18:0.036842 19:0.003947 20:0.002632 
-0.07004794769015468 1:0.079818 2:0.006842 3:0.038769 4:0.128848 5:0.014823 6:0.027366 7:0.012543 8:0.021665 9:0.107184 10:0.077537 11:0.013683 12:0.033067 13:0.063854 14:0.078677 15:0.099202 16:0.084379 17:0.042189 18:0.050171 19:0.003421 20:0.015964 
-1.070282587558443 1:0.108333 2:0.008333 3:0.075 4:0.083333 5:0.075 6:0.041667 7:0.016667 8:0.05 9:0.091667 10:0.125 11:0.008333 12:0.075 13:0.041667 14:0.016667 15:0.041667 16:0.016667 17:0.066667 18:0.033333 19:0.008333 20:0.016667 
-0.4714412512531671 1:0.171429 2:0 3:0 4:0 5:0 6:0.028571 7:0 8:0 9:0.2 10:0 11:0 12:0 13:0.057143 14:0 15:0.2 16:0.285714 17:0.057143 18:0 19:0 20:0 
-1.672464864723858 1:0.061008 2:0.026525 3:0.047745 4:0.082228 5:0.013263 6:0.167109 7:0.018568 8:0.03183 9:0.04244 10:0.082228 11:0.018568 12:0.018568 13:0.090186 14:0.029178 15:0.06366 16:0.082228 17:0.061008 18:0.039788 19:0.002653 20:0.02122 
-0.310927120823642 1:0.289916 2:0 3:0.021008 4:0.021008 5:0.008403 6:0.021008 7:0.012605 8:0.029412 9:0.247899 10:0.029412 11:0.008403 12:0.004202 13:0.12605 14:0.008403 15:0.021008 16:0.037815 17:0.054622 18:0.05042 19:0 20:0.008403 
-0.6804065401447165 1:0.143959 2:0.015424 3:0.03599 4:0.033419 5:0.015424 6:0.167095 7:0.033419 8:0.033419 9:0.03856 10:0.051414 11:0.023136 12:0.061697 13:0.033419 14:0.056555 15:0.048843 16:0.071979 17:0.059126 18:0.025707 19:0.012853 20:0.03856 
-0.07518141194889741 1:0.103839 2:0.008811 3:0.020138 4:0.024544 5:0.013845 6:0.071114 7:0.01888 8:0.039018 9:0.038389 10:0.064821 11:0.020768 12:0.038389 13:0.066079 14:0.181246 15:0.01825 16:0.095028 17:0.108244 18:0.061045 19:0.001888 20:0.005664 
-0.6556871258142882 1:0.061594 2:0.039855 3:0.094203 4:0.043478 5:0.028986 6:0.054348 7:0.039855 8:0.047101 9:0.043478 10:0.065217 11:0.021739 12:0.061594 13:0.083333 14:0.025362 15:0.072464 16:0.101449 17:0.047101 18:0.036232 19:0.003623 20:0.028986 
-3.046140989086266 1:0.0625 2:0.026786 3:0.040179 4:0.102679 5:0.026786 6:0.0625 7:0.03125 8:0.022321 9:0.040179 10:0.111607 11:0.017857 12:0.044643 13:0.09375 14:0.035714 15:0.071429 16:0.080357 17:0.040179 18:0.044643 19:0.008929 20:0.035714 
-4 1:0.085987 2:0.05414 3:0.035032 4:0.05414 5:0.035032 6:0.066879 7:0.031847 8:0.041401 9:0.035032 10:0.085987 11:0.031847 12:0.050955 13:0.044586 14:0.031847 15:0.038217 16:0.11465 17:0.063694 18:0.070064 19:0.009554 20:0.019108 
-0.3706641299888121 1:0.036585 2:0.02439 3:0.054878 4:0.060976 5:0.036585 6:0.067073 7:0.012195 8:0 9:0.030488 10:0.054878 11:0.006098 12:0.054878 13:0.085366 14:0 15:0.243902 16:0.134146 17:0.012195 18:0.04878 19:0.012195 20:0.02439 
-3.250808740844424 1:0.064 2:0.072 3:0.072 4:0.096 5:0.032 6:0.04 7:0.048 8:0.048 9:0.04 10:0.048 11:0.024 12:0.048 13:0.056 14:0.056 15:0.056 16:0.032 17:0.056 18:0.048 19:0.008 20:0.056 
-2.121938134130037 1:0.051913 2:0.062842 3:0.043716 4:0.07377 5:0.046448 6:0.054645 7:0.068306 8:0.016393 9:0.120219 10:0.071038 11:0.010929 12:0.035519 13:0.040984 14:0.027322 15:0.054645 16:0.071038 17:0.062842 18:0.051913 19:0.005464 20:0.030055 
-0.4566361976382067 1:0.03125 2:0 3:0 4:0 5:0 6:0.09375 7:0 8:0 9:0.03125 10:0 11:0.03125 12:0 13:0.09375 14:0 15:0.59375 16:0.09375 17:0 18:0.03125 19:0 20:0 
-0.2860481424046023 1:0.034632 2:0.017316 3:0.047619 4:0.047619 5:0.021645 6:0.038961 7:0.051948 8:0.056277 9:0.121212 10:0.069264 11:0.017316 12:0.069264 13:0.038961 14:0.030303 15:0.090909 16:0.099567 17:0.060606 18:0.034632 19:0.004329 20:0.047619 
-0.3895152953093131 1:0.1875 2:0 3:0.03125 4:0 5:0.03125 6:0.15625 7:0 8:0.03125 9:0.15625 10:0.03125 11:0 12:0 13:0.03125 14:0.0625 15:0.09375 16:0.09375 17:0 18:0.09375 19:0 20:0 
-0.2716521740257145 1:0 2:0.016667 3:0.016667 4:0.083333 5:0.083333 6:0 7:0 8:0.05 9:0.15 10:0.1 11:0.033333 12:0.066667 13:0.016667 14:0.066667 15:0.15 16:0.05 17:0.033333 18:0.033333 19:0.016667 20:0.033333 
-0.4164429207350061 1:0.086957 2:0.043478 3:0.043478 4:0.043478 5:0.043478 6:0.078261 7:0.008696 8:0 9:0.043478 10:0.113043 11:0.017391 12:0.034783 13:0.104348 14:0.06087 15:0.06087 16:0.104348 17:0.017391 18:0.069565 19:0.017391 20:0.008696 
-0.4739471256700423 1:0.210526 2:0 3:0.026316 4:0.026316 5:0 6:0 7:0.026316 8:0.052632 9:0.105263 10:0 11:0.026316 12:0 13:0.263158 14:0 15:0.052632 16:0.105263 17:0.026316 18:0.052632 19:0 20:0.026316 
-0.09972056036835548 1:0.134658 2:0.00883 3:0.02649 4:0.028698 5:0.015453 6:0.130243 7:0.0883 8:0.011038 9:0.011038 10:0.064018 11:0.015453 12:0.037528 13:0.06181 14:0.04415 15:0.024283 16:0.15011 17:0.04415 18:0.048565 19:0.006623 20:0.048565 
-0.1363532192473068 1:0.055961 2:0 3:0.138686 4:0.19708 5:0.029197 6:0.075426 7:0.009732 8:0.029197 9:0.128954 10:0.06326 11:0.014599 12:0.024331 13:0.041363 14:0.024331 15:0.014599 16:0.053528 17:0.034063 18:0.041363 19:0.009732 20:0.014599 
-1.055209312625547 1:0.029703 2:0.019802 3:0.039604 4:0.089109 5:0.029703 6:0.108911 7:0.019802 8:0.049505 9:0.059406 10:0.09901 11:0.049505 12:0.069307 13:0.059406 14:0.029703 15:0.009901 16:0.039604 17:0.059406 18:0.079208 19:0.019802 20:0.039604 
-0.1141943171848426 1:0.034205 2:0.032193 3:0.080483 4:0.072435 5:0.034205 6:0.064386 7:0.046278 8:0.060362 9:0.046278 10:0.078471 11:0.018109 12:0.044266 13:0.078471 14:0.038229 15:0.060362 16:0.06841 17:0.038229 18:0.06841 19:0.008048 20:0.028169 
-1.085968580210592 1:0.130769 2:0.011538 3:0.019231 4:0.069231 5:0.007692 6:0.042308 7:0.011538 8:0.015385 9:0.046154 10:0.130769 11:0.019231 12:0.034615 13:0.084615 14:0.096154 15:0.076923 16:0.076923 17:0.034615 18:0.061538 19:0.026923 20:0.003846 
-0.00651393065019714 1:0.075067 2:0.010724 3:0.045576 4:0.099196 5:0.016086 6:0.050938 7:0.010724 8:0.032172 9:0.02681 10:0.120643 11:0.024129 12:0.032172 13:0.123324 14:0.042895 15:0.075067 16:0.085791 17:0.050938 18:0.034853 19:0.002681 20:0.040214 
-2.201653544313918 1:0.072222 2:0.044444 3:0.052778 4:0.047222 5:0.044444 6:0.066667 7:0.016667 8:0.033333 9:0.052778 10:0.108333 11:0.019444 12:0.016667 13:0.077778 14:0.044444 15:0.072222 16:0.094444 17:0.044444 18:0.061111 19:0.005556 20:0.025 
-0.2343973191142103 1:0.14433 2:0 3:0.025773 4:0.025773 5:0.005155 6:0.036082 7:0.005155 8:0.030928 9:0.283505 10:0.025773 11:0.010309 12:0.020619 13:0.087629 14:0.025773 15:0.046392 16:0.113402 17:0.041237 18:0.051546 19:0.005155 20:0.015464 
-0.4066705571183691 1:0.097744 2:0.022556 3:0.035088 4:0.057644 5:0.032581 6:0.137845 7:0.012531 8:0.012531 9:0.045113 10:0.075188 11:0.012531 12:0.030075 13:0.12782 14:0.052632 15:0.050125 16:0.105263 17:0.035088 18:0.022556 19:0.007519 20:0.027569 
-0.252912237412256 1:0.085526 2:0 3:0.105263 4:0.138158 5:0.026316 6:0.052632 7:0.019737 8:0.052632 9:0.111842 10:0.039474 11:0.013158 12:0.059211 13:0.032895 14:0.019737 15:0.019737 16:0.039474 17:0.039474 18:0.111842 19:0.006579 20:0.026316 
-1.228138796767506 1:0.104677 2:0.004454 3:0.040089 4:0.042316 5:0.026726 6:0.104677 7:0.044543 8:0.044543 9:0.035635 10:0.066815 11:0.01559 12:0.042316 13:0.060134 14:0.046771 15:0.064588 16:0.115813 17:0.051225 18:0.042316 19:0.008909 20:0.037862 
-0.5789233926841574 1:0.094488 2:0 3:0.031496 4:0.11811 5:0.015748 6:0.055118 7:0 8:0.031496 9:0.102362 10:0.141732 11:0.015748 12:0.023622 13:0.015748 14:0.133858 15:0.062992 16:0.047244 17:0.031496 18:0.055118 19:0 20:0.023622 
-0.08047956175778305 1:0.041667 2:0.0375 3:0.054167 4:0.104167 5:0.054167 6:0.108333 7:0.029167 8:0.029167 9:0.041667 10:0.05 11:0.025 12:0.05 13:0.020833 14:0.025 15:0.15 16:0.070833 17:0.025 18:0.045833 19:0.004167 20:0.033333 
-0.7684460148803253 1:0.093023 2:0.009967 3:0.013289 4:0.069767 5:0.026578 6:0.039867 7:0.003322 8:0.056478 9:0.059801 10:0.093023 11:0.009967 12:0.046512 13:0.10299 14:0.089701 15:0.043189 16:0.07309 17:0.079734 18:0.069767 19:0.009967 20:0.009967 
-0.3294540541427091 1:0.04386 2:0.008772 3:0.035088 4:0.175439 5:0.026316 6:0.035088 7:0 8:0.052632 9:0.078947 10:0.114035 11:0.017544 12:0.070175 13:0.026316 14:0.078947 15:0.061404 16:0.035088 17:0.070175 18:0.052632 19:0 20:0.017544 
-0.3721748700098486 1:0.07772 2:0.031088 3:0.036269 4:0.025907 5:0.051813 6:0.025907 7:0.041451 8:0.062176 9:0.046632 10:0.020725 11:0.005181 12:0.020725 13:0.088083 14:0.031088 15:0.082902 16:0.160622 17:0.124352 18:0.036269 19:0 20:0.031088 
-0.5902014938092682 1:0.068345 2:0.034173 3:0.034173 4:0.086331 5:0.026978 6:0.043165 7:0.01259 8:0.034173 9:0.048561 10:0.089928 11:0.044964 12:0.03777 13:0.071942 14:0.06295 15:0.064748 16:0.080935 17:0.057554 18:0.059353 19:0.008993 20:0.032374 
-0.4163469572963657 1:0.137255 2:0.01634 3:0.042484 4:0.013072 5:0.013072 6:0.202614 7:0.029412 8:0.026144 9:0.022876 10:0.039216 11:0.022876 12:0.062092 13:0.042484 14:0.042484 15:0.035948 16:0.101307 17:0.062092 18:0.03268 19:0.013072 20:0.042484 
-1.165072612780125 1:0.142415 2:0.01548 3:0.027864 4:0.055728 5:0.04644 6:0.164087 7:0.006192 8:0.012384 9:0.052632 10:0.049536 11:0.01548 12:0.027864 13:0.126935 14:0.04644 15:0.06192 16:0.04644 17:0.018576 18:0.03096 19:0.006192 20:0.04644 
-0.260091328290215 1:0.142857 2:0 3:0.089286 4:0.116071 5:0.008929 6:0.071429 7:0 8:0.017857 9:0.178571 10:0.035714 11:0.026786 12:0.035714 13:0.035714 14:0 15:0.0625 16:0.089286 17:0.008929 18:0.035714 19:0.026786 20:0.017857 
-0.4484218004820628 1:0.138614 2:0 3:0 4:0 5:0.009901 6:0.019802 7:0.029703 8:0.009901 9:0.207921 10:0.039604 11:0.009901 12:0.029703 13:0.039604 14:0 15:0.267327 16:0.138614 17:0.009901 18:0.049505 19:0 20:0 
-0.3058484423205012 1:0.049383 2:0.028807 3:0.065844 4:0.09465 5:0.028807 6:0.041152 7:0.041152 8:0.028807 9:0.057613 10:0.102881 11:0.016461 12:0.045267 13:0.020576 14:0.032922 15:0.090535 16:0.148148 17:0.057613 18:0.024691 19:0 20:0.024691 
-0.6634394326913026 1:0.165029 2:0.009823 3:0.037328 4:0.027505 5:0.02554 6:0.045187 7:0.037328 8:0.027505 9:0.039293 10:0.05501 11:0.02554 12:0.049116 13:0.092338 14:0.049116 15:0.02947 16:0.131631 17:0.066798 18:0.049116 19:0.007859 20:0.02947 
-0.06037892934756296 1:0.094624 2:0.015054 3:0.049462 4:0.066667 5:0.010753 6:0.088172 7:0.015054 8:0.03871 9:0.062366 10:0.131183 11:0.015054 12:0.032258 13:0.070968 14:0.055914 15:0.030108 16:0.098925 17:0.058065 18:0.04086 19:0.002151 20:0.023656 
-1.557964790116882 1:0.078125 2:0.083333 3:0.026042 4:0.0625 5:0.03125 6:0.151042 7:0.03125 8:0.03125 9:0.098958 10:0.036458 11:0.010417 12:0.036458 13:0.041667 14:0.03125 15:0.046875 16:0.041667 17:0.057292 18:0.036458 19:0.010417 20:0.057292 
-3.334473247593197 1:0.09322 2:0.042373 3:0.023305 4:0.076271 5:0.03178 6:0.072034 7:0.021186 8:0.033898 9:0.023305 10:0.112288 11:0.03178 12:0.016949 13:0.067797 14:0.086864 15:0.059322 16:0.063559 17:0.048729 18:0.04661 19:0.021186 20:0.027542 
-0.08011792377465232 1:0.034884 2:0.011628 3:0.023256 4:0.081395 5:0.05814 6:0.069767 7:0.023256 8:0.046512 9:0.046512 10:0.104651 11:0.023256 12:0.104651 13:0.046512 14:0.023256 15:0.046512 16:0.081395 17:0.046512 18:0.093023 19:0 20:0.034884 
-1.160187040324856 1:0.029851 2:0.014925 3:0.067164 4:0.029851 5:0.014925 6:0.022388 7:0.037313 8:0.067164 9:0.067164 10:0.126866 11:0.037313 12:0.052239 13:0.067164 14:0.052239 15:0.037313 16:0.141791 17:0.052239 18:0.059701 19:0 20:0.022388 
-2.311548179992999 1:0.091954 2:0.048851 3:0.031609 4:0.066092 5:0.034483 6:0.083333 7:0.022989 8:0.028736 9:0.051724 10:0.106322 11:0.014368 12:0.020115 13:0.08046 14:0.04023 15:0.054598 16:0.086207 17:0.031609 18:0.060345 19:0.011494 20:0.034483 
-2.102095460194617 1:0.068429 2:0.055988 3:0.027994 4:0.082426 5:0.041991 6:0.082426 7:0.057543 8:0.027994 9:0.069984 10:0.079316 11:0.010886 12:0.023328 13:0.065319 14:0.046656 15:0.073095 16:0.082426 17:0.03888 18:0.034215 19:0.013997 20:0.017107 
-1.200447666133612 1:0.078947 2:0 3:0.078947 4:0.078947 5:0.026316 6:0.052632 7:0.026316 8:0.052632 9:0.052632 10:0.157895 11:0 12:0.052632 13:0 14:0.026316 15:0.052632 16:0.052632 17:0.026316 18:0.131579 19:0.026316 20:0.026316 
-0.7456751180059585 1:0.145833 2:0.013889 3:0.0625 4:0.076389 5:0.027778 6:0.0625 7:0 8:0.048611 9:0.118056 10:0.0625 11:0.013889 12:0.048611 13:0.034722 14:0.027778 15:0.069444 16:0.027778 17:0.041667 18:0.027778 19:0 20:0.090278 
-0.3256890903085494 1:0.057325 2:0.025478 3:0.044586 4:0.076433 5:0.038217 6:0.063694 7:0.012739 8:0.044586 9:0.095541 10:0.082803 11:0.025478 12:0.031847 13:0.101911 14:0.038217 15:0.057325 16:0.050955 17:0.057325 18:0.031847 19:0.025478 20:0.038217 
-0.267679998723611 1:0.024291 2:0.012146 3:0.125506 4:0.226721 5:0.016194 6:0.052632 7:0.004049 8:0.032389 9:0.072874 10:0.117409 11:0.012146 12:0.064777 13:0.02834 14:0.016194 15:0.036437 16:0.052632 17:0.024291 18:0.048583 19:0 20:0.032389 
-1.552989597032595 1:0.075795 2:0.00978 3:0.036675 4:0.05379 5:0.03912 6:0.03912 7:0.02934 8:0.03912 9:0.06846 10:0.136919 11:0.01467 12:0.03423 13:0.09291 14:0.02445 15:0.03423 16:0.158924 17:0.04401 18:0.041565 19:0.00978 20:0.017115 
-0.02973043240330699 1:0.055556 2:0.024691 3:0.049383 4:0.114198 5:0.04321 6:0.037037 7:0.018519 8:0.04321 9:0.080247 10:0.080247 11:0.021605 12:0.058642 13:0.046296 14:0.067901 15:0.052469 16:0.067901 17:0.058642 18:0.040123 19:0 20:0.040123 
-0.306002345415413 1:0.295238 2:0 3:0.004762 4:0.02381 5:0.009524 6:0.042857 7:0.004762 8:0.02381 9:0.319048 10:0.028571 11:0.009524 12:0.019048 13:0.057143 14:0.028571 15:0.02381 16:0.028571 17:0.033333 18:0.038095 19:0 20:0.009524 
-0.4675975606964504 1:0.045455 2:0.034091 3:0.064394 4:0.07197 5:0.045455 6:0.132576 7:0.022727 8:0.022727 9:0.037879 10:0.049242 11:0.022727 12:0.079545 13:0.026515 14:0.018939 15:0.132576 16:0.075758 17:0.018939 18:0.049242 19:0.003788 20:0.045455 
-0.3253253780192014 1:0.050725 2:0.014493 3:0 4:0.028986 5:0.007246 6:0.050725 7:0.007246 8:0.028986 9:0.181159 10:0.028986 11:0.014493 12:0.057971 13:0.057971 14:0.086957 15:0.15942 16:0.065217 17:0.07971 18:0.050725 19:0.007246 20:0.021739 
-4 1:0.044554 2:0.024752 3:0.044554 4:0.074257 5:0.044554 6:0.029703 7:0.024752 8:0.076733 9:0.081683 10:0.108911 11:0.024752 12:0.034653 13:0.056931 14:0.056931 15:0.042079 16:0.071782 17:0.056931 18:0.054455 19:0.019802 20:0.027228 
-0.0656820107634532 1:0.0647 2:0.034253 3:0.047574 4:0.065652 5:0.031399 6:0.041865 7:0.027593 8:0.044719 9:0.061846 10:0.076118 11:0.017127 12:0.040913 13:0.092293 14:0.072312 15:0.046622 16:0.098002 17:0.050428 18:0.059943 19:0.00666 20:0.019981 
-1.540916056038307 1:0.032258 2:0.041935 3:0.058065 4:0.1 5:0.048387 6:0.03871 7:0.029032 8:0.083871 9:0.083871 10:0.080645 11:0.019355 12:0.067742 13:0.032258 14:0.048387 15:0.041935 16:0.045161 17:0.051613 18:0.06129 19:0.006452 20:0.029032 
-0.3835790126587371 1:0.25731 2:0.005848 3:0.011696 4:0.011696 5:0.005848 6:0.035088 7:0.011696 8:0.040936 9:0.192982 10:0.023392 11:0.005848 12:0.023392 13:0.05848 14:0.02924 15:0.134503 16:0.081871 17:0.017544 18:0.040936 19:0 20:0.011696 
-0.4387456822771789 1:0.065934 2:0.030769 3:0.063736 4:0.050549 5:0.028571 6:0.052747 7:0.028571 8:0.068132 9:0.052747 10:0.105495 11:0.030769 12:0.041758 13:0.041758 14:0.061538 15:0.057143 16:0.081319 17:0.052747 18:0.054945 19:0.004396 20:0.026374 
-0.456738435640794 1:0.096774 2:0 3:0 4:0 5:0 6:0 7:0 8:0 9:0 10:0 11:0 12:0 13:0.064516 14:0 15:0.677419 16:0.096774 17:0 18:0.064516 19:0 20:0 
-0.4593942757963573 1:0.018519 2:0 3:0.037037 4:0 5:0 6:0.111111 7:0.055556 8:0 9:0.185185 10:0.055556 11:0.018519 12:0.055556 13:0.018519 14:0 15:0.203704 16:0.166667 17:0.018519 18:0.018519 19:0 20:0.037037 
-0.04431688118226545 1:0.064516 2:0.032258 3:0 4:0.086022 5:0.032258 6:0.107527 7:0.021505 8:0.043011 9:0.064516 10:0.064516 11:0.021505 12:0.021505 13:0.043011 14:0.107527 15:0.129032 16:0.021505 17:0.064516 18:0.021505 19:0.032258 20:0.021505 
-2.318475197565389 1:0.05277 2:0.027704 3:0.060686 4:0.05277 5:0.038259 6:0.072559 7:0.013193 8:0.03562 9:0.059367 10:0.108179 11:0.036939 12:0.046174 13:0.060686 14:0.056728 15:0.040897 16:0.10686 17:0.05277 18:0.048813 19:0.007916 20:0.021108 
-0.2480010903314409 1:0.057851 2:0 3:0.016529 4:0.066116 5:0.024793 6:0.033058 7:0.033058 8:0.024793 9:0.082645 10:0.082645 11:0.033058 12:0.057851 13:0.049587 14:0.107438 15:0.090909 16:0.066116 17:0.041322 18:0.041322 19:0.033058 20:0.057851 
-3.375416011564291 1:0.058394 2:0.043796 3:0.043796 4:0.080292 5:0.029197 6:0.062044 7:0.025547 8:0.043796 9:0.065693 10:0.083942 11:0.010949 12:0.029197 13:0.058394 14:0.054745 15:0.087591 16:0.069343 17:0.036496 18:0.080292 19:0.010949 20:0.025547 
-0.315254109701471 1:0.070111 2:0.099631 3:0.055351 4:0.070111 5:0.01107 6:0.195572 7:0.03321 8:0.01476 9:0.051661 10:0.00369 11:0.01845 12:0.01845 13:0.04428 14:0.02214 15:0.092251 16:0.114391 17:0.0369 18:0.00369 19:0 20:0.04428 
-0.1318719221972862 1:0.056426 2:0.009404 3:0.050157 4:0.028213 5:0.034483 6:0.043887 7:0.028213 8:0.031348 9:0.037618 10:0.097179 11:0.012539 12:0.065831 13:0.0721 14:0.081505 15:0.050157 16:0.125392 17:0.097179 18:0.028213 19:0.018809 20:0.031348 
-0.3580112721618942 1:0.056338 2:0.014085 3:0.014085 4:0.112676 5:0.042254 6:0.042254 7:0.042254 8:0.056338 9:0.098592 10:0.070423 11:0.014085 12:0.028169 13:0.028169 14:0.056338 15:0.169014 16:0.014085 17:0.070423 18:0 19:0.028169 20:0.042254 
-0.008680133675457065 1:0.041667 2:0.020833 3:0.020833 4:0.145833 5:0.020833 6:0.020833 7:0.020833 8:0.083333 9:0.125 10:0.083333 11:0.020833 12:0.041667 13:0.020833 14:0.0625 15:0.0625 16:0.104167 17:0.041667 18:0.020833 19:0.041667 20:0 
-0.2326486003613185 1:0.144928 2:0 3:0.009662 4:0.024155 5:0.004831 6:0.057971 7:0.009662 8:0.019324 9:0.198068 10:0.082126 11:0.009662 12:0.033816 13:0.05314 14:0.028986 15:0.072464 16:0.115942 17:0.067633 18:0.062802 19:0 20:0.004831 
-0.4780086572432221 1:0.024715 2:0.007605 3:0.04943 4:0.020913 5:0.024715 6:0.288973 7:0.005703 8:0.015209 9:0.026616 10:0.005703 11:0.015209 12:0.045627 13:0.051331 14:0.098859 15:0.070342 16:0.129278 17:0.036122 18:0.009506 19:0.005703 20:0.068441 
-0.6426418321673275 1:0.03252 2:0.00813 3:0.02439 4:0.065041 5:0.02439 6:0.04878 7:0.02439 8:0.02439 9:0.097561 10:0.097561 11:0.00813 12:0.03252 13:0.105691 14:0.113821 15:0.081301 16:0.04065 17:0.081301 18:0.04878 19:0.00813 20:0.03252 
-1.679993660701726 1:0.061381 2:0.007673 3:0.048593 4:0.038363 5:0.02046 6:0.089514 7:0.023018 8:0.051151 9:0.035806 10:0.056266 11:0.015345 12:0.030691 13:0.102302 14:0.048593 15:0.066496 16:0.112532 17:0.069054 18:0.074169 19:0.005115 20:0.043478 
-0.1869483026486547 1:0.045455 2:0.006993 3:0.08042 4:0.132867 5:0.020979 6:0.045455 7:0.003497 8:0.062937 9:0.076923 10:0.062937 11:0.006993 12:0.125874 13:0.020979 14:0.038462 15:0.024476 16:0.059441 17:0.087413 18:0.06993 19:0.013986 20:0.013986 
