svm_type c_svc
kernel_type rbf
gamma 128
nr_class 2
total_sv 167
rho -0.25459
label 1 -1
nr_sv 94 73
SV
0.7211304795712765 1:0.054945 2:0.032967 3:0.032967 4:0.071429 5:0.043956 6:0.082418 7:0.010989 8:0.054945 9:0.082418 10:0.065934 11:0.032967 12:0.027473 13:0.016484 14:0.054945 15:0.098901 16:0.076923 17:0.032967 18:0.087912 19:0.005495 20:0.032967 
0.3358595591118545 1:0.073333 2:0.02 3:0.073333 4:0.053333 5:0.033333 6:0.18 7:0.053333 8:0.046667 9:0.06 10:0.06 11:0.006667 12:0.06 13:0.033333 14:0.02 15:0.02 16:0.053333 17:0.046667 18:0.1 19:0 20:0.006667 
1.942725416347534 1:0.07563 2:0.058824 3:0.033613 4:0.05042 5:0.033613 6:0.092437 7:0.02521 8:0.02521 9:0.016807 10:0.134454 11:0.008403 12:0 13:0.092437 14:0.033613 15:0.10084 16:0.07563 17:0.02521 18:0.067227 19:0.042017 20:0.008403 
0.007236754165069399 1:0.038462 2:0.038462 3:0.080128 4:0.064103 5:0.057692 6:0.067308 7:0.012821 8:0.076923 9:0.060897 10:0.105769 11:0.022436 12:0.041667 13:0.051282 14:0.044872 15:0.060897 16:0.057692 17:0.019231 18:0.048077 19:0.009615 20:0.041667 
2.494019970464028 1:0.105058 2:0.013619 3:0.089494 4:0.050584 5:0.009728 6:0.044747 7:0.009728 8:0.044747 9:0.038911 10:0.087549 11:0.01751 12:0.085603 13:0.050584 14:0.035019 15:0.031128 16:0.124514 17:0.083658 18:0.052529 19:0.005837 20:0.019455 
4 1:0.060367 2:0.026247 3:0.060367 4:0.049869 5:0.028871 6:0.076115 7:0.018373 8:0.089239 9:0.060367 10:0.07874 11:0.018373 12:0.052493 13:0.052493 14:0.03937 15:0.023622 16:0.091864 17:0.049869 18:0.07874 19:0 20:0.044619 
0.1093981689157276 1:0.101695 2:0.016949 3:0.076271 4:0.067797 5:0.050847 6:0.050847 7:0.025424 8:0.059322 9:0.118644 10:0.059322 11:0.033898 12:0.008475 13:0.025424 14:0.033898 15:0 16:0.050847 17:0.076271 18:0.110169 19:0.025424 20:0.008475 
2.512116957832562 1:0.06986 2:0.05988 3:0.041916 4:0.077844 5:0.041916 6:0.053892 7:0.02994 8:0.035928 9:0.051896 10:0.10978 11:0.015968 12:0.031936 13:0.047904 14:0.045908 15:0.061876 16:0.07984 17:0.047904 18:0.065868 19:0.005988 20:0.023952 
3.294422240275049 1:0.064114 2:0.012048 3:0.055508 4:0.068847 5:0.039587 6:0.062823 7:0.026678 8:0.062392 9:0.047332 10:0.091652 11:0.032272 12:0.04389 13:0.048193 14:0.04389 15:0.061962 16:0.067126 17:0.045181 18:0.080465 19:0.011618 20:0.034423 
2.068277646100927 1:0.067358 2:0.012953 3:0.051813 4:0.059585 5:0.031088 6:0.064767 7:0.023316 8:0.059585 9:0.044041 10:0.126943 11:0.036269 12:0.041451 13:0.064767 14:0.036269 15:0.051813 16:0.046632 17:0.064767 18:0.07772 19:0.010363 20:0.028497 
0.1430233839499652 1:0.09901 2:0.019802 3:0.046676 4:0.076379 5:0.024045 6:0.039604 7:0.009901 8:0.046676 9:0.079208 10:0.110325 11:0.01273 12:0.057992 13:0.042433 14:0.066478 15:0.065064 16:0.079208 17:0.043847 18:0.041018 19:0.004243 20:0.035361 
0.5462308714104552 1:0.121212 2:0.022727 3:0.022727 4:0.075758 5:0.015152 6:0.030303 7:0.015152 8:0.015152 9:0.19697 10:0.068182 11:0.045455 12:0.007576 13:0.037879 14:0.030303 15:0.05303 16:0.098485 17:0.045455 18:0.060606 19:0.007576 20:0.030303 
0.7173297578320322 1:0.075 2:0 3:0.025 4:0.2 5:0.075 6:0 7:0 8:0.075 9:0.025 10:0.05 11:0.05 12:0.05 13:0.05 14:0.125 15:0 16:0.05 17:0.1 18:0.025 19:0 20:0.025 
4 1:0.066819 2:0.019222 3:0.050801 4:0.069565 5:0.036156 6:0.067735 7:0.022426 8:0.079176 9:0.069108 10:0.083295 11:0.02151 12:0.055378 13:0.045767 14:0.030206 15:0.037986 16:0.075973 17:0.059039 18:0.070938 19:0.009153 20:0.029748 
3.494236698602521 1:0.043478 2:0.01118 3:0.069565 4:0.09441 5:0.052174 6:0.037267 7:0.014907 8:0.084472 9:0.084472 10:0.103106 11:0.026087 12:0.048447 13:0.02236 14:0.04472 15:0.039752 16:0.064596 17:0.052174 18:0.06087 19:0.008696 20:0.037267 
0.3082495204394469 1:0.050725 2:0.007246 3:0.07971 4:0.086957 5:0.014493 6:0.07971 7:0.007246 8:0.137681 9:0.094203 10:0.021739 11:0.028986 12:0.014493 13:0.050725 14:0.028986 15:0.050725 16:0.043478 17:0.072464 18:0.101449 19:0.007246 20:0.021739 
0.7541379773630867 1:0.072289 2:0.028112 3:0.048193 4:0.068273 5:0.032129 6:0.068273 7:0.02008 8:0.076305 9:0.080321 10:0.056225 11:0.012048 12:0.080321 13:0.040161 14:0.028112 15:0.028112 16:0.080321 17:0.064257 18:0.076305 19:0.016064 20:0.024096 
2.459040860890973 1:0.019194 2:0.017274 3:0.051823 4:0.06142 5:0.03263 6:0.049904 7:0.028791 8:0.086372 9:0.049904 10:0.067179 11:0.017274 12:0.117083 13:0.046065 14:0.042226 15:0.047985 16:0.105566 17:0.067179 18:0.040307 19:0.007678 20:0.044146 
0.7377535653475448 1:0.070175 2:0.065789 3:0.050439 4:0.076754 5:0 6:0.08114 7:0.015351 8:0.019737 9:0.030702 10:0.214912 11:0.004386 12:0.037281 13:0.035088 14:0.054825 15:0.048246 16:0.083333 17:0.050439 18:0.041667 19:0.010965 20:0.008772 
0.09875711251001194 1:0.12037 2:0.012346 3:0.092593 4:0.123457 5:0.024691 6:0.070988 7:0.021605 8:0.080247 9:0.049383 10:0.089506 11:0.037037 12:0.006173 13:0.018519 14:0.009259 15:0.052469 16:0.058642 17:0.030864 18:0.074074 19:0.003086 20:0.024691 
0.3593730839033939 1:0.017483 2:0.013986 3:0.048951 4:0.087413 5:0.066434 6:0.045455 7:0.020979 8:0.059441 9:0.094406 10:0.094406 11:0.027972 12:0.031469 13:0.055944 14:0.031469 15:0.041958 16:0.073427 17:0.048951 18:0.062937 19:0.034965 20:0.041958 
1.19747449051209 1:0.03876 2:0.007752 3:0.03876 4:0.062016 5:0.054264 6:0.100775 7:0.023256 8:0.085271 9:0.085271 10:0.069767 11:0.031008 12:0.03876 13:0.023256 14:0.023256 15:0.085271 16:0.062016 17:0.023256 18:0.108527 19:0.007752 20:0.031008 
4 1:0.078265 2:0.023256 3:0.045617 4:0.058587 5:0.033989 6:0.070215 7:0.031306 8:0.042039 9:0.042487 10:0.096154 11:0.026386 12:0.038909 13:0.060376 14:0.037567 15:0.071556 16:0.072451 17:0.055903 18:0.071109 19:0.016547 20:0.027281 
0.9860388085672869 1:0.118421 2:0.009868 3:0.0625 4:0.039474 5:0.042763 6:0.088816 7:0.013158 8:0.052632 9:0.075658 10:0.0625 11:0.016447 12:0.052632 13:0.039474 14:0.013158 15:0.029605 16:0.0625 17:0.072368 18:0.115132 19:0.009868 20:0.023026 
0.4153520883298077 1:0.04329 2:0.030303 3:0.073593 4:0.056277 5:0.064935 6:0.060606 7:0.034632 8:0.069264 9:0.108225 10:0.099567 11:0.012987 12:0.051948 13:0.038961 14:0.004329 15:0.025974 16:0.051948 17:0.038961 18:0.077922 19:0.004329 20:0.051948 
0.8819374598739035 1:0.074783 2:0.015652 3:0.048696 4:0.097391 5:0.057391 6:0.05913 7:0.034783 8:0.066087 9:0.078261 10:0.088696 11:0.017391 12:0.026087 13:0.045217 14:0.013913 15:0.06087 16:0.04 17:0.041739 18:0.071304 19:0.01913 20:0.043478 
0.3717495299531999 1:0.079167 2:0.008333 3:0.05 4:0.195833 5:0.033333 6:0.083333 7:0.0125 8:0.016667 9:0.1125 10:0.045833 11:0.016667 12:0.0375 13:0.0875 14:0.020833 15:0.041667 16:0.066667 17:0.029167 18:0.033333 19:0.008333 20:0.020833 
2.475307459148505 1:0.084229 2:0.026882 3:0.041219 4:0.069892 5:0.044803 6:0.043011 7:0.028674 8:0.055556 9:0.037634 10:0.148746 11:0.026882 12:0.023297 13:0.044803 14:0.066308 15:0.051971 16:0.064516 17:0.048387 18:0.050179 19:0.023297 20:0.019713 
3.826064386816371 1:0.046205 2:0.039604 3:0.062706 4:0.066007 5:0.052805 6:0.072607 7:0.019802 8:0.069307 9:0.059406 10:0.092409 11:0.019802 12:0.049505 13:0.042904 14:0.029703 15:0.046205 16:0.029703 17:0.066007 18:0.066007 19:0.019802 20:0.049505 
0.7363994762275615 1:0.045455 2:0 3:0.045455 4:0.272727 5:0 6:0.090909 7:0.045455 8:0.090909 9:0.090909 10:0.090909 11:0 12:0 13:0.090909 14:0.090909 15:0 16:0 17:0 18:0.045455 19:0 20:0 
0.02789324485766105 1:0.068027 2:0.006803 3:0.05102 4:0.078231 5:0.047619 6:0.040816 7:0.030612 8:0.054422 9:0.078231 10:0.102041 11:0.027211 12:0.013605 13:0.07483 14:0.030612 15:0.040816 16:0.054422 17:0.064626 18:0.061224 19:0.027211 20:0.047619 
0.2397002316490127 1:0.101124 2:0.007491 3:0.054307 4:0.046816 5:0.035581 6:0.125468 7:0.016854 8:0.054307 9:0.069288 10:0.080524 11:0.065543 12:0.024345 13:0.029963 14:0.058052 15:0.052434 16:0.05618 17:0.058052 18:0.050562 19:0 20:0.013109 
2.241124097035468 1:0.117166 2:0.013624 3:0.046322 4:0.06812 5:0.049046 6:0.081744 7:0.019074 8:0.035422 9:0.035422 10:0.117166 11:0.024523 12:0.016349 13:0.065395 14:0.054496 15:0.070845 16:0.038147 17:0.043597 18:0.06267 19:0.013624 20:0.027248 
1.517479795801052 1:0.056291 2:0.013245 3:0.066225 4:0.086093 5:0.086093 6:0.049669 7:0.009934 8:0.043046 9:0.05298 10:0.115894 11:0.033113 12:0.043046 13:0.02649 14:0.033113 15:0.096026 16:0.059603 17:0.043046 18:0.059603 19:0.006623 20:0.019868 
4 1:0.05787 2:0.006944 3:0.059028 4:0.060185 5:0.043981 6:0.065972 7:0.030093 8:0.061343 9:0.059028 10:0.104167 11:0.015046 12:0.052083 13:0.059028 14:0.023148 15:0.045139 16:0.075231 17:0.05787 18:0.06713 19:0.016204 20:0.040509 
2.945181631191681 1:0.059211 2:0.019737 3:0.085526 4:0.046053 5:0.072368 6:0.059211 7:0.032895 8:0.026316 9:0.065789 10:0.105263 11:0.046053 12:0.046053 13:0.026316 14:0.032895 15:0.046053 16:0.065789 17:0.052632 18:0.065789 19:0.013158 20:0.032895 
0.5108368773098203 1:0.094421 2:0.004292 3:0.055794 4:0.081545 5:0.034335 6:0.077253 7:0 8:0.072961 9:0.077253 10:0.081545 11:0.017167 12:0.030043 13:0.025751 14:0.060086 15:0.051502 16:0.060086 17:0.038627 18:0.090129 19:0 20:0.04721 
1.140994110964083 1:0.044199 2:0.01105 3:0.055249 4:0.044199 5:0.066298 6:0.066298 7:0.038674 8:0.049724 9:0.044199 10:0.055249 11:0.033149 12:0.044199 13:0.071823 14:0.022099 15:0.071823 16:0.077348 17:0.066298 18:0.110497 19:0.005525 20:0.022099 
0.1531969141688927 1:0.086093 2:0.013245 3:0.072848 4:0.119205 5:0.05298 6:0.046358 7:0.019868 8:0.099338 9:0.059603 10:0.066225 11:0.059603 12:0.013245 13:0.046358 14:0.013245 15:0.07947 16:0.05298 17:0.02649 18:0.046358 19:0 20:0.02649 
2.364991017104589 1:0.062731 2:0.01476 3:0.062731 4:0.070111 5:0.051661 6:0.081181 7:0.03321 8:0.055351 9:0.04797 10:0.125461 11:0.00369 12:0.01476 13:0.066421 14:0.02952 15:0.062731 16:0.04797 17:0.062731 18:0.055351 19:0.01476 20:0.0369 
0.9179090065516952 1:0.048485 2:0.018182 3:0.042424 4:0.054545 5:0.072727 6:0.121212 7:0.024242 8:0.054545 9:0.078788 10:0.054545 11:0.030303 12:0.072727 13:0.030303 14:0.018182 15:0.030303 16:0.078788 17:0.066667 18:0.078788 19:0.006061 20:0.018182 
0.1536045433358613 1:0.083582 2:0.002985 3:0.116418 4:0.077612 5:0.032836 6:0.089552 7:0.014925 8:0.047761 9:0.023881 10:0.065672 11:0.023881 12:0.044776 13:0.041791 14:0.026866 15:0.032836 16:0.065672 17:0.068657 18:0.107463 19:0.00597 20:0.026866 
4 1:0.092965 2:0.030151 3:0.047739 4:0.050251 5:0.045226 6:0.065327 7:0.032663 8:0.047739 9:0.060302 10:0.110553 11:0.025126 12:0.027638 13:0.050251 14:0.040201 15:0.045226 16:0.075377 17:0.062814 18:0.062814 19:0.005025 20:0.022613 
0.1464437831493159 1:0.084112 2:0.018692 3:0.056075 4:0.084112 5:0.046729 6:0.074766 7:0.028037 8:0.065421 9:0.065421 10:0.065421 11:0 12:0.065421 13:0.046729 14:0.028037 15:0.093458 16:0.046729 17:0.056075 18:0.028037 19:0 20:0.046729 
0.7299265335809243 1:0.08 2:0 3:0 4:0 5:0.08 6:0.2 7:0 8:0.04 9:0.08 10:0.04 11:0 12:0.08 13:0 14:0 15:0.12 16:0.04 17:0.04 18:0.2 19:0 20:0 
0.1309848713210262 1:0.045752 2:0.035948 3:0.078431 4:0.058824 5:0.042484 6:0.075163 7:0.019608 8:0.052288 9:0.03268 10:0.104575 11:0.022876 12:0.052288 13:0.052288 14:0.052288 15:0.055556 16:0.039216 17:0.045752 18:0.065359 19:0.013072 20:0.055556 
0.7435762414803045 1:0.042945 2:0 3:0.030675 4:0.06135 5:0.006135 6:0.251534 7:0.06135 8:0.02454 9:0.079755 10:0.018405 11:0.04908 12:0.01227 13:0.02454 14:0.067485 15:0.03681 16:0.055215 17:0.141104 18:0.02454 19:0 20:0.01227 
4 1:0.063776 2:0.02551 3:0.028061 4:0.07398 5:0.068878 6:0.084184 7:0.028061 8:0.038265 9:0.040816 10:0.096939 11:0.030612 12:0.040816 13:0.056122 14:0.053571 15:0.053571 16:0.056122 17:0.053571 18:0.068878 19:0.012755 20:0.02551 
0.7262686417197494 1:0.142857 2:0 3:0.047619 4:0 5:0.047619 6:0.095238 7:0 8:0 9:0.095238 10:0.095238 11:0 12:0 13:0.047619 14:0.047619 15:0 16:0.047619 17:0.095238 18:0.238095 19:0 20:0 
0.7354551016337139 1:0.121212 2:0.00551 3:0.052342 4:0.063361 5:0.024793 6:0.090909 7:0.019284 8:0.077135 9:0.049587 10:0.093664 11:0.027548 12:0.044077 13:0.057851 14:0.019284 15:0.049587 16:0.057851 17:0.049587 18:0.071625 19:0.011019 20:0.013774 
0.470526480190331 1:0.156627 2:0.024096 3:0.072289 4:0.084337 5:0.036145 6:0.036145 7:0 8:0.024096 9:0.168675 10:0.13253 11:0.036145 12:0.048193 13:0 14:0.024096 15:0 16:0.048193 17:0.036145 18:0.048193 19:0 20:0.024096 
1.162787319962407 1:0.075581 2:0.023256 3:0.040698 4:0.087209 5:0.034884 6:0.05814 7:0.011628 8:0.104651 9:0.063953 10:0.05814 11:0.040698 12:0.023256 13:0.052326 14:0.040698 15:0.046512 16:0.098837 17:0.052326 18:0.034884 19:0.011628 20:0.040698 
2.364341183272 1:0.08 2:0.021333 3:0.056 4:0.08 5:0.037333 6:0.069333 7:0.021333 8:0.056 9:0.056 10:0.08 11:0.026667 12:0.037333 13:0.045333 14:0.032 15:0.045333 16:0.074667 17:0.053333 18:0.08 19:0.010667 20:0.037333 
0.3771268543113566 1:0.120805 2:0.020134 3:0.040268 4:0.040268 5:0.040268 6:0.073826 7:0 8:0.067114 9:0.100671 10:0.067114 11:0.020134 12:0.006711 13:0.060403 14:0.033557 15:0.134228 16:0.033557 17:0.026846 18:0.067114 19:0 20:0.04698 
0.7452737112982425 1:0.019737 2:0.105263 3:0 4:0.098684 5:0 6:0 7:0.032895 8:0.006579 9:0.098684 10:0.006579 11:0.006579 12:0.006579 13:0.328947 14:0.131579 15:0 16:0.019737 17:0.032895 18:0.098684 19:0 20:0.006579 
0.5609479105548664 1:0.088235 2:0.008824 3:0.061765 4:0.058824 5:0.017647 6:0.044118 7:0.017647 8:0.102941 9:0.079412 10:0.064706 11:0.032353 12:0.05 13:0.041176 14:0.026471 15:0.05 16:0.061765 17:0.055882 18:0.105882 19:0 20:0.032353 
1.87430462922775 1:0.059347 2:0.011869 3:0.047478 4:0.050445 5:0.050445 6:0.074184 7:0.023739 8:0.05638 9:0.089021 10:0.097923 11:0.038576 12:0.041543 13:0.029674 14:0.05638 15:0.062315 16:0.065282 17:0.047478 18:0.032641 19:0.008902 20:0.05638 
2.782820032749507 1:0.033841 2:0.00846 3:0.054146 4:0.071066 5:0.060914 6:0.042301 7:0.027073 8:0.062606 9:0.103215 10:0.099831 11:0.023689 12:0.104907 13:0.018613 14:0.032149 15:0.028765 16:0.059222 17:0.052453 18:0.06599 19:0.006768 20:0.043993 
2.785077650889754 1:0.075658 2:0.003289 3:0.046053 4:0.059211 5:0.0625 6:0.078947 7:0.046053 8:0.065789 9:0.059211 10:0.065789 11:0.029605 12:0.0625 13:0.036184 14:0.046053 15:0.023026 16:0.059211 17:0.0625 18:0.052632 19:0.029605 20:0.036184 
0.6477476236290182 1:0.138889 2:0 3:0 4:0.083333 5:0.055556 6:0.055556 7:0 8:0.027778 9:0.111111 10:0.111111 11:0.083333 12:0.111111 13:0.027778 14:0 15:0.027778 16:0.083333 17:0 18:0.055556 19:0.027778 20:0 
3.118650587085821 1:0.060748 2:0.007009 3:0.058411 4:0.056075 5:0.042056 6:0.051402 7:0.018692 8:0.063084 9:0.058411 10:0.084112 11:0.030374 12:0.053738 13:0.07243 14:0.044393 15:0.051402 16:0.093458 17:0.056075 18:0.060748 19:0.009346 20:0.028037 
0.5988834261288407 1:0.082192 2:0.013699 3:0.061644 4:0.089041 5:0.027397 6:0.075342 7:0.013699 8:0.034247 9:0.09589 10:0.068493 11:0.013699 12:0.061644 13:0.013699 14:0.020548 15:0.027397 16:0.109589 17:0.034247 18:0.10274 19:0.013699 20:0.041096 
4 1:0.089059 2:0.022901 3:0.045802 4:0.066158 5:0.053435 6:0.089059 7:0.020356 8:0.05598 9:0.05598 10:0.086514 11:0.022901 12:0.035623 13:0.048346 14:0.038168 15:0.045802 16:0.05598 17:0.061069 18:0.083969 19:0.010178 20:0.012723 
0.5766053107693618 1:0.190141 2:0.007042 3:0.049296 4:0.056338 5:0.070423 6:0.112676 7:0.014085 8:0.014085 9:0.070423 10:0.06338 11:0.035211 12:0.042254 13:0.021127 14:0.035211 15:0.007042 16:0.084507 17:0.042254 18:0.049296 19:0.028169 20:0.007042 
2.487174640714944 1:0.043812 2:0.021906 3:0.059146 4:0.060241 5:0.038335 6:0.052574 7:0.03724 8:0.049288 9:0.054765 10:0.089814 11:0.025192 12:0.047097 13:0.051479 14:0.054765 15:0.056955 16:0.085433 17:0.05586 18:0.069003 19:0.010953 20:0.036145 
0.852875189567273 1:0.181818 2:0.007576 3:0.07197 4:0.05303 5:0.022727 6:0.056818 7:0.015152 8:0.041667 9:0.022727 10:0.034091 11:0.011364 12:0.030303 13:0.102273 14:0.045455 15:0.05303 16:0.068182 17:0.041667 18:0.083333 19:0.037879 20:0.018939 
4 1:0.066116 2:0.024793 3:0.057851 4:0.033058 5:0.049587 6:0.057851 7:0.008264 8:0.082645 9:0.057851 10:0.066116 11:0.049587 12:0.033058 13:0.049587 14:0.049587 15:0.057851 16:0.066116 17:0.07438 18:0.082645 19:0 20:0.033058 
3.659129031905079 1:0.025825 2:0.018651 3:0.053085 4:0.050215 5:0.041607 6:0.057389 7:0.028694 8:0.077475 9:0.07891 10:0.077475 11:0.025825 12:0.070301 13:0.04878 14:0.037303 15:0.02726 16:0.117647 17:0.07604 18:0.040172 19:0.012912 20:0.034433 
1.161139791455355 1:0.037736 2:0.009434 3:0.075472 4:0.028302 5:0.061321 6:0.136792 7:0.023585 8:0.056604 9:0.066038 10:0.070755 11:0.023585 12:0.028302 13:0.051887 14:0.014151 15:0.037736 16:0.061321 17:0.070755 18:0.113208 19:0.014151 20:0.018868 
1.041906870945337 1:0.066838 2:0.03599 3:0.01928 4:0.079692 5:0.017995 6:0.066838 7:0.023136 8:0.024422 9:0.017995 10:0.097686 11:0.006427 12:0.014139 13:0.152956 14:0.068123 15:0.078406 16:0.105398 17:0.056555 18:0.05527 19:0.006427 20:0.006427 
0.7442639958656828 1:0.337838 2:0 3:0.027027 4:0.013514 5:0.013514 6:0.013514 7:0 8:0 9:0.135135 10:0.040541 11:0.027027 12:0.054054 13:0.040541 14:0.027027 15:0.027027 16:0.054054 17:0.121622 18:0.054054 19:0 20:0.013514 
0.5476683523182182 1:0.024267 2:0.010111 3:0.038423 4:0.031345 5:0.035389 6:0.032356 7:0.025278 8:0.053589 9:0.048534 10:0.060667 11:0.028311 12:0.18908 13:0.057634 14:0.064712 15:0.026289 16:0.154702 17:0.064712 18:0.031345 19:0.004044 20:0.019211 
0.01167574079620272 1:0.068345 2:0.028777 3:0.039568 4:0.079137 5:0.032374 6:0.046763 7:0.017986 8:0.017986 9:0.053957 10:0.035971 11:0.035971 12:0.071942 13:0.133094 14:0.046763 15:0.061151 16:0.079137 17:0.046763 18:0.05036 19:0.021583 20:0.032374 
0.1263281244440849 1:0.041237 2:0 3:0.092784 4:0.097938 5:0.06701 6:0.056701 7:0.020619 8:0.06701 9:0.056701 10:0.097938 11:0.020619 12:0.046392 13:0.025773 14:0.041237 15:0.082474 16:0.087629 17:0.041237 18:0.046392 19:0 20:0.010309 
0.2980761280804421 1:0.04 2:0.048 3:0.112 4:0.072 5:0.056 6:0.032 7:0.024 8:0.04 9:0.056 10:0.048 11:0.024 12:0.024 13:0.056 14:0.072 15:0.112 16:0.056 17:0.048 18:0.024 19:0.032 20:0.024 
0.3003964585681225 1:0.093827 2:0.012346 3:0.061728 4:0.066667 5:0.02716 6:0.081481 7:0.007407 8:0.064198 9:0.061728 10:0.108642 11:0.022222 12:0.02963 13:0.05679 14:0.017284 15:0.05679 16:0.088889 17:0.059259 18:0.066667 19:0.007407 20:0.009877 
4 1:0.049763 2:0.018167 3:0.054502 4:0.075829 5:0.045814 6:0.052133 7:0.017378 8:0.052923 9:0.066351 10:0.109005 11:0.022117 12:0.042654 13:0.048183 14:0.037915 15:0.050553 16:0.057662 17:0.062401 18:0.079779 19:0.015798 20:0.041074 
1.897717389714271 1:0.06903 2:0.016791 3:0.059701 4:0.087687 5:0.046642 6:0.026119 7:0.031716 8:0.054104 9:0.05597 10:0.104478 11:0.026119 12:0.039179 13:0.046642 14:0.050373 15:0.052239 16:0.078358 17:0.059701 18:0.061567 19:0.014925 20:0.018657 
0.4927106566973264 1:0.124473 2:0.008439 3:0.075949 4:0.103376 5:0.027426 6:0.113924 7:0.025316 8:0.054852 9:0.021097 10:0.063291 11:0.025316 12:0.025316 13:0.033755 14:0.018987 15:0.044304 16:0.035865 17:0.06962 18:0.107595 19:0.006329 20:0.014768 
2.240386923676694 1:0.108939 2:0.013966 3:0.036313 4:0.069832 5:0.039106 6:0.086592 7:0.00838 8:0.055866 9:0.067039 10:0.097765 11:0.011173 12:0.039106 13:0.047486 14:0.03352 15:0.039106 16:0.053073 17:0.075419 18:0.069832 19:0.011173 20:0.036313 
3.233246922650364 1:0.061728 2:0.012346 3:0.041152 4:0.096708 5:0.063786 6:0.028807 7:0.020576 8:0.067901 9:0.08642 10:0.115226 11:0.020576 12:0.037037 13:0.04321 14:0.055556 15:0.04321 16:0.084362 17:0.037037 18:0.047325 19:0.010288 20:0.026749 
4 1:0.090024 2:0.009732 3:0.058394 4:0.051095 5:0.051095 6:0.077859 7:0.017032 8:0.046229 9:0.051095 10:0.082725 11:0.024331 12:0.048662 13:0.048662 14:0.036496 15:0.06326 16:0.065693 17:0.055961 18:0.07056 19:0.021898 20:0.029197 
0.1909413850935167 1:0.102518 2:0.016187 3:0.066547 4:0.066547 5:0.019784 6:0.064748 7:0.014388 8:0.080935 9:0.071942 10:0.100719 11:0.026978 12:0.048561 13:0.02518 14:0.030576 15:0.048561 16:0.064748 17:0.05036 18:0.082734 19:0.001799 20:0.016187 
0.4215836627063197 1:0.031579 2:0.007018 3:0.052632 4:0.066667 5:0.070175 6:0.070175 7:0.014035 8:0.070175 9:0.084211 10:0.091228 11:0.035088 12:0.059649 13:0.049123 14:0.024561 15:0.035088 16:0.063158 17:0.049123 18:0.045614 19:0.042105 20:0.038596 
1.025154348102481 1:0.050725 2:0 3:0.065217 4:0.101449 5:0.057971 6:0.072464 7:0 8:0.094203 9:0.065217 10:0.07971 11:0.028986 12:0.007246 13:0.043478 14:0.028986 15:0.086957 16:0.050725 17:0.043478 18:0.043478 19:0 20:0.07971 
3.470076307666107 1:0.065693 2:0.024331 3:0.041363 4:0.087591 5:0.041363 6:0.07056 7:0.019465 8:0.048662 9:0.06326 10:0.107056 11:0.029197 12:0.03163 13:0.048662 14:0.024331 15:0.043796 16:0.085158 17:0.058394 18:0.055961 19:0.021898 20:0.03163 
0.1970003919562719 1:0.062992 2:0.023622 3:0.07874 4:0.031496 5:0.062992 6:0.062992 7:0.03937 8:0.094488 9:0.047244 10:0.07874 11:0.03937 12:0.03937 13:0.03937 14:0.102362 15:0.015748 16:0.062992 17:0.03937 18:0.031496 19:0.023622 20:0.023622 
1.529661965944707 1:0.051685 2:0.024719 3:0.060674 4:0.080899 5:0.053933 6:0.085393 7:0.017978 8:0.040449 9:0.026966 10:0.076404 11:0.047191 12:0.049438 13:0.040449 14:0.051685 15:0.058427 16:0.074157 17:0.053933 18:0.062921 19:0.008989 20:0.033708 
0.5522841259240618 1:0.1 2:0 3:0 4:0.175 5:0.025 6:0.05 7:0.025 8:0 9:0.125 10:0.125 11:0 12:0.075 13:0.025 14:0.025 15:0 16:0.05 17:0.1 18:0.05 19:0 20:0.05 
0.6663328967981954 1:0.047233 2:0.010796 3:0.05668 4:0.072874 5:0.062078 6:0.05803 7:0.018893 8:0.052632 9:0.071525 10:0.099865 11:0.035088 12:0.052632 13:0.05803 14:0.022942 15:0.048583 16:0.080972 17:0.05803 18:0.060729 19:0.009447 20:0.022942 
2.708212472306893 1:0.089385 2:0.01676 3:0.050279 4:0.072626 5:0.044693 6:0.094972 7:0.011173 8:0.039106 9:0.044693 10:0.162011 11:0.005587 12:0.005587 13:0.061453 14:0.039106 15:0.067039 16:0.061453 17:0.03352 18:0.072626 19:0.005587 20:0.022346 
1.464913128529972 1:0.107735 2:0.019337 3:0.030387 4:0.063536 5:0.024862 6:0.09116 7:0.024862 8:0.049724 9:0.063536 10:0.11326 11:0.019337 12:0.019337 13:0.049724 14:0.041436 15:0.033149 16:0.077348 17:0.052486 18:0.096685 19:0.01105 20:0.01105 
0.9456784101457437 1:0.082353 2:0 3:0.023529 4:0.082353 5:0.035294 6:0.058824 7:0.047059 8:0.058824 9:0.035294 10:0.082353 11:0.035294 12:0.047059 13:0.070588 14:0.023529 15:0.035294 16:0.047059 17:0.082353 18:0.094118 19:0.011765 20:0.047059 
4 1:0.044721 2:0.011975 3:0.055718 4:0.077224 5:0.053275 6:0.036657 7:0.020283 8:0.075513 9:0.075269 10:0.121945 11:0.022239 12:0.054252 13:0.02737 14:0.041789 15:0.043255 16:0.079179 17:0.054741 18:0.062317 19:0.012952 20:0.029326 
-0.3433198734177936 1:0.138889 2:0.036111 3:0.033333 4:0.022222 5:0.044444 6:0.080556 7:0.011111 8:0.022222 9:0.005556 10:0.180556 11:0.005556 12:0.013889 13:0.072222 14:0.013889 15:0.094444 16:0.077778 17:0.036111 18:0.061111 19:0.025 20:0.025 
-0.5680399452809645 1:0.116625 2:0 3:0.044665 4:0.052109 5:0.044665 6:0.091811 7:0 8:0.111663 9:0.054591 10:0.094293 11:0.012407 12:0.022333 13:0.037221 14:0.029777 15:0.054591 16:0.047146 17:0.064516 18:0.104218 19:0.004963 20:0.012407 
-1.118394106666626 1:0.057895 2:0.021053 3:0.047368 4:0.021053 5:0.142105 6:0.026316 7:0 8:0.052632 9:0.031579 10:0.115789 11:0.021053 12:0.015789 13:0.036842 14:0.010526 15:0.031579 16:0.226316 17:0.047368 18:0.068421 19:0.010526 20:0.015789 
-0.6554113829372952 1:0.074257 2:0.089109 3:0.024752 4:0.049505 5:0.049505 6:0.123762 7:0.024752 8:0.074257 9:0.019802 10:0.143564 11:0.014851 12:0.034653 13:0.019802 14:0.034653 15:0.014851 16:0.069307 17:0.029703 18:0.054455 19:0.019802 20:0.034653 
-4 1:0.063158 2:0.010526 3:0.066316 4:0.083158 5:0.061053 6:0.042105 7:0.016842 8:0.065263 9:0.067368 10:0.098947 11:0.025263 12:0.046316 13:0.031579 14:0.037895 15:0.052632 16:0.076842 17:0.054737 18:0.052632 19:0.009474 20:0.037895 
-0.429023169900058 1:0.024324 2:0.037838 3:0.037838 4:0.018919 5:0.054054 6:0.018919 7:0.016216 8:0.17027 9:0.045946 10:0.094595 11:0.02973 12:0.059459 13:0.024324 14:0.013514 15:0.051351 16:0.102703 17:0.067568 18:0.051351 19:0.008108 20:0.072973 
-0.9073874470207175 1:0.023256 2:0.03876 3:0.031008 4:0.007752 5:0.193798 6:0.023256 7:0.023256 8:0.108527 9:0.031008 10:0.116279 11:0.015504 12:0.03876 13:0.023256 14:0.03876 15:0.062016 16:0.069767 17:0.03876 18:0.093023 19:0.007752 20:0.015504 
-0.2751309088018369 1:0.088517 2:0.023923 3:0.016746 4:0.057416 5:0.04067 6:0.064593 7:0.009569 8:0.0311 9:0.016746 10:0.102871 11:0.028708 12:0.028708 13:0.076555 14:0.028708 15:0.074163 16:0.088517 17:0.045455 18:0.126794 19:0.019139 20:0.0311 
-4 1:0.073887 2:0.018219 3:0.041498 4:0.062753 5:0.050607 6:0.076923 7:0.025304 8:0.047571 9:0.04251 10:0.11336 11:0.02834 12:0.015182 13:0.072874 14:0.045547 15:0.040486 16:0.076923 17:0.053644 18:0.073887 19:0.01417 20:0.026316 
-4 1:0.05042 2:0.019608 3:0.043417 4:0.067227 5:0.044818 6:0.042017 7:0.02381 8:0.088235 9:0.084034 10:0.09944 11:0.018908 12:0.060924 13:0.042717 14:0.035014 15:0.036415 16:0.084034 17:0.04972 18:0.062325 19:0.009804 20:0.037115 
-0.5660784271947916 1:0.019685 2:0.015748 3:0.031496 4:0.043307 5:0.11811 6:0.055118 7:0.011811 8:0.114173 9:0.090551 10:0.173228 11:0.023622 12:0.043307 13:0.027559 14:0.003937 15:0.015748 16:0.047244 17:0.023622 18:0.066929 19:0.015748 20:0.059055 
-1.312931498737747 1:0.079772 2:0.02849 3:0.039886 4:0.042735 5:0.019943 6:0.119658 7:0.034188 8:0.014245 9:0.019943 10:0.19943 11:0.008547 12:0.019943 13:0.088319 14:0.051282 15:0.039886 16:0.048433 17:0.037037 18:0.065527 19:0.022792 20:0.019943 
-3.054794294650813 1:0.074364 2:0.019569 3:0.052838 4:0.062622 5:0.062622 6:0.072407 7:0.029354 8:0.058708 9:0.035225 10:0.093933 11:0.023483 12:0.035225 13:0.058708 14:0.021526 15:0.066536 16:0.052838 17:0.056751 18:0.064579 19:0.019569 20:0.039139 
-2.358288809566599 1:0.059016 2:0.005738 3:0.052459 4:0.059836 5:0.039344 6:0.059836 7:0.016393 8:0.063934 9:0.064754 10:0.10082 11:0.019672 12:0.065574 13:0.040164 14:0.031148 15:0.046721 16:0.109836 17:0.077049 18:0.059016 19:0.004098 20:0.02459 
-0.5211406953969481 1:0.160338 2:0.004219 3:0.050633 4:0.008439 5:0.033755 6:0.084388 7:0.012658 8:0.059072 9:0.004219 10:0.139241 11:0.021097 12:0.004219 13:0.046414 14:0.008439 15:0.059072 16:0.025316 17:0.097046 18:0.109705 19:0.029536 20:0.042194 
-0.09457485171699573 1:0.06599 2:0.005076 3:0.045685 4:0.025381 5:0.050761 6:0.071066 7:0.005076 8:0.15736 9:0.076142 10:0.086294 11:0.045685 12:0.030457 13:0.035533 14:0.010152 15:0.010152 16:0.076142 17:0.060914 18:0.096447 19:0.010152 20:0.035533 
-0.5262131819250594 1:0.079019 2:0.00545 3:0.065395 4:0.035422 5:0.046322 6:0.057221 7:0.016349 8:0.089918 9:0.032698 10:0.057221 11:0.016349 12:0.089918 13:0.043597 14:0.035422 15:0.049046 16:0.100817 17:0.073569 18:0.035422 19:0.019074 20:0.051771 
-1.024869211681935 1:0.0875 2:0.0625 3:0.0375 4:0.0125 5:0.0125 6:0.05 7:0.025 8:0.1625 9:0.025 10:0.15 11:0.0125 12:0.05 13:0.075 14:0.0375 15:0 16:0.025 17:0.05 18:0.0625 19:0.0125 20:0.05 
-4 1:0.077739 2:0.038869 3:0.048292 4:0.070671 5:0.038869 6:0.054181 7:0.03298 8:0.04947 9:0.060071 10:0.078916 11:0.024735 12:0.045936 13:0.040047 14:0.041225 15:0.051826 16:0.083628 17:0.058893 18:0.048292 19:0.010601 20:0.044759 
-2.032251726277355 1:0.081633 2:0.014577 3:0.039359 4:0.04519 5:0.034985 6:0.08309 7:0.017493 8:0.027697 9:0.026239 10:0.170554 11:0.021866 12:0.023324 13:0.046647 14:0.065598 15:0.062682 16:0.068513 17:0.04519 18:0.080175 19:0.017493 20:0.027697 
-0.6144149009312715 1:0.095279 2:0.026609 3:0.042918 4:0.052361 5:0.048069 6:0.064378 7:0.024893 8:0.04721 9:0.036052 10:0.117597 11:0.032618 12:0.03691 13:0.039485 14:0.04206 15:0.071245 16:0.060086 17:0.048069 18:0.072103 19:0.011159 20:0.030901 
-3.396351327748067 1:0.038869 2:0.010601 3:0.028269 4:0.113074 5:0.053004 6:0.028269 7:0.031802 8:0.091873 9:0.102473 10:0.102473 11:0.021201 12:0.028269 13:0.021201 14:0.045936 15:0.084806 16:0.053004 17:0.028269 18:0.060071 19:0.007067 20:0.04947 
-0.8111987993981886 1:0.126126 2:0.036036 3:0 4:0 5:0.099099 6:0.027027 7:0.045045 8:0.054054 9:0.045045 10:0.153153 11:0.009009 12:0.018018 13:0.018018 14:0.045045 15:0.099099 16:0.063063 17:0.072072 18:0.036036 19:0.018018 20:0.036036 
-3.347339605838247 1:0.036247 2:0.016347 3:0.046908 4:0.04833 5:0.061123 6:0.051173 7:0.02914 8:0.083866 9:0.075338 10:0.088842 11:0.0199 12:0.122246 13:0.026297 14:0.029851 15:0.024165 16:0.08742 17:0.056148 18:0.054016 19:0.007107 20:0.035537 
-1.825384556540211 1:0.08596 2:0.002865 3:0.034384 4:0.063037 5:0.088825 6:0.048711 7:0.051576 8:0.057307 9:0.071633 10:0.097421 11:0.040115 12:0.045845 13:0.04298 14:0.034384 15:0.031519 16:0.028653 17:0.057307 18:0.051576 19:0.017192 20:0.048711 
-1.044340221339682 1:0.061678 2:0.034539 3:0.044408 4:0.0625 5:0.032072 6:0.072368 7:0.023026 8:0.078125 9:0.063322 10:0.078947 11:0.015625 12:0.041941 13:0.027961 14:0.025493 15:0.04523 16:0.111842 17:0.066612 18:0.089638 19:0.004934 20:0.019737 
-0.2568942785090598 1:0.043103 2:0 3:0.043103 4:0.043103 5:0.060345 6:0.094828 7:0.017241 8:0.146552 9:0 10:0.155172 11:0.025862 12:0.017241 13:0.025862 14:0.025862 15:0.077586 16:0.068966 17:0.034483 18:0.068966 19:0.017241 20:0.034483 
-3.149729489851429 1:0.046053 2:0.016447 3:0.059211 4:0.088816 5:0.082237 6:0.049342 7:0.023026 8:0.075658 9:0.036184 10:0.095395 11:0.006579 12:0.039474 13:0.069079 14:0.032895 15:0.0625 16:0.049342 17:0.0625 18:0.069079 19:0.006579 20:0.029605 
-4 1:0.057011 2:0.033898 3:0.03698 4:0.064715 5:0.047766 6:0.047766 7:0.024653 8:0.058552 9:0.057011 10:0.09245 11:0.024653 12:0.049307 13:0.05547 14:0.052388 15:0.047766 16:0.07396 17:0.057011 18:0.057011 19:0.023112 20:0.038521 
-4 1:0.054591 2:0.016749 3:0.066377 4:0.065757 5:0.049007 6:0.060794 7:0.014268 8:0.060794 9:0.061414 10:0.094913 11:0.01861 12:0.057692 13:0.03536 14:0.031638 15:0.058933 16:0.075682 17:0.058313 18:0.07072 19:0.013027 20:0.03536 
-1.512842717434358 1:0.076233 2:0.008969 3:0.052317 4:0.041854 5:0.047833 6:0.073244 7:0.026906 8:0.043348 9:0.043348 10:0.061286 11:0.032885 12:0.082212 13:0.050822 14:0.037369 15:0.043348 16:0.103139 17:0.064275 18:0.058296 19:0.014948 20:0.037369 
-4 1:0.074919 2:0.016287 3:0.032573 4:0.039088 5:0.04886 6:0.084691 7:0.003257 8:0.065147 9:0.087948 10:0.074919 11:0.045603 12:0.045603 13:0.042345 14:0.032573 15:0.045603 16:0.065147 17:0.058632 18:0.084691 19:0.009772 20:0.042345 
-2.458596987310246 1:0.036975 2:0.053782 3:0.047059 4:0.057143 5:0.057143 6:0.053782 7:0.023529 8:0.058824 9:0.060504 10:0.080672 11:0.013445 12:0.040336 13:0.058824 14:0.043697 15:0.063866 16:0.068908 17:0.055462 18:0.065546 19:0.015126 20:0.045378 
-4 1:0.057355 2:0.020243 3:0.062078 4:0.056005 5:0.047233 6:0.067476 7:0.027665 8:0.05803 9:0.061404 10:0.069501 11:0.027665 12:0.049933 13:0.048583 14:0.033063 15:0.048583 16:0.10054 17:0.047908 18:0.066802 19:0.012821 20:0.037112 
-0.06802666841808618 1:0.055556 2:0.008547 3:0.042735 4:0.064103 5:0.064103 6:0.08547 7:0.008547 8:0.081197 9:0.051282 10:0.076923 11:0.025641 12:0.034188 13:0.042735 14:0.017094 15:0.025641 16:0.064103 17:0.059829 18:0.115385 19:0.017094 20:0.059829 
-3.741747233820097 1:0.054455 2:0.011551 3:0.036304 4:0.036304 5:0.041254 6:0.125413 7:0.036304 8:0.062706 9:0.037954 10:0.070957 11:0.034653 12:0.041254 13:0.064356 14:0.041254 15:0.051155 16:0.070957 17:0.054455 18:0.084158 19:0.011551 20:0.033003 
-1.40221907428517 1:0.058929 2:0.019643 3:0.042857 4:0.05 5:0.064286 6:0.060714 7:0.035714 8:0.05 9:0.067857 10:0.1125 11:0.026786 12:0.023214 13:0.041071 14:0.026786 15:0.053571 16:0.076786 17:0.076786 18:0.073214 19:0.014286 20:0.025 
-1.155033020032872 1:0.079937 2:0.029781 3:0.029781 4:0.056426 5:0.029781 6:0.084639 7:0.051724 8:0.018809 9:0.012539 10:0.125392 11:0.014107 12:0.017241 13:0.07837 14:0.03605 15:0.07837 16:0.094044 17:0.053292 18:0.059561 19:0.020376 20:0.029781 
-0.6409416192115737 1:0.041176 2:0 3:0.011765 4:0.047059 5:0.082353 6:0.070588 7:0 8:0.194118 9:0.105882 10:0.117647 11:0.017647 12:0.035294 13:0.011765 14:0.005882 15:0.041176 16:0.052941 17:0.047059 18:0.047059 19:0.005882 20:0.064706 
-0.1420206546774876 1:0.146245 2:0.003953 3:0.011858 4:0.019763 5:0.067194 6:0.134387 7:0.019763 8:0.083004 9:0.01581 10:0.090909 11:0.01581 12:0.055336 13:0.047431 14:0.003953 15:0.019763 16:0.059289 17:0.067194 18:0.098814 19:0.019763 20:0.019763 
-3.389368733572929 1:0.037572 2:0.021195 3:0.058767 4:0.085742 5:0.047206 6:0.024085 7:0.021195 8:0.086705 9:0.065511 10:0.124277 11:0.021195 12:0.046243 13:0.033719 14:0.043353 15:0.035645 16:0.096339 17:0.047206 18:0.069364 19:0.007707 20:0.026975 
-1.316595617007979 1:0.107001 2:0.021136 3:0.046235 4:0.046235 5:0.046235 6:0.114927 7:0.023778 8:0.047556 9:0.029062 10:0.080581 11:0.018494 12:0.025099 13:0.128137 14:0.023778 15:0.05284 16:0.048877 17:0.046235 18:0.050198 19:0.015852 20:0.027741 
-4 1:0.068433 2:0.015453 3:0.048565 4:0.059603 5:0.055188 6:0.081678 7:0.013245 8:0.065121 9:0.060706 10:0.080574 11:0.027594 12:0.045254 13:0.03532 14:0.04415 15:0.049669 16:0.077263 17:0.050773 18:0.066225 19:0.016556 20:0.038631 
-0.01727960320230174 1:0.071143 2:0.016787 3:0.059952 4:0.06235 5:0.059952 6:0.051958 7:0.017586 8:0.067146 9:0.06235 10:0.094325 11:0.020783 12:0.047162 13:0.027978 14:0.043165 15:0.057554 16:0.055156 17:0.067146 18:0.059153 19:0.015188 20:0.043165 
-4 1:0.077787 2:0.025929 3:0.042351 4:0.067416 5:0.055315 6:0.05618 7:0.020743 8:0.06223 9:0.06828 10:0.110631 11:0.038029 12:0.036301 13:0.041487 14:0.028522 15:0.039758 16:0.050994 17:0.067416 18:0.072602 19:0.0121 20:0.025929 
-4 1:0.072951 2:0.016393 3:0.053279 4:0.07459 5:0.039344 6:0.077869 7:0.013934 8:0.069672 9:0.061475 10:0.090984 11:0.02459 12:0.038525 13:0.048361 14:0.042623 15:0.046721 16:0.057377 17:0.063115 18:0.080328 19:0.009836 20:0.018033 
-4 1:0.096443 2:0.028458 3:0.042688 4:0.06166 5:0.045059 6:0.075099 7:0.03004 8:0.04585 9:0.039526 10:0.100395 11:0.028458 12:0.041897 13:0.040316 14:0.051383 15:0.066403 16:0.057708 17:0.037945 18:0.07668 19:0.008696 20:0.025296 
-3.392540301876152 1:0.093697 2:0.017888 3:0.056218 4:0.043441 5:0.035775 6:0.087734 7:0.016184 8:0.043441 9:0.045145 10:0.096252 11:0.024702 12:0.030664 13:0.051959 14:0.041738 15:0.051107 16:0.082624 17:0.075809 18:0.07155 19:0.00937 20:0.024702 
-1.166378756515786 1:0.221311 2:0 3:0 4:0.008197 5:0.02459 6:0.122951 7:0 8:0.07377 9:0.02459 10:0.081967 11:0.04918 12:0.008197 13:0.016393 14:0.008197 15:0.02459 16:0.139344 17:0.057377 18:0.131148 19:0 20:0.008197 
-0.7346126367161683 1:0.09596 2:0.005051 3:0.050505 4:0.055556 5:0.050505 6:0.075758 7:0.005051 8:0.15404 9:0.085859 10:0.093434 11:0.017677 12:0.017677 13:0.04798 14:0.020202 15:0.025253 16:0.04798 17:0.05303 18:0.068182 19:0.005051 20:0.025253 
-0.4850234278173019 1:0.157459 2:0.024862 3:0.030387 4:0.030387 5:0.033149 6:0.077348 7:0.016575 8:0.013812 9:0.01105 10:0.176796 11:0.005525 12:0.008287 13:0.060773 14:0.035912 15:0.09116 16:0.085635 17:0.044199 18:0.063536 19:0.01105 20:0.022099 
-4 1:0.078261 2:0.010435 3:0.055652 4:0.071304 5:0.041739 6:0.06087 7:0.015652 8:0.052174 9:0.043478 10:0.121739 11:0.031304 12:0.029565 13:0.045217 14:0.041739 15:0.062609 16:0.053913 17:0.048696 18:0.066087 19:0.017391 20:0.052174 
-1.193239488179469 1:0.060185 2:0.00463 3:0.027778 4:0.060185 5:0.037037 6:0.069444 7:0.009259 8:0.069444 9:0.013889 10:0.064815 11:0.00463 12:0.009259 13:0.041667 14:0.009259 15:0.023148 16:0.134259 17:0.217593 18:0.106481 19:0 20:0.037037 
-2.150842064318894 1:0.042269 2:0.010011 3:0.051168 4:0.091212 5:0.041157 6:0.031146 7:0.028921 8:0.064516 9:0.05673 10:0.121246 11:0.012236 12:0.054505 13:0.03782 14:0.048943 15:0.051168 16:0.116796 17:0.048943 18:0.043382 19:0.011123 20:0.036707 
-2.665189078277045 1:0.091603 2:0 3:0.045802 4:0.083969 5:0.022901 6:0.076336 7:0.007634 8:0.114504 9:0.083969 10:0.068702 11:0.030534 12:0.038168 13:0.076336 14:0.007634 15:0.038168 16:0.030534 17:0.030534 18:0.122137 19:0 20:0.030534 
-0.5845307266635318 1:0.04 2:0.01 3:0.04 4:0.08 5:0.02 6:0.05 7:0.01 8:0.16 9:0.06 10:0.1 11:0.01 12:0.03 13:0.07 14:0.01 15:0.05 16:0.07 17:0.04 18:0.11 19:0.02 20:0.02 
-0.7222899670815599 1:0.057971 2:0 3:0.021739 4:0.014493 5:0.166667 6:0.115942 7:0.007246 8:0.123188 9:0.036232 10:0.152174 11:0.014493 12:0.014493 13:0.043478 14:0.021739 15:0.043478 16:0.036232 17:0.043478 18:0.065217 19:0.014493 20:0.007246 
-4 1:0.073327 2:0.014665 3:0.064161 4:0.055912 5:0.047663 6:0.065995 7:0.018332 8:0.074244 9:0.057745 10:0.082493 11:0.026581 12:0.054995 13:0.033914 14:0.025665 15:0.03758 16:0.086159 17:0.063245 18:0.079743 19:0.014665 20:0.022915 
-3.127280495727257 1:0.040724 2:0.037707 3:0.054299 4:0.063348 5:0.036199 6:0.051282 7:0.016591 8:0.06184 9:0.06184 10:0.110106 11:0.019608 12:0.063348 13:0.040724 14:0.040724 15:0.039216 16:0.075415 17:0.064857 18:0.05279 19:0.022624 20:0.046757 
-0.6740150385851386 1:0.038596 2:0.002005 3:0.031579 4:0.036591 5:0.052632 6:0.035088 7:0.014035 8:0.062155 9:0.094737 10:0.112782 11:0.015539 12:0.084211 13:0.040602 14:0.05213 15:0.062657 16:0.078697 17:0.087719 18:0.042105 19:0.015038 20:0.041103 
-1.08029667294384 1:0.052142 2:0.026071 3:0.03352 4:0.063315 5:0.039106 6:0.040968 7:0.020484 8:0.05959 9:0.063315 10:0.094972 11:0.040968 12:0.05959 13:0.054004 14:0.020484 15:0.065177 16:0.05959 17:0.078212 18:0.063315 19:0.013035 20:0.052142 
-4 1:0.091205 2:0.021716 3:0.058632 4:0.068404 5:0.053203 6:0.096634 7:0.018458 8:0.051031 9:0.038002 10:0.103149 11:0.014115 12:0.021716 13:0.045603 14:0.024973 15:0.052117 16:0.053203 17:0.052117 18:0.091205 19:0.014115 20:0.030402 
-3.331981975454853 1:0.057292 2:0.018229 3:0.0625 4:0.059896 5:0.075521 6:0.052083 7:0.054688 8:0.03125 9:0.070313 10:0.119792 11:0.023438 12:0.033854 13:0.046875 14:0.018229 15:0.026042 16:0.046875 17:0.054688 18:0.0625 19:0.023438 20:0.0625 
-0.9162902069064447 1:0.051601 2:0.02669 3:0.05694 4:0.032028 5:0.062278 6:0.065836 7:0.012456 8:0.074733 9:0.053381 10:0.087189 11:0.030249 12:0.069395 13:0.060498 14:0.037367 15:0.023132 16:0.065836 17:0.069395 18:0.069395 19:0.010676 20:0.040925 
-0.1795087043490452 1:0.084746 2:0.016949 3:0 4:0.016949 5:0.084746 6:0.067797 7:0.016949 8:0.144068 9:0.025424 10:0.144068 11:0.076271 12:0.050847 13:0.025424 14:0.025424 15:0.016949 16:0.067797 17:0.067797 18:0.050847 19:0 20:0.016949 
-3.056487739989854 1:0.118705 2:0.017986 3:0.052758 4:0.043165 5:0.027578 6:0.063549 7:0.017986 8:0.044365 9:0.034772 10:0.088729 11:0.021583 12:0.05036 13:0.047962 14:0.065947 15:0.043165 16:0.082734 17:0.080336 18:0.067146 19:0.010791 20:0.020384 
-1.120642270173539 1:0.086134 2:0.006303 3:0.039916 4:0.063025 5:0.031513 6:0.142857 7:0.134454 8:0.029412 9:0.02521 10:0.117647 11:0.012605 12:0.008403 13:0.042017 14:0.016807 15:0.037815 16:0.079832 17:0.039916 18:0.067227 19:0.012605 20:0.006303 
-0.8543396039003183 1:0.164905 2:0.031712 3:0.048626 4:0.02537 5:0.042283 6:0.073996 7:0.006342 8:0.040169 9:0.016913 10:0.109937 11:0.016913 12:0.023256 13:0.095137 14:0.016913 15:0.080338 16:0.069767 17:0.033827 18:0.065539 19:0.019027 20:0.019027 
-0.8541867037840474 1:0.038055 2:0.006342 3:0.063425 4:0.046512 5:0.057082 6:0.038055 7:0.023256 8:0.054968 9:0.044397 10:0.095137 11:0.044397 12:0.029598 13:0.05074 14:0.031712 15:0.073996 16:0.090909 17:0.071882 18:0.071882 19:0.02537 20:0.042283 
-4 1:0.073052 2:0.006494 3:0.04789 4:0.076299 5:0.043831 6:0.073864 7:0.030844 8:0.038149 9:0.040584 10:0.12987 11:0.018669 12:0.012987 13:0.091721 14:0.027597 15:0.066558 16:0.077922 17:0.049513 18:0.068182 19:0.010552 20:0.015422 
-4 1:0.069272 2:0.017762 3:0.071048 4:0.095915 5:0.042629 6:0.053286 7:0.008881 8:0.042629 9:0.072824 10:0.087034 11:0.023091 12:0.058615 13:0.031972 14:0.05151 15:0.044405 16:0.053286 17:0.058615 18:0.081705 19:0.012433 20:0.023091 
-1.050983226583263 1:0.190909 2:0 3:0.022727 4:0.022727 5:0.059091 6:0.177273 7:0 8:0.095455 9:0.027273 10:0.122727 11:0.031818 12:0.013636 13:0.031818 14:0.027273 15:0.004545 16:0.036364 17:0.040909 18:0.081818 19:0.004545 20:0.009091 
-0.3320046738136551 1:0.076923 2:0.032967 3:0.010989 4:0.032967 5:0.098901 6:0.142857 7:0.021978 8:0.131868 9:0.043956 10:0.131868 11:0.010989 12:0.021978 13:0.010989 14:0.021978 15:0 16:0.032967 17:0.043956 18:0.076923 19:0.021978 20:0.032967 
