svm_type c_svc
kernel_type rbf
gamma 128
nr_class 2
total_sv 88
rho -0.855845
label 1 -1
nr_sv 64 24
SV
4 1:0.067797 2:0 3:0.061017 4:0.050847 5:0.037288 6:0.061017 7:0.016949 8:0.064407 9:0.064407 10:0.111864 11:0.037288 12:0.037288 13:0.033898 14:0.077966 15:0.071186 16:0.040678 17:0.067797 18:0.057627 19:0 20:0.040678 
0.2408414010305684 1:0.058052 2:0.014981 3:0.052434 4:0.052434 5:0.041199 6:0.069288 7:0.037453 8:0.086142 9:0.059925 10:0.095506 11:0.016854 12:0.073034 13:0.035581 14:0.026217 15:0.02809 16:0.088015 17:0.078652 18:0.052434 19:0.003745 20:0.029963 
4 1:0.101373 2:0.016895 3:0.047518 4:0.072862 5:0.040127 6:0.090813 7:0.019007 8:0.041183 9:0.04963 10:0.090813 11:0.032735 12:0.033791 13:0.051742 14:0.042239 15:0.06019 16:0.053854 17:0.04963 18:0.080253 19:0.009504 20:0.015839 
1.529548769205973 1:0.088312 2:0.015584 3:0.05974 4:0.067532 5:0.05974 6:0.077922 7:0.020779 8:0.044156 9:0.062338 10:0.054545 11:0.015584 12:0.023377 13:0.080519 14:0.031169 15:0.062338 16:0.064935 17:0.051948 18:0.057143 19:0.025974 20:0.036364 
3.29977463304507 1:0.052452 2:0.009122 3:0.061574 4:0.078677 5:0.038769 6:0.053592 7:0.013683 8:0.08894 9:0.058153 10:0.125428 11:0.014823 12:0.063854 13:0.026226 14:0.050171 15:0.053592 16:0.055872 17:0.051311 18:0.052452 19:0.007982 20:0.04333 
0.1155195301901557 1:0.095238 2:0 3:0.047619 4:0.142857 5:0 6:0.047619 7:0 8:0.047619 9:0.095238 10:0 11:0 12:0.047619 13:0 14:0.047619 15:0.047619 16:0.190476 17:0.095238 18:0.095238 19:0 20:0 
0.2534575904659268 1:0.068592 2:0.00361 3:0.054152 4:0.036101 5:0.036101 6:0.072202 7:0.043321 8:0.043321 9:0.072202 10:0.104693 11:0.01444 12:0.061372 13:0.025271 14:0.021661 15:0.021661 16:0.108303 17:0.093863 18:0.083032 19:0.00361 20:0.032491 
1.086733396594616 1:0.106227 2:0 3:0.03663 4:0.043956 5:0.054945 6:0.120879 7:0.010989 8:0.051282 9:0.054945 10:0.113553 11:0.025641 12:0.03663 13:0.062271 14:0.043956 15:0.03663 16:0.069597 17:0.040293 18:0.040293 19:0.018315 20:0.032967 
0.7584729046814699 1:0.063291 2:0 3:0.050633 4:0.07173 5:0.054852 6:0.029536 7:0.012658 8:0.084388 9:0.097046 10:0.105485 11:0.050633 12:0.067511 13:0.021097 14:0.037975 15:0.037975 16:0.080169 17:0.033755 18:0.042194 19:0.004219 20:0.054852 
0.1515328848120761 1:0.162162 2:0 3:0.027027 4:0 5:0.027027 6:0.054054 7:0 8:0.081081 9:0 10:0.216216 11:0.054054 12:0.027027 13:0.027027 14:0.027027 15:0.135135 16:0.081081 17:0 18:0.054054 19:0.027027 20:0 
0.7206964021801274 1:0.082278 2:0.014768 3:0.065401 4:0.052743 5:0.042194 6:0.097046 7:0.006329 8:0.048523 9:0.061181 10:0.06962 11:0.042194 12:0.056962 13:0.044304 14:0.044304 15:0.050633 16:0.050633 17:0.054852 18:0.075949 19:0.006329 20:0.033755 
0.05149266235102313 1:0.082353 2:0.023529 3:0.047059 4:0.082353 5:0.035294 6:0.082353 7:0.011765 8:0.070588 9:0.070588 10:0.035294 11:0.035294 12:0.129412 13:0.023529 14:0.035294 15:0.011765 16:0.070588 17:0.058824 18:0.070588 19:0.011765 20:0.011765 
0.1436292201676046 1:0.266667 2:0 3:0.066667 4:0.066667 5:0 6:0 7:0 8:0 9:0.066667 10:0.2 11:0 12:0 13:0 14:0.066667 15:0 16:0.066667 17:0.133333 18:0.066667 19:0 20:0 
4 1:0.079077 2:0.018122 3:0.052718 4:0.057661 5:0.041186 6:0.087315 7:0.023064 8:0.054366 9:0.07084 10:0.093904 11:0.024712 12:0.034596 13:0.047776 14:0.024712 15:0.037891 16:0.057661 17:0.060956 18:0.087315 19:0.01318 20:0.032949 
0.1463755437205576 1:0 2:0.041667 3:0.208333 4:0.083333 5:0.083333 6:0.041667 7:0.041667 8:0.041667 9:0.083333 10:0 11:0.083333 12:0 13:0.083333 14:0 15:0 16:0 17:0.041667 18:0.083333 19:0.083333 20:0 
0.04110341606151485 1:0.09375 2:0.052083 3:0.114583 4:0.125 5:0.041667 6:0.0625 7:0.010417 8:0.041667 9:0.041667 10:0.052083 11:0 12:0 13:0.03125 14:0.03125 15:0.010417 16:0.083333 17:0.0625 18:0.104167 19:0 20:0.041667 
0.0008204084220357335 1:0.082803 2:0 3:0.031847 4:0.095541 5:0.038217 6:0.012739 7:0 8:0.095541 9:0.082803 10:0.127389 11:0.025478 12:0.050955 13:0.006369 14:0.101911 15:0.019108 16:0.089172 17:0.044586 18:0.031847 19:0 20:0.063694 
0.1775353779489034 1:0.101617 2:0.004619 3:0.062356 4:0.062356 5:0.036952 6:0.094688 7:0.013857 8:0.057737 9:0.092379 10:0.115473 11:0.013857 12:0.025404 13:0.048499 14:0.016166 15:0.020785 16:0.083141 17:0.046189 18:0.08776 19:0.004619 20:0.011547 
0.09874462217375726 1:0.126943 2:0.018135 3:0.072539 4:0.03886 5:0.033679 6:0.080311 7:0.010363 8:0.054404 9:0.072539 10:0.054404 11:0.028497 12:0.031088 13:0.046632 14:0.023316 15:0.044041 16:0.056995 17:0.069948 18:0.093264 19:0.012953 20:0.031088 
0.6744000149576403 1:0.122905 2:0.01676 3:0.041899 4:0.067039 5:0.036313 6:0.067039 7:0 8:0.047486 9:0.075419 10:0.094972 11:0.027933 12:0.041899 13:0.03352 14:0.050279 15:0.055866 16:0.064246 17:0.050279 18:0.086592 19:0 20:0.019553 
2.960808747830633 1:0.069767 2:0.02907 3:0.065891 4:0.050388 5:0.042636 6:0.075581 7:0.021318 8:0.077519 9:0.05814 10:0.079457 11:0.023256 12:0.046512 13:0.03876 14:0.03876 15:0.04845 16:0.079457 17:0.056202 18:0.05814 19:0.005814 20:0.034884 
2.329727576877609 1:0.08776 2:0.013857 3:0.057737 4:0.071594 5:0.053118 6:0.076212 7:0.018476 8:0.073903 9:0.080831 10:0.078522 11:0.020785 12:0.034642 13:0.034642 14:0.018476 15:0.039261 16:0.053118 17:0.073903 18:0.057737 19:0.018476 20:0.036952 
3.65894904350018 1:0.047855 2:0.013201 3:0.064356 4:0.051155 5:0.044554 6:0.054455 7:0.028053 8:0.067657 9:0.072607 10:0.084158 11:0.009901 12:0.072607 13:0.069307 14:0.036304 15:0.041254 16:0.077558 17:0.047855 18:0.064356 19:0.013201 20:0.039604 
3.741049190044993 1:0.123711 2:0.010309 3:0.036082 4:0.069588 5:0.025773 6:0.079897 7:0.007732 8:0.043814 9:0.061856 10:0.090206 11:0.023196 12:0.043814 13:0.051546 14:0.046392 15:0.046392 16:0.061856 17:0.056701 18:0.069588 19:0.018041 20:0.033505 
4 1:0.090461 2:0.011513 3:0.052632 4:0.054276 5:0.039474 6:0.085526 7:0.027961 8:0.064145 9:0.067434 10:0.083882 11:0.03125 12:0.036184 13:0.050987 14:0.029605 15:0.044408 16:0.050987 17:0.052632 18:0.080592 19:0.014803 20:0.03125 
0.3078399622053052 1:0.045872 2:0.018349 3:0.06422 4:0.036697 5:0.027523 6:0.036697 7:0.027523 8:0.100917 9:0.082569 10:0.06422 11:0.027523 12:0.045872 13:0.055046 14:0.036697 15:0.027523 16:0.06422 17:0.091743 18:0.110092 19:0.018349 20:0.018349 
0.3189150040472693 1:0.14375 2:0.00625 3:0.060417 4:0.054167 5:0.033333 6:0.089583 7:0.010417 8:0.045833 9:0.072917 10:0.114583 11:0.014583 12:0.025 13:0.047917 14:0.0125 15:0.039583 16:0.072917 17:0.052083 18:0.091667 19:0.004167 20:0.008333 
2.613872504947572 1:0.090526 2:0.033684 3:0.058947 4:0.054737 5:0.042105 6:0.098947 7:0.027368 8:0.044211 9:0.054737 10:0.086316 11:0.021053 12:0.035789 13:0.029474 14:0.023158 15:0.058947 16:0.04 17:0.069474 18:0.063158 19:0.016842 20:0.050526 
0.08227801828893816 1:0.101887 2:0.003774 3:0.056604 4:0.041509 5:0.067925 6:0.113208 7:0.011321 8:0.026415 9:0.049057 10:0.101887 11:0.030189 12:0.05283 13:0.064151 14:0.026415 15:0.026415 16:0.045283 17:0.045283 18:0.083019 19:0.022642 20:0.030189 
2.15524367018881 1:0.062602 2:0.012195 3:0.064228 4:0.079675 5:0.045528 6:0.066667 7:0.030894 8:0.052033 9:0.070732 10:0.080488 11:0.01626 12:0.047967 13:0.043089 14:0.034146 15:0.052033 16:0.074797 17:0.04878 18:0.070732 19:0.019512 20:0.027642 
4 1:0.059406 2:0.009901 3:0.049505 4:0.044554 5:0.044554 6:0.056931 7:0.066832 8:0.044554 9:0.049505 10:0.108911 11:0.022277 12:0.042079 13:0.079208 14:0.014851 15:0.044554 16:0.066832 17:0.042079 18:0.066832 19:0.037129 20:0.049505 
0.4023662162817094 1:0.073892 2:0.014778 3:0.064039 4:0.073892 5:0.024631 6:0.078818 7:0.014778 8:0.08867 9:0.044335 10:0.083744 11:0.054187 12:0.034483 13:0.044335 14:0.034483 15:0.044335 16:0.049261 17:0.029557 18:0.08867 19:0.009852 20:0.049261 
1.544356166105165 1:0.094708 2:0.008357 3:0.052925 4:0.086351 5:0.058496 6:0.089136 7:0.019499 8:0.069638 9:0.052925 10:0.075209 11:0.022284 12:0.05571 13:0.027855 14:0.02507 15:0.027855 16:0.064067 17:0.050139 18:0.083565 19:0.002786 20:0.033426 
0.3204132152246939 1:0.109091 2:0.019835 3:0.05124 4:0.06281 5:0.036364 6:0.092562 7:0.016529 8:0.042975 9:0.049587 10:0.077686 11:0.033058 12:0.034711 13:0.05124 14:0.029752 15:0.061157 16:0.052893 17:0.041322 18:0.090909 19:0.013223 20:0.033058 
0.2090230807164492 1:0.091892 2:0.005405 3:0.048649 4:0.043243 5:0.032432 6:0.032432 7:0.010811 8:0.108108 9:0.097297 10:0.124324 11:0.021622 12:0.048649 13:0.016216 14:0.054054 15:0.016216 16:0.102703 17:0.086486 18:0.043243 19:0 20:0.016216 
0.7613103506531832 1:0.063315 2:0.011173 3:0.037244 4:0.05959 5:0.035382 6:0.111732 7:0.007449 8:0.052142 9:0.05959 10:0.113594 11:0.01676 12:0.035382 13:0.072626 14:0.022346 15:0.055866 16:0.087523 17:0.054004 18:0.068901 19:0.009311 20:0.026071 
1.177019863335941 1:0.097222 2:0.048611 3:0.0625 4:0.0625 5:0.055556 6:0.041667 7:0.027778 8:0.027778 9:0.0625 10:0.041667 11:0.034722 12:0.034722 13:0.0625 14:0.034722 15:0.0625 16:0.055556 17:0.076389 18:0.083333 19:0.006944 20:0.020833 
1.294451370979674 1:0.066298 2:0.027624 3:0.033149 4:0.055249 5:0.049724 6:0.060773 7:0.022099 8:0.060773 9:0.071823 10:0.071823 11:0.027624 12:0.044199 13:0.071823 14:0.027624 15:0.038674 16:0.088398 17:0.049724 18:0.066298 19:0.022099 20:0.044199 
0.1441776514770893 1:0.25 2:0 3:0 4:0.083333 5:0.083333 6:0.166667 7:0 8:0 9:0 10:0 11:0 12:0.083333 13:0.083333 14:0 15:0 16:0.083333 17:0 18:0.083333 19:0 20:0.083333 
4 1:0.080235 2:0.015656 3:0.048924 4:0.066536 5:0.039139 6:0.072407 7:0.035225 8:0.041096 9:0.046967 10:0.107632 11:0.031311 12:0.039139 13:0.050881 14:0.041096 15:0.068493 16:0.068493 17:0.054795 18:0.062622 19:0.011742 20:0.017613 
4 1:0.072464 2:0.021739 3:0.050725 4:0.057971 5:0.050725 6:0.043478 7:0.014493 8:0.057971 9:0.065217 10:0.072464 11:0.014493 12:0.057971 13:0.057971 14:0.050725 15:0.057971 16:0.065217 17:0.043478 18:0.065217 19:0.021739 20:0.057971 
3.383531553966956 1:0.109051 2:0.017448 3:0.056707 4:0.050164 5:0.033806 6:0.070883 7:0.02072 8:0.057797 9:0.04253 10:0.091603 11:0.022901 12:0.035987 13:0.039258 14:0.037077 15:0.057797 16:0.087241 17:0.050164 18:0.081788 19:0.011996 20:0.025082 
1.022345775601114 1:0.101215 2:0.02834 3:0.044534 4:0.032389 5:0.040486 6:0.089069 7:0.020243 8:0.040486 9:0.044534 10:0.11336 11:0.024291 12:0.048583 13:0.064777 14:0.02834 15:0.032389 16:0.072874 17:0.076923 18:0.064777 19:0.016194 20:0.016194 
0.09385991912448413 1:0.064171 2:0.010695 3:0.032086 4:0.074866 5:0.02139 6:0.058824 7:0.037433 8:0.064171 9:0.144385 10:0.074866 11:0.016043 12:0.032086 13:0.048128 14:0.026738 15:0.037433 16:0.096257 17:0.048128 18:0.090909 19:0.010695 20:0.010695 
0.1202064684793856 1:0.180952 2:0.028571 3:0 4:0.057143 5:0.019048 6:0.066667 7:0 8:0.038095 9:0.057143 10:0.028571 11:0.057143 12:0.047619 13:0.038095 14:0.028571 15:0.085714 16:0.07619 17:0.104762 18:0.07619 19:0 20:0.009524 
0.4420503029441891 1:0.138889 2:0 3:0.027778 4:0 5:0.027778 6:0.027778 7:0 8:0.083333 9:0.027778 10:0.138889 11:0.055556 12:0.027778 13:0.027778 14:0.055556 15:0.083333 16:0.083333 17:0.027778 18:0.111111 19:0.027778 20:0.027778 
2.541607076991274 1:0.079077 2:0.011532 3:0.080725 4:0.047776 5:0.039539 6:0.060956 7:0.021417 8:0.056013 9:0.07743 10:0.072488 11:0.014827 12:0.044481 13:0.074135 14:0.021417 15:0.042834 16:0.072488 17:0.07084 18:0.059308 19:0.014827 20:0.037891 
2.814184382298863 1:0.101365 2:0.013645 3:0.062378 4:0.054581 5:0.031189 6:0.077973 7:0.019493 8:0.08577 9:0.052632 10:0.079922 11:0.02729 12:0.037037 13:0.05848 14:0.025341 15:0.054581 16:0.068226 17:0.046784 18:0.05848 19:0.005848 20:0.038986 
3.749065186505389 1:0.060827 2:0.019465 3:0.053528 4:0.065693 5:0.043796 6:0.053528 7:0.012165 8:0.053528 9:0.058394 10:0.099757 11:0.012165 12:0.053528 13:0.055961 14:0.038929 15:0.053528 16:0.082725 17:0.065693 18:0.068127 19:0.014599 20:0.034063 
0.07223226796409964 1:0.09375 2:0.0625 3:0.125 4:0.052083 5:0.020833 6:0.09375 7:0.010417 8:0.052083 9:0.041667 10:0.072917 11:0 12:0 13:0.03125 14:0.0625 15:0.010417 16:0.083333 17:0.072917 18:0.0625 19:0 20:0.052083 
0.1531538152377944 1:0.084158 2:0.009901 3:0.039604 4:0.044554 5:0.024752 6:0.118812 7:0.044554 8:0.029703 9:0.034653 10:0.108911 11:0.00495 12:0.049505 13:0.059406 14:0.024752 15:0.024752 16:0.084158 17:0.09901 18:0.108911 19:0 20:0.00495 
0.4192085861870929 1:0.065292 2:0 3:0.058419 4:0.079038 5:0.027491 6:0.061856 7:0.013746 8:0.075601 9:0.082474 10:0.123711 11:0.034364 12:0.044674 13:0.030928 14:0.044674 15:0.04811 16:0.054983 17:0.058419 18:0.054983 19:0 20:0.041237 
0.9326818570812105 1:0.117284 2:0.037037 3:0.037037 4:0.049383 5:0.049383 6:0.061728 7:0.018519 8:0.040123 9:0.067901 10:0.070988 11:0.018519 12:0.030864 13:0.061728 14:0.024691 15:0.046296 16:0.074074 17:0.074074 18:0.083333 19:0.009259 20:0.027778 
0.447529424470717 1:0.084871 2:0.020295 3:0.04059 4:0.079336 5:0.031365 6:0.057196 7:0.02214 8:0.066421 9:0.079336 10:0.094096 11:0.01845 12:0.02952 13:0.04059 14:0.027675 15:0.060886 16:0.071956 17:0.051661 18:0.105166 19:0.005535 20:0.012915 
0.01600526708067936 1:0.015625 2:0 3:0.03125 4:0.09375 5:0.03125 6:0.0625 7:0 8:0.046875 9:0.078125 10:0.03125 11:0.015625 12:0.0625 13:0.015625 14:0.015625 15:0.078125 16:0.09375 17:0.0625 18:0.1875 19:0.015625 20:0.0625 
0.3655005152016135 1:0.15102 2:0.004082 3:0.069388 4:0.032653 5:0.053061 6:0.093878 7:0.004082 8:0.032653 9:0.077551 10:0.069388 11:0.008163 12:0.044898 13:0.032653 14:0.02449 15:0.044898 16:0.089796 17:0.040816 18:0.081633 19:0.008163 20:0.036735 
0.3873566980417197 1:0.084871 2:0.012915 3:0.046125 4:0.060886 5:0.042435 6:0.066421 7:0.023985 8:0.046125 9:0.04797 10:0.092251 11:0.02583 12:0.04797 13:0.055351 14:0.04428 15:0.068266 16:0.083026 17:0.064576 18:0.059041 19:0.01107 20:0.016605 
0.125767035695201 1:0.119403 2:0.008529 3:0.046908 4:0.057569 5:0.051173 6:0.1258 7:0.021322 8:0.051173 9:0.057569 10:0.06823 11:0.031983 12:0.025586 13:0.053305 14:0.01919 15:0.040512 16:0.049041 17:0.053305 18:0.08742 19:0.006397 20:0.025586 
0.5457783131107087 1:0.065375 2:0.009685 3:0.062954 4:0.050847 5:0.046005 6:0.09201 7:0.004843 8:0.062954 9:0.062954 10:0.075061 11:0.03632 12:0.065375 13:0.046005 14:0.033898 15:0.053269 16:0.048426 17:0.067797 18:0.075061 19:0.009685 20:0.031477 
0.2760588503385075 1:0.114504 2:0 3:0.068702 4:0.091603 5:0.015267 6:0.053435 7:0.015267 8:0.091603 9:0.030534 10:0.099237 11:0.022901 12:0.045802 13:0.030534 14:0.045802 15:0.076336 16:0.045802 17:0.068702 18:0.068702 19:0.015267 20:0 
0.7081760547507822 1:0.083333 2:0.038889 3:0.033333 4:0.044444 5:0.038889 6:0.072222 7:0.005556 8:0.038889 9:0.066667 10:0.061111 11:0.027778 12:0.022222 13:0.044444 14:0.061111 15:0.033333 16:0.094444 17:0.077778 18:0.083333 19:0.027778 20:0.044444 
2.910617618657661 1:0.109626 2:0.010695 3:0.069519 4:0.034759 5:0.029412 6:0.072193 7:0.02139 8:0.05615 9:0.080214 10:0.069519 11:0.024064 12:0.034759 13:0.032086 14:0.029412 15:0.045455 16:0.066845 17:0.064171 18:0.120321 19:0.013369 20:0.016043 
0.2896852549954464 1:0.111111 2:0 3:0.044444 4:0.081481 5:0.022222 6:0.044444 7:0.007407 8:0.111111 9:0.074074 10:0.111111 11:0.044444 12:0.096296 13:0.014815 14:0.044444 15:0.037037 16:0.051852 17:0.044444 18:0.037037 19:0.014815 20:0.007407 
0.736274983350979 1:0.092896 2:0.032787 3:0.054645 4:0.032787 5:0.054645 6:0.032787 7:0.005464 8:0.038251 9:0.04918 10:0.054645 11:0.043716 12:0.071038 13:0.065574 14:0.060109 15:0.054645 16:0.065574 17:0.065574 18:0.065574 19:0.021858 20:0.038251 
-2.377328167231211 1:0.144578 2:0.012048 3:0.078313 4:0.042169 5:0.078313 6:0.072289 7:0.006024 8:0.066265 9:0.066265 10:0.060241 11:0 12:0.018072 13:0.072289 14:0.006024 15:0.018072 16:0.060241 17:0.066265 18:0.108434 19:0 20:0.024096 
-4 1:0.051282 2:0.011834 3:0.067061 4:0.053254 5:0.057199 6:0.065089 7:0.035503 8:0.043393 9:0.063116 10:0.061144 11:0.015779 12:0.055227 13:0.080868 14:0.033531 15:0.047337 16:0.063116 17:0.067061 18:0.059172 19:0.015779 20:0.053254 
-1.360753532136101 1:0.071186 2:0.030508 3:0.047458 4:0.037288 5:0.057627 6:0.050847 7:0.016949 8:0.023729 9:0.071186 10:0.145763 11:0.020339 12:0.030508 13:0.037288 14:0.050847 15:0.071186 16:0.054237 17:0.037288 18:0.081356 19:0.010169 20:0.054237 
-4 1:0.060694 2:0.017341 3:0.034682 4:0.060694 5:0.037572 6:0.092486 7:0.034682 8:0.060694 9:0.040462 10:0.115607 11:0.014451 12:0.040462 13:0.063584 14:0.031792 15:0.052023 16:0.069364 17:0.052023 18:0.054913 19:0.031792 20:0.034682 
-4 1:0.090909 2:0.007576 3:0.068182 4:0.054924 5:0.041667 6:0.07197 7:0.028409 8:0.056818 9:0.0625 10:0.089015 11:0.028409 12:0.047348 13:0.047348 14:0.032197 15:0.068182 16:0.043561 17:0.054924 18:0.058712 19:0.017045 20:0.030303 
-4 1:0.107649 2:0.022663 3:0.053824 4:0.053824 5:0.028329 6:0.096317 7:0.014164 8:0.070822 9:0.056657 10:0.093484 11:0.025496 12:0.031161 13:0.05949 14:0.022663 15:0.053824 16:0.053824 17:0.03966 18:0.09915 19:0 20:0.016997 
-4 1:0.088012 2:0.013657 3:0.060698 4:0.062215 5:0.033384 6:0.059181 7:0.037936 8:0.051593 9:0.051593 10:0.091047 11:0.042489 12:0.039454 13:0.028832 14:0.042489 15:0.059181 16:0.053111 17:0.068285 18:0.062215 19:0.010622 20:0.044006 
-4 1:0.117318 2:0.005587 3:0.046555 4:0.055866 5:0.029795 6:0.067039 7:0.026071 8:0.039106 9:0.05959 10:0.080074 11:0.024209 12:0.039106 13:0.046555 14:0.055866 15:0.046555 16:0.070764 17:0.055866 18:0.074488 19:0.026071 20:0.03352 
-4 1:0.062834 2:0.010695 3:0.073529 4:0.03877 5:0.045455 6:0.066845 7:0.020053 8:0.064171 9:0.074866 10:0.100267 11:0.020053 12:0.041444 13:0.034759 14:0.041444 15:0.046791 16:0.076203 17:0.061497 18:0.066845 19:0.012032 20:0.041444 
-4 1:0.087778 2:0.006667 3:0.043333 4:0.056667 5:0.05 6:0.08 7:0.02 8:0.062222 9:0.085556 10:0.085556 11:0.013333 12:0.054444 13:0.043333 14:0.031111 15:0.031111 16:0.064444 17:0.062222 18:0.078889 19:0.011111 20:0.032222 
-4 1:0.058824 2:0.009804 3:0.073529 4:0.073529 5:0.029412 6:0.034314 7:0.009804 8:0.078431 9:0.058824 10:0.107843 11:0.019608 12:0.058824 13:0.063725 14:0.053922 15:0.04902 16:0.068627 17:0.053922 18:0.029412 19:0.019608 20:0.04902 
-3.094787838395658 1:0.078987 2:0.013413 3:0.04769 4:0.04769 5:0.040238 6:0.041729 7:0.022355 8:0.078987 9:0.0462 10:0.120715 11:0.023845 12:0.04918 13:0.059613 14:0.0462 15:0.043219 16:0.055142 17:0.058122 18:0.076006 19:0.017884 20:0.032787 
-1.291413569811392 1:0.056213 2:0.02071 3:0.044379 4:0.068047 5:0.056213 6:0.065089 7:0.050296 8:0.056213 9:0.076923 10:0.079882 11:0.029586 12:0.047337 13:0.050296 14:0.04142 15:0.050296 16:0.053254 17:0.050296 18:0.068047 19:0.008876 20:0.026627 
-4 1:0.057279 2:0.031026 3:0.0358 4:0.073986 5:0.069212 6:0.059666 7:0.019093 8:0.069212 9:0.066826 10:0.105012 11:0.019093 12:0.050119 13:0.050119 14:0.02864 15:0.052506 16:0.069212 17:0.047733 18:0.040573 19:0.00716 20:0.047733 
-4 1:0.090361 2:0.018072 3:0.048193 4:0.072289 5:0.048193 6:0.060241 7:0.03012 8:0.048193 9:0.078313 10:0.066265 11:0.012048 12:0.042169 13:0.060241 14:0.024096 15:0.018072 16:0.078313 17:0.066265 18:0.096386 19:0.012048 20:0.03012 
-4 1:0.105903 2:0.010417 3:0.050347 4:0.067708 5:0.039931 6:0.071181 7:0.022569 8:0.029514 9:0.046875 10:0.076389 11:0.038194 12:0.034722 13:0.029514 14:0.043403 15:0.067708 16:0.071181 17:0.069444 18:0.072917 19:0.024306 20:0.027778 
-1.595715349850337 1:0.092025 2:0.030675 3:0.021472 4:0.058282 5:0.021472 6:0.076687 7:0.042945 8:0.027607 9:0.027607 10:0.156442 11:0.009202 12:0.003067 13:0.052147 14:0.042945 15:0.119632 16:0.06135 17:0.039877 18:0.055215 19:0.021472 20:0.039877 
-4 1:0.064516 2:0.020528 3:0.046921 4:0.052786 5:0.035191 6:0.085044 7:0.026393 8:0.055718 9:0.061584 10:0.093842 11:0.017595 12:0.017595 13:0.064516 14:0.038123 15:0.055718 16:0.067449 17:0.061584 18:0.090909 19:0.02346 20:0.020528 
-4 1:0.105516 2:0.019185 3:0.045564 4:0.06235 5:0.033573 6:0.091127 7:0.009592 8:0.079137 9:0.064748 10:0.088729 11:0.019185 12:0.067146 13:0.045564 14:0.038369 15:0.045564 16:0.057554 17:0.035971 18:0.069544 19:0 20:0.021583 
-4 1:0.093625 2:0.00996 3:0.071713 4:0.053785 5:0.037849 6:0.063745 7:0.013944 8:0.061753 9:0.063745 10:0.095618 11:0.021912 12:0.039841 13:0.033865 14:0.035857 15:0.045817 16:0.067729 17:0.055777 18:0.083665 19:0.007968 20:0.041833 
-3.855062226407619 1:0.067194 2:0.017787 3:0.073123 4:0.037549 5:0.065217 6:0.067194 7:0.031621 8:0.045455 9:0.067194 10:0.059289 11:0.019763 12:0.05336 13:0.065217 14:0.045455 15:0.051383 16:0.057312 17:0.059289 18:0.067194 19:0.009881 20:0.039526 
-4 1:0.076866 2:0.028086 3:0.046563 4:0.06578 5:0.04952 6:0.076127 7:0.02439 8:0.069475 9:0.05765 10:0.076866 11:0.031781 12:0.042868 13:0.051737 14:0.036955 15:0.044346 16:0.061345 17:0.051737 18:0.06578 19:0.006652 20:0.035477 
-4 1:0.122642 2:0.023585 3:0.044811 4:0.04717 5:0.021226 6:0.108491 7:0.009434 8:0.056604 9:0.044811 10:0.082547 11:0.028302 12:0.028302 13:0.056604 14:0.044811 15:0.061321 16:0.066038 17:0.054245 18:0.082547 19:0.002358 20:0.014151 
-2.490296934957785 1:0.058824 2:0.022876 3:0.047386 4:0.078431 5:0.04902 6:0.058824 7:0.039216 8:0.04085 9:0.05719 10:0.114379 11:0.026144 12:0.035948 13:0.050654 14:0.039216 15:0.053922 16:0.062092 17:0.050654 18:0.05719 19:0.019608 20:0.037582 
