svm_type c_svc
kernel_type rbf
gamma 128
nr_class 2
total_sv 68
rho -1.50158
label 1 -1
nr_sv 49 19
SV
0.7638485660683884 1:0.064748 2:0.002398 3:0.05036 4:0.059952 5:0.045564 6:0.052758 7:0.019185 8:0.045564 9:0.055156 10:0.136691 11:0.019185 12:0.031175 13:0.064748 14:0.035971 15:0.05036 16:0.103118 17:0.067146 18:0.064748 19:0.009592 20:0.021583 
0.08612518367575824 1:0.05 2:0.033333 3:0.025 4:0.041667 5:0.008333 6:0.016667 7:0.008333 8:0.066667 9:0.075 10:0.133333 11:0.008333 12:0.075 13:0.083333 14:0.041667 15:0.058333 16:0.066667 17:0.066667 18:0.091667 19:0.016667 20:0.033333 
0.4986865766488012 1:0.090452 2:0.002513 3:0.047739 4:0.082915 5:0.027638 6:0.070352 7:0.015075 8:0.050251 9:0.067839 10:0.125628 11:0.020101 12:0.047739 13:0.032663 14:0.040201 15:0.052764 16:0.072864 17:0.047739 18:0.070352 19:0.017588 20:0.017588 
1.136343900545937 1:0.068441 2:0.026616 3:0.064639 4:0.068441 5:0.038023 6:0.117871 7:0.015209 8:0.041825 9:0.102662 10:0.053232 11:0.011407 12:0.026616 13:0.068441 14:0.007605 15:0.022814 16:0.060837 17:0.068441 18:0.076046 19:0.022814 20:0.038023 
0.005454408168272048 1:0.048433 2:0 3:0.058405 4:0.062678 5:0.088319 6:0.041311 7:0.025641 8:0.04416 9:0.075499 10:0.069801 11:0.025641 12:0.058405 13:0.064103 14:0.039886 15:0.032764 16:0.052707 17:0.021368 18:0.075499 19:0.008547 20:0.106838 
1.042435836429757 1:0.052229 2:0.026752 3:0.054777 4:0.077707 5:0.043312 6:0.058599 7:0.035669 8:0.054777 9:0.059873 10:0.089172 11:0.02293 12:0.033121 13:0.047134 14:0.040764 15:0.070064 16:0.052229 17:0.054777 18:0.06242 19:0.012739 20:0.050955 
2.526251926036713 1:0.072658 2:0.028681 3:0.051625 4:0.059273 5:0.063098 6:0.068834 7:0.042065 8:0.045889 9:0.034417 10:0.10325 11:0.022945 12:0.045889 13:0.053537 14:0.030593 15:0.038241 16:0.051625 17:0.055449 18:0.072658 19:0.013384 20:0.045889 
4 1:0.072178 2:0.013123 3:0.048556 4:0.051181 5:0.060367 6:0.089239 7:0.031496 8:0.028871 9:0.02231 10:0.085302 11:0.020997 12:0.031496 13:0.08399 14:0.059055 15:0.049869 16:0.066929 17:0.049869 18:0.074803 19:0.019685 20:0.040682 
0.04657789212104751 1:0.073394 2:0.055046 3:0.027523 4:0.06422 5:0.018349 6:0.073394 7:0.027523 8:0.027523 9:0.009174 10:0.155963 11:0.036697 12:0.06422 13:0.045872 14:0.082569 15:0.045872 16:0.055046 17:0.027523 18:0.055046 19:0.018349 20:0.036697 
0.04808961847249398 1:0.098361 2:0.008197 3:0.040984 4:0.114754 5:0.057377 6:0.081967 7:0.016393 8:0.008197 9:0.065574 10:0.07377 11:0.04918 12:0.02459 13:0.040984 14:0.008197 15:0.016393 16:0.081967 17:0.065574 18:0.098361 19:0.02459 20:0.02459 
1.912302065457877 1:0.037313 2:0.029851 3:0.037313 4:0.067164 5:0.014925 6:0.067164 7:0.014925 8:0.074627 9:0.044776 10:0.097015 11:0.037313 12:0.037313 13:0.074627 14:0.037313 15:0.029851 16:0.097015 17:0.052239 18:0.067164 19:0.022388 20:0.059701 
2.410598196750304 1:0.078329 2:0.018277 3:0.065274 4:0.02611 5:0.057441 6:0.088773 7:0.023499 8:0.046997 9:0.05483 10:0.096606 11:0.018277 12:0.031332 13:0.039164 14:0.046997 15:0.049608 16:0.078329 17:0.070496 18:0.046997 19:0.020888 20:0.041775 
0.4261593001050958 1:0.050584 2:0.023346 3:0.050584 4:0.066148 5:0.015564 6:0.046693 7:0.015564 8:0.054475 9:0.070039 10:0.093385 11:0.019455 12:0.042802 13:0.054475 14:0.050584 15:0.081712 16:0.101167 17:0.050584 18:0.054475 19:0.015564 20:0.042802 
0.2474836206503512 1:0.046632 2:0.024611 3:0.068653 4:0.05829 5:0.050518 6:0.064767 7:0.044041 8:0.051813 9:0.056995 10:0.073834 11:0.023316 12:0.049223 13:0.049223 14:0.03886 15:0.067358 16:0.067358 17:0.055699 18:0.055699 19:0.016839 20:0.036269 
0.05228275856350025 1:0.032258 2:0.024194 3:0.048387 4:0.040323 5:0.032258 6:0.048387 7:0.024194 8:0 9:0.024194 10:0.145161 11:0.032258 12:0.008065 13:0.072581 14:0.048387 15:0.104839 16:0.120968 17:0.064516 18:0.072581 19:0.040323 20:0.016129 
0.8286559154803008 1:0.061538 2:0.026923 3:0.057692 4:0.05 5:0.046154 6:0.088462 7:0.019231 8:0.084615 9:0.026923 10:0.076923 11:0.011538 12:0.053846 13:0.042308 14:0.042308 15:0.030769 16:0.076923 17:0.057692 18:0.084615 19:0.019231 20:0.042308 
0.2185327002227654 1:0.101928 2:0.022039 3:0.055096 4:0.038567 5:0.052342 6:0.104683 7:0.011019 8:0.049587 9:0.013774 10:0.090909 11:0.022039 12:0.035813 13:0.082645 14:0.038567 15:0.041322 16:0.110193 17:0.057851 18:0.057851 19:0.00551 20:0.008264 
1.079263173927153 1:0.113475 2:0.002364 3:0.073286 4:0.016548 5:0.037825 6:0.089835 7:0.014184 8:0.044917 9:0.06383 10:0.082742 11:0.018913 12:0.073286 13:0.037825 14:0.028369 15:0.026005 16:0.082742 17:0.059102 18:0.049645 19:0.021277 20:0.06383 
0.1471608361697017 1:0.036036 2:0.04955 3:0.045045 4:0.058559 5:0.027027 6:0.054054 7:0.031532 8:0.04955 9:0.067568 10:0.130631 11:0.036036 12:0.018018 13:0.063063 14:0.04955 15:0.067568 16:0.058559 17:0.040541 18:0.054054 19:0.027027 20:0.036036 
1.982401970910168 1:0.074219 2:0.019531 3:0.027344 4:0.0625 5:0.042969 6:0.058594 7:0.011719 8:0.023438 9:0.027344 10:0.15625 11:0.015625 12:0.039063 13:0.078125 14:0.074219 15:0.050781 16:0.101563 17:0.035156 18:0.039063 19:0.03125 20:0.03125 
0.7631274450822411 1:0.09607 2:0.048035 3:0.061135 4:0.056769 5:0.045124 6:0.084425 7:0.021834 8:0.042213 9:0.066958 10:0.07278 11:0.02329 12:0.030568 13:0.034934 14:0.030568 15:0.040757 16:0.081514 17:0.058224 18:0.061135 19:0.011645 20:0.032023 
3.384225188449377 1:0.050228 2:0.009132 3:0.057078 4:0.045662 5:0.059361 6:0.089041 7:0.027397 8:0.047945 9:0.041096 10:0.084475 11:0.006849 12:0.086758 13:0.041096 14:0.059361 15:0.031963 16:0.059361 17:0.045662 18:0.070776 19:0.045662 20:0.041096 
0.6088619551821786 1:0.132353 2:0.019608 3:0.058824 4:0.02451 5:0.004902 6:0.053922 7:0.019608 8:0.034314 9:0.039216 10:0.058824 11:0.009804 12:0.063725 13:0.083333 14:0.04902 15:0.039216 16:0.088235 17:0.058824 18:0.068627 19:0.04902 20:0.044118 
0.7868011329680397 1:0.074074 2:0.014815 3:0.066667 4:0.051852 5:0.037037 6:0.051852 7:0.022222 8:0.037037 9:0.096296 10:0.074074 11:0.02963 12:0.074074 13:0.014815 14:0.037037 15:0.051852 16:0.051852 17:0.066667 18:0.044444 19:0.014815 20:0.088889 
0.8270989015433116 1:0.044643 2:0.044643 3:0.053571 4:0.0625 5:0.03125 6:0.075893 7:0.008929 8:0.066964 9:0.049107 10:0.098214 11:0.013393 12:0.040179 13:0.044643 14:0.053571 15:0.053571 16:0.084821 17:0.053571 18:0.035714 19:0.040179 20:0.044643 
0.9631374103211454 1:0.068 2:0.052 3:0.052 4:0.048 5:0.02 6:0.092 7:0.028 8:0.04 9:0.02 10:0.092 11:0.044 12:0.032 13:0.068 14:0.032 15:0.04 16:0.068 17:0.048 18:0.08 19:0.028 20:0.048 
0.3900476432395597 1:0.087349 2:0.006024 3:0.066265 4:0.03012 5:0.057229 6:0.087349 7:0.012048 8:0.039157 9:0.045181 10:0.069277 11:0.021084 12:0.051205 13:0.042169 14:0.039157 15:0.018072 16:0.120482 17:0.087349 18:0.048193 19:0.027108 20:0.045181 
0.4338241973933935 1:0.068852 2:0.062295 3:0.036066 4:0.072131 5:0.009836 6:0.114754 7:0.029508 8:0.016393 9:0.045902 10:0.118033 11:0.022951 12:0.032787 13:0.101639 14:0.052459 15:0.065574 16:0.042623 17:0.039344 18:0.04918 19:0.003279 20:0.016393 
1.011614459427801 1:0.106667 2:0.033333 3:0.013333 4:0.02 5:0.04 6:0.06 7:0.04 8:0.033333 9:0.073333 10:0.113333 11:0.02 12:0.06 13:0.046667 14:0.033333 15:0.06 16:0.106667 17:0.02 18:0.066667 19:0.026667 20:0.026667 
0.9232521278128136 1:0.069231 2:0.030769 3:0.076923 4:0.023077 5:0.046154 6:0.092308 7:0.007692 8:0.038462 9:0.053846 10:0.1 11:0.030769 12:0 13:0.053846 14:0.038462 15:0.061538 16:0.076923 17:0.023077 18:0.092308 19:0.030769 20:0.053846 
1.526721416337125 1:0.064777 2:0.048583 3:0.052632 4:0.016194 5:0.02834 6:0.109312 7:0.016194 8:0.048583 9:0.052632 10:0.089069 11:0.012146 12:0.064777 13:0.040486 14:0.048583 15:0.020243 16:0.109312 17:0.040486 18:0.080972 19:0.016194 20:0.040486 
3.763010695292018 1:0.063177 2:0.023466 3:0.064982 4:0.068592 5:0.036101 6:0.074007 7:0.023466 8:0.043321 9:0.061372 10:0.055957 11:0.019856 12:0.045126 13:0.074007 14:0.028881 15:0.041516 16:0.064982 17:0.070397 18:0.068592 19:0.028881 20:0.043321 
4 1:0.076253 2:0.030501 3:0.067538 4:0.045752 5:0.037037 6:0.089325 7:0.045752 8:0.019608 9:0.043573 10:0.091503 11:0.010893 12:0.023965 13:0.067538 14:0.028322 15:0.061002 16:0.078431 17:0.052288 18:0.058824 19:0.041394 20:0.030501 
1.766250383546767 1:0.059633 2:0.009174 3:0.057339 4:0.059633 5:0.059633 6:0.073394 7:0.022936 8:0.066514 9:0.059633 10:0.100917 11:0.018349 12:0.038991 13:0.050459 14:0.052752 15:0.034404 16:0.087156 17:0.050459 18:0.043578 19:0.018349 20:0.036697 
0.2602168308686234 1:0.106145 2:0.011173 3:0.055866 4:0.036313 5:0.050279 6:0.094972 7:0.01676 8:0.039106 9:0.053073 10:0.072626 11:0.00838 12:0.072626 13:0.058659 14:0.01676 15:0.01676 16:0.078212 17:0.089385 18:0.067039 19:0.01676 20:0.039106 
1.738060545868969 1:0.070313 2:0.007813 3:0.070313 4:0.074219 5:0.050781 6:0.039063 7:0.023438 8:0.054688 9:0.09375 10:0.078125 11:0.03125 12:0.046875 13:0.023438 14:0.03125 15:0.039063 16:0.0625 17:0.058594 18:0.070313 19:0.015625 20:0.058594 
0.1651480015462709 1:0.076046 2:0.019011 3:0.064639 4:0.076046 5:0.015209 6:0.04943 7:0.034221 8:0.060837 9:0.045627 10:0.079848 11:0.019011 12:0.04943 13:0.053232 14:0.030418 15:0.068441 16:0.064639 17:0.064639 18:0.091255 19:0.015209 20:0.022814 
0.5100803052128945 1:0.036199 2:0.022624 3:0.040724 4:0.063348 5:0.063348 6:0.072398 7:0.031674 8:0.040724 9:0.099548 10:0.099548 11:0.0181 12:0.040724 13:0.067873 14:0.049774 15:0.022624 16:0.040724 17:0.049774 18:0.085973 19:0.013575 20:0.040724 
4 1:0.063915 2:0.009321 3:0.04261 4:0.057257 5:0.055925 6:0.073236 7:0.047936 8:0.029294 9:0.031957 10:0.091877 11:0.01731 12:0.037284 13:0.082557 14:0.039947 15:0.058589 16:0.061252 17:0.05992 18:0.070573 19:0.023968 20:0.045273 
0.6532959420580565 1:0.066225 2:0.039735 3:0.039735 4:0.02649 5:0.019868 6:0.092715 7:0.02649 8:0.092715 9:0.07947 10:0.072848 11:0.006623 12:0.039735 13:0.059603 14:0.039735 15:0.039735 16:0.099338 17:0.046358 18:0.05298 19:0.006623 20:0.05298 
0.9928999863280453 1:0.05668 2:0.008097 3:0.068826 4:0.048583 5:0.044534 6:0.137652 7:0.032389 8:0.024291 9:0.052632 10:0.093117 11:0.020243 12:0.040486 13:0.068826 14:0.032389 15:0.02834 16:0.036437 17:0.072874 18:0.068826 19:0.008097 20:0.05668 
1.128758252299962 1:0.069307 2:0.00495 3:0.014851 4:0.009901 5:0.064356 6:0.079208 7:0.054455 8:0.019802 9:0.024752 10:0.168317 11:0.009901 12:0.024752 13:0.084158 14:0.054455 15:0.044554 16:0.113861 17:0.049505 18:0.064356 19:0.009901 20:0.034653 
0.9211612946233622 1:0.092279 2:0.007533 3:0.048964 4:0.026365 5:0.033898 6:0.077213 7:0.041431 8:0.05838 9:0.026365 10:0.082863 11:0.013183 12:0.062147 13:0.084746 14:0.026365 15:0.054614 16:0.065913 17:0.073446 18:0.080979 19:0.013183 20:0.030132 
0.1156361354886755 1:0.1 2:0.021053 3:0.094737 4:0.078947 5:0.042105 6:0.052632 7:0.005263 8:0.026316 9:0.052632 10:0.063158 11:0.031579 12:0.094737 13:0.021053 14:0.031579 15:0.021053 16:0.031579 17:0.063158 18:0.089474 19:0.021053 20:0.057895 
0.1455458797845669 1:0.072917 2:0.026042 3:0.03125 4:0.078125 5:0.020833 6:0.052083 7:0.005208 8:0.041667 9:0.041667 10:0.182292 11:0.020833 12:0.026042 13:0.078125 14:0.036458 15:0.072917 16:0.057292 17:0.0625 18:0.0625 19:0.010417 20:0.020833 
0.3299069532745537 1:0.067769 2:0.052853 3:0.053178 4:0.059987 5:0.026265 6:0.081712 7:0.030804 8:0.037938 9:0.047341 10:0.094358 11:0.014591 12:0.047665 13:0.048962 14:0.04572 15:0.05415 16:0.081064 17:0.057069 18:0.059339 19:0.008106 20:0.031128 
0.3653203456016753 1:0.087819 2:0.055241 3:0.056657 4:0.063739 5:0.036827 6:0.069405 7:0.028329 8:0.028329 9:0.072238 10:0.089235 11:0.007082 12:0.043909 13:0.043909 14:0.031161 15:0.045326 16:0.070822 17:0.049575 18:0.067989 19:0.014164 20:0.038244 
0.7621514672462205 1:0.079848 2:0.038023 3:0.038023 4:0.038023 5:0.026616 6:0.106464 7:0.026616 8:0.038023 9:0.030418 10:0.076046 11:0.026616 12:0.053232 13:0.045627 14:0.038023 15:0.041825 16:0.072243 17:0.072243 18:0.098859 19:0.030418 20:0.022814 
2.487454694633607 1:0.074419 2:0.004651 3:0.051163 4:0.051163 5:0.053488 6:0.060465 7:0.027907 8:0.048837 9:0.046512 10:0.12093 11:0.034884 12:0.039535 13:0.039535 14:0.032558 15:0.04186 16:0.086047 17:0.076744 18:0.062791 19:0.018605 20:0.027907 
-4 1:0.089918 2:0.032698 3:0.073569 4:0.051771 5:0.029973 6:0.059946 7:0.021798 8:0.054496 9:0.046322 10:0.087193 11:0.024523 12:0.032698 13:0.043597 14:0.046322 15:0.051771 16:0.070845 17:0.038147 18:0.06267 19:0.027248 20:0.054496 
-2.536501559270701 1:0.071942 2:0.014388 3:0.115108 4:0.064748 5:0.021583 6:0.100719 7:0.014388 8:0.064748 9:0.064748 10:0.043165 11:0.021583 12:0.043165 13:0.035971 14:0.014388 15:0.021583 16:0.079137 17:0.043165 18:0.057554 19:0.028777 20:0.079137 
-1.142839524296102 1:0.067729 2:0.017928 3:0.057769 4:0.039841 5:0.049801 6:0.065737 7:0.039841 8:0.025896 9:0.023904 10:0.121514 11:0.015936 12:0.035857 13:0.079681 14:0.049801 15:0.063745 16:0.065737 17:0.059761 18:0.059761 19:0.01992 20:0.039841 
-0.1308727164567283 1:0.06383 2:0.024316 3:0.039514 4:0.06383 5:0.018237 6:0.088146 7:0.024316 8:0.042553 9:0.085106 10:0.085106 11:0.024316 12:0.075988 13:0.036474 14:0.033435 15:0.036474 16:0.072948 17:0.033435 18:0.069909 19:0.027356 20:0.054711 
-2.628205684626566 1:0.02649 2:0.019868 3:0.033113 4:0.059603 5:0.033113 6:0.092715 7:0.039735 8:0.039735 9:0.086093 10:0.10596 11:0.019868 12:0.086093 13:0.02649 14:0.033113 15:0.05298 16:0.07947 17:0.05298 18:0.059603 19:0.013245 20:0.039735 
-1.065951610670198 1:0.082935 2:0.027113 3:0.043062 4:0.044657 5:0.038278 6:0.07177 7:0.036683 8:0.033493 9:0.030303 10:0.121212 11:0.014354 12:0.038278 13:0.095694 14:0.033493 15:0.052632 16:0.070175 17:0.044657 18:0.052632 19:0.036683 20:0.031898 
-2.273116091028112 1:0.102102 2:0.03003 3:0.024024 4:0.051051 5:0.048048 6:0.066066 7:0.027027 8:0.033033 9:0.072072 10:0.072072 11:0.033033 12:0.072072 13:0.036036 14:0.048048 15:0.021021 16:0.087087 17:0.039039 18:0.063063 19:0.03003 20:0.045045 
-4 1:0.052174 2:0.023188 3:0.049275 4:0.037681 5:0.034783 6:0.118841 7:0.017391 8:0.066667 9:0.057971 10:0.084058 11:0.023188 12:0.037681 13:0.057971 14:0.04058 15:0.023188 16:0.075362 17:0.055072 18:0.081159 19:0.011594 20:0.052174 
-4 1:0.047778 2:0.012222 3:0.057778 4:0.062222 5:0.058889 6:0.055556 7:0.03 8:0.064444 9:0.058889 10:0.071111 11:0.021111 12:0.06 13:0.038889 14:0.032222 15:0.037778 16:0.075556 17:0.065556 18:0.068889 19:0.027778 20:0.053333 
-2.710002277582156 1:0.065836 2:0.014235 3:0.035587 4:0.049822 5:0.046263 6:0.090747 7:0.030249 8:0.021352 9:0.023132 10:0.113879 11:0.010676 12:0.035587 13:0.080071 14:0.049822 15:0.048043 16:0.097865 17:0.058719 18:0.076512 19:0.019573 20:0.032028 
-2.657707127378243 1:0.08498 2:0.027668 3:0.047431 4:0.041502 5:0.043478 6:0.112648 7:0.035573 8:0.025692 9:0.021739 10:0.132411 11:0.017787 12:0.021739 13:0.096838 14:0.039526 15:0.035573 16:0.06917 17:0.061265 18:0.045455 19:0.005929 20:0.033597 
-3.993579016509055 1:0.058642 2:0.007716 3:0.044753 4:0.060185 5:0.044753 6:0.064815 7:0.029321 8:0.044753 9:0.037037 10:0.100309 11:0.016975 12:0.044753 13:0.054012 14:0.046296 15:0.061728 16:0.058642 17:0.061728 18:0.078704 19:0.027778 20:0.057099 
-4 1:0.040169 2:0.021142 3:0.057082 4:0.052854 5:0.033827 6:0.084567 7:0.040169 8:0.042283 9:0.044397 10:0.109937 11:0.016913 12:0.042283 13:0.084567 14:0.029598 15:0.052854 16:0.065539 17:0.065539 18:0.048626 19:0.023256 20:0.044397 
-3.89708949461897 1:0.082178 2:0.011881 3:0.051485 4:0.044554 5:0.043564 6:0.069307 7:0.026733 8:0.027723 9:0.023762 10:0.107921 11:0.020792 12:0.047525 13:0.067327 14:0.056436 15:0.069307 16:0.059406 17:0.056436 18:0.073267 19:0.026733 20:0.033663 
-1.6397396875281 1:0.073733 2:0.02765 3:0.059908 4:0.046083 5:0.036866 6:0.110599 7:0.013825 8:0.032258 9:0.082949 10:0.041475 11:0.018433 12:0.059908 13:0.046083 14:0.046083 15:0.013825 16:0.087558 17:0.050691 18:0.073733 19:0.023041 20:0.0553 
-3.625074472798841 1:0.072464 2:0.021739 3:0.039855 4:0.039855 5:0.057971 6:0.094203 7:0.028986 8:0.014493 9:0.061594 10:0.086957 11:0.007246 12:0.032609 13:0.072464 14:0.061594 15:0.032609 16:0.097826 17:0.054348 18:0.054348 19:0.036232 20:0.032609 
-4 1:0.10625 2:0.01875 3:0.059375 4:0.065625 5:0.05 6:0.090625 7:0.025 8:0.046875 9:0.071875 10:0.034375 11:0.03125 12:0.04375 13:0.04375 14:0.025 15:0.046875 16:0.05625 17:0.06875 18:0.08125 19:0.0125 20:0.021875 
-4 1:0.07767 2:0.013592 3:0.050485 4:0.038835 5:0.058252 6:0.067961 7:0.023301 8:0.042718 9:0.040777 10:0.108738 11:0.019417 12:0.036893 13:0.064078 14:0.034951 15:0.050485 16:0.083495 17:0.062136 18:0.062136 19:0.025243 20:0.038835 
-2.881584775071869 1:0.062771 2:0.010823 3:0.051948 4:0.062771 5:0.04329 6:0.069264 7:0.034632 8:0.028139 9:0.054113 10:0.093074 11:0.019481 12:0.04329 13:0.062771 14:0.032468 15:0.036797 16:0.0671 17:0.049784 18:0.069264 19:0.062771 20:0.045455 
