svm_type c_svc
kernel_type rbf
gamma 128
nr_class 2
total_sv 48
rho 1.00868
label 1 -1
nr_sv 9 39
SV
3.905057734991455 1:0.070718 2:0.00884 3:0.062983 4:0.077348 5:0.045304 6:0.037569 7:0.01989 8:0.076243 9:0.055249 10:0.093923 11:0.01989 12:0.041989 13:0.037569 14:0.027624 15:0.049724 16:0.097238 17:0.057459 18:0.091713 19:0.00221 20:0.026519 
4 1:0.085239 2:0.017672 3:0.057173 4:0.067568 5:0.031185 6:0.040541 7:0.02183 8:0.064449 9:0.059252 10:0.121622 11:0.025988 12:0.050936 13:0.039501 14:0.047817 15:0.044699 16:0.061331 17:0.057173 18:0.074844 19:0.005198 20:0.025988 
4 1:0.071864 2:0.01827 3:0.048721 4:0.059683 5:0.028015 6:0.047503 7:0.01827 8:0.063337 9:0.049939 10:0.120585 11:0.032887 12:0.051157 13:0.052375 14:0.046285 15:0.052375 16:0.073082 17:0.069428 18:0.066991 19:0.003654 20:0.025579 
4 1:0.037825 2:0.007092 3:0.040189 4:0.089835 5:0.049645 6:0.056738 7:0.023641 8:0.066194 9:0.07565 10:0.082742 11:0.028369 12:0.044917 13:0.047281 14:0.026005 15:0.052009 16:0.082742 17:0.040189 18:0.094563 19:0.014184 20:0.040189 
3.594321161521875 1:0.038462 2:0.019231 3:0.064103 4:0.070513 5:0.032051 6:0.032051 7:0.025641 8:0.083333 9:0.083333 10:0.102564 11:0.057692 12:0.051282 13:0.019231 14:0.012821 15:0.044872 16:0.057692 17:0.064103 18:0.083333 19:0.00641 20:0.051282 
4 1:0.070866 2:0.006749 3:0.068616 4:0.086614 5:0.048369 6:0.070866 7:0.015748 8:0.046119 9:0.057368 10:0.087739 11:0.008999 12:0.058493 13:0.035996 14:0.031496 15:0.033746 16:0.074241 17:0.061867 18:0.07649 19:0.022497 20:0.03712 
3.995150053179328 1:0.06738 2:0.011765 3:0.063102 4:0.073797 5:0.052406 6:0.026738 7:0.014973 8:0.072727 9:0.063102 10:0.118717 11:0.012834 12:0.062032 13:0.036364 14:0.037433 15:0.037433 16:0.103743 17:0.056684 18:0.062032 19:0.002139 20:0.024599 
4 1:0.090339 2:0.027604 3:0.053952 4:0.056462 5:0.028858 6:0.081556 7:0.035132 8:0.033877 9:0.031368 10:0.080301 11:0.010038 12:0.041405 13:0.06399 14:0.045169 15:0.058971 16:0.071518 17:0.069009 18:0.071518 19:0.02133 20:0.027604 
4 1:0.067293 2:0.007825 3:0.050078 4:0.078247 5:0.025039 6:0.045383 7:0.01252 8:0.035994 9:0.057903 10:0.118936 11:0.028169 12:0.039124 13:0.101721 14:0.054773 15:0.043818 16:0.093897 17:0.057903 18:0.057903 19:0.00939 20:0.014085 
-2.18560352984888 1:0.055432 2:0.007761 3:0.06541 4:0.069845 5:0.029933 6:0.04102 7:0.019956 8:0.067627 9:0.092018 10:0.12306 11:0.025499 12:0.055432 13:0.034368 14:0.029933 15:0.046563 16:0.101996 17:0.052106 18:0.052106 19:0.003326 20:0.026608 
-0.02776844272897016 1:0.074597 2:0.014113 3:0.078629 4:0.050403 5:0.064516 6:0.058468 7:0.040323 8:0.032258 9:0.03629 10:0.072581 11:0.022177 12:0.042339 13:0.078629 14:0.024194 15:0.082661 16:0.044355 17:0.058468 18:0.072581 19:0.016129 20:0.03629 
-2.240386257195816 1:0.073836 2:0.004815 3:0.0626 4:0.069021 5:0.035313 6:0.077047 7:0.011236 8:0.057785 9:0.051364 10:0.101124 11:0.033708 12:0.049759 13:0.040128 14:0.035313 15:0.067416 16:0.057785 17:0.044944 18:0.083467 19:0.012841 20:0.030498 
-0.0954761023896171 1:0.090508 2:0.00883 3:0.04415 4:0.046358 5:0.048565 6:0.075055 7:0.019868 8:0.055188 9:0.03532 10:0.07947 11:0.02649 12:0.055188 13:0.072848 14:0.030905 15:0.050773 16:0.090508 17:0.072848 18:0.066225 19:0.002208 20:0.028698 
-0.3411575938134443 1:0.08125 2:0.023438 3:0.046875 4:0.059375 5:0.040625 6:0.1 7:0.023438 8:0.046875 9:0.035937 10:0.090625 11:0.028125 12:0.03125 13:0.079687 14:0.035937 15:0.071875 16:0.053125 17:0.05 18:0.057813 19:0.028125 20:0.015625 
-0.5145898186934936 1:0.065703 2:0.013141 3:0.057819 4:0.072273 5:0.043364 6:0.070959 7:0.017083 8:0.065703 9:0.069645 10:0.067017 11:0.031537 12:0.04205 13:0.043364 14:0.038108 15:0.055191 16:0.072273 17:0.059133 18:0.085414 19:0.002628 20:0.027595 
-0.5772985722137988 1:0.055556 2:0.007663 3:0.05364 4:0.074713 5:0.063218 6:0.051724 7:0.028736 8:0.070881 9:0.076628 10:0.09387 11:0.030651 12:0.047893 13:0.045977 14:0.030651 15:0.051724 16:0.045977 17:0.063218 18:0.051724 19:0.01341 20:0.042146 
-1.050359568161615 1:0.077121 2:0.012853 3:0.041131 4:0.089974 5:0.017995 6:0.046272 7:0.028278 8:0.059126 9:0.059126 10:0.092545 11:0.033419 12:0.03856 13:0.028278 14:0.066838 15:0.061697 16:0.089974 17:0.046272 18:0.089974 19:0.007712 20:0.012853 
-0.02496077715675326 1:0.118343 2:0.011834 3:0.011834 4:0.023669 5:0.04142 6:0.118343 7:0.029586 8:0.005917 9:0.017751 10:0.136095 11:0.023669 12:0.017751 13:0.08284 14:0.023669 15:0.04142 16:0.04142 17:0.047337 18:0.076923 19:0.076923 20:0.053254 
-0.01442200122726069 1:0.057143 2:0.009524 3:0.066667 4:0.066667 5:0.085714 6:0.114286 7:0.038095 8:0.028571 9:0 10:0.07619 11:0.019048 12:0 13:0.066667 14:0.047619 15:0.095238 16:0.07619 17:0.038095 18:0.047619 19:0.047619 20:0.019048 
-0.5700734735554457 1:0.075812 2:0.00722 3:0.028881 4:0.079422 5:0.057762 6:0.046931 7:0.032491 8:0.043321 9:0.054152 10:0.122744 11:0.021661 12:0.036101 13:0.039711 14:0.054152 15:0.064982 16:0.075812 17:0.046931 18:0.054152 19:0.025271 20:0.032491 
-0.07376571027509134 1:0.064516 2:0.013441 3:0.034946 4:0.056452 5:0.026882 6:0.061828 7:0.018817 8:0.061828 9:0.069892 10:0.102151 11:0.013441 12:0.034946 13:0.080645 14:0.05914 15:0.05914 16:0.067204 17:0.048387 18:0.077957 19:0.024194 20:0.024194 
-0.925310639775845 1:0.071567 2:0.016441 3:0.052224 4:0.053191 5:0.033849 6:0.059961 7:0.032882 8:0.065764 9:0.060928 10:0.112186 11:0.026112 12:0.051257 13:0.055126 14:0.033849 15:0.040619 16:0.083172 17:0.058994 18:0.054159 19:0.004836 20:0.032882 
-0.1079374286411887 1:0.122449 2:0.006803 3:0.044218 4:0.05102 5:0.027211 6:0.095238 7:0.027211 8:0.027211 9:0.027211 10:0.119048 11:0.010204 12:0.040816 13:0.064626 14:0.027211 15:0.095238 16:0.05102 17:0.040816 18:0.068027 19:0.013605 20:0.040816 
-0.7335103051898932 1:0.094595 2:0.054054 3:0.054054 4:0.067568 5:0.040541 6:0.013514 7:0.013514 8:0.027027 9:0.054054 10:0.081081 11:0.013514 12:0.040541 13:0.067568 14:0.054054 15:0.054054 16:0.054054 17:0.121622 18:0.040541 19:0.013514 20:0.040541 
-0.01924181144550624 1:0.072727 2:0.012121 3:0.042424 4:0.090909 5:0.030303 6:0.084848 7:0.036364 8:0.048485 9:0.066667 10:0.084848 11:0.018182 12:0.030303 13:0.054545 14:0.006061 15:0.018182 16:0.127273 17:0.060606 18:0.078788 19:0.018182 20:0.018182 
-1.009459243078154 1:0.058824 2:0.009412 3:0.063529 4:0.101176 5:0.030588 6:0.035294 7:0.028235 8:0.058824 9:0.103529 10:0.070588 11:0.04 12:0.049412 13:0.023529 14:0.044706 15:0.051765 16:0.056471 17:0.054118 18:0.077647 19:0.016471 20:0.025882 
-0.1615731290919088 1:0.065421 2:0.004673 3:0.028037 4:0.084112 5:0.037383 6:0.046729 7:0.023364 8:0.079439 9:0.088785 10:0.088785 11:0.028037 12:0.028037 13:0.042056 14:0.084112 15:0.046729 16:0.046729 17:0.037383 18:0.088785 19:0.004673 20:0.046729 
-0.2596941474078482 1:0.060367 2:0.011811 3:0.053806 4:0.059055 5:0.057743 6:0.052493 7:0.020997 8:0.051181 9:0.064304 10:0.107612 11:0.024934 12:0.05643 13:0.036745 14:0.035433 15:0.052493 16:0.090551 17:0.049869 18:0.069554 19:0.007874 20:0.036745 
-4 1:0.079734 2:0.018826 3:0.054264 4:0.086379 5:0.019934 6:0.067553 7:0.019934 8:0.035437 9:0.048726 10:0.100775 11:0.013289 12:0.023256 13:0.080842 14:0.043189 15:0.040975 16:0.104097 17:0.054264 18:0.079734 19:0.011074 20:0.017719 
-0.3914036139502146 1:0.08972 2:0.013084 3:0.042991 4:0.052336 5:0.04486 6:0.069159 7:0.02243 8:0.031776 9:0.042991 10:0.136449 11:0.016822 12:0.024299 13:0.063551 14:0.059813 15:0.071028 16:0.048598 17:0.042991 18:0.072897 19:0.018692 20:0.035514 
-3.46967438482857 1:0.058394 2:0.014599 3:0.058394 4:0.051095 5:0.046229 6:0.043796 7:0.029197 8:0.060827 9:0.048662 10:0.104623 11:0.03163 12:0.048662 13:0.058394 14:0.046229 15:0.048662 16:0.092457 17:0.041363 18:0.07056 19:0.004866 20:0.041363 
-2.025054420975053 1:0.081664 2:0.012327 3:0.05547 4:0.052388 5:0.044684 6:0.061633 7:0.020031 8:0.049307 9:0.064715 10:0.09245 11:0.027735 12:0.050847 13:0.049307 14:0.032357 15:0.046225 16:0.063174 17:0.070878 18:0.075501 19:0.013867 20:0.035439 
-0.0495741819540844 1:0.086053 2:0.029674 3:0.086053 4:0.041543 5:0.023739 6:0.094955 7:0.011869 8:0.035608 9:0.047478 10:0.04451 11:0.014837 12:0.050445 13:0.041543 14:0.032641 15:0.008902 16:0.139466 17:0.077151 18:0.071217 19:0.017804 20:0.04451 
-0.02570884606418388 1:0.028169 2:0.056338 3:0.042254 4:0.056338 5:0.042254 6:0.056338 7:0 8:0.028169 9:0.056338 10:0.112676 11:0.042254 12:0.112676 13:0.042254 14:0.070423 15:0.070423 16:0.028169 17:0.070423 18:0.070423 19:0 20:0.014085 
-0.317815415227497 1:0.124567 2:0.00346 3:0.051903 4:0.069204 5:0.041522 6:0.041522 7:0.00346 8:0.076125 9:0.083045 10:0.076125 11:0.017301 12:0.079585 13:0.024221 14:0.024221 15:0.044983 16:0.096886 17:0.058824 18:0.055363 19:0.00346 20:0.024221 
-1.974357719664471 1:0.079511 2:0.015291 3:0.055046 4:0.061162 5:0.042813 6:0.051988 7:0.021407 8:0.058104 9:0.073394 10:0.082569 11:0.027523 12:0.058104 13:0.030581 14:0.036697 15:0.045872 16:0.091743 17:0.045872 18:0.100917 19:0.009174 20:0.012232 
-0.2516299603141656 1:0.053232 2:0.011407 3:0.070342 4:0.04943 5:0.041825 6:0.04943 7:0.015209 8:0.104563 9:0.076046 10:0.10076 11:0.011407 12:0.051331 13:0.028517 14:0.036122 15:0.045627 16:0.119772 17:0.053232 18:0.057034 19:0.001901 20:0.022814 
-0.3050719439259368 1:0.079755 2:0.006135 3:0.03681 4:0.076687 5:0.027607 6:0.055215 7:0.003067 8:0.064417 9:0.067485 10:0.095092 11:0.027607 12:0.055215 13:0.030675 14:0.03681 15:0.06135 16:0.119632 17:0.06135 18:0.079755 19:0.003067 20:0.01227 
-0.7163784385346522 1:0.062201 2:0.016746 3:0.055024 4:0.066986 5:0.043062 6:0.07177 7:0.019139 8:0.08134 9:0.066986 10:0.050239 11:0.021531 12:0.047847 13:0.062201 14:0.033493 15:0.038278 16:0.074163 17:0.059809 18:0.069378 19:0.011962 20:0.047847 
-0.1391041286262118 1:0.035294 2:0 3:0.011765 4:0.070588 5:0.023529 6:0.070588 7:0.023529 8:0.070588 9:0.129412 10:0.094118 11:0 12:0.023529 13:0.047059 14:0.023529 15:0.058824 16:0.094118 17:0.070588 18:0.129412 19:0 20:0.023529 
-2.999331959039345 1:0.053846 2:0.003846 3:0.073077 4:0.046154 5:0.05 6:0.034615 7:0.023077 8:0.05 9:0.065385 10:0.123077 11:0.030769 12:0.042308 13:0.034615 14:0.046154 15:0.038462 16:0.065385 17:0.088462 18:0.080769 19:0.015385 20:0.034615 
-0.1071635812966487 1:0.025641 2:0.012821 3:0.044872 4:0.083333 5:0.070513 6:0.038462 7:0.032051 8:0.057692 9:0.067308 10:0.128205 11:0.041667 12:0.044872 13:0.025641 14:0.051282 15:0.054487 16:0.064103 17:0.041667 18:0.048077 19:0.00641 20:0.060897 
-4 1:0.067542 2:0.020638 3:0.035647 4:0.06379 5:0.037523 6:0.050657 7:0.030019 8:0.078799 9:0.054409 10:0.101313 11:0.016886 12:0.052533 13:0.043152 14:0.030019 15:0.054409 16:0.086304 17:0.071295 18:0.067542 19:0.007505 20:0.030019 
-0.4967694411246949 1:0.087591 2:0.009385 3:0.051095 4:0.092805 5:0.028154 6:0.078206 7:0.021898 8:0.052138 9:0.066736 10:0.10219 11:0.025026 12:0.025026 13:0.050052 14:0.034411 15:0.063608 16:0.049009 17:0.046924 18:0.080292 19:0.010428 20:0.025026 
-0.8574590919390139 1:0.045662 2:0 3:0.105023 4:0.114155 5:0.059361 6:0.03653 7:0.009132 8:0.059361 9:0.105023 10:0.123288 11:0.004566 12:0.03653 13:0.031963 14:0.041096 15:0.041096 16:0.077626 17:0.041096 18:0.054795 19:0.004566 20:0.009132 
-0.0704423686073536 1:0.08 2:0 3:0 4:0.12 5:0.08 6:0 7:0 8:0.08 9:0 10:0.12 11:0.04 12:0.08 13:0.04 14:0 15:0.08 16:0.12 17:0.12 18:0 19:0 20:0.04 
-2.270629401952801 1:0.047727 2:0.013636 3:0.059091 4:0.095455 5:0.029545 6:0.029545 7:0.018182 8:0.065909 9:0.084091 10:0.109091 11:0.020455 12:0.090909 13:0.020455 14:0.029545 15:0.063636 16:0.068182 17:0.043182 18:0.063636 19:0.004545 20:0.043182 
-0.09437149977723006 1:0.093385 2:0.015564 3:0.042802 4:0.050584 5:0.062257 6:0.054475 7:0.038911 8:0.046693 9:0.050584 10:0.085603 11:0.007782 12:0.035019 13:0.050584 14:0.019455 15:0.042802 16:0.108949 17:0.066148 18:0.093385 19:0.015564 20:0.019455 
