svm_type c_svc
kernel_type rbf
gamma 128
nr_class 2
total_sv 28
rho 0.218813
label 1 -1
nr_sv 17 11
SV
0.7199465189589623 1:0.144578 2:0.012048 3:0.078313 4:0.042169 5:0.078313 6:0.072289 7:0.006024 8:0.066265 9:0.066265 10:0.060241 11:0 12:0.018072 13:0.072289 14:0.006024 15:0.018072 16:0.060241 17:0.066265 18:0.108434 19:0 20:0.024096 
2.01881523311388 1:0.051282 2:0.011834 3:0.067061 4:0.053254 5:0.057199 6:0.065089 7:0.035503 8:0.043393 9:0.063116 10:0.061144 11:0.015779 12:0.055227 13:0.080868 14:0.033531 15:0.047337 16:0.063116 17:0.067061 18:0.059172 19:0.015779 20:0.053254 
0.3678231529048374 1:0.071186 2:0.030508 3:0.047458 4:0.037288 5:0.057627 6:0.050847 7:0.016949 8:0.023729 9:0.071186 10:0.145763 11:0.020339 12:0.030508 13:0.037288 14:0.050847 15:0.071186 16:0.054237 17:0.037288 18:0.081356 19:0.010169 20:0.054237 
2.242044489047775 1:0.060694 2:0.017341 3:0.034682 4:0.060694 5:0.037572 6:0.092486 7:0.034682 8:0.060694 9:0.040462 10:0.115607 11:0.014451 12:0.040462 13:0.063584 14:0.031792 15:0.052023 16:0.069364 17:0.052023 18:0.054913 19:0.031792 20:0.034682 
4 1:0.062834 2:0.010695 3:0.073529 4:0.03877 5:0.045455 6:0.066845 7:0.020053 8:0.064171 9:0.074866 10:0.100267 11:0.020053 12:0.041444 13:0.034759 14:0.041444 15:0.046791 16:0.076203 17:0.061497 18:0.066845 19:0.012032 20:0.041444 
0.2198811969365529 1:0.084711 2:0.006198 3:0.057851 4:0.059917 5:0.066116 6:0.059917 7:0.045455 8:0.035124 9:0.057851 10:0.061983 11:0.016529 12:0.059917 13:0.066116 14:0.043388 15:0.041322 16:0.049587 17:0.072314 18:0.061983 19:0.016529 20:0.03719 
3.100778468690502 1:0.087778 2:0.006667 3:0.043333 4:0.056667 5:0.05 6:0.08 7:0.02 8:0.062222 9:0.085556 10:0.085556 11:0.013333 12:0.054444 13:0.043333 14:0.031111 15:0.031111 16:0.064444 17:0.062222 18:0.078889 19:0.011111 20:0.032222 
1.453835577553884 1:0.058824 2:0.009804 3:0.073529 4:0.073529 5:0.029412 6:0.034314 7:0.009804 8:0.078431 9:0.058824 10:0.107843 11:0.019608 12:0.058824 13:0.063725 14:0.053922 15:0.04902 16:0.068627 17:0.053922 18:0.029412 19:0.019608 20:0.04902 
0.4222244382744385 1:0.056213 2:0.02071 3:0.044379 4:0.068047 5:0.056213 6:0.065089 7:0.050296 8:0.056213 9:0.076923 10:0.079882 11:0.029586 12:0.047337 13:0.050296 14:0.04142 15:0.050296 16:0.053254 17:0.050296 18:0.068047 19:0.008876 20:0.026627 
0.8207215321302446 1:0.057279 2:0.031026 3:0.0358 4:0.073986 5:0.069212 6:0.059666 7:0.019093 8:0.069212 9:0.066826 10:0.105012 11:0.019093 12:0.050119 13:0.050119 14:0.02864 15:0.052506 16:0.069212 17:0.047733 18:0.040573 19:0.00716 20:0.047733 
0.8080111413769164 1:0.090361 2:0.018072 3:0.048193 4:0.072289 5:0.048193 6:0.060241 7:0.03012 8:0.048193 9:0.078313 10:0.066265 11:0.012048 12:0.042169 13:0.060241 14:0.024096 15:0.018072 16:0.078313 17:0.066265 18:0.096386 19:0.012048 20:0.03012 
0.9792045132295142 1:0.105903 2:0.010417 3:0.050347 4:0.067708 5:0.039931 6:0.071181 7:0.022569 8:0.029514 9:0.046875 10:0.076389 11:0.038194 12:0.034722 13:0.029514 14:0.043403 15:0.067708 16:0.071181 17:0.069444 18:0.072917 19:0.024306 20:0.027778 
0.686632075302116 1:0.092025 2:0.030675 3:0.021472 4:0.058282 5:0.021472 6:0.076687 7:0.042945 8:0.027607 9:0.027607 10:0.156442 11:0.009202 12:0.003067 13:0.052147 14:0.042945 15:0.119632 16:0.06135 17:0.039877 18:0.055215 19:0.021472 20:0.039877 
1.588749125743691 1:0.105516 2:0.019185 3:0.045564 4:0.06235 5:0.033573 6:0.091127 7:0.009592 8:0.079137 9:0.064748 10:0.088729 11:0.019185 12:0.067146 13:0.045564 14:0.038369 15:0.045564 16:0.057554 17:0.035971 18:0.069544 19:0 20:0.021583 
0.08979507340474836 1:0.093625 2:0.00996 3:0.071713 4:0.053785 5:0.037849 6:0.063745 7:0.013944 8:0.061753 9:0.063745 10:0.095618 11:0.021912 12:0.039841 13:0.033865 14:0.035857 15:0.045817 16:0.067729 17:0.055777 18:0.083665 19:0.007968 20:0.041833 
1.387686487420204 1:0.122642 2:0.023585 3:0.044811 4:0.04717 5:0.021226 6:0.108491 7:0.009434 8:0.056604 9:0.044811 10:0.082547 11:0.028302 12:0.028302 13:0.056604 14:0.044811 15:0.061321 16:0.066038 17:0.054245 18:0.082547 19:0.002358 20:0.014151 
0.4730599101500835 1:0.058824 2:0.022876 3:0.047386 4:0.078431 5:0.04902 6:0.058824 7:0.039216 8:0.04085 9:0.05719 10:0.114379 11:0.026144 12:0.035948 13:0.050654 14:0.039216 15:0.053922 16:0.062092 17:0.050654 18:0.05719 19:0.019608 20:0.037582 
-0.5657046162831403 1:0.031667 2:0.001667 3:0.076667 4:0.113333 5:0.026667 6:0.033333 7:0.011667 8:0.058333 9:0.133333 10:0.091667 11:0.03 12:0.141667 13:0.025 14:0.046667 15:0.005 16:0.041667 17:0.046667 18:0.053333 19:0 20:0.031667 
-1.785446538402401 1:0.068966 2:0.005747 3:0.045977 4:0.031609 5:0.034483 6:0.077586 7:0.014368 8:0.051724 9:0.031609 10:0.08908 11:0.025862 12:0.066092 13:0.066092 14:0.054598 15:0.063218 16:0.08908 17:0.028736 18:0.08046 19:0.011494 20:0.063218 
-1.257877645339565 1:0.040825 2:0.011414 3:0.058385 4:0.057068 5:0.036435 6:0.03863 7:0.026339 8:0.061457 9:0.076383 10:0.083406 11:0.018437 12:0.080773 13:0.046532 14:0.03468 15:0.046532 16:0.122476 17:0.072432 18:0.045215 19:0.007902 20:0.03468 
-4 1:0.088583 2:0.023622 3:0.049213 4:0.057087 5:0.041339 6:0.11811 7:0.009843 8:0.062992 9:0.059055 10:0.084646 11:0.023622 12:0.025591 13:0.051181 14:0.041339 15:0.027559 16:0.064961 17:0.049213 18:0.076772 19:0.011811 20:0.033465 
-0.8622349792129287 1:0.076023 2:0.002924 3:0.046784 4:0.04386 5:0.055556 6:0.073099 7:0.002924 8:0.038012 9:0.040936 10:0.087719 11:0.035088 12:0.096491 13:0.067251 14:0.04386 15:0.052632 16:0.073099 17:0.040936 18:0.064327 19:0.008772 20:0.049708 
-4 1:0.060311 2:0.009728 3:0.060311 4:0.075875 5:0.050584 6:0.085603 7:0.027237 8:0.060311 9:0.07393 10:0.097276 11:0.011673 12:0.054475 13:0.046693 14:0.027237 15:0.035019 16:0.064202 17:0.054475 18:0.064202 19:0.011673 20:0.029183 
-0.6571766804506118 1:0.089337 2:0.002882 3:0.043228 4:0.040346 5:0.048991 6:0.072046 7:0.005764 8:0.04611 9:0.04611 10:0.086455 11:0.014409 12:0.092219 13:0.054755 14:0.037464 15:0.04611 16:0.092219 17:0.04611 18:0.074928 19:0.008646 20:0.051873 
-2.175154213273598 1:0.044248 2:0.00885 3:0.059735 4:0.04646 5:0.084071 6:0.061947 7:0.017699 8:0.070796 9:0.090708 10:0.088496 11:0.017699 12:0.073009 13:0.033186 14:0.030973 15:0.013274 16:0.059735 17:0.075221 18:0.066372 19:0.00885 20:0.048673 
-3.32452369031824 1:0.075972 2:0.0053 3:0.077739 4:0.063604 5:0.04417 6:0.065371 7:0.045936 8:0.04417 9:0.04947 10:0.095406 11:0.012367 12:0.047703 13:0.031802 14:0.035336 15:0.042403 16:0.086572 17:0.061837 18:0.070671 19:0.008834 20:0.035336 
-1.934157769580778 1:0.056962 2:0.003165 3:0.088608 4:0.079114 5:0.018987 6:0.047468 7:0.012658 8:0.041139 9:0.06962 10:0.110759 11:0.022152 12:0.050633 13:0.028481 14:0.066456 15:0.10443 16:0.056962 17:0.053797 18:0.053797 19:0.012658 20:0.022152 
-0.8169328013770868 1:0.086111 2:0.008333 3:0.058333 4:0.047222 5:0.052778 6:0.091667 7:0.019444 8:0.058333 9:0.052778 10:0.108333 11:0.005556 12:0.052778 13:0.041667 14:0.044444 15:0.008333 16:0.088889 17:0.077778 18:0.038889 19:0.011111 20:0.047222 
