svm_type c_svc
kernel_type rbf
gamma 128
nr_class 2
total_sv 76
rho 0.847513
label 1 -1
nr_sv 23 53
SV
1.488148877554139 1:0.144578 2:0.012048 3:0.078313 4:0.042169 5:0.078313 6:0.072289 7:0.006024 8:0.066265 9:0.066265 10:0.060241 11:0 12:0.018072 13:0.072289 14:0.006024 15:0.018072 16:0.060241 17:0.066265 18:0.108434 19:0 20:0.024096 
1.482288396353136 1:0.051282 2:0.011834 3:0.067061 4:0.053254 5:0.057199 6:0.065089 7:0.035503 8:0.043393 9:0.063116 10:0.061144 11:0.015779 12:0.055227 13:0.080868 14:0.033531 15:0.047337 16:0.063116 17:0.067061 18:0.059172 19:0.015779 20:0.053254 
4 1:0.071186 2:0.030508 3:0.047458 4:0.037288 5:0.057627 6:0.050847 7:0.016949 8:0.023729 9:0.071186 10:0.145763 11:0.020339 12:0.030508 13:0.037288 14:0.050847 15:0.071186 16:0.054237 17:0.037288 18:0.081356 19:0.010169 20:0.054237 
4 1:0.060694 2:0.017341 3:0.034682 4:0.060694 5:0.037572 6:0.092486 7:0.034682 8:0.060694 9:0.040462 10:0.115607 11:0.014451 12:0.040462 13:0.063584 14:0.031792 15:0.052023 16:0.069364 17:0.052023 18:0.054913 19:0.031792 20:0.034682 
1.691501397484148 1:0.107649 2:0.022663 3:0.053824 4:0.053824 5:0.028329 6:0.096317 7:0.014164 8:0.070822 9:0.056657 10:0.093484 11:0.025496 12:0.031161 13:0.05949 14:0.022663 15:0.053824 16:0.053824 17:0.03966 18:0.09915 19:0 20:0.016997 
4 1:0.088012 2:0.013657 3:0.060698 4:0.062215 5:0.033384 6:0.059181 7:0.037936 8:0.051593 9:0.051593 10:0.091047 11:0.042489 12:0.039454 13:0.028832 14:0.042489 15:0.059181 16:0.053111 17:0.068285 18:0.062215 19:0.010622 20:0.044006 
4 1:0.062834 2:0.010695 3:0.073529 4:0.03877 5:0.045455 6:0.066845 7:0.020053 8:0.064171 9:0.074866 10:0.100267 11:0.020053 12:0.041444 13:0.034759 14:0.041444 15:0.046791 16:0.076203 17:0.061497 18:0.066845 19:0.012032 20:0.041444 
0.1100634170244215 1:0.084711 2:0.006198 3:0.057851 4:0.059917 5:0.066116 6:0.059917 7:0.045455 8:0.035124 9:0.057851 10:0.061983 11:0.016529 12:0.059917 13:0.066116 14:0.043388 15:0.041322 16:0.049587 17:0.072314 18:0.061983 19:0.016529 20:0.03719 
3.291880647951766 1:0.087778 2:0.006667 3:0.043333 4:0.056667 5:0.05 6:0.08 7:0.02 8:0.062222 9:0.085556 10:0.085556 11:0.013333 12:0.054444 13:0.043333 14:0.031111 15:0.031111 16:0.064444 17:0.062222 18:0.078889 19:0.011111 20:0.032222 
3.007038818200207 1:0.058824 2:0.009804 3:0.073529 4:0.073529 5:0.029412 6:0.034314 7:0.009804 8:0.078431 9:0.058824 10:0.107843 11:0.019608 12:0.058824 13:0.063725 14:0.053922 15:0.04902 16:0.068627 17:0.053922 18:0.029412 19:0.019608 20:0.04902 
4 1:0.078987 2:0.013413 3:0.04769 4:0.04769 5:0.040238 6:0.041729 7:0.022355 8:0.078987 9:0.0462 10:0.120715 11:0.023845 12:0.04918 13:0.059613 14:0.0462 15:0.043219 16:0.055142 17:0.058122 18:0.076006 19:0.017884 20:0.032787 
2.740370676702612 1:0.056213 2:0.02071 3:0.044379 4:0.068047 5:0.056213 6:0.065089 7:0.050296 8:0.056213 9:0.076923 10:0.079882 11:0.029586 12:0.047337 13:0.050296 14:0.04142 15:0.050296 16:0.053254 17:0.050296 18:0.068047 19:0.008876 20:0.026627 
4 1:0.057279 2:0.031026 3:0.0358 4:0.073986 5:0.069212 6:0.059666 7:0.019093 8:0.069212 9:0.066826 10:0.105012 11:0.019093 12:0.050119 13:0.050119 14:0.02864 15:0.052506 16:0.069212 17:0.047733 18:0.040573 19:0.00716 20:0.047733 
1.571072584380876 1:0.090361 2:0.018072 3:0.048193 4:0.072289 5:0.048193 6:0.060241 7:0.03012 8:0.048193 9:0.078313 10:0.066265 11:0.012048 12:0.042169 13:0.060241 14:0.024096 15:0.018072 16:0.078313 17:0.066265 18:0.096386 19:0.012048 20:0.03012 
4 1:0.105903 2:0.010417 3:0.050347 4:0.067708 5:0.039931 6:0.071181 7:0.022569 8:0.029514 9:0.046875 10:0.076389 11:0.038194 12:0.034722 13:0.029514 14:0.043403 15:0.067708 16:0.071181 17:0.069444 18:0.072917 19:0.024306 20:0.027778 
2.338458348107031 1:0.092025 2:0.030675 3:0.021472 4:0.058282 5:0.021472 6:0.076687 7:0.042945 8:0.027607 9:0.027607 10:0.156442 11:0.009202 12:0.003067 13:0.052147 14:0.042945 15:0.119632 16:0.06135 17:0.039877 18:0.055215 19:0.021472 20:0.039877 
4 1:0.064516 2:0.020528 3:0.046921 4:0.052786 5:0.035191 6:0.085044 7:0.026393 8:0.055718 9:0.061584 10:0.093842 11:0.017595 12:0.017595 13:0.064516 14:0.038123 15:0.055718 16:0.067449 17:0.061584 18:0.090909 19:0.02346 20:0.020528 
1.645393590182057 1:0.105516 2:0.019185 3:0.045564 4:0.06235 5:0.033573 6:0.091127 7:0.009592 8:0.079137 9:0.064748 10:0.088729 11:0.019185 12:0.067146 13:0.045564 14:0.038369 15:0.045564 16:0.057554 17:0.035971 18:0.069544 19:0 20:0.021583 
4 1:0.093625 2:0.00996 3:0.071713 4:0.053785 5:0.037849 6:0.063745 7:0.013944 8:0.061753 9:0.063745 10:0.095618 11:0.021912 12:0.039841 13:0.033865 14:0.035857 15:0.045817 16:0.067729 17:0.055777 18:0.083665 19:0.007968 20:0.041833 
1.421346266175984 1:0.067194 2:0.017787 3:0.073123 4:0.037549 5:0.065217 6:0.067194 7:0.031621 8:0.045455 9:0.067194 10:0.059289 11:0.019763 12:0.05336 13:0.065217 14:0.045455 15:0.051383 16:0.057312 17:0.059289 18:0.067194 19:0.009881 20:0.039526 
4 1:0.076866 2:0.028086 3:0.046563 4:0.06578 5:0.04952 6:0.076127 7:0.02439 8:0.069475 9:0.05765 10:0.076866 11:0.031781 12:0.042868 13:0.051737 14:0.036955 15:0.044346 16:0.061345 17:0.051737 18:0.06578 19:0.006652 20:0.035477 
3.960744478449126 1:0.122642 2:0.023585 3:0.044811 4:0.04717 5:0.021226 6:0.108491 7:0.009434 8:0.056604 9:0.044811 10:0.082547 11:0.028302 12:0.028302 13:0.056604 14:0.044811 15:0.061321 16:0.066038 17:0.054245 18:0.082547 19:0.002358 20:0.014151 
4 1:0.058824 2:0.022876 3:0.047386 4:0.078431 5:0.04902 6:0.058824 7:0.039216 8:0.04085 9:0.05719 10:0.114379 11:0.026144 12:0.035948 13:0.050654 14:0.039216 15:0.053922 16:0.062092 17:0.050654 18:0.05719 19:0.019608 20:0.037582 
-1.067979499198281 1:0.088586 2:0.020443 3:0.045997 4:0.0477 5:0.051107 6:0.091993 7:0.030664 8:0.091993 9:0.042589 10:0.098807 11:0.022147 12:0.039182 13:0.032368 14:0.034072 15:0.034072 16:0.059625 17:0.06644 18:0.052811 19:0.015332 20:0.034072 
-0.008354116893736451 1:0.138889 2:0.036111 3:0.033333 4:0.022222 5:0.044444 6:0.080556 7:0.011111 8:0.022222 9:0.005556 10:0.180556 11:0.005556 12:0.013889 13:0.072222 14:0.013889 15:0.094444 16:0.077778 17:0.036111 18:0.061111 19:0.025 20:0.025 
-1.544009667238882 1:0.116625 2:0 3:0.044665 4:0.052109 5:0.044665 6:0.091811 7:0 8:0.111663 9:0.054591 10:0.094293 11:0.012407 12:0.022333 13:0.037221 14:0.029777 15:0.054591 16:0.047146 17:0.064516 18:0.104218 19:0.004963 20:0.012407 
-0.08967255448289932 1:0.057895 2:0.021053 3:0.047368 4:0.021053 5:0.142105 6:0.026316 7:0 8:0.052632 9:0.031579 10:0.115789 11:0.021053 12:0.015789 13:0.036842 14:0.010526 15:0.031579 16:0.226316 17:0.047368 18:0.068421 19:0.010526 20:0.015789 
-0.6344982622899746 1:0.122378 2:0.013986 3:0.027972 4:0.031469 5:0.066434 6:0.108392 7:0.024476 8:0.08042 9:0.041958 10:0.073427 11:0.017483 12:0.024476 13:0.059441 14:0.024476 15:0.038462 16:0.055944 17:0.052448 18:0.08042 19:0.020979 20:0.034965 
-0.04386539967267283 1:0.023256 2:0.03876 3:0.031008 4:0.007752 5:0.193798 6:0.023256 7:0.023256 8:0.108527 9:0.031008 10:0.116279 11:0.015504 12:0.03876 13:0.023256 14:0.03876 15:0.062016 16:0.069767 17:0.03876 18:0.093023 19:0.007752 20:0.015504 
-2.057047106320603 1:0.066667 2:0.055556 3:0.040741 4:0.037037 5:0.048148 6:0.055556 7:0.037037 8:0.055556 9:0.055556 10:0.111111 11:0.011111 12:0.044444 13:0.048148 14:0.02963 15:0.059259 16:0.051852 17:0.044444 18:0.081481 19:0.025926 20:0.040741 
-1.158473232270355 1:0.05042 2:0.019608 3:0.043417 4:0.067227 5:0.044818 6:0.042017 7:0.02381 8:0.088235 9:0.084034 10:0.09944 11:0.018908 12:0.060924 13:0.042717 14:0.035014 15:0.036415 16:0.084034 17:0.04972 18:0.062325 19:0.009804 20:0.037115 
-0.1505701582287665 1:0.079772 2:0.02849 3:0.039886 4:0.042735 5:0.019943 6:0.119658 7:0.034188 8:0.014245 9:0.019943 10:0.19943 11:0.008547 12:0.019943 13:0.088319 14:0.051282 15:0.039886 16:0.048433 17:0.037037 18:0.065527 19:0.022792 20:0.019943 
-0.5185525593608654 1:0.074364 2:0.019569 3:0.052838 4:0.062622 5:0.062622 6:0.072407 7:0.029354 8:0.058708 9:0.035225 10:0.093933 11:0.023483 12:0.035225 13:0.058708 14:0.021526 15:0.066536 16:0.052838 17:0.056751 18:0.064579 19:0.019569 20:0.039139 
-0.05733346156489992 1:0.160338 2:0.004219 3:0.050633 4:0.008439 5:0.033755 6:0.084388 7:0.012658 8:0.059072 9:0.004219 10:0.139241 11:0.021097 12:0.004219 13:0.046414 14:0.008439 15:0.059072 16:0.025316 17:0.097046 18:0.109705 19:0.029536 20:0.042194 
-0.2699073764159797 1:0.0875 2:0.0625 3:0.0375 4:0.0125 5:0.0125 6:0.05 7:0.025 8:0.1625 9:0.025 10:0.15 11:0.0125 12:0.05 13:0.075 14:0.0375 15:0 16:0.025 17:0.05 18:0.0625 19:0.0125 20:0.05 
-4 1:0.077739 2:0.038869 3:0.048292 4:0.070671 5:0.038869 6:0.054181 7:0.03298 8:0.04947 9:0.060071 10:0.078916 11:0.024735 12:0.045936 13:0.040047 14:0.041225 15:0.051826 16:0.083628 17:0.058893 18:0.048292 19:0.010601 20:0.044759 
-0.9386552271485948 1:0.081633 2:0.014577 3:0.039359 4:0.04519 5:0.034985 6:0.08309 7:0.017493 8:0.027697 9:0.026239 10:0.170554 11:0.021866 12:0.023324 13:0.046647 14:0.065598 15:0.062682 16:0.068513 17:0.04519 18:0.080175 19:0.017493 20:0.027697 
-0.8956318711369518 1:0.080153 2:0.026718 3:0.041985 4:0.041985 5:0.072519 6:0.049618 7:0.030534 8:0.091603 9:0.080153 10:0.110687 11:0.030534 12:0.038168 13:0.049618 14:0.019084 15:0.038168 16:0.064885 17:0.030534 18:0.061069 19:0.01145 20:0.030534 
-0.2186203511331381 1:0.038869 2:0.010601 3:0.028269 4:0.113074 5:0.053004 6:0.028269 7:0.031802 8:0.091873 9:0.102473 10:0.102473 11:0.021201 12:0.028269 13:0.021201 14:0.045936 15:0.084806 16:0.053004 17:0.028269 18:0.060071 19:0.007067 20:0.04947 
-0.1547200263539807 1:0.126126 2:0.036036 3:0 4:0 5:0.099099 6:0.027027 7:0.045045 8:0.054054 9:0.045045 10:0.153153 11:0.009009 12:0.018018 13:0.018018 14:0.045045 15:0.099099 16:0.063063 17:0.072072 18:0.036036 19:0.018018 20:0.036036 
-4 1:0.077083 2:0.014583 3:0.053125 4:0.042708 5:0.048958 6:0.079167 7:0.023958 8:0.045833 9:0.055208 10:0.103125 11:0.021875 12:0.040625 13:0.057292 14:0.029167 15:0.05 16:0.077083 17:0.05 18:0.065625 19:0.015625 20:0.048958 
-0.2204012506182499 1:0.086991 2:0.010188 3:0.04232 4:0.061912 5:0.051724 6:0.076019 7:0.01489 8:0.07837 9:0.061129 10:0.089342 11:0.026646 12:0.043887 13:0.022727 14:0.045455 15:0.043887 16:0.070533 17:0.054075 18:0.080721 19:0.010188 20:0.028997 
-1.242437397037522 1:0.08596 2:0.002865 3:0.034384 4:0.063037 5:0.088825 6:0.048711 7:0.051576 8:0.057307 9:0.071633 10:0.097421 11:0.040115 12:0.045845 13:0.04298 14:0.034384 15:0.031519 16:0.028653 17:0.057307 18:0.051576 19:0.017192 20:0.048711 
-2.377506346875443 1:0.040498 2:0.018692 3:0.037383 4:0.063863 5:0.042056 6:0.042056 7:0.018692 8:0.084112 9:0.066978 10:0.124611 11:0.021807 12:0.066978 13:0.049844 14:0.034268 15:0.046729 16:0.066978 17:0.060748 18:0.060748 19:0.010903 20:0.042056 
-1.918159736783015 1:0.057011 2:0.033898 3:0.03698 4:0.064715 5:0.047766 6:0.047766 7:0.024653 8:0.058552 9:0.057011 10:0.09245 11:0.024653 12:0.049307 13:0.05547 14:0.052388 15:0.047766 16:0.07396 17:0.057011 18:0.057011 19:0.023112 20:0.038521 
-3.453014534556258 1:0.074919 2:0.016287 3:0.032573 4:0.039088 5:0.04886 6:0.084691 7:0.003257 8:0.065147 9:0.087948 10:0.074919 11:0.045603 12:0.045603 13:0.042345 14:0.032573 15:0.045603 16:0.065147 17:0.058632 18:0.084691 19:0.009772 20:0.042345 
-2.117818212131649 1:0.057355 2:0.020243 3:0.062078 4:0.056005 5:0.047233 6:0.067476 7:0.027665 8:0.05803 9:0.061404 10:0.069501 11:0.027665 12:0.049933 13:0.048583 14:0.033063 15:0.048583 16:0.10054 17:0.047908 18:0.066802 19:0.012821 20:0.037112 
-1.429842341492422 1:0.054455 2:0.011551 3:0.036304 4:0.036304 5:0.041254 6:0.125413 7:0.036304 8:0.062706 9:0.037954 10:0.070957 11:0.034653 12:0.041254 13:0.064356 14:0.041254 15:0.051155 16:0.070957 17:0.054455 18:0.084158 19:0.011551 20:0.033003 
-0.4883301370809051 1:0.058929 2:0.019643 3:0.042857 4:0.05 5:0.064286 6:0.060714 7:0.035714 8:0.05 9:0.067857 10:0.1125 11:0.026786 12:0.023214 13:0.041071 14:0.026786 15:0.053571 16:0.076786 17:0.076786 18:0.073214 19:0.014286 20:0.025 
-0.04706022864403921 1:0.073733 2:0.009217 3:0 4:0.018433 5:0.0553 6:0.046083 7:0.004608 8:0.082949 9:0.0553 10:0.179724 11:0.02765 12:0.032258 13:0.046083 14:0.036866 15:0.036866 16:0.092166 17:0.032258 18:0.087558 19:0.013825 20:0.069124 
-0.9142728653093091 1:0.107001 2:0.021136 3:0.046235 4:0.046235 5:0.046235 6:0.114927 7:0.023778 8:0.047556 9:0.029062 10:0.080581 11:0.018494 12:0.025099 13:0.128137 14:0.023778 15:0.05284 16:0.048877 17:0.046235 18:0.050198 19:0.015852 20:0.027741 
-0.3936716145953448 1:0.122378 2:0.02972 3:0.027972 4:0.045455 5:0.047203 6:0.11014 7:0.015734 8:0.026224 9:0.027972 10:0.094406 11:0.013986 12:0.015734 13:0.062937 14:0.017483 15:0.078671 16:0.085664 17:0.038462 18:0.103147 19:0.015734 20:0.020979 
-4 1:0.071143 2:0.016787 3:0.059952 4:0.06235 5:0.059952 6:0.051958 7:0.017586 8:0.067146 9:0.06235 10:0.094325 11:0.020783 12:0.047162 13:0.027978 14:0.043165 15:0.057554 16:0.055156 17:0.067146 18:0.059153 19:0.015188 20:0.043165 
-0.6834752665454653 1:0.077787 2:0.025929 3:0.042351 4:0.067416 5:0.055315 6:0.05618 7:0.020743 8:0.06223 9:0.06828 10:0.110631 11:0.038029 12:0.036301 13:0.041487 14:0.028522 15:0.039758 16:0.050994 17:0.067416 18:0.072602 19:0.0121 20:0.025929 
-4 1:0.072951 2:0.016393 3:0.053279 4:0.07459 5:0.039344 6:0.077869 7:0.013934 8:0.069672 9:0.061475 10:0.090984 11:0.02459 12:0.038525 13:0.048361 14:0.042623 15:0.046721 16:0.057377 17:0.063115 18:0.080328 19:0.009836 20:0.018033 
-4 1:0.096443 2:0.028458 3:0.042688 4:0.06166 5:0.045059 6:0.075099 7:0.03004 8:0.04585 9:0.039526 10:0.100395 11:0.028458 12:0.041897 13:0.040316 14:0.051383 15:0.066403 16:0.057708 17:0.037945 18:0.07668 19:0.008696 20:0.025296 
-0.01547628513569551 1:0.095975 2:0.026316 3:0.05418 4:0.043344 5:0.04644 6:0.091331 7:0.01548 8:0.040248 9:0.03096 10:0.109907 11:0.018576 12:0.02322 13:0.047988 14:0.040248 15:0.080495 16:0.055728 17:0.044892 18:0.083591 19:0.013932 20:0.037152 
-4 1:0.093697 2:0.017888 3:0.056218 4:0.043441 5:0.035775 6:0.087734 7:0.016184 8:0.043441 9:0.045145 10:0.096252 11:0.024702 12:0.030664 13:0.051959 14:0.041738 15:0.051107 16:0.082624 17:0.075809 18:0.07155 19:0.00937 20:0.024702 
-0.190145707235731 1:0.221311 2:0 3:0 4:0.008197 5:0.02459 6:0.122951 7:0 8:0.07377 9:0.02459 10:0.081967 11:0.04918 12:0.008197 13:0.016393 14:0.008197 15:0.02459 16:0.139344 17:0.057377 18:0.131148 19:0 20:0.008197 
-0.2675847702223507 1:0.157459 2:0.024862 3:0.030387 4:0.030387 5:0.033149 6:0.077348 7:0.016575 8:0.013812 9:0.01105 10:0.176796 11:0.005525 12:0.008287 13:0.060773 14:0.035912 15:0.09116 16:0.085635 17:0.044199 18:0.063536 19:0.01105 20:0.022099 
-4 1:0.078261 2:0.010435 3:0.055652 4:0.071304 5:0.041739 6:0.06087 7:0.015652 8:0.052174 9:0.043478 10:0.121739 11:0.031304 12:0.029565 13:0.045217 14:0.041739 15:0.062609 16:0.053913 17:0.048696 18:0.066087 19:0.017391 20:0.052174 
-0.09648174879850646 1:0.060185 2:0.00463 3:0.027778 4:0.060185 5:0.037037 6:0.069444 7:0.009259 8:0.069444 9:0.013889 10:0.064815 11:0.00463 12:0.009259 13:0.041667 14:0.009259 15:0.023148 16:0.134259 17:0.217593 18:0.106481 19:0 20:0.037037 
-0.9819284549019276 1:0.054575 2:0.014446 3:0.051364 4:0.051364 5:0.067416 6:0.057785 7:0.022472 8:0.065811 9:0.064205 10:0.102729 11:0.022472 12:0.044944 13:0.041734 14:0.040128 15:0.044944 16:0.060995 17:0.060995 18:0.064205 19:0.017657 20:0.049759 
-1.157636282054004 1:0.091603 2:0 3:0.045802 4:0.083969 5:0.022901 6:0.076336 7:0.007634 8:0.114504 9:0.083969 10:0.068702 11:0.030534 12:0.038168 13:0.076336 14:0.007634 15:0.038168 16:0.030534 17:0.030534 18:0.122137 19:0 20:0.030534 
-0.1534087188964648 1:0.073327 2:0.014665 3:0.064161 4:0.055912 5:0.047663 6:0.065995 7:0.018332 8:0.074244 9:0.057745 10:0.082493 11:0.026581 12:0.054995 13:0.033914 14:0.025665 15:0.03758 16:0.086159 17:0.063245 18:0.079743 19:0.014665 20:0.022915 
-0.1393068873405976 1:0.038596 2:0.002005 3:0.031579 4:0.036591 5:0.052632 6:0.035088 7:0.014035 8:0.062155 9:0.094737 10:0.112782 11:0.015539 12:0.084211 13:0.040602 14:0.05213 15:0.062657 16:0.078697 17:0.087719 18:0.042105 19:0.015038 20:0.041103 
-0.02835364976661586 1:0.046414 2:0.016878 3:0.025316 4:0.042194 5:0.059072 6:0.067511 7:0.029536 8:0.084388 9:0.080169 10:0.139241 11:0.021097 12:0.021097 13:0.029536 14:0.029536 15:0.046414 16:0.07173 17:0.050633 18:0.080169 19:0.016878 20:0.042194 
-1.175283027939974 1:0.091205 2:0.021716 3:0.058632 4:0.068404 5:0.053203 6:0.096634 7:0.018458 8:0.051031 9:0.038002 10:0.103149 11:0.014115 12:0.021716 13:0.045603 14:0.024973 15:0.052117 16:0.053203 17:0.052117 18:0.091205 19:0.014115 20:0.030402 
-2.161355041577791 1:0.057292 2:0.018229 3:0.0625 4:0.059896 5:0.075521 6:0.052083 7:0.054688 8:0.03125 9:0.070313 10:0.119792 11:0.023438 12:0.033854 13:0.046875 14:0.018229 15:0.026042 16:0.046875 17:0.054688 18:0.0625 19:0.023438 20:0.0625 
-0.1402578522156699 1:0.116319 2:0.013889 3:0.019097 4:0.048611 5:0.059028 6:0.090278 7:0.026042 8:0.059028 9:0.043403 10:0.078125 11:0.038194 12:0.039931 13:0.048611 14:0.036458 15:0.019097 16:0.0625 17:0.064236 18:0.064236 19:0.03125 20:0.041667 
-2.037736382589202 1:0.083238 2:0.010262 3:0.052452 4:0.036488 5:0.047891 6:0.059293 7:0.023945 8:0.079818 9:0.04675 10:0.082098 11:0.014823 12:0.04333 13:0.063854 14:0.022805 15:0.04675 16:0.079818 17:0.059293 18:0.099202 19:0.009122 20:0.038769 
-1.691526840123973 1:0.118705 2:0.017986 3:0.052758 4:0.043165 5:0.027578 6:0.063549 7:0.017986 8:0.044365 9:0.034772 10:0.088729 11:0.021583 12:0.05036 13:0.047962 14:0.065947 15:0.043165 16:0.082734 17:0.080336 18:0.067146 19:0.010791 20:0.020384 
-0.3161696789564614 1:0.086134 2:0.006303 3:0.039916 4:0.063025 5:0.031513 6:0.142857 7:0.134454 8:0.029412 9:0.02521 10:0.117647 11:0.012605 12:0.008403 13:0.042017 14:0.016807 15:0.037815 16:0.079832 17:0.039916 18:0.067227 19:0.012605 20:0.006303 
-2.083604416938576 1:0.073052 2:0.006494 3:0.04789 4:0.076299 5:0.043831 6:0.073864 7:0.030844 8:0.038149 9:0.040584 10:0.12987 11:0.018669 12:0.012987 13:0.091721 14:0.027597 15:0.066558 16:0.077922 17:0.049513 18:0.068182 19:0.010552 20:0.015422 
-2.854641254151654 1:0.069272 2:0.017762 3:0.071048 4:0.095915 5:0.042629 6:0.053286 7:0.008881 8:0.042629 9:0.072824 10:0.087034 11:0.023091 12:0.058615 13:0.031972 14:0.05151 15:0.044405 16:0.053286 17:0.058615 18:0.081705 19:0.012433 20:0.023091 
-0.1635296983401063 1:0.190909 2:0 3:0.022727 4:0.022727 5:0.059091 6:0.177273 7:0 8:0.095455 9:0.027273 10:0.122727 11:0.031818 12:0.013636 13:0.031818 14:0.027273 15:0.004545 16:0.036364 17:0.040909 18:0.081818 19:0.004545 20:0.009091 
