svm_type c_svc
kernel_type rbf
gamma 128
nr_class 2
total_sv 60
rho -0.693518
label 1 -1
nr_sv 49 11
SV
0.3455299189247502 1:0.088586 2:0.020443 3:0.045997 4:0.0477 5:0.051107 6:0.091993 7:0.030664 8:0.091993 9:0.042589 10:0.098807 11:0.022147 12:0.039182 13:0.032368 14:0.034072 15:0.034072 16:0.059625 17:0.06644 18:0.052811 19:0.015332 20:0.034072 
0.2479498369801492 1:0.057895 2:0.021053 3:0.047368 4:0.021053 5:0.142105 6:0.026316 7:0 8:0.052632 9:0.031579 10:0.115789 11:0.021053 12:0.015789 13:0.036842 14:0.010526 15:0.031579 16:0.226316 17:0.047368 18:0.068421 19:0.010526 20:0.015789 
0.8687729517315513 1:0.102837 2:0.014184 3:0.031915 4:0.042553 5:0.099291 6:0.106383 7:0.010638 8:0.067376 9:0.031915 10:0.102837 11:0.021277 12:0.056738 13:0.035461 14:0.024823 15:0.024823 16:0.067376 17:0.053191 18:0.053191 19:0.01773 20:0.035461 
0.1997031167613834 1:0.074257 2:0.089109 3:0.024752 4:0.049505 5:0.049505 6:0.123762 7:0.024752 8:0.074257 9:0.019802 10:0.143564 11:0.014851 12:0.034653 13:0.019802 14:0.034653 15:0.014851 16:0.069307 17:0.029703 18:0.054455 19:0.019802 20:0.034653 
0.217089412367537 1:0.023256 2:0.03876 3:0.031008 4:0.007752 5:0.193798 6:0.023256 7:0.023256 8:0.108527 9:0.031008 10:0.116279 11:0.015504 12:0.03876 13:0.023256 14:0.03876 15:0.062016 16:0.069767 17:0.03876 18:0.093023 19:0.007752 20:0.015504 
0.2096329255050496 1:0.019685 2:0.015748 3:0.031496 4:0.043307 5:0.11811 6:0.055118 7:0.011811 8:0.114173 9:0.090551 10:0.173228 11:0.023622 12:0.043307 13:0.027559 14:0.003937 15:0.015748 16:0.047244 17:0.023622 18:0.066929 19:0.015748 20:0.059055 
0.2153682972540527 1:0.079772 2:0.02849 3:0.039886 4:0.042735 5:0.019943 6:0.119658 7:0.034188 8:0.014245 9:0.019943 10:0.19943 11:0.008547 12:0.019943 13:0.088319 14:0.051282 15:0.039886 16:0.048433 17:0.037037 18:0.065527 19:0.022792 20:0.019943 
2.223464334222809 1:0.059016 2:0.005738 3:0.052459 4:0.059836 5:0.039344 6:0.059836 7:0.016393 8:0.063934 9:0.064754 10:0.10082 11:0.019672 12:0.065574 13:0.040164 14:0.031148 15:0.046721 16:0.109836 17:0.077049 18:0.059016 19:0.004098 20:0.02459 
0.03759979856086963 1:0.160338 2:0.004219 3:0.050633 4:0.008439 5:0.033755 6:0.084388 7:0.012658 8:0.059072 9:0.004219 10:0.139241 11:0.021097 12:0.004219 13:0.046414 14:0.008439 15:0.059072 16:0.025316 17:0.097046 18:0.109705 19:0.029536 20:0.042194 
0.2217694971955937 1:0.097046 2:0.021097 3:0.046414 4:0.042194 5:0.063291 6:0.067511 7:0.004219 8:0.050633 9:0.042194 10:0.07173 11:0.008439 12:0.075949 13:0.016878 14:0.037975 15:0.033755 16:0.059072 17:0.097046 18:0.118143 19:0.004219 20:0.042194 
0.1444821863873413 1:0.079019 2:0.00545 3:0.065395 4:0.035422 5:0.046322 6:0.057221 7:0.016349 8:0.089918 9:0.032698 10:0.057221 11:0.016349 12:0.089918 13:0.043597 14:0.035422 15:0.049046 16:0.100817 17:0.073569 18:0.035422 19:0.019074 20:0.051771 
0.1603207754773505 1:0.0875 2:0.0625 3:0.0375 4:0.0125 5:0.0125 6:0.05 7:0.025 8:0.1625 9:0.025 10:0.15 11:0.0125 12:0.05 13:0.075 14:0.0375 15:0 16:0.025 17:0.05 18:0.0625 19:0.0125 20:0.05 
0.06147001329130445 1:0.081633 2:0.014577 3:0.039359 4:0.04519 5:0.034985 6:0.08309 7:0.017493 8:0.027697 9:0.026239 10:0.170554 11:0.021866 12:0.023324 13:0.046647 14:0.065598 15:0.062682 16:0.068513 17:0.04519 18:0.080175 19:0.017493 20:0.027697 
0.05742302559464311 1:0.038869 2:0.010601 3:0.028269 4:0.113074 5:0.053004 6:0.028269 7:0.031802 8:0.091873 9:0.102473 10:0.102473 11:0.021201 12:0.028269 13:0.021201 14:0.045936 15:0.084806 16:0.053004 17:0.028269 18:0.060071 19:0.007067 20:0.04947 
0.02245007755688429 1:0.126126 2:0.036036 3:0 4:0 5:0.099099 6:0.027027 7:0.045045 8:0.054054 9:0.045045 10:0.153153 11:0.009009 12:0.018018 13:0.018018 14:0.045045 15:0.099099 16:0.063063 17:0.072072 18:0.036036 19:0.018018 20:0.036036 
4 1:0.077083 2:0.014583 3:0.053125 4:0.042708 5:0.048958 6:0.079167 7:0.023958 8:0.045833 9:0.055208 10:0.103125 11:0.021875 12:0.040625 13:0.057292 14:0.029167 15:0.05 16:0.077083 17:0.05 18:0.065625 19:0.015625 20:0.048958 
2.010918695102519 1:0.036247 2:0.016347 3:0.046908 4:0.04833 5:0.061123 6:0.051173 7:0.02914 8:0.083866 9:0.075338 10:0.088842 11:0.0199 12:0.122246 13:0.026297 14:0.029851 15:0.024165 16:0.08742 17:0.056148 18:0.054016 19:0.007107 20:0.035537 
0.0999088888833406 1:0.08596 2:0.002865 3:0.034384 4:0.063037 5:0.088825 6:0.048711 7:0.051576 8:0.057307 9:0.071633 10:0.097421 11:0.040115 12:0.045845 13:0.04298 14:0.034384 15:0.031519 16:0.028653 17:0.057307 18:0.051576 19:0.017192 20:0.048711 
2.018403067954844 1:0.054591 2:0.016749 3:0.066377 4:0.065757 5:0.049007 6:0.060794 7:0.014268 8:0.060794 9:0.061414 10:0.094913 11:0.01861 12:0.057692 13:0.03536 14:0.031638 15:0.058933 16:0.075682 17:0.058313 18:0.07072 19:0.013027 20:0.03536 
3.537493634586342 1:0.076233 2:0.008969 3:0.052317 4:0.041854 5:0.047833 6:0.073244 7:0.026906 8:0.043348 9:0.043348 10:0.061286 11:0.032885 12:0.082212 13:0.050822 14:0.037369 15:0.043348 16:0.103139 17:0.064275 18:0.058296 19:0.014948 20:0.037369 
0.06843093069542204 1:0.074919 2:0.016287 3:0.032573 4:0.039088 5:0.04886 6:0.084691 7:0.003257 8:0.065147 9:0.087948 10:0.074919 11:0.045603 12:0.045603 13:0.042345 14:0.032573 15:0.045603 16:0.065147 17:0.058632 18:0.084691 19:0.009772 20:0.042345 
0.02873440188115341 1:0.057355 2:0.020243 3:0.062078 4:0.056005 5:0.047233 6:0.067476 7:0.027665 8:0.05803 9:0.061404 10:0.069501 11:0.027665 12:0.049933 13:0.048583 14:0.033063 15:0.048583 16:0.10054 17:0.047908 18:0.066802 19:0.012821 20:0.037112 
0.06131574289305624 1:0.087786 2:0.015267 3:0.01145 4:0.045802 5:0.09542 6:0.053435 7:0.003817 8:0.103053 9:0.091603 10:0.141221 11:0.022901 12:0.038168 13:0.026718 14:0.01145 15:0.003817 16:0.076336 17:0.038168 18:0.064885 19:0.007634 20:0.061069 
0.3677538067991057 1:0.055556 2:0.008547 3:0.042735 4:0.064103 5:0.064103 6:0.08547 7:0.008547 8:0.081197 9:0.051282 10:0.076923 11:0.025641 12:0.034188 13:0.042735 14:0.017094 15:0.025641 16:0.064103 17:0.059829 18:0.115385 19:0.017094 20:0.059829 
1.154555573169225 1:0.054455 2:0.011551 3:0.036304 4:0.036304 5:0.041254 6:0.125413 7:0.036304 8:0.062706 9:0.037954 10:0.070957 11:0.034653 12:0.041254 13:0.064356 14:0.041254 15:0.051155 16:0.070957 17:0.054455 18:0.084158 19:0.011551 20:0.033003 
0.177360087111592 1:0.041176 2:0 3:0.011765 4:0.047059 5:0.082353 6:0.070588 7:0 8:0.194118 9:0.105882 10:0.117647 11:0.017647 12:0.035294 13:0.011765 14:0.005882 15:0.041176 16:0.052941 17:0.047059 18:0.047059 19:0.005882 20:0.064706 
0.08183575082892301 1:0.146245 2:0.003953 3:0.011858 4:0.019763 5:0.067194 6:0.134387 7:0.019763 8:0.083004 9:0.01581 10:0.090909 11:0.01581 12:0.055336 13:0.047431 14:0.003953 15:0.019763 16:0.059289 17:0.067194 18:0.098814 19:0.019763 20:0.019763 
0.4100107228694965 1:0.107001 2:0.021136 3:0.046235 4:0.046235 5:0.046235 6:0.114927 7:0.023778 8:0.047556 9:0.029062 10:0.080581 11:0.018494 12:0.025099 13:0.128137 14:0.023778 15:0.05284 16:0.048877 17:0.046235 18:0.050198 19:0.015852 20:0.027741 
1.231809822544749 1:0.068433 2:0.015453 3:0.048565 4:0.059603 5:0.055188 6:0.081678 7:0.013245 8:0.065121 9:0.060706 10:0.080574 11:0.027594 12:0.045254 13:0.03532 14:0.04415 15:0.049669 16:0.077263 17:0.050773 18:0.066225 19:0.016556 20:0.038631 
0.3677888814114497 1:0.072951 2:0.016393 3:0.053279 4:0.07459 5:0.039344 6:0.077869 7:0.013934 8:0.069672 9:0.061475 10:0.090984 11:0.02459 12:0.038525 13:0.048361 14:0.042623 15:0.046721 16:0.057377 17:0.063115 18:0.080328 19:0.009836 20:0.018033 
0.2817033849596151 1:0.221311 2:0 3:0 4:0.008197 5:0.02459 6:0.122951 7:0 8:0.07377 9:0.02459 10:0.081967 11:0.04918 12:0.008197 13:0.016393 14:0.008197 15:0.02459 16:0.139344 17:0.057377 18:0.131148 19:0 20:0.008197 
0.3080218821589758 1:0.09596 2:0.005051 3:0.050505 4:0.055556 5:0.050505 6:0.075758 7:0.005051 8:0.15404 9:0.085859 10:0.093434 11:0.017677 12:0.017677 13:0.04798 14:0.020202 15:0.025253 16:0.04798 17:0.05303 18:0.068182 19:0.005051 20:0.025253 
0.1118349082281542 1:0.157459 2:0.024862 3:0.030387 4:0.030387 5:0.033149 6:0.077348 7:0.016575 8:0.013812 9:0.01105 10:0.176796 11:0.005525 12:0.008287 13:0.060773 14:0.035912 15:0.09116 16:0.085635 17:0.044199 18:0.063536 19:0.01105 20:0.022099 
0.2744446109548596 1:0.060185 2:0.00463 3:0.027778 4:0.060185 5:0.037037 6:0.069444 7:0.009259 8:0.069444 9:0.013889 10:0.064815 11:0.00463 12:0.009259 13:0.041667 14:0.009259 15:0.023148 16:0.134259 17:0.217593 18:0.106481 19:0 20:0.037037 
1.148538857194813 1:0.052 2:0.009333 3:0.061333 4:0.046667 5:0.056 6:0.062667 7:0.025333 8:0.076 9:0.058667 10:0.101333 11:0.024 12:0.050667 13:0.041333 14:0.033333 15:0.032 16:0.093333 17:0.06 18:0.058667 19:0.017333 20:0.04 
0.7429027435738137 1:0.042269 2:0.010011 3:0.051168 4:0.091212 5:0.041157 6:0.031146 7:0.028921 8:0.064516 9:0.05673 10:0.121246 11:0.012236 12:0.054505 13:0.03782 14:0.048943 15:0.051168 16:0.116796 17:0.048943 18:0.043382 19:0.011123 20:0.036707 
0.3828257341314811 1:0.091603 2:0 3:0.045802 4:0.083969 5:0.022901 6:0.076336 7:0.007634 8:0.114504 9:0.083969 10:0.068702 11:0.030534 12:0.038168 13:0.076336 14:0.007634 15:0.038168 16:0.030534 17:0.030534 18:0.122137 19:0 20:0.030534 
0.2611596307486918 1:0.115385 2:0.052885 3:0.028846 4:0.024038 5:0.038462 6:0.091346 7:0 8:0.076923 9:0.043269 10:0.115385 11:0.028846 12:0.033654 13:0.033654 14:0.052885 15:0.019231 16:0.057692 17:0.038462 18:0.096154 19:0.028846 20:0.024038 
0.1007914050356165 1:0.057971 2:0 3:0.021739 4:0.014493 5:0.166667 6:0.115942 7:0.007246 8:0.123188 9:0.036232 10:0.152174 11:0.014493 12:0.014493 13:0.043478 14:0.021739 15:0.043478 16:0.036232 17:0.043478 18:0.065217 19:0.014493 20:0.007246 
0.8295776991388571 1:0.038596 2:0.002005 3:0.031579 4:0.036591 5:0.052632 6:0.035088 7:0.014035 8:0.062155 9:0.094737 10:0.112782 11:0.015539 12:0.084211 13:0.040602 14:0.05213 15:0.062657 16:0.078697 17:0.087719 18:0.042105 19:0.015038 20:0.041103 
0.9964708591656812 1:0.091205 2:0.021716 3:0.058632 4:0.068404 5:0.053203 6:0.096634 7:0.018458 8:0.051031 9:0.038002 10:0.103149 11:0.014115 12:0.021716 13:0.045603 14:0.024973 15:0.052117 16:0.053203 17:0.052117 18:0.091205 19:0.014115 20:0.030402 
0.9596284697903581 1:0.057292 2:0.018229 3:0.0625 4:0.059896 5:0.075521 6:0.052083 7:0.054688 8:0.03125 9:0.070313 10:0.119792 11:0.023438 12:0.033854 13:0.046875 14:0.018229 15:0.026042 16:0.046875 17:0.054688 18:0.0625 19:0.023438 20:0.0625 
1.160579123002671 1:0.051601 2:0.02669 3:0.05694 4:0.032028 5:0.062278 6:0.065836 7:0.012456 8:0.074733 9:0.053381 10:0.087189 11:0.030249 12:0.069395 13:0.060498 14:0.037367 15:0.023132 16:0.065836 17:0.069395 18:0.069395 19:0.010676 20:0.040925 
0.9916086631247299 1:0.035256 2:0.010684 3:0.047009 4:0.060897 5:0.068376 6:0.029915 7:0.026709 8:0.057692 9:0.084402 10:0.106838 11:0.014957 12:0.082265 13:0.030983 14:0.037393 15:0.034188 16:0.128205 17:0.065171 18:0.050214 19:0.002137 20:0.026709 
0.6573291633212309 1:0.118705 2:0.017986 3:0.052758 4:0.043165 5:0.027578 6:0.063549 7:0.017986 8:0.044365 9:0.034772 10:0.088729 11:0.021583 12:0.05036 13:0.047962 14:0.065947 15:0.043165 16:0.082734 17:0.080336 18:0.067146 19:0.010791 20:0.020384 
0.4016599516562848 1:0.086134 2:0.006303 3:0.039916 4:0.063025 5:0.031513 6:0.142857 7:0.134454 8:0.029412 9:0.02521 10:0.117647 11:0.012605 12:0.008403 13:0.042017 14:0.016807 15:0.037815 16:0.079832 17:0.039916 18:0.067227 19:0.012605 20:0.006303 
2.963874491022409 1:0.069272 2:0.017762 3:0.071048 4:0.095915 5:0.042629 6:0.053286 7:0.008881 8:0.042629 9:0.072824 10:0.087034 11:0.023091 12:0.058615 13:0.031972 14:0.05151 15:0.044405 16:0.053286 17:0.058615 18:0.081705 19:0.012433 20:0.023091 
0.3029314298002537 1:0.190909 2:0 3:0.022727 4:0.022727 5:0.059091 6:0.177273 7:0 8:0.095455 9:0.027273 10:0.122727 11:0.031818 12:0.013636 13:0.031818 14:0.027273 15:0.004545 16:0.036364 17:0.040909 18:0.081818 19:0.004545 20:0.009091 
0.1671796451837422 1:0.076923 2:0.032967 3:0.010989 4:0.032967 5:0.098901 6:0.142857 7:0.021978 8:0.131868 9:0.043956 10:0.131868 11:0.010989 12:0.021978 13:0.010989 14:0.021978 15:0 16:0.032967 17:0.043956 18:0.076923 19:0.021978 20:0.032967 
-1.685281293936161 1:0.031667 2:0.001667 3:0.076667 4:0.113333 5:0.026667 6:0.033333 7:0.011667 8:0.058333 9:0.133333 10:0.091667 11:0.03 12:0.141667 13:0.025 14:0.046667 15:0.005 16:0.041667 17:0.046667 18:0.053333 19:0 20:0.031667 
-2.754573530108366 1:0.068966 2:0.005747 3:0.045977 4:0.031609 5:0.034483 6:0.077586 7:0.014368 8:0.051724 9:0.031609 10:0.08908 11:0.025862 12:0.066092 13:0.066092 14:0.054598 15:0.063218 16:0.08908 17:0.028736 18:0.08046 19:0.011494 20:0.063218 
-4 1:0.040825 2:0.011414 3:0.058385 4:0.057068 5:0.036435 6:0.03863 7:0.026339 8:0.061457 9:0.076383 10:0.083406 11:0.018437 12:0.080773 13:0.046532 14:0.03468 15:0.046532 16:0.122476 17:0.072432 18:0.045215 19:0.007902 20:0.03468 
-4 1:0.088583 2:0.023622 3:0.049213 4:0.057087 5:0.041339 6:0.11811 7:0.009843 8:0.062992 9:0.059055 10:0.084646 11:0.023622 12:0.025591 13:0.051181 14:0.041339 15:0.027559 16:0.064961 17:0.049213 18:0.076772 19:0.011811 20:0.033465 
-2.197774054432765 1:0.076023 2:0.002924 3:0.046784 4:0.04386 5:0.055556 6:0.073099 7:0.002924 8:0.038012 9:0.040936 10:0.087719 11:0.035088 12:0.096491 13:0.067251 14:0.04386 15:0.052632 16:0.073099 17:0.040936 18:0.064327 19:0.008772 20:0.049708 
-4 1:0.060311 2:0.009728 3:0.060311 4:0.075875 5:0.050584 6:0.085603 7:0.027237 8:0.060311 9:0.07393 10:0.097276 11:0.011673 12:0.054475 13:0.046693 14:0.027237 15:0.035019 16:0.064202 17:0.054475 18:0.064202 19:0.011673 20:0.029183 
-2.511691589189166 1:0.089337 2:0.002882 3:0.043228 4:0.040346 5:0.048991 6:0.072046 7:0.005764 8:0.04611 9:0.04611 10:0.086455 11:0.014409 12:0.092219 13:0.054755 14:0.037464 15:0.04611 16:0.092219 17:0.04611 18:0.074928 19:0.008646 20:0.051873 
-3.918627902003482 1:0.044248 2:0.00885 3:0.059735 4:0.04646 5:0.084071 6:0.061947 7:0.017699 8:0.070796 9:0.090708 10:0.088496 11:0.017699 12:0.073009 13:0.033186 14:0.030973 15:0.013274 16:0.059735 17:0.075221 18:0.066372 19:0.00885 20:0.048673 
-4 1:0.075972 2:0.0053 3:0.077739 4:0.063604 5:0.04417 6:0.065371 7:0.045936 8:0.04417 9:0.04947 10:0.095406 11:0.012367 12:0.047703 13:0.031802 14:0.035336 15:0.042403 16:0.086572 17:0.061837 18:0.070671 19:0.008834 20:0.035336 
-2.809301363209693 1:0.056962 2:0.003165 3:0.088608 4:0.079114 5:0.018987 6:0.047468 7:0.012658 8:0.041139 9:0.06962 10:0.110759 11:0.022152 12:0.050633 13:0.028481 14:0.066456 15:0.10443 16:0.056962 17:0.053797 18:0.053797 19:0.012658 20:0.022152 
-2.015159093855093 1:0.086111 2:0.008333 3:0.058333 4:0.047222 5:0.052778 6:0.091667 7:0.019444 8:0.058333 9:0.052778 10:0.108333 11:0.005556 12:0.052778 13:0.041667 14:0.044444 15:0.008333 16:0.088889 17:0.077778 18:0.038889 19:0.011111 20:0.047222 
