svm_type c_svc
kernel_type rbf
gamma 128
nr_class 2
total_sv 220
rho -0.0364614
label 1 -1
nr_sv 107 113
SV
2.546152160038452 1:0.06988 2:0.021687 3:0.053012 4:0.06988 5:0.028916 6:0.081928 7:0.014458 8:0.072289 9:0.057831 10:0.077108 11:0.019277 12:0.031325 13:0.038554 14:0.043373 15:0.036145 16:0.108434 17:0.053012 18:0.072289 19:0.004819 20:0.045783 
4 1:0.067797 2:0 3:0.061017 4:0.050847 5:0.037288 6:0.061017 7:0.016949 8:0.064407 9:0.064407 10:0.111864 11:0.037288 12:0.037288 13:0.033898 14:0.077966 15:0.071186 16:0.040678 17:0.067797 18:0.057627 19:0 20:0.040678 
3.73112485784691 1:0.058052 2:0.014981 3:0.052434 4:0.052434 5:0.041199 6:0.069288 7:0.037453 8:0.086142 9:0.059925 10:0.095506 11:0.016854 12:0.073034 13:0.035581 14:0.026217 15:0.02809 16:0.088015 17:0.078652 18:0.052434 19:0.003745 20:0.029963 
4 1:0.101373 2:0.016895 3:0.047518 4:0.072862 5:0.040127 6:0.090813 7:0.019007 8:0.041183 9:0.04963 10:0.090813 11:0.032735 12:0.033791 13:0.051742 14:0.042239 15:0.06019 16:0.053854 17:0.04963 18:0.080253 19:0.009504 20:0.015839 
0.5626686843644939 1:0.043011 2:0.075269 3:0.11828 4:0.075269 5:0.032258 6:0.096774 7:0.010753 8:0.032258 9:0.064516 10:0.086022 11:0 12:0 13:0.043011 14:0.032258 15:0.010753 16:0.107527 17:0.086022 18:0.043011 19:0 20:0.043011 
1.096587796276963 1:0 2:0 3:0.077922 4:0.064935 5:0.012987 6:0.077922 7:0.012987 8:0.116883 9:0.051948 10:0.077922 11:0.025974 12:0.051948 13:0.038961 14:0.012987 15:0.142857 16:0.090909 17:0.025974 18:0.051948 19:0.025974 20:0.038961 
2.131167326357065 1:0.088312 2:0.015584 3:0.05974 4:0.067532 5:0.05974 6:0.077922 7:0.020779 8:0.044156 9:0.062338 10:0.054545 11:0.015584 12:0.023377 13:0.080519 14:0.031169 15:0.062338 16:0.064935 17:0.051948 18:0.057143 19:0.025974 20:0.036364 
0.7813522452383215 1:0.052452 2:0.009122 3:0.061574 4:0.078677 5:0.038769 6:0.053592 7:0.013683 8:0.08894 9:0.058153 10:0.125428 11:0.014823 12:0.063854 13:0.026226 14:0.050171 15:0.053592 16:0.055872 17:0.051311 18:0.052452 19:0.007982 20:0.04333 
1.114417831423904 1:0.095238 2:0 3:0.047619 4:0.142857 5:0 6:0.047619 7:0 8:0.047619 9:0.095238 10:0 11:0 12:0.047619 13:0 14:0.047619 15:0.047619 16:0.190476 17:0.095238 18:0.095238 19:0 20:0 
0.4805778761646571 1:0.166667 2:0.055556 3:0.071429 4:0.039683 5:0.02381 6:0.071429 7:0.007937 8:0.02381 9:0.039683 10:0.055556 11:0.047619 12:0.007937 13:0.047619 14:0.039683 15:0.047619 16:0.079365 17:0.079365 18:0.055556 19:0 20:0.039683 
3.698749651411321 1:0.068592 2:0.00361 3:0.054152 4:0.036101 5:0.036101 6:0.072202 7:0.043321 8:0.043321 9:0.072202 10:0.104693 11:0.01444 12:0.061372 13:0.025271 14:0.021661 15:0.021661 16:0.108303 17:0.093863 18:0.083032 19:0.00361 20:0.032491 
4 1:0.107822 2:0.021142 3:0.05074 4:0.048626 5:0.038055 6:0.103594 7:0.02537 8:0.065539 9:0.05074 10:0.071882 11:0.02537 12:0.052854 13:0.044397 14:0.027484 15:0.052854 16:0.084567 17:0.044397 18:0.059197 19:0.004228 20:0.021142 
0.6556069388426766 1:0.106227 2:0 3:0.03663 4:0.043956 5:0.054945 6:0.120879 7:0.010989 8:0.051282 9:0.054945 10:0.113553 11:0.025641 12:0.03663 13:0.062271 14:0.043956 15:0.03663 16:0.069597 17:0.040293 18:0.040293 19:0.018315 20:0.032967 
4 1:0.063291 2:0 3:0.050633 4:0.07173 5:0.054852 6:0.029536 7:0.012658 8:0.084388 9:0.097046 10:0.105485 11:0.050633 12:0.067511 13:0.021097 14:0.037975 15:0.037975 16:0.080169 17:0.033755 18:0.042194 19:0.004219 20:0.054852 
0.8713060618266947 1:0.162162 2:0 3:0.027027 4:0 5:0.027027 6:0.054054 7:0 8:0.081081 9:0 10:0.216216 11:0.054054 12:0.027027 13:0.027027 14:0.027027 15:0.135135 16:0.081081 17:0 18:0.054054 19:0.027027 20:0 
4 1:0.082278 2:0.014768 3:0.065401 4:0.052743 5:0.042194 6:0.097046 7:0.006329 8:0.048523 9:0.061181 10:0.06962 11:0.042194 12:0.056962 13:0.044304 14:0.044304 15:0.050633 16:0.050633 17:0.054852 18:0.075949 19:0.006329 20:0.033755 
1.704259428313968 1:0.082353 2:0.023529 3:0.047059 4:0.082353 5:0.035294 6:0.082353 7:0.011765 8:0.070588 9:0.070588 10:0.035294 11:0.035294 12:0.129412 13:0.023529 14:0.035294 15:0.011765 16:0.070588 17:0.058824 18:0.070588 19:0.011765 20:0.011765 
0.9964394715931765 1:0.109244 2:0.004202 3:0.07563 4:0.067227 5:0.02521 6:0.067227 7:0.004202 8:0.021008 9:0.037815 10:0.063025 11:0.05042 12:0.029412 13:0.067227 14:0.05042 15:0.12605 16:0.067227 17:0.02521 18:0.088235 19:0.016807 20:0.004202 
0.2387543195074342 1:0.06044 2:0.027473 3:0.06044 4:0.032967 5:0.043956 6:0.043956 7:0 8:0.049451 9:0.098901 10:0.098901 11:0.010989 12:0.032967 13:0.038462 14:0.016484 15:0.032967 16:0.131868 17:0.082418 18:0.10989 19:0.016484 20:0.010989 
1.513595520194979 1:0.09009 2:0.009009 3:0.045045 4:0.040541 5:0.031532 6:0.108108 7:0.045045 8:0.031532 9:0.040541 10:0.094595 11:0.009009 12:0.04955 13:0.063063 14:0.018018 15:0.018018 16:0.108108 17:0.112613 18:0.085586 19:0 20:0 
0.9597751757757478 1:0.266667 2:0 3:0.066667 4:0.066667 5:0 6:0 7:0 8:0 9:0.066667 10:0.2 11:0 12:0 13:0 14:0.066667 15:0 16:0.066667 17:0.133333 18:0.066667 19:0 20:0 
4 1:0.107368 2:0.010526 3:0.054737 4:0.071579 5:0.04 6:0.090526 7:0.035789 8:0.04 9:0.052632 10:0.088421 11:0.027368 12:0.016842 13:0.044211 14:0.023158 15:0.058947 16:0.073684 17:0.061053 18:0.069474 19:0.006316 20:0.027368 
4 1:0.075107 2:0.008584 3:0.055794 4:0.066524 5:0.049356 6:0.055794 7:0.012876 8:0.060086 9:0.05794 10:0.096567 11:0.025751 12:0.034335 13:0.053648 14:0.040773 15:0.049356 16:0.092275 17:0.040773 18:0.079399 19:0.008584 20:0.036481 
4 1:0.079077 2:0.018122 3:0.052718 4:0.057661 5:0.041186 6:0.087315 7:0.023064 8:0.054366 9:0.07084 10:0.093904 11:0.024712 12:0.034596 13:0.047776 14:0.024712 15:0.037891 16:0.057661 17:0.060956 18:0.087315 19:0.01318 20:0.032949 
0.7038604369392691 1:0.109244 2:0.008403 3:0.046218 4:0.054622 5:0.046218 6:0.092437 7:0.012605 8:0.079832 9:0.071429 10:0.071429 11:0.016807 12:0.02521 13:0.042017 14:0.029412 15:0.054622 16:0.113445 17:0.029412 18:0.054622 19:0.016807 20:0.02521 
0.9737215943206985 1:0 2:0.041667 3:0.208333 4:0.083333 5:0.083333 6:0.041667 7:0.041667 8:0.041667 9:0.083333 10:0 11:0.083333 12:0 13:0.083333 14:0 15:0 16:0 17:0.041667 18:0.083333 19:0.083333 20:0 
0.07700075929531788 1:0.09375 2:0.052083 3:0.114583 4:0.125 5:0.041667 6:0.0625 7:0.010417 8:0.041667 9:0.041667 10:0.052083 11:0 12:0 13:0.03125 14:0.03125 15:0.010417 16:0.083333 17:0.0625 18:0.104167 19:0 20:0.041667 
4 1:0.060209 2:0.015707 3:0.060209 4:0.057592 5:0.036649 6:0.068063 7:0.02356 8:0.044503 9:0.04712 10:0.099476 11:0.031414 12:0.036649 13:0.039267 14:0.020942 15:0.081152 16:0.08377 17:0.081152 18:0.073298 19:0.02356 20:0.015707 
3.474056677660601 1:0.101617 2:0.004619 3:0.062356 4:0.062356 5:0.036952 6:0.094688 7:0.013857 8:0.057737 9:0.092379 10:0.115473 11:0.013857 12:0.025404 13:0.048499 14:0.016166 15:0.020785 16:0.083141 17:0.046189 18:0.08776 19:0.004619 20:0.011547 
2.578256752889291 1:0.080311 2:0.012953 3:0.051813 4:0.07772 5:0.033679 6:0.046632 7:0.002591 8:0.062176 9:0.064767 10:0.095855 11:0.025907 12:0.036269 13:0.041451 14:0.03886 15:0.064767 16:0.098446 17:0.051813 18:0.090674 19:0.002591 20:0.020725 
0.8872927687943498 1:0.056338 2:0 3:0.014085 4:0.112676 5:0.042254 6:0.056338 7:0 8:0.084507 9:0.056338 10:0.042254 11:0.014085 12:0.084507 13:0.014085 14:0.028169 15:0.070423 16:0.098592 17:0.070423 18:0.098592 19:0.014085 20:0.042254 
4 1:0.081522 2:0.018116 3:0.039855 4:0.085145 5:0.027174 6:0.054348 7:0.023551 8:0.061594 9:0.068841 10:0.096014 11:0.027174 12:0.036232 13:0.030797 14:0.030797 15:0.063406 16:0.09058 17:0.057971 18:0.09058 19:0.005435 20:0.01087 
4 1:0.122905 2:0.01676 3:0.041899 4:0.067039 5:0.036313 6:0.067039 7:0 8:0.047486 9:0.075419 10:0.094972 11:0.027933 12:0.041899 13:0.03352 14:0.050279 15:0.055866 16:0.064246 17:0.050279 18:0.086592 19:0 20:0.019553 
4 1:0.069767 2:0.02907 3:0.065891 4:0.050388 5:0.042636 6:0.075581 7:0.021318 8:0.077519 9:0.05814 10:0.079457 11:0.023256 12:0.046512 13:0.03876 14:0.03876 15:0.04845 16:0.079457 17:0.056202 18:0.05814 19:0.005814 20:0.034884 
4 1:0.08776 2:0.013857 3:0.057737 4:0.071594 5:0.053118 6:0.076212 7:0.018476 8:0.073903 9:0.080831 10:0.078522 11:0.020785 12:0.034642 13:0.034642 14:0.018476 15:0.039261 16:0.053118 17:0.073903 18:0.057737 19:0.018476 20:0.036952 
4 1:0.047855 2:0.013201 3:0.064356 4:0.051155 5:0.044554 6:0.054455 7:0.028053 8:0.067657 9:0.072607 10:0.084158 11:0.009901 12:0.072607 13:0.069307 14:0.036304 15:0.041254 16:0.077558 17:0.047855 18:0.064356 19:0.013201 20:0.039604 
4 1:0.123711 2:0.010309 3:0.036082 4:0.069588 5:0.025773 6:0.079897 7:0.007732 8:0.043814 9:0.061856 10:0.090206 11:0.023196 12:0.043814 13:0.051546 14:0.046392 15:0.046392 16:0.061856 17:0.056701 18:0.069588 19:0.018041 20:0.033505 
1.690599226648189 1:0.093079 2:0.01432 3:0.066826 4:0.057279 5:0.0358 6:0.066826 7:0.002387 8:0.050119 9:0.050119 10:0.093079 11:0.031026 12:0.02864 13:0.040573 14:0.023866 15:0.093079 16:0.073986 17:0.050119 18:0.071599 19:0.016706 20:0.040573 
4 1:0.090461 2:0.011513 3:0.052632 4:0.054276 5:0.039474 6:0.085526 7:0.027961 8:0.064145 9:0.067434 10:0.083882 11:0.03125 12:0.036184 13:0.050987 14:0.029605 15:0.044408 16:0.050987 17:0.052632 18:0.080592 19:0.014803 20:0.03125 
1.643769001403539 1:0.117757 2:0.018692 3:0.04486 4:0.078505 5:0.020561 6:0.061682 7:0.018692 8:0.048598 9:0.065421 10:0.085981 11:0.041121 12:0.031776 13:0.029907 14:0.028037 15:0.074766 16:0.080374 17:0.042991 18:0.091589 19:0.007477 20:0.011215 
4 1:0.056911 2:0.01355 3:0.059621 4:0.084011 5:0.02981 6:0.051491 7:0.0271 8:0.059621 9:0.062331 10:0.078591 11:0.01355 12:0.03794 13:0.03252 14:0.03523 15:0.084011 16:0.075881 17:0.075881 18:0.073171 19:0.02168 20:0.0271 
1.332149999346577 1:0.045872 2:0.018349 3:0.06422 4:0.036697 5:0.027523 6:0.036697 7:0.027523 8:0.100917 9:0.082569 10:0.06422 11:0.027523 12:0.045872 13:0.055046 14:0.036697 15:0.027523 16:0.06422 17:0.091743 18:0.110092 19:0.018349 20:0.018349 
2.45854203071683 1:0.074324 2:0.054054 3:0.054054 4:0.067568 5:0.047297 6:0.047297 7:0.02027 8:0.033784 9:0.081081 10:0.060811 11:0.033784 12:0.02027 13:0.047297 14:0.040541 15:0.060811 16:0.094595 17:0.060811 18:0.060811 19:0.006757 20:0.033784 
0.1812837849187 1:0.056738 2:0.014184 3:0.070922 4:0.056738 5:0.021277 6:0.163121 7:0.056738 8:0.035461 9:0.035461 10:0.099291 11:0.007092 12:0.042553 13:0.049645 14:0.021277 15:0.028369 16:0.049645 17:0.092199 18:0.099291 19:0 20:0 
4 1:0.070479 2:0.014628 3:0.06117 4:0.06117 5:0.037234 6:0.089096 7:0.029255 8:0.050532 9:0.06383 10:0.085106 11:0.022606 12:0.053191 13:0.035904 14:0.034574 15:0.046543 16:0.077128 17:0.039894 18:0.073138 19:0.021277 20:0.033245 
3.401593827230586 1:0.083721 2:0.013953 3:0.044186 4:0.069767 5:0.018605 6:0.090698 7:0.02093 8:0.07907 9:0.05814 10:0.05814 11:0.018605 12:0.046512 13:0.062791 14:0.030233 15:0.046512 16:0.069767 17:0.062791 18:0.05814 19:0.027907 20:0.039535 
4 1:0.056 2:0.016 3:0.056 4:0.058667 5:0.034667 6:0.074667 7:0.021333 8:0.050667 9:0.08 10:0.074667 11:0.026667 12:0.042667 13:0.072 14:0.032 15:0.048 16:0.085333 17:0.048 18:0.064 19:0.013333 20:0.045333 
0.1007922750359164 1:0.073684 2:0.042105 3:0.073684 4:0.126316 5:0.052632 6:0.094737 7:0.010526 8:0.042105 9:0.042105 10:0.094737 11:0.010526 12:0 13:0.042105 14:0.021053 15:0.010526 16:0.094737 17:0.073684 18:0.073684 19:0 20:0.021053 
2.138582859146706 1:0.120155 2:0.011628 3:0.05814 4:0.050388 5:0.042636 6:0.081395 7:0.011628 8:0.031008 9:0.081395 10:0.077519 11:0.003876 12:0.042636 13:0.042636 14:0.03876 15:0.034884 16:0.093023 17:0.065891 18:0.05814 19:0.007752 20:0.046512 
4 1:0.109694 2:0.012755 3:0.02551 4:0.079082 5:0.030612 6:0.086735 7:0.007653 8:0.079082 9:0.071429 10:0.091837 11:0.022959 12:0.028061 13:0.053571 14:0.033163 15:0.038265 16:0.089286 17:0.053571 18:0.063776 19:0.002551 20:0.020408 
2.383634723058465 1:0.074468 2:0.017021 3:0.07234 4:0.053191 5:0.051064 6:0.07234 7:0.010638 8:0.091489 9:0.07234 10:0.061702 11:0.017021 12:0.046809 13:0.048936 14:0.02766 15:0.046809 16:0.059574 17:0.059574 18:0.070213 19:0.008511 20:0.038298 
4 1:0.090526 2:0.033684 3:0.058947 4:0.054737 5:0.042105 6:0.098947 7:0.027368 8:0.044211 9:0.054737 10:0.086316 11:0.021053 12:0.035789 13:0.029474 14:0.023158 15:0.058947 16:0.04 17:0.069474 18:0.063158 19:0.016842 20:0.050526 
4 1:0.062602 2:0.012195 3:0.064228 4:0.079675 5:0.045528 6:0.066667 7:0.030894 8:0.052033 9:0.070732 10:0.080488 11:0.01626 12:0.047967 13:0.043089 14:0.034146 15:0.052033 16:0.074797 17:0.04878 18:0.070732 19:0.019512 20:0.027642 
4 1:0.059406 2:0.009901 3:0.049505 4:0.044554 5:0.044554 6:0.056931 7:0.066832 8:0.044554 9:0.049505 10:0.108911 11:0.022277 12:0.042079 13:0.079208 14:0.014851 15:0.044554 16:0.066832 17:0.042079 18:0.066832 19:0.037129 20:0.049505 
3.158646083085751 1:0.073892 2:0.014778 3:0.064039 4:0.073892 5:0.024631 6:0.078818 7:0.014778 8:0.08867 9:0.044335 10:0.083744 11:0.054187 12:0.034483 13:0.044335 14:0.034483 15:0.044335 16:0.049261 17:0.029557 18:0.08867 19:0.009852 20:0.049261 
4 1:0.109091 2:0.019835 3:0.05124 4:0.06281 5:0.036364 6:0.092562 7:0.016529 8:0.042975 9:0.049587 10:0.077686 11:0.033058 12:0.034711 13:0.05124 14:0.029752 15:0.061157 16:0.052893 17:0.041322 18:0.090909 19:0.013223 20:0.033058 
2.716749122881034 1:0.091892 2:0.005405 3:0.048649 4:0.043243 5:0.032432 6:0.032432 7:0.010811 8:0.108108 9:0.097297 10:0.124324 11:0.021622 12:0.048649 13:0.016216 14:0.054054 15:0.016216 16:0.102703 17:0.086486 18:0.043243 19:0 20:0.016216 
3.418455490918255 1:0.063315 2:0.011173 3:0.037244 4:0.05959 5:0.035382 6:0.111732 7:0.007449 8:0.052142 9:0.05959 10:0.113594 11:0.01676 12:0.035382 13:0.072626 14:0.022346 15:0.055866 16:0.087523 17:0.054004 18:0.068901 19:0.009311 20:0.026071 
1.628930666887631 1:0.097222 2:0.048611 3:0.0625 4:0.0625 5:0.055556 6:0.041667 7:0.027778 8:0.027778 9:0.0625 10:0.041667 11:0.034722 12:0.034722 13:0.0625 14:0.034722 15:0.0625 16:0.055556 17:0.076389 18:0.083333 19:0.006944 20:0.020833 
1.365419612772232 1:0.108108 2:0.018018 3:0.045045 4:0.054054 5:0.033784 6:0.094595 7:0.009009 8:0.060811 9:0.047297 10:0.101351 11:0.024775 12:0.038288 13:0.036036 14:0.02027 15:0.051802 16:0.114865 17:0.038288 18:0.087838 19:0.002252 20:0.013514 
4 1:0.066298 2:0.027624 3:0.033149 4:0.055249 5:0.049724 6:0.060773 7:0.022099 8:0.060773 9:0.071823 10:0.071823 11:0.027624 12:0.044199 13:0.071823 14:0.027624 15:0.038674 16:0.088398 17:0.049724 18:0.066298 19:0.022099 20:0.044199 
1.746598367927932 1:0.074074 2:0.009259 3:0.04321 4:0.101852 5:0.061728 6:0.064815 7:0.012346 8:0.030864 9:0.037037 10:0.074074 11:0.021605 12:0.037037 13:0.037037 14:0.024691 15:0.052469 16:0.148148 17:0.055556 18:0.08642 19:0.003086 20:0.024691 
0.9560407512117803 1:0.25 2:0 3:0 4:0.083333 5:0.083333 6:0.166667 7:0 8:0 9:0 10:0 11:0 12:0.083333 13:0.083333 14:0 15:0 16:0.083333 17:0 18:0.083333 19:0 20:0.083333 
4 1:0.080235 2:0.015656 3:0.048924 4:0.066536 5:0.039139 6:0.072407 7:0.035225 8:0.041096 9:0.046967 10:0.107632 11:0.031311 12:0.039139 13:0.050881 14:0.041096 15:0.068493 16:0.068493 17:0.054795 18:0.062622 19:0.011742 20:0.017613 
4 1:0.072464 2:0.021739 3:0.050725 4:0.057971 5:0.050725 6:0.043478 7:0.014493 8:0.057971 9:0.065217 10:0.072464 11:0.014493 12:0.057971 13:0.057971 14:0.050725 15:0.057971 16:0.065217 17:0.043478 18:0.065217 19:0.021739 20:0.057971 
1.42908318543769 1:0.069767 2:0.023256 3:0.05168 4:0.067183 5:0.041344 6:0.087855 7:0.01292 8:0.049096 9:0.069767 10:0.105943 11:0.023256 12:0.033592 13:0.03876 14:0.023256 15:0.03876 16:0.085271 17:0.069767 18:0.072351 19:0.005168 20:0.031008 
4 1:0.109051 2:0.017448 3:0.056707 4:0.050164 5:0.033806 6:0.070883 7:0.02072 8:0.057797 9:0.04253 10:0.091603 11:0.022901 12:0.035987 13:0.039258 14:0.037077 15:0.057797 16:0.087241 17:0.050164 18:0.081788 19:0.011996 20:0.025082 
2.753192385244813 1:0.101215 2:0.02834 3:0.044534 4:0.032389 5:0.040486 6:0.089069 7:0.020243 8:0.040486 9:0.044534 10:0.11336 11:0.024291 12:0.048583 13:0.064777 14:0.02834 15:0.032389 16:0.072874 17:0.076923 18:0.064777 19:0.016194 20:0.016194 
1.982302271268677 1:0.089835 2:0.014184 3:0.06383 4:0.049645 5:0.028369 6:0.049645 7:0.002364 8:0.037825 9:0.061466 10:0.108747 11:0.030733 12:0.040189 13:0.044917 14:0.028369 15:0.078014 16:0.089835 17:0.037825 18:0.082742 19:0.018913 20:0.042553 
1.779669756292406 1:0.086331 2:0.014388 3:0.05036 4:0.079137 5:0.035971 6:0.064748 7:0.014388 8:0.057554 9:0.028777 10:0.079137 11:0.014388 12:0.035971 13:0.057554 14:0.028777 15:0.086331 16:0.079137 17:0.043165 18:0.05036 19:0.028777 20:0.064748 
0.9061176050229416 1:0.042471 2:0.003861 3:0.046332 4:0.073359 5:0.030888 6:0.03861 7:0.027027 8:0.135135 9:0.127413 10:0.100386 11:0.003861 12:0.158301 13:0.011583 14:0.023166 15:0.019305 16:0.046332 17:0.042471 18:0.034749 19:0 20:0.034749 
4 1:0.086514 2:0.007634 3:0.040712 4:0.068702 5:0.045802 6:0.081425 7:0.012723 8:0.043257 9:0.043257 10:0.089059 11:0.017812 12:0.040712 13:0.073791 14:0.033079 15:0.071247 16:0.071247 17:0.040712 18:0.086514 19:0.015267 20:0.030534 
0.8458873630106005 1:0.048913 2:0.01087 3:0.054348 4:0.081522 5:0.021739 6:0.048913 7:0.01087 8:0.092391 9:0.043478 10:0.119565 11:0.021739 12:0.103261 13:0.016304 14:0.059783 15:0.070652 16:0.076087 17:0.054348 18:0.043478 19:0.005435 20:0.016304 
0.5703032284658202 1:0.08046 2:0.022989 3:0.034483 4:0.103448 5:0.011494 6:0.126437 7:0.022989 8:0.057471 9:0.034483 10:0.034483 11:0.022989 12:0.068966 13:0.045977 14:0.034483 15:0.011494 16:0.103448 17:0.022989 18:0.08046 19:0.022989 20:0.057471 
4 1:0.102345 2:0.014925 3:0.046908 4:0.06823 5:0.03838 6:0.063966 7:0.017058 8:0.057569 9:0.066098 10:0.081023 11:0.027719 12:0.027719 13:0.044776 14:0.027719 15:0.040512 16:0.089552 17:0.059701 18:0.089552 19:0.006397 20:0.029851 
3.863593914598672 1:0.064171 2:0.010695 3:0.032086 4:0.074866 5:0.02139 6:0.058824 7:0.037433 8:0.064171 9:0.144385 10:0.074866 11:0.016043 12:0.032086 13:0.048128 14:0.026738 15:0.037433 16:0.096257 17:0.048128 18:0.090909 19:0.010695 20:0.010695 
1.272963680242599 1:0.180952 2:0.028571 3:0 4:0.057143 5:0.019048 6:0.066667 7:0 8:0.038095 9:0.057143 10:0.028571 11:0.057143 12:0.047619 13:0.038095 14:0.028571 15:0.085714 16:0.07619 17:0.104762 18:0.07619 19:0 20:0.009524 
4 1:0.069136 2:0.012346 3:0.061728 4:0.051852 5:0.066667 6:0.071605 7:0.02716 8:0.054321 9:0.066667 10:0.079012 11:0.009877 12:0.041975 13:0.061728 14:0.032099 15:0.041975 16:0.116049 17:0.044444 18:0.05679 19:0.009877 20:0.024691 
0.7474441913179356 1:0.039735 2:0.013245 3:0.062914 4:0.082781 5:0.02649 6:0.049669 7:0.023179 8:0.05298 9:0.072848 10:0.089404 11:0.016556 12:0.056291 13:0.046358 14:0.019868 15:0.069536 16:0.109272 17:0.05298 18:0.096026 19:0.003311 20:0.016556 
0.9366802085937219 1:0.138889 2:0 3:0.027778 4:0 5:0.027778 6:0.027778 7:0 8:0.083333 9:0.027778 10:0.138889 11:0.055556 12:0.027778 13:0.027778 14:0.055556 15:0.083333 16:0.083333 17:0.027778 18:0.111111 19:0.027778 20:0.027778 
2.497511149946717 1:0.079077 2:0.011532 3:0.080725 4:0.047776 5:0.039539 6:0.060956 7:0.021417 8:0.056013 9:0.07743 10:0.072488 11:0.014827 12:0.044481 13:0.074135 14:0.021417 15:0.042834 16:0.072488 17:0.07084 18:0.059308 19:0.014827 20:0.037891 
2.242946687909547 1:0.040404 2:0.010101 3:0.035354 4:0.070707 5:0.020202 6:0.050505 7:0.030303 8:0.075758 9:0.131313 10:0.09596 11:0.025253 12:0.025253 13:0.045455 14:0.025253 15:0.035354 16:0.116162 17:0.065657 18:0.080808 19:0.010101 20:0.010101 
1.442405828039864 1:0.131105 2:0.025707 3:0.046272 4:0.059126 5:0.046272 6:0.084833 7:0.015424 8:0.046272 9:0.059126 10:0.069409 11:0.03856 12:0.020566 13:0.043702 14:0.020566 15:0.056555 16:0.056555 17:0.066838 18:0.084833 19:0.005141 20:0.023136 
1.439643582321203 1:0.039648 2:0.008811 3:0.07489 4:0.066079 5:0.030837 6:0.057269 7:0.004405 8:0.057269 9:0.079295 10:0.061674 11:0.044053 12:0.026432 13:0.066079 14:0.061674 15:0.070485 16:0.123348 17:0.039648 18:0.07489 19:0.008811 20:0.004405 
4 1:0.101365 2:0.013645 3:0.062378 4:0.054581 5:0.031189 6:0.077973 7:0.019493 8:0.08577 9:0.052632 10:0.079922 11:0.02729 12:0.037037 13:0.05848 14:0.025341 15:0.054581 16:0.068226 17:0.046784 18:0.05848 19:0.005848 20:0.038986 
4 1:0.060827 2:0.019465 3:0.053528 4:0.065693 5:0.043796 6:0.053528 7:0.012165 8:0.053528 9:0.058394 10:0.099757 11:0.012165 12:0.053528 13:0.055961 14:0.038929 15:0.053528 16:0.082725 17:0.065693 18:0.068127 19:0.014599 20:0.034063 
0.1727553290579659 1:0.09375 2:0.0625 3:0.125 4:0.052083 5:0.020833 6:0.09375 7:0.010417 8:0.052083 9:0.041667 10:0.072917 11:0 12:0 13:0.03125 14:0.0625 15:0.010417 16:0.083333 17:0.072917 18:0.0625 19:0 20:0.052083 
0.04662491128414624 1:0.084158 2:0.009901 3:0.039604 4:0.044554 5:0.024752 6:0.118812 7:0.044554 8:0.029703 9:0.034653 10:0.108911 11:0.00495 12:0.049505 13:0.059406 14:0.024752 15:0.024752 16:0.084158 17:0.09901 18:0.108911 19:0 20:0.00495 
4 1:0.065292 2:0 3:0.058419 4:0.079038 5:0.027491 6:0.061856 7:0.013746 8:0.075601 9:0.082474 10:0.123711 11:0.034364 12:0.044674 13:0.030928 14:0.044674 15:0.04811 16:0.054983 17:0.058419 18:0.054983 19:0 20:0.041237 
4 1:0.084871 2:0.020295 3:0.04059 4:0.079336 5:0.031365 6:0.057196 7:0.02214 8:0.066421 9:0.079336 10:0.094096 11:0.01845 12:0.02952 13:0.04059 14:0.027675 15:0.060886 16:0.071956 17:0.051661 18:0.105166 19:0.005535 20:0.012915 
2.590622235028242 1:0.066667 2:0.005556 3:0.022222 4:0.088889 5:0.038889 6:0.055556 7:0.016667 8:0.072222 9:0.055556 10:0.127778 11:0.022222 12:0.077778 13:0.005556 14:0.055556 15:0.077778 16:0.061111 17:0.061111 18:0.061111 19:0.005556 20:0.022222 
0.6154359512041864 1:0.071823 2:0.022099 3:0.033149 4:0.066298 5:0.038674 6:0.038674 7:0.016575 8:0.055249 9:0.077348 10:0.066298 11:0.01105 12:0.033149 13:0.066298 14:0.027624 15:0.033149 16:0.143646 17:0.044199 18:0.110497 19:0.016575 20:0.027624 
0.7771861791258362 1:0.015625 2:0 3:0.03125 4:0.09375 5:0.03125 6:0.0625 7:0 8:0.046875 9:0.078125 10:0.03125 11:0.015625 12:0.0625 13:0.015625 14:0.015625 15:0.078125 16:0.09375 17:0.0625 18:0.1875 19:0.015625 20:0.0625 
4 1:0.084871 2:0.012915 3:0.046125 4:0.060886 5:0.042435 6:0.066421 7:0.023985 8:0.046125 9:0.04797 10:0.092251 11:0.02583 12:0.04797 13:0.055351 14:0.04428 15:0.068266 16:0.083026 17:0.064576 18:0.059041 19:0.01107 20:0.016605 
4 1:0.067797 2:0 3:0.055085 4:0.067797 5:0.042373 6:0.042373 7:0.016949 8:0.084746 9:0.080508 10:0.097458 11:0.025424 12:0.072034 13:0.025424 14:0.021186 15:0.038136 16:0.084746 17:0.055085 18:0.067797 19:0.004237 20:0.050847 
4 1:0.10395 2:0.012474 3:0.043659 4:0.064449 5:0.051975 6:0.112266 7:0.018711 8:0.064449 9:0.064449 10:0.072765 11:0.033264 12:0.024948 13:0.056133 14:0.02079 15:0.039501 16:0.064449 17:0.064449 18:0.056133 19:0.006237 20:0.024948 
3.30071006523922 1:0.119403 2:0.008529 3:0.046908 4:0.057569 5:0.051173 6:0.1258 7:0.021322 8:0.051173 9:0.057569 10:0.06823 11:0.031983 12:0.025586 13:0.053305 14:0.01919 15:0.040512 16:0.049041 17:0.053305 18:0.08742 19:0.006397 20:0.025586 
4 1:0.065375 2:0.009685 3:0.062954 4:0.050847 5:0.046005 6:0.09201 7:0.004843 8:0.062954 9:0.062954 10:0.075061 11:0.03632 12:0.065375 13:0.046005 14:0.033898 15:0.053269 16:0.048426 17:0.067797 18:0.075061 19:0.009685 20:0.031477 
0.8622407365622288 1:0.114504 2:0 3:0.068702 4:0.091603 5:0.015267 6:0.053435 7:0.015267 8:0.091603 9:0.030534 10:0.099237 11:0.022901 12:0.045802 13:0.030534 14:0.045802 15:0.076336 16:0.045802 17:0.068702 18:0.068702 19:0.015267 20:0 
0.8484737829406228 1:0.083333 2:0.038889 3:0.033333 4:0.044444 5:0.038889 6:0.072222 7:0.005556 8:0.038889 9:0.066667 10:0.061111 11:0.027778 12:0.022222 13:0.044444 14:0.061111 15:0.033333 16:0.094444 17:0.077778 18:0.083333 19:0.027778 20:0.044444 
3.719058997373828 1:0.109626 2:0.010695 3:0.069519 4:0.034759 5:0.029412 6:0.072193 7:0.02139 8:0.05615 9:0.080214 10:0.069519 11:0.024064 12:0.034759 13:0.032086 14:0.029412 15:0.045455 16:0.066845 17:0.064171 18:0.120321 19:0.013369 20:0.016043 
2.592570703409311 1:0.084 2:0.012 3:0.036 4:0.104 5:0.056 6:0.048 7:0.028 8:0.028 9:0.072 10:0.092 11:0.016 12:0.056 13:0.044 14:0.036 15:0.044 16:0.096 17:0.024 18:0.088 19:0.004 20:0.032 
4 1:0.074733 2:0.007117 3:0.05694 4:0.053381 5:0.030249 6:0.053381 7:0.037367 8:0.069395 9:0.062278 10:0.072954 11:0.035587 12:0.048043 13:0.037367 14:0.032028 15:0.046263 16:0.1121 17:0.049822 18:0.092527 19:0.005338 20:0.023132 
0.6130911719866101 1:0.095361 2:0.012887 3:0.059278 4:0.046392 5:0.033505 6:0.128866 7:0.010309 8:0.07732 9:0.051546 10:0.085052 11:0.023196 12:0.030928 13:0.033505 14:0.018041 15:0.041237 16:0.090206 17:0.043814 18:0.090206 19:0.005155 20:0.023196 
0.02855966995038946 1:0.111111 2:0 3:0.044444 4:0.081481 5:0.022222 6:0.044444 7:0.007407 8:0.111111 9:0.074074 10:0.111111 11:0.044444 12:0.096296 13:0.014815 14:0.044444 15:0.037037 16:0.051852 17:0.044444 18:0.037037 19:0.014815 20:0.007407 
0.2197611686396071 1:0.086207 2:0.028736 3:0.034483 4:0.08046 5:0.028736 6:0.04023 7:0.011494 8:0.045977 9:0.086207 10:0.068966 11:0.017241 12:0.022989 13:0.057471 14:0.005747 15:0.057471 16:0.103448 17:0.086207 18:0.103448 19:0.005747 20:0.028736 
2.900034192780705 1:0.092896 2:0.032787 3:0.054645 4:0.032787 5:0.054645 6:0.032787 7:0.005464 8:0.038251 9:0.04918 10:0.054645 11:0.043716 12:0.071038 13:0.065574 14:0.060109 15:0.054645 16:0.065574 17:0.065574 18:0.065574 19:0.021858 20:0.038251 
-2.181988505599381 1:0.095808 2:0.00998 3:0.043912 4:0.075848 5:0.025948 6:0.103792 7:0.025948 8:0.073852 9:0.083832 10:0.063872 11:0.025948 12:0.02994 13:0.031936 14:0.015968 15:0.031936 16:0.073852 17:0.053892 18:0.103792 19:0.001996 20:0.027944 
-4 1:0.089686 2:0.005979 3:0.047833 4:0.050822 5:0.046338 6:0.074738 7:0.025411 8:0.058296 9:0.068759 10:0.089686 11:0.028401 12:0.032885 13:0.053812 14:0.032885 15:0.050822 16:0.071749 17:0.061286 18:0.083707 19:0.008969 20:0.017937 
-0.6959418189679731 1:0.051205 2:0.010542 3:0.072289 4:0.070783 5:0.049699 6:0.039157 7:0.018072 8:0.079819 9:0.085843 10:0.081325 11:0.013554 12:0.075301 13:0.034639 14:0.02259 15:0.076807 16:0.085843 17:0.043675 18:0.057229 19:0.001506 20:0.03012 
-0.4503376011659804 1:0.065421 2:0.018692 3:0.046729 4:0.102804 5:0.056075 6:0.130841 7:0.018692 8:0.018692 9:0.130841 10:0.074766 11:0.009346 12:0.046729 13:0.037383 14:0.018692 15:0.046729 16:0.018692 17:0.074766 18:0.037383 19:0.009346 20:0.037383 
-1.618659232700007 1:0.074597 2:0.014113 3:0.078629 4:0.050403 5:0.064516 6:0.058468 7:0.040323 8:0.032258 9:0.03629 10:0.072581 11:0.022177 12:0.042339 13:0.078629 14:0.024194 15:0.082661 16:0.044355 17:0.058468 18:0.072581 19:0.016129 20:0.03629 
-2.827406423656246 1:0.065375 2:0.016949 3:0.062954 4:0.048426 5:0.046005 6:0.05569 7:0.031477 8:0.053269 9:0.060533 10:0.104116 11:0.029056 12:0.043584 13:0.053269 14:0.041162 15:0.046005 16:0.087167 17:0.038741 18:0.060533 19:0.004843 20:0.050847 
-0.2600541452470511 1:0.091633 2:0.017928 3:0.021912 4:0.045817 5:0.033865 6:0.099602 7:0.027888 8:0.057769 9:0.073705 10:0.083665 11:0.00996 12:0.023904 13:0.059761 14:0.031873 15:0.101594 16:0.095618 17:0.039841 18:0.049801 19:0.015936 20:0.017928 
-4 1:0.073836 2:0.004815 3:0.0626 4:0.069021 5:0.035313 6:0.077047 7:0.011236 8:0.057785 9:0.051364 10:0.101124 11:0.033708 12:0.049759 13:0.040128 14:0.035313 15:0.067416 16:0.057785 17:0.044944 18:0.083467 19:0.012841 20:0.030498 
-4 1:0.090508 2:0.00883 3:0.04415 4:0.046358 5:0.048565 6:0.075055 7:0.019868 8:0.055188 9:0.03532 10:0.07947 11:0.02649 12:0.055188 13:0.072848 14:0.030905 15:0.050773 16:0.090508 17:0.072848 18:0.066225 19:0.002208 20:0.028698 
-4 1:0.059908 2:0.013825 3:0.052995 4:0.057604 5:0.041475 6:0.059908 7:0.025346 8:0.043779 9:0.046083 10:0.096774 11:0.029954 12:0.036866 13:0.062212 14:0.036866 15:0.069124 16:0.092166 17:0.043779 18:0.073733 19:0.006912 20:0.050691 
-0.365579244834834 1:0.043103 2:0.017241 3:0.017241 4:0.017241 5:0.034483 6:0.077586 7:0 8:0.103448 9:0.112069 10:0.086207 11:0.008621 12:0.077586 13:0.017241 14:0.017241 15:0.068966 16:0.103448 17:0.043103 18:0.12931 19:0.008621 20:0.017241 
-4 1:0.085714 2:0.030075 3:0.04812 4:0.061654 5:0.034586 6:0.099248 7:0.037594 8:0.03609 9:0.039098 10:0.081203 11:0.02406 12:0.028571 13:0.040602 14:0.040602 15:0.070677 16:0.066165 17:0.058647 18:0.069173 19:0.01203 20:0.03609 
-0.2220952982924039 1:0.033613 2:0.02521 3:0.02521 4:0.02521 5:0.067227 6:0.084034 7:0.02521 8:0.084034 9:0.142857 10:0.05042 11:0.008403 12:0.02521 13:0.033613 14:0.016807 15:0.10084 16:0.07563 17:0.05042 18:0.092437 19:0.008403 20:0.02521 
-2.178257909431562 1:0.077966 2:0.00452 3:0.057627 4:0.077966 5:0.019209 6:0.066667 7:0.020339 8:0.049718 9:0.064407 10:0.120904 11:0.025989 12:0.023729 13:0.055367 14:0.037288 15:0.072316 16:0.071186 17:0.040678 18:0.092655 19:0.00678 20:0.014689 
-4 1:0.08125 2:0.023438 3:0.046875 4:0.059375 5:0.040625 6:0.1 7:0.023438 8:0.046875 9:0.035937 10:0.090625 11:0.028125 12:0.03125 13:0.079687 14:0.035937 15:0.071875 16:0.053125 17:0.05 18:0.057813 19:0.028125 20:0.015625 
-0.3160436582209213 1:0.04 2:0.016 3:0.032 4:0.04 5:0.016 6:0.096 7:0.04 8:0.056 9:0.12 10:0.072 11:0.016 12:0.032 13:0.064 14:0.024 15:0.16 16:0.064 17:0.04 18:0.056 19:0 20:0.016 
-4 1:0.065703 2:0.013141 3:0.057819 4:0.072273 5:0.043364 6:0.070959 7:0.017083 8:0.065703 9:0.069645 10:0.067017 11:0.031537 12:0.04205 13:0.043364 14:0.038108 15:0.055191 16:0.072273 17:0.059133 18:0.085414 19:0.002628 20:0.027595 
-4 1:0.077121 2:0.012853 3:0.041131 4:0.089974 5:0.017995 6:0.046272 7:0.028278 8:0.059126 9:0.059126 10:0.092545 11:0.033419 12:0.03856 13:0.028278 14:0.066838 15:0.061697 16:0.089974 17:0.046272 18:0.089974 19:0.007712 20:0.012853 
-0.8894401762837006 1:0.060201 2:0.023411 3:0.053512 4:0.053512 5:0.036789 6:0.06689 7:0.046823 8:0.020067 9:0.040134 10:0.100334 11:0.013378 12:0.0301 13:0.070234 14:0.043478 15:0.073579 16:0.080268 17:0.053512 18:0.06689 19:0.0301 20:0.036789 
-4 1:0.104208 2:0.016032 3:0.058116 4:0.056112 5:0.038076 6:0.058116 7:0.028056 8:0.046092 9:0.046092 10:0.096192 11:0.038076 12:0.03006 13:0.054108 14:0.03006 15:0.06012 16:0.092184 17:0.0501 18:0.06012 19:0.006012 20:0.032064 
-3.284905951162794 1:0.149254 2:0.022388 3:0.033582 4:0.067164 5:0.026119 6:0.093284 7:0.044776 8:0.044776 9:0.063433 10:0.078358 11:0.014925 12:0.022388 13:0.044776 14:0.026119 15:0.048507 16:0.052239 17:0.048507 18:0.104478 19:0.003731 20:0.011194 
-4 1:0.086957 2:0.018395 3:0.046823 4:0.055184 5:0.033445 6:0.115385 7:0.01505 8:0.070234 9:0.068562 10:0.08194 11:0.041806 12:0.040134 13:0.045151 14:0.026756 15:0.045151 16:0.073579 17:0.055184 18:0.053512 19:0.005017 20:0.021739 
-4 1:0.05042 2:0.010504 3:0.039916 4:0.05042 5:0.035714 6:0.056723 7:0.018908 8:0.090336 9:0.077731 10:0.113445 11:0.016807 12:0.077731 13:0.052521 14:0.042017 15:0.031513 16:0.084034 17:0.05042 18:0.054622 19:0.006303 20:0.039916 
-4 1:0.040179 2:0.017857 3:0.084821 4:0.058036 5:0.040179 6:0.053571 7:0.026786 8:0.040179 9:0.080357 10:0.066964 11:0.022321 12:0.066964 13:0.058036 14:0.049107 15:0.058036 16:0.075893 17:0.049107 18:0.044643 19:0.035714 20:0.03125 
-1.567987178658571 1:0.069257 2:0.006757 3:0.045608 4:0.0625 5:0.030405 6:0.054054 7:0.010135 8:0.072635 9:0.089527 10:0.057432 11:0.016892 12:0.050676 13:0.060811 14:0.054054 15:0.025338 16:0.121622 17:0.077703 18:0.064189 19:0.006757 20:0.023649 
-0.1781991906891273 1:0.063063 2:0.009009 3:0.045045 4:0.117117 5:0.072072 6:0.045045 7:0 8:0.054054 9:0.144144 10:0.126126 11:0.027027 12:0.036036 13:0.054054 14:0.027027 15:0.063063 16:0.009009 17:0.036036 18:0.027027 19:0.009009 20:0.036036 
-3.69133075792861 1:0.07465 2:0.013997 3:0.051322 4:0.063764 5:0.03577 6:0.066874 7:0.023328 8:0.062208 9:0.060653 10:0.091757 11:0.027994 12:0.051322 13:0.051322 14:0.041991 15:0.060653 16:0.045101 17:0.049767 18:0.069984 19:0.004666 20:0.052877 
-1.353622290554501 1:0.118343 2:0.011834 3:0.011834 4:0.023669 5:0.04142 6:0.118343 7:0.029586 8:0.005917 9:0.017751 10:0.136095 11:0.023669 12:0.017751 13:0.08284 14:0.023669 15:0.04142 16:0.04142 17:0.047337 18:0.076923 19:0.076923 20:0.053254 
-0.2542516183375335 1:0.057143 2:0.009524 3:0.066667 4:0.066667 5:0.085714 6:0.114286 7:0.038095 8:0.028571 9:0 10:0.07619 11:0.019048 12:0 13:0.066667 14:0.047619 15:0.095238 16:0.07619 17:0.038095 18:0.047619 19:0.047619 20:0.019048 
-4 1:0.097686 2:0.020566 3:0.056555 4:0.071979 5:0.046272 6:0.082262 7:0.028278 8:0.059126 9:0.069409 10:0.07455 11:0.033419 12:0.020566 13:0.043702 14:0.025707 15:0.056555 16:0.079692 17:0.046272 18:0.043702 19:0.005141 20:0.03856 
-0.02229134838159752 1:0.064516 2:0.013441 3:0.034946 4:0.056452 5:0.026882 6:0.061828 7:0.018817 8:0.061828 9:0.069892 10:0.102151 11:0.013441 12:0.034946 13:0.080645 14:0.05914 15:0.05914 16:0.067204 17:0.048387 18:0.077957 19:0.024194 20:0.024194 
-4 1:0.082219 2:0.015374 3:0.046791 4:0.064171 5:0.039439 6:0.079545 7:0.018717 8:0.068182 9:0.067513 10:0.081551 11:0.028743 12:0.045455 13:0.046123 14:0.035428 15:0.038102 16:0.067513 17:0.057487 18:0.080882 19:0.009358 20:0.027406 
-4 1:0.066986 2:0.011962 3:0.064593 4:0.052632 5:0.038278 6:0.069378 7:0.019139 8:0.064593 9:0.090909 10:0.076555 11:0.038278 12:0.055024 13:0.033493 14:0.028708 15:0.043062 16:0.064593 17:0.057416 18:0.062201 19:0.014354 20:0.047847 
-1.327862448028236 1:0.073009 2:0.013274 3:0.059735 4:0.090708 5:0.037611 6:0.064159 7:0.013274 8:0.039823 9:0.090708 10:0.103982 11:0.026549 12:0.030973 13:0.028761 14:0.044248 15:0.070796 16:0.075221 17:0.037611 18:0.064159 19:0.013274 20:0.022124 
-0.1138546316077595 1:0.074364 2:0.019569 3:0.062622 4:0.041096 5:0.046967 6:0.109589 7:0.031311 8:0.064579 9:0.093933 10:0.043053 11:0.019569 12:0.043053 13:0.046967 14:0.043053 15:0.04501 16:0.068493 17:0.064579 18:0.052838 19:0.003914 20:0.02544 
-1.222444663028216 1:0.076923 2:0 3:0.038462 4:0.086538 5:0.009615 6:0.096154 7:0.009615 8:0.076923 9:0.115385 10:0.115385 11:0.009615 12:0.019231 13:0.038462 14:0.019231 15:0.048077 16:0.086538 17:0.028846 18:0.086538 19:0 20:0.038462 
-1.512802610965754 1:0.099099 2:0.009009 3:0.033033 4:0.081081 5:0.036036 6:0.057057 7:0.033033 8:0.042042 9:0.072072 10:0.099099 11:0.033033 12:0.039039 13:0.048048 14:0.015015 15:0.072072 16:0.048048 17:0.036036 18:0.081081 19:0.027027 20:0.039039 
-4 1:0.103512 2:0.020333 3:0.055453 4:0.049908 5:0.051756 6:0.088725 7:0.02403 8:0.07024 9:0.042514 10:0.072089 11:0.022181 12:0.040665 13:0.046211 14:0.027726 15:0.062847 16:0.05915 17:0.049908 18:0.086876 19:0.003697 20:0.022181 
-0.09723872347834804 1:0.122449 2:0.006803 3:0.044218 4:0.05102 5:0.027211 6:0.095238 7:0.027211 8:0.027211 9:0.027211 10:0.119048 11:0.010204 12:0.040816 13:0.064626 14:0.027211 15:0.095238 16:0.05102 17:0.040816 18:0.068027 19:0.013605 20:0.040816 
-2.014335819718241 1:0.094595 2:0.054054 3:0.054054 4:0.067568 5:0.040541 6:0.013514 7:0.013514 8:0.027027 9:0.054054 10:0.081081 11:0.013514 12:0.040541 13:0.067568 14:0.054054 15:0.054054 16:0.054054 17:0.121622 18:0.040541 19:0.013514 20:0.040541 
-1.68951370260488 1:0.125 2:0.011364 3:0.022727 4:0.034091 5:0.045455 6:0.045455 7:0.022727 8:0.045455 9:0.045455 10:0.056818 11:0.034091 12:0.045455 13:0.056818 14:0.090909 15:0.079545 16:0.045455 17:0.034091 18:0.102273 19:0.034091 20:0.022727 
-4 1:0.072727 2:0.012121 3:0.042424 4:0.090909 5:0.030303 6:0.084848 7:0.036364 8:0.048485 9:0.066667 10:0.084848 11:0.018182 12:0.030303 13:0.054545 14:0.006061 15:0.018182 16:0.127273 17:0.060606 18:0.078788 19:0.018182 20:0.018182 
-0.5654986872050263 1:0.058824 2:0.009412 3:0.063529 4:0.101176 5:0.030588 6:0.035294 7:0.028235 8:0.058824 9:0.103529 10:0.070588 11:0.04 12:0.049412 13:0.023529 14:0.044706 15:0.051765 16:0.056471 17:0.054118 18:0.077647 19:0.016471 20:0.025882 
-4 1:0.07772 2:0.020725 3:0.07513 4:0.056995 5:0.046632 6:0.051813 7:0.023316 8:0.072539 9:0.064767 10:0.049223 11:0.033679 12:0.036269 13:0.07513 14:0.023316 15:0.056995 16:0.051813 17:0.051813 18:0.062176 19:0.025907 20:0.044041 
-1.397697844607317 1:0.062162 2:0.018919 3:0.051351 4:0.067568 5:0.043243 6:0.064865 7:0.032432 8:0.045946 9:0.091892 10:0.1 11:0.024324 12:0.043243 13:0.048649 14:0.016216 15:0.056757 16:0.059459 17:0.07027 18:0.067568 19:0.013514 20:0.021622 
-0.2734128879308815 1:0.065421 2:0.004673 3:0.028037 4:0.084112 5:0.037383 6:0.046729 7:0.023364 8:0.079439 9:0.088785 10:0.088785 11:0.028037 12:0.028037 13:0.042056 14:0.084112 15:0.046729 16:0.046729 17:0.037383 18:0.088785 19:0.004673 20:0.046729 
-0.5088093167483678 1:0.099476 2:0.005236 3:0.064572 4:0.075044 5:0.017452 6:0.097731 7:0.005236 8:0.075044 9:0.092496 10:0.08377 11:0.031414 12:0.034904 13:0.033159 14:0.029668 15:0.038394 16:0.04363 17:0.059337 18:0.099476 19:0.001745 20:0.012216 
-0.2289274409856566 1:0.070755 2:0.009434 3:0.033019 4:0.056604 5:0.051887 6:0.080189 7:0.023585 8:0.042453 9:0.108491 10:0.061321 11:0.037736 12:0.061321 13:0.028302 14:0.009434 15:0.051887 16:0.103774 17:0.04717 18:0.080189 19:0.018868 20:0.023585 
-2.512338435905533 1:0.091503 2:0 3:0.03268 4:0.052288 5:0.03268 6:0.078431 7:0.006536 8:0.026144 9:0.071895 10:0.084967 11:0.03268 12:0.045752 13:0.039216 14:0.071895 15:0.058824 16:0.098039 17:0.045752 18:0.065359 19:0.039216 20:0.026144 
-4 1:0.060367 2:0.011811 3:0.053806 4:0.059055 5:0.057743 6:0.052493 7:0.020997 8:0.051181 9:0.064304 10:0.107612 11:0.024934 12:0.05643 13:0.036745 14:0.035433 15:0.052493 16:0.090551 17:0.049869 18:0.069554 19:0.007874 20:0.036745 
-4 1:0.079734 2:0.018826 3:0.054264 4:0.086379 5:0.019934 6:0.067553 7:0.019934 8:0.035437 9:0.048726 10:0.100775 11:0.013289 12:0.023256 13:0.080842 14:0.043189 15:0.040975 16:0.104097 17:0.054264 18:0.079734 19:0.011074 20:0.017719 
-4 1:0.06639 2:0.014523 3:0.049793 4:0.058091 5:0.043568 6:0.06639 7:0.020747 8:0.074689 9:0.085062 10:0.087137 11:0.026971 12:0.039419 13:0.058091 14:0.033195 15:0.03527 16:0.064315 17:0.060166 18:0.078838 19:0.008299 20:0.029046 
-0.8715734804712334 1:0.038462 2:0 3:0.025641 4:0.070513 5:0.057692 6:0.032051 7:0.025641 8:0.032051 9:0.185897 10:0.108974 11:0.019231 12:0.044872 13:0.070513 14:0.025641 15:0.044872 16:0.076923 17:0.032051 18:0.044872 19:0.00641 20:0.057692 
-4 1:0.078313 2:0.006024 3:0.050201 4:0.072289 5:0.034137 6:0.066265 7:0.012048 8:0.064257 9:0.056225 10:0.084337 11:0.024096 12:0.026104 13:0.044177 14:0.032129 15:0.072289 16:0.092369 17:0.074297 18:0.062249 19:0.014056 20:0.034137 
-2.411787766390342 1:0.053672 2:0.022599 3:0.064972 4:0.081921 5:0.050847 6:0.076271 7:0.033898 8:0.033898 9:0.062147 10:0.064972 11:0.031073 12:0.022599 13:0.059322 14:0.025424 15:0.084746 16:0.062147 17:0.050847 18:0.067797 19:0.019774 20:0.031073 
-0.381577427727625 1:0.054054 2:0.027027 3:0.045045 4:0.081081 5:0.036036 6:0.09009 7:0.018018 8:0.063063 9:0.144144 10:0.063063 11:0.009009 12:0.027027 13:0.063063 14:0.018018 15:0.036036 16:0.045045 17:0.063063 18:0.063063 19:0.009009 20:0.045045 
-4 1:0.109615 2:0.015385 3:0.053846 4:0.051923 5:0.042308 6:0.092308 7:0.013462 8:0.044231 9:0.057692 10:0.080769 11:0.019231 12:0.038462 13:0.048077 14:0.048077 15:0.05 16:0.046154 17:0.05 18:0.088462 19:0.013462 20:0.036538 
-0.7020277590358571 1:0.086957 2:0.012422 3:0.052795 4:0.049689 5:0.037267 6:0.052795 7:0.024845 8:0.062112 9:0.052795 10:0.102484 11:0.021739 12:0.031056 13:0.049689 14:0.021739 15:0.059006 16:0.118012 17:0.07764 18:0.052795 19:0.015528 20:0.018634 
-4 1:0.081664 2:0.012327 3:0.05547 4:0.052388 5:0.044684 6:0.061633 7:0.020031 8:0.049307 9:0.064715 10:0.09245 11:0.027735 12:0.050847 13:0.049307 14:0.032357 15:0.046225 16:0.063174 17:0.070878 18:0.075501 19:0.013867 20:0.035439 
-2.977775552643357 1:0.058214 2:0.022329 3:0.054226 4:0.069378 5:0.044657 6:0.043062 7:0.015152 8:0.059809 9:0.097289 10:0.087719 11:0.017544 12:0.056619 13:0.051037 14:0.035885 15:0.048644 16:0.078947 17:0.052632 18:0.053429 19:0.016746 20:0.036683 
-1.06852678273037 1:0.081301 2:0.01626 3:0.00813 4:0.073171 5:0.04878 6:0.04878 7:0.04065 8:0.065041 9:0.081301 10:0.065041 11:0.03252 12:0.04878 13:0.089431 14:0.00813 15:0.04878 16:0.089431 17:0.04065 18:0.081301 19:0.00813 20:0.02439 
-4 1:0.104587 2:0.00367 3:0.055046 4:0.058716 5:0.025688 6:0.091743 7:0.012844 8:0.07156 9:0.056881 10:0.097248 11:0.022018 12:0.025688 13:0.036697 14:0.044037 15:0.066055 16:0.062385 17:0.055046 18:0.078899 19:0.001835 20:0.029358 
-0.009191913046291914 1:0.027397 2:0.006849 3:0.027397 4:0.041096 5:0.041096 6:0.109589 7:0.013699 8:0.041096 9:0.123288 10:0.068493 11:0.020548 12:0.054795 13:0.061644 14:0.027397 15:0.061644 16:0.061644 17:0.075342 18:0.068493 19:0.013699 20:0.054795 
-3.533758738137213 1:0.086053 2:0.029674 3:0.086053 4:0.041543 5:0.023739 6:0.094955 7:0.011869 8:0.035608 9:0.047478 10:0.04451 11:0.014837 12:0.050445 13:0.041543 14:0.032641 15:0.008902 16:0.139466 17:0.077151 18:0.071217 19:0.017804 20:0.04451 
-0.1497053586938627 1:0.071429 2:0.056391 3:0.052632 4:0.033835 5:0.026316 6:0.041353 7:0.015038 8:0.052632 9:0.078947 10:0.109023 11:0.033835 12:0.045113 13:0.052632 14:0.052632 15:0.056391 16:0.06391 17:0.067669 18:0.033835 19:0.015038 20:0.041353 
-0.2589333863040148 1:0.070313 2:0.007813 3:0.03125 4:0.070313 5:0.039063 6:0.039063 7:0.007813 8:0.070313 9:0.0625 10:0.125 11:0.007813 12:0.054688 13:0.085938 14:0.03125 15:0.109375 16:0.046875 17:0.054688 18:0.007813 19:0.007813 20:0.070313 
-1.491880736845284 1:0.028169 2:0.056338 3:0.042254 4:0.056338 5:0.042254 6:0.056338 7:0 8:0.028169 9:0.056338 10:0.112676 11:0.042254 12:0.112676 13:0.042254 14:0.070423 15:0.070423 16:0.028169 17:0.070423 18:0.070423 19:0 20:0.014085 
-4 1:0.097315 2:0.013423 3:0.073826 4:0.04698 5:0.053691 6:0.077181 7:0.010067 8:0.060403 9:0.090604 10:0.077181 11:0.040268 12:0.033557 13:0.026846 14:0.030201 15:0.033557 16:0.067114 17:0.07047 18:0.07047 19:0.003356 20:0.02349 
-0.5035458911797878 1:0.05914 2:0.010753 3:0.064516 4:0.053763 5:0.026882 6:0.075269 7:0.032258 8:0.010753 9:0.032258 10:0.05914 11:0.064516 12:0.037634 13:0.107527 14:0.037634 15:0.075269 16:0.037634 17:0.026882 18:0.075269 19:0.037634 20:0.075269 
-1.20904389639675 1:0.148936 2:0 3:0.042553 4:0.021277 5:0.021277 6:0.106383 7:0 8:0.042553 9:0.06383 10:0.06383 11:0.042553 12:0.021277 13:0.021277 14:0.021277 15:0.148936 16:0.042553 17:0.06383 18:0.12766 19:0 20:0 
-2.669386177518551 1:0.124567 2:0.00346 3:0.051903 4:0.069204 5:0.041522 6:0.041522 7:0.00346 8:0.076125 9:0.083045 10:0.076125 11:0.017301 12:0.079585 13:0.024221 14:0.024221 15:0.044983 16:0.096886 17:0.058824 18:0.055363 19:0.00346 20:0.024221 
-2.672992429300761 1:0.128571 2:0.028571 3:0.042857 4:0.071429 5:0.042857 6:0.042857 7:0.014286 8:0.042857 9:0.085714 10:0.028571 11:0.028571 12:0.028571 13:0.042857 14:0.014286 15:0.057143 16:0.1 17:0.085714 18:0.057143 19:0.028571 20:0.028571 
-4 1:0.079511 2:0.015291 3:0.055046 4:0.061162 5:0.042813 6:0.051988 7:0.021407 8:0.058104 9:0.073394 10:0.082569 11:0.027523 12:0.058104 13:0.030581 14:0.036697 15:0.045872 16:0.091743 17:0.045872 18:0.100917 19:0.009174 20:0.012232 
-0.9906028512972759 1:0.057143 2:0 3:0.028571 4:0 5:0.057143 6:0.142857 7:0.028571 8:0.085714 9:0.085714 10:0.085714 11:0.085714 12:0.085714 13:0.085714 14:0 15:0 16:0.028571 17:0.028571 18:0.057143 19:0 20:0.057143 
-4 1:0.053232 2:0.011407 3:0.070342 4:0.04943 5:0.041825 6:0.04943 7:0.015209 8:0.104563 9:0.076046 10:0.10076 11:0.011407 12:0.051331 13:0.028517 14:0.036122 15:0.045627 16:0.119772 17:0.053232 18:0.057034 19:0.001901 20:0.022814 
-4 1:0.117302 2:0.008798 3:0.043988 4:0.046921 5:0.032258 6:0.093842 7:0.008798 8:0.052786 9:0.067449 10:0.099707 11:0.020528 12:0.043988 13:0.052786 14:0.02346 15:0.035191 16:0.076246 17:0.052786 18:0.099707 19:0.002933 20:0.020528 
-4 1:0.079755 2:0.006135 3:0.03681 4:0.076687 5:0.027607 6:0.055215 7:0.003067 8:0.064417 9:0.067485 10:0.095092 11:0.027607 12:0.055215 13:0.030675 14:0.03681 15:0.06135 16:0.119632 17:0.06135 18:0.079755 19:0.003067 20:0.01227 
-1.177524859529561 1:0.118056 2:0.020833 3:0.041667 4:0.034722 5:0.041667 6:0.097222 7:0.055556 8:0.0625 9:0.076389 10:0.083333 11:0.027778 12:0.0625 13:0.048611 14:0.055556 15:0 16:0.041667 17:0.055556 18:0.041667 19:0.020833 20:0.013889 
-2.513320610568483 1:0.049834 2:0.023256 3:0.069767 4:0.066445 5:0.066445 6:0.063123 7:0.013289 8:0.059801 9:0.069767 10:0.096346 11:0.003322 12:0.039867 13:0.053156 14:0.036545 15:0.076412 16:0.076412 17:0.039867 18:0.0299 19:0.009967 20:0.056478 
-4 1:0.062201 2:0.016746 3:0.055024 4:0.066986 5:0.043062 6:0.07177 7:0.019139 8:0.08134 9:0.066986 10:0.050239 11:0.021531 12:0.047847 13:0.062201 14:0.033493 15:0.038278 16:0.074163 17:0.059809 18:0.069378 19:0.011962 20:0.047847 
-3.685671110400164 1:0.065934 2:0.010989 3:0.049451 4:0.06044 5:0.076923 6:0.120879 7:0.016484 8:0.071429 9:0.087912 10:0.049451 11:0.021978 12:0.049451 13:0.043956 14:0.021978 15:0.038462 16:0.06044 17:0.054945 18:0.065934 19:0.010989 20:0.021978 
-2.632118767123493 1:0.035294 2:0 3:0.011765 4:0.070588 5:0.023529 6:0.070588 7:0.023529 8:0.070588 9:0.129412 10:0.094118 11:0 12:0.023529 13:0.047059 14:0.023529 15:0.058824 16:0.094118 17:0.070588 18:0.129412 19:0 20:0.023529 
-1.793451773989833 1:0.107143 2:0.015873 3:0.05754 4:0.055556 5:0.041667 6:0.073413 7:0.02381 8:0.041667 9:0.043651 10:0.111111 11:0.021825 12:0.03373 13:0.047619 14:0.041667 15:0.081349 16:0.059524 17:0.047619 18:0.055556 19:0.007937 20:0.031746 
-4 1:0.077636 2:0.00927 3:0.052144 4:0.05562 5:0.034762 6:0.071842 7:0.017381 8:0.07416 9:0.071842 10:0.091541 11:0.010429 12:0.05562 13:0.039397 14:0.032445 15:0.041715 16:0.088065 17:0.048667 18:0.079954 19:0.00927 20:0.038239 
-0.6157513995972238 1:0.115385 2:0.019231 3:0.048077 4:0.028846 5:0.028846 6:0.096154 7:0.019231 8:0.038462 9:0.125 10:0.086538 11:0.009615 12:0.067308 13:0.028846 14:0.067308 15:0.028846 16:0.019231 17:0.067308 18:0.048077 19:0.009615 20:0.048077 
-3.330413481072669 1:0.053846 2:0.003846 3:0.073077 4:0.046154 5:0.05 6:0.034615 7:0.023077 8:0.05 9:0.065385 10:0.123077 11:0.030769 12:0.042308 13:0.034615 14:0.046154 15:0.038462 16:0.065385 17:0.088462 18:0.080769 19:0.015385 20:0.034615 
-1.676663740655796 1:0.081481 2:0 3:0.051852 4:0.074074 5:0.059259 6:0.059259 7:0.014815 8:0.044444 9:0.074074 10:0.066667 11:0.022222 12:0.081481 13:0.014815 14:0.044444 15:0.059259 16:0.074074 17:0.074074 18:0.051852 19:0.007407 20:0.044444 
-0.1548036599146486 1:0.025641 2:0.012821 3:0.044872 4:0.083333 5:0.070513 6:0.038462 7:0.032051 8:0.057692 9:0.067308 10:0.128205 11:0.041667 12:0.044872 13:0.025641 14:0.051282 15:0.054487 16:0.064103 17:0.041667 18:0.048077 19:0.00641 20:0.060897 
-0.8626140408923541 1:0.084507 2:0.00939 3:0.018779 4:0.061033 5:0.023474 6:0.046948 7:0.004695 8:0.051643 9:0.093897 10:0.117371 11:0.042254 12:0.028169 13:0.042254 14:0.037559 15:0.051643 16:0.098592 17:0.070423 18:0.093897 19:0 20:0.023474 
-4 1:0.067542 2:0.020638 3:0.035647 4:0.06379 5:0.037523 6:0.050657 7:0.030019 8:0.078799 9:0.054409 10:0.101313 11:0.016886 12:0.052533 13:0.043152 14:0.030019 15:0.054409 16:0.086304 17:0.071295 18:0.067542 19:0.007505 20:0.030019 
-3.495669078301539 1:0.097585 2:0.017391 3:0.048309 4:0.05314 5:0.03285 6:0.075362 7:0.028986 8:0.061836 9:0.056039 10:0.085024 11:0.038647 12:0.046377 13:0.06087 14:0.031884 15:0.038647 16:0.068599 17:0.062802 18:0.054106 19:0.006763 20:0.034783 
-4 1:0.087591 2:0.009385 3:0.051095 4:0.092805 5:0.028154 6:0.078206 7:0.021898 8:0.052138 9:0.066736 10:0.10219 11:0.025026 12:0.025026 13:0.050052 14:0.034411 15:0.063608 16:0.049009 17:0.046924 18:0.080292 19:0.010428 20:0.025026 
-0.6645457820821858 1:0.04878 2:0 3:0.03252 4:0.04878 5:0.065041 6:0.03252 7:0.01626 8:0.04878 9:0.04065 10:0.073171 11:0.04065 12:0.04878 13:0.056911 14:0.04878 15:0.121951 16:0.081301 17:0.081301 18:0.04878 19:0.02439 20:0.04065 
-0.2381586378904933 1:0.10687 2:0 3:0.071247 4:0.109415 5:0.022901 6:0.066158 7:0.005089 8:0.033079 9:0.124682 10:0.068702 11:0.012723 12:0.048346 13:0.015267 14:0.058524 15:0.063613 16:0.086514 17:0.025445 18:0.030534 19:0.025445 20:0.025445 
-0.6208916460233779 1:0.072727 2:0 3:0.090909 4:0.018182 5:0.036364 6:0.109091 7:0.054545 8:0.018182 9:0.036364 10:0.072727 11:0.018182 12:0.054545 13:0.036364 14:0.054545 15:0.109091 16:0.018182 17:0.018182 18:0.072727 19:0.072727 20:0.036364 
-0.8129023509860362 1:0.045662 2:0 3:0.105023 4:0.114155 5:0.059361 6:0.03653 7:0.009132 8:0.059361 9:0.105023 10:0.123288 11:0.004566 12:0.03653 13:0.031963 14:0.041096 15:0.041096 16:0.077626 17:0.041096 18:0.054795 19:0.004566 20:0.009132 
-4 1:0.098696 2:0.014898 3:0.046555 4:0.048417 5:0.040968 6:0.080074 7:0.014898 8:0.061453 9:0.05959 10:0.078212 11:0.035382 12:0.048417 13:0.055866 14:0.039106 15:0.040968 16:0.072626 17:0.055866 18:0.078212 19:0.011173 20:0.018622 
-4 1:0.114206 2:0.02507 3:0.041783 4:0.066852 5:0.038997 6:0.091922 7:0.016713 8:0.077994 9:0.052925 10:0.072423 11:0.036212 12:0.036212 13:0.052925 14:0.033426 15:0.044568 16:0.047354 17:0.030641 18:0.083565 19:0.011142 20:0.02507 
-3.04744537099401 1:0.09697 2:0.012121 3:0.036364 4:0.084848 5:0.036364 6:0.078788 7:0.036364 8:0.042424 9:0.072727 10:0.072727 11:0.018182 12:0.030303 13:0.054545 14:0.006061 15:0.024242 16:0.121212 17:0.054545 18:0.084848 19:0.018182 20:0.018182 
-1.799427547557491 1:0.085595 2:0.002088 3:0.039666 4:0.08142 5:0.037578 6:0.073069 7:0.02714 8:0.052192 9:0.08142 10:0.118998 11:0.010438 12:0.02714 13:0.048017 14:0.031315 15:0.043841 16:0.075157 17:0.05428 18:0.056367 19:0.012526 20:0.041754 
-0.9768458769102705 1:0.08 2:0 3:0 4:0.12 5:0.08 6:0 7:0 8:0.08 9:0 10:0.12 11:0.04 12:0.08 13:0.04 14:0 15:0.08 16:0.12 17:0.12 18:0 19:0 20:0.04 
-4 1:0.092715 2:0.013245 3:0.048565 4:0.050773 5:0.048565 6:0.077263 7:0.028698 8:0.050773 9:0.039735 10:0.068433 11:0.019868 12:0.048565 13:0.06181 14:0.037528 15:0.05298 16:0.086093 17:0.05298 18:0.07947 19:0.004415 20:0.037528 
-0.7817390346543428 1:0.079687 2:0.021875 3:0.054688 4:0.057813 5:0.04375 6:0.104688 7:0.020313 8:0.028125 9:0.023438 10:0.0875 11:0.035937 12:0.026562 13:0.0875 14:0.025 15:0.092188 16:0.059375 17:0.0375 18:0.065625 19:0.029687 20:0.01875 
-1.036469454567551 1:0 2:0 3:0.090909 4:0.272727 5:0.090909 6:0.090909 7:0.181818 8:0 9:0 10:0 11:0 12:0 13:0 14:0 15:0 16:0.181818 17:0.090909 18:0 19:0 20:0 
-2.374501871727838 1:0.090206 2:0.033505 3:0.043814 4:0.06701 5:0.030928 6:0.095361 7:0.023196 8:0.054124 9:0.059278 10:0.082474 11:0.030928 12:0.036082 13:0.033505 14:0.028351 15:0.072165 16:0.061856 17:0.046392 18:0.059278 19:0.005155 20:0.046392 
-3.546481070322368 1:0.102151 2:0.026882 3:0.080645 4:0.053763 5:0.021505 6:0.112903 7:0.016129 8:0.053763 9:0.032258 10:0.107527 11:0.032258 12:0.032258 13:0.016129 14:0.021505 15:0.080645 16:0.075269 17:0.069892 18:0.053763 19:0.005376 20:0.005376 
-3.173889482557044 1:0.047727 2:0.013636 3:0.059091 4:0.095455 5:0.029545 6:0.029545 7:0.018182 8:0.065909 9:0.084091 10:0.109091 11:0.020455 12:0.090909 13:0.020455 14:0.029545 15:0.063636 16:0.068182 17:0.043182 18:0.063636 19:0.004545 20:0.043182 
-1.05437245114146 1:0.042857 2:0.014286 3:0.042857 4:0.057143 5:0.042857 6:0.114286 7:0.042857 8:0.071429 9:0.042857 10:0.1 11:0.042857 12:0.028571 13:0.028571 14:0 15:0.085714 16:0.057143 17:0.028571 18:0.071429 19:0.028571 20:0.057143 
-4 1:0.098237 2:0.017632 3:0.047859 4:0.070529 5:0.02267 6:0.093199 7:0.02267 8:0.04534 9:0.060453 10:0.073048 11:0.037783 12:0.032746 13:0.030227 14:0.035264 15:0.057935 16:0.052897 17:0.080605 18:0.062972 19:0.012594 20:0.04534 
-2.304269480456701 1:0.072316 2:0.00565 3:0.048588 4:0.050847 5:0.033898 6:0.066667 7:0.018079 8:0.068927 9:0.082486 10:0.111864 11:0.00565 12:0.054237 13:0.046328 14:0.040678 15:0.041808 16:0.090395 17:0.054237 18:0.063277 19:0.00904 20:0.035028 
-4 1:0.111864 2:0.00678 3:0.055932 4:0.072881 5:0.022034 6:0.101695 7:0.005085 8:0.066102 9:0.069492 10:0.084746 11:0.018644 12:0.027119 13:0.032203 14:0.028814 15:0.050847 16:0.067797 17:0.076271 18:0.091525 19:0 20:0.010169 
-4 1:0.093385 2:0.015564 3:0.042802 4:0.050584 5:0.062257 6:0.054475 7:0.038911 8:0.046693 9:0.050584 10:0.085603 11:0.007782 12:0.035019 13:0.050584 14:0.019455 15:0.042802 16:0.108949 17:0.066148 18:0.093385 19:0.015564 20:0.019455 
-4 1:0.094017 2:0.010684 3:0.042735 4:0.057692 5:0.032051 6:0.076923 7:0.029915 8:0.047009 9:0.064103 10:0.113248 11:0.032051 12:0.038462 13:0.053419 14:0.025641 15:0.038462 16:0.076923 17:0.042735 18:0.068376 19:0.019231 20:0.036325 
