svm_type c_svc
kernel_type rbf
gamma 128
nr_class 2
total_sv 61
rho -1.06466
label 1 -1
nr_sv 50 11
SV
2.351240265324533 1:0.090452 2:0.002513 3:0.047739 4:0.082915 5:0.027638 6:0.070352 7:0.015075 8:0.050251 9:0.067839 10:0.125628 11:0.020101 12:0.047739 13:0.032663 14:0.040201 15:0.052764 16:0.072864 17:0.047739 18:0.070352 19:0.017588 20:0.017588 
0.812168615004951 1:0.068441 2:0.026616 3:0.064639 4:0.068441 5:0.038023 6:0.117871 7:0.015209 8:0.041825 9:0.102662 10:0.053232 11:0.011407 12:0.026616 13:0.068441 14:0.007605 15:0.022814 16:0.060837 17:0.068441 18:0.076046 19:0.022814 20:0.038023 
0.3380090122004032 1:0.048433 2:0 3:0.058405 4:0.062678 5:0.088319 6:0.041311 7:0.025641 8:0.04416 9:0.075499 10:0.069801 11:0.025641 12:0.058405 13:0.064103 14:0.039886 15:0.032764 16:0.052707 17:0.021368 18:0.075499 19:0.008547 20:0.106838 
0.04424344647865373 1:0.072658 2:0.028681 3:0.051625 4:0.059273 5:0.063098 6:0.068834 7:0.042065 8:0.045889 9:0.034417 10:0.10325 11:0.022945 12:0.045889 13:0.053537 14:0.030593 15:0.038241 16:0.051625 17:0.055449 18:0.072658 19:0.013384 20:0.045889 
0.3304247832239549 1:0.072178 2:0.013123 3:0.048556 4:0.051181 5:0.060367 6:0.089239 7:0.031496 8:0.028871 9:0.02231 10:0.085302 11:0.020997 12:0.031496 13:0.08399 14:0.059055 15:0.049869 16:0.066929 17:0.049869 18:0.074803 19:0.019685 20:0.040682 
0.8706133323149328 1:0.098976 2:0.023891 3:0.047782 4:0.023891 5:0.040956 6:0.098976 7:0.010239 8:0.05802 9:0.037543 10:0.09215 11:0.006826 12:0.09215 13:0.047782 14:0.068259 15:0.006826 16:0.095563 17:0.040956 18:0.047782 19:0.020478 20:0.040956 
0.3695952549273263 1:0.070539 2:0.049793 3:0.053942 4:0.041494 5:0.020747 6:0.099585 7:0.037344 8:0.041494 9:0.033195 10:0.078838 11:0.029046 12:0.045643 13:0.029046 14:0.033195 15:0.029046 16:0.103734 17:0.041494 18:0.099585 19:0.016598 20:0.045643 
0.02661619513337418 1:0.078329 2:0.018277 3:0.065274 4:0.02611 5:0.057441 6:0.088773 7:0.023499 8:0.046997 9:0.05483 10:0.096606 11:0.018277 12:0.031332 13:0.039164 14:0.046997 15:0.049608 16:0.078329 17:0.070496 18:0.046997 19:0.020888 20:0.041775 
0.1119391963139379 1:0.097087 2:0.029126 3:0.029126 4:0.097087 5:0.038835 6:0.038835 7:0.048544 8:0.038835 9:0.019417 10:0.106796 11:0.029126 12:0.058252 13:0.029126 14:0.048544 15:0.135922 16:0.029126 17:0.019417 18:0.048544 19:0 20:0.058252 
1.701345867054246 1:0.050584 2:0.023346 3:0.050584 4:0.066148 5:0.015564 6:0.046693 7:0.015564 8:0.054475 9:0.070039 10:0.093385 11:0.019455 12:0.042802 13:0.054475 14:0.050584 15:0.081712 16:0.101167 17:0.050584 18:0.054475 19:0.015564 20:0.042802 
1.017576233409679 1:0.046632 2:0.024611 3:0.068653 4:0.05829 5:0.050518 6:0.064767 7:0.044041 8:0.051813 9:0.056995 10:0.073834 11:0.023316 12:0.049223 13:0.049223 14:0.03886 15:0.067358 16:0.067358 17:0.055699 18:0.055699 19:0.016839 20:0.036269 
0.5620476730047619 1:0.023364 2:0.046729 3:0.074766 4:0.037383 5:0.070093 6:0.046729 7:0.023364 8:0.051402 9:0.088785 10:0.093458 11:0.028037 12:0.060748 13:0.051402 14:0.023364 15:0.046729 16:0.056075 17:0.093458 18:0.03271 19:0.018692 20:0.03271 
1.293635467017963 1:0.061538 2:0.026923 3:0.057692 4:0.05 5:0.046154 6:0.088462 7:0.019231 8:0.084615 9:0.026923 10:0.076923 11:0.011538 12:0.053846 13:0.042308 14:0.042308 15:0.030769 16:0.076923 17:0.057692 18:0.084615 19:0.019231 20:0.042308 
0.2991874099994693 1:0.0625 2:0.04375 3:0.075 4:0.075 5:0.0875 6:0.0625 7:0.00625 8:0.0625 9:0.08125 10:0.03125 11:0.0125 12:0.05 13:0.03125 14:0.0375 15:0.0125 16:0.08125 17:0.0875 18:0.05625 19:0.00625 20:0.0375 
0.6416387934430344 1:0.080605 2:0.010076 3:0.078086 4:0.027708 5:0.050378 6:0.110831 7:0.015113 8:0.060453 9:0.040302 10:0.06801 11:0.017632 12:0.06801 13:0.030227 14:0.037783 15:0.012594 16:0.11335 17:0.065491 18:0.060453 19:0.007557 20:0.04534 
0.2051831804298846 1:0.101928 2:0.022039 3:0.055096 4:0.038567 5:0.052342 6:0.104683 7:0.011019 8:0.049587 9:0.013774 10:0.090909 11:0.022039 12:0.035813 13:0.082645 14:0.038567 15:0.041322 16:0.110193 17:0.057851 18:0.057851 19:0.00551 20:0.008264 
0.7643057692562515 1:0.113475 2:0.002364 3:0.073286 4:0.016548 5:0.037825 6:0.089835 7:0.014184 8:0.044917 9:0.06383 10:0.082742 11:0.018913 12:0.073286 13:0.037825 14:0.028369 15:0.026005 16:0.082742 17:0.059102 18:0.049645 19:0.021277 20:0.06383 
0.3004318361437476 1:0.07907 2:0.018605 3:0.023256 4:0.065116 5:0.046512 6:0.134884 7:0.032558 8:0.032558 9:0.032558 10:0.069767 11:0.037209 12:0.037209 13:0.106977 14:0.051163 15:0.032558 16:0.051163 17:0.046512 18:0.074419 19:0.013953 20:0.013953 
1.493370683175392 1:0.089514 2:0.01023 3:0.079284 4:0.015345 5:0.040921 6:0.086957 7:0.005115 8:0.076726 9:0.066496 10:0.079284 11:0.002558 12:0.061381 13:0.043478 14:0.048593 15:0.015345 16:0.084399 17:0.079284 18:0.069054 19:0.002558 20:0.043478 
1.502531381475562 1:0.050228 2:0.009132 3:0.057078 4:0.045662 5:0.059361 6:0.089041 7:0.027397 8:0.047945 9:0.041096 10:0.084475 11:0.006849 12:0.086758 13:0.041096 14:0.059361 15:0.031963 16:0.059361 17:0.045662 18:0.070776 19:0.045662 20:0.041096 
0.561005378904745 1:0.074074 2:0.014815 3:0.066667 4:0.051852 5:0.037037 6:0.051852 7:0.022222 8:0.037037 9:0.096296 10:0.074074 11:0.02963 12:0.074074 13:0.014815 14:0.037037 15:0.051852 16:0.051852 17:0.066667 18:0.044444 19:0.014815 20:0.088889 
0.2965344757932263 1:0.061224 2:0.047619 3:0.07483 4:0.108844 5:0.020408 6:0.095238 7:0.013605 8:0.034014 9:0.034014 10:0.068027 11:0.013605 12:0.061224 13:0.040816 14:0.034014 15:0.020408 16:0.095238 17:0.088435 18:0.040816 19:0.027211 20:0.020408 
1.693482137031504 1:0.08 2:0.0075 3:0.06 4:0.0825 5:0.06 6:0.0575 7:0.025 8:0.07 9:0.0725 10:0.11 11:0.0175 12:0.0375 13:0.0525 14:0.03 15:0.0325 16:0.06 17:0.05 18:0.0675 19:0.005 20:0.0225 
0.1626061954535136 1:0.077348 2:0.005525 3:0.027624 4:0.044199 5:0.027624 6:0.01105 7:0.005525 8:0.066298 9:0.01105 10:0.071823 11:0.038674 12:0.088398 13:0.132597 14:0.033149 15:0.038674 16:0.082873 17:0.088398 18:0.088398 19:0.005525 20:0.055249 
0.1425397074317082 1:0.098667 2:0.016 3:0.034667 4:0.066667 5:0.026667 6:0.194667 7:0.005333 8:0.010667 9:0.061333 10:0.074667 11:0.021333 12:0.026667 13:0.101333 14:0.053333 15:0.037333 16:0.058667 17:0.037333 18:0.056 19:0.005333 20:0.013333 
0.1938620219899164 1:0.147826 2:0.017391 3:0.052174 4:0.034783 5:0.034783 6:0.108696 7:0.004348 8:0.056522 9:0.030435 10:0.1 11:0.008696 12:0.047826 13:0.047826 14:0.030435 15:0.065217 16:0.065217 17:0.078261 18:0.03913 19:0.004348 20:0.026087 
0.158642066802995 1:0.024691 2:0.037037 3:0.030864 4:0.08642 5:0.061728 6:0.024691 7:0.037037 8:0.08642 9:0.04321 10:0.12963 11:0.030864 12:0.074074 13:0.018519 14:0.024691 15:0.024691 16:0.080247 17:0.074074 18:0.061728 19:0.006173 20:0.04321 
0.2413176066260574 1:0.052516 2:0.030635 3:0.056893 4:0.037199 5:0.04814 6:0.09628 7:0.019694 8:0.070022 9:0.028446 10:0.070022 11:0.008753 12:0.065646 13:0.045952 14:0.043764 15:0.04814 16:0.089716 17:0.061269 18:0.070022 19:0.015317 20:0.041575 
0.2786128675915506 1:0.069231 2:0.030769 3:0.076923 4:0.023077 5:0.046154 6:0.092308 7:0.007692 8:0.038462 9:0.053846 10:0.1 11:0.030769 12:0 13:0.053846 14:0.038462 15:0.061538 16:0.076923 17:0.023077 18:0.092308 19:0.030769 20:0.053846 
0.8175351898399199 1:0.080268 2:0.0301 3:0.083612 4:0.040134 5:0.056856 6:0.070234 7:0.043478 8:0.0301 9:0.036789 10:0.073579 11:0.003344 12:0.050167 13:0.020067 14:0.0301 15:0.033445 16:0.123746 17:0.06689 18:0.056856 19:0.020067 20:0.050167 
0.186275740079772 1:0.088372 2:0 3:0.088372 4:0.07907 5:0.04186 6:0.046512 7:0.037209 8:0.069767 9:0.069767 10:0.093023 11:0.037209 12:0.04186 13:0.027907 14:0.027907 15:0.032558 16:0.051163 17:0.037209 18:0.116279 19:0 20:0.013953 
4 1:0.059633 2:0.009174 3:0.057339 4:0.059633 5:0.059633 6:0.073394 7:0.022936 8:0.066514 9:0.059633 10:0.100917 11:0.018349 12:0.038991 13:0.050459 14:0.052752 15:0.034404 16:0.087156 17:0.050459 18:0.043578 19:0.018349 20:0.036697 
1.162143110649139 1:0.106145 2:0.011173 3:0.055866 4:0.036313 5:0.050279 6:0.094972 7:0.01676 8:0.039106 9:0.053073 10:0.072626 11:0.00838 12:0.072626 13:0.058659 14:0.01676 15:0.01676 16:0.078212 17:0.089385 18:0.067039 19:0.01676 20:0.039106 
0.3481995080786606 1:0.082873 2:0.027624 3:0.066298 4:0.022099 5:0.044199 6:0.082873 7:0.022099 8:0.049724 9:0.055249 10:0.082873 11:0.022099 12:0.066298 13:0.038674 14:0.01105 15:0.049724 16:0.071823 17:0.077348 18:0.071823 19:0.016575 20:0.038674 
0.2732724138274469 1:0.074725 2:0 3:0.07033 4:0.136264 5:0.030769 6:0.030769 7:0.030769 8:0.010989 9:0.063736 10:0.118681 11:0.026374 12:0.030769 13:0.061538 14:0.085714 15:0.076923 16:0.03956 17:0.041758 18:0.048352 19:0.004396 20:0.017582 
1.56017095216477 1:0.070313 2:0.007813 3:0.070313 4:0.074219 5:0.050781 6:0.039063 7:0.023438 8:0.054688 9:0.09375 10:0.078125 11:0.03125 12:0.046875 13:0.023438 14:0.03125 15:0.039063 16:0.0625 17:0.058594 18:0.070313 19:0.015625 20:0.058594 
0.6104339158226617 1:0.076046 2:0.019011 3:0.064639 4:0.076046 5:0.015209 6:0.04943 7:0.034221 8:0.060837 9:0.045627 10:0.079848 11:0.019011 12:0.04943 13:0.053232 14:0.030418 15:0.068441 16:0.064639 17:0.064639 18:0.091255 19:0.015209 20:0.022814 
0.3523670920335979 1:0.036199 2:0.022624 3:0.040724 4:0.063348 5:0.063348 6:0.072398 7:0.031674 8:0.040724 9:0.099548 10:0.099548 11:0.0181 12:0.040724 13:0.067873 14:0.049774 15:0.022624 16:0.040724 17:0.049774 18:0.085973 19:0.013575 20:0.040724 
0.1377491077737487 1:0.066225 2:0.039735 3:0.039735 4:0.02649 5:0.019868 6:0.092715 7:0.02649 8:0.092715 9:0.07947 10:0.072848 11:0.006623 12:0.039735 13:0.059603 14:0.039735 15:0.039735 16:0.099338 17:0.046358 18:0.05298 19:0.006623 20:0.05298 
1.196064531630369 1:0.05668 2:0.008097 3:0.068826 4:0.048583 5:0.044534 6:0.137652 7:0.032389 8:0.024291 9:0.052632 10:0.093117 11:0.020243 12:0.040486 13:0.068826 14:0.032389 15:0.02834 16:0.036437 17:0.072874 18:0.068826 19:0.008097 20:0.05668 
0.5068767475895991 1:0.055825 2:0.01699 3:0.046117 4:0.055825 5:0.063107 6:0.055825 7:0.01699 8:0.055825 9:0.070388 10:0.128641 11:0.029126 12:0.055825 13:0.046117 14:0.058252 15:0.014563 16:0.072816 17:0.063107 18:0.065534 19:0.007282 20:0.021845 
0.05984691494334339 1:0.082019 2:0.003155 3:0.037855 4:0.129338 5:0.009464 6:0.056782 7:0.009464 8:0.006309 9:0.031546 10:0.126183 11:0.025237 12:0.012618 13:0.031546 14:0.078864 15:0.119874 16:0.069401 17:0.047319 18:0.078864 19:0.031546 20:0.012618 
0.356630144855156 1:0.032258 2:0.03871 3:0.032258 4:0.051613 5:0.012903 6:0.03871 7:0.045161 8:0.064516 9:0.03871 10:0.090323 11:0.019355 12:0.103226 13:0.090323 14:0.012903 15:0.070968 16:0.077419 17:0.058065 18:0.083871 19:0.012903 20:0.025806 
1.268363249762305 1:0.066502 2:0.007389 3:0.044335 4:0.041872 5:0.061576 6:0.059113 7:0.03202 8:0.051724 9:0.044335 10:0.133005 11:0.03202 12:0.051724 13:0.034483 14:0.041872 15:0.029557 16:0.091133 17:0.068966 18:0.064039 19:0.014778 20:0.029557 
0.3353147519976981 1:0.092279 2:0.007533 3:0.048964 4:0.026365 5:0.033898 6:0.077213 7:0.041431 8:0.05838 9:0.026365 10:0.082863 11:0.013183 12:0.062147 13:0.084746 14:0.026365 15:0.054614 16:0.065913 17:0.073446 18:0.080979 19:0.013183 20:0.030132 
0.04878390167808165 1:0.1 2:0.021053 3:0.094737 4:0.078947 5:0.042105 6:0.052632 7:0.005263 8:0.026316 9:0.052632 10:0.063158 11:0.031579 12:0.094737 13:0.021053 14:0.031579 15:0.021053 16:0.031579 17:0.063158 18:0.089474 19:0.021053 20:0.057895 
0.09069201101383033 1:0.067769 2:0.052853 3:0.053178 4:0.059987 5:0.026265 6:0.081712 7:0.030804 8:0.037938 9:0.047341 10:0.094358 11:0.014591 12:0.047665 13:0.048962 14:0.04572 15:0.05415 16:0.081064 17:0.057069 18:0.059339 19:0.008106 20:0.031128 
0.3020631296088945 1:0.085227 2:0.053977 3:0.066761 4:0.0625 5:0.041193 6:0.069602 7:0.022727 8:0.028409 9:0.090909 10:0.079545 11:0.015625 12:0.06108 13:0.041193 14:0.024148 15:0.035511 16:0.065341 17:0.051136 18:0.06108 19:0.011364 20:0.03267 
0.06324302551979448 1:0.074419 2:0.004651 3:0.051163 4:0.051163 5:0.053488 6:0.060465 7:0.027907 8:0.048837 9:0.046512 10:0.12093 11:0.034884 12:0.039535 13:0.039535 14:0.032558 15:0.04186 16:0.086047 17:0.076744 18:0.062791 19:0.018605 20:0.027907 
0.2561170168480257 1:0.126289 2:0.012887 3:0.051546 4:0.033505 5:0.030928 6:0.110825 7:0.025773 8:0.059278 9:0.048969 10:0.064433 11:0.015464 12:0.03866 13:0.03866 14:0.025773 15:0.036082 16:0.103093 17:0.07732 18:0.059278 19:0.005155 20:0.036082 
-1.75763309054201 1:0.031667 2:0.001667 3:0.076667 4:0.113333 5:0.026667 6:0.033333 7:0.011667 8:0.058333 9:0.133333 10:0.091667 11:0.03 12:0.141667 13:0.025 14:0.046667 15:0.005 16:0.041667 17:0.046667 18:0.053333 19:0 20:0.031667 
-3.243272800082365 1:0.068966 2:0.005747 3:0.045977 4:0.031609 5:0.034483 6:0.077586 7:0.014368 8:0.051724 9:0.031609 10:0.08908 11:0.025862 12:0.066092 13:0.066092 14:0.054598 15:0.063218 16:0.08908 17:0.028736 18:0.08046 19:0.011494 20:0.063218 
-2.845167009148297 1:0.040825 2:0.011414 3:0.058385 4:0.057068 5:0.036435 6:0.03863 7:0.026339 8:0.061457 9:0.076383 10:0.083406 11:0.018437 12:0.080773 13:0.046532 14:0.03468 15:0.046532 16:0.122476 17:0.072432 18:0.045215 19:0.007902 20:0.03468 
-4 1:0.088583 2:0.023622 3:0.049213 4:0.057087 5:0.041339 6:0.11811 7:0.009843 8:0.062992 9:0.059055 10:0.084646 11:0.023622 12:0.025591 13:0.051181 14:0.041339 15:0.027559 16:0.064961 17:0.049213 18:0.076772 19:0.011811 20:0.033465 
-1.134165013653344 1:0.076023 2:0.002924 3:0.046784 4:0.04386 5:0.055556 6:0.073099 7:0.002924 8:0.038012 9:0.040936 10:0.087719 11:0.035088 12:0.096491 13:0.067251 14:0.04386 15:0.052632 16:0.073099 17:0.040936 18:0.064327 19:0.008772 20:0.049708 
-4 1:0.060311 2:0.009728 3:0.060311 4:0.075875 5:0.050584 6:0.085603 7:0.027237 8:0.060311 9:0.07393 10:0.097276 11:0.011673 12:0.054475 13:0.046693 14:0.027237 15:0.035019 16:0.064202 17:0.054475 18:0.064202 19:0.011673 20:0.029183 
-1.269042608081083 1:0.089337 2:0.002882 3:0.043228 4:0.040346 5:0.048991 6:0.072046 7:0.005764 8:0.04611 9:0.04611 10:0.086455 11:0.014409 12:0.092219 13:0.054755 14:0.037464 15:0.04611 16:0.092219 17:0.04611 18:0.074928 19:0.008646 20:0.051873 
-3.127808659092956 1:0.044248 2:0.00885 3:0.059735 4:0.04646 5:0.084071 6:0.061947 7:0.017699 8:0.070796 9:0.090708 10:0.088496 11:0.017699 12:0.073009 13:0.033186 14:0.030973 15:0.013274 16:0.059735 17:0.075221 18:0.066372 19:0.00885 20:0.048673 
-4 1:0.075972 2:0.0053 3:0.077739 4:0.063604 5:0.04417 6:0.065371 7:0.045936 8:0.04417 9:0.04947 10:0.095406 11:0.012367 12:0.047703 13:0.031802 14:0.035336 15:0.042403 16:0.086572 17:0.061837 18:0.070671 19:0.008834 20:0.035336 
-3.319760128074034 1:0.056962 2:0.003165 3:0.088608 4:0.079114 5:0.018987 6:0.047468 7:0.012658 8:0.041139 9:0.06962 10:0.110759 11:0.022152 12:0.050633 13:0.028481 14:0.066456 15:0.10443 16:0.056962 17:0.053797 18:0.053797 19:0.012658 20:0.022152 
-4 1:0.086111 2:0.008333 3:0.058333 4:0.047222 5:0.052778 6:0.091667 7:0.019444 8:0.058333 9:0.052778 10:0.108333 11:0.005556 12:0.052778 13:0.041667 14:0.044444 15:0.008333 16:0.088889 17:0.077778 18:0.038889 19:0.011111 20:0.047222 
