svm_type c_svc
kernel_type rbf
gamma 128
nr_class 2
total_sv 50
rho -1.02326
label 1 -1
nr_sv 43 7
SV
0.4157567410032042 1:0.070175 2:0.017544 3:0.065391 4:0.076555 5:0.030303 6:0.066986 7:0.014354 8:0.063796 9:0.07496 10:0.113238 11:0.028708 12:0.07496 13:0.038278 14:0.028708 15:0.041467 16:0.047847 17:0.043062 18:0.063796 19:0.012759 20:0.027113 
0.01411640927338775 1:0.038462 2:0.038462 3:0.080128 4:0.064103 5:0.057692 6:0.067308 7:0.012821 8:0.076923 9:0.060897 10:0.105769 11:0.022436 12:0.041667 13:0.051282 14:0.044872 15:0.060897 16:0.057692 17:0.019231 18:0.048077 19:0.009615 20:0.041667 
0.2840433759620629 1:0.074681 2:0.003643 3:0.052823 4:0.125683 5:0.04918 6:0.061931 7:0.025501 8:0.07286 9:0.078324 10:0.100182 11:0.021858 12:0.038251 13:0.025501 14:0.010929 15:0.058288 16:0.047359 17:0.038251 18:0.071038 19:0.009107 20:0.034608 
0.5565694523342791 1:0.092672 2:0 3:0.047414 4:0.12069 5:0.012931 6:0.088362 7:0.010776 8:0.034483 9:0.060345 10:0.092672 11:0.034483 12:0.032328 13:0.008621 14:0.060345 15:0.077586 16:0.103448 17:0.047414 18:0.043103 19:0.00431 20:0.028017 
0.2790062469443099 1:0.064114 2:0.012048 3:0.055508 4:0.068847 5:0.039587 6:0.062823 7:0.026678 8:0.062392 9:0.047332 10:0.091652 11:0.032272 12:0.04389 13:0.048193 14:0.04389 15:0.061962 16:0.067126 17:0.045181 18:0.080465 19:0.011618 20:0.034423 
1.703470600369004 1:0.09901 2:0.019802 3:0.046676 4:0.076379 5:0.024045 6:0.039604 7:0.009901 8:0.046676 9:0.079208 10:0.110325 11:0.01273 12:0.057992 13:0.042433 14:0.066478 15:0.065064 16:0.079208 17:0.043847 18:0.041018 19:0.004243 20:0.035361 
0.4499781293182153 1:0.057508 2:0.007455 3:0.058573 4:0.060703 5:0.018104 6:0.047923 7:0.022364 8:0.052183 9:0.085197 10:0.066028 11:0.024494 12:0.076677 13:0.071353 14:0.031949 15:0.031949 16:0.127796 17:0.083067 18:0.052183 19:0.005325 20:0.019169 
0.06458753305649523 1:0.121212 2:0.022727 3:0.022727 4:0.075758 5:0.015152 6:0.030303 7:0.015152 8:0.015152 9:0.19697 10:0.068182 11:0.045455 12:0.007576 13:0.037879 14:0.030303 15:0.05303 16:0.098485 17:0.045455 18:0.060606 19:0.007576 20:0.030303 
0.003391079113711645 1:0.075 2:0 3:0.025 4:0.2 5:0.075 6:0 7:0 8:0.075 9:0.025 10:0.05 11:0.05 12:0.05 13:0.05 14:0.125 15:0 16:0.05 17:0.1 18:0.025 19:0 20:0.025 
0.4467778816603242 1:0.043478 2:0.01118 3:0.069565 4:0.09441 5:0.052174 6:0.037267 7:0.014907 8:0.084472 9:0.084472 10:0.103106 11:0.026087 12:0.048447 13:0.02236 14:0.04472 15:0.039752 16:0.064596 17:0.052174 18:0.06087 19:0.008696 20:0.037267 
1.646074593867489 1:0.019194 2:0.017274 3:0.051823 4:0.06142 5:0.03263 6:0.049904 7:0.028791 8:0.086372 9:0.049904 10:0.067179 11:0.017274 12:0.117083 13:0.046065 14:0.042226 15:0.047985 16:0.105566 17:0.067179 18:0.040307 19:0.007678 20:0.044146 
0.4587605866686388 1:0.134783 2:0 3:0.078261 4:0.086957 5:0.03913 6:0.056522 7:0.013043 8:0.069565 9:0.082609 10:0.078261 11:0.026087 12:0.030435 13:0.021739 14:0.065217 15:0.065217 16:0.043478 17:0.043478 18:0.03913 19:0.004348 20:0.021739 
0.01945452790048994 1:0.079167 2:0.008333 3:0.05 4:0.195833 5:0.033333 6:0.083333 7:0.0125 8:0.016667 9:0.1125 10:0.045833 11:0.016667 12:0.0375 13:0.0875 14:0.020833 15:0.041667 16:0.066667 17:0.029167 18:0.033333 19:0.008333 20:0.020833 
0.1094720961685112 1:0.068548 2:0.012097 3:0.055108 4:0.073925 5:0.040323 6:0.071237 7:0.016129 8:0.073925 9:0.076613 10:0.104839 11:0.02957 12:0.045699 13:0.043011 14:0.049731 15:0.047043 16:0.061828 17:0.045699 18:0.064516 19:0.005376 20:0.014785 
0.5632429098552332 1:0.056291 2:0.013245 3:0.066225 4:0.086093 5:0.086093 6:0.049669 7:0.009934 8:0.043046 9:0.05298 10:0.115894 11:0.033113 12:0.043046 13:0.02649 14:0.033113 15:0.096026 16:0.059603 17:0.043046 18:0.059603 19:0.006623 20:0.019868 
1.438942754250018 1:0.084071 2:0.004425 3:0.057522 4:0.10177 5:0.026549 6:0.026549 7:0.00885 8:0.070796 9:0.110619 10:0.123894 11:0.022124 12:0.048673 13:0.026549 14:0.075221 15:0.066372 16:0.030973 17:0.026549 18:0.070796 19:0 20:0.017699 
0.07797999882606897 1:0.044199 2:0.01105 3:0.055249 4:0.044199 5:0.066298 6:0.066298 7:0.038674 8:0.049724 9:0.044199 10:0.055249 11:0.033149 12:0.044199 13:0.071823 14:0.022099 15:0.071823 16:0.077348 17:0.066298 18:0.110497 19:0.005525 20:0.022099 
0.1208811495793945 1:0.086093 2:0.013245 3:0.072848 4:0.119205 5:0.05298 6:0.046358 7:0.019868 8:0.099338 9:0.059603 10:0.066225 11:0.059603 12:0.013245 13:0.046358 14:0.013245 15:0.07947 16:0.05298 17:0.02649 18:0.046358 19:0 20:0.02649 
1.412598547008442 1:0.074703 2:0.003396 3:0.074703 4:0.105263 5:0.013582 6:0.059423 7:0.013582 8:0.047538 9:0.06961 10:0.091681 11:0.022071 12:0.050934 13:0.013582 14:0.06961 15:0.095076 16:0.054329 17:0.056027 18:0.049236 19:0.010187 20:0.025467 
0.05462832297252756 1:0.075975 2:0.00616 3:0.055441 4:0.067762 5:0.041068 6:0.088296 7:0.008214 8:0.067762 9:0.102669 10:0.086242 11:0.049281 12:0.047228 13:0.026694 14:0.059548 15:0.045175 16:0.047228 17:0.047228 18:0.065708 19:0.002053 20:0.010267 
0.231238091557829 1:0.051136 2:0.002841 3:0.058239 4:0.075284 5:0.03125 6:0.055398 7:0.018466 8:0.085227 9:0.090909 10:0.099432 11:0.019886 12:0.044034 13:0.053977 14:0.044034 15:0.044034 16:0.078125 17:0.056818 18:0.065341 19:0.00142 20:0.024148 
0.1681155385106437 1:0.084112 2:0.018692 3:0.056075 4:0.084112 5:0.046729 6:0.074766 7:0.028037 8:0.065421 9:0.065421 10:0.065421 11:0 12:0.065421 13:0.046729 14:0.028037 15:0.093458 16:0.046729 17:0.056075 18:0.028037 19:0 20:0.046729 
0.8467650383654306 1:0.063652 2:0.0134 3:0.056951 4:0.092127 5:0.041876 6:0.060302 7:0.031826 8:0.067002 9:0.080402 10:0.088777 11:0.035176 12:0.041876 13:0.051926 14:0.031826 15:0.048576 16:0.038526 17:0.061977 18:0.053601 19:0.00335 20:0.036851 
0.170744432788454 1:0.156627 2:0.024096 3:0.072289 4:0.084337 5:0.036145 6:0.036145 7:0 8:0.024096 9:0.168675 10:0.13253 11:0.036145 12:0.048193 13:0 14:0.024096 15:0 16:0.048193 17:0.036145 18:0.048193 19:0 20:0.024096 
0.7006711122532184 1:0.033841 2:0.00846 3:0.054146 4:0.071066 5:0.060914 6:0.042301 7:0.027073 8:0.062606 9:0.103215 10:0.099831 11:0.023689 12:0.104907 13:0.018613 14:0.032149 15:0.028765 16:0.059222 17:0.052453 18:0.06599 19:0.006768 20:0.043993 
0.5538007444539086 1:0.089686 2:0.026906 3:0.049327 4:0.098655 5:0.058296 6:0.067265 7:0.026906 8:0.03139 9:0.067265 10:0.107623 11:0.026906 12:0.053812 13:0.040359 14:0.058296 15:0.035874 16:0.053812 17:0.022422 18:0.071749 19:0.004484 20:0.008969 
0.1211851820797984 1:0.031579 2:0.010526 3:0.042105 4:0.094737 5:0.021053 6:0.084211 7:0.042105 8:0.084211 9:0.042105 10:0.094737 11:0.021053 12:0.042105 13:0.073684 14:0.094737 15:0.084211 16:0.052632 17:0.021053 18:0.042105 19:0.010526 20:0.010526 
0.08458518544646934 1:0.056 2:0.002667 3:0.090667 4:0.114667 5:0.045333 6:0.053333 7:0.008 8:0.074667 9:0.109333 10:0.077333 11:0.021333 12:0.048 13:0.029333 14:0.026667 15:0.032 16:0.058667 17:0.058667 18:0.048 19:0.008 20:0.037333 
0.509458281680285 1:0.036649 2:0.020942 3:0.054974 4:0.086387 5:0.031414 6:0.041885 7:0.026178 8:0.044503 9:0.073298 10:0.08377 11:0.026178 12:0.044503 13:0.041885 14:0.049738 15:0.078534 16:0.073298 17:0.068063 18:0.065445 19:0.015707 20:0.036649 
2.138717470684214 1:0.060748 2:0.007009 3:0.058411 4:0.056075 5:0.042056 6:0.051402 7:0.018692 8:0.063084 9:0.058411 10:0.084112 11:0.030374 12:0.053738 13:0.07243 14:0.044393 15:0.051402 16:0.093458 17:0.056075 18:0.060748 19:0.009346 20:0.028037 
0.2471868399662051 1:0.075949 2:0.008439 3:0.059072 4:0.105485 5:0.037975 6:0.033755 7:0.054852 8:0.059072 9:0.101266 10:0.084388 11:0.016878 12:0.033755 13:0.033755 14:0.050633 15:0.050633 16:0.067511 17:0.004219 18:0.101266 19:0.004219 20:0.016878 
0.1259359047906039 1:0.066116 2:0.024793 3:0.057851 4:0.033058 5:0.049587 6:0.057851 7:0.008264 8:0.082645 9:0.057851 10:0.066116 11:0.049587 12:0.033058 13:0.049587 14:0.049587 15:0.057851 16:0.066116 17:0.07438 18:0.082645 19:0 20:0.033058 
0.1297364730940476 1:0.025825 2:0.018651 3:0.053085 4:0.050215 5:0.041607 6:0.057389 7:0.028694 8:0.077475 9:0.07891 10:0.077475 11:0.025825 12:0.070301 13:0.04878 14:0.037303 15:0.02726 16:0.117647 17:0.07604 18:0.040172 19:0.012912 20:0.034433 
0.2084524363354093 1:0.066838 2:0.03599 3:0.01928 4:0.079692 5:0.017995 6:0.066838 7:0.023136 8:0.024422 9:0.017995 10:0.097686 11:0.006427 12:0.014139 13:0.152956 14:0.068123 15:0.078406 16:0.105398 17:0.056555 18:0.05527 19:0.006427 20:0.006427 
0.07474126995948936 1:0.024267 2:0.010111 3:0.038423 4:0.031345 5:0.035389 6:0.032356 7:0.025278 8:0.053589 9:0.048534 10:0.060667 11:0.028311 12:0.18908 13:0.057634 14:0.064712 15:0.026289 16:0.154702 17:0.064712 18:0.031345 19:0.004044 20:0.019211 
0.04980290290675792 1:0.068345 2:0.028777 3:0.039568 4:0.079137 5:0.032374 6:0.046763 7:0.017986 8:0.017986 9:0.053957 10:0.035971 11:0.035971 12:0.071942 13:0.133094 14:0.046763 15:0.061151 16:0.079137 17:0.046763 18:0.05036 19:0.021583 20:0.032374 
0.4360062715818672 1:0.041237 2:0 3:0.092784 4:0.097938 5:0.06701 6:0.056701 7:0.020619 8:0.06701 9:0.056701 10:0.097938 11:0.020619 12:0.046392 13:0.025773 14:0.041237 15:0.082474 16:0.087629 17:0.041237 18:0.046392 19:0 20:0.010309 
1.103211958473384 1:0.06903 2:0.016791 3:0.059701 4:0.087687 5:0.046642 6:0.026119 7:0.031716 8:0.054104 9:0.05597 10:0.104478 11:0.026119 12:0.039179 13:0.046642 14:0.050373 15:0.052239 16:0.078358 17:0.059701 18:0.061567 19:0.014925 20:0.018657 
0.5284046526526109 1:0.061728 2:0.012346 3:0.041152 4:0.096708 5:0.063786 6:0.028807 7:0.020576 8:0.067901 9:0.08642 10:0.115226 11:0.020576 12:0.037037 13:0.04321 14:0.055556 15:0.04321 16:0.084362 17:0.037037 18:0.047325 19:0.010288 20:0.026749 
0.5228742913784853 1:0.105978 2:0.008152 3:0.065217 4:0.122283 5:0.027174 6:0.067935 7:0.019022 8:0.043478 9:0.081522 10:0.059783 11:0.048913 12:0.043478 13:0.059783 14:0.038043 15:0.070652 16:0.05163 17:0.024457 18:0.040761 19:0.008152 20:0.013587 
0.2044676843094984 1:0.1 2:0 3:0 4:0.175 5:0.025 6:0.05 7:0.025 8:0 9:0.125 10:0.125 11:0 12:0.075 13:0.025 14:0.025 15:0 16:0.05 17:0.1 18:0.05 19:0 20:0.05 
2.596849666207643 1:0.068376 2:0.003419 3:0.059829 4:0.129915 5:0.02906 6:0.035897 7:0.018803 8:0.051282 9:0.094017 10:0.094017 11:0.02735 12:0.035897 13:0.042735 14:0.075214 15:0.078632 16:0.02906 17:0.035897 18:0.046154 19:0.011966 20:0.032479 
0.3919134867484614 1:0.044721 2:0.011975 3:0.055718 4:0.077224 5:0.053275 6:0.036657 7:0.020283 8:0.075513 9:0.075269 10:0.121945 11:0.022239 12:0.054252 13:0.02737 14:0.041789 15:0.043255 16:0.079179 17:0.054741 18:0.062317 19:0.012952 20:0.029326 
-3.840670239435803 1:0.036904 2:0.014401 3:0.054005 4:0.067507 5:0.029703 6:0.032403 7:0.024302 8:0.088209 9:0.077408 10:0.10081 11:0.018002 12:0.105311 13:0.026103 14:0.062106 15:0.036904 16:0.10441 17:0.065707 18:0.034203 19:0.0009 20:0.020702 
-1.184675465170974 1:0.113772 2:0 3:0.055888 4:0.177645 5:0.013972 6:0.01996 7:0.007984 8:0.01996 9:0.095808 10:0.117764 11:0.021956 12:0.031936 13:0.007984 14:0.081836 15:0.103792 16:0.067864 17:0.031936 18:0.025948 19:0 20:0.003992 
-2.72388323552787 1:0.069307 2:0.006601 3:0.023102 4:0.059406 5:0.039604 6:0.042904 7:0.016502 8:0.036304 9:0.056106 10:0.066007 11:0.036304 12:0.046205 13:0.072607 14:0.085809 15:0.069307 16:0.138614 17:0.082508 18:0.039604 19:0.0033 20:0.009901 
-4 1:0.058962 2:0.008255 3:0.058962 4:0.071934 5:0.038915 6:0.054245 7:0.020047 8:0.0625 9:0.067217 10:0.095519 11:0.025943 12:0.048349 13:0.068396 14:0.04717 15:0.064858 16:0.066038 17:0.048349 18:0.068396 19:0.005896 20:0.020047 
-4 1:0.064317 2:0.013216 3:0.063436 4:0.085463 5:0.05022 6:0.043172 7:0.025551 8:0.065198 9:0.060793 10:0.090749 11:0.038767 12:0.056388 13:0.037004 14:0.036123 15:0.073128 16:0.05022 17:0.046696 18:0.055507 19:0.005286 20:0.038767 
-4 1:0.093082 2:0.008647 3:0.063072 4:0.123601 5:0.027467 6:0.044761 7:0.019329 8:0.0412 9:0.098678 10:0.105799 11:0.018311 12:0.046287 13:0.016277 14:0.072228 15:0.06409 16:0.053917 17:0.034079 18:0.04527 19:0.008138 20:0.015768 
-2.515368912221873 1:0.087629 2:0.008763 3:0.051546 4:0.133505 5:0.028866 6:0.03866 7:0.019588 8:0.049485 9:0.111856 10:0.101031 11:0.026804 12:0.038144 13:0.016495 14:0.06701 15:0.050515 16:0.054639 17:0.046392 18:0.042784 19:0.004639 20:0.021649 
