svm_type c_svc
kernel_type rbf
gamma 128
nr_class 2
total_sv 60
rho -0.792262
label 1 -1
nr_sv 49 11
SV
1.325788279469462 1:0.067797 2:0 3:0.061017 4:0.050847 5:0.037288 6:0.061017 7:0.016949 8:0.064407 9:0.064407 10:0.111864 11:0.037288 12:0.037288 13:0.033898 14:0.077966 15:0.071186 16:0.040678 17:0.067797 18:0.057627 19:0 20:0.040678 
2.83948536323697 1:0.058052 2:0.014981 3:0.052434 4:0.052434 5:0.041199 6:0.069288 7:0.037453 8:0.086142 9:0.059925 10:0.095506 11:0.016854 12:0.073034 13:0.035581 14:0.026217 15:0.02809 16:0.088015 17:0.078652 18:0.052434 19:0.003745 20:0.029963 
0.1709264019095889 1:0.043011 2:0.075269 3:0.11828 4:0.075269 5:0.032258 6:0.096774 7:0.010753 8:0.032258 9:0.064516 10:0.086022 11:0 12:0 13:0.043011 14:0.032258 15:0.010753 16:0.107527 17:0.086022 18:0.043011 19:0 20:0.043011 
0.2068392522459867 1:0 2:0 3:0.077922 4:0.064935 5:0.012987 6:0.077922 7:0.012987 8:0.116883 9:0.051948 10:0.077922 11:0.025974 12:0.051948 13:0.038961 14:0.012987 15:0.142857 16:0.090909 17:0.025974 18:0.051948 19:0.025974 20:0.038961 
0.1208002595409882 1:0.052452 2:0.009122 3:0.061574 4:0.078677 5:0.038769 6:0.053592 7:0.013683 8:0.08894 9:0.058153 10:0.125428 11:0.014823 12:0.063854 13:0.026226 14:0.050171 15:0.053592 16:0.055872 17:0.051311 18:0.052452 19:0.007982 20:0.04333 
0.1972466715865928 1:0.095238 2:0 3:0.047619 4:0.142857 5:0 6:0.047619 7:0 8:0.047619 9:0.095238 10:0 11:0 12:0.047619 13:0 14:0.047619 15:0.047619 16:0.190476 17:0.095238 18:0.095238 19:0 20:0 
2.10255838895919 1:0.068592 2:0.00361 3:0.054152 4:0.036101 5:0.036101 6:0.072202 7:0.043321 8:0.043321 9:0.072202 10:0.104693 11:0.01444 12:0.061372 13:0.025271 14:0.021661 15:0.021661 16:0.108303 17:0.093863 18:0.083032 19:0.00361 20:0.032491 
1.743370638702419 1:0.106227 2:0 3:0.03663 4:0.043956 5:0.054945 6:0.120879 7:0.010989 8:0.051282 9:0.054945 10:0.113553 11:0.025641 12:0.03663 13:0.062271 14:0.043956 15:0.03663 16:0.069597 17:0.040293 18:0.040293 19:0.018315 20:0.032967 
0.7039531524619095 1:0.063291 2:0 3:0.050633 4:0.07173 5:0.054852 6:0.029536 7:0.012658 8:0.084388 9:0.097046 10:0.105485 11:0.050633 12:0.067511 13:0.021097 14:0.037975 15:0.037975 16:0.080169 17:0.033755 18:0.042194 19:0.004219 20:0.054852 
0.1808873271440192 1:0.162162 2:0 3:0.027027 4:0 5:0.027027 6:0.054054 7:0 8:0.081081 9:0 10:0.216216 11:0.054054 12:0.027027 13:0.027027 14:0.027027 15:0.135135 16:0.081081 17:0 18:0.054054 19:0.027027 20:0 
0.2165139457859194 1:0.082353 2:0.023529 3:0.047059 4:0.082353 5:0.035294 6:0.082353 7:0.011765 8:0.070588 9:0.070588 10:0.035294 11:0.035294 12:0.129412 13:0.023529 14:0.035294 15:0.011765 16:0.070588 17:0.058824 18:0.070588 19:0.011765 20:0.011765 
0.3680352439328409 1:0.109244 2:0.004202 3:0.07563 4:0.067227 5:0.02521 6:0.067227 7:0.004202 8:0.021008 9:0.037815 10:0.063025 11:0.05042 12:0.029412 13:0.067227 14:0.05042 15:0.12605 16:0.067227 17:0.02521 18:0.088235 19:0.016807 20:0.004202 
0.2072081885430105 1:0.266667 2:0 3:0.066667 4:0.066667 5:0 6:0 7:0 8:0 9:0.066667 10:0.2 11:0 12:0 13:0 14:0.066667 15:0 16:0.066667 17:0.133333 18:0.066667 19:0 20:0 
0.2075290998042147 1:0 2:0.041667 3:0.208333 4:0.083333 5:0.083333 6:0.041667 7:0.041667 8:0.041667 9:0.083333 10:0 11:0.083333 12:0 13:0.083333 14:0 15:0 16:0 17:0.041667 18:0.083333 19:0.083333 20:0 
0.0392877206277188 1:0.082803 2:0 3:0.031847 4:0.095541 5:0.038217 6:0.012739 7:0 8:0.095541 9:0.082803 10:0.127389 11:0.025478 12:0.050955 13:0.006369 14:0.101911 15:0.019108 16:0.089172 17:0.044586 18:0.031847 19:0 20:0.063694 
0.2383262438810143 1:0.08776 2:0.013857 3:0.057737 4:0.071594 5:0.053118 6:0.076212 7:0.018476 8:0.073903 9:0.080831 10:0.078522 11:0.020785 12:0.034642 13:0.034642 14:0.018476 15:0.039261 16:0.053118 17:0.073903 18:0.057737 19:0.018476 20:0.036952 
3.662062740794189 1:0.047855 2:0.013201 3:0.064356 4:0.051155 5:0.044554 6:0.054455 7:0.028053 8:0.067657 9:0.072607 10:0.084158 11:0.009901 12:0.072607 13:0.069307 14:0.036304 15:0.041254 16:0.077558 17:0.047855 18:0.064356 19:0.013201 20:0.039604 
2.619561726894567 1:0.067164 2:0.027363 3:0.054726 4:0.059701 5:0.032338 6:0.09204 7:0.007463 8:0.059701 9:0.052239 10:0.094527 11:0.012438 12:0.042289 13:0.037313 14:0.052239 15:0.042289 16:0.084577 17:0.052239 18:0.077114 19:0.007463 20:0.044776 
0.3593676585434528 1:0.056738 2:0.014184 3:0.070922 4:0.056738 5:0.021277 6:0.163121 7:0.056738 8:0.035461 9:0.035461 10:0.099291 11:0.007092 12:0.042553 13:0.049645 14:0.021277 15:0.028369 16:0.049645 17:0.092199 18:0.099291 19:0 20:0 
1.949965211572384 1:0.070479 2:0.014628 3:0.06117 4:0.06117 5:0.037234 6:0.089096 7:0.029255 8:0.050532 9:0.06383 10:0.085106 11:0.022606 12:0.053191 13:0.035904 14:0.034574 15:0.046543 16:0.077128 17:0.039894 18:0.073138 19:0.021277 20:0.033245 
0.4075560479601902 1:0.073684 2:0.042105 3:0.073684 4:0.126316 5:0.052632 6:0.094737 7:0.010526 8:0.042105 9:0.042105 10:0.094737 11:0.010526 12:0 13:0.042105 14:0.021053 15:0.010526 16:0.094737 17:0.073684 18:0.073684 19:0 20:0.021053 
1.277420804327182 1:0.120155 2:0.011628 3:0.05814 4:0.050388 5:0.042636 6:0.081395 7:0.011628 8:0.031008 9:0.081395 10:0.077519 11:0.003876 12:0.042636 13:0.042636 14:0.03876 15:0.034884 16:0.093023 17:0.065891 18:0.05814 19:0.007752 20:0.046512 
0.04636309374343778 1:0.090526 2:0.033684 3:0.058947 4:0.054737 5:0.042105 6:0.098947 7:0.027368 8:0.044211 9:0.054737 10:0.086316 11:0.021053 12:0.035789 13:0.029474 14:0.023158 15:0.058947 16:0.04 17:0.069474 18:0.063158 19:0.016842 20:0.050526 
1.358501057335736 1:0.101887 2:0.003774 3:0.056604 4:0.041509 5:0.067925 6:0.113208 7:0.011321 8:0.026415 9:0.049057 10:0.101887 11:0.030189 12:0.05283 13:0.064151 14:0.026415 15:0.026415 16:0.045283 17:0.045283 18:0.083019 19:0.022642 20:0.030189 
0.766128993844988 1:0.062602 2:0.012195 3:0.064228 4:0.079675 5:0.045528 6:0.066667 7:0.030894 8:0.052033 9:0.070732 10:0.080488 11:0.01626 12:0.047967 13:0.043089 14:0.034146 15:0.052033 16:0.074797 17:0.04878 18:0.070732 19:0.019512 20:0.027642 
0.2435133415258522 1:0.059406 2:0.009901 3:0.049505 4:0.044554 5:0.044554 6:0.056931 7:0.066832 8:0.044554 9:0.049505 10:0.108911 11:0.022277 12:0.042079 13:0.079208 14:0.014851 15:0.044554 16:0.066832 17:0.042079 18:0.066832 19:0.037129 20:0.049505 
1.294253863193676 1:0.094708 2:0.008357 3:0.052925 4:0.086351 5:0.058496 6:0.089136 7:0.019499 8:0.069638 9:0.052925 10:0.075209 11:0.022284 12:0.05571 13:0.027855 14:0.02507 15:0.027855 16:0.064067 17:0.050139 18:0.083565 19:0.002786 20:0.033426 
0.2062358031109893 1:0.25 2:0 3:0 4:0.083333 5:0.083333 6:0.166667 7:0 8:0 9:0 10:0 11:0 12:0.083333 13:0.083333 14:0 15:0 16:0.083333 17:0 18:0.083333 19:0 20:0.083333 
0.4807869122062298 1:0.092683 2:0.014634 3:0.039024 4:0.068293 5:0.04878 6:0.141463 7:0.009756 8:0.034146 9:0.039024 10:0.102439 11:0.019512 12:0.029268 13:0.068293 14:0.04878 15:0.039024 16:0.04878 17:0.039024 18:0.058537 19:0.02439 20:0.034146 
0.01166739952709225 1:0.101215 2:0.02834 3:0.044534 4:0.032389 5:0.040486 6:0.089069 7:0.020243 8:0.040486 9:0.044534 10:0.11336 11:0.024291 12:0.048583 13:0.064777 14:0.02834 15:0.032389 16:0.072874 17:0.076923 18:0.064777 19:0.016194 20:0.016194 
0.3060985675071409 1:0.089835 2:0.014184 3:0.06383 4:0.049645 5:0.028369 6:0.049645 7:0.002364 8:0.037825 9:0.061466 10:0.108747 11:0.030733 12:0.040189 13:0.044917 14:0.028369 15:0.078014 16:0.089835 17:0.037825 18:0.082742 19:0.018913 20:0.042553 
0.3406298301748228 1:0.086331 2:0.014388 3:0.05036 4:0.079137 5:0.035971 6:0.064748 7:0.014388 8:0.057554 9:0.028777 10:0.079137 11:0.014388 12:0.035971 13:0.057554 14:0.028777 15:0.086331 16:0.079137 17:0.043165 18:0.05036 19:0.028777 20:0.064748 
0.5413823589734603 1:0.042471 2:0.003861 3:0.046332 4:0.073359 5:0.030888 6:0.03861 7:0.027027 8:0.135135 9:0.127413 10:0.100386 11:0.003861 12:0.158301 13:0.011583 14:0.023166 15:0.019305 16:0.046332 17:0.042471 18:0.034749 19:0 20:0.034749 
0.5811325788633975 1:0.048913 2:0.01087 3:0.054348 4:0.081522 5:0.021739 6:0.048913 7:0.01087 8:0.092391 9:0.043478 10:0.119565 11:0.021739 12:0.103261 13:0.016304 14:0.059783 15:0.070652 16:0.076087 17:0.054348 18:0.043478 19:0.005435 20:0.016304 
0.2256783425763206 1:0.08046 2:0.022989 3:0.034483 4:0.103448 5:0.011494 6:0.126437 7:0.022989 8:0.057471 9:0.034483 10:0.034483 11:0.022989 12:0.068966 13:0.045977 14:0.034483 15:0.011494 16:0.103448 17:0.022989 18:0.08046 19:0.022989 20:0.057471 
0.1362949327774808 1:0.070423 2:0.008451 3:0.08169 4:0.039437 5:0.042254 6:0.121127 7:0.011268 8:0.061972 9:0.056338 10:0.092958 11:0.022535 12:0.022535 13:0.039437 14:0.016901 15:0.050704 16:0.095775 17:0.059155 18:0.076056 19:0.005634 20:0.025352 
0.04209225387716845 1:0.180952 2:0.028571 3:0 4:0.057143 5:0.019048 6:0.066667 7:0 8:0.038095 9:0.057143 10:0.028571 11:0.057143 12:0.047619 13:0.038095 14:0.028571 15:0.085714 16:0.07619 17:0.104762 18:0.07619 19:0 20:0.009524 
1.29693163820465 1:0.069136 2:0.012346 3:0.061728 4:0.051852 5:0.066667 6:0.071605 7:0.02716 8:0.054321 9:0.066667 10:0.079012 11:0.009877 12:0.041975 13:0.061728 14:0.032099 15:0.041975 16:0.116049 17:0.044444 18:0.05679 19:0.009877 20:0.024691 
0.1612760322922428 1:0.138889 2:0 3:0.027778 4:0 5:0.027778 6:0.027778 7:0 8:0.083333 9:0.027778 10:0.138889 11:0.055556 12:0.027778 13:0.027778 14:0.055556 15:0.083333 16:0.083333 17:0.027778 18:0.111111 19:0.027778 20:0.027778 
1.757812808918697 1:0.060827 2:0.019465 3:0.053528 4:0.065693 5:0.043796 6:0.053528 7:0.012165 8:0.053528 9:0.058394 10:0.099757 11:0.012165 12:0.053528 13:0.055961 14:0.038929 15:0.053528 16:0.082725 17:0.065693 18:0.068127 19:0.014599 20:0.034063 
0.3735490360388602 1:0.09375 2:0.0625 3:0.125 4:0.052083 5:0.020833 6:0.09375 7:0.010417 8:0.052083 9:0.041667 10:0.072917 11:0 12:0 13:0.03125 14:0.0625 15:0.010417 16:0.083333 17:0.072917 18:0.0625 19:0 20:0.052083 
0.1954172718648561 1:0.065292 2:0 3:0.058419 4:0.079038 5:0.027491 6:0.061856 7:0.013746 8:0.075601 9:0.082474 10:0.123711 11:0.034364 12:0.044674 13:0.030928 14:0.044674 15:0.04811 16:0.054983 17:0.058419 18:0.054983 19:0 20:0.041237 
0.1389759718704797 1:0.015625 2:0 3:0.03125 4:0.09375 5:0.03125 6:0.0625 7:0 8:0.046875 9:0.078125 10:0.03125 11:0.015625 12:0.0625 13:0.015625 14:0.015625 15:0.078125 16:0.09375 17:0.0625 18:0.1875 19:0.015625 20:0.0625 
0.4111248583574661 1:0.067797 2:0 3:0.055085 4:0.067797 5:0.042373 6:0.042373 7:0.016949 8:0.084746 9:0.080508 10:0.097458 11:0.025424 12:0.072034 13:0.025424 14:0.021186 15:0.038136 16:0.084746 17:0.055085 18:0.067797 19:0.004237 20:0.050847 
0.6514227545068044 1:0.065375 2:0.009685 3:0.062954 4:0.050847 5:0.046005 6:0.09201 7:0.004843 8:0.062954 9:0.062954 10:0.075061 11:0.03632 12:0.065375 13:0.046005 14:0.033898 15:0.053269 16:0.048426 17:0.067797 18:0.075061 19:0.009685 20:0.031477 
0.05416423813626008 1:0.084 2:0.012 3:0.036 4:0.104 5:0.056 6:0.048 7:0.028 8:0.028 9:0.072 10:0.092 11:0.016 12:0.056 13:0.044 14:0.036 15:0.044 16:0.096 17:0.024 18:0.088 19:0.004 20:0.032 
0.05934746091655344 1:0.095361 2:0.012887 3:0.059278 4:0.046392 5:0.033505 6:0.128866 7:0.010309 8:0.07732 9:0.051546 10:0.085052 11:0.023196 12:0.030928 13:0.033505 14:0.018041 15:0.041237 16:0.090206 17:0.043814 18:0.090206 19:0.005155 20:0.023196 
0.5914548211768574 1:0.092896 2:0.032787 3:0.054645 4:0.032787 5:0.054645 6:0.032787 7:0.005464 8:0.038251 9:0.04918 10:0.054645 11:0.043716 12:0.071038 13:0.065574 14:0.060109 15:0.054645 16:0.065574 17:0.065574 18:0.065574 19:0.021858 20:0.038251 
0.276273650200463 1:0.071918 2:0 3:0.065068 4:0.065068 5:0.068493 6:0.106164 7:0.003425 8:0.030822 9:0.030822 10:0.075342 11:0.006849 12:0.047945 13:0.030822 14:0.027397 15:0.071918 16:0.167808 17:0.023973 18:0.082192 19:0.003425 20:0.020548 
-1.803629067683294 1:0.031667 2:0.001667 3:0.076667 4:0.113333 5:0.026667 6:0.033333 7:0.011667 8:0.058333 9:0.133333 10:0.091667 11:0.03 12:0.141667 13:0.025 14:0.046667 15:0.005 16:0.041667 17:0.046667 18:0.053333 19:0 20:0.031667 
-3.099912093861664 1:0.068966 2:0.005747 3:0.045977 4:0.031609 5:0.034483 6:0.077586 7:0.014368 8:0.051724 9:0.031609 10:0.08908 11:0.025862 12:0.066092 13:0.066092 14:0.054598 15:0.063218 16:0.08908 17:0.028736 18:0.08046 19:0.011494 20:0.063218 
-4 1:0.040825 2:0.011414 3:0.058385 4:0.057068 5:0.036435 6:0.03863 7:0.026339 8:0.061457 9:0.076383 10:0.083406 11:0.018437 12:0.080773 13:0.046532 14:0.03468 15:0.046532 16:0.122476 17:0.072432 18:0.045215 19:0.007902 20:0.03468 
-4 1:0.088583 2:0.023622 3:0.049213 4:0.057087 5:0.041339 6:0.11811 7:0.009843 8:0.062992 9:0.059055 10:0.084646 11:0.023622 12:0.025591 13:0.051181 14:0.041339 15:0.027559 16:0.064961 17:0.049213 18:0.076772 19:0.011811 20:0.033465 
-1.050852306880714 1:0.076023 2:0.002924 3:0.046784 4:0.04386 5:0.055556 6:0.073099 7:0.002924 8:0.038012 9:0.040936 10:0.087719 11:0.035088 12:0.096491 13:0.067251 14:0.04386 15:0.052632 16:0.073099 17:0.040936 18:0.064327 19:0.008772 20:0.049708 
-4 1:0.060311 2:0.009728 3:0.060311 4:0.075875 5:0.050584 6:0.085603 7:0.027237 8:0.060311 9:0.07393 10:0.097276 11:0.011673 12:0.054475 13:0.046693 14:0.027237 15:0.035019 16:0.064202 17:0.054475 18:0.064202 19:0.011673 20:0.029183 
-2.216615957957594 1:0.089337 2:0.002882 3:0.043228 4:0.040346 5:0.048991 6:0.072046 7:0.005764 8:0.04611 9:0.04611 10:0.086455 11:0.014409 12:0.092219 13:0.054755 14:0.037464 15:0.04611 16:0.092219 17:0.04611 18:0.074928 19:0.008646 20:0.051873 
-3.019238163427389 1:0.044248 2:0.00885 3:0.059735 4:0.04646 5:0.084071 6:0.061947 7:0.017699 8:0.070796 9:0.090708 10:0.088496 11:0.017699 12:0.073009 13:0.033186 14:0.030973 15:0.013274 16:0.059735 17:0.075221 18:0.066372 19:0.00885 20:0.048673 
-4 1:0.075972 2:0.0053 3:0.077739 4:0.063604 5:0.04417 6:0.065371 7:0.045936 8:0.04417 9:0.04947 10:0.095406 11:0.012367 12:0.047703 13:0.031802 14:0.035336 15:0.042403 16:0.086572 17:0.061837 18:0.070671 19:0.008834 20:0.035336 
-3.078809127624389 1:0.056962 2:0.003165 3:0.088608 4:0.079114 5:0.018987 6:0.047468 7:0.012658 8:0.041139 9:0.06962 10:0.110759 11:0.022152 12:0.050633 13:0.028481 14:0.066456 15:0.10443 16:0.056962 17:0.053797 18:0.053797 19:0.012658 20:0.022152 
-3.424143522210751 1:0.086111 2:0.008333 3:0.058333 4:0.047222 5:0.052778 6:0.091667 7:0.019444 8:0.058333 9:0.052778 10:0.108333 11:0.005556 12:0.052778 13:0.041667 14:0.044444 15:0.008333 16:0.088889 17:0.077778 18:0.038889 19:0.011111 20:0.047222 
