svm_type c_svc
kernel_type rbf
gamma 128
nr_class 2
total_sv 70
rho -0.918682
label 1 -1
nr_sv 59 11
SV
0.05767626824152836 1:0.073333 2:0.02 3:0.073333 4:0.053333 5:0.033333 6:0.18 7:0.053333 8:0.046667 9:0.06 10:0.06 11:0.006667 12:0.06 13:0.033333 14:0.02 15:0.02 16:0.053333 17:0.046667 18:0.1 19:0 20:0.006667 
1.086414812230703 1:0.105058 2:0.013619 3:0.089494 4:0.050584 5:0.009728 6:0.044747 7:0.009728 8:0.044747 9:0.038911 10:0.087549 11:0.01751 12:0.085603 13:0.050584 14:0.035019 15:0.031128 16:0.124514 17:0.083658 18:0.052529 19:0.005837 20:0.019455 
1.646903592290505 1:0.060367 2:0.026247 3:0.060367 4:0.049869 5:0.028871 6:0.076115 7:0.018373 8:0.089239 9:0.060367 10:0.07874 11:0.018373 12:0.052493 13:0.052493 14:0.03937 15:0.023622 16:0.091864 17:0.049869 18:0.07874 19:0 20:0.044619 
0.1282582183729991 1:0.071895 2:0.013072 3:0.078431 4:0.052288 5:0.039216 6:0.156863 7:0.052288 8:0.058824 9:0.058824 10:0.045752 11:0 12:0.045752 13:0.039216 14:0.039216 15:0.03268 16:0.052288 17:0.078431 18:0.071895 19:0.006536 20:0.006536 
0.4006824598169283 1:0.09901 2:0.019802 3:0.046676 4:0.076379 5:0.024045 6:0.039604 7:0.009901 8:0.046676 9:0.079208 10:0.110325 11:0.01273 12:0.057992 13:0.042433 14:0.066478 15:0.065064 16:0.079208 17:0.043847 18:0.041018 19:0.004243 20:0.035361 
1.001310073706443 1:0.057508 2:0.007455 3:0.058573 4:0.060703 5:0.018104 6:0.047923 7:0.022364 8:0.052183 9:0.085197 10:0.066028 11:0.024494 12:0.076677 13:0.071353 14:0.031949 15:0.031949 16:0.127796 17:0.083067 18:0.052183 19:0.005325 20:0.019169 
0.06325792226124917 1:0.075 2:0 3:0.025 4:0.2 5:0.075 6:0 7:0 8:0.075 9:0.025 10:0.05 11:0.05 12:0.05 13:0.05 14:0.125 15:0 16:0.05 17:0.1 18:0.025 19:0 20:0.025 
0.619299023466252 1:0.019194 2:0.017274 3:0.051823 4:0.06142 5:0.03263 6:0.049904 7:0.028791 8:0.086372 9:0.049904 10:0.067179 11:0.017274 12:0.117083 13:0.046065 14:0.042226 15:0.047985 16:0.105566 17:0.067179 18:0.040307 19:0.007678 20:0.044146 
0.004348417943765589 1:0.070175 2:0.065789 3:0.050439 4:0.076754 5:0 6:0.08114 7:0.015351 8:0.019737 9:0.030702 10:0.214912 11:0.004386 12:0.037281 13:0.035088 14:0.054825 15:0.048246 16:0.083333 17:0.050439 18:0.041667 19:0.010965 20:0.008772 
0.1140060504106904 1:0.054217 2:0.024096 3:0.048193 4:0.072289 5:0.024096 6:0.162651 7:0.042169 8:0.054217 9:0.084337 10:0.060241 11:0.006024 12:0.060241 13:0.048193 14:0.024096 15:0.018072 16:0.054217 17:0.054217 18:0.10241 19:0 20:0.006024 
0.1069803627566869 1:0.079365 2:0.042328 3:0.055556 4:0.047619 5:0.042328 6:0.095238 7:0.015873 8:0.07672 9:0.087302 10:0.074074 11:0.007937 12:0.044974 13:0.044974 14:0.015873 15:0.026455 16:0.060847 17:0.060847 18:0.095238 19:0.007937 20:0.018519 
0.1639122670919888 1:0.060302 2:0.020101 3:0.080402 4:0.035176 5:0.075377 6:0.080402 7:0.015075 8:0.090452 9:0.095477 10:0.055276 11:0.015075 12:0.035176 13:0.065327 14:0.040201 15:0.030151 16:0.065327 17:0.040201 18:0.060302 19:0.01005 20:0.030151 
1.341328514405898 1:0.053785 2:0.001992 3:0.069721 4:0.075697 5:0.051793 6:0.055777 7:0.023904 8:0.053785 9:0.081673 10:0.115538 11:0.025896 12:0.051793 13:0.039841 14:0.049801 15:0.037849 16:0.061753 17:0.059761 18:0.047809 19:0.011952 20:0.02988 
0.3700317581572761 1:0.113253 2:0.012048 3:0.053012 4:0.062651 5:0.043373 6:0.101205 7:0.014458 8:0.050602 9:0.091566 10:0.106024 11:0.024096 12:0.053012 13:0.040964 14:0.014458 15:0.024096 16:0.057831 17:0.036145 18:0.086747 19:0.004819 20:0.009639 
0.1210480708986767 1:0.052786 2:0.01173 3:0.073314 4:0.061584 5:0.046921 6:0.061584 7:0.029326 8:0.049853 9:0.085044 10:0.123167 11:0.020528 12:0.035191 13:0.029326 14:0.041056 15:0.032258 16:0.064516 17:0.035191 18:0.079179 19:0.014663 20:0.052786 
0.02036320531533856 1:0.079167 2:0.008333 3:0.05 4:0.195833 5:0.033333 6:0.083333 7:0.0125 8:0.016667 9:0.1125 10:0.045833 11:0.016667 12:0.0375 13:0.0875 14:0.020833 15:0.041667 16:0.066667 17:0.029167 18:0.033333 19:0.008333 20:0.020833 
0.7954999245527683 1:0.088496 2:0.004425 3:0.070796 4:0.039823 5:0.017699 6:0.10177 7:0.035398 8:0.061947 9:0.075221 10:0.09292 11:0.039823 12:0.026549 13:0.053097 14:0.039823 15:0.035398 16:0.070796 17:0.026549 18:0.075221 19:0.013274 20:0.030973 
0.08066458737101506 1:0.045455 2:0 3:0.045455 4:0.272727 5:0 6:0.090909 7:0.045455 8:0.090909 9:0.090909 10:0.090909 11:0 12:0 13:0.090909 14:0.090909 15:0 16:0 17:0 18:0.045455 19:0 20:0 
0.2523047513901007 1:0.101124 2:0.007491 3:0.054307 4:0.046816 5:0.035581 6:0.125468 7:0.016854 8:0.054307 9:0.069288 10:0.080524 11:0.065543 12:0.024345 13:0.029963 14:0.058052 15:0.052434 16:0.05618 17:0.058052 18:0.050562 19:0 20:0.013109 
0.08883521540704213 1:0.046729 2:0.009346 3:0.056075 4:0.065421 5:0.046729 6:0.121495 7:0.028037 8:0.056075 9:0.074766 10:0.065421 11:0.018692 12:0.009346 13:0.056075 14:0.046729 15:0.056075 16:0.056075 17:0.065421 18:0.084112 19:0.009346 20:0.028037 
0.1710879484477709 1:0.074689 2:0.008299 3:0.107884 4:0.13278 5:0.024896 6:0.087137 7:0.033195 8:0.024896 9:0.016598 10:0.082988 11:0.033195 12:0.029046 13:0.058091 14:0.037344 15:0.033195 16:0.070539 17:0.053942 18:0.053942 19:0.004149 20:0.033195 
4 1:0.05787 2:0.006944 3:0.059028 4:0.060185 5:0.043981 6:0.065972 7:0.030093 8:0.061343 9:0.059028 10:0.104167 11:0.015046 12:0.052083 13:0.059028 14:0.023148 15:0.045139 16:0.075231 17:0.05787 18:0.06713 19:0.016204 20:0.040509 
0.7559176582048373 1:0.059211 2:0.019737 3:0.085526 4:0.046053 5:0.072368 6:0.059211 7:0.032895 8:0.026316 9:0.065789 10:0.105263 11:0.046053 12:0.046053 13:0.026316 14:0.032895 15:0.046053 16:0.065789 17:0.052632 18:0.065789 19:0.013158 20:0.032895 
0.8849241978898491 1:0.048485 2:0.018182 3:0.042424 4:0.054545 5:0.072727 6:0.121212 7:0.024242 8:0.054545 9:0.078788 10:0.054545 11:0.030303 12:0.072727 13:0.030303 14:0.018182 15:0.030303 16:0.078788 17:0.066667 18:0.078788 19:0.006061 20:0.018182 
2.223659100971722 1:0.074703 2:0.003396 3:0.074703 4:0.105263 5:0.013582 6:0.059423 7:0.013582 8:0.047538 9:0.06961 10:0.091681 11:0.022071 12:0.050934 13:0.013582 14:0.06961 15:0.095076 16:0.054329 17:0.056027 18:0.049236 19:0.010187 20:0.025467 
0.3210662872427855 1:0.083582 2:0.002985 3:0.116418 4:0.077612 5:0.032836 6:0.089552 7:0.014925 8:0.047761 9:0.023881 10:0.065672 11:0.023881 12:0.044776 13:0.041791 14:0.026866 15:0.032836 16:0.065672 17:0.068657 18:0.107463 19:0.00597 20:0.026866 
0.07380114545082471 1:0.08 2:0 3:0 4:0 5:0.08 6:0.2 7:0 8:0.04 9:0.08 10:0.04 11:0 12:0.08 13:0 14:0 15:0.12 16:0.04 17:0.04 18:0.2 19:0 20:0 
0.5173760598179352 1:0.045752 2:0.035948 3:0.078431 4:0.058824 5:0.042484 6:0.075163 7:0.019608 8:0.052288 9:0.03268 10:0.104575 11:0.022876 12:0.052288 13:0.052288 14:0.052288 15:0.055556 16:0.039216 17:0.045752 18:0.065359 19:0.013072 20:0.055556 
0.06734167879552982 1:0.042945 2:0 3:0.030675 4:0.06135 5:0.006135 6:0.251534 7:0.06135 8:0.02454 9:0.079755 10:0.018405 11:0.04908 12:0.01227 13:0.02454 14:0.067485 15:0.03681 16:0.055215 17:0.141104 18:0.02454 19:0 20:0.01227 
0.07455157383786321 1:0.142857 2:0 3:0.047619 4:0 5:0.047619 6:0.095238 7:0 8:0 9:0.095238 10:0.095238 11:0 12:0 13:0.047619 14:0.047619 15:0 16:0.047619 17:0.095238 18:0.238095 19:0 20:0 
0.08136298791375823 1:0.019737 2:0.105263 3:0 4:0.098684 5:0 6:0 7:0.032895 8:0.006579 9:0.098684 10:0.006579 11:0.006579 12:0.006579 13:0.328947 14:0.131579 15:0 16:0.019737 17:0.032895 18:0.098684 19:0 20:0.006579 
0.7253248568496933 1:0.027778 2:0.007937 3:0.075397 4:0.075397 5:0.071429 6:0.075397 7:0.02381 8:0.071429 9:0.079365 10:0.083333 11:0.015873 12:0.063492 13:0.035714 14:0.035714 15:0.043651 16:0.055556 17:0.059524 18:0.051587 19:0.007937 20:0.039683 
0.001488026470815466 1:0.108696 2:0.021739 3:0.059783 4:0.057065 5:0.019022 6:0.092391 7:0.016304 8:0.065217 9:0.0625 10:0.105978 11:0.013587 12:0.05163 13:0.048913 14:0.013587 15:0.035326 16:0.07337 17:0.05163 18:0.076087 19:0.01087 20:0.016304 
2.848019995589775 1:0.033841 2:0.00846 3:0.054146 4:0.071066 5:0.060914 6:0.042301 7:0.027073 8:0.062606 9:0.103215 10:0.099831 11:0.023689 12:0.104907 13:0.018613 14:0.032149 15:0.028765 16:0.059222 17:0.052453 18:0.06599 19:0.006768 20:0.043993 
1.407799618973293 1:0.075658 2:0.003289 3:0.046053 4:0.059211 5:0.0625 6:0.078947 7:0.046053 8:0.065789 9:0.059211 10:0.065789 11:0.029605 12:0.0625 13:0.036184 14:0.046053 15:0.023026 16:0.059211 17:0.0625 18:0.052632 19:0.029605 20:0.036184 
0.1212758726235467 1:0.069565 2:0.069565 3:0.058696 4:0.076087 5:0.008696 6:0.069565 7:0.01087 8:0.026087 9:0.034783 10:0.2 11:0.004348 12:0.036957 13:0.030435 14:0.052174 15:0.052174 16:0.097826 17:0.028261 18:0.054348 19:0.013043 20:0.006522 
0.7391923409859944 1:0.070707 2:0.015152 3:0.080808 4:0.055556 5:0.060606 6:0.090909 7:0.015152 8:0.050505 9:0.070707 10:0.085859 11:0.005051 12:0.035354 13:0.055556 14:0.020202 15:0.050505 16:0.050505 17:0.050505 18:0.090909 19:0.010101 20:0.035354 
0.3262930658121156 1:0.101266 2:0.012658 3:0.050633 4:0.056962 5:0.018987 6:0.158228 7:0.044304 8:0.050633 9:0.056962 10:0.056962 11:0.012658 12:0.044304 13:0.037975 14:0.031646 15:0.031646 16:0.044304 17:0.075949 18:0.094937 19:0.006329 20:0.012658 
0.01284172199460138 1:0.138889 2:0 3:0 4:0.083333 5:0.055556 6:0.055556 7:0 8:0.027778 9:0.111111 10:0.111111 11:0.083333 12:0.111111 13:0.027778 14:0 15:0.027778 16:0.083333 17:0 18:0.055556 19:0.027778 20:0 
0.3276328905057265 1:0.082192 2:0.013699 3:0.061644 4:0.089041 5:0.027397 6:0.075342 7:0.013699 8:0.034247 9:0.09589 10:0.068493 11:0.013699 12:0.061644 13:0.013699 14:0.020548 15:0.027397 16:0.109589 17:0.034247 18:0.10274 19:0.013699 20:0.041096 
0.0606127367608587 1:0.190141 2:0.007042 3:0.049296 4:0.056338 5:0.070423 6:0.112676 7:0.014085 8:0.014085 9:0.070423 10:0.06338 11:0.035211 12:0.042254 13:0.021127 14:0.035211 15:0.007042 16:0.084507 17:0.042254 18:0.049296 19:0.028169 20:0.007042 
0.7614588073255176 1:0.043812 2:0.021906 3:0.059146 4:0.060241 5:0.038335 6:0.052574 7:0.03724 8:0.049288 9:0.054765 10:0.089814 11:0.025192 12:0.047097 13:0.051479 14:0.054765 15:0.056955 16:0.085433 17:0.05586 18:0.069003 19:0.010953 20:0.036145 
0.4235830600890281 1:0.055556 2:0 3:0.083333 4:0.083333 5:0.055556 6:0.111111 7:0 8:0.027778 9:0.138889 10:0.083333 11:0 12:0.027778 13:0.027778 14:0.027778 15:0.027778 16:0.083333 17:0.055556 18:0.055556 19:0.027778 20:0.027778 
1.768775179884243 1:0.025825 2:0.018651 3:0.053085 4:0.050215 5:0.041607 6:0.057389 7:0.028694 8:0.077475 9:0.07891 10:0.077475 11:0.025825 12:0.070301 13:0.04878 14:0.037303 15:0.02726 16:0.117647 17:0.07604 18:0.040172 19:0.012912 20:0.034433 
0.03552254961038507 1:0.037736 2:0.009434 3:0.075472 4:0.028302 5:0.061321 6:0.136792 7:0.023585 8:0.056604 9:0.066038 10:0.070755 11:0.023585 12:0.028302 13:0.051887 14:0.014151 15:0.037736 16:0.061321 17:0.070755 18:0.113208 19:0.014151 20:0.018868 
0.04178475852486023 1:0.066838 2:0.03599 3:0.01928 4:0.079692 5:0.017995 6:0.066838 7:0.023136 8:0.024422 9:0.017995 10:0.097686 11:0.006427 12:0.014139 13:0.152956 14:0.068123 15:0.078406 16:0.105398 17:0.056555 18:0.05527 19:0.006427 20:0.006427 
0.0806074203713248 1:0.337838 2:0 3:0.027027 4:0.013514 5:0.013514 6:0.013514 7:0 8:0 9:0.135135 10:0.040541 11:0.027027 12:0.054054 13:0.040541 14:0.027027 15:0.027027 16:0.054054 17:0.121622 18:0.054054 19:0 20:0.013514 
0.1680984601524048 1:0.024267 2:0.010111 3:0.038423 4:0.031345 5:0.035389 6:0.032356 7:0.025278 8:0.053589 9:0.048534 10:0.060667 11:0.028311 12:0.18908 13:0.057634 14:0.064712 15:0.026289 16:0.154702 17:0.064712 18:0.031345 19:0.004044 20:0.019211 
0.05258571764645297 1:0.068345 2:0.028777 3:0.039568 4:0.079137 5:0.032374 6:0.046763 7:0.017986 8:0.017986 9:0.053957 10:0.035971 11:0.035971 12:0.071942 13:0.133094 14:0.046763 15:0.061151 16:0.079137 17:0.046763 18:0.05036 19:0.021583 20:0.032374 
0.5258700332229289 1:0.041237 2:0 3:0.092784 4:0.097938 5:0.06701 6:0.056701 7:0.020619 8:0.06701 9:0.056701 10:0.097938 11:0.020619 12:0.046392 13:0.025773 14:0.041237 15:0.082474 16:0.087629 17:0.041237 18:0.046392 19:0 20:0.010309 
0.1055071957373484 1:0.04 2:0.048 3:0.112 4:0.072 5:0.056 6:0.032 7:0.024 8:0.04 9:0.056 10:0.048 11:0.024 12:0.024 13:0.056 14:0.072 15:0.112 16:0.056 17:0.048 18:0.024 19:0.032 20:0.024 
1.178898938189657 1:0.108939 2:0.013966 3:0.036313 4:0.069832 5:0.039106 6:0.086592 7:0.00838 8:0.055866 9:0.067039 10:0.097765 11:0.011173 12:0.039106 13:0.047486 14:0.03352 15:0.039106 16:0.053073 17:0.075419 18:0.069832 19:0.011173 20:0.036313 
2.255585215234899 1:0.090024 2:0.009732 3:0.058394 4:0.051095 5:0.051095 6:0.077859 7:0.017032 8:0.046229 9:0.051095 10:0.082725 11:0.024331 12:0.048662 13:0.048662 14:0.036496 15:0.06326 16:0.065693 17:0.055961 18:0.07056 19:0.021898 20:0.029197 
0.3197762222723501 1:0.051685 2:0.024719 3:0.060674 4:0.080899 5:0.053933 6:0.085393 7:0.017978 8:0.040449 9:0.026966 10:0.076404 11:0.047191 12:0.049438 13:0.040449 14:0.051685 15:0.058427 16:0.074157 17:0.053933 18:0.062921 19:0.008989 20:0.033708 
0.05110426511710679 1:0.022556 2:0.022556 3:0.082707 4:0.082707 5:0.052632 6:0.082707 7:0.015038 8:0.030075 9:0.112782 10:0.067669 11:0.015038 12:0.06015 13:0 14:0.052632 15:0.045113 16:0.015038 17:0.112782 18:0.075188 19:0.030075 20:0.022556 
0.07856551139267132 1:0.1 2:0 3:0 4:0.175 5:0.025 6:0.05 7:0.025 8:0 9:0.125 10:0.125 11:0 12:0.075 13:0.025 14:0.025 15:0 16:0.05 17:0.1 18:0.05 19:0 20:0.05 
0.1976035832603404 1:0.089385 2:0.01676 3:0.050279 4:0.072626 5:0.044693 6:0.094972 7:0.011173 8:0.039106 9:0.044693 10:0.162011 11:0.005587 12:0.005587 13:0.061453 14:0.039106 15:0.067039 16:0.061453 17:0.03352 18:0.072626 19:0.005587 20:0.022346 
0.2575024756619692 1:0.107735 2:0.019337 3:0.030387 4:0.063536 5:0.024862 6:0.09116 7:0.024862 8:0.049724 9:0.063536 10:0.11326 11:0.019337 12:0.019337 13:0.049724 14:0.041436 15:0.033149 16:0.077348 17:0.052486 18:0.096685 19:0.01105 20:0.01105 
0.2310535711540111 1:0.121951 2:0.021341 3:0.027439 4:0.060976 5:0.030488 6:0.097561 7:0.02439 8:0.054878 9:0.070122 10:0.103659 11:0.02439 12:0.021341 13:0.054878 14:0.036585 15:0.02439 16:0.064024 17:0.045732 18:0.085366 19:0.018293 20:0.012195 
-2.703418118226234 1:0.031667 2:0.001667 3:0.076667 4:0.113333 5:0.026667 6:0.033333 7:0.011667 8:0.058333 9:0.133333 10:0.091667 11:0.03 12:0.141667 13:0.025 14:0.046667 15:0.005 16:0.041667 17:0.046667 18:0.053333 19:0 20:0.031667 
-2.236666307731627 1:0.068966 2:0.005747 3:0.045977 4:0.031609 5:0.034483 6:0.077586 7:0.014368 8:0.051724 9:0.031609 10:0.08908 11:0.025862 12:0.066092 13:0.066092 14:0.054598 15:0.063218 16:0.08908 17:0.028736 18:0.08046 19:0.011494 20:0.063218 
-4 1:0.040825 2:0.011414 3:0.058385 4:0.057068 5:0.036435 6:0.03863 7:0.026339 8:0.061457 9:0.076383 10:0.083406 11:0.018437 12:0.080773 13:0.046532 14:0.03468 15:0.046532 16:0.122476 17:0.072432 18:0.045215 19:0.007902 20:0.03468 
-4 1:0.088583 2:0.023622 3:0.049213 4:0.057087 5:0.041339 6:0.11811 7:0.009843 8:0.062992 9:0.059055 10:0.084646 11:0.023622 12:0.025591 13:0.051181 14:0.041339 15:0.027559 16:0.064961 17:0.049213 18:0.076772 19:0.011811 20:0.033465 
-2.118032476827853 1:0.076023 2:0.002924 3:0.046784 4:0.04386 5:0.055556 6:0.073099 7:0.002924 8:0.038012 9:0.040936 10:0.087719 11:0.035088 12:0.096491 13:0.067251 14:0.04386 15:0.052632 16:0.073099 17:0.040936 18:0.064327 19:0.008772 20:0.049708 
-4 1:0.060311 2:0.009728 3:0.060311 4:0.075875 5:0.050584 6:0.085603 7:0.027237 8:0.060311 9:0.07393 10:0.097276 11:0.011673 12:0.054475 13:0.046693 14:0.027237 15:0.035019 16:0.064202 17:0.054475 18:0.064202 19:0.011673 20:0.029183 
-0.2246911512446634 1:0.089337 2:0.002882 3:0.043228 4:0.040346 5:0.048991 6:0.072046 7:0.005764 8:0.04611 9:0.04611 10:0.086455 11:0.014409 12:0.092219 13:0.054755 14:0.037464 15:0.04611 16:0.092219 17:0.04611 18:0.074928 19:0.008646 20:0.051873 
-4 1:0.044248 2:0.00885 3:0.059735 4:0.04646 5:0.084071 6:0.061947 7:0.017699 8:0.070796 9:0.090708 10:0.088496 11:0.017699 12:0.073009 13:0.033186 14:0.030973 15:0.013274 16:0.059735 17:0.075221 18:0.066372 19:0.00885 20:0.048673 
-4 1:0.075972 2:0.0053 3:0.077739 4:0.063604 5:0.04417 6:0.065371 7:0.045936 8:0.04417 9:0.04947 10:0.095406 11:0.012367 12:0.047703 13:0.031802 14:0.035336 15:0.042403 16:0.086572 17:0.061837 18:0.070671 19:0.008834 20:0.035336 
-4 1:0.056962 2:0.003165 3:0.088608 4:0.079114 5:0.018987 6:0.047468 7:0.012658 8:0.041139 9:0.06962 10:0.110759 11:0.022152 12:0.050633 13:0.028481 14:0.066456 15:0.10443 16:0.056962 17:0.053797 18:0.053797 19:0.012658 20:0.022152 
-1.455770172044272 1:0.086111 2:0.008333 3:0.058333 4:0.047222 5:0.052778 6:0.091667 7:0.019444 8:0.058333 9:0.052778 10:0.108333 11:0.005556 12:0.052778 13:0.041667 14:0.044444 15:0.008333 16:0.088889 17:0.077778 18:0.038889 19:0.011111 20:0.047222 
