svm_type c_svc
kernel_type rbf
gamma 128
nr_class 2
total_sv 18
rho 0.291379
label 1 -1
nr_sv 7 11
SV
1.149300940539389 1:0.036904 2:0.014401 3:0.054005 4:0.067507 5:0.029703 6:0.032403 7:0.024302 8:0.088209 9:0.077408 10:0.10081 11:0.018002 12:0.105311 13:0.026103 14:0.062106 15:0.036904 16:0.10441 17:0.065707 18:0.034203 19:0.0009 20:0.020702 
0.7449790586174025 1:0.113772 2:0 3:0.055888 4:0.177645 5:0.013972 6:0.01996 7:0.007984 8:0.01996 9:0.095808 10:0.117764 11:0.021956 12:0.031936 13:0.007984 14:0.081836 15:0.103792 16:0.067864 17:0.031936 18:0.025948 19:0 20:0.003992 
0.9596065780040758 1:0.069307 2:0.006601 3:0.023102 4:0.059406 5:0.039604 6:0.042904 7:0.016502 8:0.036304 9:0.056106 10:0.066007 11:0.036304 12:0.046205 13:0.072607 14:0.085809 15:0.069307 16:0.138614 17:0.082508 18:0.039604 19:0.0033 20:0.009901 
3.321795193750507 1:0.058962 2:0.008255 3:0.058962 4:0.071934 5:0.038915 6:0.054245 7:0.020047 8:0.0625 9:0.067217 10:0.095519 11:0.025943 12:0.048349 13:0.068396 14:0.04717 15:0.064858 16:0.066038 17:0.048349 18:0.068396 19:0.005896 20:0.020047 
0.4200508483991598 1:0.091652 2:0.004537 3:0.059891 4:0.170599 5:0.009074 6:0.020871 7:0.017241 8:0.032668 9:0.124319 10:0.130672 11:0.024501 12:0.04265 13:0.000907 14:0.07804 15:0.059891 16:0.051724 17:0.041742 18:0.027223 19:0.002722 20:0.009074 
1.834640335829216 1:0.064317 2:0.013216 3:0.063436 4:0.085463 5:0.05022 6:0.043172 7:0.025551 8:0.065198 9:0.060793 10:0.090749 11:0.038767 12:0.056388 13:0.037004 14:0.036123 15:0.073128 16:0.05022 17:0.046696 18:0.055507 19:0.005286 20:0.038767 
0.6989787521638292 1:0.087629 2:0.008763 3:0.051546 4:0.133505 5:0.028866 6:0.03866 7:0.019588 8:0.049485 9:0.111856 10:0.101031 11:0.026804 12:0.038144 13:0.016495 14:0.06701 15:0.050515 16:0.054639 17:0.046392 18:0.042784 19:0.004639 20:0.021649 
-1.124097707822065 1:0.065649 2:0.003053 3:0.076336 4:0.082443 5:0.036641 6:0.067176 7:0.00916 8:0.087023 9:0.096183 10:0.082443 11:0.012214 12:0.056489 13:0.038168 14:0.044275 15:0.036641 16:0.042748 17:0.058015 18:0.082443 19:0.001527 20:0.021374 
-0.801216550805669 1:0.048128 2:0.016043 3:0.037433 4:0.069519 5:0.053476 6:0.053476 7:0.058824 8:0.069519 9:0.037433 10:0.074866 11:0.02139 12:0.037433 13:0.069519 14:0.042781 15:0.037433 16:0.074866 17:0.064171 18:0.069519 19:0.026738 20:0.037433 
-1.031161249271247 1:0.066667 2:0.010753 3:0.027957 4:0.047312 5:0.055914 6:0.098925 7:0.019355 8:0.045161 9:0.032258 10:0.094624 11:0.017204 12:0.075269 13:0.055914 14:0.113978 15:0.045161 16:0.053763 17:0.049462 18:0.060215 19:0.012903 20:0.017204 
-0.1990699871181799 1:0.047619 2:0.009524 3:0.07619 4:0.057143 5:0.085714 6:0.085714 7:0.019048 8:0.028571 9:0.07619 10:0.114286 11:0.009524 12:0.019048 13:0.047619 14:0.066667 15:0.038095 16:0.057143 17:0.047619 18:0.066667 19:0.019048 20:0.028571 
-1.628904460014262 1:0.056093 2:0.009671 3:0.065764 4:0.083172 5:0.052224 6:0.034816 7:0.029014 8:0.081238 9:0.058027 10:0.104449 11:0.01354 12:0.052224 13:0.052224 14:0.038685 15:0.027079 16:0.06383 17:0.056093 18:0.071567 19:0.005803 20:0.044487 
-0.1835716943033195 1:0.047368 2:0.010526 3:0.05 4:0.026316 5:0.052632 6:0.055263 7:0.073684 8:0.071053 9:0.042105 10:0.113158 11:0.015789 12:0.026316 13:0.071053 14:0.028947 15:0.042105 16:0.078947 17:0.042105 18:0.057895 19:0.034211 20:0.060526 
-0.5710500839951168 1:0.0625 2:0.023438 3:0.039063 4:0.054688 5:0.050781 6:0.097656 7:0.035156 8:0.0625 9:0.039063 10:0.070313 11:0.023438 12:0.035156 13:0.054688 14:0.015625 15:0.054688 16:0.097656 17:0.0625 18:0.054688 19:0.015625 20:0.050781 
-0.9097898082624114 1:0.05 2:0.021429 3:0.035714 4:0.078571 5:0.028571 6:0.121429 7:0.021429 8:0.064286 9:0.085714 10:0.128571 11:0.021429 12:0.007143 13:0.05 14:0.035714 15:0.057143 16:0.064286 17:0.042857 18:0.057143 19:0.014286 20:0.014286 
-1.470207916646663 1:0.072271 2:0.010324 3:0.070796 4:0.067847 5:0.057522 6:0.056047 7:0.025074 8:0.044248 9:0.069322 10:0.10177 11:0.026549 12:0.042773 13:0.048673 14:0.025074 15:0.039823 16:0.057522 17:0.058997 18:0.070796 19:0.007375 20:0.047198 
-0.5272609297474892 1:0.076389 2:0 3:0.072917 4:0.104167 5:0.017361 6:0.083333 7:0.013889 8:0.072917 9:0.076389 10:0.059028 11:0.013889 12:0.055556 13:0.048611 14:0.052083 15:0.027778 16:0.059028 17:0.052083 18:0.090278 19:0.003472 20:0.020833 
-0.6830213193171562 1:0.057143 2:0.006349 3:0.146032 4:0.114286 5:0.053968 6:0.050794 7:0.034921 8:0.034921 9:0.092063 10:0.066667 11:0.028571 12:0.028571 13:0.025397 14:0.034921 15:0.04127 16:0.034921 17:0.038095 18:0.053968 19:0.019048 20:0.038095 
