svm_type c_svc
kernel_type rbf
gamma 128
nr_class 2
total_sv 64
rho -1.53277
label 1 -1
nr_sv 43 21
SV
0.4139756563016014 1:0.05 2:0.033333 3:0.025 4:0.041667 5:0.008333 6:0.016667 7:0.008333 8:0.066667 9:0.075 10:0.133333 11:0.008333 12:0.075 13:0.083333 14:0.041667 15:0.058333 16:0.066667 17:0.066667 18:0.091667 19:0.016667 20:0.033333 
0.01249391652214671 1:0.099744 2:0.066496 3:0.063939 4:0.033248 5:0.028133 6:0.079284 7:0.030691 8:0.023018 9:0.035806 10:0.079284 11:0.015345 12:0.023018 13:0.033248 14:0.033248 15:0.120205 16:0.056266 17:0.063939 18:0.066496 19:0.02046 20:0.028133 
4 1:0.090452 2:0.002513 3:0.047739 4:0.082915 5:0.027638 6:0.070352 7:0.015075 8:0.050251 9:0.067839 10:0.125628 11:0.020101 12:0.047739 13:0.032663 14:0.040201 15:0.052764 16:0.072864 17:0.047739 18:0.070352 19:0.017588 20:0.017588 
0.1044938620565248 1:0.068441 2:0.026616 3:0.064639 4:0.068441 5:0.038023 6:0.117871 7:0.015209 8:0.041825 9:0.102662 10:0.053232 11:0.011407 12:0.026616 13:0.068441 14:0.007605 15:0.022814 16:0.060837 17:0.068441 18:0.076046 19:0.022814 20:0.038023 
0.0867213873369293 1:0.048433 2:0 3:0.058405 4:0.062678 5:0.088319 6:0.041311 7:0.025641 8:0.04416 9:0.075499 10:0.069801 11:0.025641 12:0.058405 13:0.064103 14:0.039886 15:0.032764 16:0.052707 17:0.021368 18:0.075499 19:0.008547 20:0.106838 
4 1:0.052229 2:0.026752 3:0.054777 4:0.077707 5:0.043312 6:0.058599 7:0.035669 8:0.054777 9:0.059873 10:0.089172 11:0.02293 12:0.033121 13:0.047134 14:0.040764 15:0.070064 16:0.052229 17:0.054777 18:0.06242 19:0.012739 20:0.050955 
4 1:0.072658 2:0.028681 3:0.051625 4:0.059273 5:0.063098 6:0.068834 7:0.042065 8:0.045889 9:0.034417 10:0.10325 11:0.022945 12:0.045889 13:0.053537 14:0.030593 15:0.038241 16:0.051625 17:0.055449 18:0.072658 19:0.013384 20:0.045889 
0.3356752960960775 1:0.118943 2:0.006608 3:0.063877 4:0.028634 5:0.028634 6:0.096916 7:0.017621 8:0.055066 9:0.048458 10:0.070485 11:0.004405 12:0.04185 13:0.046256 14:0.030837 15:0.022026 16:0.110132 17:0.077093 18:0.092511 19:0.011013 20:0.028634 
0.9655803502772986 1:0.04698 2:0.040268 3:0.033557 4:0.060403 5:0.053691 6:0.04698 7:0.013423 8:0.060403 9:0.080537 10:0.053691 11:0.013423 12:0.04698 13:0.080537 14:0.040268 15:0.026846 16:0.087248 17:0.04698 18:0.120805 19:0.020134 20:0.026846 
0.9480791630464802 1:0.046025 2:0.037657 3:0.054393 4:0.037657 5:0.050209 6:0.033473 7:0.029289 8:0.050209 9:0.054393 10:0.142259 11:0.037657 12:0.037657 13:0.033473 14:0.041841 15:0.066946 16:0.087866 17:0.046025 18:0.050209 19:0.016736 20:0.046025 
0.1321560613503862 1:0.142857 2:0.083333 3:0.02381 4:0.083333 5:0.059524 6:0.071429 7:0.02381 8:0.071429 9:0.059524 10:0.083333 11:0.011905 12:0.02381 13:0.011905 14:0.02381 15:0.071429 16:0.02381 17:0.035714 18:0.083333 19:0 20:0.011905 
0.07054009523323097 1:0.098361 2:0.008197 3:0.040984 4:0.114754 5:0.057377 6:0.081967 7:0.016393 8:0.008197 9:0.065574 10:0.07377 11:0.04918 12:0.02459 13:0.040984 14:0.008197 15:0.016393 16:0.081967 17:0.065574 18:0.098361 19:0.02459 20:0.02459 
1.829048568288446 1:0.078329 2:0.018277 3:0.065274 4:0.02611 5:0.057441 6:0.088773 7:0.023499 8:0.046997 9:0.05483 10:0.096606 11:0.018277 12:0.031332 13:0.039164 14:0.046997 15:0.049608 16:0.078329 17:0.070496 18:0.046997 19:0.020888 20:0.041775 
0.1749952609571561 1:0.097087 2:0.029126 3:0.029126 4:0.097087 5:0.038835 6:0.038835 7:0.048544 8:0.038835 9:0.019417 10:0.106796 11:0.029126 12:0.058252 13:0.029126 14:0.048544 15:0.135922 16:0.029126 17:0.019417 18:0.048544 19:0 20:0.058252 
0.1462875716767009 1:0.050584 2:0.023346 3:0.050584 4:0.066148 5:0.015564 6:0.046693 7:0.015564 8:0.054475 9:0.070039 10:0.093385 11:0.019455 12:0.042802 13:0.054475 14:0.050584 15:0.081712 16:0.101167 17:0.050584 18:0.054475 19:0.015564 20:0.042802 
4 1:0.046632 2:0.024611 3:0.068653 4:0.05829 5:0.050518 6:0.064767 7:0.044041 8:0.051813 9:0.056995 10:0.073834 11:0.023316 12:0.049223 13:0.049223 14:0.03886 15:0.067358 16:0.067358 17:0.055699 18:0.055699 19:0.016839 20:0.036269 
0.00878669118103878 1:0.106109 2:0.057878 3:0.048232 4:0.073955 5:0.006431 6:0.096463 7:0.03537 8:0.019293 9:0.038585 10:0.086817 11:0.032154 12:0.022508 13:0.099678 14:0.045016 15:0.07717 16:0.045016 17:0.038585 18:0.045016 19:0.006431 20:0.019293 
1.752120078967584 1:0.036036 2:0.04955 3:0.045045 4:0.058559 5:0.027027 6:0.054054 7:0.031532 8:0.04955 9:0.067568 10:0.130631 11:0.036036 12:0.018018 13:0.063063 14:0.04955 15:0.067568 16:0.058559 17:0.040541 18:0.054054 19:0.027027 20:0.036036 
2.510207830280849 1:0.09607 2:0.048035 3:0.061135 4:0.056769 5:0.045124 6:0.084425 7:0.021834 8:0.042213 9:0.066958 10:0.07278 11:0.02329 12:0.030568 13:0.034934 14:0.030568 15:0.040757 16:0.081514 17:0.058224 18:0.061135 19:0.011645 20:0.032023 
0.249097061764451 1:0.07907 2:0.018605 3:0.023256 4:0.065116 5:0.046512 6:0.134884 7:0.032558 8:0.032558 9:0.032558 10:0.069767 11:0.037209 12:0.037209 13:0.106977 14:0.051163 15:0.032558 16:0.051163 17:0.046512 18:0.074419 19:0.013953 20:0.013953 
1.158993201267 1:0.089514 2:0.01023 3:0.079284 4:0.015345 5:0.040921 6:0.086957 7:0.005115 8:0.076726 9:0.066496 10:0.079284 11:0.002558 12:0.061381 13:0.043478 14:0.048593 15:0.015345 16:0.084399 17:0.079284 18:0.069054 19:0.002558 20:0.043478 
1.115487347540495 1:0.108696 2:0.054348 3:0.032609 4:0.065217 5:0.054348 6:0.032609 7:0 8:0.054348 9:0.043478 10:0.086957 11:0.021739 12:0.032609 13:0.054348 14:0.043478 15:0.043478 16:0.065217 17:0.086957 18:0.054348 19:0.021739 20:0.043478 
0.3929548651966611 1:0.074074 2:0.014815 3:0.066667 4:0.051852 5:0.037037 6:0.051852 7:0.022222 8:0.037037 9:0.096296 10:0.074074 11:0.02963 12:0.074074 13:0.014815 14:0.037037 15:0.051852 16:0.051852 17:0.066667 18:0.044444 19:0.014815 20:0.088889 
4 1:0.08 2:0.0075 3:0.06 4:0.0825 5:0.06 6:0.0575 7:0.025 8:0.07 9:0.0725 10:0.11 11:0.0175 12:0.0375 13:0.0525 14:0.03 15:0.0325 16:0.06 17:0.05 18:0.0675 19:0.005 20:0.0225 
0.5194217497651058 1:0.106667 2:0.033333 3:0.013333 4:0.02 5:0.04 6:0.06 7:0.04 8:0.033333 9:0.073333 10:0.113333 11:0.02 12:0.06 13:0.046667 14:0.033333 15:0.06 16:0.106667 17:0.02 18:0.066667 19:0.026667 20:0.026667 
1.231358103339931 1:0.040541 2:0.040541 3:0.054054 4:0.058559 5:0.072072 6:0.040541 7:0.031532 8:0.063063 9:0.076577 10:0.103604 11:0.018018 12:0.063063 13:0.036036 14:0.031532 15:0.067568 16:0.045045 17:0.076577 18:0.027027 19:0.018018 20:0.036036 
0.4100001031075233 1:0.147826 2:0.017391 3:0.052174 4:0.034783 5:0.034783 6:0.108696 7:0.004348 8:0.056522 9:0.030435 10:0.1 11:0.008696 12:0.047826 13:0.047826 14:0.030435 15:0.065217 16:0.065217 17:0.078261 18:0.03913 19:0.004348 20:0.026087 
0.6837484913435987 1:0.070905 2:0.00978 3:0.041565 4:0.06357 5:0.056235 6:0.051345 7:0.031785 8:0.046455 9:0.06846 10:0.119804 11:0.02934 12:0.0489 13:0.041565 14:0.05379 15:0.01956 16:0.07824 17:0.05868 18:0.07335 19:0.00978 20:0.026895 
1.068394417285393 1:0.069231 2:0.030769 3:0.076923 4:0.023077 5:0.046154 6:0.092308 7:0.007692 8:0.038462 9:0.053846 10:0.1 11:0.030769 12:0 13:0.053846 14:0.038462 15:0.061538 16:0.076923 17:0.023077 18:0.092308 19:0.030769 20:0.053846 
4 1:0.063177 2:0.023466 3:0.064982 4:0.068592 5:0.036101 6:0.074007 7:0.023466 8:0.043321 9:0.061372 10:0.055957 11:0.019856 12:0.045126 13:0.074007 14:0.028881 15:0.041516 16:0.064982 17:0.070397 18:0.068592 19:0.028881 20:0.043321 
0.5287714270155642 1:0.088372 2:0 3:0.088372 4:0.07907 5:0.04186 6:0.046512 7:0.037209 8:0.069767 9:0.069767 10:0.093023 11:0.037209 12:0.04186 13:0.027907 14:0.027907 15:0.032558 16:0.051163 17:0.037209 18:0.116279 19:0 20:0.013953 
4 1:0.059633 2:0.009174 3:0.057339 4:0.059633 5:0.059633 6:0.073394 7:0.022936 8:0.066514 9:0.059633 10:0.100917 11:0.018349 12:0.038991 13:0.050459 14:0.052752 15:0.034404 16:0.087156 17:0.050459 18:0.043578 19:0.018349 20:0.036697 
0.8811787262420755 1:0.082873 2:0.027624 3:0.066298 4:0.022099 5:0.044199 6:0.082873 7:0.022099 8:0.049724 9:0.055249 10:0.082873 11:0.022099 12:0.066298 13:0.038674 14:0.01105 15:0.049724 16:0.071823 17:0.077348 18:0.071823 19:0.016575 20:0.038674 
0.8630435869708787 1:0.070093 2:0.004673 3:0.03271 4:0.093458 5:0.03271 6:0.042056 7:0.018692 8:0.046729 9:0.065421 10:0.102804 11:0.028037 12:0.051402 13:0.088785 14:0.065421 15:0.03271 16:0.084112 17:0.028037 18:0.051402 19:0.009346 20:0.051402 
3.022164977677067 1:0.070313 2:0.007813 3:0.070313 4:0.074219 5:0.050781 6:0.039063 7:0.023438 8:0.054688 9:0.09375 10:0.078125 11:0.03125 12:0.046875 13:0.023438 14:0.03125 15:0.039063 16:0.0625 17:0.058594 18:0.070313 19:0.015625 20:0.058594 
2.711742764181531 1:0.076046 2:0.019011 3:0.064639 4:0.076046 5:0.015209 6:0.04943 7:0.034221 8:0.060837 9:0.045627 10:0.079848 11:0.019011 12:0.04943 13:0.053232 14:0.030418 15:0.068441 16:0.064639 17:0.064639 18:0.091255 19:0.015209 20:0.022814 
2.150341716160022 1:0.036199 2:0.022624 3:0.040724 4:0.063348 5:0.063348 6:0.072398 7:0.031674 8:0.040724 9:0.099548 10:0.099548 11:0.0181 12:0.040724 13:0.067873 14:0.049774 15:0.022624 16:0.040724 17:0.049774 18:0.085973 19:0.013575 20:0.040724 
2.608256325995716 1:0.063915 2:0.009321 3:0.04261 4:0.057257 5:0.055925 6:0.073236 7:0.047936 8:0.029294 9:0.031957 10:0.091877 11:0.01731 12:0.037284 13:0.082557 14:0.039947 15:0.058589 16:0.061252 17:0.05992 18:0.070573 19:0.023968 20:0.045273 
0.7193314003770943 1:0.066225 2:0.039735 3:0.039735 4:0.02649 5:0.019868 6:0.092715 7:0.02649 8:0.092715 9:0.07947 10:0.072848 11:0.006623 12:0.039735 13:0.059603 14:0.039735 15:0.039735 16:0.099338 17:0.046358 18:0.05298 19:0.006623 20:0.05298 
2.051888372298786 1:0.092279 2:0.007533 3:0.048964 4:0.026365 5:0.033898 6:0.077213 7:0.041431 8:0.05838 9:0.026365 10:0.082863 11:0.013183 12:0.062147 13:0.084746 14:0.026365 15:0.054614 16:0.065913 17:0.073446 18:0.080979 19:0.013183 20:0.030132 
0.7328568097459655 1:0.072917 2:0.026042 3:0.03125 4:0.078125 5:0.020833 6:0.052083 7:0.005208 8:0.041667 9:0.041667 10:0.182292 11:0.020833 12:0.026042 13:0.078125 14:0.036458 15:0.072917 16:0.057292 17:0.0625 18:0.0625 19:0.010417 20:0.020833 
0.2444134974223445 1:0.079848 2:0.038023 3:0.038023 4:0.038023 5:0.026616 6:0.106464 7:0.026616 8:0.038023 9:0.030418 10:0.076046 11:0.026616 12:0.053232 13:0.045627 14:0.038023 15:0.041825 16:0.072243 17:0.072243 18:0.098859 19:0.030418 20:0.022814 
1.730245082895117 1:0.074419 2:0.004651 3:0.051163 4:0.051163 5:0.053488 6:0.060465 7:0.027907 8:0.048837 9:0.046512 10:0.12093 11:0.034884 12:0.039535 13:0.039535 14:0.032558 15:0.04186 16:0.086047 17:0.076744 18:0.062791 19:0.018605 20:0.027907 
-1.726451802393818 1:0.144578 2:0.012048 3:0.078313 4:0.042169 5:0.078313 6:0.072289 7:0.006024 8:0.066265 9:0.066265 10:0.060241 11:0 12:0.018072 13:0.072289 14:0.006024 15:0.018072 16:0.060241 17:0.066265 18:0.108434 19:0 20:0.024096 
-4 1:0.051282 2:0.011834 3:0.067061 4:0.053254 5:0.057199 6:0.065089 7:0.035503 8:0.043393 9:0.063116 10:0.061144 11:0.015779 12:0.055227 13:0.080868 14:0.033531 15:0.047337 16:0.063116 17:0.067061 18:0.059172 19:0.015779 20:0.053254 
-3.078745586078006 1:0.071186 2:0.030508 3:0.047458 4:0.037288 5:0.057627 6:0.050847 7:0.016949 8:0.023729 9:0.071186 10:0.145763 11:0.020339 12:0.030508 13:0.037288 14:0.050847 15:0.071186 16:0.054237 17:0.037288 18:0.081356 19:0.010169 20:0.054237 
-4 1:0.060694 2:0.017341 3:0.034682 4:0.060694 5:0.037572 6:0.092486 7:0.034682 8:0.060694 9:0.040462 10:0.115607 11:0.014451 12:0.040462 13:0.063584 14:0.031792 15:0.052023 16:0.069364 17:0.052023 18:0.054913 19:0.031792 20:0.034682 
-3.294473055836062 1:0.088012 2:0.013657 3:0.060698 4:0.062215 5:0.033384 6:0.059181 7:0.037936 8:0.051593 9:0.051593 10:0.091047 11:0.042489 12:0.039454 13:0.028832 14:0.042489 15:0.059181 16:0.053111 17:0.068285 18:0.062215 19:0.010622 20:0.044006 
-4 1:0.062834 2:0.010695 3:0.073529 4:0.03877 5:0.045455 6:0.066845 7:0.020053 8:0.064171 9:0.074866 10:0.100267 11:0.020053 12:0.041444 13:0.034759 14:0.041444 15:0.046791 16:0.076203 17:0.061497 18:0.066845 19:0.012032 20:0.041444 
-1.874009957265574 1:0.084711 2:0.006198 3:0.057851 4:0.059917 5:0.066116 6:0.059917 7:0.045455 8:0.035124 9:0.057851 10:0.061983 11:0.016529 12:0.059917 13:0.066116 14:0.043388 15:0.041322 16:0.049587 17:0.072314 18:0.061983 19:0.016529 20:0.03719 
-4 1:0.058824 2:0.009804 3:0.073529 4:0.073529 5:0.029412 6:0.034314 7:0.009804 8:0.078431 9:0.058824 10:0.107843 11:0.019608 12:0.058824 13:0.063725 14:0.053922 15:0.04902 16:0.068627 17:0.053922 18:0.029412 19:0.019608 20:0.04902 
-2.302975322344643 1:0.078987 2:0.013413 3:0.04769 4:0.04769 5:0.040238 6:0.041729 7:0.022355 8:0.078987 9:0.0462 10:0.120715 11:0.023845 12:0.04918 13:0.059613 14:0.0462 15:0.043219 16:0.055142 17:0.058122 18:0.076006 19:0.017884 20:0.032787 
-4 1:0.056213 2:0.02071 3:0.044379 4:0.068047 5:0.056213 6:0.065089 7:0.050296 8:0.056213 9:0.076923 10:0.079882 11:0.029586 12:0.047337 13:0.050296 14:0.04142 15:0.050296 16:0.053254 17:0.050296 18:0.068047 19:0.008876 20:0.026627 
-4 1:0.057279 2:0.031026 3:0.0358 4:0.073986 5:0.069212 6:0.059666 7:0.019093 8:0.069212 9:0.066826 10:0.105012 11:0.019093 12:0.050119 13:0.050119 14:0.02864 15:0.052506 16:0.069212 17:0.047733 18:0.040573 19:0.00716 20:0.047733 
-4 1:0.090361 2:0.018072 3:0.048193 4:0.072289 5:0.048193 6:0.060241 7:0.03012 8:0.048193 9:0.078313 10:0.066265 11:0.012048 12:0.042169 13:0.060241 14:0.024096 15:0.018072 16:0.078313 17:0.066265 18:0.096386 19:0.012048 20:0.03012 
-3.111567462100978 1:0.105903 2:0.010417 3:0.050347 4:0.067708 5:0.039931 6:0.071181 7:0.022569 8:0.029514 9:0.046875 10:0.076389 11:0.038194 12:0.034722 13:0.029514 14:0.043403 15:0.067708 16:0.071181 17:0.069444 18:0.072917 19:0.024306 20:0.027778 
-2.131958902875166 1:0.092025 2:0.030675 3:0.021472 4:0.058282 5:0.021472 6:0.076687 7:0.042945 8:0.027607 9:0.027607 10:0.156442 11:0.009202 12:0.003067 13:0.052147 14:0.042945 15:0.119632 16:0.06135 17:0.039877 18:0.055215 19:0.021472 20:0.039877 
-4 1:0.064516 2:0.020528 3:0.046921 4:0.052786 5:0.035191 6:0.085044 7:0.026393 8:0.055718 9:0.061584 10:0.093842 11:0.017595 12:0.017595 13:0.064516 14:0.038123 15:0.055718 16:0.067449 17:0.061584 18:0.090909 19:0.02346 20:0.020528 
-1.021467276107154 1:0.105516 2:0.019185 3:0.045564 4:0.06235 5:0.033573 6:0.091127 7:0.009592 8:0.079137 9:0.064748 10:0.088729 11:0.019185 12:0.067146 13:0.045564 14:0.038369 15:0.045564 16:0.057554 17:0.035971 18:0.069544 19:0 20:0.021583 
-2.639623036330607 1:0.093625 2:0.00996 3:0.071713 4:0.053785 5:0.037849 6:0.063745 7:0.013944 8:0.061753 9:0.063745 10:0.095618 11:0.021912 12:0.039841 13:0.033865 14:0.035857 15:0.045817 16:0.067729 17:0.055777 18:0.083665 19:0.007968 20:0.041833 
-2.642067355245138 1:0.067194 2:0.017787 3:0.073123 4:0.037549 5:0.065217 6:0.067194 7:0.031621 8:0.045455 9:0.067194 10:0.059289 11:0.019763 12:0.05336 13:0.065217 14:0.045455 15:0.051383 16:0.057312 17:0.059289 18:0.067194 19:0.009881 20:0.039526 
-1.691759379147246 1:0.076866 2:0.028086 3:0.046563 4:0.06578 5:0.04952 6:0.076127 7:0.02439 8:0.069475 9:0.05765 10:0.076866 11:0.031781 12:0.042868 13:0.051737 14:0.036955 15:0.044346 16:0.061345 17:0.051737 18:0.06578 19:0.006652 20:0.035477 
-1.049752681440376 1:0.122642 2:0.023585 3:0.044811 4:0.04717 5:0.021226 6:0.108491 7:0.009434 8:0.056604 9:0.044811 10:0.082547 11:0.028302 12:0.028302 13:0.056604 14:0.044811 15:0.061321 16:0.066038 17:0.054245 18:0.082547 19:0.002358 20:0.014151 
-4 1:0.058824 2:0.022876 3:0.047386 4:0.078431 5:0.04902 6:0.058824 7:0.039216 8:0.04085 9:0.05719 10:0.114379 11:0.026144 12:0.035948 13:0.050654 14:0.039216 15:0.053922 16:0.062092 17:0.050654 18:0.05719 19:0.019608 20:0.037582 
