svm_type c_svc
kernel_type rbf
gamma 128
nr_class 2
total_sv 252
rho -0.433676
label 1 -1
nr_sv 137 115
SV
1.095543965624437 1:0.054945 2:0.032967 3:0.032967 4:0.071429 5:0.043956 6:0.082418 7:0.010989 8:0.054945 9:0.082418 10:0.065934 11:0.032967 12:0.027473 13:0.016484 14:0.054945 15:0.098901 16:0.076923 17:0.032967 18:0.087912 19:0.005495 20:0.032967 
1.839750371644173 1:0.07563 2:0.058824 3:0.033613 4:0.05042 5:0.033613 6:0.092437 7:0.02521 8:0.02521 9:0.016807 10:0.134454 11:0.008403 12:0 13:0.092437 14:0.033613 15:0.10084 16:0.07563 17:0.02521 18:0.067227 19:0.042017 20:0.008403 
1.76734146938368 1:0.057292 2:0.005208 3:0.057292 4:0.072917 5:0.015625 6:0.0625 7:0.010417 8:0.036458 9:0.0625 10:0.078125 11:0.0625 12:0.052083 13:0.036458 14:0.041667 15:0.0625 16:0.067708 17:0.078125 18:0.119792 19:0.005208 20:0.015625 
1.609363968048861 1:0.105058 2:0.013619 3:0.089494 4:0.050584 5:0.009728 6:0.044747 7:0.009728 8:0.044747 9:0.038911 10:0.087549 11:0.01751 12:0.085603 13:0.050584 14:0.035019 15:0.031128 16:0.124514 17:0.083658 18:0.052529 19:0.005837 20:0.019455 
1.068135926412521 1:0.060367 2:0.026247 3:0.060367 4:0.049869 5:0.028871 6:0.076115 7:0.018373 8:0.089239 9:0.060367 10:0.07874 11:0.018373 12:0.052493 13:0.052493 14:0.03937 15:0.023622 16:0.091864 17:0.049869 18:0.07874 19:0 20:0.044619 
0.7409830188585437 1:0.084249 2:0.009158 3:0.076923 4:0.06044 5:0.029304 6:0.067766 7:0.014652 8:0.06044 9:0.071429 10:0.120879 11:0.02381 12:0.043956 13:0.031136 14:0.03663 15:0.049451 16:0.056777 17:0.067766 18:0.07326 19:0.001832 20:0.020147 
0.6328018124929583 1:0.099291 2:0.002364 3:0.056738 4:0.092199 5:0.033097 6:0.089835 7:0.01182 8:0.066194 9:0.06383 10:0.085106 11:0.028369 12:0.047281 13:0.033097 14:0.018913 15:0.049645 16:0.049645 17:0.044917 18:0.085106 19:0 20:0.042553 
3.861143813398109 1:0.085556 2:0.003333 3:0.055556 4:0.097778 5:0.036667 6:0.076667 7:0.023333 8:0.054444 9:0.045556 10:0.082222 11:0.014444 12:0.023333 13:0.041111 14:0.024444 15:0.098889 16:0.04 17:0.04 18:0.104444 19:0.018889 20:0.033333 
2.772743022215263 1:0.092672 2:0 3:0.047414 4:0.12069 5:0.012931 6:0.088362 7:0.010776 8:0.034483 9:0.060345 10:0.092672 11:0.034483 12:0.032328 13:0.008621 14:0.060345 15:0.077586 16:0.103448 17:0.047414 18:0.043103 19:0.00431 20:0.028017 
0.5608310310607051 1:0.054446 2:0.010889 3:0.052632 4:0.127042 5:0.043557 6:0.065336 7:0.016334 8:0.072595 9:0.103448 10:0.07078 11:0.021779 12:0.027223 13:0.043557 14:0.009074 15:0.07441 16:0.038113 17:0.030853 18:0.07441 19:0.016334 20:0.047187 
4 1:0.064114 2:0.012048 3:0.055508 4:0.068847 5:0.039587 6:0.062823 7:0.026678 8:0.062392 9:0.047332 10:0.091652 11:0.032272 12:0.04389 13:0.048193 14:0.04389 15:0.061962 16:0.067126 17:0.045181 18:0.080465 19:0.011618 20:0.034423 
0.76999459860918 1:0.044025 2:0 3:0.037736 4:0.113208 5:0.062893 6:0.062893 7:0.025157 8:0.050314 9:0.106918 10:0.056604 11:0.018868 12:0.056604 13:0.056604 14:0.018868 15:0.044025 16:0.08805 17:0.044025 18:0.08805 19:0.018868 20:0.006289 
0.3378988348028747 1:0.074324 2:0 3:0.054054 4:0.060811 5:0.038288 6:0.078829 7:0.024775 8:0.081081 9:0.081081 10:0.06982 11:0.018018 12:0.024775 13:0.074324 14:0.047297 15:0.047297 16:0.029279 17:0.054054 18:0.119369 19:0.006757 20:0.015766 
4 1:0.067358 2:0.012953 3:0.051813 4:0.059585 5:0.031088 6:0.064767 7:0.023316 8:0.059585 9:0.044041 10:0.126943 11:0.036269 12:0.041451 13:0.064767 14:0.036269 15:0.051813 16:0.046632 17:0.064767 18:0.07772 19:0.010363 20:0.028497 
4 1:0.085455 2:0.014545 3:0.053636 4:0.057273 5:0.040909 6:0.091818 7:0.023636 8:0.068182 9:0.067273 10:0.08 11:0.030909 12:0.03 13:0.050909 14:0.029091 15:0.041818 16:0.058182 17:0.055455 18:0.073636 19:0.010909 20:0.036364 
4 1:0.09901 2:0.019802 3:0.046676 4:0.076379 5:0.024045 6:0.039604 7:0.009901 8:0.046676 9:0.079208 10:0.110325 11:0.01273 12:0.057992 13:0.042433 14:0.066478 15:0.065064 16:0.079208 17:0.043847 18:0.041018 19:0.004243 20:0.035361 
3.274092169399256 1:0.057508 2:0.007455 3:0.058573 4:0.060703 5:0.018104 6:0.047923 7:0.022364 8:0.052183 9:0.085197 10:0.066028 11:0.024494 12:0.076677 13:0.071353 14:0.031949 15:0.031949 16:0.127796 17:0.083067 18:0.052183 19:0.005325 20:0.019169 
0.8757336147975181 1:0.054054 2:0.010811 3:0.054054 4:0.091892 5:0.045946 6:0.056757 7:0.02973 8:0.072973 9:0.113514 10:0.089189 11:0.032432 12:0.035135 13:0.045946 14:0.024324 15:0.037838 16:0.037838 17:0.048649 18:0.067568 19:0.008108 20:0.043243 
0.8894510865651872 1:0.121212 2:0.022727 3:0.022727 4:0.075758 5:0.015152 6:0.030303 7:0.015152 8:0.015152 9:0.19697 10:0.068182 11:0.045455 12:0.007576 13:0.037879 14:0.030303 15:0.05303 16:0.098485 17:0.045455 18:0.060606 19:0.007576 20:0.030303 
1.848757413646453 1:0.03681 2:0.018405 3:0.030675 4:0.067485 5:0.018405 6:0.09816 7:0.02454 8:0.055215 9:0.08589 10:0.04908 11:0.02454 12:0.06135 13:0.042945 14:0.067485 15:0.09816 16:0.08589 17:0.042945 18:0.042945 19:0.006135 20:0.042945 
0.5164208765422644 1:0.075 2:0 3:0.025 4:0.2 5:0.075 6:0 7:0 8:0.075 9:0.025 10:0.05 11:0.05 12:0.05 13:0.05 14:0.125 15:0 16:0.05 17:0.1 18:0.025 19:0 20:0.025 
4 1:0.066819 2:0.019222 3:0.050801 4:0.069565 5:0.036156 6:0.067735 7:0.022426 8:0.079176 9:0.069108 10:0.083295 11:0.02151 12:0.055378 13:0.045767 14:0.030206 15:0.037986 16:0.075973 17:0.059039 18:0.070938 19:0.009153 20:0.029748 
1.569043249578257 1:0.072289 2:0.028112 3:0.048193 4:0.068273 5:0.032129 6:0.068273 7:0.02008 8:0.076305 9:0.080321 10:0.056225 11:0.012048 12:0.080321 13:0.040161 14:0.028112 15:0.028112 16:0.080321 17:0.064257 18:0.076305 19:0.016064 20:0.024096 
0.2513359272200993 1:0.070175 2:0.065789 3:0.050439 4:0.076754 5:0 6:0.08114 7:0.015351 8:0.019737 9:0.030702 10:0.214912 11:0.004386 12:0.037281 13:0.035088 14:0.054825 15:0.048246 16:0.083333 17:0.050439 18:0.041667 19:0.010965 20:0.008772 
2.455510317441328 1:0.03876 2:0.007752 3:0.03876 4:0.062016 5:0.054264 6:0.100775 7:0.023256 8:0.085271 9:0.085271 10:0.069767 11:0.031008 12:0.03876 13:0.023256 14:0.023256 15:0.085271 16:0.062016 17:0.023256 18:0.108527 19:0.007752 20:0.031008 
0.1578172698296548 1:0.054217 2:0.024096 3:0.048193 4:0.072289 5:0.024096 6:0.162651 7:0.042169 8:0.054217 9:0.084337 10:0.060241 11:0.006024 12:0.060241 13:0.048193 14:0.024096 15:0.018072 16:0.054217 17:0.054217 18:0.10241 19:0 20:0.006024 
0.7588737501481758 1:0.127098 2:0.004796 3:0.064748 4:0.059952 5:0.033573 6:0.093525 7:0.021583 8:0.052758 9:0.091127 10:0.100719 11:0.016787 12:0.038369 13:0.033573 14:0.023981 15:0.028777 16:0.059952 17:0.043165 18:0.086331 19:0.002398 20:0.016787 
4 1:0.078265 2:0.023256 3:0.045617 4:0.058587 5:0.033989 6:0.070215 7:0.031306 8:0.042039 9:0.042487 10:0.096154 11:0.026386 12:0.038909 13:0.060376 14:0.037567 15:0.071556 16:0.072451 17:0.055903 18:0.071109 19:0.016547 20:0.027281 
4 1:0.118421 2:0.009868 3:0.0625 4:0.039474 5:0.042763 6:0.088816 7:0.013158 8:0.052632 9:0.075658 10:0.0625 11:0.016447 12:0.052632 13:0.039474 14:0.013158 15:0.029605 16:0.0625 17:0.072368 18:0.115132 19:0.009868 20:0.023026 
0.2868114881319676 1:0.071429 2:0.020408 3:0.05102 4:0.102041 5:0.071429 6:0.030612 7:0.030612 8:0.030612 9:0.102041 10:0.061224 11:0.030612 12:0.030612 13:0.05102 14:0.05102 15:0.030612 16:0.05102 17:0.081633 18:0.081633 19:0 20:0.020408 
2.409057620116291 1:0.060302 2:0.020101 3:0.080402 4:0.035176 5:0.075377 6:0.080402 7:0.015075 8:0.090452 9:0.095477 10:0.055276 11:0.015075 12:0.035176 13:0.065327 14:0.040201 15:0.030151 16:0.065327 17:0.040201 18:0.060302 19:0.01005 20:0.030151 
0.4487724268777965 1:0.076923 2:0.006868 3:0.043956 4:0.09478 5:0.027473 6:0.074176 7:0.019231 8:0.078297 9:0.083791 10:0.078297 11:0.038462 12:0.03022 13:0.052198 14:0.035714 15:0.050824 16:0.031593 17:0.046703 18:0.100275 19:0.006868 20:0.023352 
0.6039249676687767 1:0.079167 2:0.008333 3:0.05 4:0.195833 5:0.033333 6:0.083333 7:0.0125 8:0.016667 9:0.1125 10:0.045833 11:0.016667 12:0.0375 13:0.0875 14:0.020833 15:0.041667 16:0.066667 17:0.029167 18:0.033333 19:0.008333 20:0.020833 
3.188168421331557 1:0.088496 2:0.004425 3:0.070796 4:0.039823 5:0.017699 6:0.10177 7:0.035398 8:0.061947 9:0.075221 10:0.09292 11:0.039823 12:0.026549 13:0.053097 14:0.039823 15:0.035398 16:0.070796 17:0.026549 18:0.075221 19:0.013274 20:0.030973 
0.5317249639153051 1:0.084229 2:0.026882 3:0.041219 4:0.069892 5:0.044803 6:0.043011 7:0.028674 8:0.055556 9:0.037634 10:0.148746 11:0.026882 12:0.023297 13:0.044803 14:0.066308 15:0.051971 16:0.064516 17:0.048387 18:0.050179 19:0.023297 20:0.019713 
0.5507423389868588 1:0.045455 2:0 3:0.045455 4:0.272727 5:0 6:0.090909 7:0.045455 8:0.090909 9:0.090909 10:0.090909 11:0 12:0 13:0.090909 14:0.090909 15:0 16:0 17:0 18:0.045455 19:0 20:0 
0.8711926401691775 1:0.068027 2:0.006803 3:0.05102 4:0.078231 5:0.047619 6:0.040816 7:0.030612 8:0.054422 9:0.078231 10:0.102041 11:0.027211 12:0.013605 13:0.07483 14:0.030612 15:0.040816 16:0.054422 17:0.064626 18:0.061224 19:0.027211 20:0.047619 
1.463519495392457 1:0.048352 2:0.013187 3:0.081319 4:0.065934 5:0.07033 6:0.043956 7:0.015385 8:0.052747 9:0.105495 10:0.103297 11:0.010989 12:0.054945 13:0.048352 14:0.032967 15:0.041758 16:0.041758 17:0.057143 18:0.061538 19:0.015385 20:0.035165 
1.170039607631013 1:0.08209 2:0.029851 3:0.059701 4:0.074627 5:0.033582 6:0.085821 7:0.022388 8:0.063433 9:0.037313 10:0.074627 11:0.026119 12:0.044776 13:0.074627 14:0.048507 15:0.059701 16:0.041045 17:0.033582 18:0.05597 19:0.033582 20:0.018657 
4 1:0.09073 2:0.019724 3:0.037475 4:0.078895 5:0.033531 6:0.078895 7:0.039448 8:0.021696 9:0.063116 10:0.108481 11:0.023669 12:0.017751 13:0.057199 14:0.033531 15:0.072978 16:0.069034 17:0.035503 18:0.078895 19:0.019724 20:0.019724 
3.266195949174019 1:0.101124 2:0.007491 3:0.054307 4:0.046816 5:0.035581 6:0.125468 7:0.016854 8:0.054307 9:0.069288 10:0.080524 11:0.065543 12:0.024345 13:0.029963 14:0.058052 15:0.052434 16:0.05618 17:0.058052 18:0.050562 19:0 20:0.013109 
1.156360971823643 1:0.046729 2:0.009346 3:0.056075 4:0.065421 5:0.046729 6:0.121495 7:0.028037 8:0.056075 9:0.074766 10:0.065421 11:0.018692 12:0.009346 13:0.056075 14:0.046729 15:0.056075 16:0.056075 17:0.065421 18:0.084112 19:0.009346 20:0.028037 
4 1:0.117166 2:0.013624 3:0.046322 4:0.06812 5:0.049046 6:0.081744 7:0.019074 8:0.035422 9:0.035422 10:0.117166 11:0.024523 12:0.016349 13:0.065395 14:0.054496 15:0.070845 16:0.038147 17:0.043597 18:0.06267 19:0.013624 20:0.027248 
3.412775949074709 1:0.086053 2:0.011869 3:0.05638 4:0.047478 5:0.035608 6:0.089021 7:0.017804 8:0.083086 9:0.080119 10:0.053412 11:0.017804 12:0.050445 13:0.041543 14:0.029674 15:0.029674 16:0.059347 17:0.053412 18:0.103858 19:0.014837 20:0.038576 
4 1:0.070328 2:0.016378 3:0.046243 4:0.075145 5:0.037572 6:0.074181 7:0.026975 8:0.052987 9:0.05973 10:0.109827 11:0.023121 12:0.038536 13:0.05973 14:0.034682 15:0.049133 16:0.069364 17:0.05395 18:0.058767 19:0.008671 20:0.034682 
1.523552334245081 1:0.056291 2:0.013245 3:0.066225 4:0.086093 5:0.086093 6:0.049669 7:0.009934 8:0.043046 9:0.05298 10:0.115894 11:0.033113 12:0.043046 13:0.02649 14:0.033113 15:0.096026 16:0.059603 17:0.043046 18:0.059603 19:0.006623 20:0.019868 
1.070772924315507 1:0.084071 2:0.004425 3:0.057522 4:0.10177 5:0.026549 6:0.026549 7:0.00885 8:0.070796 9:0.110619 10:0.123894 11:0.022124 12:0.048673 13:0.026549 14:0.075221 15:0.066372 16:0.030973 17:0.026549 18:0.070796 19:0 20:0.017699 
4 1:0.05787 2:0.006944 3:0.059028 4:0.060185 5:0.043981 6:0.065972 7:0.030093 8:0.061343 9:0.059028 10:0.104167 11:0.015046 12:0.052083 13:0.059028 14:0.023148 15:0.045139 16:0.075231 17:0.05787 18:0.06713 19:0.016204 20:0.040509 
1.966969590221118 1:0.059211 2:0.019737 3:0.085526 4:0.046053 5:0.072368 6:0.059211 7:0.032895 8:0.026316 9:0.065789 10:0.105263 11:0.046053 12:0.046053 13:0.026316 14:0.032895 15:0.046053 16:0.065789 17:0.052632 18:0.065789 19:0.013158 20:0.032895 
3.994725141731238 1:0.094421 2:0.004292 3:0.055794 4:0.081545 5:0.034335 6:0.077253 7:0 8:0.072961 9:0.077253 10:0.081545 11:0.017167 12:0.030043 13:0.025751 14:0.060086 15:0.051502 16:0.060086 17:0.038627 18:0.090129 19:0 20:0.04721 
3.124649492910816 1:0.067941 2:0.002123 3:0.067941 4:0.070064 5:0.046709 6:0.072187 7:0.021231 8:0.055202 9:0.065817 10:0.087049 11:0.023355 12:0.027601 13:0.067941 14:0.021231 15:0.050955 16:0.057325 17:0.057325 18:0.065817 19:0.012739 20:0.059448 
0.3594522990226384 1:0.044199 2:0.01105 3:0.055249 4:0.044199 5:0.066298 6:0.066298 7:0.038674 8:0.049724 9:0.044199 10:0.055249 11:0.033149 12:0.044199 13:0.071823 14:0.022099 15:0.071823 16:0.077348 17:0.066298 18:0.110497 19:0.005525 20:0.022099 
4 1:0.058974 2:0.007692 3:0.058974 4:0.071795 5:0.035897 6:0.061538 7:0.023077 8:0.053846 9:0.066667 10:0.069231 11:0.023077 12:0.020513 13:0.076923 14:0.046154 15:0.082051 16:0.064103 17:0.061538 18:0.061538 19:0.017949 20:0.038462 
2.376011947756986 1:0.048485 2:0.018182 3:0.042424 4:0.054545 5:0.072727 6:0.121212 7:0.024242 8:0.054545 9:0.078788 10:0.054545 11:0.030303 12:0.072727 13:0.030303 14:0.018182 15:0.030303 16:0.078788 17:0.066667 18:0.078788 19:0.006061 20:0.018182 
2.807938199260838 1:0.036789 2:0.013378 3:0.063545 4:0.070234 5:0.046823 6:0.050167 7:0.033445 8:0.063545 9:0.107023 10:0.083612 11:0.033445 12:0.043478 13:0.056856 14:0.016722 15:0.033445 16:0.053512 17:0.060201 18:0.063545 19:0.026756 20:0.043478 
0.5746537985253002 1:0.074703 2:0.003396 3:0.074703 4:0.105263 5:0.013582 6:0.059423 7:0.013582 8:0.047538 9:0.06961 10:0.091681 11:0.022071 12:0.050934 13:0.013582 14:0.06961 15:0.095076 16:0.054329 17:0.056027 18:0.049236 19:0.010187 20:0.025467 
4 1:0.051136 2:0.002841 3:0.058239 4:0.075284 5:0.03125 6:0.055398 7:0.018466 8:0.085227 9:0.090909 10:0.099432 11:0.019886 12:0.044034 13:0.053977 14:0.044034 15:0.044034 16:0.078125 17:0.056818 18:0.065341 19:0.00142 20:0.024148 
4 1:0.092965 2:0.030151 3:0.047739 4:0.050251 5:0.045226 6:0.065327 7:0.032663 8:0.047739 9:0.060302 10:0.110553 11:0.025126 12:0.027638 13:0.050251 14:0.040201 15:0.045226 16:0.075377 17:0.062814 18:0.062814 19:0.005025 20:0.022613 
4 1:0.084112 2:0.018692 3:0.056075 4:0.084112 5:0.046729 6:0.074766 7:0.028037 8:0.065421 9:0.065421 10:0.065421 11:0 12:0.065421 13:0.046729 14:0.028037 15:0.093458 16:0.046729 17:0.056075 18:0.028037 19:0 20:0.046729 
0.5620365912246574 1:0.08 2:0 3:0 4:0 5:0.08 6:0.2 7:0 8:0.04 9:0.08 10:0.04 11:0 12:0.08 13:0 14:0 15:0.12 16:0.04 17:0.04 18:0.2 19:0 20:0 
3.842252344637632 1:0.093306 2:0.010142 3:0.048682 4:0.058824 5:0.042596 6:0.085193 7:0.010142 8:0.048682 9:0.093306 10:0.087221 11:0.054767 12:0.022312 13:0.03854 14:0.054767 15:0.046653 16:0.070994 17:0.044625 18:0.073022 19:0.002028 20:0.014199 
4 1:0.080214 2:0.005348 3:0.037433 4:0.042781 5:0.048128 6:0.080214 7:0.02139 8:0.037433 9:0.122995 10:0.101604 11:0.02139 12:0.026738 13:0.048128 14:0.010695 15:0.106952 16:0.053476 17:0.058824 18:0.080214 19:0 20:0.016043 
0.5120133186297792 1:0.042945 2:0 3:0.030675 4:0.06135 5:0.006135 6:0.251534 7:0.06135 8:0.02454 9:0.079755 10:0.018405 11:0.04908 12:0.01227 13:0.02454 14:0.067485 15:0.03681 16:0.055215 17:0.141104 18:0.02454 19:0 20:0.01227 
1.68559920453675 1:0.063776 2:0.02551 3:0.028061 4:0.07398 5:0.068878 6:0.084184 7:0.028061 8:0.038265 9:0.040816 10:0.096939 11:0.030612 12:0.040816 13:0.056122 14:0.053571 15:0.053571 16:0.056122 17:0.053571 18:0.068878 19:0.012755 20:0.02551 
0.5361547895080806 1:0.142857 2:0 3:0.047619 4:0 5:0.047619 6:0.095238 7:0 8:0 9:0.095238 10:0.095238 11:0 12:0 13:0.047619 14:0.047619 15:0 16:0.047619 17:0.095238 18:0.238095 19:0 20:0 
4 1:0.121212 2:0.00551 3:0.052342 4:0.063361 5:0.024793 6:0.090909 7:0.019284 8:0.077135 9:0.049587 10:0.093664 11:0.027548 12:0.044077 13:0.057851 14:0.019284 15:0.049587 16:0.057851 17:0.049587 18:0.071625 19:0.011019 20:0.013774 
2.664208164834686 1:0.05379 2:0.02445 3:0.06357 4:0.075795 5:0.03423 6:0.061125 7:0.03912 8:0.03912 9:0.08313 10:0.066015 11:0.02934 12:0.026895 13:0.031785 14:0.022005 15:0.05379 16:0.090465 17:0.066015 18:0.085575 19:0.02934 20:0.02445 
0.3436209461241973 1:0.156627 2:0.024096 3:0.072289 4:0.084337 5:0.036145 6:0.036145 7:0 8:0.024096 9:0.168675 10:0.13253 11:0.036145 12:0.048193 13:0 14:0.024096 15:0 16:0.048193 17:0.036145 18:0.048193 19:0 20:0.024096 
1.868307472530833 1:0.062069 2:0.016092 3:0.032184 4:0.085057 5:0.05977 6:0.066667 7:0.016092 8:0.041379 9:0.050575 10:0.126437 11:0.029885 12:0.032184 13:0.078161 14:0.052874 15:0.066667 16:0.068966 17:0.029885 18:0.029885 19:0.013793 20:0.041379 
2.061185514383007 1:0.075581 2:0.023256 3:0.040698 4:0.087209 5:0.034884 6:0.05814 7:0.011628 8:0.104651 9:0.063953 10:0.05814 11:0.040698 12:0.023256 13:0.052326 14:0.040698 15:0.046512 16:0.098837 17:0.052326 18:0.034884 19:0.011628 20:0.040698 
2.913382832904594 1:0.107798 2:0.025229 3:0.052752 4:0.075688 5:0.025229 6:0.094037 7:0.018349 8:0.061927 9:0.082569 10:0.073394 11:0.036697 12:0.059633 13:0.034404 14:0.025229 15:0.03211 16:0.036697 17:0.055046 18:0.06422 19:0.009174 20:0.029817 
1.892500390663245 1:0.078067 2:0.024164 3:0.046468 4:0.078067 5:0.035316 6:0.057621 7:0.024164 8:0.053903 9:0.087361 10:0.109665 11:0.040892 12:0.033457 13:0.031599 14:0.035316 15:0.04461 16:0.052045 17:0.065056 18:0.065056 19:0.01487 20:0.022305 
1.034136674985207 1:0.120805 2:0.020134 3:0.040268 4:0.040268 5:0.040268 6:0.073826 7:0 8:0.067114 9:0.100671 10:0.067114 11:0.020134 12:0.006711 13:0.060403 14:0.033557 15:0.134228 16:0.033557 17:0.026846 18:0.067114 19:0 20:0.04698 
4 1:0.073314 2:0.020528 3:0.043988 4:0.076246 5:0.043988 6:0.061584 7:0.029326 8:0.049853 9:0.06305 10:0.085044 11:0.039589 12:0.039589 13:0.05132 14:0.042522 15:0.052786 16:0.06305 17:0.049853 18:0.08651 19:0.002933 20:0.024927 
0.5662278448355916 1:0.019737 2:0.105263 3:0 4:0.098684 5:0 6:0 7:0.032895 8:0.006579 9:0.098684 10:0.006579 11:0.006579 12:0.006579 13:0.328947 14:0.131579 15:0 16:0.019737 17:0.032895 18:0.098684 19:0 20:0.006579 
4 1:0.063927 2:0.013699 3:0.068493 4:0.068493 5:0.059361 6:0.050228 7:0.013699 8:0.031963 9:0.063927 10:0.13242 11:0.027397 12:0.03653 13:0.054795 14:0.045662 15:0.073059 16:0.041096 17:0.03653 18:0.045662 19:0.022831 20:0.050228 
4 1:0.068334 2:0.011856 3:0.059927 4:0.075663 5:0.039879 6:0.044191 7:0.017892 8:0.054322 9:0.060789 10:0.114033 11:0.021772 12:0.044406 13:0.039448 14:0.054969 15:0.062513 16:0.062513 17:0.050226 18:0.074369 19:0.01703 20:0.025868 
2.212656075592202 1:0.088235 2:0.008824 3:0.061765 4:0.058824 5:0.017647 6:0.044118 7:0.017647 8:0.102941 9:0.079412 10:0.064706 11:0.032353 12:0.05 13:0.041176 14:0.026471 15:0.05 16:0.061765 17:0.055882 18:0.105882 19:0 20:0.032353 
4 1:0.059347 2:0.011869 3:0.047478 4:0.050445 5:0.050445 6:0.074184 7:0.023739 8:0.05638 9:0.089021 10:0.097923 11:0.038576 12:0.041543 13:0.029674 14:0.05638 15:0.062315 16:0.065282 17:0.047478 18:0.032641 19:0.008902 20:0.05638 
3.660320935636931 1:0.033841 2:0.00846 3:0.054146 4:0.071066 5:0.060914 6:0.042301 7:0.027073 8:0.062606 9:0.103215 10:0.099831 11:0.023689 12:0.104907 13:0.018613 14:0.032149 15:0.028765 16:0.059222 17:0.052453 18:0.06599 19:0.006768 20:0.043993 
0.04673473362630753 1:0.031579 2:0.010526 3:0.042105 4:0.094737 5:0.021053 6:0.084211 7:0.042105 8:0.084211 9:0.042105 10:0.094737 11:0.021053 12:0.042105 13:0.073684 14:0.094737 15:0.084211 16:0.052632 17:0.021053 18:0.042105 19:0.010526 20:0.010526 
4 1:0.075658 2:0.003289 3:0.046053 4:0.059211 5:0.0625 6:0.078947 7:0.046053 8:0.065789 9:0.059211 10:0.065789 11:0.029605 12:0.0625 13:0.036184 14:0.046053 15:0.023026 16:0.059211 17:0.0625 18:0.052632 19:0.029605 20:0.036184 
0.2269394189024429 1:0.056 2:0.002667 3:0.090667 4:0.114667 5:0.045333 6:0.053333 7:0.008 8:0.074667 9:0.109333 10:0.077333 11:0.021333 12:0.048 13:0.029333 14:0.026667 15:0.032 16:0.058667 17:0.058667 18:0.048 19:0.008 20:0.037333 
2.543677701484101 1:0.101266 2:0.012658 3:0.050633 4:0.056962 5:0.018987 6:0.158228 7:0.044304 8:0.050633 9:0.056962 10:0.056962 11:0.012658 12:0.044304 13:0.037975 14:0.031646 15:0.031646 16:0.044304 17:0.075949 18:0.094937 19:0.006329 20:0.012658 
0.6155260603707374 1:0.138889 2:0 3:0 4:0.083333 5:0.055556 6:0.055556 7:0 8:0.027778 9:0.111111 10:0.111111 11:0.083333 12:0.111111 13:0.027778 14:0 15:0.027778 16:0.083333 17:0 18:0.055556 19:0.027778 20:0 
3.77206295765892 1:0.036649 2:0.020942 3:0.054974 4:0.086387 5:0.031414 6:0.041885 7:0.026178 8:0.044503 9:0.073298 10:0.08377 11:0.026178 12:0.044503 13:0.041885 14:0.049738 15:0.078534 16:0.073298 17:0.068063 18:0.065445 19:0.015707 20:0.036649 
4 1:0.060748 2:0.007009 3:0.058411 4:0.056075 5:0.042056 6:0.051402 7:0.018692 8:0.063084 9:0.058411 10:0.084112 11:0.030374 12:0.053738 13:0.07243 14:0.044393 15:0.051402 16:0.093458 17:0.056075 18:0.060748 19:0.009346 20:0.028037 
0.9538210824580573 1:0.038462 2:0.009615 3:0.055288 4:0.117788 5:0.057692 6:0.081731 7:0.009615 8:0.09375 9:0.105769 10:0.108173 11:0.03125 12:0.038462 13:0.028846 14:0.019231 15:0.060096 16:0.019231 17:0.03125 18:0.052885 19:0.002404 20:0.038462 
2.58228033175272 1:0.082192 2:0.013699 3:0.061644 4:0.089041 5:0.027397 6:0.075342 7:0.013699 8:0.034247 9:0.09589 10:0.068493 11:0.013699 12:0.061644 13:0.013699 14:0.020548 15:0.027397 16:0.109589 17:0.034247 18:0.10274 19:0.013699 20:0.041096 
4 1:0.089059 2:0.022901 3:0.045802 4:0.066158 5:0.053435 6:0.089059 7:0.020356 8:0.05598 9:0.05598 10:0.086514 11:0.022901 12:0.035623 13:0.048346 14:0.038168 15:0.045802 16:0.05598 17:0.061069 18:0.083969 19:0.010178 20:0.012723 
2.126597719977624 1:0.075949 2:0.008439 3:0.059072 4:0.105485 5:0.037975 6:0.033755 7:0.054852 8:0.059072 9:0.101266 10:0.084388 11:0.016878 12:0.033755 13:0.033755 14:0.050633 15:0.050633 16:0.067511 17:0.004219 18:0.101266 19:0.004219 20:0.016878 
0.7462512633160959 1:0.190141 2:0.007042 3:0.049296 4:0.056338 5:0.070423 6:0.112676 7:0.014085 8:0.014085 9:0.070423 10:0.06338 11:0.035211 12:0.042254 13:0.021127 14:0.035211 15:0.007042 16:0.084507 17:0.042254 18:0.049296 19:0.028169 20:0.007042 
4 1:0.043812 2:0.021906 3:0.059146 4:0.060241 5:0.038335 6:0.052574 7:0.03724 8:0.049288 9:0.054765 10:0.089814 11:0.025192 12:0.047097 13:0.051479 14:0.054765 15:0.056955 16:0.085433 17:0.05586 18:0.069003 19:0.010953 20:0.036145 
1.089538341644631 1:0.181818 2:0.007576 3:0.07197 4:0.05303 5:0.022727 6:0.056818 7:0.015152 8:0.041667 9:0.022727 10:0.034091 11:0.011364 12:0.030303 13:0.102273 14:0.045455 15:0.05303 16:0.068182 17:0.041667 18:0.083333 19:0.037879 20:0.018939 
4 1:0.071809 2:0.023936 3:0.050532 4:0.05984 5:0.038564 6:0.067819 7:0.030585 8:0.038564 9:0.049202 10:0.106383 11:0.035904 12:0.050532 13:0.049202 14:0.045213 15:0.057181 16:0.069149 17:0.046543 18:0.078457 19:0.010638 20:0.019947 
4 1:0.066116 2:0.024793 3:0.057851 4:0.033058 5:0.049587 6:0.057851 7:0.008264 8:0.082645 9:0.057851 10:0.066116 11:0.049587 12:0.033058 13:0.049587 14:0.049587 15:0.057851 16:0.066116 17:0.07438 18:0.082645 19:0 20:0.033058 
4 1:0.067476 2:0.002699 3:0.059379 4:0.071525 5:0.041835 6:0.060729 7:0.02834 8:0.053981 9:0.074224 10:0.103914 11:0.009447 12:0.043185 13:0.062078 14:0.024291 15:0.043185 16:0.064777 17:0.049933 18:0.067476 19:0.020243 20:0.051282 
3.651251992984152 1:0.074879 2:0.014493 3:0.060386 4:0.070048 5:0.041063 6:0.07971 7:0.024155 8:0.072464 9:0.089372 10:0.067633 11:0.033816 12:0.036232 13:0.028986 14:0.043478 15:0.038647 16:0.05314 17:0.057971 18:0.057971 19:0.016908 20:0.038647 
4 1:0.08554 2:0.008147 3:0.06721 4:0.052953 5:0.04277 6:0.069246 7:0.022403 8:0.057026 9:0.071283 10:0.087576 11:0.020367 12:0.04277 13:0.0611 14:0.034623 15:0.04888 16:0.050916 17:0.05499 18:0.071283 19:0.016293 20:0.034623 
1.871244615355724 1:0.055556 2:0 3:0.083333 4:0.083333 5:0.055556 6:0.111111 7:0 8:0.027778 9:0.138889 10:0.083333 11:0 12:0.027778 13:0.027778 14:0.027778 15:0.027778 16:0.083333 17:0.055556 18:0.055556 19:0.027778 20:0.027778 
1.678018836942145 1:0.025825 2:0.018651 3:0.053085 4:0.050215 5:0.041607 6:0.057389 7:0.028694 8:0.077475 9:0.07891 10:0.077475 11:0.025825 12:0.070301 13:0.04878 14:0.037303 15:0.02726 16:0.117647 17:0.07604 18:0.040172 19:0.012912 20:0.034433 
0.5567364954497961 1:0.066838 2:0.03599 3:0.01928 4:0.079692 5:0.017995 6:0.066838 7:0.023136 8:0.024422 9:0.017995 10:0.097686 11:0.006427 12:0.014139 13:0.152956 14:0.068123 15:0.078406 16:0.105398 17:0.056555 18:0.05527 19:0.006427 20:0.006427 
0.5652090744189975 1:0.337838 2:0 3:0.027027 4:0.013514 5:0.013514 6:0.013514 7:0 8:0 9:0.135135 10:0.040541 11:0.027027 12:0.054054 13:0.040541 14:0.027027 15:0.027027 16:0.054054 17:0.121622 18:0.054054 19:0 20:0.013514 
0.965382514160027 1:0.071749 2:0.004484 3:0.06278 4:0.080717 5:0.040359 6:0.044843 7:0.013453 8:0.049327 9:0.107623 10:0.139013 11:0.040359 12:0.035874 13:0.058296 14:0.03139 15:0.053812 16:0.040359 17:0.026906 18:0.053812 19:0.004484 20:0.040359 
0.3216501055818157 1:0.024267 2:0.010111 3:0.038423 4:0.031345 5:0.035389 6:0.032356 7:0.025278 8:0.053589 9:0.048534 10:0.060667 11:0.028311 12:0.18908 13:0.057634 14:0.064712 15:0.026289 16:0.154702 17:0.064712 18:0.031345 19:0.004044 20:0.019211 
0.1371462554501014 1:0.101103 2:0.018382 3:0.051471 4:0.079044 5:0.016544 6:0.077206 7:0.016544 8:0.082721 9:0.069853 10:0.09375 11:0.027574 12:0.034926 13:0.03125 14:0.047794 15:0.055147 16:0.033088 17:0.064338 18:0.080882 19:0.005515 20:0.012868 
1.056249866929921 1:0.068345 2:0.028777 3:0.039568 4:0.079137 5:0.032374 6:0.046763 7:0.017986 8:0.017986 9:0.053957 10:0.035971 11:0.035971 12:0.071942 13:0.133094 14:0.046763 15:0.061151 16:0.079137 17:0.046763 18:0.05036 19:0.021583 20:0.032374 
0.8910146295874848 1:0.041237 2:0 3:0.092784 4:0.097938 5:0.06701 6:0.056701 7:0.020619 8:0.06701 9:0.056701 10:0.097938 11:0.020619 12:0.046392 13:0.025773 14:0.041237 15:0.082474 16:0.087629 17:0.041237 18:0.046392 19:0 20:0.010309 
2.6669769128783 1:0.088435 2:0.010204 3:0.068027 4:0.064626 5:0.057823 6:0.081633 7:0.02381 8:0.037415 9:0.112245 10:0.047619 11:0.017007 12:0.027211 13:0.02381 14:0.037415 15:0.081633 16:0.030612 17:0.057823 18:0.071429 19:0.003401 20:0.057823 
1.249409392190567 1:0.04 2:0.048 3:0.112 4:0.072 5:0.056 6:0.032 7:0.024 8:0.04 9:0.056 10:0.048 11:0.024 12:0.024 13:0.056 14:0.072 15:0.112 16:0.056 17:0.048 18:0.024 19:0.032 20:0.024 
4 1:0.093827 2:0.012346 3:0.061728 4:0.066667 5:0.02716 6:0.081481 7:0.007407 8:0.064198 9:0.061728 10:0.108642 11:0.022222 12:0.02963 13:0.05679 14:0.017284 15:0.05679 16:0.088889 17:0.059259 18:0.066667 19:0.007407 20:0.009877 
1.57820636029609 1:0.048 2:0.008 3:0.032 4:0.104 5:0.04 6:0.08 7:0.008 8:0.08 9:0.128 10:0.056 11:0.024 12:0.024 13:0.024 14:0.04 15:0.024 16:0.064 17:0.112 18:0.08 19:0.008 20:0.016 
1.110490491977429 1:0.07483 2:0 3:0.058503 4:0.07483 5:0.027211 6:0.063946 7:0.017687 8:0.082993 9:0.063946 10:0.097959 11:0.02585 12:0.044898 13:0.051701 14:0.028571 15:0.059864 16:0.061224 17:0.04898 18:0.085714 19:0.009524 20:0.021769 
0.6717466407430481 1:0.124473 2:0.008439 3:0.075949 4:0.103376 5:0.027426 6:0.113924 7:0.025316 8:0.054852 9:0.021097 10:0.063291 11:0.025316 12:0.025316 13:0.033755 14:0.018987 15:0.044304 16:0.035865 17:0.06962 18:0.107595 19:0.006329 20:0.014768 
4 1:0.108939 2:0.013966 3:0.036313 4:0.069832 5:0.039106 6:0.086592 7:0.00838 8:0.055866 9:0.067039 10:0.097765 11:0.011173 12:0.039106 13:0.047486 14:0.03352 15:0.039106 16:0.053073 17:0.075419 18:0.069832 19:0.011173 20:0.036313 
4 1:0.061728 2:0.012346 3:0.041152 4:0.096708 5:0.063786 6:0.028807 7:0.020576 8:0.067901 9:0.08642 10:0.115226 11:0.020576 12:0.037037 13:0.04321 14:0.055556 15:0.04321 16:0.084362 17:0.037037 18:0.047325 19:0.010288 20:0.026749 
4 1:0.090024 2:0.009732 3:0.058394 4:0.051095 5:0.051095 6:0.077859 7:0.017032 8:0.046229 9:0.051095 10:0.082725 11:0.024331 12:0.048662 13:0.048662 14:0.036496 15:0.06326 16:0.065693 17:0.055961 18:0.07056 19:0.021898 20:0.029197 
3.409225560507605 1:0.102518 2:0.016187 3:0.066547 4:0.066547 5:0.019784 6:0.064748 7:0.014388 8:0.080935 9:0.071942 10:0.100719 11:0.026978 12:0.048561 13:0.02518 14:0.030576 15:0.048561 16:0.064748 17:0.05036 18:0.082734 19:0.001799 20:0.016187 
0.1561885289410589 1:0.031579 2:0.007018 3:0.052632 4:0.066667 5:0.070175 6:0.070175 7:0.014035 8:0.070175 9:0.084211 10:0.091228 11:0.035088 12:0.059649 13:0.049123 14:0.024561 15:0.035088 16:0.063158 17:0.049123 18:0.045614 19:0.042105 20:0.038596 
0.4129247682076429 1:0.050725 2:0 3:0.065217 4:0.101449 5:0.057971 6:0.072464 7:0 8:0.094203 9:0.065217 10:0.07971 11:0.028986 12:0.007246 13:0.043478 14:0.028986 15:0.086957 16:0.050725 17:0.043478 18:0.043478 19:0 20:0.07971 
4 1:0.087805 2:0.034146 3:0.047805 4:0.061463 5:0.040976 6:0.08 7:0.012683 8:0.067317 9:0.066341 10:0.083902 11:0.022439 12:0.036098 13:0.061463 14:0.036098 15:0.039024 16:0.067317 17:0.057561 18:0.063415 19:0.010732 20:0.023415 
0.23237463773881 1:0.093664 2:0.011019 3:0.068871 4:0.033058 5:0.046832 6:0.090909 7:0.030303 8:0.060606 9:0.085399 10:0.052342 11:0.035813 12:0.052342 13:0.033058 14:0.013774 15:0.030303 16:0.057851 17:0.057851 18:0.104683 19:0.008264 20:0.033058 
4 1:0.098321 2:0.014388 3:0.057554 4:0.064748 5:0.026379 6:0.095923 7:0.01199 8:0.052758 9:0.081535 10:0.091127 11:0.038369 12:0.035971 13:0.043165 14:0.019185 15:0.047962 16:0.069544 17:0.038369 18:0.079137 19:0.002398 20:0.031175 
0.5802597719509828 1:0.105978 2:0.008152 3:0.065217 4:0.122283 5:0.027174 6:0.067935 7:0.019022 8:0.043478 9:0.081522 10:0.059783 11:0.048913 12:0.043478 13:0.059783 14:0.038043 15:0.070652 16:0.05163 17:0.024457 18:0.040761 19:0.008152 20:0.013587 
0.123623537673644 1:0.022556 2:0.022556 3:0.082707 4:0.082707 5:0.052632 6:0.082707 7:0.015038 8:0.030075 9:0.112782 10:0.067669 11:0.015038 12:0.06015 13:0 14:0.052632 15:0.045113 16:0.015038 17:0.112782 18:0.075188 19:0.030075 20:0.022556 
0.6075712799612187 1:0.1 2:0 3:0 4:0.175 5:0.025 6:0.05 7:0.025 8:0 9:0.125 10:0.125 11:0 12:0.075 13:0.025 14:0.025 15:0 16:0.05 17:0.1 18:0.05 19:0 20:0.05 
0.7883845970506222 1:0.089385 2:0.01676 3:0.050279 4:0.072626 5:0.044693 6:0.094972 7:0.011173 8:0.039106 9:0.044693 10:0.162011 11:0.005587 12:0.005587 13:0.061453 14:0.039106 15:0.067039 16:0.061453 17:0.03352 18:0.072626 19:0.005587 20:0.022346 
0.6680626917647617 1:0.068376 2:0.003419 3:0.059829 4:0.129915 5:0.02906 6:0.035897 7:0.018803 8:0.051282 9:0.094017 10:0.094017 11:0.02735 12:0.035897 13:0.042735 14:0.075214 15:0.078632 16:0.02906 17:0.035897 18:0.046154 19:0.011966 20:0.032479 
0.1746527549458719 1:0.078947 2:0.008772 3:0.061404 4:0.087719 5:0.02193 6:0.039474 7:0.008772 8:0.070175 9:0.100877 10:0.109649 11:0.048246 12:0.04386 13:0.02193 14:0.087719 15:0.078947 16:0.013158 17:0.030702 18:0.061404 19:0 20:0.026316 
4 1:0.107735 2:0.019337 3:0.030387 4:0.063536 5:0.024862 6:0.09116 7:0.024862 8:0.049724 9:0.063536 10:0.11326 11:0.019337 12:0.019337 13:0.049724 14:0.041436 15:0.033149 16:0.077348 17:0.052486 18:0.096685 19:0.01105 20:0.01105 
1.030264540085733 1:0.082353 2:0 3:0.023529 4:0.082353 5:0.035294 6:0.058824 7:0.047059 8:0.058824 9:0.035294 10:0.082353 11:0.035294 12:0.047059 13:0.070588 14:0.023529 15:0.035294 16:0.047059 17:0.082353 18:0.094118 19:0.011765 20:0.047059 
4 1:0.079268 2:0.006098 3:0.054878 4:0.060976 5:0.030488 6:0.097561 7:0.042683 8:0.060976 9:0.042683 10:0.060976 11:0.042683 12:0.036585 13:0.067073 14:0.030488 15:0.042683 16:0.054878 17:0.054878 18:0.079268 19:0.012195 20:0.042683 
4 1:0.044721 2:0.011975 3:0.055718 4:0.077224 5:0.053275 6:0.036657 7:0.020283 8:0.075513 9:0.075269 10:0.121945 11:0.022239 12:0.054252 13:0.02737 14:0.041789 15:0.043255 16:0.079179 17:0.054741 18:0.062317 19:0.012952 20:0.029326 
4 1:0.066946 2:0.031799 3:0.05272 4:0.074477 5:0.029289 6:0.061925 7:0.025105 8:0.041841 9:0.07113 10:0.101255 11:0.022594 12:0.035146 13:0.050209 14:0.041841 15:0.057741 16:0.096234 17:0.049372 18:0.060251 19:0.014226 20:0.0159 
4 1:0.121951 2:0.021341 3:0.027439 4:0.060976 5:0.030488 6:0.097561 7:0.02439 8:0.054878 9:0.070122 10:0.103659 11:0.02439 12:0.021341 13:0.054878 14:0.036585 15:0.02439 16:0.064024 17:0.045732 18:0.085366 19:0.018293 20:0.012195 
0.05984791492108104 1:0.069307 2:0.046205 3:0.09571 4:0.059406 5:0.049505 6:0.062706 7:0.016502 8:0.049505 9:0.085809 10:0.072607 11:0.026403 12:0.046205 13:0.046205 14:0.026403 15:0.052805 16:0.062706 17:0.039604 18:0.056106 19:0.006601 20:0.029703 
4 1:0.092379 2:0.020785 3:0.064665 4:0.062356 5:0.04157 6:0.08776 7:0.018476 8:0.071594 9:0.080831 10:0.073903 11:0.025404 12:0.053118 13:0.030023 14:0.027714 15:0.032333 16:0.060046 17:0.062356 18:0.064665 19:0.006928 20:0.023095 
-3.426575303402649 1:0.095808 2:0.00998 3:0.043912 4:0.075848 5:0.025948 6:0.103792 7:0.025948 8:0.073852 9:0.083832 10:0.063872 11:0.025948 12:0.02994 13:0.031936 14:0.015968 15:0.031936 16:0.073852 17:0.053892 18:0.103792 19:0.001996 20:0.027944 
-0.2971891615538408 1:0.051205 2:0.010542 3:0.072289 4:0.070783 5:0.049699 6:0.039157 7:0.018072 8:0.079819 9:0.085843 10:0.081325 11:0.013554 12:0.075301 13:0.034639 14:0.02259 15:0.076807 16:0.085843 17:0.043675 18:0.057229 19:0.001506 20:0.03012 
-0.1204034491234473 1:0.055432 2:0.007761 3:0.06541 4:0.069845 5:0.029933 6:0.04102 7:0.019956 8:0.067627 9:0.092018 10:0.12306 11:0.025499 12:0.055432 13:0.034368 14:0.029933 15:0.046563 16:0.101996 17:0.052106 18:0.052106 19:0.003326 20:0.026608 
-1.729058678363765 1:0.065421 2:0.018692 3:0.046729 4:0.102804 5:0.056075 6:0.130841 7:0.018692 8:0.018692 9:0.130841 10:0.074766 11:0.009346 12:0.046729 13:0.037383 14:0.018692 15:0.046729 16:0.018692 17:0.074766 18:0.037383 19:0.009346 20:0.037383 
-2.302880564524186 1:0.074597 2:0.014113 3:0.078629 4:0.050403 5:0.064516 6:0.058468 7:0.040323 8:0.032258 9:0.03629 10:0.072581 11:0.022177 12:0.042339 13:0.078629 14:0.024194 15:0.082661 16:0.044355 17:0.058468 18:0.072581 19:0.016129 20:0.03629 
-4 1:0.073836 2:0.004815 3:0.0626 4:0.069021 5:0.035313 6:0.077047 7:0.011236 8:0.057785 9:0.051364 10:0.101124 11:0.033708 12:0.049759 13:0.040128 14:0.035313 15:0.067416 16:0.057785 17:0.044944 18:0.083467 19:0.012841 20:0.030498 
-0.1767984875761106 1:0.084475 2:0.020548 3:0.038813 4:0.063927 5:0.025114 6:0.098174 7:0.022831 8:0.050228 9:0.03653 10:0.118721 11:0.034247 12:0.03653 13:0.03653 14:0.043379 15:0.073059 16:0.075342 17:0.050228 18:0.050228 19:0.011416 20:0.02968 
-0.9095040590070348 1:0.043103 2:0.017241 3:0.017241 4:0.017241 5:0.034483 6:0.077586 7:0 8:0.103448 9:0.112069 10:0.086207 11:0.008621 12:0.077586 13:0.017241 14:0.017241 15:0.068966 16:0.103448 17:0.043103 18:0.12931 19:0.008621 20:0.017241 
-1.49612945695142 1:0.033613 2:0.02521 3:0.02521 4:0.02521 5:0.067227 6:0.084034 7:0.02521 8:0.084034 9:0.142857 10:0.05042 11:0.008403 12:0.02521 13:0.033613 14:0.016807 15:0.10084 16:0.07563 17:0.05042 18:0.092437 19:0.008403 20:0.02521 
-4 1:0.077966 2:0.00452 3:0.057627 4:0.077966 5:0.019209 6:0.066667 7:0.020339 8:0.049718 9:0.064407 10:0.120904 11:0.025989 12:0.023729 13:0.055367 14:0.037288 15:0.072316 16:0.071186 17:0.040678 18:0.092655 19:0.00678 20:0.014689 
-4 1:0.08125 2:0.023438 3:0.046875 4:0.059375 5:0.040625 6:0.1 7:0.023438 8:0.046875 9:0.035937 10:0.090625 11:0.028125 12:0.03125 13:0.079687 14:0.035937 15:0.071875 16:0.053125 17:0.05 18:0.057813 19:0.028125 20:0.015625 
-1.830574672573959 1:0.04 2:0.016 3:0.032 4:0.04 5:0.016 6:0.096 7:0.04 8:0.056 9:0.12 10:0.072 11:0.016 12:0.032 13:0.064 14:0.024 15:0.16 16:0.064 17:0.04 18:0.056 19:0 20:0.016 
-4 1:0.065703 2:0.013141 3:0.057819 4:0.072273 5:0.043364 6:0.070959 7:0.017083 8:0.065703 9:0.069645 10:0.067017 11:0.031537 12:0.04205 13:0.043364 14:0.038108 15:0.055191 16:0.072273 17:0.059133 18:0.085414 19:0.002628 20:0.027595 
-4 1:0.055556 2:0.007663 3:0.05364 4:0.074713 5:0.063218 6:0.051724 7:0.028736 8:0.070881 9:0.076628 10:0.09387 11:0.030651 12:0.047893 13:0.045977 14:0.030651 15:0.051724 16:0.045977 17:0.063218 18:0.051724 19:0.01341 20:0.042146 
-4 1:0.077121 2:0.012853 3:0.041131 4:0.089974 5:0.017995 6:0.046272 7:0.028278 8:0.059126 9:0.059126 10:0.092545 11:0.033419 12:0.03856 13:0.028278 14:0.066838 15:0.061697 16:0.089974 17:0.046272 18:0.089974 19:0.007712 20:0.012853 
-2.034754570000035 1:0.060201 2:0.023411 3:0.053512 4:0.053512 5:0.036789 6:0.06689 7:0.046823 8:0.020067 9:0.040134 10:0.100334 11:0.013378 12:0.0301 13:0.070234 14:0.043478 15:0.073579 16:0.080268 17:0.053512 18:0.06689 19:0.0301 20:0.036789 
-4 1:0.086519 2:0.018109 3:0.04829 4:0.086519 5:0.04829 6:0.06841 7:0.024145 8:0.036217 9:0.044266 10:0.094567 11:0.040241 12:0.030181 13:0.036217 14:0.054326 15:0.082495 16:0.054326 17:0.042254 18:0.05835 19:0.01006 20:0.036217 
-2.935068768954964 1:0.149254 2:0.022388 3:0.033582 4:0.067164 5:0.026119 6:0.093284 7:0.044776 8:0.044776 9:0.063433 10:0.078358 11:0.014925 12:0.022388 13:0.044776 14:0.026119 15:0.048507 16:0.052239 17:0.048507 18:0.104478 19:0.003731 20:0.011194 
-4 1:0.086957 2:0.018395 3:0.046823 4:0.055184 5:0.033445 6:0.115385 7:0.01505 8:0.070234 9:0.068562 10:0.08194 11:0.041806 12:0.040134 13:0.045151 14:0.026756 15:0.045151 16:0.073579 17:0.055184 18:0.053512 19:0.005017 20:0.021739 
-0.975039722472817 1:0.05042 2:0.010504 3:0.039916 4:0.05042 5:0.035714 6:0.056723 7:0.018908 8:0.090336 9:0.077731 10:0.113445 11:0.016807 12:0.077731 13:0.052521 14:0.042017 15:0.031513 16:0.084034 17:0.05042 18:0.054622 19:0.006303 20:0.039916 
-1.451546273257483 1:0.047619 2:0.038095 3:0.047619 4:0.095238 5:0.038095 6:0.085714 7:0.038095 8:0.085714 9:0.104762 10:0.057143 11:0.019048 12:0.009524 13:0.066667 14:0.047619 15:0.095238 16:0.009524 17:0.047619 18:0.009524 19:0.019048 20:0.038095 
-4 1:0.040179 2:0.017857 3:0.084821 4:0.058036 5:0.040179 6:0.053571 7:0.026786 8:0.040179 9:0.080357 10:0.066964 11:0.022321 12:0.066964 13:0.058036 14:0.049107 15:0.058036 16:0.075893 17:0.049107 18:0.044643 19:0.035714 20:0.03125 
-3.358742930124067 1:0.069257 2:0.006757 3:0.045608 4:0.0625 5:0.030405 6:0.054054 7:0.010135 8:0.072635 9:0.089527 10:0.057432 11:0.016892 12:0.050676 13:0.060811 14:0.054054 15:0.025338 16:0.121622 17:0.077703 18:0.064189 19:0.006757 20:0.023649 
-0.9203708361349322 1:0.083721 2:0.013953 3:0.048837 4:0.055814 5:0.039535 6:0.07907 7:0.032558 8:0.046512 9:0.065116 10:0.083721 11:0.039535 12:0.030233 13:0.055814 14:0.039535 15:0.046512 16:0.07907 17:0.048837 18:0.060465 19:0.016279 20:0.034884 
-2.317479309174591 1:0.063063 2:0.009009 3:0.045045 4:0.117117 5:0.072072 6:0.045045 7:0 8:0.054054 9:0.144144 10:0.126126 11:0.027027 12:0.036036 13:0.054054 14:0.027027 15:0.063063 16:0.009009 17:0.036036 18:0.027027 19:0.009009 20:0.036036 
-4 1:0.07465 2:0.013997 3:0.051322 4:0.063764 5:0.03577 6:0.066874 7:0.023328 8:0.062208 9:0.060653 10:0.091757 11:0.027994 12:0.051322 13:0.051322 14:0.041991 15:0.060653 16:0.045101 17:0.049767 18:0.069984 19:0.004666 20:0.052877 
-1.173313687326383 1:0.118343 2:0.011834 3:0.011834 4:0.023669 5:0.04142 6:0.118343 7:0.029586 8:0.005917 9:0.017751 10:0.136095 11:0.023669 12:0.017751 13:0.08284 14:0.023669 15:0.04142 16:0.04142 17:0.047337 18:0.076923 19:0.076923 20:0.053254 
-0.7812790493627245 1:0.057143 2:0.009524 3:0.066667 4:0.066667 5:0.085714 6:0.114286 7:0.038095 8:0.028571 9:0 10:0.07619 11:0.019048 12:0 13:0.066667 14:0.047619 15:0.095238 16:0.07619 17:0.038095 18:0.047619 19:0.047619 20:0.019048 
-3.763779409717352 1:0.075812 2:0.00722 3:0.028881 4:0.079422 5:0.057762 6:0.046931 7:0.032491 8:0.043321 9:0.054152 10:0.122744 11:0.021661 12:0.036101 13:0.039711 14:0.054152 15:0.064982 16:0.075812 17:0.046931 18:0.054152 19:0.025271 20:0.032491 
-1.552060250809031 1:0.097686 2:0.020566 3:0.056555 4:0.071979 5:0.046272 6:0.082262 7:0.028278 8:0.059126 9:0.069409 10:0.07455 11:0.033419 12:0.020566 13:0.043702 14:0.025707 15:0.056555 16:0.079692 17:0.046272 18:0.043702 19:0.005141 20:0.03856 
-4 1:0.050891 2:0.025445 3:0.043257 4:0.058524 5:0.035623 6:0.086514 7:0.020356 8:0.038168 9:0.050891 10:0.124682 11:0.02799 12:0.022901 13:0.071247 14:0.058524 15:0.061069 16:0.043257 17:0.048346 18:0.081425 19:0.02799 20:0.022901 
-2.681445698830335 1:0.064516 2:0.013441 3:0.034946 4:0.056452 5:0.026882 6:0.061828 7:0.018817 8:0.061828 9:0.069892 10:0.102151 11:0.013441 12:0.034946 13:0.080645 14:0.05914 15:0.05914 16:0.067204 17:0.048387 18:0.077957 19:0.024194 20:0.024194 
-4 1:0.082219 2:0.015374 3:0.046791 4:0.064171 5:0.039439 6:0.079545 7:0.018717 8:0.068182 9:0.067513 10:0.081551 11:0.028743 12:0.045455 13:0.046123 14:0.035428 15:0.038102 16:0.067513 17:0.057487 18:0.080882 19:0.009358 20:0.027406 
-4 1:0.066986 2:0.011962 3:0.064593 4:0.052632 5:0.038278 6:0.069378 7:0.019139 8:0.064593 9:0.090909 10:0.076555 11:0.038278 12:0.055024 13:0.033493 14:0.028708 15:0.043062 16:0.064593 17:0.057416 18:0.062201 19:0.014354 20:0.047847 
-4 1:0.073009 2:0.013274 3:0.059735 4:0.090708 5:0.037611 6:0.064159 7:0.013274 8:0.039823 9:0.090708 10:0.103982 11:0.026549 12:0.030973 13:0.028761 14:0.044248 15:0.070796 16:0.075221 17:0.037611 18:0.064159 19:0.013274 20:0.022124 
-1.01846447959991 1:0.074364 2:0.019569 3:0.062622 4:0.041096 5:0.046967 6:0.109589 7:0.031311 8:0.064579 9:0.093933 10:0.043053 11:0.019569 12:0.043053 13:0.046967 14:0.043053 15:0.04501 16:0.068493 17:0.064579 18:0.052838 19:0.003914 20:0.02544 
-4 1:0.081772 2:0.02385 3:0.044293 4:0.052811 5:0.0477 6:0.076661 7:0.039182 8:0.045997 9:0.054514 10:0.097104 11:0.030664 12:0.030664 13:0.054514 14:0.042589 15:0.051107 16:0.074957 17:0.052811 18:0.064736 19:0.008518 20:0.025554 
-0.7771510337669976 1:0.076923 2:0 3:0.038462 4:0.086538 5:0.009615 6:0.096154 7:0.009615 8:0.076923 9:0.115385 10:0.115385 11:0.009615 12:0.019231 13:0.038462 14:0.019231 15:0.048077 16:0.086538 17:0.028846 18:0.086538 19:0 20:0.038462 
-4 1:0.094614 2:0.004367 3:0.046579 4:0.056769 5:0.039301 6:0.078603 7:0.02329 8:0.053857 9:0.065502 10:0.075691 11:0.030568 12:0.043668 13:0.064047 14:0.046579 15:0.043668 16:0.061135 17:0.062591 18:0.078603 19:0.010189 20:0.020378 
-4 1:0.08363 2:0.012456 3:0.049822 4:0.069395 5:0.040925 6:0.088968 7:0.030249 8:0.076512 9:0.065836 10:0.071174 11:0.02669 12:0.040925 13:0.040925 14:0.032028 15:0.060498 16:0.048043 17:0.065836 18:0.053381 19:0.005338 20:0.037367 
-4 1:0.071567 2:0.016441 3:0.052224 4:0.053191 5:0.033849 6:0.059961 7:0.032882 8:0.065764 9:0.060928 10:0.112186 11:0.026112 12:0.051257 13:0.055126 14:0.033849 15:0.040619 16:0.083172 17:0.058994 18:0.054159 19:0.004836 20:0.032882 
-0.6043747425988056 1:0.099099 2:0.009009 3:0.033033 4:0.081081 5:0.036036 6:0.057057 7:0.033033 8:0.042042 9:0.072072 10:0.099099 11:0.033033 12:0.039039 13:0.048048 14:0.015015 15:0.072072 16:0.048048 17:0.036036 18:0.081081 19:0.027027 20:0.039039 
-2.22886963113677 1:0.103512 2:0.020333 3:0.055453 4:0.049908 5:0.051756 6:0.088725 7:0.02403 8:0.07024 9:0.042514 10:0.072089 11:0.022181 12:0.040665 13:0.046211 14:0.027726 15:0.062847 16:0.05915 17:0.049908 18:0.086876 19:0.003697 20:0.022181 
-1.910009604612892 1:0.094595 2:0.054054 3:0.054054 4:0.067568 5:0.040541 6:0.013514 7:0.013514 8:0.027027 9:0.054054 10:0.081081 11:0.013514 12:0.040541 13:0.067568 14:0.054054 15:0.054054 16:0.054054 17:0.121622 18:0.040541 19:0.013514 20:0.040541 
-2.802722051779137 1:0.072727 2:0.012121 3:0.042424 4:0.090909 5:0.030303 6:0.084848 7:0.036364 8:0.048485 9:0.066667 10:0.084848 11:0.018182 12:0.030303 13:0.054545 14:0.006061 15:0.018182 16:0.127273 17:0.060606 18:0.078788 19:0.018182 20:0.018182 
-4 1:0.058824 2:0.009412 3:0.063529 4:0.101176 5:0.030588 6:0.035294 7:0.028235 8:0.058824 9:0.103529 10:0.070588 11:0.04 12:0.049412 13:0.023529 14:0.044706 15:0.051765 16:0.056471 17:0.054118 18:0.077647 19:0.016471 20:0.025882 
-4 1:0.07772 2:0.020725 3:0.07513 4:0.056995 5:0.046632 6:0.051813 7:0.023316 8:0.072539 9:0.064767 10:0.049223 11:0.033679 12:0.036269 13:0.07513 14:0.023316 15:0.056995 16:0.051813 17:0.051813 18:0.062176 19:0.025907 20:0.044041 
-4 1:0.062162 2:0.018919 3:0.051351 4:0.067568 5:0.043243 6:0.064865 7:0.032432 8:0.045946 9:0.091892 10:0.1 11:0.024324 12:0.043243 13:0.048649 14:0.016216 15:0.056757 16:0.059459 17:0.07027 18:0.067568 19:0.013514 20:0.021622 
-4 1:0.065421 2:0.004673 3:0.028037 4:0.084112 5:0.037383 6:0.046729 7:0.023364 8:0.079439 9:0.088785 10:0.088785 11:0.028037 12:0.028037 13:0.042056 14:0.084112 15:0.046729 16:0.046729 17:0.037383 18:0.088785 19:0.004673 20:0.046729 
-0.499327498910966 1:0.009091 2:0.009091 3:0.027273 4:0.072727 5:0.081818 6:0.045455 7:0.036364 8:0.072727 9:0.136364 10:0.118182 11:0.018182 12:0.009091 13:0.045455 14:0.036364 15:0.090909 16:0.045455 17:0.054545 18:0.036364 19:0.018182 20:0.036364 
-4 1:0.099476 2:0.005236 3:0.064572 4:0.075044 5:0.017452 6:0.097731 7:0.005236 8:0.075044 9:0.092496 10:0.08377 11:0.031414 12:0.034904 13:0.033159 14:0.029668 15:0.038394 16:0.04363 17:0.059337 18:0.099476 19:0.001745 20:0.012216 
-0.007881794638831281 1:0.060367 2:0.011811 3:0.053806 4:0.059055 5:0.057743 6:0.052493 7:0.020997 8:0.051181 9:0.064304 10:0.107612 11:0.024934 12:0.05643 13:0.036745 14:0.035433 15:0.052493 16:0.090551 17:0.049869 18:0.069554 19:0.007874 20:0.036745 
-4 1:0.079734 2:0.018826 3:0.054264 4:0.086379 5:0.019934 6:0.067553 7:0.019934 8:0.035437 9:0.048726 10:0.100775 11:0.013289 12:0.023256 13:0.080842 14:0.043189 15:0.040975 16:0.104097 17:0.054264 18:0.079734 19:0.011074 20:0.017719 
-4 1:0.06639 2:0.014523 3:0.049793 4:0.058091 5:0.043568 6:0.06639 7:0.020747 8:0.074689 9:0.085062 10:0.087137 11:0.026971 12:0.039419 13:0.058091 14:0.033195 15:0.03527 16:0.064315 17:0.060166 18:0.078838 19:0.008299 20:0.029046 
-3.774391539359774 1:0.08972 2:0.013084 3:0.042991 4:0.052336 5:0.04486 6:0.069159 7:0.02243 8:0.031776 9:0.042991 10:0.136449 11:0.016822 12:0.024299 13:0.063551 14:0.059813 15:0.071028 16:0.048598 17:0.042991 18:0.072897 19:0.018692 20:0.035514 
-4 1:0.058394 2:0.014599 3:0.058394 4:0.051095 5:0.046229 6:0.043796 7:0.029197 8:0.060827 9:0.048662 10:0.104623 11:0.03163 12:0.048662 13:0.058394 14:0.046229 15:0.048662 16:0.092457 17:0.041363 18:0.07056 19:0.004866 20:0.041363 
-0.8676372657661141 1:0.038462 2:0 3:0.025641 4:0.070513 5:0.057692 6:0.032051 7:0.025641 8:0.032051 9:0.185897 10:0.108974 11:0.019231 12:0.044872 13:0.070513 14:0.025641 15:0.044872 16:0.076923 17:0.032051 18:0.044872 19:0.00641 20:0.057692 
-0.1890056494127851 1:0.078313 2:0.006024 3:0.050201 4:0.072289 5:0.034137 6:0.066265 7:0.012048 8:0.064257 9:0.056225 10:0.084337 11:0.024096 12:0.026104 13:0.044177 14:0.032129 15:0.072289 16:0.092369 17:0.074297 18:0.062249 19:0.014056 20:0.034137 
-4 1:0.053672 2:0.022599 3:0.064972 4:0.081921 5:0.050847 6:0.076271 7:0.033898 8:0.033898 9:0.062147 10:0.064972 11:0.031073 12:0.022599 13:0.059322 14:0.025424 15:0.084746 16:0.062147 17:0.050847 18:0.067797 19:0.019774 20:0.031073 
-1.951946416759864 1:0.054054 2:0.027027 3:0.045045 4:0.081081 5:0.036036 6:0.09009 7:0.018018 8:0.063063 9:0.144144 10:0.063063 11:0.009009 12:0.027027 13:0.063063 14:0.018018 15:0.036036 16:0.045045 17:0.063063 18:0.063063 19:0.009009 20:0.045045 
-4 1:0.109615 2:0.015385 3:0.053846 4:0.051923 5:0.042308 6:0.092308 7:0.013462 8:0.044231 9:0.057692 10:0.080769 11:0.019231 12:0.038462 13:0.048077 14:0.048077 15:0.05 16:0.046154 17:0.05 18:0.088462 19:0.013462 20:0.036538 
-4 1:0.081664 2:0.012327 3:0.05547 4:0.052388 5:0.044684 6:0.061633 7:0.020031 8:0.049307 9:0.064715 10:0.09245 11:0.027735 12:0.050847 13:0.049307 14:0.032357 15:0.046225 16:0.063174 17:0.070878 18:0.075501 19:0.013867 20:0.035439 
-4 1:0.058214 2:0.022329 3:0.054226 4:0.069378 5:0.044657 6:0.043062 7:0.015152 8:0.059809 9:0.097289 10:0.087719 11:0.017544 12:0.056619 13:0.051037 14:0.035885 15:0.048644 16:0.078947 17:0.052632 18:0.053429 19:0.016746 20:0.036683 
-2.162084424732001 1:0.104587 2:0.00367 3:0.055046 4:0.058716 5:0.025688 6:0.091743 7:0.012844 8:0.07156 9:0.056881 10:0.097248 11:0.022018 12:0.025688 13:0.036697 14:0.044037 15:0.066055 16:0.062385 17:0.055046 18:0.078899 19:0.001835 20:0.029358 
-4 1:0.084459 2:0.004505 3:0.059685 4:0.07545 5:0.023649 6:0.074324 7:0.02027 8:0.045045 9:0.065315 10:0.117117 11:0.029279 12:0.022523 13:0.047297 14:0.042793 15:0.067568 16:0.067568 17:0.040541 18:0.088964 19:0.007883 20:0.015766 
-2.053418037169942 1:0.086053 2:0.029674 3:0.086053 4:0.041543 5:0.023739 6:0.094955 7:0.011869 8:0.035608 9:0.047478 10:0.04451 11:0.014837 12:0.050445 13:0.041543 14:0.032641 15:0.008902 16:0.139466 17:0.077151 18:0.071217 19:0.017804 20:0.04451 
-1.163015267279934 1:0.071429 2:0.056391 3:0.052632 4:0.033835 5:0.026316 6:0.041353 7:0.015038 8:0.052632 9:0.078947 10:0.109023 11:0.033835 12:0.045113 13:0.052632 14:0.052632 15:0.056391 16:0.06391 17:0.067669 18:0.033835 19:0.015038 20:0.041353 
-1.080250379013918 1:0.070313 2:0.007813 3:0.03125 4:0.070313 5:0.039063 6:0.039063 7:0.007813 8:0.070313 9:0.0625 10:0.125 11:0.007813 12:0.054688 13:0.085938 14:0.03125 15:0.109375 16:0.046875 17:0.054688 18:0.007813 19:0.007813 20:0.070313 
-2.176191419135838 1:0.028169 2:0.056338 3:0.042254 4:0.056338 5:0.042254 6:0.056338 7:0 8:0.028169 9:0.056338 10:0.112676 11:0.042254 12:0.112676 13:0.042254 14:0.070423 15:0.070423 16:0.028169 17:0.070423 18:0.070423 19:0 20:0.014085 
-0.9731145145420105 1:0.052632 2:0.015038 3:0.048872 4:0.058271 5:0.046992 6:0.054511 7:0.022556 8:0.056391 9:0.050752 10:0.092105 11:0.033835 12:0.048872 13:0.06015 14:0.056391 15:0.075188 16:0.048872 17:0.052632 18:0.058271 19:0.020677 20:0.046992 
-1.052131193015141 1:0.089947 2:0 3:0.037037 4:0.074074 5:0.05291 6:0.068783 7:0.031746 8:0.068783 9:0.05291 10:0.095238 11:0.021164 12:0.015873 13:0.063492 14:0.010582 15:0.095238 16:0.042328 17:0.042328 18:0.068783 19:0.015873 20:0.05291 
-4 1:0.097315 2:0.013423 3:0.073826 4:0.04698 5:0.053691 6:0.077181 7:0.010067 8:0.060403 9:0.090604 10:0.077181 11:0.040268 12:0.033557 13:0.026846 14:0.030201 15:0.033557 16:0.067114 17:0.07047 18:0.07047 19:0.003356 20:0.02349 
-1.309681773776846 1:0.093458 2:0 3:0.046729 4:0.121495 5:0.028037 6:0.093458 7:0.056075 8:0.046729 9:0.11215 10:0.065421 11:0.028037 12:0.009346 13:0 14:0.037383 15:0.102804 16:0.084112 17:0.018692 18:0.028037 19:0.009346 20:0.018692 
-0.8467042894268335 1:0.05914 2:0.010753 3:0.064516 4:0.053763 5:0.026882 6:0.075269 7:0.032258 8:0.010753 9:0.032258 10:0.05914 11:0.064516 12:0.037634 13:0.107527 14:0.037634 15:0.075269 16:0.037634 17:0.026882 18:0.075269 19:0.037634 20:0.075269 
-1.296579865732585 1:0.148936 2:0 3:0.042553 4:0.021277 5:0.021277 6:0.106383 7:0 8:0.042553 9:0.06383 10:0.06383 11:0.042553 12:0.021277 13:0.021277 14:0.021277 15:0.148936 16:0.042553 17:0.06383 18:0.12766 19:0 20:0 
-0.8673994392356519 1:0.124567 2:0.00346 3:0.051903 4:0.069204 5:0.041522 6:0.041522 7:0.00346 8:0.076125 9:0.083045 10:0.076125 11:0.017301 12:0.079585 13:0.024221 14:0.024221 15:0.044983 16:0.096886 17:0.058824 18:0.055363 19:0.00346 20:0.024221 
-4 1:0.079511 2:0.015291 3:0.055046 4:0.061162 5:0.042813 6:0.051988 7:0.021407 8:0.058104 9:0.073394 10:0.082569 11:0.027523 12:0.058104 13:0.030581 14:0.036697 15:0.045872 16:0.091743 17:0.045872 18:0.100917 19:0.009174 20:0.012232 
-1.288843534061557 1:0.057143 2:0 3:0.028571 4:0 5:0.057143 6:0.142857 7:0.028571 8:0.085714 9:0.085714 10:0.085714 11:0.085714 12:0.085714 13:0.085714 14:0 15:0 16:0.028571 17:0.028571 18:0.057143 19:0 20:0.057143 
-2.208039422114315 1:0.053232 2:0.011407 3:0.070342 4:0.04943 5:0.041825 6:0.04943 7:0.015209 8:0.104563 9:0.076046 10:0.10076 11:0.011407 12:0.051331 13:0.028517 14:0.036122 15:0.045627 16:0.119772 17:0.053232 18:0.057034 19:0.001901 20:0.022814 
-4 1:0.117302 2:0.008798 3:0.043988 4:0.046921 5:0.032258 6:0.093842 7:0.008798 8:0.052786 9:0.067449 10:0.099707 11:0.020528 12:0.043988 13:0.052786 14:0.02346 15:0.035191 16:0.076246 17:0.052786 18:0.099707 19:0.002933 20:0.020528 
-3.246223426704984 1:0.118056 2:0.020833 3:0.041667 4:0.034722 5:0.041667 6:0.097222 7:0.055556 8:0.0625 9:0.076389 10:0.083333 11:0.027778 12:0.0625 13:0.048611 14:0.055556 15:0 16:0.041667 17:0.055556 18:0.041667 19:0.020833 20:0.013889 
-4 1:0.092338 2:0.019646 3:0.039293 4:0.064833 5:0.035363 6:0.111984 7:0.031434 8:0.076621 9:0.074656 10:0.070727 11:0.017682 12:0.043222 13:0.037328 14:0.02947 15:0.033399 16:0.05501 17:0.05501 18:0.090373 19:0.005894 20:0.015717 
-1.370474890735452 1:0.090343 2:0.009346 3:0.034268 4:0.080997 5:0.049844 6:0.080997 7:0.034268 8:0.037383 9:0.068536 10:0.084112 11:0.05296 12:0.028037 13:0.040498 14:0.015576 15:0.056075 16:0.056075 17:0.043614 18:0.071651 19:0.024922 20:0.040498 
-4 1:0.049834 2:0.023256 3:0.069767 4:0.066445 5:0.066445 6:0.063123 7:0.013289 8:0.059801 9:0.069767 10:0.096346 11:0.003322 12:0.039867 13:0.053156 14:0.036545 15:0.076412 16:0.076412 17:0.039867 18:0.0299 19:0.009967 20:0.056478 
-0.08817866413099629 1:0.068182 2:0.015152 3:0.030303 4:0.022727 5:0.022727 6:0.083333 7:0.037879 8:0.030303 9:0.136364 10:0.060606 11:0.030303 12:0.045455 13:0.045455 14:0.037879 15:0.060606 16:0.060606 17:0.068182 18:0.090909 19:0.015152 20:0.037879 
-4 1:0.062201 2:0.016746 3:0.055024 4:0.066986 5:0.043062 6:0.07177 7:0.019139 8:0.08134 9:0.066986 10:0.050239 11:0.021531 12:0.047847 13:0.062201 14:0.033493 15:0.038278 16:0.074163 17:0.059809 18:0.069378 19:0.011962 20:0.047847 
-4 1:0.055453 2:0.005545 3:0.05915 4:0.060998 5:0.040665 6:0.044362 7:0.029575 8:0.075786 9:0.073937 10:0.120148 11:0.022181 12:0.055453 13:0.044362 14:0.053604 15:0.046211 16:0.075786 17:0.051756 18:0.040665 19:0.005545 20:0.038817 
-4 1:0.065934 2:0.010989 3:0.049451 4:0.06044 5:0.076923 6:0.120879 7:0.016484 8:0.071429 9:0.087912 10:0.049451 11:0.021978 12:0.049451 13:0.043956 14:0.021978 15:0.038462 16:0.06044 17:0.054945 18:0.065934 19:0.010989 20:0.021978 
-0.4308549590406227 1:0.035294 2:0 3:0.011765 4:0.070588 5:0.023529 6:0.070588 7:0.023529 8:0.070588 9:0.129412 10:0.094118 11:0 12:0.023529 13:0.047059 14:0.023529 15:0.058824 16:0.094118 17:0.070588 18:0.129412 19:0 20:0.023529 
-2.14710368404874 1:0.107143 2:0.015873 3:0.05754 4:0.055556 5:0.041667 6:0.073413 7:0.02381 8:0.041667 9:0.043651 10:0.111111 11:0.021825 12:0.03373 13:0.047619 14:0.041667 15:0.081349 16:0.059524 17:0.047619 18:0.055556 19:0.007937 20:0.031746 
-0.844708179250118 1:0.077636 2:0.00927 3:0.052144 4:0.05562 5:0.034762 6:0.071842 7:0.017381 8:0.07416 9:0.071842 10:0.091541 11:0.010429 12:0.05562 13:0.039397 14:0.032445 15:0.041715 16:0.088065 17:0.048667 18:0.079954 19:0.00927 20:0.038239 
-4 1:0.055375 2:0.006515 3:0.058632 4:0.052117 5:0.042345 6:0.078176 7:0.029316 8:0.052117 9:0.09772 10:0.081433 11:0.022801 12:0.042345 13:0.052117 14:0.035831 15:0.061889 16:0.065147 17:0.039088 18:0.071661 19:0.009772 20:0.045603 
-1.443349074548054 1:0.115385 2:0.019231 3:0.048077 4:0.028846 5:0.028846 6:0.096154 7:0.019231 8:0.038462 9:0.125 10:0.086538 11:0.009615 12:0.067308 13:0.028846 14:0.067308 15:0.028846 16:0.019231 17:0.067308 18:0.048077 19:0.009615 20:0.048077 
-4 1:0.053846 2:0.003846 3:0.073077 4:0.046154 5:0.05 6:0.034615 7:0.023077 8:0.05 9:0.065385 10:0.123077 11:0.030769 12:0.042308 13:0.034615 14:0.046154 15:0.038462 16:0.065385 17:0.088462 18:0.080769 19:0.015385 20:0.034615 
-1.277239782861047 1:0.081481 2:0 3:0.051852 4:0.074074 5:0.059259 6:0.059259 7:0.014815 8:0.044444 9:0.074074 10:0.066667 11:0.022222 12:0.081481 13:0.014815 14:0.044444 15:0.059259 16:0.074074 17:0.074074 18:0.051852 19:0.007407 20:0.044444 
-3.70192795045595 1:0.025641 2:0.012821 3:0.044872 4:0.083333 5:0.070513 6:0.038462 7:0.032051 8:0.057692 9:0.067308 10:0.128205 11:0.041667 12:0.044872 13:0.025641 14:0.051282 15:0.054487 16:0.064103 17:0.041667 18:0.048077 19:0.00641 20:0.060897 
-3.039661350925718 1:0.067542 2:0.020638 3:0.035647 4:0.06379 5:0.037523 6:0.050657 7:0.030019 8:0.078799 9:0.054409 10:0.101313 11:0.016886 12:0.052533 13:0.043152 14:0.030019 15:0.054409 16:0.086304 17:0.071295 18:0.067542 19:0.007505 20:0.030019 
-3.253752579061067 1:0.097585 2:0.017391 3:0.048309 4:0.05314 5:0.03285 6:0.075362 7:0.028986 8:0.061836 9:0.056039 10:0.085024 11:0.038647 12:0.046377 13:0.06087 14:0.031884 15:0.038647 16:0.068599 17:0.062802 18:0.054106 19:0.006763 20:0.034783 
-4 1:0.087591 2:0.009385 3:0.051095 4:0.092805 5:0.028154 6:0.078206 7:0.021898 8:0.052138 9:0.066736 10:0.10219 11:0.025026 12:0.025026 13:0.050052 14:0.034411 15:0.063608 16:0.049009 17:0.046924 18:0.080292 19:0.010428 20:0.025026 
-0.8495154356354497 1:0.04878 2:0 3:0.03252 4:0.04878 5:0.065041 6:0.03252 7:0.01626 8:0.04878 9:0.04065 10:0.073171 11:0.04065 12:0.04878 13:0.056911 14:0.04878 15:0.121951 16:0.081301 17:0.081301 18:0.04878 19:0.02439 20:0.04065 
-2.779022837153038 1:0.10687 2:0 3:0.071247 4:0.109415 5:0.022901 6:0.066158 7:0.005089 8:0.033079 9:0.124682 10:0.068702 11:0.012723 12:0.048346 13:0.015267 14:0.058524 15:0.063613 16:0.086514 17:0.025445 18:0.030534 19:0.025445 20:0.025445 
-0.7202970229137161 1:0.072727 2:0 3:0.090909 4:0.018182 5:0.036364 6:0.109091 7:0.054545 8:0.018182 9:0.036364 10:0.072727 11:0.018182 12:0.054545 13:0.036364 14:0.054545 15:0.109091 16:0.018182 17:0.018182 18:0.072727 19:0.072727 20:0.036364 
-4 1:0.045662 2:0 3:0.105023 4:0.114155 5:0.059361 6:0.03653 7:0.009132 8:0.059361 9:0.105023 10:0.123288 11:0.004566 12:0.03653 13:0.031963 14:0.041096 15:0.041096 16:0.077626 17:0.041096 18:0.054795 19:0.004566 20:0.009132 
-3.526282405671976 1:0.098696 2:0.014898 3:0.046555 4:0.048417 5:0.040968 6:0.080074 7:0.014898 8:0.061453 9:0.05959 10:0.078212 11:0.035382 12:0.048417 13:0.055866 14:0.039106 15:0.040968 16:0.072626 17:0.055866 18:0.078212 19:0.011173 20:0.018622 
-4 1:0.114206 2:0.02507 3:0.041783 4:0.066852 5:0.038997 6:0.091922 7:0.016713 8:0.077994 9:0.052925 10:0.072423 11:0.036212 12:0.036212 13:0.052925 14:0.033426 15:0.044568 16:0.047354 17:0.030641 18:0.083565 19:0.011142 20:0.02507 
-4 1:0.085595 2:0.002088 3:0.039666 4:0.08142 5:0.037578 6:0.073069 7:0.02714 8:0.052192 9:0.08142 10:0.118998 11:0.010438 12:0.02714 13:0.048017 14:0.031315 15:0.043841 16:0.075157 17:0.05428 18:0.056367 19:0.012526 20:0.041754 
-1.320968724511556 1:0.08 2:0 3:0 4:0.12 5:0.08 6:0 7:0 8:0.08 9:0 10:0.12 11:0.04 12:0.08 13:0.04 14:0 15:0.08 16:0.12 17:0.12 18:0 19:0 20:0.04 
-1.43393455300206 1:0 2:0 3:0.090909 4:0.272727 5:0.090909 6:0.090909 7:0.181818 8:0 9:0 10:0 11:0 12:0 13:0 14:0 15:0 16:0.181818 17:0.090909 18:0 19:0 20:0 
-2.171363738333425 1:0.102151 2:0.026882 3:0.080645 4:0.053763 5:0.021505 6:0.112903 7:0.016129 8:0.053763 9:0.032258 10:0.107527 11:0.032258 12:0.032258 13:0.016129 14:0.021505 15:0.080645 16:0.075269 17:0.069892 18:0.053763 19:0.005376 20:0.005376 
-4 1:0.047727 2:0.013636 3:0.059091 4:0.095455 5:0.029545 6:0.029545 7:0.018182 8:0.065909 9:0.084091 10:0.109091 11:0.020455 12:0.090909 13:0.020455 14:0.029545 15:0.063636 16:0.068182 17:0.043182 18:0.063636 19:0.004545 20:0.043182 
-0.8468338313307311 1:0.042857 2:0.014286 3:0.042857 4:0.057143 5:0.042857 6:0.114286 7:0.042857 8:0.071429 9:0.042857 10:0.1 11:0.042857 12:0.028571 13:0.028571 14:0 15:0.085714 16:0.057143 17:0.028571 18:0.071429 19:0.028571 20:0.057143 
-2.148399257030432 1:0.098237 2:0.017632 3:0.047859 4:0.070529 5:0.02267 6:0.093199 7:0.02267 8:0.04534 9:0.060453 10:0.073048 11:0.037783 12:0.032746 13:0.030227 14:0.035264 15:0.057935 16:0.052897 17:0.080605 18:0.062972 19:0.012594 20:0.04534 
-2.955950016794998 1:0.111864 2:0.00678 3:0.055932 4:0.072881 5:0.022034 6:0.101695 7:0.005085 8:0.066102 9:0.069492 10:0.084746 11:0.018644 12:0.027119 13:0.032203 14:0.028814 15:0.050847 16:0.067797 17:0.076271 18:0.091525 19:0 20:0.010169 
-4 1:0.094017 2:0.010684 3:0.042735 4:0.057692 5:0.032051 6:0.076923 7:0.029915 8:0.047009 9:0.064103 10:0.113248 11:0.032051 12:0.038462 13:0.053419 14:0.025641 15:0.038462 16:0.076923 17:0.042735 18:0.068376 19:0.019231 20:0.036325 
-0.1444555859555738 1:0.075676 2:0.037838 3:0.021622 4:0.032432 5:0.032432 6:0.086486 7:0.021622 8:0.048649 9:0.081081 10:0.064865 11:0.032432 12:0.016216 13:0.043243 14:0.037838 15:0.118919 16:0.081081 17:0.054054 18:0.059459 19:0.016216 20:0.037838 
