svm_type c_svc
kernel_type rbf
gamma 128
nr_class 2
total_sv 18
rho 0.395004
label 1 -1
nr_sv 8 10
SV
0.5773985173471495 1:0.085239 2:0.017672 3:0.057173 4:0.067568 5:0.031185 6:0.040541 7:0.02183 8:0.064449 9:0.059252 10:0.121622 11:0.025988 12:0.050936 13:0.039501 14:0.047817 15:0.044699 16:0.061331 17:0.057173 18:0.074844 19:0.005198 20:0.025988 
0.7760155532348959 1:0.071864 2:0.01827 3:0.048721 4:0.059683 5:0.028015 6:0.047503 7:0.01827 8:0.063337 9:0.049939 10:0.120585 11:0.032887 12:0.051157 13:0.052375 14:0.046285 15:0.052375 16:0.073082 17:0.069428 18:0.066991 19:0.003654 20:0.025579 
1.624669861645998 1:0.037825 2:0.007092 3:0.040189 4:0.089835 5:0.049645 6:0.056738 7:0.023641 8:0.066194 9:0.07565 10:0.082742 11:0.028369 12:0.044917 13:0.047281 14:0.026005 15:0.052009 16:0.082742 17:0.040189 18:0.094563 19:0.014184 20:0.040189 
1.198409674661971 1:0.038462 2:0.019231 3:0.064103 4:0.070513 5:0.032051 6:0.032051 7:0.025641 8:0.083333 9:0.083333 10:0.102564 11:0.057692 12:0.051282 13:0.019231 14:0.012821 15:0.044872 16:0.057692 17:0.064103 18:0.083333 19:0.00641 20:0.051282 
4 1:0.070866 2:0.006749 3:0.068616 4:0.086614 5:0.048369 6:0.070866 7:0.015748 8:0.046119 9:0.057368 10:0.087739 11:0.008999 12:0.058493 13:0.035996 14:0.031496 15:0.033746 16:0.074241 17:0.061867 18:0.07649 19:0.022497 20:0.03712 
2.201110554468271 1:0.06738 2:0.011765 3:0.063102 4:0.073797 5:0.052406 6:0.026738 7:0.014973 8:0.072727 9:0.063102 10:0.118717 11:0.012834 12:0.062032 13:0.036364 14:0.037433 15:0.037433 16:0.103743 17:0.056684 18:0.062032 19:0.002139 20:0.024599 
3.219269984471164 1:0.090339 2:0.027604 3:0.053952 4:0.056462 5:0.028858 6:0.081556 7:0.035132 8:0.033877 9:0.031368 10:0.080301 11:0.010038 12:0.041405 13:0.06399 14:0.045169 15:0.058971 16:0.071518 17:0.069009 18:0.071518 19:0.02133 20:0.027604 
0.7201416191992558 1:0.067293 2:0.007825 3:0.050078 4:0.078247 5:0.025039 6:0.045383 7:0.01252 8:0.035994 9:0.057903 10:0.118936 11:0.028169 12:0.039124 13:0.101721 14:0.054773 15:0.043818 16:0.093897 17:0.057903 18:0.057903 19:0.00939 20:0.014085 
-0.6729485737985706 1:0.031667 2:0.001667 3:0.076667 4:0.113333 5:0.026667 6:0.033333 7:0.011667 8:0.058333 9:0.133333 10:0.091667 11:0.03 12:0.141667 13:0.025 14:0.046667 15:0.005 16:0.041667 17:0.046667 18:0.053333 19:0 20:0.031667 
-0.8168917273570869 1:0.068966 2:0.005747 3:0.045977 4:0.031609 5:0.034483 6:0.077586 7:0.014368 8:0.051724 9:0.031609 10:0.08908 11:0.025862 12:0.066092 13:0.066092 14:0.054598 15:0.063218 16:0.08908 17:0.028736 18:0.08046 19:0.011494 20:0.063218 
-1.558521680115605 1:0.040825 2:0.011414 3:0.058385 4:0.057068 5:0.036435 6:0.03863 7:0.026339 8:0.061457 9:0.076383 10:0.083406 11:0.018437 12:0.080773 13:0.046532 14:0.03468 15:0.046532 16:0.122476 17:0.072432 18:0.045215 19:0.007902 20:0.03468 
-1.105856305291684 1:0.088583 2:0.023622 3:0.049213 4:0.057087 5:0.041339 6:0.11811 7:0.009843 8:0.062992 9:0.059055 10:0.084646 11:0.023622 12:0.025591 13:0.051181 14:0.041339 15:0.027559 16:0.064961 17:0.049213 18:0.076772 19:0.011811 20:0.033465 
-0.3666150833548026 1:0.076023 2:0.002924 3:0.046784 4:0.04386 5:0.055556 6:0.073099 7:0.002924 8:0.038012 9:0.040936 10:0.087719 11:0.035088 12:0.096491 13:0.067251 14:0.04386 15:0.052632 16:0.073099 17:0.040936 18:0.064327 19:0.008772 20:0.049708 
-3.364437673555694 1:0.060311 2:0.009728 3:0.060311 4:0.075875 5:0.050584 6:0.085603 7:0.027237 8:0.060311 9:0.07393 10:0.097276 11:0.011673 12:0.054475 13:0.046693 14:0.027237 15:0.035019 16:0.064202 17:0.054475 18:0.064202 19:0.011673 20:0.029183 
-0.6891201913931263 1:0.089337 2:0.002882 3:0.043228 4:0.040346 5:0.048991 6:0.072046 7:0.005764 8:0.04611 9:0.04611 10:0.086455 11:0.014409 12:0.092219 13:0.054755 14:0.037464 15:0.04611 16:0.092219 17:0.04611 18:0.074928 19:0.008646 20:0.051873 
-0.4196056028075363 1:0.044248 2:0.00885 3:0.059735 4:0.04646 5:0.084071 6:0.061947 7:0.017699 8:0.070796 9:0.090708 10:0.088496 11:0.017699 12:0.073009 13:0.033186 14:0.030973 15:0.013274 16:0.059735 17:0.075221 18:0.066372 19:0.00885 20:0.048673 
-3.999078894452264 1:0.075972 2:0.0053 3:0.077739 4:0.063604 5:0.04417 6:0.065371 7:0.045936 8:0.04417 9:0.04947 10:0.095406 11:0.012367 12:0.047703 13:0.031802 14:0.035336 15:0.042403 16:0.086572 17:0.061837 18:0.070671 19:0.008834 20:0.035336 
-1.323940032902335 1:0.056962 2:0.003165 3:0.088608 4:0.079114 5:0.018987 6:0.047468 7:0.012658 8:0.041139 9:0.06962 10:0.110759 11:0.022152 12:0.050633 13:0.028481 14:0.066456 15:0.10443 16:0.056962 17:0.053797 18:0.053797 19:0.012658 20:0.022152 
