svm_type c_svc
kernel_type rbf
gamma 128
nr_class 2
total_sv 22
rho 0.201479
label 1 -1
nr_sv 7 15
SV
1.517545436167423 1:0.036904 2:0.014401 3:0.054005 4:0.067507 5:0.029703 6:0.032403 7:0.024302 8:0.088209 9:0.077408 10:0.10081 11:0.018002 12:0.105311 13:0.026103 14:0.062106 15:0.036904 16:0.10441 17:0.065707 18:0.034203 19:0.0009 20:0.020702 
0.708419178663467 1:0.113772 2:0 3:0.055888 4:0.177645 5:0.013972 6:0.01996 7:0.007984 8:0.01996 9:0.095808 10:0.117764 11:0.021956 12:0.031936 13:0.007984 14:0.081836 15:0.103792 16:0.067864 17:0.031936 18:0.025948 19:0 20:0.003992 
1.091097566471372 1:0.069307 2:0.006601 3:0.023102 4:0.059406 5:0.039604 6:0.042904 7:0.016502 8:0.036304 9:0.056106 10:0.066007 11:0.036304 12:0.046205 13:0.072607 14:0.085809 15:0.069307 16:0.138614 17:0.082508 18:0.039604 19:0.0033 20:0.009901 
4 1:0.058962 2:0.008255 3:0.058962 4:0.071934 5:0.038915 6:0.054245 7:0.020047 8:0.0625 9:0.067217 10:0.095519 11:0.025943 12:0.048349 13:0.068396 14:0.04717 15:0.064858 16:0.066038 17:0.048349 18:0.068396 19:0.005896 20:0.020047 
0.4485473891896794 1:0.091652 2:0.004537 3:0.059891 4:0.170599 5:0.009074 6:0.020871 7:0.017241 8:0.032668 9:0.124319 10:0.130672 11:0.024501 12:0.04265 13:0.000907 14:0.07804 15:0.059891 16:0.051724 17:0.041742 18:0.027223 19:0.002722 20:0.009074 
4 1:0.064317 2:0.013216 3:0.063436 4:0.085463 5:0.05022 6:0.043172 7:0.025551 8:0.065198 9:0.060793 10:0.090749 11:0.038767 12:0.056388 13:0.037004 14:0.036123 15:0.073128 16:0.05022 17:0.046696 18:0.055507 19:0.005286 20:0.038767 
0.4249296796906637 1:0.087629 2:0.008763 3:0.051546 4:0.133505 5:0.028866 6:0.03866 7:0.019588 8:0.049485 9:0.111856 10:0.101031 11:0.026804 12:0.038144 13:0.016495 14:0.06701 15:0.050515 16:0.054639 17:0.046392 18:0.042784 19:0.004639 20:0.021649 
-0.4952940299051145 1:0.144578 2:0.012048 3:0.078313 4:0.042169 5:0.078313 6:0.072289 7:0.006024 8:0.066265 9:0.066265 10:0.060241 11:0 12:0.018072 13:0.072289 14:0.006024 15:0.018072 16:0.060241 17:0.066265 18:0.108434 19:0 20:0.024096 
-0.1725795137317549 1:0.051282 2:0.011834 3:0.067061 4:0.053254 5:0.057199 6:0.065089 7:0.035503 8:0.043393 9:0.063116 10:0.061144 11:0.015779 12:0.055227 13:0.080868 14:0.033531 15:0.047337 16:0.063116 17:0.067061 18:0.059172 19:0.015779 20:0.053254 
-0.3530278502263859 1:0.071186 2:0.030508 3:0.047458 4:0.037288 5:0.057627 6:0.050847 7:0.016949 8:0.023729 9:0.071186 10:0.145763 11:0.020339 12:0.030508 13:0.037288 14:0.050847 15:0.071186 16:0.054237 17:0.037288 18:0.081356 19:0.010169 20:0.054237 
-0.939332133043884 1:0.090909 2:0.007576 3:0.068182 4:0.054924 5:0.041667 6:0.07197 7:0.028409 8:0.056818 9:0.0625 10:0.089015 11:0.028409 12:0.047348 13:0.047348 14:0.032197 15:0.068182 16:0.043561 17:0.054924 18:0.058712 19:0.017045 20:0.030303 
-0.002966362918559179 1:0.107649 2:0.022663 3:0.053824 4:0.053824 5:0.028329 6:0.096317 7:0.014164 8:0.070822 9:0.056657 10:0.093484 11:0.025496 12:0.031161 13:0.05949 14:0.022663 15:0.053824 16:0.053824 17:0.03966 18:0.09915 19:0 20:0.016997 
-0.5602148233655595 1:0.088012 2:0.013657 3:0.060698 4:0.062215 5:0.033384 6:0.059181 7:0.037936 8:0.051593 9:0.051593 10:0.091047 11:0.042489 12:0.039454 13:0.028832 14:0.042489 15:0.059181 16:0.053111 17:0.068285 18:0.062215 19:0.010622 20:0.044006 
-3.217939860830286 1:0.058824 2:0.009804 3:0.073529 4:0.073529 5:0.029412 6:0.034314 7:0.009804 8:0.078431 9:0.058824 10:0.107843 11:0.019608 12:0.058824 13:0.063725 14:0.053922 15:0.04902 16:0.068627 17:0.053922 18:0.029412 19:0.019608 20:0.04902 
-0.3713126193893934 1:0.078987 2:0.013413 3:0.04769 4:0.04769 5:0.040238 6:0.041729 7:0.022355 8:0.078987 9:0.0462 10:0.120715 11:0.023845 12:0.04918 13:0.059613 14:0.0462 15:0.043219 16:0.055142 17:0.058122 18:0.076006 19:0.017884 20:0.032787 
-2.769901128093724 1:0.056213 2:0.02071 3:0.044379 4:0.068047 5:0.056213 6:0.065089 7:0.050296 8:0.056213 9:0.076923 10:0.079882 11:0.029586 12:0.047337 13:0.050296 14:0.04142 15:0.050296 16:0.053254 17:0.050296 18:0.068047 19:0.008876 20:0.026627 
-0.9528544222765905 1:0.057279 2:0.031026 3:0.0358 4:0.073986 5:0.069212 6:0.059666 7:0.019093 8:0.069212 9:0.066826 10:0.105012 11:0.019093 12:0.050119 13:0.050119 14:0.02864 15:0.052506 16:0.069212 17:0.047733 18:0.040573 19:0.00716 20:0.047733 
-0.5659521269290165 1:0.105903 2:0.010417 3:0.050347 4:0.067708 5:0.039931 6:0.071181 7:0.022569 8:0.029514 9:0.046875 10:0.076389 11:0.038194 12:0.034722 13:0.029514 14:0.043403 15:0.067708 16:0.071181 17:0.069444 18:0.072917 19:0.024306 20:0.027778 
-0.5737462602540432 1:0.092025 2:0.030675 3:0.021472 4:0.058282 5:0.021472 6:0.076687 7:0.042945 8:0.027607 9:0.027607 10:0.156442 11:0.009202 12:0.003067 13:0.052147 14:0.042945 15:0.119632 16:0.06135 17:0.039877 18:0.055215 19:0.021472 20:0.039877 
-0.07293226669909043 1:0.064516 2:0.020528 3:0.046921 4:0.052786 5:0.035191 6:0.085044 7:0.026393 8:0.055718 9:0.061584 10:0.093842 11:0.017595 12:0.017595 13:0.064516 14:0.038123 15:0.055718 16:0.067449 17:0.061584 18:0.090909 19:0.02346 20:0.020528 
-0.6432130377982122 1:0.105516 2:0.019185 3:0.045564 4:0.06235 5:0.033573 6:0.091127 7:0.009592 8:0.079137 9:0.064748 10:0.088729 11:0.019185 12:0.067146 13:0.045564 14:0.038369 15:0.045564 16:0.057554 17:0.035971 18:0.069544 19:0 20:0.021583 
-0.4992728147209912 1:0.058824 2:0.022876 3:0.047386 4:0.078431 5:0.04902 6:0.058824 7:0.039216 8:0.04085 9:0.05719 10:0.114379 11:0.026144 12:0.035948 13:0.050654 14:0.039216 15:0.053922 16:0.062092 17:0.050654 18:0.05719 19:0.019608 20:0.037582 
