svm_type c_svc
kernel_type polynomial
degree 10
gamma 10
coef0 1
nr_class 2
total_sv 35
rho -0.644319
label 1 -1
nr_sv 27 8
SV
0.08504263100363127 1:0.067797 2:0 3:0.055085 4:0.067797 5:0.042373 6:0.042373 7:0.016949 8:0.084746 9:0.080508 10:0.097458 11:0.025424 12:0.072034 13:0.025424 14:0.021186 15:0.038136 16:0.084746 17:0.055085 18:0.067797 19:0.004237 20:0.050847 
0.5483291207355984 1:0.067164 2:0.027363 3:0.054726 4:0.059701 5:0.032338 6:0.09204 7:0.007463 8:0.059701 9:0.052239 10:0.094527 11:0.012438 12:0.042289 13:0.037313 14:0.052239 15:0.042289 16:0.084577 17:0.052239 18:0.077114 19:0.007463 20:0.044776 
0.1319235187188273 1:0.119403 2:0.008529 3:0.046908 4:0.057569 5:0.051173 6:0.1258 7:0.021322 8:0.051173 9:0.057569 10:0.06823 11:0.031983 12:0.025586 13:0.053305 14:0.01919 15:0.040512 16:0.049041 17:0.053305 18:0.08742 19:0.006397 20:0.025586 
0.08611290288534092 1:0.067797 2:0 3:0.061017 4:0.050847 5:0.037288 6:0.061017 7:0.016949 8:0.064407 9:0.064407 10:0.111864 11:0.037288 12:0.037288 13:0.033898 14:0.077966 15:0.071186 16:0.040678 17:0.067797 18:0.057627 19:0 20:0.040678 
0.06145864898801505 1:0.106227 2:0 3:0.03663 4:0.043956 5:0.054945 6:0.120879 7:0.010989 8:0.051282 9:0.054945 10:0.113553 11:0.025641 12:0.03663 13:0.062271 14:0.043956 15:0.03663 16:0.069597 17:0.040293 18:0.040293 19:0.018315 20:0.032967 
0.1805029892601648 1:0.068592 2:0.00361 3:0.054152 4:0.036101 5:0.036101 6:0.072202 7:0.043321 8:0.043321 9:0.072202 10:0.104693 11:0.01444 12:0.061372 13:0.025271 14:0.021661 15:0.021661 16:0.108303 17:0.093863 18:0.083032 19:0.00361 20:0.032491 
0.03509354254935325 1:0.073892 2:0.014778 3:0.064039 4:0.073892 5:0.024631 6:0.078818 7:0.014778 8:0.08867 9:0.044335 10:0.083744 11:0.054187 12:0.034483 13:0.044335 14:0.034483 15:0.044335 16:0.049261 17:0.029557 18:0.08867 19:0.009852 20:0.049261 
0.1013660715688774 1:0.058052 2:0.014981 3:0.052434 4:0.052434 5:0.041199 6:0.069288 7:0.037453 8:0.086142 9:0.059925 10:0.095506 11:0.016854 12:0.073034 13:0.035581 14:0.026217 15:0.02809 16:0.088015 17:0.078652 18:0.052434 19:0.003745 20:0.029963 
0.01963975729117588 1:0.116915 2:0.032338 3:0.064677 4:0.032338 5:0.034826 6:0.10199 7:0.017413 8:0.052239 9:0.037313 10:0.079602 11:0.0199 12:0.044776 13:0.029851 14:0.037313 15:0.057214 16:0.09204 17:0.044776 18:0.077114 19:0.012438 20:0.014925 
0.08790443006905983 1:0.082278 2:0.014768 3:0.065401 4:0.052743 5:0.042194 6:0.097046 7:0.006329 8:0.048523 9:0.061181 10:0.06962 11:0.042194 12:0.056962 13:0.044304 14:0.044304 15:0.050633 16:0.050633 17:0.054852 18:0.075949 19:0.006329 20:0.033755 
0.1555493416330616 1:0.069136 2:0.012346 3:0.061728 4:0.051852 5:0.066667 6:0.071605 7:0.02716 8:0.054321 9:0.066667 10:0.079012 11:0.009877 12:0.041975 13:0.061728 14:0.032099 15:0.041975 16:0.116049 17:0.044444 18:0.05679 19:0.009877 20:0.024691 
0.01534315149499413 1:0.048913 2:0.01087 3:0.054348 4:0.081522 5:0.021739 6:0.048913 7:0.01087 8:0.092391 9:0.043478 10:0.119565 11:0.021739 12:0.103261 13:0.016304 14:0.059783 15:0.070652 16:0.076087 17:0.054348 18:0.043478 19:0.005435 20:0.016304 
0.000206229349537402 1:0.056738 2:0.014184 3:0.070922 4:0.056738 5:0.021277 6:0.163121 7:0.056738 8:0.035461 9:0.035461 10:0.099291 11:0.007092 12:0.042553 13:0.049645 14:0.021277 15:0.028369 16:0.049645 17:0.092199 18:0.099291 19:0 20:0 
0.001437467049886439 1:0 2:0.041667 3:0.208333 4:0.083333 5:0.083333 6:0.041667 7:0.041667 8:0.041667 9:0.083333 10:0 11:0.083333 12:0 13:0.083333 14:0 15:0 16:0 17:0.041667 18:0.083333 19:0.083333 20:0 
0.04436317543111266 1:0.06988 2:0.021687 3:0.053012 4:0.06988 5:0.028916 6:0.081928 7:0.014458 8:0.072289 9:0.057831 10:0.077108 11:0.019277 12:0.031325 13:0.038554 14:0.043373 15:0.036145 16:0.108434 17:0.053012 18:0.072289 19:0.004819 20:0.045783 
0.07282836422298804 1:0.120155 2:0.011628 3:0.05814 4:0.050388 5:0.042636 6:0.081395 7:0.011628 8:0.031008 9:0.081395 10:0.077519 11:0.003876 12:0.042636 13:0.042636 14:0.03876 15:0.034884 16:0.093023 17:0.065891 18:0.05814 19:0.007752 20:0.046512 
0.142118742065115 1:0.092683 2:0.014634 3:0.039024 4:0.068293 5:0.04878 6:0.141463 7:0.009756 8:0.034146 9:0.039024 10:0.102439 11:0.019512 12:0.029268 13:0.068293 14:0.04878 15:0.039024 16:0.04878 17:0.039024 18:0.058537 19:0.02439 20:0.034146 
0.03798188689500664 1:0.062602 2:0.012195 3:0.064228 4:0.079675 5:0.045528 6:0.066667 7:0.030894 8:0.052033 9:0.070732 10:0.080488 11:0.01626 12:0.047967 13:0.043089 14:0.034146 15:0.052033 16:0.074797 17:0.04878 18:0.070732 19:0.019512 20:0.027642 
0.007987704483582166 1:0.071918 2:0 3:0.065068 4:0.065068 5:0.068493 6:0.106164 7:0.003425 8:0.030822 9:0.030822 10:0.075342 11:0.006849 12:0.047945 13:0.030822 14:0.027397 15:0.071918 16:0.167808 17:0.023973 18:0.082192 19:0.003425 20:0.020548 
0.08055201256702138 1:0.101887 2:0.003774 3:0.056604 4:0.041509 5:0.067925 6:0.113208 7:0.011321 8:0.026415 9:0.049057 10:0.101887 11:0.030189 12:0.05283 13:0.064151 14:0.026415 15:0.026415 16:0.045283 17:0.045283 18:0.083019 19:0.022642 20:0.030189 
0.08510514886687488 1:0.092896 2:0.032787 3:0.054645 4:0.032787 5:0.054645 6:0.032787 7:0.005464 8:0.038251 9:0.04918 10:0.054645 11:0.043716 12:0.071038 13:0.065574 14:0.060109 15:0.054645 16:0.065574 17:0.065574 18:0.065574 19:0.021858 20:0.038251 
0.03414413068940721 1:0.070423 2:0.008451 3:0.08169 4:0.039437 5:0.042254 6:0.121127 7:0.011268 8:0.061972 9:0.056338 10:0.092958 11:0.022535 12:0.022535 13:0.039437 14:0.016901 15:0.050704 16:0.095775 17:0.059155 18:0.076056 19:0.005634 20:0.025352 
0.3692659240366628 1:0.047855 2:0.013201 3:0.064356 4:0.051155 5:0.044554 6:0.054455 7:0.028053 8:0.067657 9:0.072607 10:0.084158 11:0.009901 12:0.072607 13:0.069307 14:0.036304 15:0.041254 16:0.077558 17:0.047855 18:0.064356 19:0.013201 20:0.039604 
0.01605241220905409 1:0.043011 2:0.075269 3:0.11828 4:0.075269 5:0.032258 6:0.096774 7:0.010753 8:0.032258 9:0.064516 10:0.086022 11:0 12:0 13:0.043011 14:0.032258 15:0.010753 16:0.107527 17:0.086022 18:0.043011 19:0 20:0.043011 
0.1251666999984869 1:0.094708 2:0.008357 3:0.052925 4:0.086351 5:0.058496 6:0.089136 7:0.019499 8:0.069638 9:0.052925 10:0.075209 11:0.022284 12:0.05571 13:0.027855 14:0.02507 15:0.027855 16:0.064067 17:0.050139 18:0.083565 19:0.002786 20:0.033426 
0.01155369202817144 1:0.083333 2:0.038889 3:0.033333 4:0.044444 5:0.038889 6:0.072222 7:0.005556 8:0.038889 9:0.066667 10:0.061111 11:0.027778 12:0.022222 13:0.044444 14:0.061111 15:0.033333 16:0.094444 17:0.077778 18:0.083333 19:0.027778 20:0.044444 
8.786312868354601e-05 1:0.073684 2:0.042105 3:0.073684 4:0.126316 5:0.052632 6:0.094737 7:0.010526 8:0.042105 9:0.042105 10:0.094737 11:0.010526 12:0 13:0.042105 14:0.021053 15:0.010526 16:0.094737 17:0.073684 18:0.073684 19:0 20:0.021053 
-1 1:0.088583 2:0.023622 3:0.049213 4:0.057087 5:0.041339 6:0.11811 7:0.009843 8:0.062992 9:0.059055 10:0.084646 11:0.023622 12:0.025591 13:0.051181 14:0.041339 15:0.027559 16:0.064961 17:0.049213 18:0.076772 19:0.011811 20:0.033465 
-0.1125567329380927 1:0.056962 2:0.003165 3:0.088608 4:0.079114 5:0.018987 6:0.047468 7:0.012658 8:0.041139 9:0.06962 10:0.110759 11:0.022152 12:0.050633 13:0.028481 14:0.066456 15:0.10443 16:0.056962 17:0.053797 18:0.053797 19:0.012658 20:0.022152 
-0.2859038672366731 1:0.040825 2:0.011414 3:0.058385 4:0.057068 5:0.036435 6:0.03863 7:0.026339 8:0.061457 9:0.076383 10:0.083406 11:0.018437 12:0.080773 13:0.046532 14:0.03468 15:0.046532 16:0.122476 17:0.072432 18:0.045215 19:0.007902 20:0.03468 
-0.2693763031767526 1:0.089337 2:0.002882 3:0.043228 4:0.040346 5:0.048991 6:0.072046 7:0.005764 8:0.04611 9:0.04611 10:0.086455 11:0.014409 12:0.092219 13:0.054755 14:0.037464 15:0.04611 16:0.092219 17:0.04611 18:0.074928 19:0.008646 20:0.051873 
-0.1999926359024771 1:0.044248 2:0.00885 3:0.059735 4:0.04646 5:0.084071 6:0.061947 7:0.017699 8:0.070796 9:0.090708 10:0.088496 11:0.017699 12:0.073009 13:0.033186 14:0.030973 15:0.013274 16:0.059735 17:0.075221 18:0.066372 19:0.00885 20:0.048673 
-0.03003872470873125 1:0.086111 2:0.008333 3:0.058333 4:0.047222 5:0.052778 6:0.091667 7:0.019444 8:0.058333 9:0.052778 10:0.108333 11:0.005556 12:0.052778 13:0.041667 14:0.044444 15:0.008333 16:0.088889 17:0.077778 18:0.038889 19:0.011111 20:0.047222 
-0.5044690322424994 1:0.075972 2:0.0053 3:0.077739 4:0.063604 5:0.04417 6:0.065371 7:0.045936 8:0.04417 9:0.04947 10:0.095406 11:0.012367 12:0.047703 13:0.031802 14:0.035336 15:0.042403 16:0.086572 17:0.061837 18:0.070671 19:0.008834 20:0.035336 
-0.1347802630144643 1:0.068966 2:0.005747 3:0.045977 4:0.031609 5:0.034483 6:0.077586 7:0.014368 8:0.051724 9:0.031609 10:0.08908 11:0.025862 12:0.066092 13:0.066092 14:0.054598 15:0.063218 16:0.08908 17:0.028736 18:0.08046 19:0.011494 20:0.063218 
