svm_type c_svc
kernel_type polynomial
degree 10
gamma 10
coef0 1
nr_class 2
total_sv 98
rho 3.34719
label 1 -1
nr_sv 47 51
SV
0.01145717514186636 1:0.08046 2:0.022989 3:0.034483 4:0.103448 5:0.011494 6:0.126437 7:0.022989 8:0.057471 9:0.034483 10:0.034483 11:0.022989 12:0.068966 13:0.045977 14:0.034483 15:0.011494 16:0.103448 17:0.022989 18:0.08046 19:0.022989 20:0.057471 
0.5076673781666339 1:0.047855 2:0.013201 3:0.064356 4:0.051155 5:0.044554 6:0.054455 7:0.028053 8:0.067657 9:0.072607 10:0.084158 11:0.009901 12:0.072607 13:0.069307 14:0.036304 15:0.041254 16:0.077558 17:0.047855 18:0.064356 19:0.013201 20:0.039604 
0.1438142159138044 1:0.056 2:0.016 3:0.056 4:0.058667 5:0.034667 6:0.074667 7:0.021333 8:0.050667 9:0.08 10:0.074667 11:0.026667 12:0.042667 13:0.072 14:0.032 15:0.048 16:0.085333 17:0.048 18:0.064 19:0.013333 20:0.045333 
0.003974128113452836 1:0.09375 2:0.052083 3:0.114583 4:0.125 5:0.041667 6:0.0625 7:0.010417 8:0.041667 9:0.041667 10:0.052083 11:0 12:0 13:0.03125 14:0.03125 15:0.010417 16:0.083333 17:0.0625 18:0.104167 19:0 20:0.041667 
0.00252508885132519 1:0.25 2:0 3:0 4:0.083333 5:0.083333 6:0.166667 7:0 8:0 9:0 10:0 11:0 12:0.083333 13:0.083333 14:0 15:0 16:0.083333 17:0 18:0.083333 19:0 20:0.083333 
0.003824094983438715 1:0.266667 2:0 3:0.066667 4:0.066667 5:0 6:0 7:0 8:0 9:0.066667 10:0.2 11:0 12:0 13:0 14:0.066667 15:0 16:0.066667 17:0.133333 18:0.066667 19:0 20:0 
0.7764377941138042 1:0.101215 2:0.02834 3:0.044534 4:0.032389 5:0.040486 6:0.089069 7:0.020243 8:0.040486 9:0.044534 10:0.11336 11:0.024291 12:0.048583 13:0.064777 14:0.02834 15:0.032389 16:0.072874 17:0.076923 18:0.064777 19:0.016194 20:0.016194 
0.3062301877291664 1:0.116915 2:0.032338 3:0.064677 4:0.032338 5:0.034826 6:0.10199 7:0.017413 8:0.052239 9:0.037313 10:0.079602 11:0.0199 12:0.044776 13:0.029851 14:0.037313 15:0.057214 16:0.09204 17:0.044776 18:0.077114 19:0.012438 20:0.014925 
0.08024609370399553 1:0.073684 2:0.042105 3:0.073684 4:0.126316 5:0.052632 6:0.094737 7:0.010526 8:0.042105 9:0.042105 10:0.094737 11:0.010526 12:0 13:0.042105 14:0.021053 15:0.010526 16:0.094737 17:0.073684 18:0.073684 19:0 20:0.021053 
0.1551150675810166 1:0.045872 2:0.018349 3:0.06422 4:0.036697 5:0.027523 6:0.036697 7:0.027523 8:0.100917 9:0.082569 10:0.06422 11:0.027523 12:0.045872 13:0.055046 14:0.036697 15:0.027523 16:0.06422 17:0.091743 18:0.110092 19:0.018349 20:0.018349 
0.01122712115310682 1:0.162162 2:0 3:0.027027 4:0 5:0.027027 6:0.054054 7:0 8:0.081081 9:0 10:0.216216 11:0.054054 12:0.027027 13:0.027027 14:0.027027 15:0.135135 16:0.081081 17:0 18:0.054054 19:0.027027 20:0 
0.1028680242006541 1:0.058052 2:0.014981 3:0.052434 4:0.052434 5:0.041199 6:0.069288 7:0.037453 8:0.086142 9:0.059925 10:0.095506 11:0.016854 12:0.073034 13:0.035581 14:0.026217 15:0.02809 16:0.088015 17:0.078652 18:0.052434 19:0.003745 20:0.029963 
0.05170151087905567 1:0.09375 2:0.0625 3:0.125 4:0.052083 5:0.020833 6:0.09375 7:0.010417 8:0.052083 9:0.041667 10:0.072917 11:0 12:0 13:0.03125 14:0.0625 15:0.010417 16:0.083333 17:0.072917 18:0.0625 19:0 20:0.052083 
0.1559977364232726 1:0.08776 2:0.013857 3:0.057737 4:0.071594 5:0.053118 6:0.076212 7:0.018476 8:0.073903 9:0.080831 10:0.078522 11:0.020785 12:0.034642 13:0.034642 14:0.018476 15:0.039261 16:0.053118 17:0.073903 18:0.057737 19:0.018476 20:0.036952 
0.02046932998982227 1:0.063291 2:0 3:0.050633 4:0.07173 5:0.054852 6:0.029536 7:0.012658 8:0.084388 9:0.097046 10:0.105485 11:0.050633 12:0.067511 13:0.021097 14:0.037975 15:0.037975 16:0.080169 17:0.033755 18:0.042194 19:0.004219 20:0.054852 
1 1:0.060827 2:0.019465 3:0.053528 4:0.065693 5:0.043796 6:0.053528 7:0.012165 8:0.053528 9:0.058394 10:0.099757 11:0.012165 12:0.053528 13:0.055961 14:0.038929 15:0.053528 16:0.082725 17:0.065693 18:0.068127 19:0.014599 20:0.034063 
0.4643039191115167 1:0.083333 2:0.038889 3:0.033333 4:0.044444 5:0.038889 6:0.072222 7:0.005556 8:0.038889 9:0.066667 10:0.061111 11:0.027778 12:0.022222 13:0.044444 14:0.061111 15:0.033333 16:0.094444 17:0.077778 18:0.083333 19:0.027778 20:0.044444 
0.2183483874854971 1:0.084 2:0.012 3:0.036 4:0.104 5:0.056 6:0.048 7:0.028 8:0.028 9:0.072 10:0.092 11:0.016 12:0.056 13:0.044 14:0.036 15:0.044 16:0.096 17:0.024 18:0.088 19:0.004 20:0.032 
1 1:0.090526 2:0.033684 3:0.058947 4:0.054737 5:0.042105 6:0.098947 7:0.027368 8:0.044211 9:0.054737 10:0.086316 11:0.021053 12:0.035789 13:0.029474 14:0.023158 15:0.058947 16:0.04 17:0.069474 18:0.063158 19:0.016842 20:0.050526 
0.05339791024508345 1:0.09009 2:0.009009 3:0.045045 4:0.040541 5:0.031532 6:0.108108 7:0.045045 8:0.031532 9:0.040541 10:0.094595 11:0.009009 12:0.04955 13:0.063063 14:0.018018 15:0.018018 16:0.108108 17:0.112613 18:0.085586 19:0 20:0 
0.1791486628740558 1:0.089835 2:0.014184 3:0.06383 4:0.049645 5:0.028369 6:0.049645 7:0.002364 8:0.037825 9:0.061466 10:0.108747 11:0.030733 12:0.040189 13:0.044917 14:0.028369 15:0.078014 16:0.089835 17:0.037825 18:0.082742 19:0.018913 20:0.042553 
0.4237518744506318 1:0.070479 2:0.014628 3:0.06117 4:0.06117 5:0.037234 6:0.089096 7:0.029255 8:0.050532 9:0.06383 10:0.085106 11:0.022606 12:0.053191 13:0.035904 14:0.034574 15:0.046543 16:0.077128 17:0.039894 18:0.073138 19:0.021277 20:0.033245 
0.07745630849039373 1:0.101796 2:0.041916 3:0.053892 4:0.047904 5:0.017964 6:0.065868 7:0.011976 8:0.053892 9:0.071856 10:0.077844 11:0.023952 12:0.02994 13:0.065868 14:0.005988 15:0.053892 16:0.065868 17:0.05988 18:0.107784 19:0.023952 20:0.017964 
0.7987444614175193 1:0.069767 2:0.02907 3:0.065891 4:0.050388 5:0.042636 6:0.075581 7:0.021318 8:0.077519 9:0.05814 10:0.079457 11:0.023256 12:0.046512 13:0.03876 14:0.03876 15:0.04845 16:0.079457 17:0.056202 18:0.05814 19:0.005814 20:0.034884 
0.02336118297171796 1:0.067797 2:0 3:0.061017 4:0.050847 5:0.037288 6:0.061017 7:0.016949 8:0.064407 9:0.064407 10:0.111864 11:0.037288 12:0.037288 13:0.033898 14:0.077966 15:0.071186 16:0.040678 17:0.067797 18:0.057627 19:0 20:0.040678 
0.7753253222744114 1:0.059406 2:0.009901 3:0.049505 4:0.044554 5:0.044554 6:0.056931 7:0.066832 8:0.044554 9:0.049505 10:0.108911 11:0.022277 12:0.042079 13:0.079208 14:0.014851 15:0.044554 16:0.066832 17:0.042079 18:0.066832 19:0.037129 20:0.049505 
0.2929155333712831 1:0.065292 2:0 3:0.058419 4:0.079038 5:0.027491 6:0.061856 7:0.013746 8:0.075601 9:0.082474 10:0.123711 11:0.034364 12:0.044674 13:0.030928 14:0.044674 15:0.04811 16:0.054983 17:0.058419 18:0.054983 19:0 20:0.041237 
0.1907193242623251 1:0.086331 2:0.014388 3:0.05036 4:0.079137 5:0.035971 6:0.064748 7:0.014388 8:0.057554 9:0.028777 10:0.079137 11:0.014388 12:0.035971 13:0.057554 14:0.028777 15:0.086331 16:0.079137 17:0.043165 18:0.05036 19:0.028777 20:0.064748 
0.06065396621219304 1:0.091892 2:0.005405 3:0.048649 4:0.043243 5:0.032432 6:0.032432 7:0.010811 8:0.108108 9:0.097297 10:0.124324 11:0.021622 12:0.048649 13:0.016216 14:0.054054 15:0.016216 16:0.102703 17:0.086486 18:0.043243 19:0 20:0.016216 
0.01422926901183096 1:0 2:0.041667 3:0.208333 4:0.083333 5:0.083333 6:0.041667 7:0.041667 8:0.041667 9:0.083333 10:0 11:0.083333 12:0 13:0.083333 14:0 15:0 16:0 17:0.041667 18:0.083333 19:0.083333 20:0 
0.002879197141008931 1:0.092683 2:0.014634 3:0.039024 4:0.068293 5:0.04878 6:0.141463 7:0.009756 8:0.034146 9:0.039024 10:0.102439 11:0.019512 12:0.029268 13:0.068293 14:0.04878 15:0.039024 16:0.04878 17:0.039024 18:0.058537 19:0.02439 20:0.034146 
0.1627766566499984 1:0.120155 2:0.011628 3:0.05814 4:0.050388 5:0.042636 6:0.081395 7:0.011628 8:0.031008 9:0.081395 10:0.077519 11:0.003876 12:0.042636 13:0.042636 14:0.03876 15:0.034884 16:0.093023 17:0.065891 18:0.05814 19:0.007752 20:0.046512 
0.2675730851740343 1:0.074074 2:0.031746 3:0.042328 4:0.047619 5:0.058201 6:0.058201 7:0.005291 8:0.058201 9:0.05291 10:0.074074 11:0.031746 12:0.042328 13:0.058201 14:0.042328 15:0.042328 16:0.111111 17:0.037037 18:0.074074 19:0.021164 20:0.037037 
0.5900852476980756 1:0.056911 2:0.01355 3:0.059621 4:0.084011 5:0.02981 6:0.051491 7:0.0271 8:0.059621 9:0.062331 10:0.078591 11:0.01355 12:0.03794 13:0.03252 14:0.03523 15:0.084011 16:0.075881 17:0.075881 18:0.073171 19:0.02168 20:0.0271 
0.05175423861246793 1:0.043011 2:0.075269 3:0.11828 4:0.075269 5:0.032258 6:0.096774 7:0.010753 8:0.032258 9:0.064516 10:0.086022 11:0 12:0 13:0.043011 14:0.032258 15:0.010753 16:0.107527 17:0.086022 18:0.043011 19:0 20:0.043011 
0.1151689107220322 1:0.082803 2:0 3:0.031847 4:0.095541 5:0.038217 6:0.012739 7:0 8:0.095541 9:0.082803 10:0.127389 11:0.025478 12:0.050955 13:0.006369 14:0.101911 15:0.019108 16:0.089172 17:0.044586 18:0.031847 19:0 20:0.063694 
0.49079932857755 1:0.074324 2:0.054054 3:0.054054 4:0.067568 5:0.047297 6:0.047297 7:0.02027 8:0.033784 9:0.081081 10:0.060811 11:0.033784 12:0.02027 13:0.047297 14:0.040541 15:0.060811 16:0.094595 17:0.060811 18:0.060811 19:0.006757 20:0.033784 
0.1714943686183918 1:0.111748 2:0.011461 3:0.037249 4:0.074499 5:0.022923 6:0.08596 7:0.008596 8:0.051576 9:0.057307 10:0.100287 11:0.011461 12:0.051576 13:0.048711 14:0.040115 15:0.040115 16:0.071633 17:0.048711 18:0.068768 19:0.020057 20:0.037249 
0.09993929275542081 1:0.083721 2:0.013953 3:0.044186 4:0.069767 5:0.018605 6:0.090698 7:0.02093 8:0.07907 9:0.05814 10:0.05814 11:0.018605 12:0.046512 13:0.062791 14:0.030233 15:0.046512 16:0.069767 17:0.062791 18:0.05814 19:0.027907 20:0.039535 
0.40723766547229 1:0.079077 2:0.011532 3:0.080725 4:0.047776 5:0.039539 6:0.060956 7:0.021417 8:0.056013 9:0.07743 10:0.072488 11:0.014827 12:0.044481 13:0.074135 14:0.021417 15:0.042834 16:0.072488 17:0.07084 18:0.059308 19:0.014827 20:0.037891 
0.08506327854041572 1:0.101617 2:0.004619 3:0.062356 4:0.062356 5:0.036952 6:0.094688 7:0.013857 8:0.057737 9:0.092379 10:0.115473 11:0.013857 12:0.025404 13:0.048499 14:0.016166 15:0.020785 16:0.083141 17:0.046189 18:0.08776 19:0.004619 20:0.011547 
1 1:0.062602 2:0.012195 3:0.064228 4:0.079675 5:0.045528 6:0.066667 7:0.030894 8:0.052033 9:0.070732 10:0.080488 11:0.01626 12:0.047967 13:0.043089 14:0.034146 15:0.052033 16:0.074797 17:0.04878 18:0.070732 19:0.019512 20:0.027642 
0.009660567510893473 1:0.138889 2:0 3:0.027778 4:0 5:0.027778 6:0.027778 7:0 8:0.083333 9:0.027778 10:0.138889 11:0.055556 12:0.027778 13:0.027778 14:0.055556 15:0.083333 16:0.083333 17:0.027778 18:0.111111 19:0.027778 20:0.027778 
1 1:0.080235 2:0.015656 3:0.048924 4:0.066536 5:0.039139 6:0.072407 7:0.035225 8:0.041096 9:0.046967 10:0.107632 11:0.031311 12:0.039139 13:0.050881 14:0.041096 15:0.068493 16:0.068493 17:0.054795 18:0.062622 19:0.011742 20:0.017613 
0.2631653006518291 1:0.097222 2:0.048611 3:0.0625 4:0.0625 5:0.055556 6:0.041667 7:0.027778 8:0.027778 9:0.0625 10:0.041667 11:0.034722 12:0.034722 13:0.0625 14:0.034722 15:0.0625 16:0.055556 17:0.076389 18:0.083333 19:0.006944 20:0.020833 
0.006828169706356991 1:0.082353 2:0.023529 3:0.047059 4:0.082353 5:0.035294 6:0.082353 7:0.011765 8:0.070588 9:0.070588 10:0.035294 11:0.035294 12:0.129412 13:0.023529 14:0.035294 15:0.011765 16:0.070588 17:0.058824 18:0.070588 19:0.011765 20:0.011765 
0.0008863465023064728 1:0.060209 2:0.015707 3:0.060209 4:0.057592 5:0.036649 6:0.068063 7:0.02356 8:0.044503 9:0.04712 10:0.099476 11:0.031414 12:0.036649 13:0.039267 14:0.020942 15:0.081152 16:0.08377 17:0.081152 18:0.073298 19:0.02356 20:0.015707 
-0.00940716806854981 1:0.070093 2:0.004673 3:0.03271 4:0.093458 5:0.03271 6:0.042056 7:0.018692 8:0.046729 9:0.065421 10:0.102804 11:0.028037 12:0.051402 13:0.088785 14:0.065421 15:0.03271 16:0.084112 17:0.028037 18:0.051402 19:0.009346 20:0.051402 
-0.0348939521088278 1:0.089286 2:0.071429 3:0.017857 4:0.053571 5:0.026786 6:0.0625 7:0 8:0.107143 9:0.0625 10:0.080357 11:0.017857 12:0.071429 13:0.0625 14:0.053571 15:0 16:0.107143 17:0.035714 18:0.080357 19:0 20:0 
-1 1:0.046632 2:0.024611 3:0.068653 4:0.05829 5:0.050518 6:0.064767 7:0.044041 8:0.051813 9:0.056995 10:0.073834 11:0.023316 12:0.049223 13:0.049223 14:0.03886 15:0.067358 16:0.067358 17:0.055699 18:0.055699 19:0.016839 20:0.036269 
-0.007223684613253168 1:0.027778 2:0 3:0.037037 4:0.111111 5:0.055556 6:0.064815 7:0.009259 8:0.037037 9:0.074074 10:0.083333 11:0.027778 12:0.009259 13:0.018519 14:0.027778 15:0.083333 16:0.25 17:0.037037 18:0.037037 19:0 20:0.009259 
-0.01966749442989566 1:0.142857 2:0.083333 3:0.02381 4:0.083333 5:0.059524 6:0.071429 7:0.02381 8:0.071429 9:0.059524 10:0.083333 11:0.011905 12:0.02381 13:0.011905 14:0.02381 15:0.071429 16:0.02381 17:0.035714 18:0.083333 19:0 20:0.011905 
-0.2284410484402092 1:0.147826 2:0.017391 3:0.052174 4:0.034783 5:0.034783 6:0.108696 7:0.004348 8:0.056522 9:0.030435 10:0.1 11:0.008696 12:0.047826 13:0.047826 14:0.030435 15:0.065217 16:0.065217 17:0.078261 18:0.03913 19:0.004348 20:0.026087 
-0.5104683698479573 1:0.052229 2:0.026752 3:0.054777 4:0.077707 5:0.043312 6:0.058599 7:0.035669 8:0.054777 9:0.059873 10:0.089172 11:0.02293 12:0.033121 13:0.047134 14:0.040764 15:0.070064 16:0.052229 17:0.054777 18:0.06242 19:0.012739 20:0.050955 
-0.000195569207038075 1:0.039088 2:0.061889 3:0.009772 4:0.009772 5:0 6:0.029316 7:0 8:0.013029 9:0.117264 10:0.042345 11:0.003257 12:0.016287 13:0.14658 14:0.042345 15:0.016287 16:0.016287 17:0.423453 18:0.009772 19:0.003257 20:0 
-0.6598583217163912 1:0.059633 2:0.009174 3:0.057339 4:0.059633 5:0.059633 6:0.073394 7:0.022936 8:0.066514 9:0.059633 10:0.100917 11:0.018349 12:0.038991 13:0.050459 14:0.052752 15:0.034404 16:0.087156 17:0.050459 18:0.043578 19:0.018349 20:0.036697 
-0.2650053704762658 1:0.092279 2:0.007533 3:0.048964 4:0.026365 5:0.033898 6:0.077213 7:0.041431 8:0.05838 9:0.026365 10:0.082863 11:0.013183 12:0.062147 13:0.084746 14:0.026365 15:0.054614 16:0.065913 17:0.073446 18:0.080979 19:0.013183 20:0.030132 
-0.5587721924970275 1:0.074419 2:0.004651 3:0.051163 4:0.051163 5:0.053488 6:0.060465 7:0.027907 8:0.048837 9:0.046512 10:0.12093 11:0.034884 12:0.039535 13:0.039535 14:0.032558 15:0.04186 16:0.086047 17:0.076744 18:0.062791 19:0.018605 20:0.027907 
-0.2053673753599851 1:0.106667 2:0.033333 3:0.013333 4:0.02 5:0.04 6:0.06 7:0.04 8:0.033333 9:0.073333 10:0.113333 11:0.02 12:0.06 13:0.046667 14:0.033333 15:0.06 16:0.106667 17:0.02 18:0.066667 19:0.026667 20:0.026667 
-0.06435767794312144 1:0.048077 2:0.057692 3:0.038462 4:0.038462 5:0.019231 6:0.019231 7:0.019231 8:0.096154 9:0.096154 10:0.105769 11:0.009615 12:0.028846 13:0.057692 14:0.038462 15:0.048077 16:0.086538 17:0.086538 18:0.076923 19:0.009615 20:0.019231 
-0.0571590836902699 1:0.07907 2:0.018605 3:0.023256 4:0.065116 5:0.046512 6:0.134884 7:0.032558 8:0.032558 9:0.032558 10:0.069767 11:0.037209 12:0.037209 13:0.106977 14:0.051163 15:0.032558 16:0.051163 17:0.046512 18:0.074419 19:0.013953 20:0.013953 
-0.02922029945695694 1:0.058696 2:0.034783 3:0.054348 4:0.023913 5:0.028261 6:0.082609 7:0.017391 8:0.076087 9:0.052174 10:0.054348 11:0.008696 12:0.073913 13:0.03913 14:0.065217 15:0.026087 16:0.102174 17:0.071739 18:0.093478 19:0.013043 20:0.023913 
-0.208997430868377 1:0.089514 2:0.01023 3:0.079284 4:0.015345 5:0.040921 6:0.086957 7:0.005115 8:0.076726 9:0.066496 10:0.079284 11:0.002558 12:0.061381 13:0.043478 14:0.048593 15:0.015345 16:0.084399 17:0.079284 18:0.069054 19:0.002558 20:0.043478 
-0.05450841350966512 1:0.087912 2:0.076923 3:0.032967 4:0.076923 5:0.010989 6:0.087912 7:0 8:0.010989 9:0.032967 10:0.087912 11:0.054945 12:0.010989 13:0.021978 14:0.021978 15:0.098901 16:0.076923 17:0.021978 18:0.10989 19:0.010989 20:0.065934 
-0.7276134675574168 1:0.082873 2:0.027624 3:0.066298 4:0.022099 5:0.044199 6:0.082873 7:0.022099 8:0.049724 9:0.055249 10:0.082873 11:0.022099 12:0.066298 13:0.038674 14:0.01105 15:0.049724 16:0.071823 17:0.077348 18:0.071823 19:0.016575 20:0.038674 
-0.5646554350402416 1:0.063177 2:0.023466 3:0.064982 4:0.068592 5:0.036101 6:0.074007 7:0.023466 8:0.043321 9:0.061372 10:0.055957 11:0.019856 12:0.045126 13:0.074007 14:0.028881 15:0.041516 16:0.064982 17:0.070397 18:0.068592 19:0.028881 20:0.043321 
-0.1536292186430434 1:0.085874 2:0.061605 3:0.065961 4:0.083385 5:0.029247 6:0.072806 7:0.018046 8:0.030492 9:0.04916 10:0.075918 11:0.011201 12:0.058494 13:0.044182 14:0.045426 15:0.06285 16:0.062228 17:0.060361 18:0.047293 19:0.006845 20:0.028625 
-0.1742483847872366 1:0.076253 2:0.030501 3:0.067538 4:0.045752 5:0.037037 6:0.089325 7:0.045752 8:0.019608 9:0.043573 10:0.091503 11:0.010893 12:0.023965 13:0.067538 14:0.028322 15:0.061002 16:0.078431 17:0.052288 18:0.058824 19:0.041394 20:0.030501 
-0.632281349710243 1:0.070313 2:0.007813 3:0.070313 4:0.074219 5:0.050781 6:0.039063 7:0.023438 8:0.054688 9:0.09375 10:0.078125 11:0.03125 12:0.046875 13:0.023438 14:0.03125 15:0.039063 16:0.0625 17:0.058594 18:0.070313 19:0.015625 20:0.058594 
-0.70967427032491 1:0.08 2:0.0075 3:0.06 4:0.0825 5:0.06 6:0.0575 7:0.025 8:0.07 9:0.0725 10:0.11 11:0.0175 12:0.0375 13:0.0525 14:0.03 15:0.0325 16:0.06 17:0.05 18:0.0675 19:0.005 20:0.0225 
-0.1755724923242966 1:0.079848 2:0.038023 3:0.038023 4:0.038023 5:0.026616 6:0.106464 7:0.026616 8:0.038023 9:0.030418 10:0.076046 11:0.026616 12:0.053232 13:0.045627 14:0.038023 15:0.041825 16:0.072243 17:0.072243 18:0.098859 19:0.030418 20:0.022814 
-0.02445653330905151 1:0.037313 2:0.029851 3:0.037313 4:0.067164 5:0.014925 6:0.067164 7:0.014925 8:0.074627 9:0.044776 10:0.097015 11:0.037313 12:0.037313 13:0.074627 14:0.037313 15:0.029851 16:0.097015 17:0.052239 18:0.067164 19:0.022388 20:0.059701 
-0.09912876688926082 1:0.098361 2:0.008197 3:0.040984 4:0.114754 5:0.057377 6:0.081967 7:0.016393 8:0.008197 9:0.065574 10:0.07377 11:0.04918 12:0.02459 13:0.040984 14:0.008197 15:0.016393 16:0.081967 17:0.065574 18:0.098361 19:0.02459 20:0.02459 
-0.06598383232156919 1:0.067039 2:0.011173 3:0.03352 4:0.072626 5:0.055866 6:0.011173 7:0.01676 8:0.055866 9:0.083799 10:0.03352 11:0.011173 12:0.03352 13:0.067039 14:0.117318 15:0.01676 16:0.156425 17:0.044693 18:0.061453 19:0.005587 20:0.044693 
-0.02479675813620794 1:0.0625 2:0.04375 3:0.075 4:0.075 5:0.0875 6:0.0625 7:0.00625 8:0.0625 9:0.08125 10:0.03125 11:0.0125 12:0.05 13:0.03125 14:0.0375 15:0.0125 16:0.08125 17:0.0875 18:0.05625 19:0.00625 20:0.0375 
-0.2202724578720886 1:0.068441 2:0.026616 3:0.064639 4:0.068441 5:0.038023 6:0.117871 7:0.015209 8:0.041825 9:0.102662 10:0.053232 11:0.011407 12:0.026616 13:0.068441 14:0.007605 15:0.022814 16:0.060837 17:0.068441 18:0.076046 19:0.022814 20:0.038023 
-0.0001266247027473145 1:0.067909 2:0.003995 3:0.001332 4:0.001332 5:0.002663 6:0.011984 7:0.003995 8:0.014647 9:0.191744 10:0.01731 11:0.002663 12:0.011984 13:0.241012 14:0.002663 15:0.005326 16:0.11984 17:0.103862 18:0.005326 19:0 20:0.190413 
-0.1920707390818563 1:0.04698 2:0.040268 3:0.033557 4:0.060403 5:0.053691 6:0.04698 7:0.013423 8:0.060403 9:0.080537 10:0.053691 11:0.013423 12:0.04698 13:0.080537 14:0.040268 15:0.026846 16:0.087248 17:0.04698 18:0.120805 19:0.020134 20:0.026846 
-0.6609366893998059 1:0.050584 2:0.023346 3:0.050584 4:0.066148 5:0.015564 6:0.046693 7:0.015564 8:0.054475 9:0.070039 10:0.093385 11:0.019455 12:0.042802 13:0.054475 14:0.050584 15:0.081712 16:0.101167 17:0.050584 18:0.054475 19:0.015564 20:0.042802 
-0.003489811434815783 1:0.058201 2:0.058201 3:0.031746 4:0.026455 5:0.026455 6:0.031746 7:0.015873 8:0.031746 9:0.037037 10:0.063492 11:0.005291 12:0.063492 13:0.074074 14:0.021164 15:0.031746 16:0.126984 17:0.169312 18:0.10582 19:0.010582 20:0.010582 
-0.1057025766793934 1:0.066225 2:0.039735 3:0.039735 4:0.02649 5:0.019868 6:0.092715 7:0.02649 8:0.092715 9:0.07947 10:0.072848 11:0.006623 12:0.039735 13:0.059603 14:0.039735 15:0.039735 16:0.099338 17:0.046358 18:0.05298 19:0.006623 20:0.05298 
-0.01664684895361225 1:0.05102 2:0.061224 3:0 4:0.061224 5:0.020408 6:0.030612 7:0 8:0.112245 9:0.102041 10:0.102041 11:0.030612 12:0.05102 13:0.071429 14:0.040816 15:0.061224 16:0.102041 17:0.05102 18:0.05102 19:0 20:0 
-0.02188700873764451 1:0.12 2:0.08 3:0.026667 4:0.053333 5:0.026667 6:0.053333 7:0.013333 8:0.066667 9:0.013333 10:0.093333 11:0.093333 12:0.04 13:0.053333 14:0.04 15:0.053333 16:0.066667 17:0.066667 18:0.013333 19:0 20:0.026667 
-1 1:0.090452 2:0.002513 3:0.047739 4:0.082915 5:0.027638 6:0.070352 7:0.015075 8:0.050251 9:0.067839 10:0.125628 11:0.020101 12:0.047739 13:0.032663 14:0.040201 15:0.052764 16:0.072864 17:0.047739 18:0.070352 19:0.017588 20:0.017588 
-0.02466547943208473 1:0.046154 2:0.082051 3:0.030769 4:0.076923 5:0.066667 6:0.071795 7:0.020513 8:0.046154 9:0.05641 10:0.051282 11:0.005128 12:0.025641 13:0.051282 14:0.041026 15:0.066667 16:0.066667 17:0.071795 18:0.092308 19:0.005128 20:0.025641 
-1 1:0.09607 2:0.048035 3:0.061135 4:0.056769 5:0.045124 6:0.084425 7:0.021834 8:0.042213 9:0.066958 10:0.07278 11:0.02329 12:0.030568 13:0.034934 14:0.030568 15:0.040757 16:0.081514 17:0.058224 18:0.061135 19:0.011645 20:0.032023 
-0.0377184594570146 1:0.070796 2:0.061947 3:0.026549 4:0.044248 5:0.044248 6:0.044248 7:0.00885 8:0.044248 9:0.088496 10:0.097345 11:0.053097 12:0.026549 13:0.061947 14:0.044248 15:0.00885 16:0.132743 17:0.035398 18:0.079646 19:0 20:0.026549 
-0.1899310636813608 1:0.108696 2:0.054348 3:0.032609 4:0.065217 5:0.054348 6:0.032609 7:0 8:0.054348 9:0.043478 10:0.086957 11:0.021739 12:0.032609 13:0.054348 14:0.043478 15:0.043478 16:0.065217 17:0.086957 18:0.054348 19:0.021739 20:0.043478 
-0.8781982348973186 1:0.076046 2:0.019011 3:0.064639 4:0.076046 5:0.015209 6:0.04943 7:0.034221 8:0.060837 9:0.045627 10:0.079848 11:0.019011 12:0.04943 13:0.053232 14:0.030418 15:0.068441 16:0.064639 17:0.064639 18:0.091255 19:0.015209 20:0.022814 
-5.634627930946877e-05 1:0.106109 2:0.057878 3:0.048232 4:0.073955 5:0.006431 6:0.096463 7:0.03537 8:0.019293 9:0.038585 10:0.086817 11:0.032154 12:0.022508 13:0.099678 14:0.045016 15:0.07717 16:0.045016 17:0.038585 18:0.045016 19:0.006431 20:0.019293 
-0.1556779213868503 1:0.064748 2:0.002398 3:0.05036 4:0.059952 5:0.045564 6:0.052758 7:0.019185 8:0.045564 9:0.055156 10:0.136691 11:0.019185 12:0.031175 13:0.064748 14:0.035971 15:0.05036 16:0.103118 17:0.067146 18:0.064748 19:0.009592 20:0.021583 
-0.00706202634218881 1:0.098667 2:0.016 3:0.034667 4:0.066667 5:0.026667 6:0.194667 7:0.005333 8:0.010667 9:0.061333 10:0.074667 11:0.021333 12:0.026667 13:0.101333 14:0.053333 15:0.037333 16:0.058667 17:0.037333 18:0.056 19:0.005333 20:0.013333 
-0.06670646723775674 1:0.085227 2:0.053977 3:0.066761 4:0.0625 5:0.041193 6:0.069602 7:0.022727 8:0.028409 9:0.090909 10:0.079545 11:0.015625 12:0.06108 13:0.041193 14:0.024148 15:0.035511 16:0.065341 17:0.051136 18:0.06108 19:0.011364 20:0.03267 
-0.1938554278368176 1:0.126289 2:0.012887 3:0.051546 4:0.033505 5:0.030928 6:0.110825 7:0.025773 8:0.059278 9:0.048969 10:0.064433 11:0.015464 12:0.03866 13:0.03866 14:0.025773 15:0.036082 16:0.103093 17:0.07732 18:0.059278 19:0.005155 20:0.036082 
-0.2020083794769235 1:0.069231 2:0.030769 3:0.076923 4:0.023077 5:0.046154 6:0.092308 7:0.007692 8:0.038462 9:0.053846 10:0.1 11:0.030769 12:0 13:0.053846 14:0.038462 15:0.061538 16:0.076923 17:0.023077 18:0.092308 19:0.030769 20:0.053846 
-0.03709083099411239 1:0.04878 2:0.033537 3:0.060976 4:0.07622 5:0.033537 6:0.04878 7:0.018293 8:0.054878 9:0.073171 10:0.07622 11:0.012195 12:0.027439 13:0.04878 14:0.042683 15:0.036585 16:0.106707 17:0.070122 18:0.060976 19:0.033537 20:0.036585 
-0.3092051986779941 1:0.063915 2:0.009321 3:0.04261 4:0.057257 5:0.055925 6:0.073236 7:0.047936 8:0.029294 9:0.031957 10:0.091877 11:0.01731 12:0.037284 13:0.082557 14:0.039947 15:0.058589 16:0.061252 17:0.05992 18:0.070573 19:0.023968 20:0.045273 
-0.04233016961698217 1:0.099744 2:0.066496 3:0.063939 4:0.033248 5:0.028133 6:0.079284 7:0.030691 8:0.023018 9:0.035806 10:0.079284 11:0.015345 12:0.023018 13:0.033248 14:0.033248 15:0.120205 16:0.056266 17:0.063939 18:0.066496 19:0.02046 20:0.028133 
