svm_type c_svc
kernel_type polynomial
degree 10
gamma 10
coef0 1
nr_class 2
total_sv 57
rho 0.431332
label 1 -1
nr_sv 38 19
SV
0.1075490818674713 1:0.134783 2:0 3:0.078261 4:0.086957 5:0.03913 6:0.056522 7:0.013043 8:0.069565 9:0.082609 10:0.078261 11:0.026087 12:0.030435 13:0.021739 14:0.065217 15:0.065217 16:0.043478 17:0.043478 18:0.03913 19:0.004348 20:0.021739 
0.553855742456046 1:0.059347 2:0.011869 3:0.047478 4:0.050445 5:0.050445 6:0.074184 7:0.023739 8:0.05638 9:0.089021 10:0.097923 11:0.038576 12:0.041543 13:0.029674 14:0.05638 15:0.062315 16:0.065282 17:0.047478 18:0.032641 19:0.008902 20:0.05638 
0.08360207557579254 1:0.08209 2:0.029851 3:0.059701 4:0.074627 5:0.033582 6:0.085821 7:0.022388 8:0.063433 9:0.037313 10:0.074627 11:0.026119 12:0.044776 13:0.074627 14:0.048507 15:0.059701 16:0.041045 17:0.033582 18:0.05597 19:0.033582 20:0.018657 
0.9700837863966019 1:0.078265 2:0.023256 3:0.045617 4:0.058587 5:0.033989 6:0.070215 7:0.031306 8:0.042039 9:0.042487 10:0.096154 11:0.026386 12:0.038909 13:0.060376 14:0.037567 15:0.071556 16:0.072451 17:0.055903 18:0.071109 19:0.016547 20:0.027281 
0.001510007240319465 1:0.08 2:0 3:0 4:0 5:0.08 6:0.2 7:0 8:0.04 9:0.08 10:0.04 11:0 12:0.08 13:0 14:0 15:0.12 16:0.04 17:0.04 18:0.2 19:0 20:0 
0.2272435480800223 1:0.045752 2:0.035948 3:0.078431 4:0.058824 5:0.042484 6:0.075163 7:0.019608 8:0.052288 9:0.03268 10:0.104575 11:0.022876 12:0.052288 13:0.052288 14:0.052288 15:0.055556 16:0.039216 17:0.045752 18:0.065359 19:0.013072 20:0.055556 
0.4176379117611579 1:0.108939 2:0.013966 3:0.036313 4:0.069832 5:0.039106 6:0.086592 7:0.00838 8:0.055866 9:0.067039 10:0.097765 11:0.011173 12:0.039106 13:0.047486 14:0.03352 15:0.039106 16:0.053073 17:0.075419 18:0.069832 19:0.011173 20:0.036313 
0.9549160904305 1:0.075658 2:0.003289 3:0.046053 4:0.059211 5:0.0625 6:0.078947 7:0.046053 8:0.065789 9:0.059211 10:0.065789 11:0.029605 12:0.0625 13:0.036184 14:0.046053 15:0.023026 16:0.059211 17:0.0625 18:0.052632 19:0.029605 20:0.036184 
0.1234475960588546 1:0.100897 2:0.013453 3:0.056054 4:0.067265 5:0.024664 6:0.073991 7:0.008969 8:0.071749 9:0.085202 10:0.098655 11:0.017937 12:0.076233 13:0.03139 14:0.029148 15:0.033632 16:0.056054 17:0.042601 18:0.071749 19:0.008969 20:0.03139 
0.3012395511660847 1:0.079268 2:0.006098 3:0.054878 4:0.060976 5:0.030488 6:0.097561 7:0.042683 8:0.060976 9:0.042683 10:0.060976 11:0.042683 12:0.036585 13:0.067073 14:0.030488 15:0.042683 16:0.054878 17:0.054878 18:0.079268 19:0.012195 20:0.042683 
1 1:0.08554 2:0.008147 3:0.06721 4:0.052953 5:0.04277 6:0.069246 7:0.022403 8:0.057026 9:0.071283 10:0.087576 11:0.020367 12:0.04277 13:0.0611 14:0.034623 15:0.04888 16:0.050916 17:0.05499 18:0.071283 19:0.016293 20:0.034623 
0.05247967764941763 1:0.120805 2:0.020134 3:0.040268 4:0.040268 5:0.040268 6:0.073826 7:0 8:0.067114 9:0.100671 10:0.067114 11:0.020134 12:0.006711 13:0.060403 14:0.033557 15:0.134228 16:0.033557 17:0.026846 18:0.067114 19:0 20:0.04698 
0.368656812279424 1:0.085455 2:0.014545 3:0.053636 4:0.057273 5:0.040909 6:0.091818 7:0.023636 8:0.068182 9:0.067273 10:0.08 11:0.030909 12:0.03 13:0.050909 14:0.029091 15:0.041818 16:0.058182 17:0.055455 18:0.073636 19:0.010909 20:0.036364 
0.2481037613222266 1:0.088235 2:0.008824 3:0.061765 4:0.058824 5:0.017647 6:0.044118 7:0.017647 8:0.102941 9:0.079412 10:0.064706 11:0.032353 12:0.05 13:0.041176 14:0.026471 15:0.05 16:0.061765 17:0.055882 18:0.105882 19:0 20:0.032353 
0.637389491203412 1:0.067476 2:0.002699 3:0.059379 4:0.071525 5:0.041835 6:0.060729 7:0.02834 8:0.053981 9:0.074224 10:0.103914 11:0.009447 12:0.043185 13:0.062078 14:0.024291 15:0.043185 16:0.064777 17:0.049933 18:0.067476 19:0.020243 20:0.051282 
0.04431641622549282 1:0.04329 2:0.030303 3:0.073593 4:0.056277 5:0.064935 6:0.060606 7:0.034632 8:0.069264 9:0.108225 10:0.099567 11:0.012987 12:0.051948 13:0.038961 14:0.004329 15:0.025974 16:0.051948 17:0.038961 18:0.077922 19:0.004329 20:0.051948 
0.1418635715866006 1:0.066116 2:0.024793 3:0.057851 4:0.033058 5:0.049587 6:0.057851 7:0.008264 8:0.082645 9:0.057851 10:0.066116 11:0.049587 12:0.033058 13:0.049587 14:0.049587 15:0.057851 16:0.066116 17:0.07438 18:0.082645 19:0 20:0.033058 
0.386746591873745 1:0.064114 2:0.012048 3:0.055508 4:0.068847 5:0.039587 6:0.062823 7:0.026678 8:0.062392 9:0.047332 10:0.091652 11:0.032272 12:0.04389 13:0.048193 14:0.04389 15:0.061962 16:0.067126 17:0.045181 18:0.080465 19:0.011618 20:0.034423 
0.03202473105344197 1:0.033841 2:0.00846 3:0.054146 4:0.071066 5:0.060914 6:0.042301 7:0.027073 8:0.062606 9:0.103215 10:0.099831 11:0.023689 12:0.104907 13:0.018613 14:0.032149 15:0.028765 16:0.059222 17:0.052453 18:0.06599 19:0.006768 20:0.043993 
0.1286082691097552 1:0.055901 2:0.02795 3:0.07764 4:0.062112 5:0.052795 6:0.043478 7:0.021739 8:0.059006 9:0.086957 10:0.102484 11:0.015528 12:0.043478 13:0.043478 14:0.037267 15:0.049689 16:0.052795 17:0.049689 18:0.068323 19:0.009317 20:0.040373 
0.9957552693183871 1:0.092965 2:0.030151 3:0.047739 4:0.050251 5:0.045226 6:0.065327 7:0.032663 8:0.047739 9:0.060302 10:0.110553 11:0.025126 12:0.027638 13:0.050251 14:0.040201 15:0.045226 16:0.075377 17:0.062814 18:0.062814 19:0.005025 20:0.022613 
0.4481966649295889 1:0.118421 2:0.009868 3:0.0625 4:0.039474 5:0.042763 6:0.088816 7:0.013158 8:0.052632 9:0.075658 10:0.0625 11:0.016447 12:0.052632 13:0.039474 14:0.013158 15:0.029605 16:0.0625 17:0.072368 18:0.115132 19:0.009868 20:0.023026 
0.2022913061315965 1:0.071429 2:0.020408 3:0.05102 4:0.102041 5:0.071429 6:0.030612 7:0.030612 8:0.030612 9:0.102041 10:0.061224 11:0.030612 12:0.030612 13:0.05102 14:0.05102 15:0.030612 16:0.05102 17:0.081633 18:0.081633 19:0 20:0.020408 
0.2528543190806159 1:0.121951 2:0.021341 3:0.027439 4:0.060976 5:0.030488 6:0.097561 7:0.02439 8:0.054878 9:0.070122 10:0.103659 11:0.02439 12:0.021341 13:0.054878 14:0.036585 15:0.02439 16:0.064024 17:0.045732 18:0.085366 19:0.018293 20:0.012195 
0.00171112347460887 1:0.142857 2:0 3:0.047619 4:0 5:0.047619 6:0.095238 7:0 8:0 9:0.095238 10:0.095238 11:0 12:0 13:0.047619 14:0.047619 15:0 16:0.047619 17:0.095238 18:0.238095 19:0 20:0 
0.9373911963414846 1:0.05787 2:0.006944 3:0.059028 4:0.060185 5:0.043981 6:0.065972 7:0.030093 8:0.061343 9:0.059028 10:0.104167 11:0.015046 12:0.052083 13:0.059028 14:0.023148 15:0.045139 16:0.075231 17:0.05787 18:0.06713 19:0.016204 20:0.040509 
0.03975530865442491 1:0.074783 2:0.015652 3:0.048696 4:0.097391 5:0.057391 6:0.05913 7:0.034783 8:0.066087 9:0.078261 10:0.088696 11:0.017391 12:0.026087 13:0.045217 14:0.013913 15:0.06087 16:0.04 17:0.041739 18:0.071304 19:0.01913 20:0.043478 
0.3173196778842076 1:0.101695 2:0.016949 3:0.052731 4:0.07533 5:0.020716 6:0.067797 7:0.028249 8:0.077213 9:0.077213 10:0.116761 11:0.020716 12:0.033898 13:0.026365 14:0.035782 15:0.052731 16:0.039548 17:0.048964 18:0.090395 19:0.001883 20:0.015066 
0.1538269585475788 1:0.043812 2:0.021906 3:0.059146 4:0.060241 5:0.038335 6:0.052574 7:0.03724 8:0.049288 9:0.054765 10:0.089814 11:0.025192 12:0.047097 13:0.051479 14:0.054765 15:0.056955 16:0.085433 17:0.05586 18:0.069003 19:0.010953 20:0.036145 
1 1:0.090024 2:0.009732 3:0.058394 4:0.051095 5:0.051095 6:0.077859 7:0.017032 8:0.046229 9:0.051095 10:0.082725 11:0.024331 12:0.048662 13:0.048662 14:0.036496 15:0.06326 16:0.065693 17:0.055961 18:0.07056 19:0.021898 20:0.029197 
0.09385362519804592 1:0.060302 2:0.020101 3:0.080402 4:0.035176 5:0.075377 6:0.080402 7:0.015075 8:0.090452 9:0.095477 10:0.055276 11:0.015075 12:0.035176 13:0.065327 14:0.040201 15:0.030151 16:0.065327 17:0.040201 18:0.060302 19:0.01005 20:0.030151 
0.05399859622402609 1:0.088435 2:0.010204 3:0.068027 4:0.064626 5:0.057823 6:0.081633 7:0.02381 8:0.037415 9:0.112245 10:0.047619 11:0.017007 12:0.027211 13:0.02381 14:0.037415 15:0.081633 16:0.030612 17:0.057823 18:0.071429 19:0.003401 20:0.057823 
0.01251354876245027 1:0.082192 2:0.013699 3:0.061644 4:0.089041 5:0.027397 6:0.075342 7:0.013699 8:0.034247 9:0.09589 10:0.068493 11:0.013699 12:0.061644 13:0.013699 14:0.020548 15:0.027397 16:0.109589 17:0.034247 18:0.10274 19:0.013699 20:0.041096 
0.506612707904174 1:0.060367 2:0.026247 3:0.060367 4:0.049869 5:0.028871 6:0.076115 7:0.018373 8:0.089239 9:0.060367 10:0.07874 11:0.018373 12:0.052493 13:0.052493 14:0.03937 15:0.023622 16:0.091864 17:0.049869 18:0.07874 19:0 20:0.044619 
0.1450129211035056 1:0.046205 2:0.039604 3:0.062706 4:0.066007 5:0.052805 6:0.072607 7:0.019802 8:0.069307 9:0.059406 10:0.092409 11:0.019802 12:0.049505 13:0.042904 14:0.029703 15:0.046205 16:0.029703 17:0.066007 18:0.066007 19:0.019802 20:0.049505 
0.08263400528997555 1:0.087805 2:0.034146 3:0.047805 4:0.061463 5:0.040976 6:0.08 7:0.012683 8:0.067317 9:0.066341 10:0.083902 11:0.022439 12:0.036098 13:0.061463 14:0.036098 15:0.039024 16:0.067317 17:0.057561 18:0.063415 19:0.010732 20:0.023415 
0.06238783762375453 1:0.181818 2:0.007576 3:0.07197 4:0.05303 5:0.022727 6:0.056818 7:0.015152 8:0.041667 9:0.022727 10:0.034091 11:0.011364 12:0.030303 13:0.102273 14:0.045455 15:0.05303 16:0.068182 17:0.041667 18:0.083333 19:0.037879 20:0.018939 
0.0006323569903995278 1:0.019737 2:0.105263 3:0 4:0.098684 5:0 6:0 7:0.032895 8:0.006579 9:0.098684 10:0.006579 11:0.006579 12:0.006579 13:0.328947 14:0.131579 15:0 16:0.019737 17:0.032895 18:0.098684 19:0 20:0.006579 
-1 1:0.060694 2:0.017341 3:0.034682 4:0.060694 5:0.037572 6:0.092486 7:0.034682 8:0.060694 9:0.040462 10:0.115607 11:0.014451 12:0.040462 13:0.063584 14:0.031792 15:0.052023 16:0.069364 17:0.052023 18:0.054913 19:0.031792 20:0.034682 
-0.1454476564507808 1:0.067194 2:0.017787 3:0.073123 4:0.037549 5:0.065217 6:0.067194 7:0.031621 8:0.045455 9:0.067194 10:0.059289 11:0.019763 12:0.05336 13:0.065217 14:0.045455 15:0.051383 16:0.057312 17:0.059289 18:0.067194 19:0.009881 20:0.039526 
-0.2076507809628804 1:0.122642 2:0.023585 3:0.044811 4:0.04717 5:0.021226 6:0.108491 7:0.009434 8:0.056604 9:0.044811 10:0.082547 11:0.028302 12:0.028302 13:0.056604 14:0.044811 15:0.061321 16:0.066038 17:0.054245 18:0.082547 19:0.002358 20:0.014151 
-0.6650656932535743 1:0.051282 2:0.011834 3:0.067061 4:0.053254 5:0.057199 6:0.065089 7:0.035503 8:0.043393 9:0.063116 10:0.061144 11:0.015779 12:0.055227 13:0.080868 14:0.033531 15:0.047337 16:0.063116 17:0.067061 18:0.059172 19:0.015779 20:0.053254 
-0.3168094213315593 1:0.057279 2:0.031026 3:0.0358 4:0.073986 5:0.069212 6:0.059666 7:0.019093 8:0.069212 9:0.066826 10:0.105012 11:0.019093 12:0.050119 13:0.050119 14:0.02864 15:0.052506 16:0.069212 17:0.047733 18:0.040573 19:0.00716 20:0.047733 
-1 1:0.093625 2:0.00996 3:0.071713 4:0.053785 5:0.037849 6:0.063745 7:0.013944 8:0.061753 9:0.063745 10:0.095618 11:0.021912 12:0.039841 13:0.033865 14:0.035857 15:0.045817 16:0.067729 17:0.055777 18:0.083665 19:0.007968 20:0.041833 
-0.0481937641868258 1:0.092025 2:0.030675 3:0.021472 4:0.058282 5:0.021472 6:0.076687 7:0.042945 8:0.027607 9:0.027607 10:0.156442 11:0.009202 12:0.003067 13:0.052147 14:0.042945 15:0.119632 16:0.06135 17:0.039877 18:0.055215 19:0.021472 20:0.039877 
-1 1:0.062834 2:0.010695 3:0.073529 4:0.03877 5:0.045455 6:0.066845 7:0.020053 8:0.064171 9:0.074866 10:0.100267 11:0.020053 12:0.041444 13:0.034759 14:0.041444 15:0.046791 16:0.076203 17:0.061497 18:0.066845 19:0.012032 20:0.041444 
-0.02600646209246616 1:0.144578 2:0.012048 3:0.078313 4:0.042169 5:0.078313 6:0.072289 7:0.006024 8:0.066265 9:0.066265 10:0.060241 11:0 12:0.018072 13:0.072289 14:0.006024 15:0.018072 16:0.060241 17:0.066265 18:0.108434 19:0 20:0.024096 
-0.8239946049996415 1:0.090361 2:0.018072 3:0.048193 4:0.072289 5:0.048193 6:0.060241 7:0.03012 8:0.048193 9:0.078313 10:0.066265 11:0.012048 12:0.042169 13:0.060241 14:0.024096 15:0.018072 16:0.078313 17:0.066265 18:0.096386 19:0.012048 20:0.03012 
-1 1:0.056213 2:0.02071 3:0.044379 4:0.068047 5:0.056213 6:0.065089 7:0.050296 8:0.056213 9:0.076923 10:0.079882 11:0.029586 12:0.047337 13:0.050296 14:0.04142 15:0.050296 16:0.053254 17:0.050296 18:0.068047 19:0.008876 20:0.026627 
-0.8094098672644979 1:0.107649 2:0.022663 3:0.053824 4:0.053824 5:0.028329 6:0.096317 7:0.014164 8:0.070822 9:0.056657 10:0.093484 11:0.025496 12:0.031161 13:0.05949 14:0.022663 15:0.053824 16:0.053824 17:0.03966 18:0.09915 19:0 20:0.016997 
-1 1:0.087778 2:0.006667 3:0.043333 4:0.056667 5:0.05 6:0.08 7:0.02 8:0.062222 9:0.085556 10:0.085556 11:0.013333 12:0.054444 13:0.043333 14:0.031111 15:0.031111 16:0.064444 17:0.062222 18:0.078889 19:0.011111 20:0.032222 
-1 1:0.090909 2:0.007576 3:0.068182 4:0.054924 5:0.041667 6:0.07197 7:0.028409 8:0.056818 9:0.0625 10:0.089015 11:0.028409 12:0.047348 13:0.047348 14:0.032197 15:0.068182 16:0.043561 17:0.054924 18:0.058712 19:0.017045 20:0.030303 
-0.736456467937016 1:0.088012 2:0.013657 3:0.060698 4:0.062215 5:0.033384 6:0.059181 7:0.037936 8:0.051593 9:0.051593 10:0.091047 11:0.042489 12:0.039454 13:0.028832 14:0.042489 15:0.059181 16:0.053111 17:0.068285 18:0.062215 19:0.010622 20:0.044006 
-0.3705859995454453 1:0.058824 2:0.009804 3:0.073529 4:0.073529 5:0.029412 6:0.034314 7:0.009804 8:0.078431 9:0.058824 10:0.107843 11:0.019608 12:0.058824 13:0.063725 14:0.053922 15:0.04902 16:0.068627 17:0.053922 18:0.029412 19:0.019608 20:0.04902 
-0.1465741453125043 1:0.078987 2:0.013413 3:0.04769 4:0.04769 5:0.040238 6:0.041729 7:0.022355 8:0.078987 9:0.0462 10:0.120715 11:0.023845 12:0.04918 13:0.059613 14:0.0462 15:0.043219 16:0.055142 17:0.058122 18:0.076006 19:0.017884 20:0.032787 
-1 1:0.076866 2:0.028086 3:0.046563 4:0.06578 5:0.04952 6:0.076127 7:0.02439 8:0.069475 9:0.05765 10:0.076866 11:0.031781 12:0.042868 13:0.051737 14:0.036955 15:0.044346 16:0.061345 17:0.051737 18:0.06578 19:0.006652 20:0.035477 
-0.7918272734579992 1:0.117318 2:0.005587 3:0.046555 4:0.055866 5:0.029795 6:0.067039 7:0.026071 8:0.039106 9:0.05959 10:0.080074 11:0.024209 12:0.039106 13:0.046555 14:0.055866 15:0.046555 16:0.070764 17:0.055866 18:0.074488 19:0.026071 20:0.03352 
