svm_type c_svc
kernel_type polynomial
degree 10
gamma 10
coef0 1
nr_class 2
total_sv 29
rho 1.58672
label 1 -1
nr_sv 21 8
SV
0.244164781432359 1:0.045752 2:0.035948 3:0.078431 4:0.058824 5:0.042484 6:0.075163 7:0.019608 8:0.052288 9:0.03268 10:0.104575 11:0.022876 12:0.052288 13:0.052288 14:0.052288 15:0.055556 16:0.039216 17:0.045752 18:0.065359 19:0.013072 20:0.055556 
0.2067936181776628 1:0.079268 2:0.006098 3:0.054878 4:0.060976 5:0.030488 6:0.097561 7:0.042683 8:0.060976 9:0.042683 10:0.060976 11:0.042683 12:0.036585 13:0.067073 14:0.030488 15:0.042683 16:0.054878 17:0.054878 18:0.079268 19:0.012195 20:0.042683 
0.0531067736838132 1:0.065693 2:0.024331 3:0.041363 4:0.087591 5:0.041363 6:0.07056 7:0.019465 8:0.048662 9:0.06326 10:0.107056 11:0.029197 12:0.03163 13:0.048662 14:0.024331 15:0.043796 16:0.085158 17:0.058394 18:0.055961 19:0.021898 20:0.03163 
7.164530408494594e-05 1:0.08 2:0 3:0 4:0 5:0.08 6:0.2 7:0 8:0.04 9:0.08 10:0.04 11:0 12:0.08 13:0 14:0 15:0.12 16:0.04 17:0.04 18:0.2 19:0 20:0 
0.414515527169618 1:0.090024 2:0.009732 3:0.058394 4:0.051095 5:0.051095 6:0.077859 7:0.017032 8:0.046229 9:0.051095 10:0.082725 11:0.024331 12:0.048662 13:0.048662 14:0.036496 15:0.06326 16:0.065693 17:0.055961 18:0.07056 19:0.021898 20:0.029197 
0.028845571775272 1:0.181818 2:0.007576 3:0.07197 4:0.05303 5:0.022727 6:0.056818 7:0.015152 8:0.041667 9:0.022727 10:0.034091 11:0.011364 12:0.030303 13:0.102273 14:0.045455 15:0.05303 16:0.068182 17:0.041667 18:0.083333 19:0.037879 20:0.018939 
0.07496380187569518 1:0.043812 2:0.021906 3:0.059146 4:0.060241 5:0.038335 6:0.052574 7:0.03724 8:0.049288 9:0.054765 10:0.089814 11:0.025192 12:0.047097 13:0.051479 14:0.054765 15:0.056955 16:0.085433 17:0.05586 18:0.069003 19:0.010953 20:0.036145 
0.003834364148435549 1:0.070175 2:0.065789 3:0.050439 4:0.076754 5:0 6:0.08114 7:0.015351 8:0.019737 9:0.030702 10:0.214912 11:0.004386 12:0.037281 13:0.035088 14:0.054825 15:0.048246 16:0.083333 17:0.050439 18:0.041667 19:0.010965 20:0.008772 
0.1568699288116409 1:0.091716 2:0.011834 3:0.071006 4:0.04142 5:0.029586 6:0.100592 7:0.014793 8:0.071006 9:0.073964 10:0.050296 11:0.017751 12:0.044379 13:0.038462 14:0.02071 15:0.026627 16:0.065089 17:0.068047 18:0.112426 19:0.011834 20:0.038462 
0.08601152513528641 1:0.088435 2:0.010204 3:0.068027 4:0.064626 5:0.057823 6:0.081633 7:0.02381 8:0.037415 9:0.112245 10:0.047619 11:0.017007 12:0.027211 13:0.02381 14:0.037415 15:0.081633 16:0.030612 17:0.057823 18:0.071429 19:0.003401 20:0.057823 
0.1164844513646412 1:0.05379 2:0.02445 3:0.06357 4:0.075795 5:0.03423 6:0.061125 7:0.03912 8:0.03912 9:0.08313 10:0.066015 11:0.02934 12:0.026895 13:0.031785 14:0.022005 15:0.05379 16:0.090465 17:0.066015 18:0.085575 19:0.02934 20:0.02445 
0.07351390809155371 1:0.087805 2:0.034146 3:0.047805 4:0.061463 5:0.040976 6:0.08 7:0.012683 8:0.067317 9:0.066341 10:0.083902 11:0.022439 12:0.036098 13:0.061463 14:0.036098 15:0.039024 16:0.067317 17:0.057561 18:0.063415 19:0.010732 20:0.023415 
0.006796550557044739 1:0.082192 2:0.013699 3:0.061644 4:0.089041 5:0.027397 6:0.075342 7:0.013699 8:0.034247 9:0.09589 10:0.068493 11:0.013699 12:0.061644 13:0.013699 14:0.020548 15:0.027397 16:0.109589 17:0.034247 18:0.10274 19:0.013699 20:0.041096 
0.0005826739805085509 1:0.067941 2:0.002123 3:0.067941 4:0.070064 5:0.046709 6:0.072187 7:0.021231 8:0.055202 9:0.065817 10:0.087049 11:0.023355 12:0.027601 13:0.067941 14:0.021231 15:0.050955 16:0.057325 17:0.057325 18:0.065817 19:0.012739 20:0.059448 
0.01860061923511024 1:0.068027 2:0.006803 3:0.05102 4:0.078231 5:0.047619 6:0.040816 7:0.030612 8:0.054422 9:0.078231 10:0.102041 11:0.027211 12:0.013605 13:0.07483 14:0.030612 15:0.040816 16:0.054422 17:0.064626 18:0.061224 19:0.027211 20:0.047619 
0.05781417092089045 1:0.082353 2:0 3:0.023529 4:0.082353 5:0.035294 6:0.058824 7:0.047059 8:0.058824 9:0.035294 10:0.082353 11:0.035294 12:0.047059 13:0.070588 14:0.023529 15:0.035294 16:0.047059 17:0.082353 18:0.094118 19:0.011765 20:0.047059 
0.01553972928532464 1:0.066838 2:0.03599 3:0.01928 4:0.079692 5:0.017995 6:0.066838 7:0.023136 8:0.024422 9:0.017995 10:0.097686 11:0.006427 12:0.014139 13:0.152956 14:0.068123 15:0.078406 16:0.105398 17:0.056555 18:0.05527 19:0.006427 20:0.006427 
0.127505989054861 1:0.075658 2:0.003289 3:0.046053 4:0.059211 5:0.0625 6:0.078947 7:0.046053 8:0.065789 9:0.059211 10:0.065789 11:0.029605 12:0.0625 13:0.036184 14:0.046053 15:0.023026 16:0.059211 17:0.0625 18:0.052632 19:0.029605 20:0.036184 
0.02625357736126433 1:0.190141 2:0.007042 3:0.049296 4:0.056338 5:0.070423 6:0.112676 7:0.014085 8:0.014085 9:0.070423 10:0.06338 11:0.035211 12:0.042254 13:0.021127 14:0.035211 15:0.007042 16:0.084507 17:0.042254 18:0.049296 19:0.028169 20:0.007042 
0.003735070632604324 1:0.042945 2:0 3:0.030675 4:0.06135 5:0.006135 6:0.251534 7:0.06135 8:0.02454 9:0.079755 10:0.018405 11:0.04908 12:0.01227 13:0.02454 14:0.067485 15:0.03681 16:0.055215 17:0.141104 18:0.02454 19:0 20:0.01227 
0.01843292738121825 1:0.03681 2:0.018405 3:0.030675 4:0.067485 5:0.018405 6:0.09816 7:0.02454 8:0.055215 9:0.08589 10:0.04908 11:0.02454 12:0.06135 13:0.042945 14:0.067485 15:0.09816 16:0.08589 17:0.042945 18:0.042945 19:0.006135 20:0.042945 
-0.3017411023714673 1:0.089918 2:0.032698 3:0.073569 4:0.051771 5:0.029973 6:0.059946 7:0.021798 8:0.054496 9:0.046322 10:0.087193 11:0.024523 12:0.032698 13:0.043597 14:0.046322 15:0.051771 16:0.070845 17:0.038147 18:0.06267 19:0.027248 20:0.054496 
-0.104531471502176 1:0.040169 2:0.021142 3:0.057082 4:0.052854 5:0.033827 6:0.084567 7:0.040169 8:0.042283 9:0.044397 10:0.109937 11:0.016913 12:0.042283 13:0.084567 14:0.029598 15:0.052854 16:0.065539 17:0.065539 18:0.048626 19:0.023256 20:0.044397 
-0.008268001371463 1:0.071942 2:0.014388 3:0.115108 4:0.064748 5:0.021583 6:0.100719 7:0.014388 8:0.064748 9:0.064748 10:0.043165 11:0.021583 12:0.043165 13:0.035971 14:0.014388 15:0.021583 16:0.079137 17:0.043165 18:0.057554 19:0.028777 20:0.079137 
-0.07770589323499205 1:0.06383 2:0.024316 3:0.039514 4:0.06383 5:0.018237 6:0.088146 7:0.024316 8:0.042553 9:0.085106 10:0.085106 11:0.024316 12:0.075988 13:0.036474 14:0.033435 15:0.036474 16:0.072948 17:0.033435 18:0.069909 19:0.027356 20:0.054711 
-0.1500321045790553 1:0.052174 2:0.023188 3:0.049275 4:0.037681 5:0.034783 6:0.118841 7:0.017391 8:0.066667 9:0.057971 10:0.084058 11:0.023188 12:0.037681 13:0.057971 14:0.04058 15:0.023188 16:0.075362 17:0.055072 18:0.081159 19:0.011594 20:0.052174 
-0.5916992756419271 1:0.10625 2:0.01875 3:0.059375 4:0.065625 5:0.05 6:0.090625 7:0.025 8:0.046875 9:0.071875 10:0.034375 11:0.03125 12:0.04375 13:0.04375 14:0.025 15:0.046875 16:0.05625 17:0.06875 18:0.08125 19:0.0125 20:0.021875 
-0.09924986791631139 1:0.07767 2:0.013592 3:0.050485 4:0.038835 5:0.058252 6:0.067961 7:0.023301 8:0.042718 9:0.040777 10:0.108738 11:0.019417 12:0.036893 13:0.064078 14:0.034951 15:0.050485 16:0.083495 17:0.062136 18:0.062136 19:0.025243 20:0.038835 
-0.4012094887614973 1:0.058642 2:0.007716 3:0.044753 4:0.060185 5:0.044753 6:0.064815 7:0.029321 8:0.044753 9:0.037037 10:0.100309 11:0.016975 12:0.044753 13:0.054012 14:0.046296 15:0.061728 16:0.058642 17:0.061728 18:0.078704 19:0.027778 20:0.057099 
