svm_type c_svc
kernel_type polynomial
degree 10
gamma 10
coef0 1
nr_class 2
total_sv 74
rho 1.63975
label 1 -1
nr_sv 42 32
SV
0.5242012852505176 1:0.05042 2:0.010504 3:0.039916 4:0.05042 5:0.035714 6:0.056723 7:0.018908 8:0.090336 9:0.077731 10:0.113445 11:0.016807 12:0.077731 13:0.052521 14:0.042017 15:0.031513 16:0.084034 17:0.05042 18:0.054622 19:0.006303 20:0.039916 
0.02259520490121944 1:0.058824 2:0.009412 3:0.063529 4:0.101176 5:0.030588 6:0.035294 7:0.028235 8:0.058824 9:0.103529 10:0.070588 11:0.04 12:0.049412 13:0.023529 14:0.044706 15:0.051765 16:0.056471 17:0.054118 18:0.077647 19:0.016471 20:0.025882 
0.2394835414955228 1:0.059908 2:0.013825 3:0.052995 4:0.057604 5:0.041475 6:0.059908 7:0.025346 8:0.043779 9:0.046083 10:0.096774 11:0.029954 12:0.036866 13:0.062212 14:0.036866 15:0.069124 16:0.092166 17:0.043779 18:0.073733 19:0.006912 20:0.050691 
0.04544630835061299 1:0.065421 2:0.004673 3:0.028037 4:0.084112 5:0.037383 6:0.046729 7:0.023364 8:0.079439 9:0.088785 10:0.088785 11:0.028037 12:0.028037 13:0.042056 14:0.084112 15:0.046729 16:0.046729 17:0.037383 18:0.088785 19:0.004673 20:0.046729 
0.09885151584760397 1:0.075812 2:0.00722 3:0.028881 4:0.079422 5:0.057762 6:0.046931 7:0.032491 8:0.043321 9:0.054152 10:0.122744 11:0.021661 12:0.036101 13:0.039711 14:0.054152 15:0.064982 16:0.075812 17:0.046931 18:0.054152 19:0.025271 20:0.032491 
0.05495309913039169 1:0.045662 2:0 3:0.105023 4:0.114155 5:0.059361 6:0.03653 7:0.009132 8:0.059361 9:0.105023 10:0.123288 11:0.004566 12:0.03653 13:0.031963 14:0.041096 15:0.041096 16:0.077626 17:0.041096 18:0.054795 19:0.004566 20:0.009132 
0.2707056658139493 1:0.103512 2:0.020333 3:0.055453 4:0.049908 5:0.051756 6:0.088725 7:0.02403 8:0.07024 9:0.042514 10:0.072089 11:0.022181 12:0.040665 13:0.046211 14:0.027726 15:0.062847 16:0.05915 17:0.049908 18:0.086876 19:0.003697 20:0.022181 
0.3815347898060351 1:0.071429 2:0.056391 3:0.052632 4:0.033835 5:0.026316 6:0.041353 7:0.015038 8:0.052632 9:0.078947 10:0.109023 11:0.033835 12:0.045113 13:0.052632 14:0.052632 15:0.056391 16:0.06391 17:0.067669 18:0.033835 19:0.015038 20:0.041353 
1 1:0.082219 2:0.015374 3:0.046791 4:0.064171 5:0.039439 6:0.079545 7:0.018717 8:0.068182 9:0.067513 10:0.081551 11:0.028743 12:0.045455 13:0.046123 14:0.035428 15:0.038102 16:0.067513 17:0.057487 18:0.080882 19:0.009358 20:0.027406 
1 1:0.081664 2:0.012327 3:0.05547 4:0.052388 5:0.044684 6:0.061633 7:0.020031 8:0.049307 9:0.064715 10:0.09245 11:0.027735 12:0.050847 13:0.049307 14:0.032357 15:0.046225 16:0.063174 17:0.070878 18:0.075501 19:0.013867 20:0.035439 
0.1106072741712055 1:0.094595 2:0.054054 3:0.054054 4:0.067568 5:0.040541 6:0.013514 7:0.013514 8:0.027027 9:0.054054 10:0.081081 11:0.013514 12:0.040541 13:0.067568 14:0.054054 15:0.054054 16:0.054054 17:0.121622 18:0.040541 19:0.013514 20:0.040541 
0.2502398588484285 1:0.084475 2:0.020548 3:0.038813 4:0.063927 5:0.025114 6:0.098174 7:0.022831 8:0.050228 9:0.03653 10:0.118721 11:0.034247 12:0.03653 13:0.03653 14:0.043379 15:0.073059 16:0.075342 17:0.050228 18:0.050228 19:0.011416 20:0.02968 
0.500516892327995 1:0.081772 2:0.02385 3:0.044293 4:0.052811 5:0.0477 6:0.076661 7:0.039182 8:0.045997 9:0.054514 10:0.097104 11:0.030664 12:0.030664 13:0.054514 14:0.042589 15:0.051107 16:0.074957 17:0.052811 18:0.064736 19:0.008518 20:0.025554 
0.0009756256563758056 1:0.027397 2:0.006849 3:0.027397 4:0.041096 5:0.041096 6:0.109589 7:0.013699 8:0.041096 9:0.123288 10:0.068493 11:0.020548 12:0.054795 13:0.061644 14:0.027397 15:0.061644 16:0.061644 17:0.075342 18:0.068493 19:0.013699 20:0.054795 
0.1148310182693103 1:0.042857 2:0.014286 3:0.042857 4:0.057143 5:0.042857 6:0.114286 7:0.042857 8:0.071429 9:0.042857 10:0.1 11:0.042857 12:0.028571 13:0.028571 14:0 15:0.085714 16:0.057143 17:0.028571 18:0.071429 19:0.028571 20:0.057143 
0.09252101092855347 1:0.028169 2:0.056338 3:0.042254 4:0.056338 5:0.042254 6:0.056338 7:0 8:0.028169 9:0.056338 10:0.112676 11:0.042254 12:0.112676 13:0.042254 14:0.070423 15:0.070423 16:0.028169 17:0.070423 18:0.070423 19:0 20:0.014085 
0.003466199422955428 1:0.063063 2:0.009009 3:0.045045 4:0.117117 5:0.072072 6:0.045045 7:0 8:0.054054 9:0.144144 10:0.126126 11:0.027027 12:0.036036 13:0.054054 14:0.027027 15:0.063063 16:0.009009 17:0.036036 18:0.027027 19:0.009009 20:0.036036 
0.9694678922275994 1:0.090508 2:0.00883 3:0.04415 4:0.046358 5:0.048565 6:0.075055 7:0.019868 8:0.055188 9:0.03532 10:0.07947 11:0.02649 12:0.055188 13:0.072848 14:0.030905 15:0.050773 16:0.090508 17:0.072848 18:0.066225 19:0.002208 20:0.028698 
0.2394238082566246 1:0.093385 2:0.015564 3:0.042802 4:0.050584 5:0.062257 6:0.054475 7:0.038911 8:0.046693 9:0.050584 10:0.085603 11:0.007782 12:0.035019 13:0.050584 14:0.019455 15:0.042802 16:0.108949 17:0.066148 18:0.093385 19:0.015564 20:0.019455 
0.2200868614204357 1:0.086957 2:0.012422 3:0.052795 4:0.049689 5:0.037267 6:0.052795 7:0.024845 8:0.062112 9:0.052795 10:0.102484 11:0.021739 12:0.031056 13:0.049689 14:0.021739 15:0.059006 16:0.118012 17:0.07764 18:0.052795 19:0.015528 20:0.018634 
0.02345113901209303 1:0.058214 2:0.022329 3:0.054226 4:0.069378 5:0.044657 6:0.043062 7:0.015152 8:0.059809 9:0.097289 10:0.087719 11:0.017544 12:0.056619 13:0.051037 14:0.035885 15:0.048644 16:0.078947 17:0.052632 18:0.053429 19:0.016746 20:0.036683 
0.01204747073755695 1:0.089947 2:0 3:0.037037 4:0.074074 5:0.05291 6:0.068783 7:0.031746 8:0.068783 9:0.05291 10:0.095238 11:0.021164 12:0.015873 13:0.063492 14:0.010582 15:0.095238 16:0.042328 17:0.042328 18:0.068783 19:0.015873 20:0.05291 
0.6574902110711702 1:0.062201 2:0.016746 3:0.055024 4:0.066986 5:0.043062 6:0.07177 7:0.019139 8:0.08134 9:0.066986 10:0.050239 11:0.021531 12:0.047847 13:0.062201 14:0.033493 15:0.038278 16:0.074163 17:0.059809 18:0.069378 19:0.011962 20:0.047847 
0.3581762490028022 1:0.058394 2:0.014599 3:0.058394 4:0.051095 5:0.046229 6:0.043796 7:0.029197 8:0.060827 9:0.048662 10:0.104623 11:0.03163 12:0.048662 13:0.058394 14:0.046229 15:0.048662 16:0.092457 17:0.041363 18:0.07056 19:0.004866 20:0.041363 
1 1:0.067542 2:0.020638 3:0.035647 4:0.06379 5:0.037523 6:0.050657 7:0.030019 8:0.078799 9:0.054409 10:0.101313 11:0.016886 12:0.052533 13:0.043152 14:0.030019 15:0.054409 16:0.086304 17:0.071295 18:0.067542 19:0.007505 20:0.030019 
0.4765322705389127 1:0.08972 2:0.013084 3:0.042991 4:0.052336 5:0.04486 6:0.069159 7:0.02243 8:0.031776 9:0.042991 10:0.136449 11:0.016822 12:0.024299 13:0.063551 14:0.059813 15:0.071028 16:0.048598 17:0.042991 18:0.072897 19:0.018692 20:0.035514 
0.2913865554287728 1:0.025641 2:0.012821 3:0.044872 4:0.083333 5:0.070513 6:0.038462 7:0.032051 8:0.057692 9:0.067308 10:0.128205 11:0.041667 12:0.044872 13:0.025641 14:0.051282 15:0.054487 16:0.064103 17:0.041667 18:0.048077 19:0.00641 20:0.060897 
0.01596505089882311 1:0.079755 2:0.006135 3:0.03681 4:0.076687 5:0.027607 6:0.055215 7:0.003067 8:0.064417 9:0.067485 10:0.095092 11:0.027607 12:0.055215 13:0.030675 14:0.03681 15:0.06135 16:0.119632 17:0.06135 18:0.079755 19:0.003067 20:0.01227 
0.0807115990404788 1:0.102151 2:0.026882 3:0.080645 4:0.053763 5:0.021505 6:0.112903 7:0.016129 8:0.053763 9:0.032258 10:0.107527 11:0.032258 12:0.032258 13:0.016129 14:0.021505 15:0.080645 16:0.075269 17:0.069892 18:0.053763 19:0.005376 20:0.005376 
0.3523296133282544 1:0.109615 2:0.015385 3:0.053846 4:0.051923 5:0.042308 6:0.092308 7:0.013462 8:0.044231 9:0.057692 10:0.080769 11:0.019231 12:0.038462 13:0.048077 14:0.048077 15:0.05 16:0.046154 17:0.05 18:0.088462 19:0.013462 20:0.036538 
0.8145501087723337 1:0.055556 2:0.007663 3:0.05364 4:0.074713 5:0.063218 6:0.051724 7:0.028736 8:0.070881 9:0.076628 10:0.09387 11:0.030651 12:0.047893 13:0.045977 14:0.030651 15:0.051724 16:0.045977 17:0.063218 18:0.051724 19:0.01341 20:0.042146 
0.3595754116032854 1:0.073836 2:0.004815 3:0.0626 4:0.069021 5:0.035313 6:0.077047 7:0.011236 8:0.057785 9:0.051364 10:0.101124 11:0.033708 12:0.049759 13:0.040128 14:0.035313 15:0.067416 16:0.057785 17:0.044944 18:0.083467 19:0.012841 20:0.030498 
0.4136133072538071 1:0.081481 2:0 3:0.051852 4:0.074074 5:0.059259 6:0.059259 7:0.014815 8:0.044444 9:0.074074 10:0.066667 11:0.022222 12:0.081481 13:0.014815 14:0.044444 15:0.059259 16:0.074074 17:0.074074 18:0.051852 19:0.007407 20:0.044444 
0.06142714535903396 1:0.057143 2:0.009524 3:0.066667 4:0.066667 5:0.085714 6:0.114286 7:0.038095 8:0.028571 9:0 10:0.07619 11:0.019048 12:0 13:0.066667 14:0.047619 15:0.095238 16:0.07619 17:0.038095 18:0.047619 19:0.047619 20:0.019048 
0.00695222284243683 1:0.08 2:0 3:0 4:0.12 5:0.08 6:0 7:0 8:0.08 9:0 10:0.12 11:0.04 12:0.08 13:0.04 14:0 15:0.08 16:0.12 17:0.12 18:0 19:0 20:0.04 
0.1646888214581225 1:0.079687 2:0.021875 3:0.054688 4:0.057813 5:0.04375 6:0.104688 7:0.020313 8:0.028125 9:0.023438 10:0.0875 11:0.035937 12:0.026562 13:0.0875 14:0.025 15:0.092188 16:0.059375 17:0.0375 18:0.065625 19:0.029687 20:0.01875 
0.02351191276720144 1:0.057143 2:0 3:0.028571 4:0 5:0.057143 6:0.142857 7:0.028571 8:0.085714 9:0.085714 10:0.085714 11:0.085714 12:0.085714 13:0.085714 14:0 15:0 16:0.028571 17:0.028571 18:0.057143 19:0 20:0.057143 
0.1228667984995718 1:0.118343 2:0.011834 3:0.011834 4:0.023669 5:0.04142 6:0.118343 7:0.029586 8:0.005917 9:0.017751 10:0.136095 11:0.023669 12:0.017751 13:0.08284 14:0.023669 15:0.04142 16:0.04142 17:0.047337 18:0.076923 19:0.076923 20:0.053254 
0.3383237886297833 1:0.079734 2:0.018826 3:0.054264 4:0.086379 5:0.019934 6:0.067553 7:0.019934 8:0.035437 9:0.048726 10:0.100775 11:0.013289 12:0.023256 13:0.080842 14:0.043189 15:0.040975 16:0.104097 17:0.054264 18:0.079734 19:0.011074 20:0.017719 
1 1:0.060367 2:0.011811 3:0.053806 4:0.059055 5:0.057743 6:0.052493 7:0.020997 8:0.051181 9:0.064304 10:0.107612 11:0.024934 12:0.05643 13:0.036745 14:0.035433 15:0.052493 16:0.090551 17:0.049869 18:0.069554 19:0.007874 20:0.036745 
0.1006573523027464 1:0.043103 2:0.017241 3:0.017241 4:0.017241 5:0.034483 6:0.077586 7:0 8:0.103448 9:0.112069 10:0.086207 11:0.008621 12:0.077586 13:0.017241 14:0.017241 15:0.068966 16:0.103448 17:0.043103 18:0.12931 19:0.008621 20:0.017241 
0.4618028490908364 1:0.06639 2:0.014523 3:0.049793 4:0.058091 5:0.043568 6:0.06639 7:0.020747 8:0.074689 9:0.085062 10:0.087137 11:0.026971 12:0.039419 13:0.058091 14:0.033195 15:0.03527 16:0.064315 17:0.060166 18:0.078838 19:0.008299 20:0.029046 
-0.03495307628027999 1:0.080153 2:0.026718 3:0.041985 4:0.041985 5:0.072519 6:0.049618 7:0.030534 8:0.091603 9:0.080153 10:0.110687 11:0.030534 12:0.038168 13:0.049618 14:0.019084 15:0.038168 16:0.064885 17:0.030534 18:0.061069 19:0.01145 20:0.030534 
-0.5533020055382667 1:0.069272 2:0.017762 3:0.071048 4:0.095915 5:0.042629 6:0.053286 7:0.008881 8:0.042629 9:0.072824 10:0.087034 11:0.023091 12:0.058615 13:0.031972 14:0.05151 15:0.044405 16:0.053286 17:0.058615 18:0.081705 19:0.012433 20:0.023091 
-0.1097188686754079 1:0.091603 2:0 3:0.045802 4:0.083969 5:0.022901 6:0.076336 7:0.007634 8:0.114504 9:0.083969 10:0.068702 11:0.030534 12:0.038168 13:0.076336 14:0.007634 15:0.038168 16:0.030534 17:0.030534 18:0.122137 19:0 20:0.030534 
-0.3237101446541375 1:0.078261 2:0.010435 3:0.055652 4:0.071304 5:0.041739 6:0.06087 7:0.015652 8:0.052174 9:0.043478 10:0.121739 11:0.031304 12:0.029565 13:0.045217 14:0.041739 15:0.062609 16:0.053913 17:0.048696 18:0.066087 19:0.017391 20:0.052174 
-1 1:0.072951 2:0.016393 3:0.053279 4:0.07459 5:0.039344 6:0.077869 7:0.013934 8:0.069672 9:0.061475 10:0.090984 11:0.02459 12:0.038525 13:0.048361 14:0.042623 15:0.046721 16:0.057377 17:0.063115 18:0.080328 19:0.009836 20:0.018033 
-0.2629793274074215 1:0.038596 2:0.002005 3:0.031579 4:0.036591 5:0.052632 6:0.035088 7:0.014035 8:0.062155 9:0.094737 10:0.112782 11:0.015539 12:0.084211 13:0.040602 14:0.05213 15:0.062657 16:0.078697 17:0.087719 18:0.042105 19:0.015038 20:0.041103 
-0.03626834744901909 1:0.048544 2:0.009709 3:0.024272 4:0.048544 5:0.053398 6:0.048544 7:0.004854 8:0.087379 9:0.092233 10:0.11165 11:0.019417 12:0.063107 13:0.029126 14:0.067961 15:0.043689 16:0.097087 17:0.048544 18:0.058252 19:0.004854 20:0.038835 
-0.04946203016050046 1:0.100592 2:0.02071 3:0.038462 4:0.04142 5:0.088757 6:0.050296 7:0.02071 8:0.04142 9:0.04142 10:0.076923 11:0.029586 12:0.059172 13:0.071006 14:0.050296 15:0.038462 16:0.068047 17:0.050296 18:0.068047 19:0.017751 20:0.026627 
-0.5741868234659694 1:0.074919 2:0.016287 3:0.032573 4:0.039088 5:0.04886 6:0.084691 7:0.003257 8:0.065147 9:0.087948 10:0.074919 11:0.045603 12:0.045603 13:0.042345 14:0.032573 15:0.045603 16:0.065147 17:0.058632 18:0.084691 19:0.009772 20:0.042345 
-1 1:0.077083 2:0.014583 3:0.053125 4:0.042708 5:0.048958 6:0.079167 7:0.023958 8:0.045833 9:0.055208 10:0.103125 11:0.021875 12:0.040625 13:0.057292 14:0.029167 15:0.05 16:0.077083 17:0.05 18:0.065625 19:0.015625 20:0.048958 
-0.02116344458054458 1:0.038055 2:0.006342 3:0.063425 4:0.046512 5:0.057082 6:0.038055 7:0.023256 8:0.054968 9:0.044397 10:0.095137 11:0.044397 12:0.029598 13:0.05074 14:0.031712 15:0.073996 16:0.090909 17:0.071882 18:0.071882 19:0.02537 20:0.042283 
-0.0223181107126241 1:0.081633 2:0.014577 3:0.039359 4:0.04519 5:0.034985 6:0.08309 7:0.017493 8:0.027697 9:0.026239 10:0.170554 11:0.021866 12:0.023324 13:0.046647 14:0.065598 15:0.062682 16:0.068513 17:0.04519 18:0.080175 19:0.017493 20:0.027697 
-0.4594823294170403 1:0.052142 2:0.026071 3:0.03352 4:0.063315 5:0.039106 6:0.040968 7:0.020484 8:0.05959 9:0.063315 10:0.094972 11:0.040968 12:0.05959 13:0.054004 14:0.020484 15:0.065177 16:0.05959 17:0.078212 18:0.063315 19:0.013035 20:0.052142 
-0.00375466104087993 1:0.040498 2:0.018692 3:0.037383 4:0.063863 5:0.042056 6:0.042056 7:0.018692 8:0.084112 9:0.066978 10:0.124611 11:0.021807 12:0.066978 13:0.049844 14:0.034268 15:0.046729 16:0.066978 17:0.060748 18:0.060748 19:0.010903 20:0.042056 
-0.2389862147311492 1:0.093697 2:0.017888 3:0.056218 4:0.043441 5:0.035775 6:0.087734 7:0.016184 8:0.043441 9:0.045145 10:0.096252 11:0.024702 12:0.030664 13:0.051959 14:0.041738 15:0.051107 16:0.082624 17:0.075809 18:0.07155 19:0.00937 20:0.024702 
-0.06824769030527832 1:0.122378 2:0.02972 3:0.027972 4:0.045455 5:0.047203 6:0.11014 7:0.015734 8:0.026224 9:0.027972 10:0.094406 11:0.013986 12:0.015734 13:0.062937 14:0.017483 15:0.078671 16:0.085664 17:0.038462 18:0.103147 19:0.015734 20:0.020979 
-0.6895641614349781 1:0.073052 2:0.006494 3:0.04789 4:0.076299 5:0.043831 6:0.073864 7:0.030844 8:0.038149 9:0.040584 10:0.12987 11:0.018669 12:0.012987 13:0.091721 14:0.027597 15:0.066558 16:0.077922 17:0.049513 18:0.068182 19:0.010552 20:0.015422 
-0.001564986874872295 1:0.221311 2:0 3:0 4:0.008197 5:0.02459 6:0.122951 7:0 8:0.07377 9:0.02459 10:0.081967 11:0.04918 12:0.008197 13:0.016393 14:0.008197 15:0.02459 16:0.139344 17:0.057377 18:0.131148 19:0 20:0.008197 
-1 1:0.077739 2:0.038869 3:0.048292 4:0.070671 5:0.038869 6:0.054181 7:0.03298 8:0.04947 9:0.060071 10:0.078916 11:0.024735 12:0.045936 13:0.040047 14:0.041225 15:0.051826 16:0.083628 17:0.058893 18:0.048292 19:0.010601 20:0.044759 
-0.3344787166829349 1:0.068433 2:0.015453 3:0.048565 4:0.059603 5:0.055188 6:0.081678 7:0.013245 8:0.065121 9:0.060706 10:0.080574 11:0.027594 12:0.045254 13:0.03532 14:0.04415 15:0.049669 16:0.077263 17:0.050773 18:0.066225 19:0.016556 20:0.038631 
-0.5248313546175046 1:0.08596 2:0.002865 3:0.034384 4:0.063037 5:0.088825 6:0.048711 7:0.051576 8:0.057307 9:0.071633 10:0.097421 11:0.040115 12:0.045845 13:0.04298 14:0.034384 15:0.031519 16:0.028653 17:0.057307 18:0.051576 19:0.017192 20:0.048711 
-1 1:0.059016 2:0.005738 3:0.052459 4:0.059836 5:0.039344 6:0.059836 7:0.016393 8:0.063934 9:0.064754 10:0.10082 11:0.019672 12:0.065574 13:0.040164 14:0.031148 15:0.046721 16:0.109836 17:0.077049 18:0.059016 19:0.004098 20:0.02459 
-0.5137004951369897 1:0.076233 2:0.008969 3:0.052317 4:0.041854 5:0.047833 6:0.073244 7:0.026906 8:0.043348 9:0.043348 10:0.061286 11:0.032885 12:0.082212 13:0.050822 14:0.037369 15:0.043348 16:0.103139 17:0.064275 18:0.058296 19:0.014948 20:0.037369 
-0.1364558513001847 1:0.038869 2:0.010601 3:0.028269 4:0.113074 5:0.053004 6:0.028269 7:0.031802 8:0.091873 9:0.102473 10:0.102473 11:0.021201 12:0.028269 13:0.021201 14:0.045936 15:0.084806 16:0.053004 17:0.028269 18:0.060071 19:0.007067 20:0.04947 
-0.8806618693890249 1:0.095279 2:0.026609 3:0.042918 4:0.052361 5:0.048069 6:0.064378 7:0.024893 8:0.04721 9:0.036052 10:0.117597 11:0.032618 12:0.03691 13:0.039485 14:0.04206 15:0.071245 16:0.060086 17:0.048069 18:0.072103 19:0.011159 20:0.030901 
-0.1659587441669865 1:0.107001 2:0.021136 3:0.046235 4:0.046235 5:0.046235 6:0.114927 7:0.023778 8:0.047556 9:0.029062 10:0.080581 11:0.018494 12:0.025099 13:0.128137 14:0.023778 15:0.05284 16:0.048877 17:0.046235 18:0.050198 19:0.015852 20:0.027741 
-0.4873505043677736 1:0.118705 2:0.017986 3:0.052758 4:0.043165 5:0.027578 6:0.063549 7:0.017986 8:0.044365 9:0.034772 10:0.088729 11:0.021583 12:0.05036 13:0.047962 14:0.065947 15:0.043165 16:0.082734 17:0.080336 18:0.067146 19:0.010791 20:0.020384 
-1 1:0.05042 2:0.019608 3:0.043417 4:0.067227 5:0.044818 6:0.042017 7:0.02381 8:0.088235 9:0.084034 10:0.09944 11:0.018908 12:0.060924 13:0.042717 14:0.035014 15:0.036415 16:0.084034 17:0.04972 18:0.062325 19:0.009804 20:0.037115 
-0.3287558158801523 1:0.054455 2:0.011551 3:0.036304 4:0.036304 5:0.041254 6:0.125413 7:0.036304 8:0.062706 9:0.037954 10:0.070957 11:0.034653 12:0.041254 13:0.064356 14:0.041254 15:0.051155 16:0.070957 17:0.054455 18:0.084158 19:0.011551 20:0.033003 
-0.6303469455829778 1:0.054591 2:0.016749 3:0.066377 4:0.065757 5:0.049007 6:0.060794 7:0.014268 8:0.060794 9:0.061414 10:0.094913 11:0.01861 12:0.057692 13:0.03536 14:0.031638 15:0.058933 16:0.075682 17:0.058313 18:0.07072 19:0.013027 20:0.03536 
-0.04149268342405051 1:0.079937 2:0.029781 3:0.029781 4:0.056426 5:0.029781 6:0.084639 7:0.051724 8:0.018809 9:0.012539 10:0.125392 11:0.014107 12:0.017241 13:0.07837 14:0.03605 15:0.07837 16:0.094044 17:0.053292 18:0.059561 19:0.020376 20:0.029781 
-0.7822725264864088 1:0.083238 2:0.010262 3:0.052452 4:0.036488 5:0.047891 6:0.059293 7:0.023945 8:0.079818 9:0.04675 10:0.082098 11:0.014823 12:0.04333 13:0.063854 14:0.022805 15:0.04675 16:0.079818 17:0.059293 18:0.099202 19:0.009122 20:0.038769 
