svm_type c_svc
kernel_type polynomial
degree 10
gamma 10
coef0 1
nr_class 2
total_sv 31
rho 2.41285
label 1 -1
nr_sv 24 7
SV
0.3212545724632911 1:0.045752 2:0.035948 3:0.078431 4:0.058824 5:0.042484 6:0.075163 7:0.019608 8:0.052288 9:0.03268 10:0.104575 11:0.022876 12:0.052288 13:0.052288 14:0.052288 15:0.055556 16:0.039216 17:0.045752 18:0.065359 19:0.013072 20:0.055556 
0.04929934293077288 1:0.044199 2:0.01105 3:0.055249 4:0.044199 5:0.066298 6:0.066298 7:0.038674 8:0.049724 9:0.044199 10:0.055249 11:0.033149 12:0.044199 13:0.071823 14:0.022099 15:0.071823 16:0.077348 17:0.066298 18:0.110497 19:0.005525 20:0.022099 
0.09915817945922814 1:0.079268 2:0.006098 3:0.054878 4:0.060976 5:0.030488 6:0.097561 7:0.042683 8:0.060976 9:0.042683 10:0.060976 11:0.042683 12:0.036585 13:0.067073 14:0.030488 15:0.042683 16:0.054878 17:0.054878 18:0.079268 19:0.012195 20:0.042683 
0.0123195462214872 1:0.028269 2:0.010601 3:0.060071 4:0.060071 5:0.067138 6:0.063604 7:0.014134 8:0.060071 9:0.09894 10:0.106007 11:0.038869 12:0.038869 13:0.060071 14:0.021201 15:0.024735 16:0.053004 17:0.060071 18:0.04947 19:0.038869 20:0.045936 
0.02470851645732959 1:0.051685 2:0.024719 3:0.060674 4:0.080899 5:0.053933 6:0.085393 7:0.017978 8:0.040449 9:0.026966 10:0.076404 11:0.047191 12:0.049438 13:0.040449 14:0.051685 15:0.058427 16:0.074157 17:0.053933 18:0.062921 19:0.008989 20:0.033708 
0.0002966652649359957 1:0.08 2:0 3:0 4:0 5:0.08 6:0.2 7:0 8:0.04 9:0.08 10:0.04 11:0 12:0.08 13:0 14:0 15:0.12 16:0.04 17:0.04 18:0.2 19:0 20:0 
0.04883863087069968 1:0.046205 2:0.039604 3:0.062706 4:0.066007 5:0.052805 6:0.072607 7:0.019802 8:0.069307 9:0.059406 10:0.092409 11:0.019802 12:0.049505 13:0.042904 14:0.029703 15:0.046205 16:0.029703 17:0.066007 18:0.066007 19:0.019802 20:0.049505 
0.6309119609385901 1:0.090024 2:0.009732 3:0.058394 4:0.051095 5:0.051095 6:0.077859 7:0.017032 8:0.046229 9:0.051095 10:0.082725 11:0.024331 12:0.048662 13:0.048662 14:0.036496 15:0.06326 16:0.065693 17:0.055961 18:0.07056 19:0.021898 20:0.029197 
0.04880213488529758 1:0.181818 2:0.007576 3:0.07197 4:0.05303 5:0.022727 6:0.056818 7:0.015152 8:0.041667 9:0.022727 10:0.034091 11:0.011364 12:0.030303 13:0.102273 14:0.045455 15:0.05303 16:0.068182 17:0.041667 18:0.083333 19:0.037879 20:0.018939 
0.1674012631297633 1:0.043812 2:0.021906 3:0.059146 4:0.060241 5:0.038335 6:0.052574 7:0.03724 8:0.049288 9:0.054765 10:0.089814 11:0.025192 12:0.047097 13:0.051479 14:0.054765 15:0.056955 16:0.085433 17:0.05586 18:0.069003 19:0.010953 20:0.036145 
0.007995355558293855 1:0.070175 2:0.065789 3:0.050439 4:0.076754 5:0 6:0.08114 7:0.015351 8:0.019737 9:0.030702 10:0.214912 11:0.004386 12:0.037281 13:0.035088 14:0.054825 15:0.048246 16:0.083333 17:0.050439 18:0.041667 19:0.010965 20:0.008772 
0.1341041472897003 1:0.091716 2:0.011834 3:0.071006 4:0.04142 5:0.029586 6:0.100592 7:0.014793 8:0.071006 9:0.073964 10:0.050296 11:0.017751 12:0.044379 13:0.038462 14:0.02071 15:0.026627 16:0.065089 17:0.068047 18:0.112426 19:0.011834 20:0.038462 
0.07997627577300598 1:0.088435 2:0.010204 3:0.068027 4:0.064626 5:0.057823 6:0.081633 7:0.02381 8:0.037415 9:0.112245 10:0.047619 11:0.017007 12:0.027211 13:0.02381 14:0.037415 15:0.081633 16:0.030612 17:0.057823 18:0.071429 19:0.003401 20:0.057823 
0.1777984205215026 1:0.05379 2:0.02445 3:0.06357 4:0.075795 5:0.03423 6:0.061125 7:0.03912 8:0.03912 9:0.08313 10:0.066015 11:0.02934 12:0.026895 13:0.031785 14:0.022005 15:0.05379 16:0.090465 17:0.066015 18:0.085575 19:0.02934 20:0.02445 
0.1074500662834669 1:0.025825 2:0.018651 3:0.053085 4:0.050215 5:0.041607 6:0.057389 7:0.028694 8:0.077475 9:0.07891 10:0.077475 11:0.025825 12:0.070301 13:0.04878 14:0.037303 15:0.02726 16:0.117647 17:0.07604 18:0.040172 19:0.012912 20:0.034433 
0.02989586737538875 1:0.082192 2:0.013699 3:0.061644 4:0.089041 5:0.027397 6:0.075342 7:0.013699 8:0.034247 9:0.09589 10:0.068493 11:0.013699 12:0.061644 13:0.013699 14:0.020548 15:0.027397 16:0.109589 17:0.034247 18:0.10274 19:0.013699 20:0.041096 
0.02004769983786823 1:0.093664 2:0.011019 3:0.068871 4:0.033058 5:0.046832 6:0.090909 7:0.030303 8:0.060606 9:0.085399 10:0.052342 11:0.035813 12:0.052342 13:0.033058 14:0.013774 15:0.030303 16:0.057851 17:0.057851 18:0.104683 19:0.008264 20:0.033058 
0.06973630041817458 1:0.072289 2:0.028112 3:0.048193 4:0.068273 5:0.032129 6:0.068273 7:0.02008 8:0.076305 9:0.080321 10:0.056225 11:0.012048 12:0.080321 13:0.040161 14:0.028112 15:0.028112 16:0.080321 17:0.064257 18:0.076305 19:0.016064 20:0.024096 
0.06643402993710511 1:0.082353 2:0 3:0.023529 4:0.082353 5:0.035294 6:0.058824 7:0.047059 8:0.058824 9:0.035294 10:0.082353 11:0.035294 12:0.047059 13:0.070588 14:0.023529 15:0.035294 16:0.047059 17:0.082353 18:0.094118 19:0.011765 20:0.047059 
0.01400802334780724 1:0.066838 2:0.03599 3:0.01928 4:0.079692 5:0.017995 6:0.066838 7:0.023136 8:0.024422 9:0.017995 10:0.097686 11:0.006427 12:0.014139 13:0.152956 14:0.068123 15:0.078406 16:0.105398 17:0.056555 18:0.05527 19:0.006427 20:0.006427 
0.3795578827357774 1:0.075658 2:0.003289 3:0.046053 4:0.059211 5:0.0625 6:0.078947 7:0.046053 8:0.065789 9:0.059211 10:0.065789 11:0.029605 12:0.0625 13:0.036184 14:0.046053 15:0.023026 16:0.059211 17:0.0625 18:0.052632 19:0.029605 20:0.036184 
0.01333341101739813 1:0.190141 2:0.007042 3:0.049296 4:0.056338 5:0.070423 6:0.112676 7:0.014085 8:0.014085 9:0.070423 10:0.06338 11:0.035211 12:0.042254 13:0.021127 14:0.035211 15:0.007042 16:0.084507 17:0.042254 18:0.049296 19:0.028169 20:0.007042 
0.004344864669106571 1:0.042945 2:0 3:0.030675 4:0.06135 5:0.006135 6:0.251534 7:0.06135 8:0.02454 9:0.079755 10:0.018405 11:0.04908 12:0.01227 13:0.02454 14:0.067485 15:0.03681 16:0.055215 17:0.141104 18:0.02454 19:0 20:0.01227 
0.01408282223405425 1:0.03681 2:0.018405 3:0.030675 4:0.067485 5:0.018405 6:0.09816 7:0.02454 8:0.055215 9:0.08589 10:0.04908 11:0.02454 12:0.06135 13:0.042945 14:0.067485 15:0.09816 16:0.08589 17:0.042945 18:0.042945 19:0.006135 20:0.042945 
-0.356387937020553 1:0.089918 2:0.032698 3:0.073569 4:0.051771 5:0.029973 6:0.059946 7:0.021798 8:0.054496 9:0.046322 10:0.087193 11:0.024523 12:0.032698 13:0.043597 14:0.046322 15:0.051771 16:0.070845 17:0.038147 18:0.06267 19:0.027248 20:0.054496 
-0.7012410085644891 1:0.047778 2:0.012222 3:0.057778 4:0.062222 5:0.058889 6:0.055556 7:0.03 8:0.064444 9:0.058889 10:0.071111 11:0.021111 12:0.06 13:0.038889 14:0.032222 15:0.037778 16:0.075556 17:0.065556 18:0.068889 19:0.027778 20:0.053333 
-0.1717187568550605 1:0.052174 2:0.023188 3:0.049275 4:0.037681 5:0.034783 6:0.118841 7:0.017391 8:0.066667 9:0.057971 10:0.084058 11:0.023188 12:0.037681 13:0.057971 14:0.04058 15:0.023188 16:0.075362 17:0.055072 18:0.081159 19:0.011594 20:0.052174 
-0.06853508106915267 1:0.040169 2:0.021142 3:0.057082 4:0.052854 5:0.033827 6:0.084567 7:0.040169 8:0.042283 9:0.044397 10:0.109937 11:0.016913 12:0.042283 13:0.084567 14:0.029598 15:0.052854 16:0.065539 17:0.065539 18:0.048626 19:0.023256 20:0.044397 
-0.6481163072973056 1:0.10625 2:0.01875 3:0.059375 4:0.065625 5:0.05 6:0.090625 7:0.025 8:0.046875 9:0.071875 10:0.034375 11:0.03125 12:0.04375 13:0.04375 14:0.025 15:0.046875 16:0.05625 17:0.06875 18:0.08125 19:0.0125 20:0.021875 
-0.4070152811447641 1:0.082178 2:0.011881 3:0.051485 4:0.044554 5:0.043564 6:0.069307 7:0.026733 8:0.027723 9:0.023762 10:0.107921 11:0.020792 12:0.047525 13:0.067327 14:0.056436 15:0.069307 16:0.059406 17:0.056436 18:0.073267 19:0.026733 20:0.033663 
-0.1687416076687203 1:0.02649 2:0.019868 3:0.033113 4:0.059603 5:0.033113 6:0.092715 7:0.039735 8:0.039735 9:0.086093 10:0.10596 11:0.019868 12:0.086093 13:0.02649 14:0.033113 15:0.05298 16:0.07947 17:0.05298 18:0.059603 19:0.013245 20:0.039735 
