svm_type c_svc
kernel_type polynomial
degree 10
gamma 10
coef0 1
nr_class 2
total_sv 61
rho 1.26543
label 1 -1
nr_sv 43 18
SV
0.1912489575401326 1:0.074597 2:0.014113 3:0.078629 4:0.050403 5:0.064516 6:0.058468 7:0.040323 8:0.032258 9:0.03629 10:0.072581 11:0.022177 12:0.042339 13:0.078629 14:0.024194 15:0.082661 16:0.044355 17:0.058468 18:0.072581 19:0.016129 20:0.03629 
0.0004160532370024783 1:0.028169 2:0.056338 3:0.042254 4:0.056338 5:0.042254 6:0.056338 7:0 8:0.028169 9:0.056338 10:0.112676 11:0.042254 12:0.112676 13:0.042254 14:0.070423 15:0.070423 16:0.028169 17:0.070423 18:0.070423 19:0 20:0.014085 
0.03402059707460005 1:0.058214 2:0.022329 3:0.054226 4:0.069378 5:0.044657 6:0.043062 7:0.015152 8:0.059809 9:0.097289 10:0.087719 11:0.017544 12:0.056619 13:0.051037 14:0.035885 15:0.048644 16:0.078947 17:0.052632 18:0.053429 19:0.016746 20:0.036683 
0.1239242450662542 1:0.093385 2:0.015564 3:0.042802 4:0.050584 5:0.062257 6:0.054475 7:0.038911 8:0.046693 9:0.050584 10:0.085603 11:0.007782 12:0.035019 13:0.050584 14:0.019455 15:0.042802 16:0.108949 17:0.066148 18:0.093385 19:0.015564 20:0.019455 
0.05525418493737869 1:0.117302 2:0.008798 3:0.043988 4:0.046921 5:0.032258 6:0.093842 7:0.008798 8:0.052786 9:0.067449 10:0.099707 11:0.020528 12:0.043988 13:0.052786 14:0.02346 15:0.035191 16:0.076246 17:0.052786 18:0.099707 19:0.002933 20:0.020528 
0.6555837703078736 1:0.107143 2:0.015873 3:0.05754 4:0.055556 5:0.041667 6:0.073413 7:0.02381 8:0.041667 9:0.043651 10:0.111111 11:0.021825 12:0.03373 13:0.047619 14:0.041667 15:0.081349 16:0.059524 17:0.047619 18:0.055556 19:0.007937 20:0.031746 
1 1:0.082219 2:0.015374 3:0.046791 4:0.064171 5:0.039439 6:0.079545 7:0.018717 8:0.068182 9:0.067513 10:0.081551 11:0.028743 12:0.045455 13:0.046123 14:0.035428 15:0.038102 16:0.067513 17:0.057487 18:0.080882 19:0.009358 20:0.027406 
0.3526312808538071 1:0.104587 2:0.00367 3:0.055046 4:0.058716 5:0.025688 6:0.091743 7:0.012844 8:0.07156 9:0.056881 10:0.097248 11:0.022018 12:0.025688 13:0.036697 14:0.044037 15:0.066055 16:0.062385 17:0.055046 18:0.078899 19:0.001835 20:0.029358 
0.4013911605894083 1:0.053846 2:0.003846 3:0.073077 4:0.046154 5:0.05 6:0.034615 7:0.023077 8:0.05 9:0.065385 10:0.123077 11:0.030769 12:0.042308 13:0.034615 14:0.046154 15:0.038462 16:0.065385 17:0.088462 18:0.080769 19:0.015385 20:0.034615 
0.2820872404732211 1:0.075812 2:0.00722 3:0.028881 4:0.079422 5:0.057762 6:0.046931 7:0.032491 8:0.043321 9:0.054152 10:0.122744 11:0.021661 12:0.036101 13:0.039711 14:0.054152 15:0.064982 16:0.075812 17:0.046931 18:0.054152 19:0.025271 20:0.032491 
0.3259407348134517 1:0.071429 2:0.056391 3:0.052632 4:0.033835 5:0.026316 6:0.041353 7:0.015038 8:0.052632 9:0.078947 10:0.109023 11:0.033835 12:0.045113 13:0.052632 14:0.052632 15:0.056391 16:0.06391 17:0.067669 18:0.033835 19:0.015038 20:0.041353 
0.05068383627504776 1:0.067542 2:0.020638 3:0.035647 4:0.06379 5:0.037523 6:0.050657 7:0.030019 8:0.078799 9:0.054409 10:0.101313 11:0.016886 12:0.052533 13:0.043152 14:0.030019 15:0.054409 16:0.086304 17:0.071295 18:0.067542 19:0.007505 20:0.030019 
0.4870153039962645 1:0.050891 2:0.025445 3:0.043257 4:0.058524 5:0.035623 6:0.086514 7:0.020356 8:0.038168 9:0.050891 10:0.124682 11:0.02799 12:0.022901 13:0.071247 14:0.058524 15:0.061069 16:0.043257 17:0.048346 18:0.081425 19:0.02799 20:0.022901 
0.02432073688573077 1:0.054054 2:0.027027 3:0.045045 4:0.081081 5:0.036036 6:0.09009 7:0.018018 8:0.063063 9:0.144144 10:0.063063 11:0.009009 12:0.027027 13:0.063063 14:0.018018 15:0.036036 16:0.045045 17:0.063063 18:0.063063 19:0.009009 20:0.045045 
0.002254592463348781 1:0.099476 2:0.005236 3:0.064572 4:0.075044 5:0.017452 6:0.097731 7:0.005236 8:0.075044 9:0.092496 10:0.08377 11:0.031414 12:0.034904 13:0.033159 14:0.029668 15:0.038394 16:0.04363 17:0.059337 18:0.099476 19:0.001745 20:0.012216 
1 1:0.081664 2:0.012327 3:0.05547 4:0.052388 5:0.044684 6:0.061633 7:0.020031 8:0.049307 9:0.064715 10:0.09245 11:0.027735 12:0.050847 13:0.049307 14:0.032357 15:0.046225 16:0.063174 17:0.070878 18:0.075501 19:0.013867 20:0.035439 
0.1246394799460197 1:0.088957 2:0.006135 3:0.039877 4:0.070552 5:0.046012 6:0.067485 7:0.06135 8:0.042945 9:0.06135 10:0.082822 11:0.030675 12:0.030675 13:0.039877 14:0.02454 15:0.06135 16:0.06135 17:0.046012 18:0.082822 19:0.021472 20:0.033742 
0.05411910956771016 1:0.06639 2:0.014523 3:0.049793 4:0.058091 5:0.043568 6:0.06639 7:0.020747 8:0.074689 9:0.085062 10:0.087137 11:0.026971 12:0.039419 13:0.058091 14:0.033195 15:0.03527 16:0.064315 17:0.060166 18:0.078838 19:0.008299 20:0.029046 
0.9858312215214344 1:0.055556 2:0.007663 3:0.05364 4:0.074713 5:0.063218 6:0.051724 7:0.028736 8:0.070881 9:0.076628 10:0.09387 11:0.030651 12:0.047893 13:0.045977 14:0.030651 15:0.051724 16:0.045977 17:0.063218 18:0.051724 19:0.01341 20:0.042146 
0.09729917154650321 1:0.025641 2:0.012821 3:0.044872 4:0.083333 5:0.070513 6:0.038462 7:0.032051 8:0.057692 9:0.067308 10:0.128205 11:0.041667 12:0.044872 13:0.025641 14:0.051282 15:0.054487 16:0.064103 17:0.041667 18:0.048077 19:0.00641 20:0.060897 
0.1927468589039685 1:0.118056 2:0.020833 3:0.041667 4:0.034722 5:0.041667 6:0.097222 7:0.055556 8:0.0625 9:0.076389 10:0.083333 11:0.027778 12:0.0625 13:0.048611 14:0.055556 15:0 16:0.041667 17:0.055556 18:0.041667 19:0.020833 20:0.013889 
0.01134340433010919 1:0.148936 2:0 3:0.042553 4:0.021277 5:0.021277 6:0.106383 7:0 8:0.042553 9:0.06383 10:0.06383 11:0.042553 12:0.021277 13:0.021277 14:0.021277 15:0.148936 16:0.042553 17:0.06383 18:0.12766 19:0 20:0 
0.4803596324035876 1:0.049834 2:0.023256 3:0.069767 4:0.066445 5:0.066445 6:0.063123 7:0.013289 8:0.059801 9:0.069767 10:0.096346 11:0.003322 12:0.039867 13:0.053156 14:0.036545 15:0.076412 16:0.076412 17:0.039867 18:0.0299 19:0.009967 20:0.056478 
0.04520284959354461 1:0.086053 2:0.029674 3:0.086053 4:0.041543 5:0.023739 6:0.094955 7:0.011869 8:0.035608 9:0.047478 10:0.04451 11:0.014837 12:0.050445 13:0.041543 14:0.032641 15:0.008902 16:0.139466 17:0.077151 18:0.071217 19:0.017804 20:0.04451 
0.05326206027602124 1:0.099099 2:0.009009 3:0.033033 4:0.081081 5:0.036036 6:0.057057 7:0.033033 8:0.042042 9:0.072072 10:0.099099 11:0.033033 12:0.039039 13:0.048048 14:0.015015 15:0.072072 16:0.048048 17:0.036036 18:0.081081 19:0.027027 20:0.039039 
1 1:0.109615 2:0.015385 3:0.053846 4:0.051923 5:0.042308 6:0.092308 7:0.013462 8:0.044231 9:0.057692 10:0.080769 11:0.019231 12:0.038462 13:0.048077 14:0.048077 15:0.05 16:0.046154 17:0.05 18:0.088462 19:0.013462 20:0.036538 
1 1:0.077636 2:0.00927 3:0.052144 4:0.05562 5:0.034762 6:0.071842 7:0.017381 8:0.07416 9:0.071842 10:0.091541 11:0.010429 12:0.05562 13:0.039397 14:0.032445 15:0.041715 16:0.088065 17:0.048667 18:0.079954 19:0.00927 20:0.038239 
0.3210184339813401 1:0.066986 2:0.011962 3:0.064593 4:0.052632 5:0.038278 6:0.069378 7:0.019139 8:0.064593 9:0.090909 10:0.076555 11:0.038278 12:0.055024 13:0.033493 14:0.028708 15:0.043062 16:0.064593 17:0.057416 18:0.062201 19:0.014354 20:0.047847 
0.8822742371831584 1:0.081772 2:0.02385 3:0.044293 4:0.052811 5:0.0477 6:0.076661 7:0.039182 8:0.045997 9:0.054514 10:0.097104 11:0.030664 12:0.030664 13:0.054514 14:0.042589 15:0.051107 16:0.074957 17:0.052811 18:0.064736 19:0.008518 20:0.025554 
0.06401704604663742 1:0.079734 2:0.018826 3:0.054264 4:0.086379 5:0.019934 6:0.067553 7:0.019934 8:0.035437 9:0.048726 10:0.100775 11:0.013289 12:0.023256 13:0.080842 14:0.043189 15:0.040975 16:0.104097 17:0.054264 18:0.079734 19:0.011074 20:0.017719 
0.0003068082861545023 1:0 2:0 3:0.090909 4:0.272727 5:0.090909 6:0.090909 7:0.181818 8:0 9:0 10:0 11:0 12:0 13:0 14:0 15:0 16:0.181818 17:0.090909 18:0 19:0 20:0 
0.1479250577429194 1:0.092338 2:0.019646 3:0.039293 4:0.064833 5:0.035363 6:0.111984 7:0.031434 8:0.076621 9:0.074656 10:0.070727 11:0.017682 12:0.043222 13:0.037328 14:0.02947 15:0.033399 16:0.05501 17:0.05501 18:0.090373 19:0.005894 20:0.015717 
0.4952222481945839 1:0.098237 2:0.017632 3:0.047859 4:0.070529 5:0.02267 6:0.093199 7:0.02267 8:0.04534 9:0.060453 10:0.073048 11:0.037783 12:0.032746 13:0.030227 14:0.035264 15:0.057935 16:0.052897 17:0.080605 18:0.062972 19:0.012594 20:0.04534 
0.02358981545697831 1:0.065934 2:0.010989 3:0.049451 4:0.06044 5:0.076923 6:0.120879 7:0.016484 8:0.071429 9:0.087912 10:0.049451 11:0.021978 12:0.049451 13:0.043956 14:0.021978 15:0.038462 16:0.06044 17:0.054945 18:0.065934 19:0.010989 20:0.021978 
0.1514896555658745 1:0.102151 2:0.026882 3:0.080645 4:0.053763 5:0.021505 6:0.112903 7:0.016129 8:0.053763 9:0.032258 10:0.107527 11:0.032258 12:0.032258 13:0.016129 14:0.021505 15:0.080645 16:0.075269 17:0.069892 18:0.053763 19:0.005376 20:0.005376 
0.6002549760670827 1:0.085714 2:0.030075 3:0.04812 4:0.061654 5:0.034586 6:0.099248 7:0.037594 8:0.03609 9:0.039098 10:0.081203 11:0.02406 12:0.028571 13:0.040602 14:0.040602 15:0.070677 16:0.066165 17:0.058647 18:0.069173 19:0.01203 20:0.03609 
0.4233130658624728 1:0.103512 2:0.020333 3:0.055453 4:0.049908 5:0.051756 6:0.088725 7:0.02403 8:0.07024 9:0.042514 10:0.072089 11:0.022181 12:0.040665 13:0.046211 14:0.027726 15:0.062847 16:0.05915 17:0.049908 18:0.086876 19:0.003697 20:0.022181 
0.40022762121928 1:0.07772 2:0.020725 3:0.07513 4:0.056995 5:0.046632 6:0.051813 7:0.023316 8:0.072539 9:0.064767 10:0.049223 11:0.033679 12:0.036269 13:0.07513 14:0.023316 15:0.056995 16:0.051813 17:0.051813 18:0.062176 19:0.025907 20:0.044041 
0.01631275756565574 1:0.072727 2:0 3:0.090909 4:0.018182 5:0.036364 6:0.109091 7:0.054545 8:0.018182 9:0.036364 10:0.072727 11:0.018182 12:0.054545 13:0.036364 14:0.054545 15:0.109091 16:0.018182 17:0.018182 18:0.072727 19:0.072727 20:0.036364 
0.1373113373306618 1:0.114206 2:0.02507 3:0.041783 4:0.066852 5:0.038997 6:0.091922 7:0.016713 8:0.077994 9:0.052925 10:0.072423 11:0.036212 12:0.036212 13:0.052925 14:0.033426 15:0.044568 16:0.047354 17:0.030641 18:0.083565 19:0.011142 20:0.02507 
0.3617735193638316 1:0.098696 2:0.014898 3:0.046555 4:0.048417 5:0.040968 6:0.080074 7:0.014898 8:0.061453 9:0.05959 10:0.078212 11:0.035382 12:0.048417 13:0.055866 14:0.039106 15:0.040968 16:0.072626 17:0.055866 18:0.078212 19:0.011173 20:0.018622 
0.1003095735809019 1:0.085595 2:0.002088 3:0.039666 4:0.08142 5:0.037578 6:0.073069 7:0.02714 8:0.052192 9:0.08142 10:0.118998 11:0.010438 12:0.02714 13:0.048017 14:0.031315 15:0.043841 16:0.075157 17:0.05428 18:0.056367 19:0.012526 20:0.041754 
0.1305880267363286 1:0.065375 2:0.016949 3:0.062954 4:0.048426 5:0.046005 6:0.05569 7:0.031477 8:0.053269 9:0.060533 10:0.104116 11:0.029056 12:0.043584 13:0.053269 14:0.041162 15:0.046005 16:0.087167 17:0.038741 18:0.060533 19:0.004843 20:0.050847 
-0.2937907139693891 1:0.090361 2:0.018072 3:0.048193 4:0.072289 5:0.048193 6:0.060241 7:0.03012 8:0.048193 9:0.078313 10:0.066265 11:0.012048 12:0.042169 13:0.060241 14:0.024096 15:0.018072 16:0.078313 17:0.066265 18:0.096386 19:0.012048 20:0.03012 
-1 1:0.062834 2:0.010695 3:0.073529 4:0.03877 5:0.045455 6:0.066845 7:0.020053 8:0.064171 9:0.074866 10:0.100267 11:0.020053 12:0.041444 13:0.034759 14:0.041444 15:0.046791 16:0.076203 17:0.061497 18:0.066845 19:0.012032 20:0.041444 
-1 1:0.093625 2:0.00996 3:0.071713 4:0.053785 5:0.037849 6:0.063745 7:0.013944 8:0.061753 9:0.063745 10:0.095618 11:0.021912 12:0.039841 13:0.033865 14:0.035857 15:0.045817 16:0.067729 17:0.055777 18:0.083665 19:0.007968 20:0.041833 
-1 1:0.090909 2:0.007576 3:0.068182 4:0.054924 5:0.041667 6:0.07197 7:0.028409 8:0.056818 9:0.0625 10:0.089015 11:0.028409 12:0.047348 13:0.047348 14:0.032197 15:0.068182 16:0.043561 17:0.054924 18:0.058712 19:0.017045 20:0.030303 
-1 1:0.105903 2:0.010417 3:0.050347 4:0.067708 5:0.039931 6:0.071181 7:0.022569 8:0.029514 9:0.046875 10:0.076389 11:0.038194 12:0.034722 13:0.029514 14:0.043403 15:0.067708 16:0.071181 17:0.069444 18:0.072917 19:0.024306 20:0.027778 
-1 1:0.122642 2:0.023585 3:0.044811 4:0.04717 5:0.021226 6:0.108491 7:0.009434 8:0.056604 9:0.044811 10:0.082547 11:0.028302 12:0.028302 13:0.056604 14:0.044811 15:0.061321 16:0.066038 17:0.054245 18:0.082547 19:0.002358 20:0.014151 
-0.2184815282819323 1:0.071186 2:0.030508 3:0.047458 4:0.037288 5:0.057627 6:0.050847 7:0.016949 8:0.023729 9:0.071186 10:0.145763 11:0.020339 12:0.030508 13:0.037288 14:0.050847 15:0.071186 16:0.054237 17:0.037288 18:0.081356 19:0.010169 20:0.054237 
-1 1:0.088012 2:0.013657 3:0.060698 4:0.062215 5:0.033384 6:0.059181 7:0.037936 8:0.051593 9:0.051593 10:0.091047 11:0.042489 12:0.039454 13:0.028832 14:0.042489 15:0.059181 16:0.053111 17:0.068285 18:0.062215 19:0.010622 20:0.044006 
-0.3556743705481689 1:0.051282 2:0.011834 3:0.067061 4:0.053254 5:0.057199 6:0.065089 7:0.035503 8:0.043393 9:0.063116 10:0.061144 11:0.015779 12:0.055227 13:0.080868 14:0.033531 15:0.047337 16:0.063116 17:0.067061 18:0.059172 19:0.015779 20:0.053254 
-1 1:0.087778 2:0.006667 3:0.043333 4:0.056667 5:0.05 6:0.08 7:0.02 8:0.062222 9:0.085556 10:0.085556 11:0.013333 12:0.054444 13:0.043333 14:0.031111 15:0.031111 16:0.064444 17:0.062222 18:0.078889 19:0.011111 20:0.032222 
-0.320451871855949 1:0.060694 2:0.017341 3:0.034682 4:0.060694 5:0.037572 6:0.092486 7:0.034682 8:0.060694 9:0.040462 10:0.115607 11:0.014451 12:0.040462 13:0.063584 14:0.031792 15:0.052023 16:0.069364 17:0.052023 18:0.054913 19:0.031792 20:0.034682 
-1 1:0.064516 2:0.020528 3:0.046921 4:0.052786 5:0.035191 6:0.085044 7:0.026393 8:0.055718 9:0.061584 10:0.093842 11:0.017595 12:0.017595 13:0.064516 14:0.038123 15:0.055718 16:0.067449 17:0.061584 18:0.090909 19:0.02346 20:0.020528 
-0.8975537662580593 1:0.057279 2:0.031026 3:0.0358 4:0.073986 5:0.069212 6:0.059666 7:0.019093 8:0.069212 9:0.066826 10:0.105012 11:0.019093 12:0.050119 13:0.050119 14:0.02864 15:0.052506 16:0.069212 17:0.047733 18:0.040573 19:0.00716 20:0.047733 
-1 1:0.076866 2:0.028086 3:0.046563 4:0.06578 5:0.04952 6:0.076127 7:0.02439 8:0.069475 9:0.05765 10:0.076866 11:0.031781 12:0.042868 13:0.051737 14:0.036955 15:0.044346 16:0.061345 17:0.051737 18:0.06578 19:0.006652 20:0.035477 
-0.4620060972373833 1:0.067194 2:0.017787 3:0.073123 4:0.037549 5:0.065217 6:0.067194 7:0.031621 8:0.045455 9:0.067194 10:0.059289 11:0.019763 12:0.05336 13:0.065217 14:0.045455 15:0.051383 16:0.057312 17:0.059289 18:0.067194 19:0.009881 20:0.039526 
-0.1085548463753134 1:0.092025 2:0.030675 3:0.021472 4:0.058282 5:0.021472 6:0.076687 7:0.042945 8:0.027607 9:0.027607 10:0.156442 11:0.009202 12:0.003067 13:0.052147 14:0.042945 15:0.119632 16:0.06135 17:0.039877 18:0.055215 19:0.021472 20:0.039877 
-0.6309974682600871 1:0.105516 2:0.019185 3:0.045564 4:0.06235 5:0.033573 6:0.091127 7:0.009592 8:0.079137 9:0.064748 10:0.088729 11:0.019185 12:0.067146 13:0.045564 14:0.038369 15:0.045564 16:0.057554 17:0.035971 18:0.069544 19:0 20:0.021583 
-1 1:0.058824 2:0.022876 3:0.047386 4:0.078431 5:0.04902 6:0.058824 7:0.039216 8:0.04085 9:0.05719 10:0.114379 11:0.026144 12:0.035948 13:0.050654 14:0.039216 15:0.053922 16:0.062092 17:0.050654 18:0.05719 19:0.019608 20:0.037582 
