svm_type c_svc
kernel_type polynomial
degree 10
gamma 10
coef0 1
nr_class 2
total_sv 38
rho 1.63733
label 1 -1
nr_sv 11 27
SV
0.1796749709893391 1:0.075415 2:0.001508 3:0.082956 4:0.090498 5:0.043741 6:0.073906 7:0.00905 8:0.063348 9:0.087481 10:0.07994 11:0.015083 12:0.049774 13:0.034691 14:0.031674 15:0.039216 16:0.05279 17:0.060332 18:0.082956 19:0.001508 20:0.024133 
0.03808354167720072 1:0.103448 2:0.011494 3:0.086207 4:0.091954 5:0.057471 6:0.045977 7:0.021073 8:0.047893 9:0.06705 10:0.088123 11:0.017241 12:0.047893 13:0.042146 14:0.036398 15:0.01341 16:0.06705 17:0.028736 18:0.076628 19:0.007663 20:0.042146 
0.3823923860180545 1:0.071104 2:0.003026 3:0.081694 4:0.093797 5:0.033283 6:0.075643 7:0.009077 8:0.068079 9:0.104387 10:0.072617 11:0.016641 12:0.049924 13:0.033283 14:0.037821 15:0.039334 16:0.040847 17:0.065053 18:0.078669 19:0.003026 20:0.022693 
0.1428627279958669 1:0.066667 2:0.010753 3:0.027957 4:0.047312 5:0.055914 6:0.098925 7:0.019355 8:0.045161 9:0.032258 10:0.094624 11:0.017204 12:0.075269 13:0.055914 14:0.113978 15:0.045161 16:0.053763 17:0.049462 18:0.060215 19:0.012903 20:0.017204 
0.0740958276175924 1:0.065649 2:0.003053 3:0.076336 4:0.082443 5:0.036641 6:0.067176 7:0.00916 8:0.087023 9:0.096183 10:0.082443 11:0.012214 12:0.056489 13:0.038168 14:0.044275 15:0.036641 16:0.042748 17:0.058015 18:0.082443 19:0.001527 20:0.021374 
0.1564700429491016 1:0.070496 2:0.020888 3:0.044386 4:0.036554 5:0.049608 6:0.060052 7:0.052219 8:0.046997 9:0.044386 10:0.10705 11:0.015666 12:0.02611 13:0.062663 14:0.023499 15:0.052219 16:0.060052 17:0.046997 18:0.086162 19:0.02611 20:0.067885 
0.03999229357098068 1:0.047619 2:0.009524 3:0.07619 4:0.057143 5:0.085714 6:0.085714 7:0.019048 8:0.028571 9:0.07619 10:0.114286 11:0.009524 12:0.019048 13:0.047619 14:0.066667 15:0.038095 16:0.057143 17:0.047619 18:0.066667 19:0.019048 20:0.028571 
0.5933555297053225 1:0.056093 2:0.009671 3:0.065764 4:0.083172 5:0.052224 6:0.034816 7:0.029014 8:0.081238 9:0.058027 10:0.104449 11:0.01354 12:0.052224 13:0.052224 14:0.038685 15:0.027079 16:0.06383 17:0.056093 18:0.071567 19:0.005803 20:0.044487 
0.1201686917269102 1:0.081505 2:0.009404 3:0.089342 4:0.081505 5:0.050157 6:0.051724 7:0.017241 8:0.043887 9:0.105016 10:0.07837 11:0.010972 12:0.032915 13:0.057994 14:0.031348 15:0.029781 16:0.051724 17:0.050157 18:0.075235 19:0.010972 20:0.040752 
0.1051519046379996 1:0.076389 2:0 3:0.072917 4:0.104167 5:0.017361 6:0.083333 7:0.013889 8:0.072917 9:0.076389 10:0.059028 11:0.013889 12:0.055556 13:0.048611 14:0.052083 15:0.027778 16:0.059028 17:0.052083 18:0.090278 19:0.003472 20:0.020833 
0.2396182317354477 1:0.048128 2:0.016043 3:0.037433 4:0.069519 5:0.053476 6:0.053476 7:0.058824 8:0.069519 9:0.037433 10:0.074866 11:0.02139 12:0.037433 13:0.069519 14:0.042781 15:0.037433 16:0.074866 17:0.064171 18:0.069519 19:0.026738 20:0.037433 
-0.1736848671072147 1:0.056202 2:0.003876 3:0.065891 4:0.065891 5:0.040698 6:0.044574 7:0.01938 8:0.062016 9:0.065891 10:0.127907 11:0.00969 12:0.04845 13:0.042636 14:0.04845 15:0.036822 16:0.075581 17:0.075581 18:0.073643 19:0.005814 20:0.031008 
-0.2064375542506269 1:0.066445 2:0.018272 3:0.068106 4:0.069767 5:0.051495 6:0.056478 7:0.023256 8:0.066445 9:0.076412 10:0.081395 11:0.023256 12:0.048173 13:0.063123 14:0.033223 15:0.031561 16:0.068106 17:0.063123 18:0.068106 19:0.003322 20:0.019934 
-0.1472832402120455 1:0.085526 2:0 3:0.105263 4:0.138158 5:0.026316 6:0.052632 7:0.019737 8:0.052632 9:0.111842 10:0.039474 11:0.013158 12:0.059211 13:0.032895 14:0.019737 15:0.019737 16:0.039474 17:0.039474 18:0.111842 19:0.006579 20:0.026316 
-0.001811532204423358 1:0.108333 2:0.008333 3:0.075 4:0.083333 5:0.075 6:0.041667 7:0.016667 8:0.05 9:0.091667 10:0.125 11:0.008333 12:0.075 13:0.041667 14:0.016667 15:0.041667 16:0.016667 17:0.066667 18:0.033333 19:0.008333 20:0.016667 
-0.03083910119907528 1:0.020668 2:0.009539 3:0.054054 4:0.062003 5:0.062003 6:0.020668 7:0.014308 8:0.084261 9:0.08903 10:0.109698 11:0.015898 12:0.085851 13:0.038156 14:0.039746 15:0.034976 16:0.054054 17:0.077901 18:0.055644 19:0.025437 20:0.046105 
-0.005198655999381509 1:0.11194 2:0.003731 3:0.033582 4:0.037313 5:0.026119 6:0.097015 7:0.011194 8:0.014925 9:0.052239 10:0.074627 11:0.007463 12:0.014925 13:0.197761 14:0.041045 15:0.05597 16:0.059701 17:0.05597 18:0.044776 19:0.014925 20:0.044776 
-0.06267564345443812 1:0.059829 2:0.008547 3:0.051282 4:0.094017 5:0.059829 6:0.042735 7:0.025641 8:0.102564 9:0.094017 10:0.102564 11:0.008547 12:0.051282 13:0.068376 14:0.042735 15:0.025641 16:0.042735 17:0.068376 18:0.034188 19:0 20:0.017094 
-0.08873997904631072 1:0.057522 2:0.017699 3:0.084071 4:0.053097 5:0.048673 6:0.061947 7:0.013274 8:0.070796 9:0.053097 10:0.079646 11:0.00885 12:0.053097 13:0.053097 14:0.035398 15:0.066372 16:0.048673 17:0.070796 18:0.084071 19:0.004425 20:0.035398 
-0.2722412014313467 1:0.06156 2:0.01368 3:0.069767 4:0.079343 5:0.060192 6:0.051984 7:0.024624 8:0.069767 9:0.086183 10:0.088919 11:0.021888 12:0.032832 13:0.042408 14:0.05472 15:0.036936 16:0.073871 17:0.043776 18:0.064295 19:0.005472 20:0.017784 
-0.05737207645951205 1:0.02924 2:0.023392 3:0.052632 4:0.052632 5:0.064327 6:0.081871 7:0.023392 8:0.087719 9:0.076023 10:0.070175 11:0.023392 12:0.02924 13:0.046784 14:0.040936 15:0.035088 16:0.087719 17:0.046784 18:0.093567 19:0 20:0.035088 
-0.003934222515035884 1:0.093023 2:0.009967 3:0.013289 4:0.069767 5:0.026578 6:0.039867 7:0.003322 8:0.056478 9:0.059801 10:0.093023 11:0.009967 12:0.046512 13:0.10299 14:0.089701 15:0.043189 16:0.07309 17:0.079734 18:0.069767 19:0.009967 20:0.009967 
-0.001290354376661993 1:0.103839 2:0.008811 3:0.020138 4:0.024544 5:0.013845 6:0.071114 7:0.01888 8:0.039018 9:0.038389 10:0.064821 11:0.020768 12:0.038389 13:0.066079 14:0.181246 15:0.01825 16:0.095028 17:0.108244 18:0.061045 19:0.001888 20:0.005664 
-0.06874708773088198 1:0.032258 2:0 3:0.064516 4:0.107527 5:0.032258 6:0.064516 7:0.021505 8:0.086022 9:0.053763 10:0.129032 11:0.032258 12:0.064516 13:0.053763 14:0.032258 15:0.032258 16:0.043011 17:0.043011 18:0.096774 19:0.010753 20:0 
-0.02092885432900619 1:0.056367 2:0.014614 3:0.05428 4:0.066806 5:0.050104 6:0.025052 7:0.016701 8:0.08977 9:0.064718 10:0.114823 11:0.014614 12:0.058455 13:0.043841 14:0.041754 15:0.039666 16:0.077244 17:0.06263 18:0.045929 19:0.010438 20:0.052192 
-0.02354177399321796 1:0.133758 2:0 3:0.070064 4:0.070064 5:0.038217 6:0.063694 7:0.025478 8:0.038217 9:0.11465 10:0.089172 11:0.019108 12:0.057325 13:0.038217 14:0.082803 15:0.012739 16:0.044586 17:0.031847 18:0.063694 19:0 20:0.006369 
-0.01033583144125373 1:0.068702 2:0.007634 3:0.160305 4:0.091603 5:0.007634 6:0.076336 7:0.007634 8:0.10687 9:0.061069 10:0.053435 11:0.045802 12:0.030534 13:0.045802 14:0.030534 15:0.045802 16:0.022901 17:0.038168 18:0.053435 19:0.007634 20:0.038168 
-0.006380105810220504 1:0.067961 2:0.012136 3:0.104369 4:0.123786 5:0.029126 6:0.065534 7:0.004854 8:0.029126 9:0.140777 10:0.053398 11:0.024272 12:0.043689 13:0.06068 14:0.048544 15:0.01699 16:0.055825 17:0.026699 18:0.072816 19:0.004854 20:0.014563 
-0.03385477557970265 1:0.081169 2:0.006494 3:0.084416 4:0.107143 5:0.019481 6:0.061688 7:0.006494 8:0.055195 9:0.103896 10:0.038961 11:0.019481 12:0.029221 13:0.051948 14:0.032468 15:0.035714 16:0.081169 17:0.097403 18:0.048701 19:0.006494 20:0.032468 
-0.1844661898982393 1:0.053738 2:0.028037 3:0.077103 4:0.063084 5:0.058411 6:0.074766 7:0.044393 8:0.051402 9:0.035047 10:0.081776 11:0.018692 12:0.049065 13:0.049065 14:0.03972 15:0.042056 16:0.051402 17:0.042056 18:0.067757 19:0.004673 20:0.067757 
-0.1303027518440979 1:0.096774 2:0 3:0.050179 4:0.053763 5:0.043011 6:0.09319 7:0.043011 8:0.071685 9:0.035842 10:0.053763 11:0.017921 12:0.064516 13:0.032258 14:0.071685 15:0.02509 16:0.060932 17:0.0681 18:0.071685 19:0.003584 20:0.043011 
-0.0371864472223537 1:0.045326 2:0.01983 3:0.069405 4:0.075071 5:0.03966 6:0.062323 7:0.028329 8:0.077904 9:0.062323 10:0.082153 11:0.022663 12:0.053824 13:0.050992 14:0.026912 15:0.045326 16:0.073654 17:0.042493 18:0.069405 19:0.014164 20:0.038244 
-0.008868764468195827 1:0.103448 2:0.017241 3:0.034483 4:0.034483 5:0.045977 6:0.022989 7:0.017241 8:0.063218 9:0.068966 10:0.103448 11:0.045977 12:0.022989 13:0.034483 14:0.04023 15:0.051724 16:0.08046 17:0.04023 18:0.114943 19:0.034483 20:0.022989 
-0.00148475195120551 1:0.047445 2:0.018248 3:0.109489 4:0.072993 5:0.062044 6:0.040146 7:0.010949 8:0.069343 9:0.10219 10:0.113139 11:0.014599 12:0.072993 13:0.018248 14:0.007299 15:0.021898 16:0.10219 17:0.032847 18:0.072993 19:0 20:0.010949 
-0.007651912590370477 1:0.06383 2:0.021277 3:0.021277 4:0.055319 5:0.029787 6:0.06383 7:0.046809 8:0.021277 9:0.059574 10:0.059574 11:0.021277 12:0.038298 13:0.102128 14:0.085106 15:0.059574 16:0.097872 17:0.038298 18:0.046809 19:0.017021 20:0.051064 
-0.002735175916832369 1:0.098592 2:0.002012 3:0.028169 4:0.046278 5:0.022133 6:0.06841 7:0.062374 8:0.028169 9:0.032193 10:0.078471 11:0.04829 12:0.030181 13:0.169014 14:0.096579 15:0.038229 16:0.070423 17:0.034205 18:0.030181 19:0.004024 20:0.012072 
-0.2452551870929035 1:0.074074 2:0 3:0.051852 4:0.088889 5:0.022222 6:0.059259 7:0.022222 8:0.074074 9:0.096296 10:0.096296 11:0.014815 12:0.051852 13:0.044444 14:0.044444 15:0.037037 16:0.022222 17:0.066667 18:0.066667 19:0.007407 20:0.059259 
-0.238618110499261 1:0.064914 2:0.015612 3:0.054232 4:0.076417 5:0.046836 6:0.072309 7:0.021364 8:0.055053 9:0.042728 10:0.099425 11:0.021364 12:0.046015 13:0.050123 14:0.039441 15:0.052588 16:0.060805 17:0.05834 18:0.083813 19:0.007395 20:0.031224 
