svm_type c_svc
kernel_type polynomial
degree 10
gamma 10
coef0 1
nr_class 2
total_sv 73
rho 0.678125
label 1 -1
nr_sv 38 35
SV
0.2606252935079861 1:0.067797 2:0 3:0.055085 4:0.067797 5:0.042373 6:0.042373 7:0.016949 8:0.084746 9:0.080508 10:0.097458 11:0.025424 12:0.072034 13:0.025424 14:0.021186 15:0.038136 16:0.084746 17:0.055085 18:0.067797 19:0.004237 20:0.050847 
0.1315562775091313 1:0.08776 2:0.013857 3:0.057737 4:0.071594 5:0.053118 6:0.076212 7:0.018476 8:0.073903 9:0.080831 10:0.078522 11:0.020785 12:0.034642 13:0.034642 14:0.018476 15:0.039261 16:0.053118 17:0.073903 18:0.057737 19:0.018476 20:0.036952 
0.1262801711020978 1:0.074324 2:0.054054 3:0.054054 4:0.067568 5:0.047297 6:0.047297 7:0.02027 8:0.033784 9:0.081081 10:0.060811 11:0.033784 12:0.02027 13:0.047297 14:0.040541 15:0.060811 16:0.094595 17:0.060811 18:0.060811 19:0.006757 20:0.033784 
0.1372037281399021 1:0.052452 2:0.009122 3:0.061574 4:0.078677 5:0.038769 6:0.053592 7:0.013683 8:0.08894 9:0.058153 10:0.125428 11:0.014823 12:0.063854 13:0.026226 14:0.050171 15:0.053592 16:0.055872 17:0.051311 18:0.052452 19:0.007982 20:0.04333 
0.1423376700779042 1:0.073892 2:0.014778 3:0.064039 4:0.073892 5:0.024631 6:0.078818 7:0.014778 8:0.08867 9:0.044335 10:0.083744 11:0.054187 12:0.034483 13:0.044335 14:0.034483 15:0.044335 16:0.049261 17:0.029557 18:0.08867 19:0.009852 20:0.049261 
1 1:0.080235 2:0.015656 3:0.048924 4:0.066536 5:0.039139 6:0.072407 7:0.035225 8:0.041096 9:0.046967 10:0.107632 11:0.031311 12:0.039139 13:0.050881 14:0.041096 15:0.068493 16:0.068493 17:0.054795 18:0.062622 19:0.011742 20:0.017613 
0.841772993498483 1:0.066298 2:0.027624 3:0.033149 4:0.055249 5:0.049724 6:0.060773 7:0.022099 8:0.060773 9:0.071823 10:0.071823 11:0.027624 12:0.044199 13:0.071823 14:0.027624 15:0.038674 16:0.088398 17:0.049724 18:0.066298 19:0.022099 20:0.044199 
0.1863392517517118 1:0.072464 2:0.021739 3:0.050725 4:0.057971 5:0.050725 6:0.043478 7:0.014493 8:0.057971 9:0.065217 10:0.072464 11:0.014493 12:0.057971 13:0.057971 14:0.050725 15:0.057971 16:0.065217 17:0.043478 18:0.065217 19:0.021739 20:0.057971 
1 1:0.060827 2:0.019465 3:0.053528 4:0.065693 5:0.043796 6:0.053528 7:0.012165 8:0.053528 9:0.058394 10:0.099757 11:0.012165 12:0.053528 13:0.055961 14:0.038929 15:0.053528 16:0.082725 17:0.065693 18:0.068127 19:0.014599 20:0.034063 
0.09788704150331128 1:0.086331 2:0.014388 3:0.05036 4:0.079137 5:0.035971 6:0.064748 7:0.014388 8:0.057554 9:0.028777 10:0.079137 11:0.014388 12:0.035971 13:0.057554 14:0.028777 15:0.086331 16:0.079137 17:0.043165 18:0.05036 19:0.028777 20:0.064748 
0.04409342081071699 1:0.091892 2:0.005405 3:0.048649 4:0.043243 5:0.032432 6:0.032432 7:0.010811 8:0.108108 9:0.097297 10:0.124324 11:0.021622 12:0.048649 13:0.016216 14:0.054054 15:0.016216 16:0.102703 17:0.086486 18:0.043243 19:0 20:0.016216 
0.3763569517041066 1:0.067797 2:0 3:0.061017 4:0.050847 5:0.037288 6:0.061017 7:0.016949 8:0.064407 9:0.064407 10:0.111864 11:0.037288 12:0.037288 13:0.033898 14:0.077966 15:0.071186 16:0.040678 17:0.067797 18:0.057627 19:0 20:0.040678 
0.239659499595659 1:0.079077 2:0.018122 3:0.052718 4:0.057661 5:0.041186 6:0.087315 7:0.023064 8:0.054366 9:0.07084 10:0.093904 11:0.024712 12:0.034596 13:0.047776 14:0.024712 15:0.037891 16:0.057661 17:0.060956 18:0.087315 19:0.01318 20:0.032949 
0.1705797658560582 1:0.045872 2:0.018349 3:0.06422 4:0.036697 5:0.027523 6:0.036697 7:0.027523 8:0.100917 9:0.082569 10:0.06422 11:0.027523 12:0.045872 13:0.055046 14:0.036697 15:0.027523 16:0.06422 17:0.091743 18:0.110092 19:0.018349 20:0.018349 
0.65911495528254 1:0.065375 2:0.009685 3:0.062954 4:0.050847 5:0.046005 6:0.09201 7:0.004843 8:0.062954 9:0.062954 10:0.075061 11:0.03632 12:0.065375 13:0.046005 14:0.033898 15:0.053269 16:0.048426 17:0.067797 18:0.075061 19:0.009685 20:0.031477 
1 1:0.069767 2:0.02907 3:0.065891 4:0.050388 5:0.042636 6:0.075581 7:0.021318 8:0.077519 9:0.05814 10:0.079457 11:0.023256 12:0.046512 13:0.03876 14:0.03876 15:0.04845 16:0.079457 17:0.056202 18:0.05814 19:0.005814 20:0.034884 
0.3234925825966681 1:0.059406 2:0.009901 3:0.049505 4:0.044554 5:0.044554 6:0.056931 7:0.066832 8:0.044554 9:0.049505 10:0.108911 11:0.022277 12:0.042079 13:0.079208 14:0.014851 15:0.044554 16:0.066832 17:0.042079 18:0.066832 19:0.037129 20:0.049505 
1 1:0.075107 2:0.008584 3:0.055794 4:0.066524 5:0.049356 6:0.055794 7:0.012876 8:0.060086 9:0.05794 10:0.096567 11:0.025751 12:0.034335 13:0.053648 14:0.040773 15:0.049356 16:0.092275 17:0.040773 18:0.079399 19:0.008584 20:0.036481 
0.03390613930982967 1:0.138889 2:0 3:0.027778 4:0 5:0.027778 6:0.027778 7:0 8:0.083333 9:0.027778 10:0.138889 11:0.055556 12:0.027778 13:0.027778 14:0.055556 15:0.083333 16:0.083333 17:0.027778 18:0.111111 19:0.027778 20:0.027778 
0.05876443896119187 1:0.056338 2:0 3:0.014085 4:0.112676 5:0.042254 6:0.056338 7:0 8:0.084507 9:0.056338 10:0.042254 11:0.014085 12:0.084507 13:0.014085 14:0.028169 15:0.070423 16:0.098592 17:0.070423 18:0.098592 19:0.014085 20:0.042254 
0.006415665883532946 1:0.082353 2:0.023529 3:0.047059 4:0.082353 5:0.035294 6:0.082353 7:0.011765 8:0.070588 9:0.070588 10:0.035294 11:0.035294 12:0.129412 13:0.023529 14:0.035294 15:0.011765 16:0.070588 17:0.058824 18:0.070588 19:0.011765 20:0.011765 
0.6119730771005267 1:0.101215 2:0.02834 3:0.044534 4:0.032389 5:0.040486 6:0.089069 7:0.020243 8:0.040486 9:0.044534 10:0.11336 11:0.024291 12:0.048583 13:0.064777 14:0.02834 15:0.032389 16:0.072874 17:0.076923 18:0.064777 19:0.016194 20:0.016194 
0.1606517541809576 1:0.066667 2:0.005556 3:0.022222 4:0.088889 5:0.038889 6:0.055556 7:0.016667 8:0.072222 9:0.055556 10:0.127778 11:0.022222 12:0.077778 13:0.005556 14:0.055556 15:0.077778 16:0.061111 17:0.061111 18:0.061111 19:0.005556 20:0.022222 
0.2267815869178057 1:0.131105 2:0.025707 3:0.046272 4:0.059126 5:0.046272 6:0.084833 7:0.015424 8:0.046272 9:0.059126 10:0.069409 11:0.03856 12:0.020566 13:0.043702 14:0.020566 15:0.056555 16:0.056555 17:0.066838 18:0.084833 19:0.005141 20:0.023136 
0.06105765995811428 1:0.106227 2:0 3:0.03663 4:0.043956 5:0.054945 6:0.120879 7:0.010989 8:0.051282 9:0.054945 10:0.113553 11:0.025641 12:0.03663 13:0.062271 14:0.043956 15:0.03663 16:0.069597 17:0.040293 18:0.040293 19:0.018315 20:0.032967 
0.399580661321792 1:0.069767 2:0.023256 3:0.05168 4:0.067183 5:0.041344 6:0.087855 7:0.01292 8:0.049096 9:0.069767 10:0.105943 11:0.023256 12:0.033592 13:0.03876 14:0.023256 15:0.03876 16:0.085271 17:0.069767 18:0.072351 19:0.005168 20:0.031008 
0.2716646805399291 1:0.074074 2:0.031746 3:0.042328 4:0.047619 5:0.058201 6:0.058201 7:0.005291 8:0.058201 9:0.05291 10:0.074074 11:0.031746 12:0.042328 13:0.058201 14:0.042328 15:0.042328 16:0.111111 17:0.037037 18:0.074074 19:0.021164 20:0.037037 
0.264877714374996 1:0.063291 2:0 3:0.050633 4:0.07173 5:0.054852 6:0.029536 7:0.012658 8:0.084388 9:0.097046 10:0.105485 11:0.050633 12:0.067511 13:0.021097 14:0.037975 15:0.037975 16:0.080169 17:0.033755 18:0.042194 19:0.004219 20:0.054852 
0.1727251365358924 1:0.068592 2:0.00361 3:0.054152 4:0.036101 5:0.036101 6:0.072202 7:0.043321 8:0.043321 9:0.072202 10:0.104693 11:0.01444 12:0.061372 13:0.025271 14:0.021661 15:0.021661 16:0.108303 17:0.093863 18:0.083032 19:0.00361 20:0.032491 
0.2344445286882897 1:0.069136 2:0.012346 3:0.061728 4:0.051852 5:0.066667 6:0.071605 7:0.02716 8:0.054321 9:0.066667 10:0.079012 11:0.009877 12:0.041975 13:0.061728 14:0.032099 15:0.041975 16:0.116049 17:0.044444 18:0.05679 19:0.009877 20:0.024691 
0.2007166619011317 1:0.092896 2:0.032787 3:0.054645 4:0.032787 5:0.054645 6:0.032787 7:0.005464 8:0.038251 9:0.04918 10:0.054645 11:0.043716 12:0.071038 13:0.065574 14:0.060109 15:0.054645 16:0.065574 17:0.065574 18:0.065574 19:0.021858 20:0.038251 
0.09670374922622552 1:0.092683 2:0.014634 3:0.039024 4:0.068293 5:0.04878 6:0.141463 7:0.009756 8:0.034146 9:0.039024 10:0.102439 11:0.019512 12:0.029268 13:0.068293 14:0.04878 15:0.039024 16:0.04878 17:0.039024 18:0.058537 19:0.02439 20:0.034146 
0.1441054782950268 1:0.062602 2:0.012195 3:0.064228 4:0.079675 5:0.045528 6:0.066667 7:0.030894 8:0.052033 9:0.070732 10:0.080488 11:0.01626 12:0.047967 13:0.043089 14:0.034146 15:0.052033 16:0.074797 17:0.04878 18:0.070732 19:0.019512 20:0.027642 
0.2384167459952647 1:0.056911 2:0.01355 3:0.059621 4:0.084011 5:0.02981 6:0.051491 7:0.0271 8:0.059621 9:0.062331 10:0.078591 11:0.01355 12:0.03794 13:0.03252 14:0.03523 15:0.084011 16:0.075881 17:0.075881 18:0.073171 19:0.02168 20:0.0271 
0.2105989707138499 1:0.083333 2:0.038889 3:0.033333 4:0.044444 5:0.038889 6:0.072222 7:0.005556 8:0.038889 9:0.066667 10:0.061111 11:0.027778 12:0.022222 13:0.044444 14:0.061111 15:0.033333 16:0.094444 17:0.077778 18:0.083333 19:0.027778 20:0.044444 
0.5586932287922102 1:0.067164 2:0.027363 3:0.054726 4:0.059701 5:0.032338 6:0.09204 7:0.007463 8:0.059701 9:0.052239 10:0.094527 11:0.012438 12:0.042289 13:0.037313 14:0.052239 15:0.042289 16:0.084577 17:0.052239 18:0.077114 19:0.007463 20:0.044776 
0.2676698173979871 1:0.094708 2:0.008357 3:0.052925 4:0.086351 5:0.058496 6:0.089136 7:0.019499 8:0.069638 9:0.052925 10:0.075209 11:0.022284 12:0.05571 13:0.027855 14:0.02507 15:0.027855 16:0.064067 17:0.050139 18:0.083565 19:0.002786 20:0.033426 
0.5420833875209152 1:0.109051 2:0.017448 3:0.056707 4:0.050164 5:0.033806 6:0.070883 7:0.02072 8:0.057797 9:0.04253 10:0.091603 11:0.022901 12:0.035987 13:0.039258 14:0.037077 15:0.057797 16:0.087241 17:0.050164 18:0.081788 19:0.011996 20:0.025082 
-0.3570448210779618 1:0.096443 2:0.028458 3:0.042688 4:0.06166 5:0.045059 6:0.075099 7:0.03004 8:0.04585 9:0.039526 10:0.100395 11:0.028458 12:0.041897 13:0.040316 14:0.051383 15:0.066403 16:0.057708 17:0.037945 18:0.07668 19:0.008696 20:0.025296 
-0.1163715414473065 1:0.107001 2:0.021136 3:0.046235 4:0.046235 5:0.046235 6:0.114927 7:0.023778 8:0.047556 9:0.029062 10:0.080581 11:0.018494 12:0.025099 13:0.128137 14:0.023778 15:0.05284 16:0.048877 17:0.046235 18:0.050198 19:0.015852 20:0.027741 
-0.1301166308339179 1:0.066132 2:0.036072 3:0.056112 4:0.046092 5:0.044088 6:0.058116 7:0.026052 8:0.0501 9:0.04008 10:0.118236 11:0.026052 12:0.032064 13:0.056112 14:0.034068 15:0.044088 16:0.074148 17:0.046092 18:0.086172 19:0.024048 20:0.036072 
-0.05123223805202058 1:0.088757 2:0.017751 3:0.043393 4:0.051282 5:0.051282 6:0.057199 7:0.017751 8:0.061144 9:0.043393 10:0.118343 11:0.029586 12:0.04142 13:0.061144 14:0.033531 15:0.045365 16:0.08284 17:0.04931 18:0.061144 19:0.015779 20:0.029586 
-0.07564697657188131 1:0.091603 2:0 3:0.045802 4:0.083969 5:0.022901 6:0.076336 7:0.007634 8:0.114504 9:0.083969 10:0.068702 11:0.030534 12:0.038168 13:0.076336 14:0.007634 15:0.038168 16:0.030534 17:0.030534 18:0.122137 19:0 20:0.030534 
-0.1536497304000582 1:0.065401 2:0.008439 3:0.061181 4:0.033755 5:0.048523 6:0.046414 7:0.012658 8:0.07173 9:0.052743 10:0.097046 11:0.040084 12:0.050633 13:0.042194 14:0.025316 15:0.06962 16:0.061181 17:0.065401 18:0.075949 19:0.018987 20:0.052743 
-0.0032340406081237 1:0.038869 2:0.010601 3:0.028269 4:0.113074 5:0.053004 6:0.028269 7:0.031802 8:0.091873 9:0.102473 10:0.102473 11:0.021201 12:0.028269 13:0.021201 14:0.045936 15:0.084806 16:0.053004 17:0.028269 18:0.060071 19:0.007067 20:0.04947 
-1 1:0.077083 2:0.014583 3:0.053125 4:0.042708 5:0.048958 6:0.079167 7:0.023958 8:0.045833 9:0.055208 10:0.103125 11:0.021875 12:0.040625 13:0.057292 14:0.029167 15:0.05 16:0.077083 17:0.05 18:0.065625 19:0.015625 20:0.048958 
-1 1:0.068433 2:0.015453 3:0.048565 4:0.059603 5:0.055188 6:0.081678 7:0.013245 8:0.065121 9:0.060706 10:0.080574 11:0.027594 12:0.045254 13:0.03532 14:0.04415 15:0.049669 16:0.077263 17:0.050773 18:0.066225 19:0.016556 20:0.038631 
-0.6413538187576018 1:0.059016 2:0.005738 3:0.052459 4:0.059836 5:0.039344 6:0.059836 7:0.016393 8:0.063934 9:0.064754 10:0.10082 11:0.019672 12:0.065574 13:0.040164 14:0.031148 15:0.046721 16:0.109836 17:0.077049 18:0.059016 19:0.004098 20:0.02459 
-0.02040148882715933 1:0.040724 2:0.037707 3:0.054299 4:0.063348 5:0.036199 6:0.051282 7:0.016591 8:0.06184 9:0.06184 10:0.110106 11:0.019608 12:0.063348 13:0.040724 14:0.040724 15:0.039216 16:0.075415 17:0.064857 18:0.05279 19:0.022624 20:0.046757 
-0.3269047854378096 1:0.094563 2:0.030733 3:0.044917 4:0.040189 5:0.044917 6:0.052009 7:0.016548 8:0.082742 9:0.049645 10:0.106383 11:0.021277 12:0.049645 13:0.047281 14:0.016548 15:0.049645 16:0.085106 17:0.056738 18:0.054374 19:0.021277 20:0.035461 
-0.1239401154144812 1:0.076233 2:0.008969 3:0.052317 4:0.041854 5:0.047833 6:0.073244 7:0.026906 8:0.043348 9:0.043348 10:0.061286 11:0.032885 12:0.082212 13:0.050822 14:0.037369 15:0.043348 16:0.103139 17:0.064275 18:0.058296 19:0.014948 20:0.037369 
-1 1:0.057355 2:0.020243 3:0.062078 4:0.056005 5:0.047233 6:0.067476 7:0.027665 8:0.05803 9:0.061404 10:0.069501 11:0.027665 12:0.049933 13:0.048583 14:0.033063 15:0.048583 16:0.10054 17:0.047908 18:0.066802 19:0.012821 20:0.037112 
-0.06185427702805479 1:0.122378 2:0.02972 3:0.027972 4:0.045455 5:0.047203 6:0.11014 7:0.015734 8:0.026224 9:0.027972 10:0.094406 11:0.013986 12:0.015734 13:0.062937 14:0.017483 15:0.078671 16:0.085664 17:0.038462 18:0.103147 19:0.015734 20:0.020979 
-0.1740817286571522 1:0.045817 2:0.01992 3:0.052789 4:0.040837 5:0.042829 6:0.061753 7:0.023904 8:0.065737 9:0.050797 10:0.100598 11:0.023904 12:0.050797 13:0.064741 14:0.033865 15:0.044821 16:0.104582 17:0.052789 18:0.068725 19:0.01494 20:0.035857 
-1 1:0.072951 2:0.016393 3:0.053279 4:0.07459 5:0.039344 6:0.077869 7:0.013934 8:0.069672 9:0.061475 10:0.090984 11:0.02459 12:0.038525 13:0.048361 14:0.042623 15:0.046721 16:0.057377 17:0.063115 18:0.080328 19:0.009836 20:0.018033 
-0.02112392634286302 1:0.038596 2:0.002005 3:0.031579 4:0.036591 5:0.052632 6:0.035088 7:0.014035 8:0.062155 9:0.094737 10:0.112782 11:0.015539 12:0.084211 13:0.040602 14:0.05213 15:0.062657 16:0.078697 17:0.087719 18:0.042105 19:0.015038 20:0.041103 
-0.4502835458895024 1:0.083238 2:0.010262 3:0.052452 4:0.036488 5:0.047891 6:0.059293 7:0.023945 8:0.079818 9:0.04675 10:0.082098 11:0.014823 12:0.04333 13:0.063854 14:0.022805 15:0.04675 16:0.079818 17:0.059293 18:0.099202 19:0.009122 20:0.038769 
-0.0087771311778287 1:0.100592 2:0.02071 3:0.038462 4:0.04142 5:0.088757 6:0.050296 7:0.02071 8:0.04142 9:0.04142 10:0.076923 11:0.029586 12:0.059172 13:0.071006 14:0.050296 15:0.038462 16:0.068047 17:0.050296 18:0.068047 19:0.017751 20:0.026627 
-0.2172894756044062 1:0.086991 2:0.010188 3:0.04232 4:0.061912 5:0.051724 6:0.076019 7:0.01489 8:0.07837 9:0.061129 10:0.089342 11:0.026646 12:0.043887 13:0.022727 14:0.045455 15:0.043887 16:0.070533 17:0.054075 18:0.080721 19:0.010188 20:0.028997 
-0.6999829999400476 1:0.074919 2:0.016287 3:0.032573 4:0.039088 5:0.04886 6:0.084691 7:0.003257 8:0.065147 9:0.087948 10:0.074919 11:0.045603 12:0.045603 13:0.042345 14:0.032573 15:0.045603 16:0.065147 17:0.058632 18:0.084691 19:0.009772 20:0.042345 
-1 1:0.093697 2:0.017888 3:0.056218 4:0.043441 5:0.035775 6:0.087734 7:0.016184 8:0.043441 9:0.045145 10:0.096252 11:0.024702 12:0.030664 13:0.051959 14:0.041738 15:0.051107 16:0.082624 17:0.075809 18:0.07155 19:0.00937 20:0.024702 
-0.3335326352401816 1:0.118705 2:0.017986 3:0.052758 4:0.043165 5:0.027578 6:0.063549 7:0.017986 8:0.044365 9:0.034772 10:0.088729 11:0.021583 12:0.05036 13:0.047962 14:0.065947 15:0.043165 16:0.082734 17:0.080336 18:0.067146 19:0.010791 20:0.020384 
-0.5108411450551084 1:0.078261 2:0.010435 3:0.055652 4:0.071304 5:0.041739 6:0.06087 7:0.015652 8:0.052174 9:0.043478 10:0.121739 11:0.031304 12:0.029565 13:0.045217 14:0.041739 15:0.062609 16:0.053913 17:0.048696 18:0.066087 19:0.017391 20:0.052174 
-0.0003868818367739744 1:0.091205 2:0.021716 3:0.058632 4:0.068404 5:0.053203 6:0.096634 7:0.018458 8:0.051031 9:0.038002 10:0.103149 11:0.014115 12:0.021716 13:0.045603 14:0.024973 15:0.052117 16:0.053203 17:0.052117 18:0.091205 19:0.014115 20:0.030402 
-0.004552551301444201 1:0.221311 2:0 3:0 4:0.008197 5:0.02459 6:0.122951 7:0 8:0.07377 9:0.02459 10:0.081967 11:0.04918 12:0.008197 13:0.016393 14:0.008197 15:0.02459 16:0.139344 17:0.057377 18:0.131148 19:0 20:0.008197 
-0.004959890048683528 1:0.190909 2:0 3:0.022727 4:0.022727 5:0.059091 6:0.177273 7:0 8:0.095455 9:0.027273 10:0.122727 11:0.031818 12:0.013636 13:0.031818 14:0.027273 15:0.004545 16:0.036364 17:0.040909 18:0.081818 19:0.004545 20:0.009091 
-0.01704237495452413 1:0.079772 2:0.02849 3:0.039886 4:0.042735 5:0.019943 6:0.119658 7:0.034188 8:0.014245 9:0.019943 10:0.19943 11:0.008547 12:0.019943 13:0.088319 14:0.051282 15:0.039886 16:0.048433 17:0.037037 18:0.065527 19:0.022792 20:0.019943 
-0.1988123118560886 1:0.073052 2:0.006494 3:0.04789 4:0.076299 5:0.043831 6:0.073864 7:0.030844 8:0.038149 9:0.040584 10:0.12987 11:0.018669 12:0.012987 13:0.091721 14:0.027597 15:0.066558 16:0.077922 17:0.049513 18:0.068182 19:0.010552 20:0.015422 
-0.252628023129854 1:0.063158 2:0.010526 3:0.066316 4:0.083158 5:0.061053 6:0.042105 7:0.016842 8:0.065263 9:0.067368 10:0.098947 11:0.025263 12:0.046316 13:0.031579 14:0.037895 15:0.052632 16:0.076842 17:0.054737 18:0.052632 19:0.009474 20:0.037895 
-0.000928281175821826 1:0.074257 2:0.089109 3:0.024752 4:0.049505 5:0.049505 6:0.123762 7:0.024752 8:0.074257 9:0.019802 10:0.143564 11:0.014851 12:0.034653 13:0.019802 14:0.034653 15:0.014851 16:0.069307 17:0.029703 18:0.054455 19:0.019802 20:0.034653 
-0.779994552489593 1:0.069272 2:0.017762 3:0.071048 4:0.095915 5:0.042629 6:0.053286 7:0.008881 8:0.042629 9:0.072824 10:0.087034 11:0.023091 12:0.058615 13:0.031972 14:0.05151 15:0.044405 16:0.053286 17:0.058615 18:0.081705 19:0.012433 20:0.023091 
-1 1:0.077739 2:0.038869 3:0.048292 4:0.070671 5:0.038869 6:0.054181 7:0.03298 8:0.04947 9:0.060071 10:0.078916 11:0.024735 12:0.045936 13:0.040047 14:0.041225 15:0.051826 16:0.083628 17:0.058893 18:0.048292 19:0.010601 20:0.044759 
-0.7621627673954959 1:0.05042 2:0.019608 3:0.043417 4:0.067227 5:0.044818 6:0.042017 7:0.02381 8:0.088235 9:0.084034 10:0.09944 11:0.018908 12:0.060924 13:0.042717 14:0.035014 15:0.036415 16:0.084034 17:0.04972 18:0.062325 19:0.009804 20:0.037115 
