svm_type c_svc
kernel_type polynomial
degree 10
gamma 10
coef0 1
nr_class 2
total_sv 26
rho -3.91995
label 1 -1
nr_sv 21 5
SV
0.04124146100051396 1:0.089514 2:0.01023 3:0.079284 4:0.015345 5:0.040921 6:0.086957 7:0.005115 8:0.076726 9:0.066496 10:0.079284 11:0.002558 12:0.061381 13:0.043478 14:0.048593 15:0.015345 16:0.084399 17:0.079284 18:0.069054 19:0.002558 20:0.043478 
9.374992629135707e-05 1:0.147826 2:0.017391 3:0.052174 4:0.034783 5:0.034783 6:0.108696 7:0.004348 8:0.056522 9:0.030435 10:0.1 11:0.008696 12:0.047826 13:0.047826 14:0.030435 15:0.065217 16:0.065217 17:0.078261 18:0.03913 19:0.004348 20:0.026087 
0.09609872499431872 1:0.080605 2:0.010076 3:0.078086 4:0.027708 5:0.050378 6:0.110831 7:0.015113 8:0.060453 9:0.040302 10:0.06801 11:0.017632 12:0.06801 13:0.030227 14:0.037783 15:0.012594 16:0.11335 17:0.065491 18:0.060453 19:0.007557 20:0.04534 
0.1058584150925196 1:0.050228 2:0.009132 3:0.057078 4:0.045662 5:0.059361 6:0.089041 7:0.027397 8:0.047945 9:0.041096 10:0.084475 11:0.006849 12:0.086758 13:0.041096 14:0.059361 15:0.031963 16:0.059361 17:0.045662 18:0.070776 19:0.045662 20:0.041096 
0.09270578098238318 1:0.05668 2:0.008097 3:0.068826 4:0.048583 5:0.044534 6:0.137652 7:0.032389 8:0.024291 9:0.052632 10:0.093117 11:0.020243 12:0.040486 13:0.068826 14:0.032389 15:0.02834 16:0.036437 17:0.072874 18:0.068826 19:0.008097 20:0.05668 
0.033296551593248 1:0.032258 2:0.03871 3:0.032258 4:0.051613 5:0.012903 6:0.03871 7:0.045161 8:0.064516 9:0.03871 10:0.090323 11:0.019355 12:0.103226 13:0.090323 14:0.012903 15:0.070968 16:0.077419 17:0.058065 18:0.083871 19:0.012903 20:0.025806 
0.006342285899467792 1:0.1 2:0.021053 3:0.094737 4:0.078947 5:0.042105 6:0.052632 7:0.005263 8:0.026316 9:0.052632 10:0.063158 11:0.031579 12:0.094737 13:0.021053 14:0.031579 15:0.021053 16:0.031579 17:0.063158 18:0.089474 19:0.021053 20:0.057895 
0.07251089519701444 1:0.080268 2:0.0301 3:0.083612 4:0.040134 5:0.056856 6:0.070234 7:0.043478 8:0.0301 9:0.036789 10:0.073579 11:0.003344 12:0.050167 13:0.020067 14:0.0301 15:0.033445 16:0.123746 17:0.06689 18:0.056856 19:0.020067 20:0.050167 
0.08452442051817599 1:0.059633 2:0.009174 3:0.057339 4:0.059633 5:0.059633 6:0.073394 7:0.022936 8:0.066514 9:0.059633 10:0.100917 11:0.018349 12:0.038991 13:0.050459 14:0.052752 15:0.034404 16:0.087156 17:0.050459 18:0.043578 19:0.018349 20:0.036697 
0.0448006757499119 1:0.113475 2:0.002364 3:0.073286 4:0.016548 5:0.037825 6:0.089835 7:0.014184 8:0.044917 9:0.06383 10:0.082742 11:0.018913 12:0.073286 13:0.037825 14:0.028369 15:0.026005 16:0.082742 17:0.059102 18:0.049645 19:0.021277 20:0.06383 
0.001526640632765293 1:0.077348 2:0.005525 3:0.027624 4:0.044199 5:0.027624 6:0.01105 7:0.005525 8:0.066298 9:0.01105 10:0.071823 11:0.038674 12:0.088398 13:0.132597 14:0.033149 15:0.038674 16:0.082873 17:0.088398 18:0.088398 19:0.005525 20:0.055249 
0.02714337472732352 1:0.048035 2:0.026201 3:0.052402 4:0.078603 5:0.034934 6:0.061135 7:0.043668 8:0.061135 9:0.048035 10:0.148472 11:0.0131 12:0.056769 13:0.021834 14:0.039301 15:0.052402 16:0.087336 17:0.039301 18:0.056769 19:0.0131 20:0.017467 
0.004781450072699372 1:0.046632 2:0.024611 3:0.068653 4:0.05829 5:0.050518 6:0.064767 7:0.044041 8:0.051813 9:0.056995 10:0.073834 11:0.023316 12:0.049223 13:0.049223 14:0.03886 15:0.067358 16:0.067358 17:0.055699 18:0.055699 19:0.016839 20:0.036269 
0.07885935194130286 1:0.066502 2:0.007389 3:0.044335 4:0.041872 5:0.061576 6:0.059113 7:0.03202 8:0.051724 9:0.044335 10:0.133005 11:0.03202 12:0.051724 13:0.034483 14:0.041872 15:0.029557 16:0.091133 17:0.068966 18:0.064039 19:0.014778 20:0.029557 
0.05810717489439245 1:0.074074 2:0.014815 3:0.066667 4:0.051852 5:0.037037 6:0.051852 7:0.022222 8:0.037037 9:0.096296 10:0.074074 11:0.02963 12:0.074074 13:0.014815 14:0.037037 15:0.051852 16:0.051852 17:0.066667 18:0.044444 19:0.014815 20:0.088889 
0.2864392522087476 1:0.08 2:0.0075 3:0.06 4:0.0825 5:0.06 6:0.0575 7:0.025 8:0.07 9:0.0725 10:0.11 11:0.0175 12:0.0375 13:0.0525 14:0.03 15:0.0325 16:0.06 17:0.05 18:0.0675 19:0.005 20:0.0225 
0.004990635148903959 1:0.121951 2:0 3:0.04878 4:0.089431 5:0.03252 6:0.081301 7:0.03252 8:0.01626 9:0.04065 10:0.178862 11:0.00813 12:0.02439 13:0.065041 14:0.00813 15:0.073171 16:0.089431 17:0.04065 18:0.03252 19:0.00813 20:0.00813 
0.007637039569447398 1:0.064748 2:0.002398 3:0.05036 4:0.059952 5:0.045564 6:0.052758 7:0.019185 8:0.045564 9:0.055156 10:0.136691 11:0.019185 12:0.031175 13:0.064748 14:0.035971 15:0.05036 16:0.103118 17:0.067146 18:0.064748 19:0.009592 20:0.021583 
0.06785111982989017 1:0.090452 2:0.002513 3:0.047739 4:0.082915 5:0.027638 6:0.070352 7:0.015075 8:0.050251 9:0.067839 10:0.125628 11:0.020101 12:0.047739 13:0.032663 14:0.040201 15:0.052764 16:0.072864 17:0.047739 18:0.070352 19:0.017588 20:0.017588 
0.04466190625820218 1:0.061224 2:0.047619 3:0.07483 4:0.108844 5:0.020408 6:0.095238 7:0.013605 8:0.034014 9:0.034014 10:0.068027 11:0.013605 12:0.061224 13:0.040816 14:0.034014 15:0.020408 16:0.095238 17:0.088435 18:0.040816 19:0.027211 20:0.020408 
0.01835342173267326 1:0.048433 2:0 3:0.058405 4:0.062678 5:0.088319 6:0.041311 7:0.025641 8:0.04416 9:0.075499 10:0.069801 11:0.025641 12:0.058405 13:0.064103 14:0.039886 15:0.032764 16:0.052707 17:0.021368 18:0.075499 19:0.008547 20:0.106838 
-0.2093468660963081 1:0.086111 2:0.008333 3:0.058333 4:0.047222 5:0.052778 6:0.091667 7:0.019444 8:0.058333 9:0.052778 10:0.108333 11:0.005556 12:0.052778 13:0.041667 14:0.044444 15:0.008333 16:0.088889 17:0.077778 18:0.038889 19:0.011111 20:0.047222 
-0.18090842295045 1:0.076023 2:0.002924 3:0.046784 4:0.04386 5:0.055556 6:0.073099 7:0.002924 8:0.038012 9:0.040936 10:0.087719 11:0.035088 12:0.096491 13:0.067251 14:0.04386 15:0.052632 16:0.073099 17:0.040936 18:0.064327 19:0.008772 20:0.049708 
-0.3935605169584179 1:0.060311 2:0.009728 3:0.060311 4:0.075875 5:0.050584 6:0.085603 7:0.027237 8:0.060311 9:0.07393 10:0.097276 11:0.011673 12:0.054475 13:0.046693 14:0.027237 15:0.035019 16:0.064202 17:0.054475 18:0.064202 19:0.011673 20:0.029183 
-0.3478551889324105 1:0.075972 2:0.0053 3:0.077739 4:0.063604 5:0.04417 6:0.065371 7:0.045936 8:0.04417 9:0.04947 10:0.095406 11:0.012367 12:0.047703 13:0.031802 14:0.035336 15:0.042403 16:0.086572 17:0.061837 18:0.070671 19:0.008834 20:0.035336 
-0.0461533330326066 1:0.044248 2:0.00885 3:0.059735 4:0.04646 5:0.084071 6:0.061947 7:0.017699 8:0.070796 9:0.090708 10:0.088496 11:0.017699 12:0.073009 13:0.033186 14:0.030973 15:0.013274 16:0.059735 17:0.075221 18:0.066372 19:0.00885 20:0.048673 
