svm_type c_svc
kernel_type polynomial
degree 10
gamma 10
coef0 1
nr_class 2
total_sv 41
rho -1.26599
label 1 -1
nr_sv 10 31
SV
0.2039890414328576 1:0.02649 2:0.019868 3:0.033113 4:0.059603 5:0.033113 6:0.092715 7:0.039735 8:0.039735 9:0.086093 10:0.10596 11:0.019868 12:0.086093 13:0.02649 14:0.033113 15:0.05298 16:0.07947 17:0.05298 18:0.059603 19:0.013245 20:0.039735 
0.1646496838725135 1:0.10625 2:0.01875 3:0.059375 4:0.065625 5:0.05 6:0.090625 7:0.025 8:0.046875 9:0.071875 10:0.034375 11:0.03125 12:0.04375 13:0.04375 14:0.025 15:0.046875 16:0.05625 17:0.06875 18:0.08125 19:0.0125 20:0.021875 
0.2305007847991126 1:0.089918 2:0.032698 3:0.073569 4:0.051771 5:0.029973 6:0.059946 7:0.021798 8:0.054496 9:0.046322 10:0.087193 11:0.024523 12:0.032698 13:0.043597 14:0.046322 15:0.051771 16:0.070845 17:0.038147 18:0.06267 19:0.027248 20:0.054496 
0.07612183835748912 1:0.06383 2:0.024316 3:0.039514 4:0.06383 5:0.018237 6:0.088146 7:0.024316 8:0.042553 9:0.085106 10:0.085106 11:0.024316 12:0.075988 13:0.036474 14:0.033435 15:0.036474 16:0.072948 17:0.033435 18:0.069909 19:0.027356 20:0.054711 
0.144003295391588 1:0.047778 2:0.012222 3:0.057778 4:0.062222 5:0.058889 6:0.055556 7:0.03 8:0.064444 9:0.058889 10:0.071111 11:0.021111 12:0.06 13:0.038889 14:0.032222 15:0.037778 16:0.075556 17:0.065556 18:0.068889 19:0.027778 20:0.053333 
0.0001303621575861036 1:0.102102 2:0.03003 3:0.024024 4:0.051051 5:0.048048 6:0.066066 7:0.027027 8:0.033033 9:0.072072 10:0.072072 11:0.033033 12:0.072072 13:0.036036 14:0.048048 15:0.021021 16:0.087087 17:0.039039 18:0.063063 19:0.03003 20:0.045045 
0.04876272605448104 1:0.065836 2:0.014235 3:0.035587 4:0.049822 5:0.046263 6:0.090747 7:0.030249 8:0.021352 9:0.023132 10:0.113879 11:0.010676 12:0.035587 13:0.080071 14:0.049822 15:0.048043 16:0.097865 17:0.058719 18:0.076512 19:0.019573 20:0.032028 
0.007079236031428309 1:0.052174 2:0.023188 3:0.049275 4:0.037681 5:0.034783 6:0.118841 7:0.017391 8:0.066667 9:0.057971 10:0.084058 11:0.023188 12:0.037681 13:0.057971 14:0.04058 15:0.023188 16:0.075362 17:0.055072 18:0.081159 19:0.011594 20:0.052174 
0.03803493918216106 1:0.067729 2:0.017928 3:0.057769 4:0.039841 5:0.049801 6:0.065737 7:0.039841 8:0.025896 9:0.023904 10:0.121514 11:0.015936 12:0.035857 13:0.079681 14:0.049801 15:0.063745 16:0.065737 17:0.059761 18:0.059761 19:0.01992 20:0.039841 
0.1501110933159346 1:0.040169 2:0.021142 3:0.057082 4:0.052854 5:0.033827 6:0.084567 7:0.040169 8:0.042283 9:0.044397 10:0.109937 11:0.016913 12:0.042283 13:0.084567 14:0.029598 15:0.052854 16:0.065539 17:0.065539 18:0.048626 19:0.023256 20:0.044397 
-0.08691337217145016 1:0.029703 2:0.019802 3:0.039604 4:0.089109 5:0.029703 6:0.108911 7:0.019802 8:0.049505 9:0.059406 10:0.09901 11:0.049505 12:0.069307 13:0.059406 14:0.029703 15:0.009901 16:0.039604 17:0.059406 18:0.079208 19:0.019802 20:0.039604 
-0.0005595446637912974 1:0.051913 2:0.062842 3:0.043716 4:0.07377 5:0.046448 6:0.054645 7:0.068306 8:0.016393 9:0.120219 10:0.071038 11:0.010929 12:0.035519 13:0.040984 14:0.027322 15:0.054645 16:0.071038 17:0.062842 18:0.051913 19:0.005464 20:0.030055 
-0.009707751061776284 1:0.034884 2:0.011628 3:0.023256 4:0.081395 5:0.05814 6:0.069767 7:0.023256 8:0.046512 9:0.046512 10:0.104651 11:0.023256 12:0.104651 13:0.046512 14:0.023256 15:0.046512 16:0.081395 17:0.046512 18:0.093023 19:0 20:0.034884 
-0.0008397855434313746 1:0.060145 2:0.018116 3:0.041304 4:0.066667 5:0.044203 6:0.145652 7:0.018841 8:0.05942 9:0.047101 10:0.074638 11:0.021739 12:0.047826 13:0.052899 14:0.036957 15:0.055797 16:0.06087 17:0.039855 18:0.058696 19:0.007971 20:0.041304 
-0.01850753816065159 1:0.082192 2:0.013699 3:0.089041 4:0.054795 5:0.034247 6:0.041096 7:0 8:0.041096 9:0.034247 10:0.109589 11:0.020548 12:0.068493 13:0.034247 14:0.041096 15:0.061644 16:0.082192 17:0.061644 18:0.061644 19:0.006849 20:0.061644 
-0.02025843637653715 1:0.119403 2:0.007463 3:0.041045 4:0.033582 5:0.052239 6:0.078358 7:0.014925 8:0.067164 9:0.063433 10:0.074627 11:0.026119 12:0.05597 13:0.067164 14:0.037313 15:0.048507 16:0.070896 17:0.063433 18:0.05597 19:0 20:0.022388 
-1.188550198259295e-05 1:0.295238 2:0 3:0.004762 4:0.02381 5:0.009524 6:0.042857 7:0.004762 8:0.02381 9:0.319048 10:0.028571 11:0.009524 12:0.019048 13:0.057143 14:0.028571 15:0.02381 16:0.028571 17:0.033333 18:0.038095 19:0 20:0.009524 
-0.03304947755917206 1:0.078125 2:0.083333 3:0.026042 4:0.0625 5:0.03125 6:0.151042 7:0.03125 8:0.03125 9:0.098958 10:0.036458 11:0.010417 12:0.036458 13:0.041667 14:0.03125 15:0.046875 16:0.041667 17:0.057292 18:0.036458 19:0.010417 20:0.057292 
-0.01503167701569481 1:0.091954 2:0.048851 3:0.031609 4:0.066092 5:0.034483 6:0.083333 7:0.022989 8:0.028736 9:0.051724 10:0.106322 11:0.014368 12:0.020115 13:0.08046 14:0.04023 15:0.054598 16:0.086207 17:0.031609 18:0.060345 19:0.011494 20:0.034483 
-0.07899609717750297 1:0.063636 2:0.007273 3:0.070909 4:0.054545 5:0.032727 6:0.112727 7:0.012727 8:0.052727 9:0.054545 10:0.061818 11:0.018182 12:0.054545 13:0.043636 14:0.04 15:0.092727 16:0.050909 17:0.050909 18:0.067273 19:0.010909 20:0.047273 
-0.05761522785217066 1:0.06291 2:0.011796 3:0.048493 4:0.04325 5:0.031455 6:0.068152 7:0.061599 8:0.038008 9:0.052425 10:0.070773 11:0.032765 12:0.044561 13:0.053735 14:0.068152 15:0.052425 16:0.099607 17:0.06422 18:0.051114 19:0.006553 20:0.038008 
-0.01292403592511697 1:0.114525 2:0.027933 3:0.041899 4:0.047486 5:0.039106 6:0.108939 7:0.041899 8:0.005587 9:0.030726 10:0.094972 11:0.005587 12:0.00838 13:0.122905 14:0.02514 15:0.055866 16:0.089385 17:0.069832 18:0.027933 19:0.01676 20:0.02514 
-0.02803353247968844 1:0.041563 2:0.014963 3:0.059019 4:0.055694 5:0.043225 6:0.083126 7:0.024938 8:0.064838 9:0.055694 10:0.085619 11:0.028263 12:0.048213 13:0.050707 14:0.049044 15:0.05985 16:0.071488 17:0.048213 18:0.0665 19:0.008313 20:0.040732 
-0.01125258412418781 1:0.064 2:0.072 3:0.072 4:0.096 5:0.032 6:0.04 7:0.048 8:0.048 9:0.04 10:0.048 11:0.024 12:0.048 13:0.056 14:0.056 15:0.056 16:0.032 17:0.056 18:0.048 19:0.008 20:0.056 
-0.005243543530825078 1:0.078947 2:0 3:0.078947 4:0.078947 5:0.026316 6:0.052632 7:0.026316 8:0.052632 9:0.052632 10:0.157895 11:0 12:0.052632 13:0 14:0.026316 15:0.052632 16:0.052632 17:0.026316 18:0.131579 19:0.026316 20:0.026316 
-0.0320947277343813 1:0.034091 2:0.017045 3:0.068182 4:0.051136 5:0.079545 6:0.096591 7:0.022727 8:0.079545 9:0.056818 10:0.056818 11:0.039773 12:0.045455 13:0.039773 14:0.028409 15:0.051136 16:0.039773 17:0.0625 18:0.113636 19:0 20:0.017045 
-0.0267222366622084 1:0.042735 2:0.008547 3:0.042735 4:0.039886 5:0.042735 6:0.091168 7:0.017094 8:0.017094 9:0.042735 10:0.088319 11:0.022792 12:0.065527 13:0.128205 14:0.031339 15:0.034188 16:0.128205 17:0.05698 18:0.039886 19:0.014245 20:0.045584 
-0.02643311914286267 1:0.035197 2:0.022774 3:0.066253 4:0.070393 5:0.037267 6:0.049689 7:0.072464 8:0.045549 9:0.074534 10:0.066253 11:0.022774 12:0.020704 13:0.037267 14:0.022774 15:0.091097 16:0.097308 17:0.045549 18:0.05176 19:0.014493 20:0.055901 
-0.1840093942294413 1:0.04244 2:0.013263 3:0.061008 4:0.071618 5:0.047745 6:0.058355 7:0.03183 8:0.039788 9:0.076923 10:0.119363 11:0.015915 12:0.047745 13:0.037135 14:0.04244 15:0.066313 16:0.055703 17:0.047745 18:0.058355 19:0.02122 20:0.045093 
-0.03983304115760467 1:0.132841 2:0.01476 3:0.051661 4:0.055351 5:0.03321 6:0.066421 7:0.04059 8:0.01476 9:0.051661 10:0.077491 11:0.01845 12:0.04797 13:0.095941 14:0.02952 15:0.070111 16:0.059041 17:0.04797 18:0.0369 19:0.01476 20:0.04059 
-0.01157933797820299 1:0.05163 2:0.01087 3:0.046196 4:0.048913 5:0.024457 6:0.059783 7:0.078804 8:0.019022 9:0.05163 10:0.092391 11:0.029891 12:0.046196 13:0.070652 14:0.076087 15:0.043478 16:0.086957 17:0.086957 18:0.040761 19:0.013587 20:0.021739 
-0.0748571378407787 1:0.085987 2:0.05414 3:0.035032 4:0.05414 5:0.035032 6:0.066879 7:0.031847 8:0.041401 9:0.035032 10:0.085987 11:0.031847 12:0.050955 13:0.044586 14:0.031847 15:0.038217 16:0.11465 17:0.063694 18:0.070064 19:0.009554 20:0.019108 
-0.0006857787306308033 1:0.020668 2:0.009539 3:0.054054 4:0.062003 5:0.062003 6:0.020668 7:0.014308 8:0.084261 9:0.08903 10:0.109698 11:0.015898 12:0.085851 13:0.038156 14:0.039746 15:0.034976 16:0.054054 17:0.077901 18:0.055644 19:0.025437 20:0.046105 
-0.1669547081603615 1:0.066335 2:0.016584 3:0.056385 4:0.063018 5:0.034826 6:0.07131 7:0.018242 8:0.064677 9:0.077944 10:0.072968 11:0.026534 12:0.074627 13:0.034826 14:0.036484 15:0.034826 16:0.089552 17:0.046434 18:0.074627 19:0.011609 20:0.028192 
-0.01293788243472708 1:0.099502 2:0.0199 3:0.014925 4:0.0199 5:0.0199 6:0.131841 7:0.084577 8:0.042289 9:0.024876 10:0.062189 11:0.027363 12:0.044776 13:0.069652 14:0.047264 15:0.054726 16:0.106965 17:0.037313 18:0.059701 19:0.004975 20:0.027363 
-0.06313995266346269 1:0.061311 2:0.040169 3:0.063425 4:0.054968 5:0.031712 6:0.031712 7:0.023256 8:0.065539 9:0.054968 10:0.120507 11:0.019027 12:0.05074 13:0.042283 14:0.042283 15:0.052854 16:0.073996 17:0.065539 18:0.040169 19:0.014799 20:0.05074 
-0.03509999222264032 1:0.057377 2:0.022541 3:0.079918 4:0.079918 5:0.036885 6:0.090164 7:0.034836 8:0.05123 9:0.081967 10:0.061475 11:0.034836 12:0.043033 13:0.040984 14:0.030738 15:0.043033 16:0.05123 17:0.043033 18:0.05123 19:0.004098 20:0.061475 
-0.0008955976399906411 1:0.061381 2:0.007673 3:0.048593 4:0.038363 5:0.02046 6:0.089514 7:0.023018 8:0.051151 9:0.035806 10:0.056266 11:0.015345 12:0.030691 13:0.102302 14:0.048593 15:0.066496 16:0.112532 17:0.069054 18:0.074169 19:0.005115 20:0.043478 
-0.006354272484443359 1:0.075061 2:0.009685 3:0.046005 4:0.048426 5:0.014528 6:0.029056 7:0.041162 8:0.026634 9:0.046005 10:0.050847 11:0.016949 12:0.046005 13:0.094431 14:0.079903 15:0.038741 16:0.099274 17:0.101695 18:0.041162 19:0.004843 20:0.089588 
-0.002783855964985544 1:0.143959 2:0.015424 3:0.03599 4:0.033419 5:0.015424 6:0.167095 7:0.033419 8:0.033419 9:0.03856 10:0.051414 11:0.023136 12:0.061697 13:0.033419 14:0.056555 15:0.048843 16:0.071979 17:0.059126 18:0.025707 19:0.012853 20:0.03856 
-5.747640445088166e-05 1:0.278351 2:0 3:0.005155 4:0.030928 5:0.005155 6:0.051546 7:0 8:0.005155 9:0.298969 10:0.036082 11:0 12:0.015464 13:0.092784 14:0 15:0.010309 16:0.061856 17:0.030928 18:0.072165 19:0 20:0.005155 
