svm_type c_svc
kernel_type polynomial
degree 10
gamma 10
coef0 1
nr_class 2
total_sv 77
rho 2.11965
label 1 -1
nr_sv 45 32
SV
0.04599053878613248 1:0.044554 2:0.024752 3:0.044554 4:0.074257 5:0.044554 6:0.029703 7:0.024752 8:0.076733 9:0.081683 10:0.108911 11:0.024752 12:0.034653 13:0.056931 14:0.056931 15:0.042079 16:0.071782 17:0.056931 18:0.054455 19:0.019802 20:0.027228 
0.4272148860173154 1:0.119403 2:0.007463 3:0.041045 4:0.033582 5:0.052239 6:0.078358 7:0.014925 8:0.067164 9:0.063433 10:0.074627 11:0.026119 12:0.05597 13:0.067164 14:0.037313 15:0.048507 16:0.070896 17:0.063433 18:0.05597 19:0 20:0.022388 
0.08391392590384368 1:0.056122 2:0 3:0.056122 4:0.061224 5:0.030612 6:0.066327 7:0.056122 8:0.035714 9:0.061224 10:0.081633 11:0.02551 12:0.056122 13:0.05102 14:0.030612 15:0.045918 16:0.122449 17:0.091837 18:0.05102 19:0.005102 20:0.015306 
0.04011162575103724 1:0.057101 2:0.010249 3:0.071742 4:0.01757 5:0.014641 6:0.04978 7:0.052709 8:0.055637 9:0.038067 10:0.04978 11:0.035139 12:0.136164 13:0.048316 14:0.054173 15:0.030747 16:0.128843 17:0.077599 18:0.040996 19:0.002928 20:0.027818 
0.01390145591752131 1:0.036111 2:0.008333 3:0.072222 4:0.063889 5:0.072222 6:0.016667 7:0.033333 8:0.052778 9:0.066667 10:0.05 11:0.008333 12:0.1 13:0.055556 14:0.061111 15:0.022222 16:0.130556 17:0.069444 18:0.013889 19:0.002778 20:0.063889 
1 1:0.044571 2:0.014857 3:0.057143 4:0.049143 5:0.04 6:0.052571 7:0.009143 8:0.081143 9:0.077714 10:0.107429 11:0.020571 12:0.068571 13:0.046857 14:0.036571 15:0.037714 16:0.083429 17:0.081143 18:0.045714 19:0.013714 20:0.032 
0.09107762311745149 1:0.029703 2:0.019802 3:0.039604 4:0.089109 5:0.029703 6:0.108911 7:0.019802 8:0.049505 9:0.059406 10:0.09901 11:0.049505 12:0.069307 13:0.059406 14:0.029703 15:0.009901 16:0.039604 17:0.059406 18:0.079208 19:0.019802 20:0.039604 
0.2744602892576793 1:0.053738 2:0.028037 3:0.077103 4:0.063084 5:0.058411 6:0.074766 7:0.044393 8:0.051402 9:0.035047 10:0.081776 11:0.018692 12:0.049065 13:0.049065 14:0.03972 15:0.042056 16:0.051402 17:0.042056 18:0.067757 19:0.004673 20:0.067757 
0.02057801866826659 1:0.078125 2:0.083333 3:0.026042 4:0.0625 5:0.03125 6:0.151042 7:0.03125 8:0.03125 9:0.098958 10:0.036458 11:0.010417 12:0.036458 13:0.041667 14:0.03125 15:0.046875 16:0.041667 17:0.057292 18:0.036458 19:0.010417 20:0.057292 
0.6265355900800982 1:0.086009 2:0.014335 3:0.05906 4:0.051032 5:0.049312 6:0.084862 7:0.025803 8:0.041858 9:0.040711 10:0.085436 11:0.03383 12:0.040711 13:0.044151 14:0.036124 15:0.077982 16:0.079702 17:0.056193 18:0.068807 19:0.006881 20:0.017202 
0.2697537101785318 1:0.034884 2:0.011628 3:0.023256 4:0.081395 5:0.05814 6:0.069767 7:0.023256 8:0.046512 9:0.046512 10:0.104651 11:0.023256 12:0.104651 13:0.046512 14:0.023256 15:0.046512 16:0.081395 17:0.046512 18:0.093023 19:0 20:0.034884 
0.09534175924419448 1:0.045326 2:0.01983 3:0.069405 4:0.075071 5:0.03966 6:0.062323 7:0.028329 8:0.077904 9:0.062323 10:0.082153 11:0.022663 12:0.053824 13:0.050992 14:0.026912 15:0.045326 16:0.073654 17:0.042493 18:0.069405 19:0.014164 20:0.038244 
1 1:0.070429 2:0.02056 3:0.054243 4:0.083115 5:0.044182 6:0.049431 7:0.026684 8:0.053806 9:0.05818 10:0.098425 11:0.024497 12:0.033683 13:0.047682 14:0.044619 15:0.062992 16:0.068679 17:0.042432 18:0.065617 19:0.014436 20:0.036308 
0.0175246308997036 1:0.060145 2:0.018116 3:0.041304 4:0.066667 5:0.044203 6:0.145652 7:0.018841 8:0.05942 9:0.047101 10:0.074638 11:0.021739 12:0.047826 13:0.052899 14:0.036957 15:0.055797 16:0.06087 17:0.039855 18:0.058696 19:0.007971 20:0.041304 
1 1:0.069805 2:0.017857 3:0.053571 4:0.061688 5:0.040584 6:0.069805 7:0.006494 8:0.056818 9:0.066558 10:0.069805 11:0.022727 12:0.060065 13:0.043831 14:0.047078 15:0.048701 16:0.087662 17:0.056818 18:0.077922 19:0.00974 20:0.032468 
0.05556211133322748 1:0.093373 2:0.01506 3:0.057229 4:0.078313 5:0.045181 6:0.087349 7:0.018072 8:0.072289 9:0.057229 10:0.063253 11:0.051205 12:0.036145 13:0.024096 14:0.045181 15:0.054217 16:0.069277 17:0.051205 18:0.063253 19:0.003012 20:0.01506 
0.4258815483434071 1:0.075684 2:0.008052 3:0.067633 4:0.059581 5:0.05153 6:0.049919 7:0.014493 8:0.066023 9:0.062802 10:0.077295 11:0.016103 12:0.088567 13:0.033816 14:0.05153 15:0.05314 16:0.072464 17:0.057971 18:0.049919 19:0.011272 20:0.032206 
0.1753594648197253 1:0.055046 2:0.018349 3:0.055046 4:0.055046 5:0.045872 6:0.036697 7:0 8:0.045872 9:0.045872 10:0.119266 11:0.009174 12:0.091743 13:0.009174 14:0.082569 15:0.06422 16:0.055046 17:0.082569 18:0.091743 19:0.009174 20:0.027523 
0.2427900398772161 1:0.09322 2:0.042373 3:0.023305 4:0.076271 5:0.03178 6:0.072034 7:0.021186 8:0.033898 9:0.023305 10:0.112288 11:0.03178 12:0.016949 13:0.067797 14:0.086864 15:0.059322 16:0.063559 17:0.048729 18:0.04661 19:0.021186 20:0.027542 
0.005670407679885344 1:0 2:0.016667 3:0.016667 4:0.083333 5:0.083333 6:0 7:0 8:0.05 9:0.15 10:0.1 11:0.033333 12:0.066667 13:0.016667 14:0.066667 15:0.15 16:0.05 17:0.033333 18:0.033333 19:0.016667 20:0.033333 
0.1950254265538293 1:0.090604 2:0.015101 3:0.060403 4:0.097315 5:0.036913 6:0.048658 7:0.025168 8:0.043624 9:0.092282 10:0.088926 11:0.015101 12:0.055369 13:0.02349 14:0.035235 15:0.058725 16:0.073826 17:0.053691 18:0.062081 19:0.005034 20:0.018456 
0.5816678614935472 1:0.058971 2:0.031368 3:0.051443 4:0.072773 5:0.047679 6:0.031368 7:0.025094 8:0.067754 9:0.06399 10:0.099122 11:0.035132 12:0.055207 13:0.043915 14:0.046424 15:0.052698 16:0.070263 17:0.048934 18:0.053952 19:0.012547 20:0.031368 
0.07391859430607736 1:0.062874 2:0.017964 3:0.053892 4:0.080838 5:0.026946 6:0.092814 7:0.017964 8:0.065868 9:0.05988 10:0.092814 11:0.023952 12:0.032934 13:0.023952 14:0.050898 15:0.056886 16:0.080838 17:0.05988 18:0.071856 19:0 20:0.026946 
0.03550529756086608 1:0.050388 2:0.015504 3:0.104651 4:0.073643 5:0.065891 6:0.046512 7:0.007752 8:0.093023 9:0.069767 10:0.124031 11:0.023256 12:0.023256 13:0.031008 14:0.034884 15:0.031008 16:0.093023 17:0.046512 18:0.050388 19:0 20:0.015504 
0.008772578736357187 1:0.033333 2:0 3:0.016667 4:0.083333 5:0.033333 6:0.016667 7:0.016667 8:0.05 9:0.166667 10:0.05 11:0 12:0.05 13:0.016667 14:0.05 15:0.15 16:0.016667 17:0.1 18:0.1 19:0.016667 20:0.033333 
0.010891815773631 1:0.114525 2:0.027933 3:0.041899 4:0.047486 5:0.039106 6:0.108939 7:0.041899 8:0.005587 9:0.030726 10:0.094972 11:0.005587 12:0.00838 13:0.122905 14:0.02514 15:0.055866 16:0.089385 17:0.069832 18:0.027933 19:0.01676 20:0.02514 
0.903864642301212 1:0.035068 2:0.020362 3:0.044118 4:0.045249 5:0.066742 6:0.026018 7:0.024887 8:0.093891 9:0.084842 10:0.113122 11:0.015837 12:0.076923 13:0.036199 14:0.041855 15:0.040724 16:0.078054 17:0.05543 18:0.05543 19:0.00905 20:0.036199 
0.001481727219101184 1:0.045455 2:0.006993 3:0.08042 4:0.132867 5:0.020979 6:0.045455 7:0.003497 8:0.062937 9:0.076923 10:0.062937 11:0.006993 12:0.125874 13:0.020979 14:0.038462 15:0.024476 16:0.059441 17:0.087413 18:0.06993 19:0.013986 20:0.013986 
0.8099756988677324 1:0.085987 2:0.05414 3:0.035032 4:0.05414 5:0.035032 6:0.066879 7:0.031847 8:0.041401 9:0.035032 10:0.085987 11:0.031847 12:0.050955 13:0.044586 14:0.031847 15:0.038217 16:0.11465 17:0.063694 18:0.070064 19:0.009554 20:0.019108 
0.209658612879218 1:0.032258 2:0.041935 3:0.058065 4:0.1 5:0.048387 6:0.03871 7:0.029032 8:0.083871 9:0.083871 10:0.080645 11:0.019355 12:0.067742 13:0.032258 14:0.048387 15:0.041935 16:0.045161 17:0.051613 18:0.06129 19:0.006452 20:0.029032 
1 1:0.064914 2:0.015612 3:0.054232 4:0.076417 5:0.046836 6:0.072309 7:0.021364 8:0.055053 9:0.042728 10:0.099425 11:0.021364 12:0.046015 13:0.050123 14:0.039441 15:0.052588 16:0.060805 17:0.05834 18:0.083813 19:0.007395 20:0.031224 
0.0214475214797537 1:0.108333 2:0.008333 3:0.075 4:0.083333 5:0.075 6:0.041667 7:0.016667 8:0.05 9:0.091667 10:0.125 11:0.008333 12:0.075 13:0.041667 14:0.016667 15:0.041667 16:0.016667 17:0.066667 18:0.033333 19:0.008333 20:0.016667 
0.2784221953646303 1:0.066335 2:0.016584 3:0.056385 4:0.063018 5:0.034826 6:0.07131 7:0.018242 8:0.064677 9:0.077944 10:0.072968 11:0.026534 12:0.074627 13:0.034826 14:0.036484 15:0.034826 16:0.089552 17:0.046434 18:0.074627 19:0.011609 20:0.028192 
0.3576189348930501 1:0.02924 2:0.023392 3:0.052632 4:0.052632 5:0.064327 6:0.081871 7:0.023392 8:0.087719 9:0.076023 10:0.070175 11:0.023392 12:0.02924 13:0.046784 14:0.040936 15:0.035088 16:0.087719 17:0.046784 18:0.093567 19:0 20:0.035088 
0.1203888539082854 1:0.056426 2:0.009404 3:0.050157 4:0.028213 5:0.034483 6:0.043887 7:0.028213 8:0.031348 9:0.037618 10:0.097179 11:0.012539 12:0.065831 13:0.0721 14:0.081505 15:0.050157 16:0.125392 17:0.097179 18:0.028213 19:0.018809 20:0.031348 
0.01429678826224976 1:0.05 2:0.008333 3:0.041667 4:0.091667 5:0.033333 6:0.058333 7:0 8:0.05 9:0.075 10:0.133333 11:0.033333 12:0.083333 13:0.033333 14:0.025 15:0.05 16:0.133333 17:0.058333 18:0.016667 19:0.016667 20:0.008333 
1 1:0.066062 2:0.018135 3:0.062176 4:0.068653 5:0.045337 6:0.042746 7:0.024611 8:0.060881 9:0.056995 10:0.111399 11:0.027202 12:0.028497 13:0.042746 14:0.037565 15:0.063472 16:0.07513 17:0.053109 18:0.067358 19:0.007772 20:0.040155 
0.4048753466649126 1:0.044776 2:0.01306 3:0.052239 4:0.070896 5:0.031716 6:0.06903 7:0.022388 8:0.059701 9:0.087687 10:0.089552 11:0.016791 12:0.046642 13:0.037313 14:0.041045 15:0.057836 16:0.098881 17:0.063433 18:0.057836 19:0.01306 20:0.026119 
0.3584951261991927 1:0.04244 2:0.013263 3:0.061008 4:0.071618 5:0.047745 6:0.058355 7:0.03183 8:0.039788 9:0.076923 10:0.119363 11:0.015915 12:0.047745 13:0.037135 14:0.04244 15:0.066313 16:0.055703 17:0.047745 18:0.058355 19:0.02122 20:0.045093 
1 1:0.050926 2:0.015432 3:0.041667 4:0.074074 5:0.04784 6:0.030864 7:0.013889 8:0.069444 9:0.067901 10:0.117284 11:0.018519 12:0.061728 13:0.044753 14:0.035494 15:0.044753 16:0.112654 17:0.058642 18:0.032407 19:0.012346 20:0.049383 
0.06215645360660536 1:0.078947 2:0 3:0.078947 4:0.078947 5:0.026316 6:0.052632 7:0.026316 8:0.052632 9:0.052632 10:0.157895 11:0 12:0.052632 13:0 14:0.026316 15:0.052632 16:0.052632 17:0.026316 18:0.131579 19:0.026316 20:0.026316 
0.01237526830213349 1:0.143959 2:0.015424 3:0.03599 4:0.033419 5:0.015424 6:0.167095 7:0.033419 8:0.033419 9:0.03856 10:0.051414 11:0.023136 12:0.061697 13:0.033419 14:0.056555 15:0.048843 16:0.071979 17:0.059126 18:0.025707 19:0.012853 20:0.03856 
0.5962996265790403 1:0.056034 2:0.012931 3:0.056034 4:0.103448 5:0.023707 6:0.047414 7:0.019397 8:0.05819 9:0.071121 10:0.092672 11:0.028017 12:0.047414 13:0.036638 14:0.047414 15:0.043103 16:0.090517 17:0.053879 18:0.06681 19:0.021552 20:0.023707 
0.2997429993862434 1:0.043286 2:0.009717 3:0.061837 4:0.068021 5:0.056537 6:0.026502 7:0.016784 8:0.075088 9:0.068905 10:0.128092 11:0.013251 12:0.084806 13:0.033569 14:0.034452 15:0.024735 16:0.09629 17:0.061837 18:0.056537 19:0.006184 20:0.033569 
0.4008146940315696 1:0.056202 2:0.003876 3:0.065891 4:0.065891 5:0.040698 6:0.044574 7:0.01938 8:0.062016 9:0.065891 10:0.127907 11:0.00969 12:0.04845 13:0.042636 14:0.04845 15:0.036822 16:0.075581 17:0.075581 18:0.073643 19:0.005814 20:0.031008 
-0.04021629218875208 1:0.061678 2:0.034539 3:0.044408 4:0.0625 5:0.032072 6:0.072368 7:0.023026 8:0.078125 9:0.063322 10:0.078947 11:0.015625 12:0.041941 13:0.027961 14:0.025493 15:0.04523 16:0.111842 17:0.066612 18:0.089638 19:0.004934 20:0.019737 
-0.02028448739507452 1:0.093697 2:0.017888 3:0.056218 4:0.043441 5:0.035775 6:0.087734 7:0.016184 8:0.043441 9:0.045145 10:0.096252 11:0.024702 12:0.030664 13:0.051959 14:0.041738 15:0.051107 16:0.082624 17:0.075809 18:0.07155 19:0.00937 20:0.024702 
-0.3707312752571241 1:0.073052 2:0.006494 3:0.04789 4:0.076299 5:0.043831 6:0.073864 7:0.030844 8:0.038149 9:0.040584 10:0.12987 11:0.018669 12:0.012987 13:0.091721 14:0.027597 15:0.066558 16:0.077922 17:0.049513 18:0.068182 19:0.010552 20:0.015422 
-0.6239017292411211 1:0.076233 2:0.008969 3:0.052317 4:0.041854 5:0.047833 6:0.073244 7:0.026906 8:0.043348 9:0.043348 10:0.061286 11:0.032885 12:0.082212 13:0.050822 14:0.037369 15:0.043348 16:0.103139 17:0.064275 18:0.058296 19:0.014948 20:0.037369 
-0.2017781173395071 1:0.054455 2:0.011551 3:0.036304 4:0.036304 5:0.041254 6:0.125413 7:0.036304 8:0.062706 9:0.037954 10:0.070957 11:0.034653 12:0.041254 13:0.064356 14:0.041254 15:0.051155 16:0.070957 17:0.054455 18:0.084158 19:0.011551 20:0.033003 
-0.9901004797563053 1:0.072951 2:0.016393 3:0.053279 4:0.07459 5:0.039344 6:0.077869 7:0.013934 8:0.069672 9:0.061475 10:0.090984 11:0.02459 12:0.038525 13:0.048361 14:0.042623 15:0.046721 16:0.057377 17:0.063115 18:0.080328 19:0.009836 20:0.018033 
-0.02238684469620016 1:0.052142 2:0.026071 3:0.03352 4:0.063315 5:0.039106 6:0.040968 7:0.020484 8:0.05959 9:0.063315 10:0.094972 11:0.040968 12:0.05959 13:0.054004 14:0.020484 15:0.065177 16:0.05959 17:0.078212 18:0.063315 19:0.013035 20:0.052142 
-0.1743863754861183 1:0.051601 2:0.02669 3:0.05694 4:0.032028 5:0.062278 6:0.065836 7:0.012456 8:0.074733 9:0.053381 10:0.087189 11:0.030249 12:0.069395 13:0.060498 14:0.037367 15:0.023132 16:0.065836 17:0.069395 18:0.069395 19:0.010676 20:0.040925 
-0.3420120133660625 1:0.036247 2:0.016347 3:0.046908 4:0.04833 5:0.061123 6:0.051173 7:0.02914 8:0.083866 9:0.075338 10:0.088842 11:0.0199 12:0.122246 13:0.026297 14:0.029851 15:0.024165 16:0.08742 17:0.056148 18:0.054016 19:0.007107 20:0.035537 
-0.6530611097496604 1:0.042269 2:0.010011 3:0.051168 4:0.091212 5:0.041157 6:0.031146 7:0.028921 8:0.064516 9:0.05673 10:0.121246 11:0.012236 12:0.054505 13:0.03782 14:0.048943 15:0.051168 16:0.116796 17:0.048943 18:0.043382 19:0.011123 20:0.036707 
-1 1:0.05042 2:0.019608 3:0.043417 4:0.067227 5:0.044818 6:0.042017 7:0.02381 8:0.088235 9:0.084034 10:0.09944 11:0.018908 12:0.060924 13:0.042717 14:0.035014 15:0.036415 16:0.084034 17:0.04972 18:0.062325 19:0.009804 20:0.037115 
-0.6159342514856067 1:0.040724 2:0.037707 3:0.054299 4:0.063348 5:0.036199 6:0.051282 7:0.016591 8:0.06184 9:0.06184 10:0.110106 11:0.019608 12:0.063348 13:0.040724 14:0.040724 15:0.039216 16:0.075415 17:0.064857 18:0.05279 19:0.022624 20:0.046757 
-0.5812520404386526 1:0.037572 2:0.021195 3:0.058767 4:0.085742 5:0.047206 6:0.024085 7:0.021195 8:0.086705 9:0.065511 10:0.124277 11:0.021195 12:0.046243 13:0.033719 14:0.043353 15:0.035645 16:0.096339 17:0.047206 18:0.069364 19:0.007707 20:0.026975 
-0.6037350009341581 1:0.038596 2:0.002005 3:0.031579 4:0.036591 5:0.052632 6:0.035088 7:0.014035 8:0.062155 9:0.094737 10:0.112782 11:0.015539 12:0.084211 13:0.040602 14:0.05213 15:0.062657 16:0.078697 17:0.087719 18:0.042105 19:0.015038 20:0.041103 
-0.1501858716764853 1:0.048544 2:0.009709 3:0.024272 4:0.048544 5:0.053398 6:0.048544 7:0.004854 8:0.087379 9:0.092233 10:0.11165 11:0.019417 12:0.063107 13:0.029126 14:0.067961 15:0.043689 16:0.097087 17:0.048544 18:0.058252 19:0.004854 20:0.038835 
-1 1:0.069272 2:0.017762 3:0.071048 4:0.095915 5:0.042629 6:0.053286 7:0.008881 8:0.042629 9:0.072824 10:0.087034 11:0.023091 12:0.058615 13:0.031972 14:0.05151 15:0.044405 16:0.053286 17:0.058615 18:0.081705 19:0.012433 20:0.023091 
-0.08621701679732188 1:0.038869 2:0.010601 3:0.028269 4:0.113074 5:0.053004 6:0.028269 7:0.031802 8:0.091873 9:0.102473 10:0.102473 11:0.021201 12:0.028269 13:0.021201 14:0.045936 15:0.084806 16:0.053004 17:0.028269 18:0.060071 19:0.007067 20:0.04947 
-0.001824022135191702 1:0.221311 2:0 3:0 4:0.008197 5:0.02459 6:0.122951 7:0 8:0.07377 9:0.02459 10:0.081967 11:0.04918 12:0.008197 13:0.016393 14:0.008197 15:0.02459 16:0.139344 17:0.057377 18:0.131148 19:0 20:0.008197 
-0.408440318857309 1:0.056747 2:0.02396 3:0.050441 4:0.058008 5:0.056747 6:0.037831 7:0.020177 8:0.056747 9:0.066835 10:0.132409 11:0.032787 12:0.04918 13:0.032787 14:0.03657 15:0.04918 16:0.081967 17:0.046658 18:0.059269 19:0.013871 20:0.037831 
-0.6044470407356999 1:0.045817 2:0.01992 3:0.052789 4:0.040837 5:0.042829 6:0.061753 7:0.023904 8:0.065737 9:0.050797 10:0.100598 11:0.023904 12:0.050797 13:0.064741 14:0.033865 15:0.044821 16:0.104582 17:0.052789 18:0.068725 19:0.01494 20:0.035857 
-0.0095319989189074 1:0.088517 2:0.023923 3:0.016746 4:0.057416 5:0.04067 6:0.064593 7:0.009569 8:0.0311 9:0.016746 10:0.102871 11:0.028708 12:0.028708 13:0.076555 14:0.028708 15:0.074163 16:0.088517 17:0.045455 18:0.126794 19:0.019139 20:0.0311 
-1 1:0.096443 2:0.028458 3:0.042688 4:0.06166 5:0.045059 6:0.075099 7:0.03004 8:0.04585 9:0.039526 10:0.100395 11:0.028458 12:0.041897 13:0.040316 14:0.051383 15:0.066403 16:0.057708 17:0.037945 18:0.07668 19:0.008696 20:0.025296 
-0.09984225652155339 1:0.05148 2:0.043758 3:0.043758 4:0.07722 5:0.052767 6:0.046332 7:0.029601 8:0.046332 9:0.05148 10:0.078507 11:0.027027 12:0.046332 13:0.055341 14:0.033462 15:0.048906 16:0.091377 17:0.063063 18:0.047619 19:0.018018 20:0.047619 
-1 1:0.077739 2:0.038869 3:0.048292 4:0.070671 5:0.038869 6:0.054181 7:0.03298 8:0.04947 9:0.060071 10:0.078916 11:0.024735 12:0.045936 13:0.040047 14:0.041225 15:0.051826 16:0.083628 17:0.058893 18:0.048292 19:0.010601 20:0.044759 
-0.4529168762843775 1:0.118705 2:0.017986 3:0.052758 4:0.043165 5:0.027578 6:0.063549 7:0.017986 8:0.044365 9:0.034772 10:0.088729 11:0.021583 12:0.05036 13:0.047962 14:0.065947 15:0.043165 16:0.082734 17:0.080336 18:0.067146 19:0.010791 20:0.020384 
-1 1:0.063158 2:0.010526 3:0.066316 4:0.083158 5:0.061053 6:0.042105 7:0.016842 8:0.065263 9:0.067368 10:0.098947 11:0.025263 12:0.046316 13:0.031579 14:0.037895 15:0.052632 16:0.076842 17:0.054737 18:0.052632 19:0.009474 20:0.037895 
-0.04221048601280818 1:0.091603 2:0 3:0.045802 4:0.083969 5:0.022901 6:0.076336 7:0.007634 8:0.114504 9:0.083969 10:0.068702 11:0.030534 12:0.038168 13:0.076336 14:0.007634 15:0.038168 16:0.030534 17:0.030534 18:0.122137 19:0 20:0.030534 
-0.4482690592341705 1:0.036975 2:0.053782 3:0.047059 4:0.057143 5:0.057143 6:0.053782 7:0.023529 8:0.058824 9:0.060504 10:0.080672 11:0.013445 12:0.040336 13:0.058824 14:0.043697 15:0.063866 16:0.068908 17:0.055462 18:0.065546 19:0.015126 20:0.045378 
-1 1:0.054591 2:0.016749 3:0.066377 4:0.065757 5:0.049007 6:0.060794 7:0.014268 8:0.060794 9:0.061414 10:0.094913 11:0.01861 12:0.057692 13:0.03536 14:0.031638 15:0.058933 16:0.075682 17:0.058313 18:0.07072 19:0.013027 20:0.03536 
-0.1192950466315036 1:0.057011 2:0.033898 3:0.03698 4:0.064715 5:0.047766 6:0.047766 7:0.024653 8:0.058552 9:0.057011 10:0.09245 11:0.024653 12:0.049307 13:0.05547 14:0.052388 15:0.047766 16:0.07396 17:0.057011 18:0.057011 19:0.023112 20:0.038521 
-0.006403679104804114 1:0.050209 2:0.016736 3:0.037657 4:0.029289 5:0.07113 6:0.054393 7:0.029289 8:0.146444 9:0.079498 10:0.138075 11:0.025105 12:0.020921 13:0.046025 14:0.012552 15:0.016736 16:0.041841 17:0.041841 18:0.050209 19:0.020921 20:0.07113 
-1 1:0.059016 2:0.005738 3:0.052459 4:0.059836 5:0.039344 6:0.059836 7:0.016393 8:0.063934 9:0.064754 10:0.10082 11:0.019672 12:0.065574 13:0.040164 14:0.031148 15:0.046721 16:0.109836 17:0.077049 18:0.059016 19:0.004098 20:0.02459 
