svm_type c_svc
kernel_type polynomial
degree 10
gamma 10
coef0 1
nr_class 2
total_sv 39
rho -1.89606
label 1 -1
nr_sv 32 7
SV
0.0613770676907711 1:0.050473 2:0 3:0.07571 4:0.063091 5:0.033123 6:0.041009 7:0.039432 8:0.053628 9:0.066246 10:0.07571 11:0.007886 12:0.134069 13:0.045741 14:0.036278 15:0.036278 16:0.123028 17:0.063091 18:0.041009 19:0.001577 20:0.012618 
0.03388719675231901 1:0.096774 2:0 3:0.050179 4:0.053763 5:0.043011 6:0.09319 7:0.043011 8:0.071685 9:0.035842 10:0.053763 11:0.017921 12:0.064516 13:0.032258 14:0.071685 15:0.02509 16:0.060932 17:0.0681 18:0.071685 19:0.003584 20:0.043011 
0.009824237503851304 1:0.057101 2:0.010249 3:0.071742 4:0.01757 5:0.014641 6:0.04978 7:0.052709 8:0.055637 9:0.038067 10:0.04978 11:0.035139 12:0.136164 13:0.048316 14:0.054173 15:0.030747 16:0.128843 17:0.077599 18:0.040996 19:0.002928 20:0.027818 
0.08344381368404641 1:0.082192 2:0.013699 3:0.089041 4:0.054795 5:0.034247 6:0.041096 7:0 8:0.041096 9:0.034247 10:0.109589 11:0.020548 12:0.068493 13:0.034247 14:0.041096 15:0.061644 16:0.082192 17:0.061644 18:0.061644 19:0.006849 20:0.061644 
0.01823036258828869 1:0.048565 2:0.011038 3:0.057395 4:0.046358 5:0.02649 6:0.06181 7:0.033113 8:0.039735 9:0.05298 10:0.059603 11:0.03532 12:0.06181 13:0.07947 14:0.050773 15:0.04415 16:0.125828 17:0.050773 18:0.041943 19:0.019868 20:0.05298 
0.1208933696390718 1:0.036111 2:0.008333 3:0.072222 4:0.063889 5:0.072222 6:0.016667 7:0.033333 8:0.052778 9:0.066667 10:0.05 11:0.008333 12:0.1 13:0.055556 14:0.061111 15:0.022222 16:0.130556 17:0.069444 18:0.013889 19:0.002778 20:0.063889 
0.0005929041027084777 1:0.053738 2:0.028037 3:0.077103 4:0.063084 5:0.058411 6:0.074766 7:0.044393 8:0.051402 9:0.035047 10:0.081776 11:0.018692 12:0.049065 13:0.049065 14:0.03972 15:0.042056 16:0.051402 17:0.042056 18:0.067757 19:0.004673 20:0.067757 
0.03620450143237485 1:0.030303 2:0.00551 3:0.082645 4:0.077135 5:0.019284 6:0.013774 7:0.016529 8:0.044077 9:0.096419 10:0.082645 11:0.030303 12:0.107438 13:0.063361 14:0.035813 15:0.066116 16:0.090909 17:0.049587 18:0.046832 19:0 20:0.041322 
0.07131598409934413 1:0.02924 2:0.023392 3:0.052632 4:0.052632 5:0.064327 6:0.081871 7:0.023392 8:0.087719 9:0.076023 10:0.070175 11:0.023392 12:0.02924 13:0.046784 14:0.040936 15:0.035088 16:0.087719 17:0.046784 18:0.093567 19:0 20:0.035088 
0.03244555489050335 1:0.043286 2:0.009717 3:0.061837 4:0.068021 5:0.056537 6:0.026502 7:0.016784 8:0.075088 9:0.068905 10:0.128092 11:0.013251 12:0.084806 13:0.033569 14:0.034452 15:0.024735 16:0.09629 17:0.061837 18:0.056537 19:0.006184 20:0.033569 
0.1347254850794435 1:0.069805 2:0.017857 3:0.053571 4:0.061688 5:0.040584 6:0.069805 7:0.006494 8:0.056818 9:0.066558 10:0.069805 11:0.022727 12:0.060065 13:0.043831 14:0.047078 15:0.048701 16:0.087662 17:0.056818 18:0.077922 19:0.00974 20:0.032468 
0.1168119550457611 1:0.052338 2:0.011165 3:0.05792 4:0.04187 5:0.04187 6:0.041172 7:0.018144 8:0.049546 9:0.074669 10:0.110956 11:0.02582 12:0.099791 13:0.048849 14:0.043964 15:0.043964 16:0.104676 17:0.068388 18:0.037683 19:0.003489 20:0.023726 
0.1929399484755477 1:0.066335 2:0.016584 3:0.056385 4:0.063018 5:0.034826 6:0.07131 7:0.018242 8:0.064677 9:0.077944 10:0.072968 11:0.026534 12:0.074627 13:0.034826 14:0.036484 15:0.034826 16:0.089552 17:0.046434 18:0.074627 19:0.011609 20:0.028192 
0.007456253308344277 1:0.137255 2:0.01634 3:0.042484 4:0.013072 5:0.013072 6:0.202614 7:0.029412 8:0.026144 9:0.022876 10:0.039216 11:0.022876 12:0.062092 13:0.042484 14:0.042484 15:0.035948 16:0.101307 17:0.062092 18:0.03268 19:0.013072 20:0.042484 
0.005782498627868795 1:0.042735 2:0.008547 3:0.042735 4:0.039886 5:0.042735 6:0.091168 7:0.017094 8:0.017094 9:0.042735 10:0.088319 11:0.022792 12:0.065527 13:0.128205 14:0.031339 15:0.034188 16:0.128205 17:0.05698 18:0.039886 19:0.014245 20:0.045584 
0.004465148217013291 1:0.081871 2:0.009747 3:0.033138 4:0.035088 5:0.025341 6:0.089669 7:0.044834 8:0.017544 9:0.031189 10:0.05653 11:0.031189 12:0.05653 13:0.054581 14:0.035088 15:0.066277 16:0.169591 17:0.076023 18:0.050682 19:0.015595 20:0.019493 
2.738226905062362e-05 1:0 2:0 3:0.024691 4:0.024691 5:0 6:0.037037 7:0 8:0.012346 9:0.123457 10:0 11:0 12:0 13:0.024691 14:0 15:0.333333 16:0.407407 17:0 18:0 19:0 20:0.012346 
0.07917615301647878 1:0.034884 2:0.011628 3:0.023256 4:0.081395 5:0.05814 6:0.069767 7:0.023256 8:0.046512 9:0.046512 10:0.104651 11:0.023256 12:0.104651 13:0.046512 14:0.023256 15:0.046512 16:0.081395 17:0.046512 18:0.093023 19:0 20:0.034884 
0.008499475691910247 1:0.1133 2:0.004926 3:0.044335 4:0.054187 5:0.019704 6:0.098522 7:0.014778 8:0.009852 9:0.034483 10:0.093596 11:0.034483 12:0.049261 13:0.103448 14:0.039409 15:0.014778 16:0.108374 17:0.068966 18:0.068966 19:0.009852 20:0.014778 
0.0818393304069021 1:0.119403 2:0.007463 3:0.041045 4:0.033582 5:0.052239 6:0.078358 7:0.014925 8:0.067164 9:0.063433 10:0.074627 11:0.026119 12:0.05597 13:0.067164 14:0.037313 15:0.048507 16:0.070896 17:0.063433 18:0.05597 19:0 20:0.022388 
0.008807427981466111 1:0.020668 2:0.009539 3:0.054054 4:0.062003 5:0.062003 6:0.020668 7:0.014308 8:0.084261 9:0.08903 10:0.109698 11:0.015898 12:0.085851 13:0.038156 14:0.039746 15:0.034976 16:0.054054 17:0.077901 18:0.055644 19:0.025437 20:0.046105 
0.04059502644549606 1:0.090652 2:0.008499 3:0.025496 4:0.048159 5:0.028329 6:0.09915 7:0.016997 8:0.01983 9:0.042493 10:0.084986 11:0.028329 12:0.042493 13:0.116147 14:0.036827 15:0.031161 16:0.11898 17:0.05949 18:0.033994 19:0.011331 20:0.056657 
0.0001015816599732456 1:0.13198 2:0.007614 3:0.035533 4:0.045685 5:0.030457 6:0.124365 7:0.01269 8:0.043147 9:0.035533 10:0.086294 11:0.017766 12:0.025381 13:0.116751 14:0.055838 15:0.055838 16:0.081218 17:0.027919 18:0.030457 19:0.007614 20:0.027919 
0.04125768677992579 1:0.056478 2:0.009967 3:0.083056 4:0.066445 5:0.039867 6:0.076412 7:0.003322 8:0.026578 9:0.109635 10:0.07309 11:0.026578 12:0.056478 13:0.046512 14:0.036545 15:0.033223 16:0.099668 17:0.059801 18:0.063123 19:0.013289 20:0.019934 
0.02506426825934857 1:0.029851 2:0.014925 3:0.067164 4:0.029851 5:0.014925 6:0.022388 7:0.037313 8:0.067164 9:0.067164 10:0.126866 11:0.037313 12:0.052239 13:0.067164 14:0.052239 15:0.037313 16:0.141791 17:0.052239 18:0.059701 19:0 20:0.022388 
0.1243014829246692 1:0.039457 2:0.003699 3:0.061652 4:0.05672 5:0.019729 6:0.062885 7:0.032059 8:0.049322 9:0.073983 10:0.080148 11:0.019729 12:0.082614 13:0.064118 14:0.038224 15:0.046856 16:0.131936 17:0.07275 18:0.034525 19:0.01233 20:0.017263 
0.05681137679972023 1:0.034632 2:0.017316 3:0.047619 4:0.047619 5:0.021645 6:0.038961 7:0.051948 8:0.056277 9:0.121212 10:0.069264 11:0.017316 12:0.069264 13:0.038961 14:0.030303 15:0.090909 16:0.099567 17:0.060606 18:0.034632 19:0.004329 20:0.047619 
0.01245278814239508 1:0.029703 2:0.019802 3:0.039604 4:0.089109 5:0.029703 6:0.108911 7:0.019802 8:0.049505 9:0.059406 10:0.09901 11:0.049505 12:0.069307 13:0.059406 14:0.029703 15:0.009901 16:0.039604 17:0.059406 18:0.079208 19:0.019802 20:0.039604 
0.09115014287041265 1:0.060145 2:0.018116 3:0.041304 4:0.066667 5:0.044203 6:0.145652 7:0.018841 8:0.05942 9:0.047101 10:0.074638 11:0.021739 12:0.047826 13:0.052899 14:0.036957 15:0.055797 16:0.06087 17:0.039855 18:0.058696 19:0.007971 20:0.041304 
0.1126200570899214 1:0.050926 2:0.015432 3:0.041667 4:0.074074 5:0.04784 6:0.030864 7:0.013889 8:0.069444 9:0.067901 10:0.117284 11:0.018519 12:0.061728 13:0.044753 14:0.035494 15:0.044753 16:0.112654 17:0.058642 18:0.032407 19:0.012346 20:0.049383 
0.0151370418856006 1:0.07772 2:0.031088 3:0.036269 4:0.025907 5:0.051813 6:0.025907 7:0.041451 8:0.062176 9:0.046632 10:0.020725 11:0.005181 12:0.020725 13:0.088083 14:0.031088 15:0.082902 16:0.160622 17:0.124352 18:0.036269 19:0 20:0.031088 
0.1966862142352826 1:0.044571 2:0.014857 3:0.057143 4:0.049143 5:0.04 6:0.052571 7:0.009143 8:0.081143 9:0.077714 10:0.107429 11:0.020571 12:0.068571 13:0.046857 14:0.036571 15:0.037714 16:0.083429 17:0.081143 18:0.045714 19:0.013714 20:0.032 
-0.04667582157232607 1:0.068966 2:0.005747 3:0.045977 4:0.031609 5:0.034483 6:0.077586 7:0.014368 8:0.051724 9:0.031609 10:0.08908 11:0.025862 12:0.066092 13:0.066092 14:0.054598 15:0.063218 16:0.08908 17:0.028736 18:0.08046 19:0.011494 20:0.063218 
-1 1:0.040825 2:0.011414 3:0.058385 4:0.057068 5:0.036435 6:0.03863 7:0.026339 8:0.061457 9:0.076383 10:0.083406 11:0.018437 12:0.080773 13:0.046532 14:0.03468 15:0.046532 16:0.122476 17:0.072432 18:0.045215 19:0.007902 20:0.03468 
-0.04877957575836665 1:0.031667 2:0.001667 3:0.076667 4:0.113333 5:0.026667 6:0.033333 7:0.011667 8:0.058333 9:0.133333 10:0.091667 11:0.03 12:0.141667 13:0.025 14:0.046667 15:0.005 16:0.041667 17:0.046667 18:0.053333 19:0 20:0.031667 
-0.3072970766239864 1:0.088583 2:0.023622 3:0.049213 4:0.057087 5:0.041339 6:0.11811 7:0.009843 8:0.062992 9:0.059055 10:0.084646 11:0.023622 12:0.025591 13:0.051181 14:0.041339 15:0.027559 16:0.064961 17:0.049213 18:0.076772 19:0.011811 20:0.033465 
-0.06106026730648725 1:0.086111 2:0.008333 3:0.058333 4:0.047222 5:0.052778 6:0.091667 7:0.019444 8:0.058333 9:0.052778 10:0.108333 11:0.005556 12:0.052778 13:0.041667 14:0.044444 15:0.008333 16:0.088889 17:0.077778 18:0.038889 19:0.011111 20:0.047222 
-0.294796439309543 1:0.076023 2:0.002924 3:0.046784 4:0.04386 5:0.055556 6:0.073099 7:0.002924 8:0.038012 9:0.040936 10:0.087719 11:0.035088 12:0.096491 13:0.067251 14:0.04386 15:0.052632 16:0.073099 17:0.040936 18:0.064327 19:0.008772 20:0.049708 
-0.06631453702510147 1:0.044248 2:0.00885 3:0.059735 4:0.04646 5:0.084071 6:0.061947 7:0.017699 8:0.070796 9:0.090708 10:0.088496 11:0.017699 12:0.073009 13:0.033186 14:0.030973 15:0.013274 16:0.059735 17:0.075221 18:0.066372 19:0.00885 20:0.048673 
