svm_type c_svc
kernel_type polynomial
degree 10
gamma 10
coef0 1
nr_class 2
total_sv 10
rho 0.928948
label 1 -1
nr_sv 3 7
SV
0.004643358328805605 1:0.093082 2:0.008647 3:0.063072 4:0.123601 5:0.027467 6:0.044761 7:0.019329 8:0.0412 9:0.098678 10:0.105799 11:0.018311 12:0.046287 13:0.016277 14:0.072228 15:0.06409 16:0.053917 17:0.034079 18:0.04527 19:0.008138 20:0.015768 
0.006237020361782929 1:0.036904 2:0.014401 3:0.054005 4:0.067507 5:0.029703 6:0.032403 7:0.024302 8:0.088209 9:0.077408 10:0.10081 11:0.018002 12:0.105311 13:0.026103 14:0.062106 15:0.036904 16:0.10441 17:0.065707 18:0.034203 19:0.0009 20:0.020702 
0.1581832651104638 1:0.058962 2:0.008255 3:0.058962 4:0.071934 5:0.038915 6:0.054245 7:0.020047 8:0.0625 9:0.067217 10:0.095519 11:0.025943 12:0.048349 13:0.068396 14:0.04717 15:0.064858 16:0.066038 17:0.048349 18:0.068396 19:0.005896 20:0.020047 
-0.03617827702889069 1:0.048128 2:0.016043 3:0.037433 4:0.069519 5:0.053476 6:0.053476 7:0.058824 8:0.069519 9:0.037433 10:0.074866 11:0.02139 12:0.037433 13:0.069519 14:0.042781 15:0.037433 16:0.074866 17:0.064171 18:0.069519 19:0.026738 20:0.037433 
-0.04008382489689711 1:0.065649 2:0.003053 3:0.076336 4:0.082443 5:0.036641 6:0.067176 7:0.00916 8:0.087023 9:0.096183 10:0.082443 11:0.012214 12:0.056489 13:0.038168 14:0.044275 15:0.036641 16:0.042748 17:0.058015 18:0.082443 19:0.001527 20:0.021374 
-0.0005744355659558595 1:0.076389 2:0 3:0.072917 4:0.104167 5:0.017361 6:0.083333 7:0.013889 8:0.072917 9:0.076389 10:0.059028 11:0.013889 12:0.055556 13:0.048611 14:0.052083 15:0.027778 16:0.059028 17:0.052083 18:0.090278 19:0.003472 20:0.020833 
-0.007820715047280056 1:0.050505 2:0.015152 3:0.035354 4:0.065657 5:0.055556 6:0.065657 7:0.045455 8:0.090909 9:0.035354 10:0.085859 11:0.020202 12:0.035354 13:0.080808 14:0.035354 15:0.025253 16:0.085859 17:0.045455 18:0.080808 19:0.015152 20:0.030303 
-0.05220383657832955 1:0.072271 2:0.010324 3:0.070796 4:0.067847 5:0.057522 6:0.056047 7:0.025074 8:0.044248 9:0.069322 10:0.10177 11:0.026549 12:0.042773 13:0.048673 14:0.025074 15:0.039823 16:0.057522 17:0.058997 18:0.070796 19:0.007375 20:0.047198 
-0.01434895076107488 1:0.05 2:0.021429 3:0.035714 4:0.078571 5:0.028571 6:0.121429 7:0.021429 8:0.064286 9:0.085714 10:0.128571 11:0.021429 12:0.007143 13:0.05 14:0.035714 15:0.057143 16:0.064286 17:0.042857 18:0.057143 19:0.014286 20:0.014286 
-0.01785360392262421 1:0.066667 2:0.010753 3:0.027957 4:0.047312 5:0.055914 6:0.098925 7:0.019355 8:0.045161 9:0.032258 10:0.094624 11:0.017204 12:0.075269 13:0.055914 14:0.113978 15:0.045161 16:0.053763 17:0.049462 18:0.060215 19:0.012903 20:0.017204 
