svm_type c_svc
kernel_type polynomial
degree 10
gamma 10
coef0 1
nr_class 2
total_sv 15
rho 2.33881
label 1 -1
nr_sv 5 10
SV
0.2290216450037758 1:0.090339 2:0.027604 3:0.053952 4:0.056462 5:0.028858 6:0.081556 7:0.035132 8:0.033877 9:0.031368 10:0.080301 11:0.010038 12:0.041405 13:0.06399 14:0.045169 15:0.058971 16:0.071518 17:0.069009 18:0.071518 19:0.02133 20:0.027604 
0.003376352971342937 1:0.085239 2:0.017672 3:0.057173 4:0.067568 5:0.031185 6:0.040541 7:0.02183 8:0.064449 9:0.059252 10:0.121622 11:0.025988 12:0.050936 13:0.039501 14:0.047817 15:0.044699 16:0.061331 17:0.057173 18:0.074844 19:0.005198 20:0.025988 
0.03066974042813527 1:0.071864 2:0.01827 3:0.048721 4:0.059683 5:0.028015 6:0.047503 7:0.01827 8:0.063337 9:0.049939 10:0.120585 11:0.032887 12:0.051157 13:0.052375 14:0.046285 15:0.052375 16:0.073082 17:0.069428 18:0.066991 19:0.003654 20:0.025579 
0.06966152768932628 1:0.070866 2:0.006749 3:0.068616 4:0.086614 5:0.048369 6:0.070866 7:0.015748 8:0.046119 9:0.057368 10:0.087739 11:0.008999 12:0.058493 13:0.035996 14:0.031496 15:0.033746 16:0.074241 17:0.061867 18:0.07649 19:0.022497 20:0.03712 
0.08577129112642624 1:0.037825 2:0.007092 3:0.040189 4:0.089835 5:0.049645 6:0.056738 7:0.023641 8:0.066194 9:0.07565 10:0.082742 11:0.028369 12:0.044917 13:0.047281 14:0.026005 15:0.052009 16:0.082742 17:0.040189 18:0.094563 19:0.014184 20:0.040189 
-0.03620346384093036 1:0.089918 2:0.032698 3:0.073569 4:0.051771 5:0.029973 6:0.059946 7:0.021798 8:0.054496 9:0.046322 10:0.087193 11:0.024523 12:0.032698 13:0.043597 14:0.046322 15:0.051771 16:0.070845 17:0.038147 18:0.06267 19:0.027248 20:0.054496 
-0.01675643998490851 1:0.08498 2:0.027668 3:0.047431 4:0.041502 5:0.043478 6:0.112648 7:0.035573 8:0.025692 9:0.021739 10:0.132411 11:0.017787 12:0.021739 13:0.096838 14:0.039526 15:0.035573 16:0.06917 17:0.061265 18:0.045455 19:0.005929 20:0.033597 
-0.02895861429437964 1:0.06383 2:0.024316 3:0.039514 4:0.06383 5:0.018237 6:0.088146 7:0.024316 8:0.042553 9:0.085106 10:0.085106 11:0.024316 12:0.075988 13:0.036474 14:0.033435 15:0.036474 16:0.072948 17:0.033435 18:0.069909 19:0.027356 20:0.054711 
-0.0917310382908362 1:0.10625 2:0.01875 3:0.059375 4:0.065625 5:0.05 6:0.090625 7:0.025 8:0.046875 9:0.071875 10:0.034375 11:0.03125 12:0.04375 13:0.04375 14:0.025 15:0.046875 16:0.05625 17:0.06875 18:0.08125 19:0.0125 20:0.021875 
-0.03299145176752819 1:0.082935 2:0.027113 3:0.043062 4:0.044657 5:0.038278 6:0.07177 7:0.036683 8:0.033493 9:0.030303 10:0.121212 11:0.014354 12:0.038278 13:0.095694 14:0.033493 15:0.052632 16:0.070175 17:0.044657 18:0.052632 19:0.036683 20:0.031898 
-0.02415352210769761 1:0.07767 2:0.013592 3:0.050485 4:0.038835 5:0.058252 6:0.067961 7:0.023301 8:0.042718 9:0.040777 10:0.108738 11:0.019417 12:0.036893 13:0.064078 14:0.034951 15:0.050485 16:0.083495 17:0.062136 18:0.062136 19:0.025243 20:0.038835 
-0.03582114597255187 1:0.047778 2:0.012222 3:0.057778 4:0.062222 5:0.058889 6:0.055556 7:0.03 8:0.064444 9:0.058889 10:0.071111 11:0.021111 12:0.06 13:0.038889 14:0.032222 15:0.037778 16:0.075556 17:0.065556 18:0.068889 19:0.027778 20:0.053333 
-0.1419809980295176 1:0.058642 2:0.007716 3:0.044753 4:0.060185 5:0.044753 6:0.064815 7:0.029321 8:0.044753 9:0.037037 10:0.100309 11:0.016975 12:0.044753 13:0.054012 14:0.046296 15:0.061728 16:0.058642 17:0.061728 18:0.078704 19:0.027778 20:0.057099 
-0.002336045047454431 1:0.040169 2:0.021142 3:0.057082 4:0.052854 5:0.033827 6:0.084567 7:0.040169 8:0.042283 9:0.044397 10:0.109937 11:0.016913 12:0.042283 13:0.084567 14:0.029598 15:0.052854 16:0.065539 17:0.065539 18:0.048626 19:0.023256 20:0.044397 
-0.007567837883202072 1:0.072464 2:0.021739 3:0.039855 4:0.039855 5:0.057971 6:0.094203 7:0.028986 8:0.014493 9:0.061594 10:0.086957 11:0.007246 12:0.032609 13:0.072464 14:0.061594 15:0.032609 16:0.097826 17:0.054348 18:0.054348 19:0.036232 20:0.032609 
