svm_type c_svc
kernel_type polynomial
degree 10
gamma 10
coef0 1
nr_class 2
total_sv 49
rho -2.04899
label 1 -1
nr_sv 34 15
SV
0.7970996461387724 1:0.046632 2:0.024611 3:0.068653 4:0.05829 5:0.050518 6:0.064767 7:0.044041 8:0.051813 9:0.056995 10:0.073834 11:0.023316 12:0.049223 13:0.049223 14:0.03886 15:0.067358 16:0.067358 17:0.055699 18:0.055699 19:0.016839 20:0.036269 
0.7221873419661063 1:0.063915 2:0.009321 3:0.04261 4:0.057257 5:0.055925 6:0.073236 7:0.047936 8:0.029294 9:0.031957 10:0.091877 11:0.01731 12:0.037284 13:0.082557 14:0.039947 15:0.058589 16:0.061252 17:0.05992 18:0.070573 19:0.023968 20:0.045273 
0.0003939459772813777 1:0.026376 2:0.00344 3:0.001147 4:0.001147 5:0.002294 6:0.011468 7:0.004587 8:0.047018 9:0.198394 10:0.008028 11:0.002294 12:0.006881 13:0.251147 14:0.009174 15:0.011468 16:0.106651 17:0.110092 18:0.006881 19:0 20:0.191514 
0.04615809679703409 1:0.142857 2:0.083333 3:0.02381 4:0.083333 5:0.059524 6:0.071429 7:0.02381 8:0.071429 9:0.059524 10:0.083333 11:0.011905 12:0.02381 13:0.011905 14:0.02381 15:0.071429 16:0.02381 17:0.035714 18:0.083333 19:0 20:0.011905 
0.03680557525051904 1:0.072917 2:0.026042 3:0.03125 4:0.078125 5:0.020833 6:0.052083 7:0.005208 8:0.041667 9:0.041667 10:0.182292 11:0.020833 12:0.026042 13:0.078125 14:0.036458 15:0.072917 16:0.057292 17:0.0625 18:0.0625 19:0.010417 20:0.020833 
0.4943575890578546 1:0.072658 2:0.028681 3:0.051625 4:0.059273 5:0.063098 6:0.068834 7:0.042065 8:0.045889 9:0.034417 10:0.10325 11:0.022945 12:0.045889 13:0.053537 14:0.030593 15:0.038241 16:0.051625 17:0.055449 18:0.072658 19:0.013384 20:0.045889 
0.5953887864497105 1:0.059633 2:0.009174 3:0.057339 4:0.059633 5:0.059633 6:0.073394 7:0.022936 8:0.066514 9:0.059633 10:0.100917 11:0.018349 12:0.038991 13:0.050459 14:0.052752 15:0.034404 16:0.087156 17:0.050459 18:0.043578 19:0.018349 20:0.036697 
0.01660198026645664 1:0.097087 2:0.029126 3:0.029126 4:0.097087 5:0.038835 6:0.038835 7:0.048544 8:0.038835 9:0.019417 10:0.106796 11:0.029126 12:0.058252 13:0.029126 14:0.048544 15:0.135922 16:0.029126 17:0.019417 18:0.048544 19:0 20:0.058252 
6.707875775057288e-05 1:0.067909 2:0.003995 3:0.001332 4:0.001332 5:0.002663 6:0.011984 7:0.003995 8:0.014647 9:0.191744 10:0.01731 11:0.002663 12:0.011984 13:0.241012 14:0.002663 15:0.005326 16:0.11984 17:0.103862 18:0.005326 19:0 20:0.190413 
0.04166067712256651 1:0.070093 2:0.004673 3:0.03271 4:0.093458 5:0.03271 6:0.042056 7:0.018692 8:0.046729 9:0.065421 10:0.102804 11:0.028037 12:0.051402 13:0.088785 14:0.065421 15:0.03271 16:0.084112 17:0.028037 18:0.051402 19:0.009346 20:0.051402 
0.2799871100937807 1:0.074419 2:0.004651 3:0.051163 4:0.051163 5:0.053488 6:0.060465 7:0.027907 8:0.048837 9:0.046512 10:0.12093 11:0.034884 12:0.039535 13:0.039535 14:0.032558 15:0.04186 16:0.086047 17:0.076744 18:0.062791 19:0.018605 20:0.027907 
0.1765526956675366 1:0.076046 2:0.019011 3:0.064639 4:0.076046 5:0.015209 6:0.04943 7:0.034221 8:0.060837 9:0.045627 10:0.079848 11:0.019011 12:0.04943 13:0.053232 14:0.030418 15:0.068441 16:0.064639 17:0.064639 18:0.091255 19:0.015209 20:0.022814 
0.03984012964495098 1:0.05668 2:0.008097 3:0.068826 4:0.048583 5:0.044534 6:0.137652 7:0.032389 8:0.024291 9:0.052632 10:0.093117 11:0.020243 12:0.040486 13:0.068826 14:0.032389 15:0.02834 16:0.036437 17:0.072874 18:0.068826 19:0.008097 20:0.05668 
0.2296760401023093 1:0.068441 2:0.026616 3:0.064639 4:0.068441 5:0.038023 6:0.117871 7:0.015209 8:0.041825 9:0.102662 10:0.053232 11:0.011407 12:0.026616 13:0.068441 14:0.007605 15:0.022814 16:0.060837 17:0.068441 18:0.076046 19:0.022814 20:0.038023 
0.2784898984005523 1:0.036036 2:0.04955 3:0.045045 4:0.058559 5:0.027027 6:0.054054 7:0.031532 8:0.04955 9:0.067568 10:0.130631 11:0.036036 12:0.018018 13:0.063063 14:0.04955 15:0.067568 16:0.058559 17:0.040541 18:0.054054 19:0.027027 20:0.036036 
0.0004785680652484109 1:0.069231 2:0.030769 3:0.076923 4:0.023077 5:0.046154 6:0.092308 7:0.007692 8:0.038462 9:0.053846 10:0.1 11:0.030769 12:0 13:0.053846 14:0.038462 15:0.061538 16:0.076923 17:0.023077 18:0.092308 19:0.030769 20:0.053846 
0.5014174440425023 1:0.090452 2:0.002513 3:0.047739 4:0.082915 5:0.027638 6:0.070352 7:0.015075 8:0.050251 9:0.067839 10:0.125628 11:0.020101 12:0.047739 13:0.032663 14:0.040201 15:0.052764 16:0.072864 17:0.047739 18:0.070352 19:0.017588 20:0.017588 
0.1085303992310944 1:0.048433 2:0 3:0.058405 4:0.062678 5:0.088319 6:0.041311 7:0.025641 8:0.04416 9:0.075499 10:0.069801 11:0.025641 12:0.058405 13:0.064103 14:0.039886 15:0.032764 16:0.052707 17:0.021368 18:0.075499 19:0.008547 20:0.106838 
0.01622681887729677 1:0.044444 2:0.005556 3:0.011111 4:0.1 5:0.061111 6:0.005556 7:0.022222 8:0.083333 9:0.072222 10:0.05 11:0.022222 12:0.044444 13:0.072222 14:0.105556 15:0.033333 16:0.055556 17:0.055556 18:0.094444 19:0.011111 20:0.05 
0.0224228710004287 1:0.05 2:0.033333 3:0.025 4:0.041667 5:0.008333 6:0.016667 7:0.008333 8:0.066667 9:0.075 10:0.133333 11:0.008333 12:0.075 13:0.083333 14:0.041667 15:0.058333 16:0.066667 17:0.066667 18:0.091667 19:0.016667 20:0.033333 
0.03658948840983498 1:0.074074 2:0.014815 3:0.066667 4:0.051852 5:0.037037 6:0.051852 7:0.022222 8:0.037037 9:0.096296 10:0.074074 11:0.02963 12:0.074074 13:0.014815 14:0.037037 15:0.051852 16:0.051852 17:0.066667 18:0.044444 19:0.014815 20:0.088889 
0.07387276231863707 1:0.108696 2:0.054348 3:0.032609 4:0.065217 5:0.054348 6:0.032609 7:0 8:0.054348 9:0.043478 10:0.086957 11:0.021739 12:0.032609 13:0.054348 14:0.043478 15:0.043478 16:0.065217 17:0.086957 18:0.054348 19:0.021739 20:0.043478 
0.1703583702033731 1:0.040541 2:0.040541 3:0.054054 4:0.058559 5:0.072072 6:0.040541 7:0.031532 8:0.063063 9:0.076577 10:0.103604 11:0.018018 12:0.063063 13:0.036036 14:0.031532 15:0.067568 16:0.045045 17:0.076577 18:0.027027 19:0.018018 20:0.036036 
0.03265928125355702 1:0.098361 2:0.008197 3:0.040984 4:0.114754 5:0.057377 6:0.081967 7:0.016393 8:0.008197 9:0.065574 10:0.07377 11:0.04918 12:0.02459 13:0.040984 14:0.008197 15:0.016393 16:0.081967 17:0.065574 18:0.098361 19:0.02459 20:0.02459 
0.09269406329475584 1:0.089514 2:0.01023 3:0.079284 4:0.015345 5:0.040921 6:0.086957 7:0.005115 8:0.076726 9:0.066496 10:0.079284 11:0.002558 12:0.061381 13:0.043478 14:0.048593 15:0.015345 16:0.084399 17:0.079284 18:0.069054 19:0.002558 20:0.043478 
0.04028657169926318 1:0.088372 2:0 3:0.088372 4:0.07907 5:0.04186 6:0.046512 7:0.037209 8:0.069767 9:0.069767 10:0.093023 11:0.037209 12:0.04186 13:0.027907 14:0.027907 15:0.032558 16:0.051163 17:0.037209 18:0.116279 19:0 20:0.013953 
0.1335475409212657 1:0.066225 2:0.039735 3:0.039735 4:0.02649 5:0.019868 6:0.092715 7:0.02649 8:0.092715 9:0.07947 10:0.072848 11:0.006623 12:0.039735 13:0.059603 14:0.039735 15:0.039735 16:0.099338 17:0.046358 18:0.05298 19:0.006623 20:0.05298 
0.002049379760398747 1:0.037313 2:0.029851 3:0.037313 4:0.067164 5:0.014925 6:0.067164 7:0.014925 8:0.074627 9:0.044776 10:0.097015 11:0.037313 12:0.037313 13:0.074627 14:0.037313 15:0.029851 16:0.097015 17:0.052239 18:0.067164 19:0.022388 20:0.059701 
0.247840896830032 1:0.078329 2:0.018277 3:0.065274 4:0.02611 5:0.057441 6:0.088773 7:0.023499 8:0.046997 9:0.05483 10:0.096606 11:0.018277 12:0.031332 13:0.039164 14:0.046997 15:0.049608 16:0.078329 17:0.070496 18:0.046997 19:0.020888 20:0.041775 
0.1128454063131875 1:0.04698 2:0.040268 3:0.033557 4:0.060403 5:0.053691 6:0.04698 7:0.013423 8:0.060403 9:0.080537 10:0.053691 11:0.013423 12:0.04698 13:0.080537 14:0.040268 15:0.026846 16:0.087248 17:0.04698 18:0.120805 19:0.020134 20:0.026846 
0.04215255706393845 1:0.090909 2:0.050505 3:0.040404 4:0.030303 5:0.040404 6:0.020202 7:0.020202 8:0.050505 9:0.121212 10:0.10101 11:0.020202 12:0.020202 13:0.060606 14:0.060606 15:0.050505 16:0.060606 17:0.10101 18:0.030303 19:0.010101 20:0.020202 
0.2150001613675266 1:0.092279 2:0.007533 3:0.048964 4:0.026365 5:0.033898 6:0.077213 7:0.041431 8:0.05838 9:0.026365 10:0.082863 11:0.013183 12:0.062147 13:0.084746 14:0.026365 15:0.054614 16:0.065913 17:0.073446 18:0.080979 19:0.013183 20:0.030132 
0.08527088150044193 1:0.082873 2:0.027624 3:0.066298 4:0.022099 5:0.044199 6:0.082873 7:0.022099 8:0.049724 9:0.055249 10:0.082873 11:0.022099 12:0.066298 13:0.038674 14:0.01105 15:0.049724 16:0.071823 17:0.077348 18:0.071823 19:0.016575 20:0.038674 
0.5375073821647286 1:0.070313 2:0.007813 3:0.070313 4:0.074219 5:0.050781 6:0.039063 7:0.023438 8:0.054688 9:0.09375 10:0.078125 11:0.03125 12:0.046875 13:0.023438 14:0.03125 15:0.039063 16:0.0625 17:0.058594 18:0.070313 19:0.015625 20:0.058594 
-0.2232017933096622 1:0.076866 2:0.028086 3:0.046563 4:0.06578 5:0.04952 6:0.076127 7:0.02439 8:0.069475 9:0.05765 10:0.076866 11:0.031781 12:0.042868 13:0.051737 14:0.036955 15:0.044346 16:0.061345 17:0.051737 18:0.06578 19:0.006652 20:0.035477 
-1 1:0.062834 2:0.010695 3:0.073529 4:0.03877 5:0.045455 6:0.066845 7:0.020053 8:0.064171 9:0.074866 10:0.100267 11:0.020053 12:0.041444 13:0.034759 14:0.041444 15:0.046791 16:0.076203 17:0.061497 18:0.066845 19:0.012032 20:0.041444 
-0.1149323254713561 1:0.071186 2:0.030508 3:0.047458 4:0.037288 5:0.057627 6:0.050847 7:0.016949 8:0.023729 9:0.071186 10:0.145763 11:0.020339 12:0.030508 13:0.037288 14:0.050847 15:0.071186 16:0.054237 17:0.037288 18:0.081356 19:0.010169 20:0.054237 
-0.313927780341079 1:0.067194 2:0.017787 3:0.073123 4:0.037549 5:0.065217 6:0.067194 7:0.031621 8:0.045455 9:0.067194 10:0.059289 11:0.019763 12:0.05336 13:0.065217 14:0.045455 15:0.051383 16:0.057312 17:0.059289 18:0.067194 19:0.009881 20:0.039526 
-0.2968310702743844 1:0.057279 2:0.031026 3:0.0358 4:0.073986 5:0.069212 6:0.059666 7:0.019093 8:0.069212 9:0.066826 10:0.105012 11:0.019093 12:0.050119 13:0.050119 14:0.02864 15:0.052506 16:0.069212 17:0.047733 18:0.040573 19:0.00716 20:0.047733 
-0.0319457446742278 1:0.056213 2:0.02071 3:0.044379 4:0.068047 5:0.056213 6:0.065089 7:0.050296 8:0.056213 9:0.076923 10:0.079882 11:0.029586 12:0.047337 13:0.050296 14:0.04142 15:0.050296 16:0.053254 17:0.050296 18:0.068047 19:0.008876 20:0.026627 
-1 1:0.058824 2:0.022876 3:0.047386 4:0.078431 5:0.04902 6:0.058824 7:0.039216 8:0.04085 9:0.05719 10:0.114379 11:0.026144 12:0.035948 13:0.050654 14:0.039216 15:0.053922 16:0.062092 17:0.050654 18:0.05719 19:0.019608 20:0.037582 
-0.4616389144252419 1:0.105903 2:0.010417 3:0.050347 4:0.067708 5:0.039931 6:0.071181 7:0.022569 8:0.029514 9:0.046875 10:0.076389 11:0.038194 12:0.034722 13:0.029514 14:0.043403 15:0.067708 16:0.071181 17:0.069444 18:0.072917 19:0.024306 20:0.027778 
-0.02218457368551851 1:0.105516 2:0.019185 3:0.045564 4:0.06235 5:0.033573 6:0.091127 7:0.009592 8:0.079137 9:0.064748 10:0.088729 11:0.019185 12:0.067146 13:0.045564 14:0.038369 15:0.045564 16:0.057554 17:0.035971 18:0.069544 19:0 20:0.021583 
-0.8288817194329021 1:0.060694 2:0.017341 3:0.034682 4:0.060694 5:0.037572 6:0.092486 7:0.034682 8:0.060694 9:0.040462 10:0.115607 11:0.014451 12:0.040462 13:0.063584 14:0.031792 15:0.052023 16:0.069364 17:0.052023 18:0.054913 19:0.031792 20:0.034682 
-0.8890931207981564 1:0.051282 2:0.011834 3:0.067061 4:0.053254 5:0.057199 6:0.065089 7:0.035503 8:0.043393 9:0.063116 10:0.061144 11:0.015779 12:0.055227 13:0.080868 14:0.033531 15:0.047337 16:0.063116 17:0.067061 18:0.059172 19:0.015779 20:0.053254 
-0.2878344486107038 1:0.088012 2:0.013657 3:0.060698 4:0.062215 5:0.033384 6:0.059181 7:0.037936 8:0.051593 9:0.051593 10:0.091047 11:0.042489 12:0.039454 13:0.028832 14:0.042489 15:0.059181 16:0.053111 17:0.068285 18:0.062215 19:0.010622 20:0.044006 
-0.2554040663971601 1:0.078987 2:0.013413 3:0.04769 4:0.04769 5:0.040238 6:0.041729 7:0.022355 8:0.078987 9:0.0462 10:0.120715 11:0.023845 12:0.04918 13:0.059613 14:0.0462 15:0.043219 16:0.055142 17:0.058122 18:0.076006 19:0.017884 20:0.032787 
-0.4961024682560586 1:0.090361 2:0.018072 3:0.048193 4:0.072289 5:0.048193 6:0.060241 7:0.03012 8:0.048193 9:0.078313 10:0.066265 11:0.012048 12:0.042169 13:0.060241 14:0.024096 15:0.018072 16:0.078313 17:0.066265 18:0.096386 19:0.012048 20:0.03012 
-0.005039410334243258 1:0.092025 2:0.030675 3:0.021472 4:0.058282 5:0.021472 6:0.076687 7:0.042945 8:0.027607 9:0.027607 10:0.156442 11:0.009202 12:0.003067 13:0.052147 14:0.042945 15:0.119632 16:0.06135 17:0.039877 18:0.055215 19:0.021472 20:0.039877 
