svm_type c_svc
kernel_type polynomial
degree 10
gamma 10
coef0 1
nr_class 2
total_sv 40
rho -3.36801
label 1 -1
nr_sv 33 7
SV
0.02247639657512393 1:0.083582 2:0.002985 3:0.116418 4:0.077612 5:0.032836 6:0.089552 7:0.014925 8:0.047761 9:0.023881 10:0.065672 11:0.023881 12:0.044776 13:0.041791 14:0.026866 15:0.032836 16:0.065672 17:0.068657 18:0.107463 19:0.00597 20:0.026866 
0.02069804174272167 1:0.089385 2:0.01676 3:0.050279 4:0.072626 5:0.044693 6:0.094972 7:0.011173 8:0.039106 9:0.044693 10:0.162011 11:0.005587 12:0.005587 13:0.061453 14:0.039106 15:0.067039 16:0.061453 17:0.03352 18:0.072626 19:0.005587 20:0.022346 
0.07075214230627923 1:0.041237 2:0 3:0.092784 4:0.097938 5:0.06701 6:0.056701 7:0.020619 8:0.06701 9:0.056701 10:0.097938 11:0.020619 12:0.046392 13:0.025773 14:0.041237 15:0.082474 16:0.087629 17:0.041237 18:0.046392 19:0 20:0.010309 
0.2037279257803493 1:0.074703 2:0.003396 3:0.074703 4:0.105263 5:0.013582 6:0.059423 7:0.013582 8:0.047538 9:0.06961 10:0.091681 11:0.022071 12:0.050934 13:0.013582 14:0.06961 15:0.095076 16:0.054329 17:0.056027 18:0.049236 19:0.010187 20:0.025467 
0.1211967434454958 1:0.048485 2:0.018182 3:0.042424 4:0.054545 5:0.072727 6:0.121212 7:0.024242 8:0.054545 9:0.078788 10:0.054545 11:0.030303 12:0.072727 13:0.030303 14:0.018182 15:0.030303 16:0.078788 17:0.066667 18:0.078788 19:0.006061 20:0.018182 
0.03862843707506221 1:0.113253 2:0.012048 3:0.053012 4:0.062651 5:0.043373 6:0.101205 7:0.014458 8:0.050602 9:0.091566 10:0.106024 11:0.024096 12:0.053012 13:0.040964 14:0.014458 15:0.024096 16:0.057831 17:0.036145 18:0.086747 19:0.004819 20:0.009639 
0.164529778375117 1:0.108939 2:0.013966 3:0.036313 4:0.069832 5:0.039106 6:0.086592 7:0.00838 8:0.055866 9:0.067039 10:0.097765 11:0.011173 12:0.039106 13:0.047486 14:0.03352 15:0.039106 16:0.053073 17:0.075419 18:0.069832 19:0.011173 20:0.036313 
0.06689407185206107 1:0.108696 2:0.021739 3:0.059783 4:0.057065 5:0.019022 6:0.092391 7:0.016304 8:0.065217 9:0.0625 10:0.105978 11:0.013587 12:0.05163 13:0.048913 14:0.013587 15:0.035326 16:0.07337 17:0.05163 18:0.076087 19:0.01087 20:0.016304 
0.01471936826090012 1:0.09901 2:0.019802 3:0.046676 4:0.076379 5:0.024045 6:0.039604 7:0.009901 8:0.046676 9:0.079208 10:0.110325 11:0.01273 12:0.057992 13:0.042433 14:0.066478 15:0.065064 16:0.079208 17:0.043847 18:0.041018 19:0.004243 20:0.035361 
0.08201722471198834 1:0.052786 2:0.01173 3:0.073314 4:0.061584 5:0.046921 6:0.061584 7:0.029326 8:0.049853 9:0.085044 10:0.123167 11:0.020528 12:0.035191 13:0.029326 14:0.041056 15:0.032258 16:0.064516 17:0.035191 18:0.079179 19:0.014663 20:0.052786 
0.3329785545281685 1:0.053785 2:0.001992 3:0.069721 4:0.075697 5:0.051793 6:0.055777 7:0.023904 8:0.053785 9:0.081673 10:0.115538 11:0.025896 12:0.051793 13:0.039841 14:0.049801 15:0.037849 16:0.061753 17:0.059761 18:0.047809 19:0.011952 20:0.02988 
0.003882493516138396 1:0.063776 2:0.02551 3:0.028061 4:0.07398 5:0.068878 6:0.084184 7:0.028061 8:0.038265 9:0.040816 10:0.096939 11:0.030612 12:0.040816 13:0.056122 14:0.053571 15:0.053571 16:0.056122 17:0.053571 18:0.068878 19:0.012755 20:0.02551 
0.04399720058446352 1:0.107735 2:0.019337 3:0.030387 4:0.063536 5:0.024862 6:0.09116 7:0.024862 8:0.049724 9:0.063536 10:0.11326 11:0.019337 12:0.019337 13:0.049724 14:0.041436 15:0.033149 16:0.077348 17:0.052486 18:0.096685 19:0.01105 20:0.01105 
0.013697066107169 1:0.054217 2:0.024096 3:0.048193 4:0.072289 5:0.024096 6:0.162651 7:0.042169 8:0.054217 9:0.084337 10:0.060241 11:0.006024 12:0.060241 13:0.048193 14:0.024096 15:0.018072 16:0.054217 17:0.054217 18:0.10241 19:0 20:0.006024 
0.002599552444825825 1:0.092672 2:0 3:0.047414 4:0.12069 5:0.012931 6:0.088362 7:0.010776 8:0.034483 9:0.060345 10:0.092672 11:0.034483 12:0.032328 13:0.008621 14:0.060345 15:0.077586 16:0.103448 17:0.047414 18:0.043103 19:0.00431 20:0.028017 
0.1484535821017649 1:0.027778 2:0.007937 3:0.075397 4:0.075397 5:0.071429 6:0.075397 7:0.02381 8:0.071429 9:0.079365 10:0.083333 11:0.015873 12:0.063492 13:0.035714 14:0.035714 15:0.043651 16:0.055556 17:0.059524 18:0.051587 19:0.007937 20:0.039683 
0.1758052267892969 1:0.060367 2:0.026247 3:0.060367 4:0.049869 5:0.028871 6:0.076115 7:0.018373 8:0.089239 9:0.060367 10:0.07874 11:0.018373 12:0.052493 13:0.052493 14:0.03937 15:0.023622 16:0.091864 17:0.049869 18:0.07874 19:0 20:0.044619 
0.02981471609388932 1:0.073333 2:0.02 3:0.073333 4:0.053333 5:0.033333 6:0.18 7:0.053333 8:0.046667 9:0.06 10:0.06 11:0.006667 12:0.06 13:0.033333 14:0.02 15:0.02 16:0.053333 17:0.046667 18:0.1 19:0 20:0.006667 
0.1785333513070867 1:0.025825 2:0.018651 3:0.053085 4:0.050215 5:0.041607 6:0.057389 7:0.028694 8:0.077475 9:0.07891 10:0.077475 11:0.025825 12:0.070301 13:0.04878 14:0.037303 15:0.02726 16:0.117647 17:0.07604 18:0.040172 19:0.012912 20:0.034433 
0.05326008493053077 1:0.055556 2:0 3:0.083333 4:0.083333 5:0.055556 6:0.111111 7:0 8:0.027778 9:0.138889 10:0.083333 11:0 12:0.027778 13:0.027778 14:0.027778 15:0.027778 16:0.083333 17:0.055556 18:0.055556 19:0.027778 20:0.027778 
0.007699317324126155 1:0.190141 2:0.007042 3:0.049296 4:0.056338 5:0.070423 6:0.112676 7:0.014085 8:0.014085 9:0.070423 10:0.06338 11:0.035211 12:0.042254 13:0.021127 14:0.035211 15:0.007042 16:0.084507 17:0.042254 18:0.049296 19:0.028169 20:0.007042 
0.03656896112691337 1:0.071895 2:0.013072 3:0.078431 4:0.052288 5:0.039216 6:0.156863 7:0.052288 8:0.058824 9:0.058824 10:0.045752 11:0 12:0.045752 13:0.039216 14:0.039216 15:0.03268 16:0.052288 17:0.078431 18:0.071895 19:0.006536 20:0.006536 
0.01481726138889004 1:0.074689 2:0.008299 3:0.107884 4:0.13278 5:0.024896 6:0.087137 7:0.033195 8:0.024896 9:0.016598 10:0.082988 11:0.033195 12:0.029046 13:0.058091 14:0.037344 15:0.033195 16:0.070539 17:0.053942 18:0.053942 19:0.004149 20:0.033195 
0.009006519209811294 1:0.084249 2:0.009158 3:0.076923 4:0.06044 5:0.029304 6:0.067766 7:0.014652 8:0.06044 9:0.071429 10:0.120879 11:0.02381 12:0.043956 13:0.031136 14:0.03663 15:0.049451 16:0.056777 17:0.067766 18:0.07326 19:0.001832 20:0.020147 
0.1135667991132481 1:0.075658 2:0.003289 3:0.046053 4:0.059211 5:0.0625 6:0.078947 7:0.046053 8:0.065789 9:0.059211 10:0.065789 11:0.029605 12:0.0625 13:0.036184 14:0.046053 15:0.023026 16:0.059211 17:0.0625 18:0.052632 19:0.029605 20:0.036184 
0.4865073471420547 1:0.05787 2:0.006944 3:0.059028 4:0.060185 5:0.043981 6:0.065972 7:0.030093 8:0.061343 9:0.059028 10:0.104167 11:0.015046 12:0.052083 13:0.059028 14:0.023148 15:0.045139 16:0.075231 17:0.05787 18:0.06713 19:0.016204 20:0.040509 
0.006013430116869945 1:0.070175 2:0.065789 3:0.050439 4:0.076754 5:0 6:0.08114 7:0.015351 8:0.019737 9:0.030702 10:0.214912 11:0.004386 12:0.037281 13:0.035088 14:0.054825 15:0.048246 16:0.083333 17:0.050439 18:0.041667 19:0.010965 20:0.008772 
0.001980150234580949 1:0.101266 2:0.012658 3:0.050633 4:0.056962 5:0.018987 6:0.158228 7:0.044304 8:0.050633 9:0.056962 10:0.056962 11:0.012658 12:0.044304 13:0.037975 14:0.031646 15:0.031646 16:0.044304 17:0.075949 18:0.094937 19:0.006329 20:0.012658 
0.04639365277641046 1:0.059211 2:0.019737 3:0.085526 4:0.046053 5:0.072368 6:0.059211 7:0.032895 8:0.026316 9:0.065789 10:0.105263 11:0.046053 12:0.046053 13:0.026316 14:0.032895 15:0.046053 16:0.065789 17:0.052632 18:0.065789 19:0.013158 20:0.032895 
0.04788088066355049 1:0.019194 2:0.017274 3:0.051823 4:0.06142 5:0.03263 6:0.049904 7:0.028791 8:0.086372 9:0.049904 10:0.067179 11:0.017274 12:0.117083 13:0.046065 14:0.042226 15:0.047985 16:0.105566 17:0.067179 18:0.040307 19:0.007678 20:0.044146 
0.001917539366751837 1:0.043812 2:0.021906 3:0.059146 4:0.060241 5:0.038335 6:0.052574 7:0.03724 8:0.049288 9:0.054765 10:0.089814 11:0.025192 12:0.047097 13:0.051479 14:0.054765 15:0.056955 16:0.085433 17:0.05586 18:0.069003 19:0.010953 20:0.036145 
0.03243109281352347 1:0.066946 2:0.031799 3:0.05272 4:0.074477 5:0.029289 6:0.061925 7:0.025105 8:0.041841 9:0.07113 10:0.101255 11:0.022594 12:0.035146 13:0.050209 14:0.041841 15:0.057741 16:0.096234 17:0.049372 18:0.060251 19:0.014226 20:0.0159 
0.1798009486766166 1:0.070707 2:0.015152 3:0.080808 4:0.055556 5:0.060606 6:0.090909 7:0.015152 8:0.050505 9:0.070707 10:0.085859 11:0.005051 12:0.035354 13:0.055556 14:0.020202 15:0.050505 16:0.050505 17:0.050505 18:0.090909 19:0.010101 20:0.035354 
-0.259240429627926 1:0.044248 2:0.00885 3:0.059735 4:0.04646 5:0.084071 6:0.061947 7:0.017699 8:0.070796 9:0.090708 10:0.088496 11:0.017699 12:0.073009 13:0.033186 14:0.030973 15:0.013274 16:0.059735 17:0.075221 18:0.066372 19:0.00885 20:0.048673 
-0.3391615248559392 1:0.075972 2:0.0053 3:0.077739 4:0.063604 5:0.04417 6:0.065371 7:0.045936 8:0.04417 9:0.04947 10:0.095406 11:0.012367 12:0.047703 13:0.031802 14:0.035336 15:0.042403 16:0.086572 17:0.061837 18:0.070671 19:0.008834 20:0.035336 
-0.003349328897855645 1:0.031667 2:0.001667 3:0.076667 4:0.113333 5:0.026667 6:0.033333 7:0.011667 8:0.058333 9:0.133333 10:0.091667 11:0.03 12:0.141667 13:0.025 14:0.046667 15:0.005 16:0.041667 17:0.046667 18:0.053333 19:0 20:0.031667 
-0.5175039381386982 1:0.088583 2:0.023622 3:0.049213 4:0.057087 5:0.041339 6:0.11811 7:0.009843 8:0.062992 9:0.059055 10:0.084646 11:0.023622 12:0.025591 13:0.051181 14:0.041339 15:0.027559 16:0.064961 17:0.049213 18:0.076772 19:0.011811 20:0.033465 
-0.3524805852549682 1:0.056962 2:0.003165 3:0.088608 4:0.079114 5:0.018987 6:0.047468 7:0.012658 8:0.041139 9:0.06962 10:0.110759 11:0.022152 12:0.050633 13:0.028481 14:0.066456 15:0.10443 16:0.056962 17:0.053797 18:0.053797 19:0.012658 20:0.022152 
-1 1:0.060311 2:0.009728 3:0.060311 4:0.075875 5:0.050584 6:0.085603 7:0.027237 8:0.060311 9:0.07393 10:0.097276 11:0.011673 12:0.054475 13:0.046693 14:0.027237 15:0.035019 16:0.064202 17:0.054475 18:0.064202 19:0.011673 20:0.029183 
-0.3015100517063927 1:0.040825 2:0.011414 3:0.058385 4:0.057068 5:0.036435 6:0.03863 7:0.026339 8:0.061457 9:0.076383 10:0.083406 11:0.018437 12:0.080773 13:0.046532 14:0.03468 15:0.046532 16:0.122476 17:0.072432 18:0.045215 19:0.007902 20:0.03468 
