svm_type c_svc
kernel_type polynomial
degree 10
gamma 10
coef0 1
nr_class 2
total_sv 36
rho -1.10788
label 1 -1
nr_sv 28 8
SV
0.00205306648312369 1:0.109244 2:0.004202 3:0.07563 4:0.067227 5:0.02521 6:0.067227 7:0.004202 8:0.021008 9:0.037815 10:0.063025 11:0.05042 12:0.029412 13:0.067227 14:0.05042 15:0.12605 16:0.067227 17:0.02521 18:0.088235 19:0.016807 20:0.004202 
0.005259153066013306 1:0.092896 2:0.032787 3:0.054645 4:0.032787 5:0.054645 6:0.032787 7:0.005464 8:0.038251 9:0.04918 10:0.054645 11:0.043716 12:0.071038 13:0.065574 14:0.060109 15:0.054645 16:0.065574 17:0.065574 18:0.065574 19:0.021858 20:0.038251 
0.07401348120605504 1:0.083333 2:0.038889 3:0.033333 4:0.044444 5:0.038889 6:0.072222 7:0.005556 8:0.038889 9:0.066667 10:0.061111 11:0.027778 12:0.022222 13:0.044444 14:0.061111 15:0.033333 16:0.094444 17:0.077778 18:0.083333 19:0.027778 20:0.044444 
0.1582641156175718 1:0.067797 2:0 3:0.061017 4:0.050847 5:0.037288 6:0.061017 7:0.016949 8:0.064407 9:0.064407 10:0.111864 11:0.037288 12:0.037288 13:0.033898 14:0.077966 15:0.071186 16:0.040678 17:0.067797 18:0.057627 19:0 20:0.040678 
0.06278101416493613 1:0.059406 2:0.009901 3:0.049505 4:0.044554 5:0.044554 6:0.056931 7:0.066832 8:0.044554 9:0.049505 10:0.108911 11:0.022277 12:0.042079 13:0.079208 14:0.014851 15:0.044554 16:0.066832 17:0.042079 18:0.066832 19:0.037129 20:0.049505 
0.5719537052115117 1:0.067164 2:0.027363 3:0.054726 4:0.059701 5:0.032338 6:0.09204 7:0.007463 8:0.059701 9:0.052239 10:0.094527 11:0.012438 12:0.042289 13:0.037313 14:0.052239 15:0.042289 16:0.084577 17:0.052239 18:0.077114 19:0.007463 20:0.044776 
0.1744953505426062 1:0.070479 2:0.014628 3:0.06117 4:0.06117 5:0.037234 6:0.089096 7:0.029255 8:0.050532 9:0.06383 10:0.085106 11:0.022606 12:0.053191 13:0.035904 14:0.034574 15:0.046543 16:0.077128 17:0.039894 18:0.073138 19:0.021277 20:0.033245 
0.01714314132528919 1:0.120155 2:0.011628 3:0.05814 4:0.050388 5:0.042636 6:0.081395 7:0.011628 8:0.031008 9:0.081395 10:0.077519 11:0.003876 12:0.042636 13:0.042636 14:0.03876 15:0.034884 16:0.093023 17:0.065891 18:0.05814 19:0.007752 20:0.046512 
0.002352194519742912 1:0.094708 2:0.008357 3:0.052925 4:0.086351 5:0.058496 6:0.089136 7:0.019499 8:0.069638 9:0.052925 10:0.075209 11:0.022284 12:0.05571 13:0.027855 14:0.02507 15:0.027855 16:0.064067 17:0.050139 18:0.083565 19:0.002786 20:0.033426 
0.03049448112558891 1:0.095361 2:0.012887 3:0.059278 4:0.046392 5:0.033505 6:0.128866 7:0.010309 8:0.07732 9:0.051546 10:0.085052 11:0.023196 12:0.030928 13:0.033505 14:0.018041 15:0.041237 16:0.090206 17:0.043814 18:0.090206 19:0.005155 20:0.023196 
0.03159876247790719 1:0.08046 2:0.022989 3:0.034483 4:0.103448 5:0.011494 6:0.126437 7:0.022989 8:0.057471 9:0.034483 10:0.034483 11:0.022989 12:0.068966 13:0.045977 14:0.034483 15:0.011494 16:0.103448 17:0.022989 18:0.08046 19:0.022989 20:0.057471 
0.0006103317406532953 1:0 2:0.041667 3:0.208333 4:0.083333 5:0.083333 6:0.041667 7:0.041667 8:0.041667 9:0.083333 10:0 11:0.083333 12:0 13:0.083333 14:0 15:0 16:0 17:0.041667 18:0.083333 19:0.083333 20:0 
0.2406783045120619 1:0.047855 2:0.013201 3:0.064356 4:0.051155 5:0.044554 6:0.054455 7:0.028053 8:0.067657 9:0.072607 10:0.084158 11:0.009901 12:0.072607 13:0.069307 14:0.036304 15:0.041254 16:0.077558 17:0.047855 18:0.064356 19:0.013201 20:0.039604 
0.1782877469240346 1:0.119403 2:0.008529 3:0.046908 4:0.057569 5:0.051173 6:0.1258 7:0.021322 8:0.051173 9:0.057569 10:0.06823 11:0.031983 12:0.025586 13:0.053305 14:0.01919 15:0.040512 16:0.049041 17:0.053305 18:0.08742 19:0.006397 20:0.025586 
0.05171620730646163 1:0.09375 2:0.0625 3:0.125 4:0.052083 5:0.020833 6:0.09375 7:0.010417 8:0.052083 9:0.041667 10:0.072917 11:0 12:0 13:0.03125 14:0.0625 15:0.010417 16:0.083333 17:0.072917 18:0.0625 19:0 20:0.052083 
0.04007996367210345 1:0.082278 2:0.014768 3:0.065401 4:0.052743 5:0.042194 6:0.097046 7:0.006329 8:0.048523 9:0.061181 10:0.06962 11:0.042194 12:0.056962 13:0.044304 14:0.044304 15:0.050633 16:0.050633 17:0.054852 18:0.075949 19:0.006329 20:0.033755 
0.08949120796138557 1:0.101887 2:0.003774 3:0.056604 4:0.041509 5:0.067925 6:0.113208 7:0.011321 8:0.026415 9:0.049057 10:0.101887 11:0.030189 12:0.05283 13:0.064151 14:0.026415 15:0.026415 16:0.045283 17:0.045283 18:0.083019 19:0.022642 20:0.030189 
0.002536785666076097 1:0.09009 2:0.009009 3:0.045045 4:0.040541 5:0.031532 6:0.108108 7:0.045045 8:0.031532 9:0.040541 10:0.094595 11:0.009009 12:0.04955 13:0.063063 14:0.018018 15:0.018018 16:0.108108 17:0.112613 18:0.085586 19:0 20:0 
0.1363272254251481 1:0.106227 2:0 3:0.03663 4:0.043956 5:0.054945 6:0.120879 7:0.010989 8:0.051282 9:0.054945 10:0.113553 11:0.025641 12:0.03663 13:0.062271 14:0.043956 15:0.03663 16:0.069597 17:0.040293 18:0.040293 19:0.018315 20:0.032967 
0.06740390452491871 1:0.067797 2:0 3:0.055085 4:0.067797 5:0.042373 6:0.042373 7:0.016949 8:0.084746 9:0.080508 10:0.097458 11:0.025424 12:0.072034 13:0.025424 14:0.021186 15:0.038136 16:0.084746 17:0.055085 18:0.067797 19:0.004237 20:0.050847 
0.02673605501631728 1:0.073684 2:0.042105 3:0.073684 4:0.126316 5:0.052632 6:0.094737 7:0.010526 8:0.042105 9:0.042105 10:0.094737 11:0.010526 12:0 13:0.042105 14:0.021053 15:0.010526 16:0.094737 17:0.073684 18:0.073684 19:0 20:0.021053 
0.006202310317518309 1:0.063291 2:0 3:0.050633 4:0.07173 5:0.054852 6:0.029536 7:0.012658 8:0.084388 9:0.097046 10:0.105485 11:0.050633 12:0.067511 13:0.021097 14:0.037975 15:0.037975 16:0.080169 17:0.033755 18:0.042194 19:0.004219 20:0.054852 
0.01916160016457215 1:0.056738 2:0.014184 3:0.070922 4:0.056738 5:0.021277 6:0.163121 7:0.056738 8:0.035461 9:0.035461 10:0.099291 11:0.007092 12:0.042553 13:0.049645 14:0.021277 15:0.028369 16:0.049645 17:0.092199 18:0.099291 19:0 20:0 
1.022315550817829e-05 1:0.062602 2:0.012195 3:0.064228 4:0.079675 5:0.045528 6:0.066667 7:0.030894 8:0.052033 9:0.070732 10:0.080488 11:0.01626 12:0.047967 13:0.043089 14:0.034146 15:0.052033 16:0.074797 17:0.04878 18:0.070732 19:0.019512 20:0.027642 
0.0244166227970515 1:0.070423 2:0.008451 3:0.08169 4:0.039437 5:0.042254 6:0.121127 7:0.011268 8:0.061972 9:0.056338 10:0.092958 11:0.022535 12:0.022535 13:0.039437 14:0.016901 15:0.050704 16:0.095775 17:0.059155 18:0.076056 19:0.005634 20:0.025352 
0.1259684587631179 1:0.069136 2:0.012346 3:0.061728 4:0.051852 5:0.066667 6:0.071605 7:0.02716 8:0.054321 9:0.066667 10:0.079012 11:0.009877 12:0.041975 13:0.061728 14:0.032099 15:0.041975 16:0.116049 17:0.044444 18:0.05679 19:0.009877 20:0.024691 
0.1566122800125265 1:0.058052 2:0.014981 3:0.052434 4:0.052434 5:0.041199 6:0.069288 7:0.037453 8:0.086142 9:0.059925 10:0.095506 11:0.016854 12:0.073034 13:0.035581 14:0.026217 15:0.02809 16:0.088015 17:0.078652 18:0.052434 19:0.003745 20:0.029963 
0.01470545265967749 1:0.039648 2:0.008811 3:0.07489 4:0.066079 5:0.030837 6:0.057269 7:0.004405 8:0.057269 9:0.079295 10:0.061674 11:0.044053 12:0.026432 13:0.066079 14:0.061674 15:0.070485 16:0.123348 17:0.039648 18:0.07489 19:0.008811 20:0.004405 
-0.2243165292985409 1:0.040825 2:0.011414 3:0.058385 4:0.057068 5:0.036435 6:0.03863 7:0.026339 8:0.061457 9:0.076383 10:0.083406 11:0.018437 12:0.080773 13:0.046532 14:0.03468 15:0.046532 16:0.122476 17:0.072432 18:0.045215 19:0.007902 20:0.03468 
-0.00235388051817718 1:0.031667 2:0.001667 3:0.076667 4:0.113333 5:0.026667 6:0.033333 7:0.011667 8:0.058333 9:0.133333 10:0.091667 11:0.03 12:0.141667 13:0.025 14:0.046667 15:0.005 16:0.041667 17:0.046667 18:0.053333 19:0 20:0.031667 
-0.2980770752771275 1:0.068966 2:0.005747 3:0.045977 4:0.031609 5:0.034483 6:0.077586 7:0.014368 8:0.051724 9:0.031609 10:0.08908 11:0.025862 12:0.066092 13:0.066092 14:0.054598 15:0.063218 16:0.08908 17:0.028736 18:0.08046 19:0.011494 20:0.063218 
-0.4273897562996988 1:0.075972 2:0.0053 3:0.077739 4:0.063604 5:0.04417 6:0.065371 7:0.045936 8:0.04417 9:0.04947 10:0.095406 11:0.012367 12:0.047703 13:0.031802 14:0.035336 15:0.042403 16:0.086572 17:0.061837 18:0.070671 19:0.008834 20:0.035336 
-0.1503168304649742 1:0.044248 2:0.00885 3:0.059735 4:0.04646 5:0.084071 6:0.061947 7:0.017699 8:0.070796 9:0.090708 10:0.088496 11:0.017699 12:0.073009 13:0.033186 14:0.030973 15:0.013274 16:0.059735 17:0.075221 18:0.066372 19:0.00885 20:0.048673 
-1 1:0.088583 2:0.023622 3:0.049213 4:0.057087 5:0.041339 6:0.11811 7:0.009843 8:0.062992 9:0.059055 10:0.084646 11:0.023622 12:0.025591 13:0.051181 14:0.041339 15:0.027559 16:0.064961 17:0.049213 18:0.076772 19:0.011811 20:0.033465 
-0.1309151106456366 1:0.056962 2:0.003165 3:0.088608 4:0.079114 5:0.018987 6:0.047468 7:0.012658 8:0.041139 9:0.06962 10:0.110759 11:0.022152 12:0.050633 13:0.028481 14:0.066456 15:0.10443 16:0.056962 17:0.053797 18:0.053797 19:0.012658 20:0.022152 
-0.07798396385532295 1:0.086111 2:0.008333 3:0.058333 4:0.047222 5:0.052778 6:0.091667 7:0.019444 8:0.058333 9:0.052778 10:0.108333 11:0.005556 12:0.052778 13:0.041667 14:0.044444 15:0.008333 16:0.088889 17:0.077778 18:0.038889 19:0.011111 20:0.047222 
