svm_type c_svc
kernel_type polynomial
degree 10
gamma 10
coef0 1
nr_class 2
total_sv 35
rho 2.59954
label 1 -1
nr_sv 12 23
SV
0.1573870872655035 1:0.103448 2:0.011494 3:0.086207 4:0.091954 5:0.057471 6:0.045977 7:0.021073 8:0.047893 9:0.06705 10:0.088123 11:0.017241 12:0.047893 13:0.042146 14:0.036398 15:0.01341 16:0.06705 17:0.028736 18:0.076628 19:0.007663 20:0.042146 
1 1:0.072271 2:0.010324 3:0.070796 4:0.067847 5:0.057522 6:0.056047 7:0.025074 8:0.044248 9:0.069322 10:0.10177 11:0.026549 12:0.042773 13:0.048673 14:0.025074 15:0.039823 16:0.057522 17:0.058997 18:0.070796 19:0.007375 20:0.047198 
0.543496862009765 1:0.048128 2:0.016043 3:0.037433 4:0.069519 5:0.053476 6:0.053476 7:0.058824 8:0.069519 9:0.037433 10:0.074866 11:0.02139 12:0.037433 13:0.069519 14:0.042781 15:0.037433 16:0.074866 17:0.064171 18:0.069519 19:0.026738 20:0.037433 
0.1364937136546841 1:0.07804 2:0.00726 3:0.085299 4:0.049002 5:0.041742 6:0.088929 7:0.010889 8:0.047187 9:0.068966 10:0.087114 11:0.012704 12:0.059891 13:0.041742 14:0.032668 15:0.025408 16:0.054446 17:0.038113 18:0.088929 19:0.030853 20:0.050817 
0.1369259765141317 1:0.05 2:0.021429 3:0.035714 4:0.078571 5:0.028571 6:0.121429 7:0.021429 8:0.064286 9:0.085714 10:0.128571 11:0.021429 12:0.007143 13:0.05 14:0.035714 15:0.057143 16:0.064286 17:0.042857 18:0.057143 19:0.014286 20:0.014286 
0.1808543764166552 1:0.07946 2:0.005997 3:0.077961 4:0.092954 5:0.035982 6:0.086957 7:0.007496 8:0.073463 9:0.094453 10:0.074963 11:0.014993 12:0.041979 13:0.029985 14:0.032984 15:0.044978 16:0.038981 17:0.065967 18:0.073463 19:0.004498 20:0.022489 
0.2713893906715295 1:0.056093 2:0.009671 3:0.065764 4:0.083172 5:0.052224 6:0.034816 7:0.029014 8:0.081238 9:0.058027 10:0.104449 11:0.01354 12:0.052224 13:0.052224 14:0.038685 15:0.027079 16:0.06383 17:0.056093 18:0.071567 19:0.005803 20:0.044487 
0.0597713540394289 1:0.050505 2:0.015152 3:0.035354 4:0.065657 5:0.055556 6:0.065657 7:0.045455 8:0.090909 9:0.035354 10:0.085859 11:0.020202 12:0.035354 13:0.080808 14:0.035354 15:0.025253 16:0.085859 17:0.045455 18:0.080808 19:0.015152 20:0.030303 
0.1835307732066989 1:0.070496 2:0.020888 3:0.044386 4:0.036554 5:0.049608 6:0.060052 7:0.052219 8:0.046997 9:0.044386 10:0.10705 11:0.015666 12:0.02611 13:0.062663 14:0.023499 15:0.052219 16:0.060052 17:0.046997 18:0.086162 19:0.02611 20:0.067885 
0.002098029513869176 1:0.076389 2:0 3:0.072917 4:0.104167 5:0.017361 6:0.083333 7:0.013889 8:0.072917 9:0.076389 10:0.059028 11:0.013889 12:0.055556 13:0.048611 14:0.052083 15:0.027778 16:0.059028 17:0.052083 18:0.090278 19:0.003472 20:0.020833 
0.1913878671055718 1:0.080078 2:0.007813 3:0.064453 4:0.091797 5:0.074219 6:0.054688 7:0.023438 8:0.048828 9:0.095703 10:0.070313 11:0.003906 12:0.048828 13:0.058594 14:0.039063 15:0.011719 16:0.060547 17:0.044922 18:0.087891 19:0.005859 20:0.027344 
0.05158998940987208 1:0.047619 2:0.009524 3:0.07619 4:0.057143 5:0.085714 6:0.085714 7:0.019048 8:0.028571 9:0.07619 10:0.114286 11:0.009524 12:0.019048 13:0.047619 14:0.066667 15:0.038095 16:0.057143 17:0.047619 18:0.066667 19:0.019048 20:0.028571 
-0.00382343266023794 1:0.044444 2:0.005556 3:0.011111 4:0.1 5:0.061111 6:0.005556 7:0.022222 8:0.083333 9:0.072222 10:0.05 11:0.022222 12:0.044444 13:0.072222 14:0.105556 15:0.033333 16:0.055556 17:0.055556 18:0.094444 19:0.011111 20:0.05 
-0.2837357525089609 1:0.063915 2:0.009321 3:0.04261 4:0.057257 5:0.055925 6:0.073236 7:0.047936 8:0.029294 9:0.031957 10:0.091877 11:0.01731 12:0.037284 13:0.082557 14:0.039947 15:0.058589 16:0.061252 17:0.05992 18:0.070573 19:0.023968 20:0.045273 
-0.0009643322121897958 1:0.089514 2:0.01023 3:0.079284 4:0.015345 5:0.040921 6:0.086957 7:0.005115 8:0.076726 9:0.066496 10:0.079284 11:0.002558 12:0.061381 13:0.043478 14:0.048593 15:0.015345 16:0.084399 17:0.079284 18:0.069054 19:0.002558 20:0.043478 
-0.1113005313733508 1:0.04878 2:0.033537 3:0.060976 4:0.07622 5:0.033537 6:0.04878 7:0.018293 8:0.054878 9:0.073171 10:0.07622 11:0.012195 12:0.027439 13:0.04878 14:0.042683 15:0.036585 16:0.106707 17:0.070122 18:0.060976 19:0.033537 20:0.036585 
-0.008710020576144503 1:0.076046 2:0.019011 3:0.064639 4:0.076046 5:0.015209 6:0.04943 7:0.034221 8:0.060837 9:0.045627 10:0.079848 11:0.019011 12:0.04943 13:0.053232 14:0.030418 15:0.068441 16:0.064639 17:0.064639 18:0.091255 19:0.015209 20:0.022814 
-0.05937879800360397 1:0.1 2:0.021053 3:0.094737 4:0.078947 5:0.042105 6:0.052632 7:0.005263 8:0.026316 9:0.052632 10:0.063158 11:0.031579 12:0.094737 13:0.021053 14:0.031579 15:0.021053 16:0.031579 17:0.063158 18:0.089474 19:0.021053 20:0.057895 
-0.1970025663411237 1:0.072658 2:0.028681 3:0.051625 4:0.059273 5:0.063098 6:0.068834 7:0.042065 8:0.045889 9:0.034417 10:0.10325 11:0.022945 12:0.045889 13:0.053537 14:0.030593 15:0.038241 16:0.051625 17:0.055449 18:0.072658 19:0.013384 20:0.045889 
-0.9013724531800953 1:0.08 2:0.0075 3:0.06 4:0.0825 5:0.06 6:0.0575 7:0.025 8:0.07 9:0.0725 10:0.11 11:0.0175 12:0.0375 13:0.0525 14:0.03 15:0.0325 16:0.06 17:0.05 18:0.0675 19:0.005 20:0.0225 
-0.06932654838802099 1:0.046632 2:0.024611 3:0.068653 4:0.05829 5:0.050518 6:0.064767 7:0.044041 8:0.051813 9:0.056995 10:0.073834 11:0.023316 12:0.049223 13:0.049223 14:0.03886 15:0.067358 16:0.067358 17:0.055699 18:0.055699 19:0.016839 20:0.036269 
-0.03803485007099255 1:0.080268 2:0.0301 3:0.083612 4:0.040134 5:0.056856 6:0.070234 7:0.043478 8:0.0301 9:0.036789 10:0.073579 11:0.003344 12:0.050167 13:0.020067 14:0.0301 15:0.033445 16:0.123746 17:0.06689 18:0.056856 19:0.020067 20:0.050167 
-0.08616992567494759 1:0.037313 2:0.029851 3:0.037313 4:0.067164 5:0.014925 6:0.067164 7:0.014925 8:0.074627 9:0.044776 10:0.097015 11:0.037313 12:0.037313 13:0.074627 14:0.037313 15:0.029851 16:0.097015 17:0.052239 18:0.067164 19:0.022388 20:0.059701 
-0.09651685115034632 1:0.05668 2:0.008097 3:0.068826 4:0.048583 5:0.044534 6:0.137652 7:0.032389 8:0.024291 9:0.052632 10:0.093117 11:0.020243 12:0.040486 13:0.068826 14:0.032389 15:0.02834 16:0.036437 17:0.072874 18:0.068826 19:0.008097 20:0.05668 
-0.01001876588726793 1:0.024691 2:0.037037 3:0.030864 4:0.08642 5:0.061728 6:0.024691 7:0.037037 8:0.08642 9:0.04321 10:0.12963 11:0.030864 12:0.074074 13:0.018519 14:0.024691 15:0.024691 16:0.080247 17:0.074074 18:0.061728 19:0.006173 20:0.04321 
-0.009247075753864515 1:0.059633 2:0.009174 3:0.057339 4:0.059633 5:0.059633 6:0.073394 7:0.022936 8:0.066514 9:0.059633 10:0.100917 11:0.018349 12:0.038991 13:0.050459 14:0.052752 15:0.034404 16:0.087156 17:0.050459 18:0.043578 19:0.018349 20:0.036697 
-0.01346673317844227 1:0.095552 2:0.057661 3:0.067545 4:0.095552 5:0.054366 6:0.031301 7:0.031301 8:0.023064 9:0.102142 10:0.113674 11:0.001647 12:0.018122 13:0.049423 14:0.028007 15:0.041186 16:0.056013 17:0.046129 18:0.054366 19:0.003295 20:0.029654 
-0.1384636412099909 1:0.063177 2:0.023466 3:0.064982 4:0.068592 5:0.036101 6:0.074007 7:0.023466 8:0.043321 9:0.061372 10:0.055957 11:0.019856 12:0.045126 13:0.074007 14:0.028881 15:0.041516 16:0.064982 17:0.070397 18:0.068592 19:0.028881 20:0.043321 
-0.09355647663014137 1:0.061538 2:0.026923 3:0.057692 4:0.05 5:0.046154 6:0.088462 7:0.019231 8:0.084615 9:0.026923 10:0.076923 11:0.011538 12:0.053846 13:0.042308 14:0.042308 15:0.030769 16:0.076923 17:0.057692 18:0.084615 19:0.019231 20:0.042308 
-0.1479165027283706 1:0.036199 2:0.022624 3:0.040724 4:0.063348 5:0.063348 6:0.072398 7:0.031674 8:0.040724 9:0.099548 10:0.099548 11:0.0181 12:0.040724 13:0.067873 14:0.049774 15:0.022624 16:0.040724 17:0.049774 18:0.085973 19:0.013575 20:0.040724 
-0.121905914815642 1:0.048433 2:0 3:0.058405 4:0.062678 5:0.088319 6:0.041311 7:0.025641 8:0.04416 9:0.075499 10:0.069801 11:0.025641 12:0.058405 13:0.064103 14:0.039886 15:0.032764 16:0.052707 17:0.021368 18:0.075499 19:0.008547 20:0.106838 
-0.1437828989621024 1:0.088372 2:0 3:0.088372 4:0.07907 5:0.04186 6:0.046512 7:0.037209 8:0.069767 9:0.069767 10:0.093023 11:0.037209 12:0.04186 13:0.027907 14:0.027907 15:0.032558 16:0.051163 17:0.037209 18:0.116279 19:0 20:0.013953 
-0.3662956755267797 1:0.070313 2:0.007813 3:0.070313 4:0.074219 5:0.050781 6:0.039063 7:0.023438 8:0.054688 9:0.09375 10:0.078125 11:0.03125 12:0.046875 13:0.023438 14:0.03125 15:0.039063 16:0.0625 17:0.058594 18:0.070313 19:0.015625 20:0.058594 
-0.007846554475285022 1:0.076923 2:0.010989 3:0.010989 4:0.065934 5:0.049451 6:0.010989 7:0.010989 8:0.087912 9:0.043956 10:0.054945 11:0.005495 12:0.054945 13:0.126374 14:0.065934 15:0.043956 16:0.043956 17:0.104396 18:0.093407 19:0 20:0.038462 
-0.006089118499808853 1:0.064748 2:0.002398 3:0.05036 4:0.059952 5:0.045564 6:0.052758 7:0.019185 8:0.045564 9:0.055156 10:0.136691 11:0.019185 12:0.031175 13:0.064748 14:0.035971 15:0.05036 16:0.103118 17:0.067146 18:0.064748 19:0.009592 20:0.021583 
