svm_type c_svc
kernel_type polynomial
degree 10
gamma 10
coef0 1
nr_class 2
total_sv 30
rho 1.29134
label 1 -1
nr_sv 19 11
SV
0.04955369562304004 1:0.068592 2:0.00361 3:0.054152 4:0.036101 5:0.036101 6:0.072202 7:0.043321 8:0.043321 9:0.072202 10:0.104693 11:0.01444 12:0.061372 13:0.025271 14:0.021661 15:0.021661 16:0.108303 17:0.093863 18:0.083032 19:0.00361 20:0.032491 
0.423770495936874 1:0.059406 2:0.009901 3:0.049505 4:0.044554 5:0.044554 6:0.056931 7:0.066832 8:0.044554 9:0.049505 10:0.108911 11:0.022277 12:0.042079 13:0.079208 14:0.014851 15:0.044554 16:0.066832 17:0.042079 18:0.066832 19:0.037129 20:0.049505 
0.1204626381609699 1:0.083333 2:0.038889 3:0.033333 4:0.044444 5:0.038889 6:0.072222 7:0.005556 8:0.038889 9:0.066667 10:0.061111 11:0.027778 12:0.022222 13:0.044444 14:0.061111 15:0.033333 16:0.094444 17:0.077778 18:0.083333 19:0.027778 20:0.044444 
0.02872275672356202 1:0.063291 2:0 3:0.050633 4:0.07173 5:0.054852 6:0.029536 7:0.012658 8:0.084388 9:0.097046 10:0.105485 11:0.050633 12:0.067511 13:0.021097 14:0.037975 15:0.037975 16:0.080169 17:0.033755 18:0.042194 19:0.004219 20:0.054852 
0.3509965360475183 1:0.067164 2:0.027363 3:0.054726 4:0.059701 5:0.032338 6:0.09204 7:0.007463 8:0.059701 9:0.052239 10:0.094527 11:0.012438 12:0.042289 13:0.037313 14:0.052239 15:0.042289 16:0.084577 17:0.052239 18:0.077114 19:0.007463 20:0.044776 
0.2232432412587799 1:0.070479 2:0.014628 3:0.06117 4:0.06117 5:0.037234 6:0.089096 7:0.029255 8:0.050532 9:0.06383 10:0.085106 11:0.022606 12:0.053191 13:0.035904 14:0.034574 15:0.046543 16:0.077128 17:0.039894 18:0.073138 19:0.021277 20:0.033245 
0.1421106307386009 1:0.092896 2:0.032787 3:0.054645 4:0.032787 5:0.054645 6:0.032787 7:0.005464 8:0.038251 9:0.04918 10:0.054645 11:0.043716 12:0.071038 13:0.065574 14:0.060109 15:0.054645 16:0.065574 17:0.065574 18:0.065574 19:0.021858 20:0.038251 
0.0683521462940772 1:0.101215 2:0.02834 3:0.044534 4:0.032389 5:0.040486 6:0.089069 7:0.020243 8:0.040486 9:0.044534 10:0.11336 11:0.024291 12:0.048583 13:0.064777 14:0.02834 15:0.032389 16:0.072874 17:0.076923 18:0.064777 19:0.016194 20:0.016194 
0.01393619782169209 1:0.043011 2:0.075269 3:0.11828 4:0.075269 5:0.032258 6:0.096774 7:0.010753 8:0.032258 9:0.064516 10:0.086022 11:0 12:0 13:0.043011 14:0.032258 15:0.010753 16:0.107527 17:0.086022 18:0.043011 19:0 20:0.043011 
0.07945233167451891 1:0.074074 2:0.031746 3:0.042328 4:0.047619 5:0.058201 6:0.058201 7:0.005291 8:0.058201 9:0.05291 10:0.074074 11:0.031746 12:0.042328 13:0.058201 14:0.042328 15:0.042328 16:0.111111 17:0.037037 18:0.074074 19:0.021164 20:0.037037 
0.1263986746330379 1:0.090526 2:0.033684 3:0.058947 4:0.054737 5:0.042105 6:0.098947 7:0.027368 8:0.044211 9:0.054737 10:0.086316 11:0.021053 12:0.035789 13:0.029474 14:0.023158 15:0.058947 16:0.04 17:0.069474 18:0.063158 19:0.016842 20:0.050526 
0.002062565303237666 1:0 2:0.041667 3:0.208333 4:0.083333 5:0.083333 6:0.041667 7:0.041667 8:0.041667 9:0.083333 10:0 11:0.083333 12:0 13:0.083333 14:0 15:0 16:0 17:0.041667 18:0.083333 19:0.083333 20:0 
0.01043450634272887 1:0.052452 2:0.009122 3:0.061574 4:0.078677 5:0.038769 6:0.053592 7:0.013683 8:0.08894 9:0.058153 10:0.125428 11:0.014823 12:0.063854 13:0.026226 14:0.050171 15:0.053592 16:0.055872 17:0.051311 18:0.052452 19:0.007982 20:0.04333 
0.02590271477514404 1:0.08046 2:0.022989 3:0.034483 4:0.103448 5:0.011494 6:0.126437 7:0.022989 8:0.057471 9:0.034483 10:0.034483 11:0.022989 12:0.068966 13:0.045977 14:0.034483 15:0.011494 16:0.103448 17:0.022989 18:0.08046 19:0.022989 20:0.057471 
0.00729943231077485 1:0.138889 2:0 3:0.027778 4:0 5:0.027778 6:0.027778 7:0 8:0.083333 9:0.027778 10:0.138889 11:0.055556 12:0.027778 13:0.027778 14:0.055556 15:0.083333 16:0.083333 17:0.027778 18:0.111111 19:0.027778 20:0.027778 
0.08015360926160262 1:0.106227 2:0 3:0.03663 4:0.043956 5:0.054945 6:0.120879 7:0.010989 8:0.051282 9:0.054945 10:0.113553 11:0.025641 12:0.03663 13:0.062271 14:0.043956 15:0.03663 16:0.069597 17:0.040293 18:0.040293 19:0.018315 20:0.032967 
0.0601860248315868 1:0.086331 2:0.014388 3:0.05036 4:0.079137 5:0.035971 6:0.064748 7:0.014388 8:0.057554 9:0.028777 10:0.079137 11:0.014388 12:0.035971 13:0.057554 14:0.028777 15:0.086331 16:0.079137 17:0.043165 18:0.05036 19:0.028777 20:0.064748 
0.2892143337272823 1:0.072464 2:0.021739 3:0.050725 4:0.057971 5:0.050725 6:0.043478 7:0.014493 8:0.057971 9:0.065217 10:0.072464 11:0.014493 12:0.057971 13:0.057971 14:0.050725 15:0.057971 16:0.065217 17:0.043478 18:0.065217 19:0.021739 20:0.057971 
0.0007831609321426392 1:0.162162 2:0 3:0.027027 4:0 5:0.027027 6:0.054054 7:0 8:0.081081 9:0 10:0.216216 11:0.054054 12:0.027027 13:0.027027 14:0.027027 15:0.135135 16:0.081081 17:0 18:0.054054 19:0.027027 20:0 
-0.1568616573129275 1:0.102102 2:0.03003 3:0.024024 4:0.051051 5:0.048048 6:0.066066 7:0.027027 8:0.033033 9:0.072072 10:0.072072 11:0.033033 12:0.072072 13:0.036036 14:0.048048 15:0.021021 16:0.087087 17:0.039039 18:0.063063 19:0.03003 20:0.045045 
-0.1110249276205078 1:0.058642 2:0.007716 3:0.044753 4:0.060185 5:0.044753 6:0.064815 7:0.029321 8:0.044753 9:0.037037 10:0.100309 11:0.016975 12:0.044753 13:0.054012 14:0.046296 15:0.061728 16:0.058642 17:0.061728 18:0.078704 19:0.027778 20:0.057099 
-0.4893080642412075 1:0.07767 2:0.013592 3:0.050485 4:0.038835 5:0.058252 6:0.067961 7:0.023301 8:0.042718 9:0.040777 10:0.108738 11:0.019417 12:0.036893 13:0.064078 14:0.034951 15:0.050485 16:0.083495 17:0.062136 18:0.062136 19:0.025243 20:0.038835 
-0.02329683377091078 1:0.08498 2:0.027668 3:0.047431 4:0.041502 5:0.043478 6:0.112648 7:0.035573 8:0.025692 9:0.021739 10:0.132411 11:0.017787 12:0.021739 13:0.096838 14:0.039526 15:0.035573 16:0.06917 17:0.061265 18:0.045455 19:0.005929 20:0.033597 
-0.3136446514251712 1:0.047778 2:0.012222 3:0.057778 4:0.062222 5:0.058889 6:0.055556 7:0.03 8:0.064444 9:0.058889 10:0.071111 11:0.021111 12:0.06 13:0.038889 14:0.032222 15:0.037778 16:0.075556 17:0.065556 18:0.068889 19:0.027778 20:0.053333 
-3.339605872554236e-06 1:0.073733 2:0.02765 3:0.059908 4:0.046083 5:0.036866 6:0.110599 7:0.013825 8:0.032258 9:0.082949 10:0.041475 11:0.018433 12:0.059908 13:0.046083 14:0.046083 15:0.013825 16:0.087558 17:0.050691 18:0.073733 19:0.023041 20:0.0553 
-0.007989552379675082 1:0.065836 2:0.014235 3:0.035587 4:0.049822 5:0.046263 6:0.090747 7:0.030249 8:0.021352 9:0.023132 10:0.113879 11:0.010676 12:0.035587 13:0.080071 14:0.049822 15:0.048043 16:0.097865 17:0.058719 18:0.076512 19:0.019573 20:0.032028 
-0.2537354143865 1:0.06383 2:0.024316 3:0.039514 4:0.06383 5:0.018237 6:0.088146 7:0.024316 8:0.042553 9:0.085106 10:0.085106 11:0.024316 12:0.075988 13:0.036474 14:0.033435 15:0.036474 16:0.072948 17:0.033435 18:0.069909 19:0.027356 20:0.054711 
-0.2146416999992019 1:0.052174 2:0.023188 3:0.049275 4:0.037681 5:0.034783 6:0.118841 7:0.017391 8:0.066667 9:0.057971 10:0.084058 11:0.023188 12:0.037681 13:0.057971 14:0.04058 15:0.023188 16:0.075362 17:0.055072 18:0.081159 19:0.011594 20:0.052174 
-0.07301210161549895 1:0.082178 2:0.011881 3:0.051485 4:0.044554 5:0.043564 6:0.069307 7:0.026733 8:0.027723 9:0.023762 10:0.107921 11:0.020792 12:0.047525 13:0.067327 14:0.056436 15:0.069307 16:0.059406 17:0.056436 18:0.073267 19:0.026733 20:0.033663 
-0.4595174500396975 1:0.089918 2:0.032698 3:0.073569 4:0.051771 5:0.029973 6:0.059946 7:0.021798 8:0.054496 9:0.046322 10:0.087193 11:0.024523 12:0.032698 13:0.043597 14:0.046322 15:0.051771 16:0.070845 17:0.038147 18:0.06267 19:0.027248 20:0.054496 
