svm_type c_svc
kernel_type polynomial
degree 10
gamma 10
coef0 1
nr_class 2
total_sv 35
rho -1.37407
label 1 -1
nr_sv 9 26
SV
0.4717416351634972 1:0.082178 2:0.011881 3:0.051485 4:0.044554 5:0.043564 6:0.069307 7:0.026733 8:0.027723 9:0.023762 10:0.107921 11:0.020792 12:0.047525 13:0.067327 14:0.056436 15:0.069307 16:0.059406 17:0.056436 18:0.073267 19:0.026733 20:0.033663 
0.1305704951610546 1:0.047778 2:0.012222 3:0.057778 4:0.062222 5:0.058889 6:0.055556 7:0.03 8:0.064444 9:0.058889 10:0.071111 11:0.021111 12:0.06 13:0.038889 14:0.032222 15:0.037778 16:0.075556 17:0.065556 18:0.068889 19:0.027778 20:0.053333 
0.5386578992372633 1:0.089918 2:0.032698 3:0.073569 4:0.051771 5:0.029973 6:0.059946 7:0.021798 8:0.054496 9:0.046322 10:0.087193 11:0.024523 12:0.032698 13:0.043597 14:0.046322 15:0.051771 16:0.070845 17:0.038147 18:0.06267 19:0.027248 20:0.054496 
0.1242976105755795 1:0.02649 2:0.019868 3:0.033113 4:0.059603 5:0.033113 6:0.092715 7:0.039735 8:0.039735 9:0.086093 10:0.10596 11:0.019868 12:0.086093 13:0.02649 14:0.033113 15:0.05298 16:0.07947 17:0.05298 18:0.059603 19:0.013245 20:0.039735 
0.1425341928452509 1:0.072464 2:0.021739 3:0.039855 4:0.039855 5:0.057971 6:0.094203 7:0.028986 8:0.014493 9:0.061594 10:0.086957 11:0.007246 12:0.032609 13:0.072464 14:0.061594 15:0.032609 16:0.097826 17:0.054348 18:0.054348 19:0.036232 20:0.032609 
0.07393511432116828 1:0.052174 2:0.023188 3:0.049275 4:0.037681 5:0.034783 6:0.118841 7:0.017391 8:0.066667 9:0.057971 10:0.084058 11:0.023188 12:0.037681 13:0.057971 14:0.04058 15:0.023188 16:0.075362 17:0.055072 18:0.081159 19:0.011594 20:0.052174 
0.5871220847050527 1:0.10625 2:0.01875 3:0.059375 4:0.065625 5:0.05 6:0.090625 7:0.025 8:0.046875 9:0.071875 10:0.034375 11:0.03125 12:0.04375 13:0.04375 14:0.025 15:0.046875 16:0.05625 17:0.06875 18:0.08125 19:0.0125 20:0.021875 
0.170120149219579 1:0.058642 2:0.007716 3:0.044753 4:0.060185 5:0.044753 6:0.064815 7:0.029321 8:0.044753 9:0.037037 10:0.100309 11:0.016975 12:0.044753 13:0.054012 14:0.046296 15:0.061728 16:0.058642 17:0.061728 18:0.078704 19:0.027778 20:0.057099 
0.2149660250936033 1:0.040169 2:0.021142 3:0.057082 4:0.052854 5:0.033827 6:0.084567 7:0.040169 8:0.042283 9:0.044397 10:0.109937 11:0.016913 12:0.042283 13:0.084567 14:0.029598 15:0.052854 16:0.065539 17:0.065539 18:0.048626 19:0.023256 20:0.044397 
-0.02273400911567805 1:0.057143 2:0.009524 3:0.066667 4:0.066667 5:0.085714 6:0.114286 7:0.038095 8:0.028571 9:0 10:0.07619 11:0.019048 12:0 13:0.066667 14:0.047619 15:0.095238 16:0.07619 17:0.038095 18:0.047619 19:0.047619 20:0.019048 
-0.03307027261026402 1:0.025641 2:0.012821 3:0.044872 4:0.083333 5:0.070513 6:0.038462 7:0.032051 8:0.057692 9:0.067308 10:0.128205 11:0.041667 12:0.044872 13:0.025641 14:0.051282 15:0.054487 16:0.064103 17:0.041667 18:0.048077 19:0.00641 20:0.060897 
-0.05785291573172697 1:0.081481 2:0 3:0.051852 4:0.074074 5:0.059259 6:0.059259 7:0.014815 8:0.044444 9:0.074074 10:0.066667 11:0.022222 12:0.081481 13:0.014815 14:0.044444 15:0.059259 16:0.074074 17:0.074074 18:0.051852 19:0.007407 20:0.044444 
-0.07490885862174 1:0.098237 2:0.017632 3:0.047859 4:0.070529 5:0.02267 6:0.093199 7:0.02267 8:0.04534 9:0.060453 10:0.073048 11:0.037783 12:0.032746 13:0.030227 14:0.035264 15:0.057935 16:0.052897 17:0.080605 18:0.062972 19:0.012594 20:0.04534 
-0.02764687441006708 1:0.128571 2:0.028571 3:0.042857 4:0.071429 5:0.042857 6:0.042857 7:0.014286 8:0.042857 9:0.085714 10:0.028571 11:0.028571 12:0.028571 13:0.042857 14:0.014286 15:0.057143 16:0.1 17:0.085714 18:0.057143 19:0.028571 20:0.028571 
-0.3726250666024945 1:0.109615 2:0.015385 3:0.053846 4:0.051923 5:0.042308 6:0.092308 7:0.013462 8:0.044231 9:0.057692 10:0.080769 11:0.019231 12:0.038462 13:0.048077 14:0.048077 15:0.05 16:0.046154 17:0.05 18:0.088462 19:0.013462 20:0.036538 
-0.08831270369800315 1:0.118056 2:0.020833 3:0.041667 4:0.034722 5:0.041667 6:0.097222 7:0.055556 8:0.0625 9:0.076389 10:0.083333 11:0.027778 12:0.0625 13:0.048611 14:0.055556 15:0 16:0.041667 17:0.055556 18:0.041667 19:0.020833 20:0.013889 
-0.07596747897737544 1:0.065375 2:0.016949 3:0.062954 4:0.048426 5:0.046005 6:0.05569 7:0.031477 8:0.053269 9:0.060533 10:0.104116 11:0.029056 12:0.043584 13:0.053269 14:0.041162 15:0.046005 16:0.087167 17:0.038741 18:0.060533 19:0.004843 20:0.050847 
-0.04590252829484209 1:0.08125 2:0.023438 3:0.046875 4:0.059375 5:0.040625 6:0.1 7:0.023438 8:0.046875 9:0.035937 10:0.090625 11:0.028125 12:0.03125 13:0.079687 14:0.035937 15:0.071875 16:0.053125 17:0.05 18:0.057813 19:0.028125 20:0.015625 
-0.0892086347837346 1:0.052632 2:0.015038 3:0.048872 4:0.058271 5:0.046992 6:0.054511 7:0.022556 8:0.056391 9:0.050752 10:0.092105 11:0.033835 12:0.048872 13:0.06015 14:0.056391 15:0.075188 16:0.048872 17:0.052632 18:0.058271 19:0.020677 20:0.046992 
-0.0330685391496171 1:0.05914 2:0.010753 3:0.064516 4:0.053763 5:0.026882 6:0.075269 7:0.032258 8:0.010753 9:0.032258 10:0.05914 11:0.064516 12:0.037634 13:0.107527 14:0.037634 15:0.075269 16:0.037634 17:0.026882 18:0.075269 19:0.037634 20:0.075269 
-0.1829459931180784 1:0.062201 2:0.016746 3:0.055024 4:0.066986 5:0.043062 6:0.07177 7:0.019139 8:0.08134 9:0.066986 10:0.050239 11:0.021531 12:0.047847 13:0.062201 14:0.033493 15:0.038278 16:0.074163 17:0.059809 18:0.069378 19:0.011962 20:0.047847 
-0.1243755143983615 1:0.07772 2:0.020725 3:0.07513 4:0.056995 5:0.046632 6:0.051813 7:0.023316 8:0.072539 9:0.064767 10:0.049223 11:0.033679 12:0.036269 13:0.07513 14:0.023316 15:0.056995 16:0.051813 17:0.051813 18:0.062176 19:0.025907 20:0.044041 
-0.001375172355295499 1:0.103512 2:0.020333 3:0.055453 4:0.049908 5:0.051756 6:0.088725 7:0.02403 8:0.07024 9:0.042514 10:0.072089 11:0.022181 12:0.040665 13:0.046211 14:0.027726 15:0.062847 16:0.05915 17:0.049908 18:0.086876 19:0.003697 20:0.022181 
-0.03246508886160736 1:0.053846 2:0.003846 3:0.073077 4:0.046154 5:0.05 6:0.034615 7:0.023077 8:0.05 9:0.065385 10:0.123077 11:0.030769 12:0.042308 13:0.034615 14:0.046154 15:0.038462 16:0.065385 17:0.088462 18:0.080769 19:0.015385 20:0.034615 
-0.1055466140653813 1:0.086053 2:0.029674 3:0.086053 4:0.041543 5:0.023739 6:0.094955 7:0.011869 8:0.035608 9:0.047478 10:0.04451 11:0.014837 12:0.050445 13:0.041543 14:0.032641 15:0.008902 16:0.139466 17:0.077151 18:0.071217 19:0.017804 20:0.04451 
-0.02809176875151938 1:0.050891 2:0.025445 3:0.043257 4:0.058524 5:0.035623 6:0.086514 7:0.020356 8:0.038168 9:0.050891 10:0.124682 11:0.02799 12:0.022901 13:0.071247 14:0.058524 15:0.061069 16:0.043257 17:0.048346 18:0.081425 19:0.02799 20:0.022901 
-0.1144367334228989 1:0.092715 2:0.013245 3:0.048565 4:0.050773 5:0.048565 6:0.077263 7:0.028698 8:0.050773 9:0.039735 10:0.068433 11:0.019868 12:0.048565 13:0.06181 14:0.037528 15:0.05298 16:0.086093 17:0.05298 18:0.07947 19:0.004415 20:0.037528 
-0.0439159212494059 1:0.072727 2:0 3:0.090909 4:0.018182 5:0.036364 6:0.109091 7:0.054545 8:0.018182 9:0.036364 10:0.072727 11:0.018182 12:0.054545 13:0.036364 14:0.054545 15:0.109091 16:0.018182 17:0.018182 18:0.072727 19:0.072727 20:0.036364 
-0.05580221651607789 1:0.040179 2:0.017857 3:0.084821 4:0.058036 5:0.040179 6:0.053571 7:0.026786 8:0.040179 9:0.080357 10:0.066964 11:0.022321 12:0.066964 13:0.058036 14:0.049107 15:0.058036 16:0.075893 17:0.049107 18:0.044643 19:0.035714 20:0.03125 
-0.1200105218388154 1:0.085714 2:0.030075 3:0.04812 4:0.061654 5:0.034586 6:0.099248 7:0.037594 8:0.03609 9:0.039098 10:0.081203 11:0.02406 12:0.028571 13:0.040602 14:0.040602 15:0.070677 16:0.066165 17:0.058647 18:0.069173 19:0.01203 20:0.03609 
-0.01115737091710737 1:0.065421 2:0.018692 3:0.046729 4:0.102804 5:0.056075 6:0.130841 7:0.018692 8:0.018692 9:0.130841 10:0.074766 11:0.009346 12:0.046729 13:0.037383 14:0.018692 15:0.046729 16:0.018692 17:0.074766 18:0.037383 19:0.009346 20:0.037383 
-0.03897572390835253 1:0.028169 2:0.056338 3:0.042254 4:0.056338 5:0.042254 6:0.056338 7:0 8:0.028169 9:0.056338 10:0.112676 11:0.042254 12:0.112676 13:0.042254 14:0.070423 15:0.070423 16:0.028169 17:0.070423 18:0.070423 19:0 20:0.014085 
-0.009427207845231749 1:0.057143 2:0 3:0.028571 4:0 5:0.057143 6:0.142857 7:0.028571 8:0.085714 9:0.085714 10:0.085714 11:0.085714 12:0.085714 13:0.085714 14:0 15:0 16:0.028571 17:0.028571 18:0.057143 19:0 20:0.057143 
-0.1791507900786694 1:0.081664 2:0.012327 3:0.05547 4:0.052388 5:0.044684 6:0.061633 7:0.020031 8:0.049307 9:0.064715 10:0.09245 11:0.027735 12:0.050847 13:0.049307 14:0.032357 15:0.046225 16:0.063174 17:0.070878 18:0.075501 19:0.013867 20:0.035439 
-0.4849706869997039 1:0.060201 2:0.023411 3:0.053512 4:0.053512 5:0.036789 6:0.06689 7:0.046823 8:0.020067 9:0.040134 10:0.100334 11:0.013378 12:0.0301 13:0.070234 14:0.043478 15:0.073579 16:0.080268 17:0.053512 18:0.06689 19:0.0301 20:0.036789 
