svm_type c_svc
kernel_type polynomial
degree 10
gamma 10
coef0 1
nr_class 2
total_sv 12
rho -0.792233
label 1 -1
nr_sv 8 4
SV
0.0009217351881725852 1:0.05 2:0.021429 3:0.035714 4:0.078571 5:0.028571 6:0.121429 7:0.021429 8:0.064286 9:0.085714 10:0.128571 11:0.021429 12:0.007143 13:0.05 14:0.035714 15:0.057143 16:0.064286 17:0.042857 18:0.057143 19:0.014286 20:0.014286 
0.07541206824169593 1:0.0625 2:0.023438 3:0.039063 4:0.054688 5:0.050781 6:0.097656 7:0.035156 8:0.0625 9:0.039063 10:0.070313 11:0.023438 12:0.035156 13:0.054688 14:0.015625 15:0.054688 16:0.097656 17:0.0625 18:0.054688 19:0.015625 20:0.050781 
0.01007571558268584 1:0.091463 2:0.014228 3:0.095528 4:0.077236 5:0.060976 6:0.044715 7:0.00813 8:0.044715 9:0.087398 10:0.085366 11:0.022358 12:0.036585 13:0.050813 14:0.030488 15:0.01626 16:0.065041 17:0.042683 18:0.081301 19:0.00813 20:0.036585 
0.05071215663475284 1:0.070496 2:0.020888 3:0.044386 4:0.036554 5:0.049608 6:0.060052 7:0.052219 8:0.046997 9:0.044386 10:0.10705 11:0.015666 12:0.02611 13:0.062663 14:0.023499 15:0.052219 16:0.060052 17:0.046997 18:0.086162 19:0.02611 20:0.067885 
0.03060960654981059 1:0.07804 2:0.00726 3:0.085299 4:0.049002 5:0.041742 6:0.088929 7:0.010889 8:0.047187 9:0.068966 10:0.087114 11:0.012704 12:0.059891 13:0.041742 14:0.032668 15:0.025408 16:0.054446 17:0.038113 18:0.088929 19:0.030853 20:0.050817 
0.02187709234117047 1:0.066667 2:0.010753 3:0.027957 4:0.047312 5:0.055914 6:0.098925 7:0.019355 8:0.045161 9:0.032258 10:0.094624 11:0.017204 12:0.075269 13:0.055914 14:0.113978 15:0.045161 16:0.053763 17:0.049462 18:0.060215 19:0.012903 20:0.017204 
0.133991181496039 1:0.075415 2:0.001508 3:0.082956 4:0.090498 5:0.043741 6:0.073906 7:0.00905 8:0.063348 9:0.087481 10:0.07994 11:0.015083 12:0.049774 13:0.034691 14:0.031674 15:0.039216 16:0.05279 17:0.060332 18:0.082956 19:0.001508 20:0.024133 
0.1000701159239901 1:0.048128 2:0.016043 3:0.037433 4:0.069519 5:0.053476 6:0.053476 7:0.058824 8:0.069519 9:0.037433 10:0.074866 11:0.02139 12:0.037433 13:0.069519 14:0.042781 15:0.037433 16:0.074866 17:0.064171 18:0.069519 19:0.026738 20:0.037433 
-0.1414610169209544 1:0.090339 2:0.027604 3:0.053952 4:0.056462 5:0.028858 6:0.081556 7:0.035132 8:0.033877 9:0.031368 10:0.080301 11:0.010038 12:0.041405 13:0.06399 14:0.045169 15:0.058971 16:0.071518 17:0.069009 18:0.071518 19:0.02133 20:0.027604 
-0.04392835630928866 1:0.038462 2:0.019231 3:0.064103 4:0.070513 5:0.032051 6:0.032051 7:0.025641 8:0.083333 9:0.083333 10:0.102564 11:0.057692 12:0.051282 13:0.019231 14:0.012821 15:0.044872 16:0.057692 17:0.064103 18:0.083333 19:0.00641 20:0.051282 
-0.09275938019754529 1:0.037825 2:0.007092 3:0.040189 4:0.089835 5:0.049645 6:0.056738 7:0.023641 8:0.066194 9:0.07565 10:0.082742 11:0.028369 12:0.044917 13:0.047281 14:0.026005 15:0.052009 16:0.082742 17:0.040189 18:0.094563 19:0.014184 20:0.040189 
-0.1455209185305291 1:0.070866 2:0.006749 3:0.068616 4:0.086614 5:0.048369 6:0.070866 7:0.015748 8:0.046119 9:0.057368 10:0.087739 11:0.008999 12:0.058493 13:0.035996 14:0.031496 15:0.033746 16:0.074241 17:0.061867 18:0.07649 19:0.022497 20:0.03712 
