svm_type c_svc
kernel_type polynomial
degree 10
gamma 10
coef0 1
nr_class 2
total_sv 131
rho 1.72243
label 1 -1
nr_sv 56 75
SV
0.3177861098547651 1:0.081522 2:0.018116 3:0.039855 4:0.085145 5:0.027174 6:0.054348 7:0.023551 8:0.061594 9:0.068841 10:0.096014 11:0.027174 12:0.036232 13:0.030797 14:0.030797 15:0.063406 16:0.09058 17:0.057971 18:0.09058 19:0.005435 20:0.01087 
0.7888671144355318 1:0.126943 2:0.018135 3:0.072539 4:0.03886 5:0.033679 6:0.080311 7:0.010363 8:0.054404 9:0.072539 10:0.054404 11:0.028497 12:0.031088 13:0.046632 14:0.023316 15:0.044041 16:0.056995 17:0.069948 18:0.093264 19:0.012953 20:0.031088 
1 1:0.060827 2:0.019465 3:0.053528 4:0.065693 5:0.043796 6:0.053528 7:0.012165 8:0.053528 9:0.058394 10:0.099757 11:0.012165 12:0.053528 13:0.055961 14:0.038929 15:0.053528 16:0.082725 17:0.065693 18:0.068127 19:0.014599 20:0.034063 
1 1:0.101617 2:0.004619 3:0.062356 4:0.062356 5:0.036952 6:0.094688 7:0.013857 8:0.057737 9:0.092379 10:0.115473 11:0.013857 12:0.025404 13:0.048499 14:0.016166 15:0.020785 16:0.083141 17:0.046189 18:0.08776 19:0.004619 20:0.011547 
1 1:0.056 2:0.016 3:0.056 4:0.058667 5:0.034667 6:0.074667 7:0.021333 8:0.050667 9:0.08 10:0.074667 11:0.026667 12:0.042667 13:0.072 14:0.032 15:0.048 16:0.085333 17:0.048 18:0.064 19:0.013333 20:0.045333 
1 1:0.074468 2:0.017021 3:0.07234 4:0.053191 5:0.051064 6:0.07234 7:0.010638 8:0.091489 9:0.07234 10:0.061702 11:0.017021 12:0.046809 13:0.048936 14:0.02766 15:0.046809 16:0.059574 17:0.059574 18:0.070213 19:0.008511 20:0.038298 
0.141722232427258 1:0.060209 2:0.015707 3:0.060209 4:0.057592 5:0.036649 6:0.068063 7:0.02356 8:0.044503 9:0.04712 10:0.099476 11:0.031414 12:0.036649 13:0.039267 14:0.020942 15:0.081152 16:0.08377 17:0.081152 18:0.073298 19:0.02356 20:0.015707 
0.7550979395538125 1:0.079077 2:0.011532 3:0.080725 4:0.047776 5:0.039539 6:0.060956 7:0.021417 8:0.056013 9:0.07743 10:0.072488 11:0.014827 12:0.044481 13:0.074135 14:0.021417 15:0.042834 16:0.072488 17:0.07084 18:0.059308 19:0.014827 20:0.037891 
0.2888381021030996 1:0.082353 2:0.023529 3:0.047059 4:0.082353 5:0.035294 6:0.082353 7:0.011765 8:0.070588 9:0.070588 10:0.035294 11:0.035294 12:0.129412 13:0.023529 14:0.035294 15:0.011765 16:0.070588 17:0.058824 18:0.070588 19:0.011765 20:0.011765 
1 1:0.047855 2:0.013201 3:0.064356 4:0.051155 5:0.044554 6:0.054455 7:0.028053 8:0.067657 9:0.072607 10:0.084158 11:0.009901 12:0.072607 13:0.069307 14:0.036304 15:0.041254 16:0.077558 17:0.047855 18:0.064356 19:0.013201 20:0.039604 
0.002526787160666357 1:0.162162 2:0 3:0.027027 4:0 5:0.027027 6:0.054054 7:0 8:0.081081 9:0 10:0.216216 11:0.054054 12:0.027027 13:0.027027 14:0.027027 15:0.135135 16:0.081081 17:0 18:0.054054 19:0.027027 20:0 
0.3706624685930017 1:0.109694 2:0.012755 3:0.02551 4:0.079082 5:0.030612 6:0.086735 7:0.007653 8:0.079082 9:0.071429 10:0.091837 11:0.022959 12:0.028061 13:0.053571 14:0.033163 15:0.038265 16:0.089286 17:0.053571 18:0.063776 19:0.002551 20:0.020408 
0.5292950394531121 1:0.066298 2:0.027624 3:0.033149 4:0.055249 5:0.049724 6:0.060773 7:0.022099 8:0.060773 9:0.071823 10:0.071823 11:0.027624 12:0.044199 13:0.071823 14:0.027624 15:0.038674 16:0.088398 17:0.049724 18:0.066298 19:0.022099 20:0.044199 
0.04676446543780364 1:0.107368 2:0.010526 3:0.054737 4:0.071579 5:0.04 6:0.090526 7:0.035789 8:0.04 9:0.052632 10:0.088421 11:0.027368 12:0.016842 13:0.044211 14:0.023158 15:0.058947 16:0.073684 17:0.061053 18:0.069474 19:0.006316 20:0.027368 
0.5176000905642864 1:0.10395 2:0.012474 3:0.043659 4:0.064449 5:0.051975 6:0.112266 7:0.018711 8:0.064449 9:0.064449 10:0.072765 11:0.033264 12:0.024948 13:0.056133 14:0.02079 15:0.039501 16:0.064449 17:0.064449 18:0.056133 19:0.006237 20:0.024948 
1 1:0.079077 2:0.018122 3:0.052718 4:0.057661 5:0.041186 6:0.087315 7:0.023064 8:0.054366 9:0.07084 10:0.093904 11:0.024712 12:0.034596 13:0.047776 14:0.024712 15:0.037891 16:0.057661 17:0.060956 18:0.087315 19:0.01318 20:0.032949 
0.2254029473464453 1:0.067164 2:0.027363 3:0.054726 4:0.059701 5:0.032338 6:0.09204 7:0.007463 8:0.059701 9:0.052239 10:0.094527 11:0.012438 12:0.042289 13:0.037313 14:0.052239 15:0.042289 16:0.084577 17:0.052239 18:0.077114 19:0.007463 20:0.044776 
0.01262320277346571 1:0.14375 2:0.00625 3:0.060417 4:0.054167 5:0.033333 6:0.089583 7:0.010417 8:0.045833 9:0.072917 10:0.114583 11:0.014583 12:0.025 13:0.047917 14:0.0125 15:0.039583 16:0.072917 17:0.052083 18:0.091667 19:0.004167 20:0.008333 
1 1:0.058052 2:0.014981 3:0.052434 4:0.052434 5:0.041199 6:0.069288 7:0.037453 8:0.086142 9:0.059925 10:0.095506 11:0.016854 12:0.073034 13:0.035581 14:0.026217 15:0.02809 16:0.088015 17:0.078652 18:0.052434 19:0.003745 20:0.029963 
0.004696335347733968 1:0.095238 2:0 3:0.047619 4:0.142857 5:0 6:0.047619 7:0 8:0.047619 9:0.095238 10:0 11:0 12:0.047619 13:0 14:0.047619 15:0.047619 16:0.190476 17:0.095238 18:0.095238 19:0 20:0 
1 1:0.094675 2:0.02071 3:0.059172 4:0.059172 5:0.026627 6:0.088757 7:0.011834 8:0.047337 9:0.056213 10:0.08284 11:0.035503 12:0.023669 13:0.050296 14:0.02071 15:0.047337 16:0.068047 17:0.065089 18:0.10355 19:0.008876 20:0.029586 
0.682312981843764 1:0.065375 2:0.009685 3:0.062954 4:0.050847 5:0.046005 6:0.09201 7:0.004843 8:0.062954 9:0.062954 10:0.075061 11:0.03632 12:0.065375 13:0.046005 14:0.033898 15:0.053269 16:0.048426 17:0.067797 18:0.075061 19:0.009685 20:0.031477 
0.5101865056286382 1:0.045872 2:0.018349 3:0.06422 4:0.036697 5:0.027523 6:0.036697 7:0.027523 8:0.100917 9:0.082569 10:0.06422 11:0.027523 12:0.045872 13:0.055046 14:0.036697 15:0.027523 16:0.06422 17:0.091743 18:0.110092 19:0.018349 20:0.018349 
0.04354312458639435 1:0.09375 2:0.0625 3:0.125 4:0.052083 5:0.020833 6:0.09375 7:0.010417 8:0.052083 9:0.041667 10:0.072917 11:0 12:0 13:0.03125 14:0.0625 15:0.010417 16:0.083333 17:0.072917 18:0.0625 19:0 20:0.052083 
0.1305611113432306 1:0.114504 2:0 3:0.068702 4:0.091603 5:0.015267 6:0.053435 7:0.015267 8:0.091603 9:0.030534 10:0.099237 11:0.022901 12:0.045802 13:0.030534 14:0.045802 15:0.076336 16:0.045802 17:0.068702 18:0.068702 19:0.015267 20:0 
0.403156418961935 1:0.101215 2:0.02834 3:0.044534 4:0.032389 5:0.040486 6:0.089069 7:0.020243 8:0.040486 9:0.044534 10:0.11336 11:0.024291 12:0.048583 13:0.064777 14:0.02834 15:0.032389 16:0.072874 17:0.076923 18:0.064777 19:0.016194 20:0.016194 
0.04222348507479189 1:0.015625 2:0 3:0.03125 4:0.09375 5:0.03125 6:0.0625 7:0 8:0.046875 9:0.078125 10:0.03125 11:0.015625 12:0.0625 13:0.015625 14:0.015625 15:0.078125 16:0.09375 17:0.0625 18:0.1875 19:0.015625 20:0.0625 
0.004715701114685034 1:0 2:0 3:0.077922 4:0.064935 5:0.012987 6:0.077922 7:0.012987 8:0.116883 9:0.051948 10:0.077922 11:0.025974 12:0.051948 13:0.038961 14:0.012987 15:0.142857 16:0.090909 17:0.025974 18:0.051948 19:0.025974 20:0.038961 
0.1770721901034314 1:0.090526 2:0.033684 3:0.058947 4:0.054737 5:0.042105 6:0.098947 7:0.027368 8:0.044211 9:0.054737 10:0.086316 11:0.021053 12:0.035789 13:0.029474 14:0.023158 15:0.058947 16:0.04 17:0.069474 18:0.063158 19:0.016842 20:0.050526 
1 1:0.065292 2:0 3:0.058419 4:0.079038 5:0.027491 6:0.061856 7:0.013746 8:0.075601 9:0.082474 10:0.123711 11:0.034364 12:0.044674 13:0.030928 14:0.044674 15:0.04811 16:0.054983 17:0.058419 18:0.054983 19:0 20:0.041237 
1 1:0.070479 2:0.014628 3:0.06117 4:0.06117 5:0.037234 6:0.089096 7:0.029255 8:0.050532 9:0.06383 10:0.085106 11:0.022606 12:0.053191 13:0.035904 14:0.034574 15:0.046543 16:0.077128 17:0.039894 18:0.073138 19:0.021277 20:0.033245 
1 1:0.084871 2:0.020295 3:0.04059 4:0.079336 5:0.031365 6:0.057196 7:0.02214 8:0.066421 9:0.079336 10:0.094096 11:0.01845 12:0.02952 13:0.04059 14:0.027675 15:0.060886 16:0.071956 17:0.051661 18:0.105166 19:0.005535 20:0.012915 
0.0423170577300787 1:0.056738 2:0.014184 3:0.070922 4:0.056738 5:0.021277 6:0.163121 7:0.056738 8:0.035461 9:0.035461 10:0.099291 11:0.007092 12:0.042553 13:0.049645 14:0.021277 15:0.028369 16:0.049645 17:0.092199 18:0.099291 19:0 20:0 
0.3241315150925349 1:0.052452 2:0.009122 3:0.061574 4:0.078677 5:0.038769 6:0.053592 7:0.013683 8:0.08894 9:0.058153 10:0.125428 11:0.014823 12:0.063854 13:0.026226 14:0.050171 15:0.053592 16:0.055872 17:0.051311 18:0.052452 19:0.007982 20:0.04333 
1 1:0.080235 2:0.015656 3:0.048924 4:0.066536 5:0.039139 6:0.072407 7:0.035225 8:0.041096 9:0.046967 10:0.107632 11:0.031311 12:0.039139 13:0.050881 14:0.041096 15:0.068493 16:0.068493 17:0.054795 18:0.062622 19:0.011742 20:0.017613 
0.5280593605687558 1:0.081694 2:0.015129 3:0.06354 4:0.05295 5:0.037821 6:0.09531 7:0.018154 8:0.065053 9:0.054463 10:0.081694 11:0.024206 12:0.034796 13:0.048411 14:0.028744 15:0.062027 16:0.075643 17:0.037821 18:0.077156 19:0.015129 20:0.030257 
0.2437075426016714 1:0.063291 2:0 3:0.050633 4:0.07173 5:0.054852 6:0.029536 7:0.012658 8:0.084388 9:0.097046 10:0.105485 11:0.050633 12:0.067511 13:0.021097 14:0.037975 15:0.037975 16:0.080169 17:0.033755 18:0.042194 19:0.004219 20:0.054852 
0.8062852568994444 1:0.111748 2:0.011461 3:0.037249 4:0.074499 5:0.022923 6:0.08596 7:0.008596 8:0.051576 9:0.057307 10:0.100287 11:0.011461 12:0.051576 13:0.048711 14:0.040115 15:0.040115 16:0.071633 17:0.048711 18:0.068768 19:0.020057 20:0.037249 
0.3260982858948861 1:0.074324 2:0.054054 3:0.054054 4:0.067568 5:0.047297 6:0.047297 7:0.02027 8:0.033784 9:0.081081 10:0.060811 11:0.033784 12:0.02027 13:0.047297 14:0.040541 15:0.060811 16:0.094595 17:0.060811 18:0.060811 19:0.006757 20:0.033784 
0.2889398007608078 1:0.06988 2:0.021687 3:0.053012 4:0.06988 5:0.028916 6:0.081928 7:0.014458 8:0.072289 9:0.057831 10:0.077108 11:0.019277 12:0.031325 13:0.038554 14:0.043373 15:0.036145 16:0.108434 17:0.053012 18:0.072289 19:0.004819 20:0.045783 
0.7771297125821938 1:0.122905 2:0.01676 3:0.041899 4:0.067039 5:0.036313 6:0.067039 7:0 8:0.047486 9:0.075419 10:0.094972 11:0.027933 12:0.041899 13:0.03352 14:0.050279 15:0.055866 16:0.064246 17:0.050279 18:0.086592 19:0 20:0.019553 
0.1318603514941893 1:0.075107 2:0.008584 3:0.055794 4:0.066524 5:0.049356 6:0.055794 7:0.012876 8:0.060086 9:0.05794 10:0.096567 11:0.025751 12:0.034335 13:0.053648 14:0.040773 15:0.049356 16:0.092275 17:0.040773 18:0.079399 19:0.008584 20:0.036481 
0.5031211069990478 1:0.082278 2:0.014768 3:0.065401 4:0.052743 5:0.042194 6:0.097046 7:0.006329 8:0.048523 9:0.061181 10:0.06962 11:0.042194 12:0.056962 13:0.044304 14:0.044304 15:0.050633 16:0.050633 17:0.054852 18:0.075949 19:0.006329 20:0.033755 
0.2637636108263884 1:0.039648 2:0.008811 3:0.07489 4:0.066079 5:0.030837 6:0.057269 7:0.004405 8:0.057269 9:0.079295 10:0.061674 11:0.044053 12:0.026432 13:0.066079 14:0.061674 15:0.070485 16:0.123348 17:0.039648 18:0.07489 19:0.008811 20:0.004405 
0.0007290337267428154 1:0.266667 2:0 3:0.066667 4:0.066667 5:0 6:0 7:0 8:0 9:0.066667 10:0.2 11:0 12:0 13:0 14:0.066667 15:0 16:0.066667 17:0.133333 18:0.066667 19:0 20:0 
0.03368601997155516 1:0.073684 2:0.042105 3:0.073684 4:0.126316 5:0.052632 6:0.094737 7:0.010526 8:0.042105 9:0.042105 10:0.094737 11:0.010526 12:0 13:0.042105 14:0.021053 15:0.010526 16:0.094737 17:0.073684 18:0.073684 19:0 20:0.021053 
0.0009273022561876784 1:0.084158 2:0.009901 3:0.039604 4:0.044554 5:0.024752 6:0.118812 7:0.044554 8:0.029703 9:0.034653 10:0.108911 11:0.00495 12:0.049505 13:0.059406 14:0.024752 15:0.024752 16:0.084158 17:0.09901 18:0.108911 19:0 20:0.00495 
1 1:0.073892 2:0.014778 3:0.064039 4:0.073892 5:0.024631 6:0.078818 7:0.014778 8:0.08867 9:0.044335 10:0.083744 11:0.054187 12:0.034483 13:0.044335 14:0.034483 15:0.044335 16:0.049261 17:0.029557 18:0.08867 19:0.009852 20:0.049261 
1 1:0.090461 2:0.011513 3:0.052632 4:0.054276 5:0.039474 6:0.085526 7:0.027961 8:0.064145 9:0.067434 10:0.083882 11:0.03125 12:0.036184 13:0.050987 14:0.029605 15:0.044408 16:0.050987 17:0.052632 18:0.080592 19:0.014803 20:0.03125 
1 1:0.101373 2:0.016895 3:0.047518 4:0.072862 5:0.040127 6:0.090813 7:0.019007 8:0.041183 9:0.04963 10:0.090813 11:0.032735 12:0.033791 13:0.051742 14:0.042239 15:0.06019 16:0.053854 17:0.04963 18:0.080253 19:0.009504 20:0.015839 
1 1:0.062602 2:0.012195 3:0.064228 4:0.079675 5:0.045528 6:0.066667 7:0.030894 8:0.052033 9:0.070732 10:0.080488 11:0.01626 12:0.047967 13:0.043089 14:0.034146 15:0.052033 16:0.074797 17:0.04878 18:0.070732 19:0.019512 20:0.027642 
0.5449394427975219 1:0.067797 2:0 3:0.061017 4:0.050847 5:0.037288 6:0.061017 7:0.016949 8:0.064407 9:0.064407 10:0.111864 11:0.037288 12:0.037288 13:0.033898 14:0.077966 15:0.071186 16:0.040678 17:0.067797 18:0.057627 19:0 20:0.040678 
0.1102374997724239 1:0.119403 2:0.008529 3:0.046908 4:0.057569 5:0.051173 6:0.1258 7:0.021322 8:0.051173 9:0.057569 10:0.06823 11:0.031983 12:0.025586 13:0.053305 14:0.01919 15:0.040512 16:0.049041 17:0.053305 18:0.08742 19:0.006397 20:0.025586 
0.4846562609277399 1:0.073016 2:0.012698 3:0.057143 4:0.120635 5:0.047619 6:0.069841 7:0.006349 8:0.04127 9:0.04127 10:0.073016 11:0.019048 12:0.04127 13:0.050794 14:0.028571 15:0.066667 16:0.085714 17:0.060317 18:0.069841 19:0.003175 20:0.031746 
0.5845337151081573 1:0.074733 2:0.007117 3:0.05694 4:0.053381 5:0.030249 6:0.053381 7:0.037367 8:0.069395 9:0.062278 10:0.072954 11:0.035587 12:0.048043 13:0.037367 14:0.032028 15:0.046263 16:0.1121 17:0.049822 18:0.092527 19:0.005338 20:0.023132 
1 1:0.056911 2:0.01355 3:0.059621 4:0.084011 5:0.02981 6:0.051491 7:0.0271 8:0.059621 9:0.062331 10:0.078591 11:0.01355 12:0.03794 13:0.03252 14:0.03523 15:0.084011 16:0.075881 17:0.075881 18:0.073171 19:0.02168 20:0.0271 
-0.380706399386099 1:0.068334 2:0.011856 3:0.059927 4:0.075663 5:0.039879 6:0.044191 7:0.017892 8:0.054322 9:0.060789 10:0.114033 11:0.021772 12:0.044406 13:0.039448 14:0.054969 15:0.062513 16:0.062513 17:0.050226 18:0.074369 19:0.01703 20:0.025868 
-0.1001751459663852 1:0.054945 2:0.032967 3:0.032967 4:0.071429 5:0.043956 6:0.082418 7:0.010989 8:0.054945 9:0.082418 10:0.065934 11:0.032967 12:0.027473 13:0.016484 14:0.054945 15:0.098901 16:0.076923 17:0.032967 18:0.087912 19:0.005495 20:0.032967 
-0.05987464624553731 1:0.105058 2:0.013619 3:0.089494 4:0.050584 5:0.009728 6:0.044747 7:0.009728 8:0.044747 9:0.038911 10:0.087549 11:0.01751 12:0.085603 13:0.050584 14:0.035019 15:0.031128 16:0.124514 17:0.083658 18:0.052529 19:0.005837 20:0.019455 
-1 1:0.05787 2:0.006944 3:0.059028 4:0.060185 5:0.043981 6:0.065972 7:0.030093 8:0.061343 9:0.059028 10:0.104167 11:0.015046 12:0.052083 13:0.059028 14:0.023148 15:0.045139 16:0.075231 17:0.05787 18:0.06713 19:0.016204 20:0.040509 
-0.2090569703006871 1:0.057292 2:0.005208 3:0.057292 4:0.072917 5:0.015625 6:0.0625 7:0.010417 8:0.036458 9:0.0625 10:0.078125 11:0.0625 12:0.052083 13:0.036458 14:0.041667 15:0.0625 16:0.067708 17:0.078125 18:0.119792 19:0.005208 20:0.015625 
-0.0659074669469083 1:0.100897 2:0.013453 3:0.056054 4:0.067265 5:0.024664 6:0.073991 7:0.008969 8:0.071749 9:0.085202 10:0.098655 11:0.017937 12:0.076233 13:0.03139 14:0.029148 15:0.033632 16:0.056054 17:0.042601 18:0.071749 19:0.008969 20:0.03139 
-0.01017102262655695 1:0.078947 2:0.008772 3:0.061404 4:0.087719 5:0.02193 6:0.039474 7:0.008772 8:0.070175 9:0.100877 10:0.109649 11:0.048246 12:0.04386 13:0.02193 14:0.087719 15:0.078947 16:0.013158 17:0.030702 18:0.061404 19:0 20:0.026316 
-0.08849161230751486 1:0.074703 2:0.003396 3:0.074703 4:0.105263 5:0.013582 6:0.059423 7:0.013582 8:0.047538 9:0.06961 10:0.091681 11:0.022071 12:0.050934 13:0.013582 14:0.06961 15:0.095076 16:0.054329 17:0.056027 18:0.049236 19:0.010187 20:0.025467 
-0.8167095446489389 1:0.044721 2:0.011975 3:0.055718 4:0.077224 5:0.053275 6:0.036657 7:0.020283 8:0.075513 9:0.075269 10:0.121945 11:0.022239 12:0.054252 13:0.02737 14:0.041789 15:0.043255 16:0.079179 17:0.054741 18:0.062317 19:0.012952 20:0.029326 
-0.1997771625459628 1:0.025825 2:0.018651 3:0.053085 4:0.050215 5:0.041607 6:0.057389 7:0.028694 8:0.077475 9:0.07891 10:0.077475 11:0.025825 12:0.070301 13:0.04878 14:0.037303 15:0.02726 16:0.117647 17:0.07604 18:0.040172 19:0.012912 20:0.034433 
-1 1:0.090024 2:0.009732 3:0.058394 4:0.051095 5:0.051095 6:0.077859 7:0.017032 8:0.046229 9:0.051095 10:0.082725 11:0.024331 12:0.048662 13:0.048662 14:0.036496 15:0.06326 16:0.065693 17:0.055961 18:0.07056 19:0.021898 20:0.029197 
-1 1:0.093827 2:0.012346 3:0.061728 4:0.066667 5:0.02716 6:0.081481 7:0.007407 8:0.064198 9:0.061728 10:0.108642 11:0.022222 12:0.02963 13:0.05679 14:0.017284 15:0.05679 16:0.088889 17:0.059259 18:0.066667 19:0.007407 20:0.009877 
-0.2849414393695059 1:0.07483 2:0 3:0.058503 4:0.07483 5:0.027211 6:0.063946 7:0.017687 8:0.082993 9:0.063946 10:0.097959 11:0.02585 12:0.044898 13:0.051701 14:0.028571 15:0.059864 16:0.061224 17:0.04898 18:0.085714 19:0.009524 20:0.021769 
-0.2533998477411476 1:0.060302 2:0.020101 3:0.080402 4:0.035176 5:0.075377 6:0.080402 7:0.015075 8:0.090452 9:0.095477 10:0.055276 11:0.015075 12:0.035176 13:0.065327 14:0.040201 15:0.030151 16:0.065327 17:0.040201 18:0.060302 19:0.01005 20:0.030151 
-0.06195955900064813 1:0.027322 2:0.027322 3:0.087432 4:0.060109 5:0.038251 6:0.054645 7:0.016393 8:0.081967 9:0.071038 10:0.10929 11:0.032787 12:0.04918 13:0.032787 14:0.027322 15:0.038251 16:0.038251 17:0.071038 18:0.071038 19:0 20:0.065574 
-0.3746034337039694 1:0.09901 2:0.019802 3:0.046676 4:0.076379 5:0.024045 6:0.039604 7:0.009901 8:0.046676 9:0.079208 10:0.110325 11:0.01273 12:0.057992 13:0.042433 14:0.066478 15:0.065064 16:0.079208 17:0.043847 18:0.041018 19:0.004243 20:0.035361 
-1 1:0.107735 2:0.019337 3:0.030387 4:0.063536 5:0.024862 6:0.09116 7:0.024862 8:0.049724 9:0.063536 10:0.11326 11:0.019337 12:0.019337 13:0.049724 14:0.041436 15:0.033149 16:0.077348 17:0.052486 18:0.096685 19:0.01105 20:0.01105 
-0.02347577566690567 1:0.083582 2:0.002985 3:0.116418 4:0.077612 5:0.032836 6:0.089552 7:0.014925 8:0.047761 9:0.023881 10:0.065672 11:0.023881 12:0.044776 13:0.041791 14:0.026866 15:0.032836 16:0.065672 17:0.068657 18:0.107463 19:0.00597 20:0.026866 
-1 1:0.066819 2:0.019222 3:0.050801 4:0.069565 5:0.036156 6:0.067735 7:0.022426 8:0.079176 9:0.069108 10:0.083295 11:0.02151 12:0.055378 13:0.045767 14:0.030206 15:0.037986 16:0.075973 17:0.059039 18:0.070938 19:0.009153 20:0.029748 
-1 1:0.08 2:0.021333 3:0.056 4:0.08 5:0.037333 6:0.069333 7:0.021333 8:0.056 9:0.056 10:0.08 11:0.026667 12:0.037333 13:0.045333 14:0.032 15:0.045333 16:0.074667 17:0.053333 18:0.08 19:0.010667 20:0.037333 
-0.4884263372071714 1:0.088235 2:0.008824 3:0.061765 4:0.058824 5:0.017647 6:0.044118 7:0.017647 8:0.102941 9:0.079412 10:0.064706 11:0.032353 12:0.05 13:0.041176 14:0.026471 15:0.05 16:0.061765 17:0.055882 18:0.105882 19:0 20:0.032353 
-0.0002241270123421884 1:0.019737 2:0.105263 3:0 4:0.098684 5:0 6:0 7:0.032895 8:0.006579 9:0.098684 10:0.006579 11:0.006579 12:0.006579 13:0.328947 14:0.131579 15:0 16:0.019737 17:0.032895 18:0.098684 19:0 20:0.006579 
-0.007530207937492957 1:0.071895 2:0.013072 3:0.078431 4:0.052288 5:0.039216 6:0.156863 7:0.052288 8:0.058824 9:0.058824 10:0.045752 11:0 12:0.045752 13:0.039216 14:0.039216 15:0.03268 16:0.052288 17:0.078431 18:0.071895 19:0.006536 20:0.006536 
-0.8460065107047284 1:0.067941 2:0.002123 3:0.067941 4:0.070064 5:0.046709 6:0.072187 7:0.021231 8:0.055202 9:0.065817 10:0.087049 11:0.023355 12:0.027601 13:0.067941 14:0.021231 15:0.050955 16:0.057325 17:0.057325 18:0.065817 19:0.012739 20:0.059448 
-0.0004275992686625256 1:0.337838 2:0 3:0.027027 4:0.013514 5:0.013514 6:0.013514 7:0 8:0 9:0.135135 10:0.040541 11:0.027027 12:0.054054 13:0.040541 14:0.027027 15:0.027027 16:0.054054 17:0.121622 18:0.054054 19:0 20:0.013514 
-1 1:0.098321 2:0.014388 3:0.057554 4:0.064748 5:0.026379 6:0.095923 7:0.01199 8:0.052758 9:0.081535 10:0.091127 11:0.038369 12:0.035971 13:0.043165 14:0.019185 15:0.047962 16:0.069544 17:0.038369 18:0.079137 19:0.002398 20:0.031175 
-0.5519829068196719 1:0.075658 2:0.003289 3:0.046053 4:0.059211 5:0.0625 6:0.078947 7:0.046053 8:0.065789 9:0.059211 10:0.065789 11:0.029605 12:0.0625 13:0.036184 14:0.046053 15:0.023026 16:0.059211 17:0.0625 18:0.052632 19:0.029605 20:0.036184 
-0.08016376451658347 1:0.092715 2:0 3:0.059603 4:0.10596 5:0.039735 6:0.07947 7:0.019868 8:0.059603 9:0.05298 10:0.05298 11:0.039735 12:0.033113 13:0.039735 14:0.013245 15:0.072848 16:0.046358 17:0.033113 18:0.119205 19:0.019868 20:0.019868 
-0.1681540205073778 1:0.051136 2:0.002841 3:0.058239 4:0.075284 5:0.03125 6:0.055398 7:0.018466 8:0.085227 9:0.090909 10:0.099432 11:0.019886 12:0.044034 13:0.053977 14:0.044034 15:0.044034 16:0.078125 17:0.056818 18:0.065341 19:0.00142 20:0.024148 
-0.5732689404050727 1:0.094421 2:0.004292 3:0.055794 4:0.081545 5:0.034335 6:0.077253 7:0 8:0.072961 9:0.077253 10:0.081545 11:0.017167 12:0.030043 13:0.025751 14:0.060086 15:0.051502 16:0.060086 17:0.038627 18:0.090129 19:0 20:0.04721 
-0.2243748334451115 1:0.070707 2:0.015152 3:0.080808 4:0.055556 5:0.060606 6:0.090909 7:0.015152 8:0.050505 9:0.070707 10:0.085859 11:0.005051 12:0.035354 13:0.055556 14:0.020202 15:0.050505 16:0.050505 17:0.050505 18:0.090909 19:0.010101 20:0.035354 
-0.256189825113428 1:0.099291 2:0.002364 3:0.056738 4:0.092199 5:0.033097 6:0.089835 7:0.01182 8:0.066194 9:0.06383 10:0.085106 11:0.028369 12:0.047281 13:0.033097 14:0.018913 15:0.049645 16:0.049645 17:0.044917 18:0.085106 19:0 20:0.042553 
-0.09599969963870211 1:0.093306 2:0.010142 3:0.048682 4:0.058824 5:0.042596 6:0.085193 7:0.010142 8:0.048682 9:0.093306 10:0.087221 11:0.054767 12:0.022312 13:0.03854 14:0.054767 15:0.046653 16:0.070994 17:0.044625 18:0.073022 19:0.002028 20:0.014199 
-1 1:0.078265 2:0.023256 3:0.045617 4:0.058587 5:0.033989 6:0.070215 7:0.031306 8:0.042039 9:0.042487 10:0.096154 11:0.026386 12:0.038909 13:0.060376 14:0.037567 15:0.071556 16:0.072451 17:0.055903 18:0.071109 19:0.016547 20:0.027281 
-0.03969775336464509 1:0.09073 2:0.019724 3:0.037475 4:0.078895 5:0.033531 6:0.078895 7:0.039448 8:0.021696 9:0.063116 10:0.108481 11:0.023669 12:0.017751 13:0.057199 14:0.033531 15:0.072978 16:0.069034 17:0.035503 18:0.078895 19:0.019724 20:0.019724 
-0.3551113809752099 1:0.101124 2:0.007491 3:0.054307 4:0.046816 5:0.035581 6:0.125468 7:0.016854 8:0.054307 9:0.069288 10:0.080524 11:0.065543 12:0.024345 13:0.029963 14:0.058052 15:0.052434 16:0.05618 17:0.058052 18:0.050562 19:0 20:0.013109 
-0.9480662019006769 1:0.066116 2:0.024793 3:0.057851 4:0.033058 5:0.049587 6:0.057851 7:0.008264 8:0.082645 9:0.057851 10:0.066116 11:0.049587 12:0.033058 13:0.049587 14:0.049587 15:0.057851 16:0.066116 17:0.07438 18:0.082645 19:0 20:0.033058 
-0.2875802829981635 1:0.019194 2:0.017274 3:0.051823 4:0.06142 5:0.03263 6:0.049904 7:0.028791 8:0.086372 9:0.049904 10:0.067179 11:0.017274 12:0.117083 13:0.046065 14:0.042226 15:0.047985 16:0.105566 17:0.067179 18:0.040307 19:0.007678 20:0.044146 
-0.04822727881463308 1:0.138889 2:0 3:0 4:0.083333 5:0.055556 6:0.055556 7:0 8:0.027778 9:0.111111 10:0.111111 11:0.083333 12:0.111111 13:0.027778 14:0 15:0.027778 16:0.083333 17:0 18:0.055556 19:0.027778 20:0 
-0.0111595411393031 1:0.121212 2:0.022727 3:0.022727 4:0.075758 5:0.015152 6:0.030303 7:0.015152 8:0.015152 9:0.19697 10:0.068182 11:0.045455 12:0.007576 13:0.037879 14:0.030303 15:0.05303 16:0.098485 17:0.045455 18:0.060606 19:0.007576 20:0.030303 
-0.1839713606728181 1:0.048485 2:0.018182 3:0.042424 4:0.054545 5:0.072727 6:0.121212 7:0.024242 8:0.054545 9:0.078788 10:0.054545 11:0.030303 12:0.072727 13:0.030303 14:0.018182 15:0.030303 16:0.078788 17:0.066667 18:0.078788 19:0.006061 20:0.018182 
-0.0831597703104192 1:0.181818 2:0.007576 3:0.07197 4:0.05303 5:0.022727 6:0.056818 7:0.015152 8:0.041667 9:0.022727 10:0.034091 11:0.011364 12:0.030303 13:0.102273 14:0.045455 15:0.05303 16:0.068182 17:0.041667 18:0.083333 19:0.037879 20:0.018939 
-0.004060198431169899 1:0.055556 2:0 3:0.083333 4:0.083333 5:0.055556 6:0.111111 7:0 8:0.027778 9:0.138889 10:0.083333 11:0 12:0.027778 13:0.027778 14:0.027778 15:0.027778 16:0.083333 17:0.055556 18:0.055556 19:0.027778 20:0.027778 
-1 1:0.108939 2:0.013966 3:0.036313 4:0.069832 5:0.039106 6:0.086592 7:0.00838 8:0.055866 9:0.067039 10:0.097765 11:0.011173 12:0.039106 13:0.047486 14:0.03352 15:0.039106 16:0.053073 17:0.075419 18:0.069832 19:0.011173 20:0.036313 
-0.1002923811247532 1:0.092672 2:0 3:0.047414 4:0.12069 5:0.012931 6:0.088362 7:0.010776 8:0.034483 9:0.060345 10:0.092672 11:0.034483 12:0.032328 13:0.008621 14:0.060345 15:0.077586 16:0.103448 17:0.047414 18:0.043103 19:0.00431 20:0.028017 
-0.07672204735229399 1:0.076923 2:0.003497 3:0.083916 4:0.066434 5:0.038462 6:0.055944 7:0.020979 8:0.094406 9:0.101399 10:0.062937 11:0.006993 12:0.055944 13:0.066434 14:0.024476 15:0.020979 16:0.045455 17:0.066434 18:0.048951 19:0.020979 20:0.038462 
-0.01435623730714013 1:0.043478 2:0.012681 3:0.063406 4:0.070652 5:0.03442 6:0.072464 7:0.030797 8:0.070652 9:0.074275 10:0.07971 11:0.021739 12:0.039855 13:0.038043 14:0.028986 15:0.057971 16:0.061594 17:0.032609 18:0.101449 19:0.030797 20:0.03442 
-0.04269865439229986 1:0.04501 2:0.011742 3:0.058708 4:0.078278 5:0.048924 6:0.072407 7:0.017613 8:0.07045 9:0.058708 10:0.09002 11:0.019569 12:0.043053 13:0.050881 14:0.048924 15:0.066536 16:0.07045 17:0.035225 18:0.060665 19:0.011742 20:0.041096 
-0.8982135252982015 1:0.08554 2:0.008147 3:0.06721 4:0.052953 5:0.04277 6:0.069246 7:0.022403 8:0.057026 9:0.071283 10:0.087576 11:0.020367 12:0.04277 13:0.0611 14:0.034623 15:0.04888 16:0.050916 17:0.05499 18:0.071283 19:0.016293 20:0.034623 
-0.1183422314325686 1:0.031579 2:0.007018 3:0.052632 4:0.066667 5:0.070175 6:0.070175 7:0.014035 8:0.070175 9:0.084211 10:0.091228 11:0.035088 12:0.059649 13:0.049123 14:0.024561 15:0.035088 16:0.063158 17:0.049123 18:0.045614 19:0.042105 20:0.038596 
-0.09600223907359844 1:0.079268 2:0.006098 3:0.054878 4:0.060976 5:0.030488 6:0.097561 7:0.042683 8:0.060976 9:0.042683 10:0.060976 11:0.042683 12:0.036585 13:0.067073 14:0.030488 15:0.042683 16:0.054878 17:0.054878 18:0.079268 19:0.012195 20:0.042683 
-1 1:0.077121 2:0.020566 3:0.056555 4:0.061697 5:0.03599 6:0.079692 7:0.015424 8:0.069409 9:0.061697 10:0.089974 11:0.03599 12:0.043702 13:0.048843 14:0.028278 15:0.048843 16:0.056555 17:0.056555 18:0.077121 19:0.007712 20:0.028278 
-0.2438735400628289 1:0.058974 2:0.007692 3:0.058974 4:0.071795 5:0.035897 6:0.061538 7:0.023077 8:0.053846 9:0.066667 10:0.069231 11:0.023077 12:0.020513 13:0.076923 14:0.046154 15:0.082051 16:0.064103 17:0.061538 18:0.061538 19:0.017949 20:0.038462 
-0.1776553018613925 1:0.091716 2:0.011834 3:0.071006 4:0.04142 5:0.029586 6:0.100592 7:0.014793 8:0.071006 9:0.073964 10:0.050296 11:0.017751 12:0.044379 13:0.038462 14:0.02071 15:0.026627 16:0.065089 17:0.068047 18:0.112426 19:0.011834 20:0.038462 
-1 1:0.060367 2:0.026247 3:0.060367 4:0.049869 5:0.028871 6:0.076115 7:0.018373 8:0.089239 9:0.060367 10:0.07874 11:0.018373 12:0.052493 13:0.052493 14:0.03937 15:0.023622 16:0.091864 17:0.049869 18:0.07874 19:0 20:0.044619 
-0.1239536616874035 1:0.045752 2:0.035948 3:0.078431 4:0.058824 5:0.042484 6:0.075163 7:0.019608 8:0.052288 9:0.03268 10:0.104575 11:0.022876 12:0.052288 13:0.052288 14:0.052288 15:0.055556 16:0.039216 17:0.045752 18:0.065359 19:0.013072 20:0.055556 
-0.3936661968079628 1:0.088496 2:0.004425 3:0.070796 4:0.039823 5:0.017699 6:0.10177 7:0.035398 8:0.061947 9:0.075221 10:0.09292 11:0.039823 12:0.026549 13:0.053097 14:0.039823 15:0.035398 16:0.070796 17:0.026549 18:0.075221 19:0.013274 20:0.030973 
-0.1345138720073628 1:0.044199 2:0.01105 3:0.055249 4:0.044199 5:0.066298 6:0.066298 7:0.038674 8:0.049724 9:0.044199 10:0.055249 11:0.033149 12:0.044199 13:0.071823 14:0.022099 15:0.071823 16:0.077348 17:0.066298 18:0.110497 19:0.005525 20:0.022099 
-0.3159737713272313 1:0.065693 2:0.024331 3:0.041363 4:0.087591 5:0.041363 6:0.07056 7:0.019465 8:0.048662 9:0.06326 10:0.107056 11:0.029197 12:0.03163 13:0.048662 14:0.024331 15:0.043796 16:0.085158 17:0.058394 18:0.055961 19:0.021898 20:0.03163 
-1 1:0.087805 2:0.034146 3:0.047805 4:0.061463 5:0.040976 6:0.08 7:0.012683 8:0.067317 9:0.066341 10:0.083902 11:0.022439 12:0.036098 13:0.061463 14:0.036098 15:0.039024 16:0.067317 17:0.057561 18:0.063415 19:0.010732 20:0.023415 
-0.07816820662947531 1:0.080214 2:0.005348 3:0.037433 4:0.042781 5:0.048128 6:0.080214 7:0.02139 8:0.037433 9:0.122995 10:0.101604 11:0.02139 12:0.026738 13:0.048128 14:0.010695 15:0.106952 16:0.053476 17:0.058824 18:0.080214 19:0 20:0.016043 
-0.3982347740340221 1:0.057508 2:0.007455 3:0.058573 4:0.060703 5:0.018104 6:0.047923 7:0.022364 8:0.052183 9:0.085197 10:0.066028 11:0.024494 12:0.076677 13:0.071353 14:0.031949 15:0.031949 16:0.127796 17:0.083067 18:0.052183 19:0.005325 20:0.019169 
-0.1375484063989313 1:0.082192 2:0.013699 3:0.061644 4:0.089041 5:0.027397 6:0.075342 7:0.013699 8:0.034247 9:0.09589 10:0.068493 11:0.013699 12:0.061644 13:0.013699 14:0.020548 15:0.027397 16:0.109589 17:0.034247 18:0.10274 19:0.013699 20:0.041096 
-0.1474631795729321 1:0.092379 2:0.020785 3:0.064665 4:0.062356 5:0.04157 6:0.08776 7:0.018476 8:0.071594 9:0.080831 10:0.073903 11:0.025404 12:0.053118 13:0.030023 14:0.027714 15:0.032333 16:0.060046 17:0.062356 18:0.064665 19:0.006928 20:0.023095 
-0.1264450357337055 1:0.084112 2:0.018692 3:0.056075 4:0.084112 5:0.046729 6:0.074766 7:0.028037 8:0.065421 9:0.065421 10:0.065421 11:0 12:0.065421 13:0.046729 14:0.028037 15:0.093458 16:0.046729 17:0.056075 18:0.028037 19:0 20:0.046729 
-1 1:0.05379 2:0.02445 3:0.06357 4:0.075795 5:0.03423 6:0.061125 7:0.03912 8:0.03912 9:0.08313 10:0.066015 11:0.02934 12:0.026895 13:0.031785 14:0.022005 15:0.05379 16:0.090465 17:0.066015 18:0.085575 19:0.02934 20:0.02445 
-0.8229814219671805 1:0.118421 2:0.009868 3:0.0625 4:0.039474 5:0.042763 6:0.088816 7:0.013158 8:0.052632 9:0.075658 10:0.0625 11:0.016447 12:0.052632 13:0.039474 14:0.013158 15:0.029605 16:0.0625 17:0.072368 18:0.115132 19:0.009868 20:0.023026 
-0.5800322657515378 1:0.089059 2:0.022901 3:0.045802 4:0.066158 5:0.053435 6:0.089059 7:0.020356 8:0.05598 9:0.05598 10:0.086514 11:0.022901 12:0.035623 13:0.048346 14:0.038168 15:0.045802 16:0.05598 17:0.061069 18:0.083969 19:0.010178 20:0.012723 
-1 1:0.064114 2:0.012048 3:0.055508 4:0.068847 5:0.039587 6:0.062823 7:0.026678 8:0.062392 9:0.047332 10:0.091652 11:0.032272 12:0.04389 13:0.048193 14:0.04389 15:0.061962 16:0.067126 17:0.045181 18:0.080465 19:0.011618 20:0.034423 
-0.6983326108334272 1:0.084249 2:0.009158 3:0.076923 4:0.06044 5:0.029304 6:0.067766 7:0.014652 8:0.06044 9:0.071429 10:0.120879 11:0.02381 12:0.043956 13:0.031136 14:0.03663 15:0.049451 16:0.056777 17:0.067766 18:0.07326 19:0.001832 20:0.020147 
-0.07641599229315237 1:0.071809 2:0.023936 3:0.050532 4:0.05984 5:0.038564 6:0.067819 7:0.030585 8:0.038564 9:0.049202 10:0.106383 11:0.035904 12:0.050532 13:0.049202 14:0.045213 15:0.057181 16:0.069149 17:0.046543 18:0.078457 19:0.010638 20:0.019947 
-0.2813929451565981 1:0.108696 2:0.021739 3:0.059783 4:0.057065 5:0.019022 6:0.092391 7:0.016304 8:0.065217 9:0.0625 10:0.105978 11:0.013587 12:0.05163 13:0.048913 14:0.013587 15:0.035326 16:0.07337 17:0.05163 18:0.076087 19:0.01087 20:0.016304 
-0.0839372801683773 1:0.124473 2:0.008439 3:0.075949 4:0.103376 5:0.027426 6:0.113924 7:0.025316 8:0.054852 9:0.021097 10:0.063291 11:0.025316 12:0.025316 13:0.033755 14:0.018987 15:0.044304 16:0.035865 17:0.06962 18:0.107595 19:0.006329 20:0.014768 
-0.5698941765321284 1:0.055556 2:0.012346 3:0.055556 4:0.104938 5:0.027778 6:0.075617 7:0.016975 8:0.04321 9:0.061728 10:0.055556 11:0.023148 12:0.052469 13:0.033951 14:0.037037 15:0.091049 16:0.095679 17:0.052469 18:0.074074 19:0.006173 20:0.024691 
-0.07063470727152442 1:0.033841 2:0.00846 3:0.054146 4:0.071066 5:0.060914 6:0.042301 7:0.027073 8:0.062606 9:0.103215 10:0.099831 11:0.023689 12:0.104907 13:0.018613 14:0.032149 15:0.028765 16:0.059222 17:0.052453 18:0.06599 19:0.006768 20:0.043993 
