svm_type c_svc
kernel_type polynomial
degree 10
gamma 10
coef0 1
nr_class 2
total_sv 30
rho -2.93785
label 1 -1
nr_sv 23 7
SV
0.06787026121719546 1:0.082192 2:0.013699 3:0.061644 4:0.089041 5:0.027397 6:0.075342 7:0.013699 8:0.034247 9:0.09589 10:0.068493 11:0.013699 12:0.061644 13:0.013699 14:0.020548 15:0.027397 16:0.109589 17:0.034247 18:0.10274 19:0.013699 20:0.041096 
0.06913638764920227 1:0.027322 2:0.027322 3:0.087432 4:0.060109 5:0.038251 6:0.054645 7:0.016393 8:0.081967 9:0.071038 10:0.10929 11:0.032787 12:0.04918 13:0.032787 14:0.027322 15:0.038251 16:0.038251 17:0.071038 18:0.071038 19:0 20:0.065574 
0.1113373235255755 1:0.070175 2:0.017544 3:0.065391 4:0.076555 5:0.030303 6:0.066986 7:0.014354 8:0.063796 9:0.07496 10:0.113238 11:0.028708 12:0.07496 13:0.038278 14:0.028708 15:0.041467 16:0.047847 17:0.043062 18:0.063796 19:0.012759 20:0.027113 
0.003955694787016405 1:0.075 2:0 3:0.025 4:0.2 5:0.075 6:0 7:0 8:0.075 9:0.025 10:0.05 11:0.05 12:0.05 13:0.05 14:0.125 15:0 16:0.05 17:0.1 18:0.025 19:0 20:0.025 
0.129069933277174 1:0.108939 2:0.013966 3:0.036313 4:0.069832 5:0.039106 6:0.086592 7:0.00838 8:0.055866 9:0.067039 10:0.097765 11:0.011173 12:0.039106 13:0.047486 14:0.03352 15:0.039106 16:0.053073 17:0.075419 18:0.069832 19:0.011173 20:0.036313 
0.2551823485456675 1:0.049763 2:0.018167 3:0.054502 4:0.075829 5:0.045814 6:0.052133 7:0.017378 8:0.052923 9:0.066351 10:0.109005 11:0.022117 12:0.042654 13:0.048183 14:0.037915 15:0.050553 16:0.057662 17:0.062401 18:0.079779 19:0.015798 20:0.041074 
0.03398574305834381 1:0.084249 2:0.009158 3:0.076923 4:0.06044 5:0.029304 6:0.067766 7:0.014652 8:0.06044 9:0.071429 10:0.120879 11:0.02381 12:0.043956 13:0.031136 14:0.03663 15:0.049451 16:0.056777 17:0.067766 18:0.07326 19:0.001832 20:0.020147 
0.1175245262628032 1:0.057292 2:0.005208 3:0.057292 4:0.072917 5:0.015625 6:0.0625 7:0.010417 8:0.036458 9:0.0625 10:0.078125 11:0.0625 12:0.052083 13:0.036458 14:0.041667 15:0.0625 16:0.067708 17:0.078125 18:0.119792 19:0.005208 20:0.015625 
0.005264562651559166 1:0.033841 2:0.00846 3:0.054146 4:0.071066 5:0.060914 6:0.042301 7:0.027073 8:0.062606 9:0.103215 10:0.099831 11:0.023689 12:0.104907 13:0.018613 14:0.032149 15:0.028765 16:0.059222 17:0.052453 18:0.06599 19:0.006768 20:0.043993 
0.00156149771477712 1:0.019194 2:0.017274 3:0.051823 4:0.06142 5:0.03263 6:0.049904 7:0.028791 8:0.086372 9:0.049904 10:0.067179 11:0.017274 12:0.117083 13:0.046065 14:0.042226 15:0.047985 16:0.105566 17:0.067179 18:0.040307 19:0.007678 20:0.044146 
0.1432850474895635 1:0.105058 2:0.013619 3:0.089494 4:0.050584 5:0.009728 6:0.044747 7:0.009728 8:0.044747 9:0.038911 10:0.087549 11:0.01751 12:0.085603 13:0.050584 14:0.035019 15:0.031128 16:0.124514 17:0.083658 18:0.052529 19:0.005837 20:0.019455 
0.3123352774750578 1:0.05787 2:0.006944 3:0.059028 4:0.060185 5:0.043981 6:0.065972 7:0.030093 8:0.061343 9:0.059028 10:0.104167 11:0.015046 12:0.052083 13:0.059028 14:0.023148 15:0.045139 16:0.075231 17:0.05787 18:0.06713 19:0.016204 20:0.040509 
0.0128890386612687 1:0.074689 2:0.008299 3:0.107884 4:0.13278 5:0.024896 6:0.087137 7:0.033195 8:0.024896 9:0.016598 10:0.082988 11:0.033195 12:0.029046 13:0.058091 14:0.037344 15:0.033195 16:0.070539 17:0.053942 18:0.053942 19:0.004149 20:0.033195 
0.09727212384375641 1:0.083582 2:0.002985 3:0.116418 4:0.077612 5:0.032836 6:0.089552 7:0.014925 8:0.047761 9:0.023881 10:0.065672 11:0.023881 12:0.044776 13:0.041791 14:0.026866 15:0.032836 16:0.065672 17:0.068657 18:0.107463 19:0.00597 20:0.026866 
0.09094522346632898 1:0.088235 2:0.008824 3:0.061765 4:0.058824 5:0.017647 6:0.044118 7:0.017647 8:0.102941 9:0.079412 10:0.064706 11:0.032353 12:0.05 13:0.041176 14:0.026471 15:0.05 16:0.061765 17:0.055882 18:0.105882 19:0 20:0.032353 
0.004884899990765803 1:0.070175 2:0.065789 3:0.050439 4:0.076754 5:0 6:0.08114 7:0.015351 8:0.019737 9:0.030702 10:0.214912 11:0.004386 12:0.037281 13:0.035088 14:0.054825 15:0.048246 16:0.083333 17:0.050439 18:0.041667 19:0.010965 20:0.008772 
0.02083645637581419 1:0.066838 2:0.03599 3:0.01928 4:0.079692 5:0.017995 6:0.066838 7:0.023136 8:0.024422 9:0.017995 10:0.097686 11:0.006427 12:0.014139 13:0.152956 14:0.068123 15:0.078406 16:0.105398 17:0.056555 18:0.05527 19:0.006427 20:0.006427 
0.2349904045039255 1:0.073841 2:0.016496 3:0.053417 4:0.088767 5:0.042419 6:0.040063 7:0.018068 8:0.057345 9:0.076984 10:0.130401 11:0.025137 12:0.050275 13:0.032207 14:0.046347 15:0.042419 16:0.054988 17:0.047133 18:0.062058 19:0.006284 20:0.03535 
0.004830363325118626 1:0.1 2:0 3:0 4:0.175 5:0.025 6:0.05 7:0.025 8:0 9:0.125 10:0.125 11:0 12:0.075 13:0.025 14:0.025 15:0 16:0.05 17:0.1 18:0.05 19:0 20:0.05 
0.06819497395314296 1:0.084229 2:0.026882 3:0.041219 4:0.069892 5:0.044803 6:0.043011 7:0.028674 8:0.055556 9:0.037634 10:0.148746 11:0.026882 12:0.023297 13:0.044803 14:0.066308 15:0.051971 16:0.064516 17:0.048387 18:0.050179 19:0.023297 20:0.019713 
0.2074968770053974 1:0.044721 2:0.011975 3:0.055718 4:0.077224 5:0.053275 6:0.036657 7:0.020283 8:0.075513 9:0.075269 10:0.121945 11:0.022239 12:0.054252 13:0.02737 14:0.041789 15:0.043255 16:0.079179 17:0.054741 18:0.062317 19:0.012952 20:0.029326 
0.01585447178371248 1:0.107735 2:0.019337 3:0.030387 4:0.063536 5:0.024862 6:0.09116 7:0.024862 8:0.049724 9:0.063536 10:0.11326 11:0.019337 12:0.019337 13:0.049724 14:0.041436 15:0.033149 16:0.077348 17:0.052486 18:0.096685 19:0.01105 20:0.01105 
0.2922340516774213 1:0.06903 2:0.016791 3:0.059701 4:0.087687 5:0.046642 6:0.026119 7:0.031716 8:0.054104 9:0.05597 10:0.104478 11:0.026119 12:0.039179 13:0.046642 14:0.050373 15:0.052239 16:0.078358 17:0.059701 18:0.061567 19:0.014925 20:0.018657 
-0.00318131246918876 1:0.06738 2:0.011765 3:0.063102 4:0.073797 5:0.052406 6:0.026738 7:0.014973 8:0.072727 9:0.063102 10:0.118717 11:0.012834 12:0.062032 13:0.036364 14:0.037433 15:0.037433 16:0.103743 17:0.056684 18:0.062032 19:0.002139 20:0.024599 
-0.8481740742189177 1:0.070866 2:0.006749 3:0.068616 4:0.086614 5:0.048369 6:0.070866 7:0.015748 8:0.046119 9:0.057368 10:0.087739 11:0.008999 12:0.058493 13:0.035996 14:0.031496 15:0.033746 16:0.074241 17:0.061867 18:0.07649 19:0.022497 20:0.03712 
-0.5486404816573491 1:0.085239 2:0.017672 3:0.057173 4:0.067568 5:0.031185 6:0.040541 7:0.02183 8:0.064449 9:0.059252 10:0.121622 11:0.025988 12:0.050936 13:0.039501 14:0.047817 15:0.044699 16:0.061331 17:0.057173 18:0.074844 19:0.005198 20:0.025988 
-0.08384511923940723 1:0.070718 2:0.00884 3:0.062983 4:0.077348 5:0.045304 6:0.037569 7:0.01989 8:0.076243 9:0.055249 10:0.093923 11:0.01989 12:0.041989 13:0.037569 14:0.027624 15:0.049724 16:0.097238 17:0.057459 18:0.091713 19:0.00221 20:0.026519 
-0.3355422572049082 1:0.071864 2:0.01827 3:0.048721 4:0.059683 5:0.028015 6:0.047503 7:0.01827 8:0.063337 9:0.049939 10:0.120585 11:0.032887 12:0.051157 13:0.052375 14:0.046285 15:0.052375 16:0.073082 17:0.069428 18:0.066991 19:0.003654 20:0.025579 
-0.1834441306444176 1:0.067293 2:0.007825 3:0.050078 4:0.078247 5:0.025039 6:0.045383 7:0.01252 8:0.035994 9:0.057903 10:0.118936 11:0.028169 12:0.039124 13:0.101721 14:0.054773 15:0.043818 16:0.093897 17:0.057903 18:0.057903 19:0.00939 20:0.014085 
-0.2981101128063995 1:0.038462 2:0.019231 3:0.064103 4:0.070513 5:0.032051 6:0.032051 7:0.025641 8:0.083333 9:0.083333 10:0.102564 11:0.057692 12:0.051282 13:0.019231 14:0.012821 15:0.044872 16:0.057692 17:0.064103 18:0.083333 19:0.00641 20:0.051282 
