svm_type c_svc
kernel_type polynomial
degree 10
gamma 10
coef0 1
nr_class 2
total_sv 26
rho -3.31077
label 1 -1
nr_sv 22 4
SV
0.03090406887881782 1:0.075975 2:0.00616 3:0.055441 4:0.067762 5:0.041068 6:0.088296 7:0.008214 8:0.067762 9:0.102669 10:0.086242 11:0.049281 12:0.047228 13:0.026694 14:0.059548 15:0.045175 16:0.047228 17:0.047228 18:0.065708 19:0.002053 20:0.010267 
0.0009937905844385443 1:0.024267 2:0.010111 3:0.038423 4:0.031345 5:0.035389 6:0.032356 7:0.025278 8:0.053589 9:0.048534 10:0.060667 11:0.028311 12:0.18908 13:0.057634 14:0.064712 15:0.026289 16:0.154702 17:0.064712 18:0.031345 19:0.004044 20:0.019211 
0.1731506373134503 1:0.060748 2:0.007009 3:0.058411 4:0.056075 5:0.042056 6:0.051402 7:0.018692 8:0.063084 9:0.058411 10:0.084112 11:0.030374 12:0.053738 13:0.07243 14:0.044393 15:0.051402 16:0.093458 17:0.056075 18:0.060748 19:0.009346 20:0.028037 
0.007301118788791217 1:0.061728 2:0.012346 3:0.041152 4:0.096708 5:0.063786 6:0.028807 7:0.020576 8:0.067901 9:0.08642 10:0.115226 11:0.020576 12:0.037037 13:0.04321 14:0.055556 15:0.04321 16:0.084362 17:0.037037 18:0.047325 19:0.010288 20:0.026749 
0.0606980478880341 1:0.074324 2:0 3:0.054054 4:0.060811 5:0.038288 6:0.078829 7:0.024775 8:0.081081 9:0.081081 10:0.06982 11:0.018018 12:0.024775 13:0.074324 14:0.047297 15:0.047297 16:0.029279 17:0.054054 18:0.119369 19:0.006757 20:0.015766 
0.03218848955142616 1:0.075949 2:0.008439 3:0.059072 4:0.105485 5:0.037975 6:0.033755 7:0.054852 8:0.059072 9:0.101266 10:0.084388 11:0.016878 12:0.033755 13:0.033755 14:0.050633 15:0.050633 16:0.067511 17:0.004219 18:0.101266 19:0.004219 20:0.016878 
0.038008948011885 1:0.068345 2:0.028777 3:0.039568 4:0.079137 5:0.032374 6:0.046763 7:0.017986 8:0.017986 9:0.053957 10:0.035971 11:0.035971 12:0.071942 13:0.133094 14:0.046763 15:0.061151 16:0.079137 17:0.046763 18:0.05036 19:0.021583 20:0.032374 
0.01475266764085345 1:0.059361 2:0.002283 3:0.054795 4:0.116438 5:0.059361 6:0.059361 7:0.022831 8:0.073059 9:0.070776 10:0.093607 11:0.02968 12:0.034247 13:0.061644 14:0.020548 15:0.06621 16:0.034247 17:0.034247 18:0.059361 19:0.011416 20:0.03653 
0.03939868702444357 1:0.105978 2:0.008152 3:0.065217 4:0.122283 5:0.027174 6:0.067935 7:0.019022 8:0.043478 9:0.081522 10:0.059783 11:0.048913 12:0.043478 13:0.059783 14:0.038043 15:0.070652 16:0.05163 17:0.024457 18:0.040761 19:0.008152 20:0.013587 
0.08465874627869235 1:0.031579 2:0.010526 3:0.042105 4:0.094737 5:0.021053 6:0.084211 7:0.042105 8:0.084211 9:0.042105 10:0.094737 11:0.021053 12:0.042105 13:0.073684 14:0.094737 15:0.084211 16:0.052632 17:0.021053 18:0.042105 19:0.010526 20:0.010526 
0.1127843726726714 1:0.09901 2:0.019802 3:0.046676 4:0.076379 5:0.024045 6:0.039604 7:0.009901 8:0.046676 9:0.079208 10:0.110325 11:0.01273 12:0.057992 13:0.042433 14:0.066478 15:0.065064 16:0.079208 17:0.043847 18:0.041018 19:0.004243 20:0.035361 
0.01045494251713726 1:0.071429 2:0.020408 3:0.05102 4:0.102041 5:0.071429 6:0.030612 7:0.030612 8:0.030612 9:0.102041 10:0.061224 11:0.030612 12:0.030612 13:0.05102 14:0.05102 15:0.030612 16:0.05102 17:0.081633 18:0.081633 19:0 20:0.020408 
0.002035427115595987 1:0.1 2:0 3:0 4:0.175 5:0.025 6:0.05 7:0.025 8:0 9:0.125 10:0.125 11:0 12:0.075 13:0.025 14:0.025 15:0 16:0.05 17:0.1 18:0.05 19:0 20:0.05 
0.03794863179586887 1:0.067358 2:0.012953 3:0.051813 4:0.059585 5:0.031088 6:0.064767 7:0.023316 8:0.059585 9:0.044041 10:0.126943 11:0.036269 12:0.041451 13:0.064767 14:0.036269 15:0.051813 16:0.046632 17:0.064767 18:0.07772 19:0.010363 20:0.028497 
0.3325827061767768 1:0.061758 2:0.013064 3:0.06057 4:0.079572 5:0.048694 6:0.048694 7:0.019002 8:0.042755 9:0.061758 10:0.105701 11:0.022565 12:0.04038 13:0.057007 14:0.039192 15:0.070071 16:0.078385 17:0.051069 18:0.067696 19:0.014252 20:0.017815 
0.008636765901243721 1:0.048352 2:0.013187 3:0.081319 4:0.065934 5:0.07033 6:0.043956 7:0.015385 8:0.052747 9:0.105495 10:0.103297 11:0.010989 12:0.054945 13:0.048352 14:0.032967 15:0.041758 16:0.041758 17:0.057143 18:0.061538 19:0.015385 20:0.035165 
0.01823607360074866 1:0.024691 2:0.030864 3:0.098765 4:0.117284 5:0.030864 6:0.030864 7:0.024691 8:0.092593 9:0.098765 10:0.074074 11:0.024691 12:0.049383 13:0.067901 14:0.024691 15:0.037037 16:0.049383 17:0.049383 18:0.049383 19:0.006173 20:0.018519 
0.1483621048315429 1:0.051136 2:0.002841 3:0.058239 4:0.075284 5:0.03125 6:0.055398 7:0.018466 8:0.085227 9:0.090909 10:0.099432 11:0.019886 12:0.044034 13:0.053977 14:0.044034 15:0.044034 16:0.078125 17:0.056818 18:0.065341 19:0.00142 20:0.024148 
0.0002801005215753599 1:0.045455 2:0 3:0.045455 4:0.272727 5:0 6:0.090909 7:0.045455 8:0.090909 9:0.090909 10:0.090909 11:0 12:0 13:0.090909 14:0.090909 15:0 16:0 17:0 18:0.045455 19:0 20:0 
0.07801998434512081 1:0.074703 2:0.003396 3:0.074703 4:0.105263 5:0.013582 6:0.059423 7:0.013582 8:0.047538 9:0.06961 10:0.091681 11:0.022071 12:0.050934 13:0.013582 14:0.06961 15:0.095076 16:0.054329 17:0.056027 18:0.049236 19:0.010187 20:0.025467 
0.0006452457873250064 1:0.056291 2:0.013245 3:0.066225 4:0.086093 5:0.086093 6:0.049669 7:0.009934 8:0.043046 9:0.05298 10:0.115894 11:0.033113 12:0.043046 13:0.02649 14:0.033113 15:0.096026 16:0.059603 17:0.043046 18:0.059603 19:0.006623 20:0.019868 
0.0003628594499736996 1:0.057292 2:0.005208 3:0.057292 4:0.072917 5:0.015625 6:0.0625 7:0.010417 8:0.036458 9:0.0625 10:0.078125 11:0.0625 12:0.052083 13:0.036458 14:0.041667 15:0.0625 16:0.067708 17:0.078125 18:0.119792 19:0.005208 20:0.015625 
-1 1:0.058962 2:0.008255 3:0.058962 4:0.071934 5:0.038915 6:0.054245 7:0.020047 8:0.0625 9:0.067217 10:0.095519 11:0.025943 12:0.048349 13:0.068396 14:0.04717 15:0.064858 16:0.066038 17:0.048349 18:0.068396 19:0.005896 20:0.020047 
-0.04293218740015776 1:0.087629 2:0.008763 3:0.051546 4:0.133505 5:0.028866 6:0.03866 7:0.019588 8:0.049485 9:0.111856 10:0.101031 11:0.026804 12:0.038144 13:0.016495 14:0.06701 15:0.050515 16:0.054639 17:0.046392 18:0.042784 19:0.004639 20:0.021649 
-0.06554711815472485 1:0.069307 2:0.006601 3:0.023102 4:0.059406 5:0.039604 6:0.042904 7:0.016502 8:0.036304 9:0.056106 10:0.066007 11:0.036304 12:0.046205 13:0.072607 14:0.085809 15:0.069307 16:0.138614 17:0.082508 18:0.039604 19:0.0033 20:0.009901 
-0.1239251111215302 1:0.093082 2:0.008647 3:0.063072 4:0.123601 5:0.027467 6:0.044761 7:0.019329 8:0.0412 9:0.098678 10:0.105799 11:0.018311 12:0.046287 13:0.016277 14:0.072228 15:0.06409 16:0.053917 17:0.034079 18:0.04527 19:0.008138 20:0.015768 
