svm_type c_svc
kernel_type polynomial
degree 10
gamma 10
coef0 1
nr_class 2
total_sv 142
rho -2.57295
label 1 -1
nr_sv 61 81
SV
0.1570206274762643 1:0.028169 2:0.056338 3:0.042254 4:0.056338 5:0.042254 6:0.056338 7:0 8:0.028169 9:0.056338 10:0.112676 11:0.042254 12:0.112676 13:0.042254 14:0.070423 15:0.070423 16:0.028169 17:0.070423 18:0.070423 19:0 20:0.014085 
0.03795600594526363 1:0.065421 2:0.004673 3:0.028037 4:0.084112 5:0.037383 6:0.046729 7:0.023364 8:0.079439 9:0.088785 10:0.088785 11:0.028037 12:0.028037 13:0.042056 14:0.084112 15:0.046729 16:0.046729 17:0.037383 18:0.088785 19:0.004673 20:0.046729 
1 1:0.047727 2:0.013636 3:0.059091 4:0.095455 5:0.029545 6:0.029545 7:0.018182 8:0.065909 9:0.084091 10:0.109091 11:0.020455 12:0.090909 13:0.020455 14:0.029545 15:0.063636 16:0.068182 17:0.043182 18:0.063636 19:0.004545 20:0.043182 
0.3827117587612758 1:0.086957 2:0.018395 3:0.046823 4:0.055184 5:0.033445 6:0.115385 7:0.01505 8:0.070234 9:0.068562 10:0.08194 11:0.041806 12:0.040134 13:0.045151 14:0.026756 15:0.045151 16:0.073579 17:0.055184 18:0.053512 19:0.005017 20:0.021739 
1 1:0.079511 2:0.015291 3:0.055046 4:0.061162 5:0.042813 6:0.051988 7:0.021407 8:0.058104 9:0.073394 10:0.082569 11:0.027523 12:0.058104 13:0.030581 14:0.036697 15:0.045872 16:0.091743 17:0.045872 18:0.100917 19:0.009174 20:0.012232 
0.0325820155002077 1:0.038462 2:0 3:0.025641 4:0.070513 5:0.057692 6:0.032051 7:0.025641 8:0.032051 9:0.185897 10:0.108974 11:0.019231 12:0.044872 13:0.070513 14:0.025641 15:0.044872 16:0.076923 17:0.032051 18:0.044872 19:0.00641 20:0.057692 
0.154958840767707 1:0.066986 2:0.011962 3:0.064593 4:0.052632 5:0.038278 6:0.069378 7:0.019139 8:0.064593 9:0.090909 10:0.076555 11:0.038278 12:0.055024 13:0.033493 14:0.028708 15:0.043062 16:0.064593 17:0.057416 18:0.062201 19:0.014354 20:0.047847 
0.1661045768446415 1:0.115385 2:0.019231 3:0.048077 4:0.028846 5:0.028846 6:0.096154 7:0.019231 8:0.038462 9:0.125 10:0.086538 11:0.009615 12:0.067308 13:0.028846 14:0.067308 15:0.028846 16:0.019231 17:0.067308 18:0.048077 19:0.009615 20:0.048077 
0.4634488647616413 1:0.084459 2:0.004505 3:0.059685 4:0.07545 5:0.023649 6:0.074324 7:0.02027 8:0.045045 9:0.065315 10:0.117117 11:0.029279 12:0.022523 13:0.047297 14:0.042793 15:0.067568 16:0.067568 17:0.040541 18:0.088964 19:0.007883 20:0.015766 
0.6298343716909418 1:0.053232 2:0.011407 3:0.070342 4:0.04943 5:0.041825 6:0.04943 7:0.015209 8:0.104563 9:0.076046 10:0.10076 11:0.011407 12:0.051331 13:0.028517 14:0.036122 15:0.045627 16:0.119772 17:0.053232 18:0.057034 19:0.001901 20:0.022814 
0.062313407982732 1:0.086053 2:0.029674 3:0.086053 4:0.041543 5:0.023739 6:0.094955 7:0.011869 8:0.035608 9:0.047478 10:0.04451 11:0.014837 12:0.050445 13:0.041543 14:0.032641 15:0.008902 16:0.139466 17:0.077151 18:0.071217 19:0.017804 20:0.04451 
0.2878744537881788 1:0.053672 2:0.022599 3:0.064972 4:0.081921 5:0.050847 6:0.076271 7:0.033898 8:0.033898 9:0.062147 10:0.064972 11:0.031073 12:0.022599 13:0.059322 14:0.025424 15:0.084746 16:0.062147 17:0.050847 18:0.067797 19:0.019774 20:0.031073 
0.3764037945239169 1:0.071429 2:0.056391 3:0.052632 4:0.033835 5:0.026316 6:0.041353 7:0.015038 8:0.052632 9:0.078947 10:0.109023 11:0.033835 12:0.045113 13:0.052632 14:0.052632 15:0.056391 16:0.06391 17:0.067669 18:0.033835 19:0.015038 20:0.041353 
0.1004415738691563 1:0.097686 2:0.020566 3:0.056555 4:0.071979 5:0.046272 6:0.082262 7:0.028278 8:0.059126 9:0.069409 10:0.07455 11:0.033419 12:0.020566 13:0.043702 14:0.025707 15:0.056555 16:0.079692 17:0.046272 18:0.043702 19:0.005141 20:0.03856 
0.06568218894831693 1:0.118056 2:0.020833 3:0.041667 4:0.034722 5:0.041667 6:0.097222 7:0.055556 8:0.0625 9:0.076389 10:0.083333 11:0.027778 12:0.0625 13:0.048611 14:0.055556 15:0 16:0.041667 17:0.055556 18:0.041667 19:0.020833 20:0.013889 
0.841450476130556 1:0.073836 2:0.004815 3:0.0626 4:0.069021 5:0.035313 6:0.077047 7:0.011236 8:0.057785 9:0.051364 10:0.101124 11:0.033708 12:0.049759 13:0.040128 14:0.035313 15:0.067416 16:0.057785 17:0.044944 18:0.083467 19:0.012841 20:0.030498 
0.1865580194425168 1:0.098696 2:0.014898 3:0.046555 4:0.048417 5:0.040968 6:0.080074 7:0.014898 8:0.061453 9:0.05959 10:0.078212 11:0.035382 12:0.048417 13:0.055866 14:0.039106 15:0.040968 16:0.072626 17:0.055866 18:0.078212 19:0.011173 20:0.018622 
0.6797483997509339 1:0.064516 2:0.013441 3:0.034946 4:0.056452 5:0.026882 6:0.061828 7:0.018817 8:0.061828 9:0.069892 10:0.102151 11:0.013441 12:0.034946 13:0.080645 14:0.05914 15:0.05914 16:0.067204 17:0.048387 18:0.077957 19:0.024194 20:0.024194 
0.4462316273161631 1:0.053846 2:0.003846 3:0.073077 4:0.046154 5:0.05 6:0.034615 7:0.023077 8:0.05 9:0.065385 10:0.123077 11:0.030769 12:0.042308 13:0.034615 14:0.046154 15:0.038462 16:0.065385 17:0.088462 18:0.080769 19:0.015385 20:0.034615 
0.02660586726932053 1:0.065934 2:0.010989 3:0.049451 4:0.06044 5:0.076923 6:0.120879 7:0.016484 8:0.071429 9:0.087912 10:0.049451 11:0.021978 12:0.049451 13:0.043956 14:0.021978 15:0.038462 16:0.06044 17:0.054945 18:0.065934 19:0.010989 20:0.021978 
0.9586520301632679 1:0.08363 2:0.012456 3:0.049822 4:0.069395 5:0.040925 6:0.088968 7:0.030249 8:0.076512 9:0.065836 10:0.071174 11:0.02669 12:0.040925 13:0.040925 14:0.032028 15:0.060498 16:0.048043 17:0.065836 18:0.053381 19:0.005338 20:0.037367 
0.719193337356746 1:0.05042 2:0.010504 3:0.039916 4:0.05042 5:0.035714 6:0.056723 7:0.018908 8:0.090336 9:0.077731 10:0.113445 11:0.016807 12:0.077731 13:0.052521 14:0.042017 15:0.031513 16:0.084034 17:0.05042 18:0.054622 19:0.006303 20:0.039916 
1 1:0.049834 2:0.023256 3:0.069767 4:0.066445 5:0.066445 6:0.063123 7:0.013289 8:0.059801 9:0.069767 10:0.096346 11:0.003322 12:0.039867 13:0.053156 14:0.036545 15:0.076412 16:0.076412 17:0.039867 18:0.0299 19:0.009967 20:0.056478 
0.3419471204397415 1:0.062201 2:0.016746 3:0.055024 4:0.066986 5:0.043062 6:0.07177 7:0.019139 8:0.08134 9:0.066986 10:0.050239 11:0.021531 12:0.047847 13:0.062201 14:0.033493 15:0.038278 16:0.074163 17:0.059809 18:0.069378 19:0.011962 20:0.047847 
1 1:0.065703 2:0.013141 3:0.057819 4:0.072273 5:0.043364 6:0.070959 7:0.017083 8:0.065703 9:0.069645 10:0.067017 11:0.031537 12:0.04205 13:0.043364 14:0.038108 15:0.055191 16:0.072273 17:0.059133 18:0.085414 19:0.002628 20:0.027595 
0.1527428496610187 1:0.094595 2:0.054054 3:0.054054 4:0.067568 5:0.040541 6:0.013514 7:0.013514 8:0.027027 9:0.054054 10:0.081081 11:0.013514 12:0.040541 13:0.067568 14:0.054054 15:0.054054 16:0.054054 17:0.121622 18:0.040541 19:0.013514 20:0.040541 
0.0258337131145572 1:0.009091 2:0.009091 3:0.027273 4:0.072727 5:0.081818 6:0.045455 7:0.036364 8:0.072727 9:0.136364 10:0.118182 11:0.018182 12:0.009091 13:0.045455 14:0.036364 15:0.090909 16:0.045455 17:0.054545 18:0.036364 19:0.018182 20:0.036364 
0.4909305303458891 1:0.045662 2:0 3:0.105023 4:0.114155 5:0.059361 6:0.03653 7:0.009132 8:0.059361 9:0.105023 10:0.123288 11:0.004566 12:0.03653 13:0.031963 14:0.041096 15:0.041096 16:0.077626 17:0.041096 18:0.054795 19:0.004566 20:0.009132 
0.277441949238064 1:0.060201 2:0.023411 3:0.053512 4:0.053512 5:0.036789 6:0.06689 7:0.046823 8:0.020067 9:0.040134 10:0.100334 11:0.013378 12:0.0301 13:0.070234 14:0.043478 15:0.073579 16:0.080268 17:0.053512 18:0.06689 19:0.0301 20:0.036789 
0.1084540991286491 1:0.065421 2:0.018692 3:0.046729 4:0.102804 5:0.056075 6:0.130841 7:0.018692 8:0.018692 9:0.130841 10:0.074766 11:0.009346 12:0.046729 13:0.037383 14:0.018692 15:0.046729 16:0.018692 17:0.074766 18:0.037383 19:0.009346 20:0.037383 
0.2099812905102993 1:0.085714 2:0.030075 3:0.04812 4:0.061654 5:0.034586 6:0.099248 7:0.037594 8:0.03609 9:0.039098 10:0.081203 11:0.02406 12:0.028571 13:0.040602 14:0.040602 15:0.070677 16:0.066165 17:0.058647 18:0.069173 19:0.01203 20:0.03609 
1 1:0.058214 2:0.022329 3:0.054226 4:0.069378 5:0.044657 6:0.043062 7:0.015152 8:0.059809 9:0.097289 10:0.087719 11:0.017544 12:0.056619 13:0.051037 14:0.035885 15:0.048644 16:0.078947 17:0.052632 18:0.053429 19:0.016746 20:0.036683 
0.7141472053797282 1:0.077121 2:0.012853 3:0.041131 4:0.089974 5:0.017995 6:0.046272 7:0.028278 8:0.059126 9:0.059126 10:0.092545 11:0.033419 12:0.03856 13:0.028278 14:0.066838 15:0.061697 16:0.089974 17:0.046272 18:0.089974 19:0.007712 20:0.012853 
0.04125100893144741 1:0.08 2:0 3:0 4:0.12 5:0.08 6:0 7:0 8:0.08 9:0 10:0.12 11:0.04 12:0.08 13:0.04 14:0 15:0.08 16:0.12 17:0.12 18:0 19:0 20:0.04 
0.0940239347574303 1:0.091633 2:0.017928 3:0.021912 4:0.045817 5:0.033865 6:0.099602 7:0.027888 8:0.057769 9:0.073705 10:0.083665 11:0.00996 12:0.023904 13:0.059761 14:0.031873 15:0.101594 16:0.095618 17:0.039841 18:0.049801 19:0.015936 20:0.017928 
0.01902207389574796 1:0.047619 2:0.038095 3:0.047619 4:0.095238 5:0.038095 6:0.085714 7:0.038095 8:0.085714 9:0.104762 10:0.057143 11:0.019048 12:0.009524 13:0.066667 14:0.047619 15:0.095238 16:0.009524 17:0.047619 18:0.009524 19:0.019048 20:0.038095 
1 1:0.104208 2:0.016032 3:0.058116 4:0.056112 5:0.038076 6:0.058116 7:0.028056 8:0.046092 9:0.046092 10:0.096192 11:0.038076 12:0.03006 13:0.054108 14:0.03006 15:0.06012 16:0.092184 17:0.0501 18:0.06012 19:0.006012 20:0.032064 
1 1:0.058824 2:0.009412 3:0.063529 4:0.101176 5:0.030588 6:0.035294 7:0.028235 8:0.058824 9:0.103529 10:0.070588 11:0.04 12:0.049412 13:0.023529 14:0.044706 15:0.051765 16:0.056471 17:0.054118 18:0.077647 19:0.016471 20:0.025882 
0.01370382426522583 1:0.093458 2:0 3:0.046729 4:0.121495 5:0.028037 6:0.093458 7:0.056075 8:0.046729 9:0.11215 10:0.065421 11:0.028037 12:0.009346 13:0 14:0.037383 15:0.102804 16:0.084112 17:0.018692 18:0.028037 19:0.009346 20:0.018692 
0.0053708611830205 1:0.08125 2:0.023438 3:0.046875 4:0.059375 5:0.040625 6:0.1 7:0.023438 8:0.046875 9:0.035937 10:0.090625 11:0.028125 12:0.03125 13:0.079687 14:0.035937 15:0.071875 16:0.053125 17:0.05 18:0.057813 19:0.028125 20:0.015625 
1 1:0.060367 2:0.011811 3:0.053806 4:0.059055 5:0.057743 6:0.052493 7:0.020997 8:0.051181 9:0.064304 10:0.107612 11:0.024934 12:0.05643 13:0.036745 14:0.035433 15:0.052493 16:0.090551 17:0.049869 18:0.069554 19:0.007874 20:0.036745 
0.2237243617393753 1:0.10687 2:0 3:0.071247 4:0.109415 5:0.022901 6:0.066158 7:0.005089 8:0.033079 9:0.124682 10:0.068702 11:0.012723 12:0.048346 13:0.015267 14:0.058524 15:0.063613 16:0.086514 17:0.025445 18:0.030534 19:0.025445 20:0.025445 
0.7960839458066997 1:0.071567 2:0.016441 3:0.052224 4:0.053191 5:0.033849 6:0.059961 7:0.032882 8:0.065764 9:0.060928 10:0.112186 11:0.026112 12:0.051257 13:0.055126 14:0.033849 15:0.040619 16:0.083172 17:0.058994 18:0.054159 19:0.004836 20:0.032882 
1 1:0.090508 2:0.00883 3:0.04415 4:0.046358 5:0.048565 6:0.075055 7:0.019868 8:0.055188 9:0.03532 10:0.07947 11:0.02649 12:0.055188 13:0.072848 14:0.030905 15:0.050773 16:0.090508 17:0.072848 18:0.066225 19:0.002208 20:0.028698 
1 1:0.055432 2:0.007761 3:0.06541 4:0.069845 5:0.029933 6:0.04102 7:0.019956 8:0.067627 9:0.092018 10:0.12306 11:0.025499 12:0.055432 13:0.034368 14:0.029933 15:0.046563 16:0.101996 17:0.052106 18:0.052106 19:0.003326 20:0.026608 
1 1:0.040179 2:0.017857 3:0.084821 4:0.058036 5:0.040179 6:0.053571 7:0.026786 8:0.040179 9:0.080357 10:0.066964 11:0.022321 12:0.066964 13:0.058036 14:0.049107 15:0.058036 16:0.075893 17:0.049107 18:0.044643 19:0.035714 20:0.03125 
0.03026274272000898 1:0.059908 2:0.013825 3:0.052995 4:0.057604 5:0.041475 6:0.059908 7:0.025346 8:0.043779 9:0.046083 10:0.096774 11:0.029954 12:0.036866 13:0.062212 14:0.036866 15:0.069124 16:0.092166 17:0.043779 18:0.073733 19:0.006912 20:0.050691 
0.7076914261160431 1:0.086519 2:0.018109 3:0.04829 4:0.086519 5:0.04829 6:0.06841 7:0.024145 8:0.036217 9:0.044266 10:0.094567 11:0.040241 12:0.030181 13:0.036217 14:0.054326 15:0.082495 16:0.054326 17:0.042254 18:0.05835 19:0.01006 20:0.036217 
0.5569990277832914 1:0.07465 2:0.013997 3:0.051322 4:0.063764 5:0.03577 6:0.066874 7:0.023328 8:0.062208 9:0.060653 10:0.091757 11:0.027994 12:0.051322 13:0.051322 14:0.041991 15:0.060653 16:0.045101 17:0.049767 18:0.069984 19:0.004666 20:0.052877 
0.8045057061146775 1:0.067542 2:0.020638 3:0.035647 4:0.06379 5:0.037523 6:0.050657 7:0.030019 8:0.078799 9:0.054409 10:0.101313 11:0.016886 12:0.052533 13:0.043152 14:0.030019 15:0.054409 16:0.086304 17:0.071295 18:0.067542 19:0.007505 20:0.030019 
0.1284338564514338 1:0.070313 2:0.007813 3:0.03125 4:0.070313 5:0.039063 6:0.039063 7:0.007813 8:0.070313 9:0.0625 10:0.125 11:0.007813 12:0.054688 13:0.085938 14:0.03125 15:0.109375 16:0.046875 17:0.054688 18:0.007813 19:0.007813 20:0.070313 
0.001242973135651363 1:0 2:0 3:0.090909 4:0.272727 5:0.090909 6:0.090909 7:0.181818 8:0 9:0 10:0 11:0 12:0 13:0 14:0 15:0 16:0.181818 17:0.090909 18:0 19:0 20:0 
0.1191605257206032 1:0.125 2:0.011364 3:0.022727 4:0.034091 5:0.045455 6:0.045455 7:0.022727 8:0.045455 9:0.045455 10:0.056818 11:0.034091 12:0.045455 13:0.056818 14:0.090909 15:0.079545 16:0.045455 17:0.034091 18:0.102273 19:0.034091 20:0.022727 
0.5003121739117842 1:0.061538 2:0.015385 3:0.030769 4:0.046154 5:0.030769 6:0.061538 7:0.020513 8:0.051282 9:0.097436 10:0.05641 11:0.030769 12:0.030769 13:0.05641 14:0.061538 15:0.087179 16:0.092308 17:0.05641 18:0.051282 19:0.015385 20:0.046154 
0.4190276875251622 1:0.065217 2:0.007246 3:0.021739 4:0.065217 5:0.028986 6:0.028986 7:0.028986 8:0.036232 9:0.130435 10:0.072464 11:0.014493 12:0.07971 13:0.057971 14:0.050725 15:0.072464 16:0.07971 17:0.043478 18:0.050725 19:0.021739 20:0.043478 
1 1:0.058394 2:0.014599 3:0.058394 4:0.051095 5:0.046229 6:0.043796 7:0.029197 8:0.060827 9:0.048662 10:0.104623 11:0.03163 12:0.048662 13:0.058394 14:0.046229 15:0.048662 16:0.092457 17:0.041363 18:0.07056 19:0.004866 20:0.041363 
0.1538245508262674 1:0.124567 2:0.00346 3:0.051903 4:0.069204 5:0.041522 6:0.041522 7:0.00346 8:0.076125 9:0.083045 10:0.076125 11:0.017301 12:0.079585 13:0.024221 14:0.024221 15:0.044983 16:0.096886 17:0.058824 18:0.055363 19:0.00346 20:0.024221 
0.6615112287335612 1:0.025641 2:0.012821 3:0.044872 4:0.083333 5:0.070513 6:0.038462 7:0.032051 8:0.057692 9:0.067308 10:0.128205 11:0.041667 12:0.044872 13:0.025641 14:0.051282 15:0.054487 16:0.064103 17:0.041667 18:0.048077 19:0.00641 20:0.060897 
0.4782777391459014 1:0.069257 2:0.006757 3:0.045608 4:0.0625 5:0.030405 6:0.054054 7:0.010135 8:0.072635 9:0.089527 10:0.057432 11:0.016892 12:0.050676 13:0.060811 14:0.054054 15:0.025338 16:0.121622 17:0.077703 18:0.064189 19:0.006757 20:0.023649 
1 1:0.092715 2:0.013245 3:0.048565 4:0.050773 5:0.048565 6:0.077263 7:0.028698 8:0.050773 9:0.039735 10:0.068433 11:0.019868 12:0.048565 13:0.06181 14:0.037528 15:0.05298 16:0.086093 17:0.05298 18:0.07947 19:0.004415 20:0.037528 
0.07939691722307729 1:0.04 2:0.016 3:0.032 4:0.04 5:0.016 6:0.096 7:0.04 8:0.056 9:0.12 10:0.072 11:0.016 12:0.032 13:0.064 14:0.024 15:0.16 16:0.064 17:0.04 18:0.056 19:0 20:0.016 
-1 1:0.119403 2:0.007463 3:0.041045 4:0.033582 5:0.052239 6:0.078358 7:0.014925 8:0.067164 9:0.063433 10:0.074627 11:0.026119 12:0.05597 13:0.067164 14:0.037313 15:0.048507 16:0.070896 17:0.063433 18:0.05597 19:0 20:0.022388 
-1 1:0.060063 2:0.013895 3:0.059615 4:0.061856 5:0.045719 6:0.038996 7:0.018826 8:0.065442 9:0.084267 10:0.094576 11:0.018826 12:0.064993 13:0.048409 14:0.037651 15:0.049305 16:0.094128 17:0.049305 18:0.057373 19:0.008516 20:0.028238 
-0.006717319679994308 1:0.067616 2:0 3:0.078292 4:0.085409 5:0.039146 6:0.021352 7:0.014235 8:0.032028 9:0.081851 10:0.096085 11:0.017794 12:0.046263 13:0.071174 14:0.02847 15:0.046263 16:0.11032 17:0.071174 18:0.074733 19:0.003559 20:0.014235 
-0.09867228147164656 1:0.075795 2:0.00978 3:0.036675 4:0.05379 5:0.03912 6:0.03912 7:0.02934 8:0.03912 9:0.06846 10:0.136919 11:0.01467 12:0.03423 13:0.09291 14:0.02445 15:0.03423 16:0.158924 17:0.04401 18:0.041565 19:0.00978 20:0.017115 
-0.3385556462507068 1:0.070716 2:0.024479 3:0.051677 4:0.06981 5:0.038078 6:0.073436 7:0.018132 8:0.044424 9:0.042611 10:0.116954 11:0.018132 12:0.025385 13:0.06709 14:0.049864 15:0.079782 16:0.06165 17:0.038985 18:0.070716 19:0.009973 20:0.028105 
-0.08664807293187651 1:0.102506 2:0.013667 3:0.082005 4:0.120729 5:0.034169 6:0.047836 7:0.025057 8:0.038724 9:0.05467 10:0.072893 11:0.034169 12:0.031891 13:0.045558 14:0.025057 15:0.066059 16:0.056948 17:0.056948 18:0.056948 19:0.004556 20:0.029613 
-0.03202872966327312 1:0.122807 2:0.026316 3:0.008772 4:0.052632 5:0.026316 6:0.052632 7:0.04386 8:0.026316 9:0.061404 10:0.087719 11:0.017544 12:0.035088 13:0.078947 14:0.04386 15:0.131579 16:0.035088 17:0.078947 18:0.026316 19:0.017544 20:0.026316 
-0.9987559314887736 1:0.057654 2:0.00994 3:0.059642 4:0.076541 5:0.043738 6:0.050696 7:0.020875 8:0.054672 9:0.069583 10:0.082505 11:0.025845 12:0.082505 13:0.054672 14:0.039761 15:0.059642 16:0.062624 17:0.038767 18:0.054672 19:0.013917 20:0.04175 
-0.01187149903330683 1:0.02925 2:0.021024 3:0.053931 4:0.06947 5:0.042962 6:0.041133 7:0.015539 8:0.095978 9:0.106033 10:0.099634 11:0.021024 12:0.077697 13:0.034735 14:0.028336 15:0.034735 16:0.063071 17:0.050274 18:0.054845 19:0.00457 20:0.055759 
-0.8802467911442405 1:0.069805 2:0.017857 3:0.053571 4:0.061688 5:0.040584 6:0.069805 7:0.006494 8:0.056818 9:0.066558 10:0.069805 11:0.022727 12:0.060065 13:0.043831 14:0.047078 15:0.048701 16:0.087662 17:0.056818 18:0.077922 19:0.00974 20:0.032468 
-0.1538262037418445 1:0.051282 2:0.012821 3:0.012821 4:0.089744 5:0.038462 6:0.012821 7:0.025641 8:0.012821 9:0.128205 10:0.102564 11:0.051282 12:0.076923 13:0.025641 14:0.051282 15:0.128205 16:0.051282 17:0.038462 18:0.025641 19:0.025641 20:0.038462 
-0.162694235862873 1:0.084142 2:0.022654 3:0.061489 4:0.071197 5:0.019417 6:0.029126 7:0.032362 8:0.048544 9:0.126214 10:0.064725 11:0.012945 12:0.071197 13:0.035599 14:0.048544 15:0.035599 16:0.071197 17:0.058252 18:0.071197 19:0.006472 20:0.029126 
-0.6930840810979617 1:0.093373 2:0.01506 3:0.057229 4:0.078313 5:0.045181 6:0.087349 7:0.018072 8:0.072289 9:0.057229 10:0.063253 11:0.051205 12:0.036145 13:0.024096 14:0.045181 15:0.054217 16:0.069277 17:0.051205 18:0.063253 19:0.003012 20:0.01506 
-0.7495144018995747 1:0.064257 2:0.004016 3:0.044177 4:0.088353 5:0.02008 6:0.064257 7:0.028112 8:0.044177 9:0.108434 10:0.084337 11:0.012048 12:0.044177 13:0.040161 14:0.064257 15:0.052209 16:0.060241 17:0.048193 18:0.076305 19:0.012048 20:0.040161 
-0.1445090125280699 1:0.047445 2:0.018248 3:0.109489 4:0.072993 5:0.062044 6:0.040146 7:0.010949 8:0.069343 9:0.10219 10:0.113139 11:0.014599 12:0.072993 13:0.018248 14:0.007299 15:0.021898 16:0.10219 17:0.032847 18:0.072993 19:0 20:0.010949 
-0.03825446198205592 1:0.034884 2:0.011628 3:0.023256 4:0.081395 5:0.05814 6:0.069767 7:0.023256 8:0.046512 9:0.046512 10:0.104651 11:0.023256 12:0.104651 13:0.046512 14:0.023256 15:0.046512 16:0.081395 17:0.046512 18:0.093023 19:0 20:0.034884 
-0.4559131667513933 1:0.049133 2:0.022158 3:0.058767 4:0.067437 5:0.045279 6:0.052023 7:0.019268 8:0.068401 9:0.085742 10:0.093449 11:0.017341 12:0.052023 13:0.047206 14:0.039499 15:0.050096 16:0.060694 17:0.060694 18:0.057803 19:0.008671 20:0.044316 
-0.07535698527572528 1:0.067623 2:0.030738 3:0.043033 4:0.059426 5:0.032787 6:0.07377 7:0.028689 8:0.045082 9:0.055328 10:0.102459 11:0.038934 12:0.038934 13:0.071721 14:0.030738 15:0.053279 16:0.102459 17:0.053279 18:0.043033 19:0.006148 20:0.022541 
-1 1:0.064914 2:0.015612 3:0.054232 4:0.076417 5:0.046836 6:0.072309 7:0.021364 8:0.055053 9:0.042728 10:0.099425 11:0.021364 12:0.046015 13:0.050123 14:0.039441 15:0.052588 16:0.060805 17:0.05834 18:0.083813 19:0.007395 20:0.031224 
-1 1:0.066335 2:0.016584 3:0.056385 4:0.063018 5:0.034826 6:0.07131 7:0.018242 8:0.064677 9:0.077944 10:0.072968 11:0.026534 12:0.074627 13:0.034826 14:0.036484 15:0.034826 16:0.089552 17:0.046434 18:0.074627 19:0.011609 20:0.028192 
-0.06290169238724798 1:0.029372 2:0.009346 3:0.069426 4:0.097463 5:0.029372 6:0.020027 7:0.009346 8:0.044059 9:0.108144 10:0.140187 11:0.018692 12:0.125501 13:0.013351 14:0.069426 15:0.036048 16:0.072096 17:0.044059 18:0.032043 19:0.008011 20:0.024032 
-0.1033264920986792 1:0.145833 2:0.013889 3:0.0625 4:0.076389 5:0.027778 6:0.0625 7:0 8:0.048611 9:0.118056 10:0.0625 11:0.013889 12:0.048611 13:0.034722 14:0.027778 15:0.069444 16:0.027778 17:0.041667 18:0.027778 19:0 20:0.090278 
-0.01300218151062825 1:0.062837 2:0.003591 3:0.091562 4:0.132855 5:0.028725 6:0.044883 7:0.014363 8:0.032316 9:0.116697 10:0.057451 11:0.030521 12:0.030521 13:0.052065 14:0.02693 15:0.098743 16:0.05386 17:0.050269 18:0.028725 19:0.005386 20:0.037702 
-1 1:0.086149 2:0.015203 3:0.04223 4:0.050676 5:0.030405 6:0.055743 7:0.021959 8:0.064189 9:0.057432 10:0.094595 11:0.025338 12:0.047297 13:0.052365 14:0.052365 15:0.050676 16:0.106419 17:0.054054 18:0.076014 19:0.003378 20:0.013514 
-0.01782724145937199 1:0.142857 2:0 3:0.089286 4:0.116071 5:0.008929 6:0.071429 7:0 8:0.017857 9:0.178571 10:0.035714 11:0.026786 12:0.035714 13:0.035714 14:0 15:0.0625 16:0.089286 17:0.008929 18:0.035714 19:0.026786 20:0.017857 
-0.2310609463958045 1:0.108033 2:0.01108 3:0.027701 4:0.036011 5:0.01662 6:0.110803 7:0.030471 8:0.052632 9:0.038781 10:0.069252 11:0.01385 12:0.033241 13:0.119114 14:0.036011 15:0.049861 16:0.091413 17:0.044321 18:0.060942 19:0.01108 20:0.038781 
-0.1046619047020565 1:0.062331 2:0.00813 3:0.059621 4:0.102981 5:0.04607 6:0.062331 7:0.01355 8:0.051491 9:0.127371 10:0.062331 11:0.02981 12:0.04336 13:0.04878 14:0.03252 15:0.070461 16:0.075881 17:0.04878 18:0.03523 19:0.01084 20:0.00813 
-0.3480224907379056 1:0.050909 2:0.003636 3:0.08 4:0.054545 5:0.047273 6:0.072727 7:0.025455 8:0.087273 9:0.076364 10:0.123636 11:0.021818 12:0.036364 13:0.029091 14:0.04 15:0.058182 16:0.069091 17:0.043636 18:0.04 19:0.014545 20:0.025455 
-0.2002934067723705 1:0.063063 2:0.018018 3:0.045045 4:0.018018 5:0.054054 6:0.072072 7:0.036036 8:0.054054 9:0.045045 10:0.063063 11:0.027027 12:0.036036 13:0.081081 14:0.036036 15:0.126126 16:0.09009 17:0.045045 18:0.018018 19:0.018018 20:0.054054 
-0.2026149520420253 1:0.050542 2:0.018051 3:0.039711 4:0.061372 5:0.054152 6:0.054152 7:0.018051 8:0.018051 9:0.064982 10:0.057762 11:0.021661 12:0.046931 13:0.079422 14:0.050542 15:0.079422 16:0.108303 17:0.057762 18:0.054152 19:0.01083 20:0.054152 
-0.01669987311013286 1:0.151515 2:0.015152 3:0.022727 4:0.022727 5:0.007576 6:0.106061 7:0.015152 8:0.022727 9:0.113636 10:0.090909 11:0.030303 12:0.015152 13:0.037879 14:0.015152 15:0.090909 16:0.090909 17:0.045455 18:0.083333 19:0 20:0.022727 
-0.1635349356754503 1:0.035197 2:0.022774 3:0.066253 4:0.070393 5:0.037267 6:0.049689 7:0.072464 8:0.045549 9:0.074534 10:0.066253 11:0.022774 12:0.020704 13:0.037267 14:0.022774 15:0.091097 16:0.097308 17:0.045549 18:0.05176 19:0.014493 20:0.055901 
-0.2654766027059057 1:0.090604 2:0.015101 3:0.060403 4:0.097315 5:0.036913 6:0.048658 7:0.025168 8:0.043624 9:0.092282 10:0.088926 11:0.015101 12:0.055369 13:0.02349 14:0.035235 15:0.058725 16:0.073826 17:0.053691 18:0.062081 19:0.005034 20:0.018456 
-0.01250309767358308 1:0 2:0.016667 3:0.016667 4:0.083333 5:0.083333 6:0 7:0 8:0.05 9:0.15 10:0.1 11:0.033333 12:0.066667 13:0.016667 14:0.066667 15:0.15 16:0.05 17:0.033333 18:0.033333 19:0.016667 20:0.033333 
-0.03085778690725131 1:0.108333 2:0.008333 3:0.075 4:0.083333 5:0.075 6:0.041667 7:0.016667 8:0.05 9:0.091667 10:0.125 11:0.008333 12:0.075 13:0.041667 14:0.016667 15:0.041667 16:0.016667 17:0.066667 18:0.033333 19:0.008333 20:0.016667 
-1 1:0.064677 2:0.021559 3:0.048093 4:0.07131 5:0.038143 6:0.054726 7:0.026534 8:0.053068 9:0.069652 10:0.121061 11:0.014925 12:0.038143 13:0.059701 14:0.026534 15:0.069652 16:0.07131 17:0.046434 18:0.059701 19:0.006633 20:0.038143 
-1 1:0.086009 2:0.014335 3:0.05906 4:0.051032 5:0.049312 6:0.084862 7:0.025803 8:0.041858 9:0.040711 10:0.085436 11:0.03383 12:0.040711 13:0.044151 14:0.036124 15:0.077982 16:0.079702 17:0.056193 18:0.068807 19:0.006881 20:0.017202 
-1 1:0.034279 2:0.004728 3:0.042553 4:0.067376 5:0.059102 6:0.035461 7:0.021277 8:0.080378 9:0.065012 10:0.126478 11:0.021277 12:0.078014 13:0.034279 14:0.036643 15:0.043735 16:0.092199 17:0.052009 18:0.046099 19:0.00591 20:0.053191 
-0.1863940254737826 1:0.057851 2:0 3:0.016529 4:0.066116 5:0.024793 6:0.033058 7:0.033058 8:0.024793 9:0.082645 10:0.082645 11:0.033058 12:0.057851 13:0.049587 14:0.107438 15:0.090909 16:0.066116 17:0.041322 18:0.041322 19:0.033058 20:0.057851 
-0.1445872128429626 1:0.059701 2:0.00995 3:0.084577 4:0.149254 5:0.029851 6:0.0199 7:0.0199 8:0.039801 9:0.089552 10:0.094527 11:0.00995 12:0.049751 13:0.034826 14:0.039801 15:0.034826 16:0.109453 17:0.029851 18:0.084577 19:0 20:0.00995 
-0.1318548976874432 1:0.124016 2:0.007874 3:0.031496 4:0.033465 5:0.021654 6:0.098425 7:0.082677 8:0.027559 9:0.043307 10:0.064961 11:0.031496 12:0.057087 13:0.057087 14:0.049213 15:0.033465 16:0.100394 17:0.03937 18:0.043307 19:0.005906 20:0.047244 
-0.1175497120128081 1:0.078125 2:0.083333 3:0.026042 4:0.0625 5:0.03125 6:0.151042 7:0.03125 8:0.03125 9:0.098958 10:0.036458 11:0.010417 12:0.036458 13:0.041667 14:0.03125 15:0.046875 16:0.041667 17:0.057292 18:0.036458 19:0.010417 20:0.057292 
-0.3341692524902541 1:0.052083 2:0.003472 3:0.072917 4:0.0625 5:0.03125 6:0.0625 7:0.017361 8:0.055556 9:0.135417 10:0.104167 11:0.017361 12:0.03125 13:0.045139 14:0.045139 15:0.055556 16:0.090278 17:0.041667 18:0.041667 19:0.006944 20:0.027778 
-0.1198075706749476 1:0.061381 2:0.007673 3:0.048593 4:0.038363 5:0.02046 6:0.089514 7:0.023018 8:0.051151 9:0.035806 10:0.056266 11:0.015345 12:0.030691 13:0.102302 14:0.048593 15:0.066496 16:0.112532 17:0.069054 18:0.074169 19:0.005115 20:0.043478 
-0.5689188470239174 1:0.055985 2:0.017375 3:0.069498 4:0.079151 5:0.052124 6:0.048263 7:0.025097 8:0.055985 9:0.100386 10:0.106178 11:0.027027 12:0.034749 13:0.025097 14:0.032819 15:0.052124 16:0.055985 17:0.065637 18:0.050193 19:0.017375 20:0.028958 
-0.1244446108784338 1:0.09375 2:0.003472 3:0.034722 4:0.076389 5:0.027778 6:0.065972 7:0.013889 8:0.017361 9:0.104167 10:0.09375 11:0.024306 12:0.048611 13:0.069444 14:0.055556 15:0.0625 16:0.072917 17:0.034722 18:0.052083 19:0.010417 20:0.038194 
-0.02335200852133467 1:0.07772 2:0.031088 3:0.036269 4:0.025907 5:0.051813 6:0.025907 7:0.041451 8:0.062176 9:0.046632 10:0.020725 11:0.005181 12:0.020725 13:0.088083 14:0.031088 15:0.082902 16:0.160622 17:0.124352 18:0.036269 19:0 20:0.031088 
-0.09606516619181661 1:0.078947 2:0 3:0.078947 4:0.078947 5:0.026316 6:0.052632 7:0.026316 8:0.052632 9:0.052632 10:0.157895 11:0 12:0.052632 13:0 14:0.026316 15:0.052632 16:0.052632 17:0.026316 18:0.131579 19:0.026316 20:0.026316 
-0.330295108837535 1:0.069138 2:0.016032 3:0.057114 4:0.077154 5:0.031062 6:0.076152 7:0.021042 8:0.053106 9:0.121242 10:0.088176 11:0.021042 12:0.032064 13:0.04509 14:0.037074 15:0.03006 16:0.077154 17:0.042084 18:0.059118 19:0.013026 20:0.033066 
-1 1:0.059853 2:0.020258 3:0.066298 4:0.056169 5:0.047882 6:0.055249 7:0.014733 8:0.064457 9:0.06814 10:0.086556 11:0.025783 12:0.044199 13:0.043278 14:0.048803 15:0.058932 16:0.069061 17:0.049724 18:0.069982 19:0.007366 20:0.043278 
-0.5946419960951826 1:0.044571 2:0.014857 3:0.057143 4:0.049143 5:0.04 6:0.052571 7:0.009143 8:0.081143 9:0.077714 10:0.107429 11:0.020571 12:0.068571 13:0.046857 14:0.036571 15:0.037714 16:0.083429 17:0.081143 18:0.045714 19:0.013714 20:0.032 
-0.3107054572246521 1:0.056842 2:0.012632 3:0.063158 4:0.058947 5:0.042105 6:0.071579 7:0.018947 8:0.035789 9:0.058947 10:0.075789 11:0.033684 12:0.04 13:0.067368 14:0.054737 15:0.084211 16:0.063158 17:0.050526 18:0.082105 19:0.004211 20:0.025263 
-0.06518339633793797 1:0.096774 2:0 3:0.050179 4:0.053763 5:0.043011 6:0.09319 7:0.043011 8:0.071685 9:0.035842 10:0.053763 11:0.017921 12:0.064516 13:0.032258 14:0.071685 15:0.02509 16:0.060932 17:0.0681 18:0.071685 19:0.003584 20:0.043011 
-0.08178291838808956 1:0.087838 2:0.006757 3:0.033784 4:0.054054 5:0.033784 6:0.108108 7:0.033784 8:0.054054 9:0.067568 10:0.060811 11:0.027027 12:0.027027 13:0.040541 14:0.027027 15:0.135135 16:0.081081 17:0.060811 18:0.013514 19:0.02027 20:0.027027 
-0.2792099813738954 1:0.053738 2:0.028037 3:0.077103 4:0.063084 5:0.058411 6:0.074766 7:0.044393 8:0.051402 9:0.035047 10:0.081776 11:0.018692 12:0.049065 13:0.049065 14:0.03972 15:0.042056 16:0.051402 17:0.042056 18:0.067757 19:0.004673 20:0.067757 
-0.005361632779093725 1:0.042604 2:0.011834 3:0.04497 4:0.160947 5:0.017751 6:0.010651 7:0.015385 8:0.040237 9:0.147929 10:0.121893 11:0.024852 12:0.062722 13:0.008284 14:0.062722 15:0.04142 16:0.061538 17:0.063905 18:0.04142 19:0.001183 20:0.017751 
-0.02346366469533239 1:0.082192 2:0.013699 3:0.089041 4:0.054795 5:0.034247 6:0.041096 7:0 8:0.041096 9:0.034247 10:0.109589 11:0.020548 12:0.068493 13:0.034247 14:0.041096 15:0.061644 16:0.082192 17:0.061644 18:0.061644 19:0.006849 20:0.061644 
-0.09676927592957636 1:0.029703 2:0.019802 3:0.039604 4:0.089109 5:0.029703 6:0.108911 7:0.019802 8:0.049505 9:0.059406 10:0.09901 11:0.049505 12:0.069307 13:0.059406 14:0.029703 15:0.009901 16:0.039604 17:0.059406 18:0.079208 19:0.019802 20:0.039604 
-0.5149527778288479 1:0.050926 2:0.015432 3:0.041667 4:0.074074 5:0.04784 6:0.030864 7:0.013889 8:0.069444 9:0.067901 10:0.117284 11:0.018519 12:0.061728 13:0.044753 14:0.035494 15:0.044753 16:0.112654 17:0.058642 18:0.032407 19:0.012346 20:0.049383 
-0.01738616113225553 1:0.09322 2:0.042373 3:0.023305 4:0.076271 5:0.03178 6:0.072034 7:0.021186 8:0.033898 9:0.023305 10:0.112288 11:0.03178 12:0.016949 13:0.067797 14:0.086864 15:0.059322 16:0.063559 17:0.048729 18:0.04661 19:0.021186 20:0.027542 
-0.2256440341417368 1:0.068966 2:0.022989 3:0.08046 4:0.084291 5:0.030651 6:0.042146 7:0.007663 8:0.068966 9:0.065134 10:0.091954 11:0.042146 12:0.02682 13:0.030651 14:0.038314 15:0.030651 16:0.10728 17:0.049808 18:0.08046 19:0.003831 20:0.02682 
-0.05624044676775836 1:0.044728 2:0.015974 3:0.076677 4:0.083067 5:0.025559 6:0.041534 7:0.019169 8:0.051118 9:0.079872 10:0.063898 11:0.057508 12:0.035144 13:0.051118 14:0.038339 15:0.054313 16:0.111821 17:0.063898 18:0.035144 19:0.028754 20:0.022364 
-0.02145916199667467 1:0.034632 2:0.017316 3:0.047619 4:0.047619 5:0.021645 6:0.038961 7:0.051948 8:0.056277 9:0.121212 10:0.069264 11:0.017316 12:0.069264 13:0.038961 14:0.030303 15:0.090909 16:0.099567 17:0.060606 18:0.034632 19:0.004329 20:0.047619 
-0.2505473982549165 1:0.085987 2:0.05414 3:0.035032 4:0.05414 5:0.035032 6:0.066879 7:0.031847 8:0.041401 9:0.035032 10:0.085987 11:0.031847 12:0.050955 13:0.044586 14:0.031847 15:0.038217 16:0.11465 17:0.063694 18:0.070064 19:0.009554 20:0.019108 
-0.1324405231202999 1:0.060145 2:0.018116 3:0.041304 4:0.066667 5:0.044203 6:0.145652 7:0.018841 8:0.05942 9:0.047101 10:0.074638 11:0.021739 12:0.047826 13:0.052899 14:0.036957 15:0.055797 16:0.06087 17:0.039855 18:0.058696 19:0.007971 20:0.041304 
-1 1:0.044828 2:0.006034 3:0.068103 4:0.062931 5:0.036207 6:0.050862 7:0.013793 8:0.075 9:0.107759 10:0.083621 11:0.014655 12:0.056897 13:0.025862 14:0.031897 15:0.055172 16:0.083621 17:0.064655 18:0.075 19:0.012931 20:0.030172 
-0.0208208379790643 1:0.032258 2:0 3:0.064516 4:0.107527 5:0.032258 6:0.064516 7:0.021505 8:0.086022 9:0.053763 10:0.129032 11:0.032258 12:0.064516 13:0.053763 14:0.032258 15:0.032258 16:0.043011 17:0.043011 18:0.096774 19:0.010753 20:0 
-0.1246060284632729 1:0.044554 2:0.024752 3:0.044554 4:0.074257 5:0.044554 6:0.029703 7:0.024752 8:0.076733 9:0.081683 10:0.108911 11:0.024752 12:0.034653 13:0.056931 14:0.056931 15:0.042079 16:0.071782 17:0.056931 18:0.054455 19:0.019802 20:0.027228 
-0.02041724462355384 1:0.034091 2:0.017045 3:0.068182 4:0.051136 5:0.079545 6:0.096591 7:0.022727 8:0.079545 9:0.056818 10:0.056818 11:0.039773 12:0.045455 13:0.039773 14:0.028409 15:0.051136 16:0.039773 17:0.0625 18:0.113636 19:0 20:0.017045 
-0.6952115093521447 1:0.103448 2:0.017241 3:0.034483 4:0.034483 5:0.045977 6:0.022989 7:0.017241 8:0.063218 9:0.068966 10:0.103448 11:0.045977 12:0.022989 13:0.034483 14:0.04023 15:0.051724 16:0.08046 17:0.04023 18:0.114943 19:0.034483 20:0.022989 
-1 1:0.065359 2:0.013889 3:0.062908 4:0.07598 5:0.04085 6:0.06781 7:0.026961 8:0.074346 9:0.060458 10:0.086601 11:0.03268 12:0.033497 13:0.043301 14:0.039216 15:0.064542 16:0.061275 17:0.05719 18:0.049837 19:0.005719 20:0.037582 
-0.05600389748095745 1:0.041667 2:0.020833 3:0.020833 4:0.145833 5:0.020833 6:0.020833 7:0.020833 8:0.083333 9:0.125 10:0.083333 11:0.020833 12:0.041667 13:0.020833 14:0.0625 15:0.0625 16:0.104167 17:0.041667 18:0.020833 19:0.041667 20:0 
-0.3332024265335095 1:0.04186 2:0.009302 3:0.055814 4:0.093023 5:0.032558 6:0.032558 7:0.060465 8:0.051163 9:0.083721 10:0.07907 11:0.069767 12:0.069767 13:0.027907 14:0.055814 15:0.060465 16:0.065116 17:0.027907 18:0.055814 19:0.004651 20:0.023256 
-1 1:0.066062 2:0.018135 3:0.062176 4:0.068653 5:0.045337 6:0.042746 7:0.024611 8:0.060881 9:0.056995 10:0.111399 11:0.027202 12:0.028497 13:0.042746 14:0.037565 15:0.063472 16:0.07513 17:0.053109 18:0.067358 19:0.007772 20:0.040155 
-0.2201508630714812 1:0.074074 2:0 3:0.051852 4:0.088889 5:0.022222 6:0.059259 7:0.022222 8:0.074074 9:0.096296 10:0.096296 11:0.014815 12:0.051852 13:0.044444 14:0.044444 15:0.037037 16:0.022222 17:0.066667 18:0.066667 19:0.007407 20:0.059259 
-1 1:0.073948 2:0.006826 3:0.068259 4:0.070535 5:0.029579 6:0.05802 7:0.022753 8:0.05802 9:0.050057 10:0.096701 11:0.023891 12:0.054608 13:0.03413 14:0.031854 15:0.065984 16:0.084187 17:0.067122 18:0.076223 19:0.002275 20:0.025028 
-0.2624038608378273 1:0.061311 2:0.040169 3:0.063425 4:0.054968 5:0.031712 6:0.031712 7:0.023256 8:0.065539 9:0.054968 10:0.120507 11:0.019027 12:0.05074 13:0.042283 14:0.042283 15:0.052854 16:0.073996 17:0.065539 18:0.040169 19:0.014799 20:0.05074 
-0.01314104784271721 1:0.050725 2:0.014493 3:0 4:0.028986 5:0.007246 6:0.050725 7:0.007246 8:0.028986 9:0.181159 10:0.028986 11:0.014493 12:0.057971 13:0.057971 14:0.086957 15:0.15942 16:0.065217 17:0.07971 18:0.050725 19:0.007246 20:0.021739 
-1 1:0.070429 2:0.02056 3:0.054243 4:0.083115 5:0.044182 6:0.049431 7:0.026684 8:0.053806 9:0.05818 10:0.098425 11:0.024497 12:0.033683 13:0.047682 14:0.044619 15:0.062992 16:0.068679 17:0.042432 18:0.065617 19:0.014436 20:0.036308 
-0.4234936757715155 1:0.079235 2:0.005464 3:0.032787 4:0.051913 5:0.02459 6:0.032787 7:0.027322 8:0.062842 9:0.04918 10:0.068306 11:0.021858 12:0.068306 13:0.092896 14:0.051913 15:0.04918 16:0.087432 17:0.084699 18:0.065574 19:0.005464 20:0.038251 
-0.2089665064548464 1:0.062963 2:0.011111 3:0.055556 4:0.051852 5:0.048148 6:0.062963 7:0.02963 8:0.055556 9:0.044444 10:0.055556 11:0.037037 12:0.059259 13:0.066667 14:0.051852 15:0.040741 16:0.1 17:0.059259 18:0.081481 19:0.007407 20:0.018519 
