svm_type c_svc
kernel_type polynomial
degree 10
gamma 10
coef0 1
nr_class 2
total_sv 32
rho -1.4487
label 1 -1
nr_sv 21 11
SV
0.261933860710988 1:0.079077 2:0.018122 3:0.052718 4:0.057661 5:0.041186 6:0.087315 7:0.023064 8:0.054366 9:0.07084 10:0.093904 11:0.024712 12:0.034596 13:0.047776 14:0.024712 15:0.037891 16:0.057661 17:0.060956 18:0.087315 19:0.01318 20:0.032949 
0.002668359354919359 1:0 2:0.041667 3:0.208333 4:0.083333 5:0.083333 6:0.041667 7:0.041667 8:0.041667 9:0.083333 10:0 11:0.083333 12:0 13:0.083333 14:0 15:0 16:0 17:0.041667 18:0.083333 19:0.083333 20:0 
0.01445305531441917 1:0.072464 2:0.021739 3:0.050725 4:0.057971 5:0.050725 6:0.043478 7:0.014493 8:0.057971 9:0.065217 10:0.072464 11:0.014493 12:0.057971 13:0.057971 14:0.050725 15:0.057971 16:0.065217 17:0.043478 18:0.065217 19:0.021739 20:0.057971 
0.01239096118681052 1:0.063315 2:0.011173 3:0.037244 4:0.05959 5:0.035382 6:0.111732 7:0.007449 8:0.052142 9:0.05959 10:0.113594 11:0.01676 12:0.035382 13:0.072626 14:0.022346 15:0.055866 16:0.087523 17:0.054004 18:0.068901 19:0.009311 20:0.026071 
0.09740528969527318 1:0.056 2:0.016 3:0.056 4:0.058667 5:0.034667 6:0.074667 7:0.021333 8:0.050667 9:0.08 10:0.074667 11:0.026667 12:0.042667 13:0.072 14:0.032 15:0.048 16:0.085333 17:0.048 18:0.064 19:0.013333 20:0.045333 
0.139418736261538 1:0.094708 2:0.008357 3:0.052925 4:0.086351 5:0.058496 6:0.089136 7:0.019499 8:0.069638 9:0.052925 10:0.075209 11:0.022284 12:0.05571 13:0.027855 14:0.02507 15:0.027855 16:0.064067 17:0.050139 18:0.083565 19:0.002786 20:0.033426 
0.04194871072931546 1:0.088312 2:0.015584 3:0.05974 4:0.067532 5:0.05974 6:0.077922 7:0.020779 8:0.044156 9:0.062338 10:0.054545 11:0.015584 12:0.023377 13:0.080519 14:0.031169 15:0.062338 16:0.064935 17:0.051948 18:0.057143 19:0.025974 20:0.036364 
0.3636943661742007 1:0.059406 2:0.009901 3:0.049505 4:0.044554 5:0.044554 6:0.056931 7:0.066832 8:0.044554 9:0.049505 10:0.108911 11:0.022277 12:0.042079 13:0.079208 14:0.014851 15:0.044554 16:0.066832 17:0.042079 18:0.066832 19:0.037129 20:0.049505 
0.3303410321954944 1:0.062602 2:0.012195 3:0.064228 4:0.079675 5:0.045528 6:0.066667 7:0.030894 8:0.052033 9:0.070732 10:0.080488 11:0.01626 12:0.047967 13:0.043089 14:0.034146 15:0.052033 16:0.074797 17:0.04878 18:0.070732 19:0.019512 20:0.027642 
0.1915520579130522 1:0.067164 2:0.027363 3:0.054726 4:0.059701 5:0.032338 6:0.09204 7:0.007463 8:0.059701 9:0.052239 10:0.094527 11:0.012438 12:0.042289 13:0.037313 14:0.052239 15:0.042289 16:0.084577 17:0.052239 18:0.077114 19:0.007463 20:0.044776 
0.002785632024921831 1:0.015625 2:0 3:0.03125 4:0.09375 5:0.03125 6:0.0625 7:0 8:0.046875 9:0.078125 10:0.03125 11:0.015625 12:0.0625 13:0.015625 14:0.015625 15:0.078125 16:0.09375 17:0.0625 18:0.1875 19:0.015625 20:0.0625 
0.003835736624207204 1:0.071918 2:0 3:0.065068 4:0.065068 5:0.068493 6:0.106164 7:0.003425 8:0.030822 9:0.030822 10:0.075342 11:0.006849 12:0.047945 13:0.030822 14:0.027397 15:0.071918 16:0.167808 17:0.023973 18:0.082192 19:0.003425 20:0.020548 
0.02719180150710318 1:0.043011 2:0.075269 3:0.11828 4:0.075269 5:0.032258 6:0.096774 7:0.010753 8:0.032258 9:0.064516 10:0.086022 11:0 12:0 13:0.043011 14:0.032258 15:0.010753 16:0.107527 17:0.086022 18:0.043011 19:0 20:0.043011 
0.2006372330093721 1:0.065292 2:0 3:0.058419 4:0.079038 5:0.027491 6:0.061856 7:0.013746 8:0.075601 9:0.082474 10:0.123711 11:0.034364 12:0.044674 13:0.030928 14:0.044674 15:0.04811 16:0.054983 17:0.058419 18:0.054983 19:0 20:0.041237 
0.02588528256216917 1:0.09375 2:0.052083 3:0.114583 4:0.125 5:0.041667 6:0.0625 7:0.010417 8:0.041667 9:0.041667 10:0.052083 11:0 12:0 13:0.03125 14:0.03125 15:0.010417 16:0.083333 17:0.0625 18:0.104167 19:0 20:0.041667 
0.138286104552908 1:0.074468 2:0.017021 3:0.07234 4:0.053191 5:0.051064 6:0.07234 7:0.010638 8:0.091489 9:0.07234 10:0.061702 11:0.017021 12:0.046809 13:0.048936 14:0.02766 15:0.046809 16:0.059574 17:0.059574 18:0.070213 19:0.008511 20:0.038298 
0.08746317253586208 1:0.08776 2:0.013857 3:0.057737 4:0.071594 5:0.053118 6:0.076212 7:0.018476 8:0.073903 9:0.080831 10:0.078522 11:0.020785 12:0.034642 13:0.034642 14:0.018476 15:0.039261 16:0.053118 17:0.073903 18:0.057737 19:0.018476 20:0.036952 
0.003957552603829224 1:0.047855 2:0.013201 3:0.064356 4:0.051155 5:0.044554 6:0.054455 7:0.028053 8:0.067657 9:0.072607 10:0.084158 11:0.009901 12:0.072607 13:0.069307 14:0.036304 15:0.041254 16:0.077558 17:0.047855 18:0.064356 19:0.013201 20:0.039604 
0.1091101866158336 1:0.092683 2:0.014634 3:0.039024 4:0.068293 5:0.04878 6:0.141463 7:0.009756 8:0.034146 9:0.039024 10:0.102439 11:0.019512 12:0.029268 13:0.068293 14:0.04878 15:0.039024 16:0.04878 17:0.039024 18:0.058537 19:0.02439 20:0.034146 
0.1056279290836954 1:0.065375 2:0.009685 3:0.062954 4:0.050847 5:0.046005 6:0.09201 7:0.004843 8:0.062954 9:0.062954 10:0.075061 11:0.03632 12:0.065375 13:0.046005 14:0.033898 15:0.053269 16:0.048426 17:0.067797 18:0.075061 19:0.009685 20:0.031477 
0.005654870167717559 1:0.073684 2:0.042105 3:0.073684 4:0.126316 5:0.052632 6:0.094737 7:0.010526 8:0.042105 9:0.042105 10:0.094737 11:0.010526 12:0 13:0.042105 14:0.021053 15:0.010526 16:0.094737 17:0.073684 18:0.073684 19:0 20:0.021053 
-0.1839739370286201 1:0.070496 2:0.020888 3:0.044386 4:0.036554 5:0.049608 6:0.060052 7:0.052219 8:0.046997 9:0.044386 10:0.10705 11:0.015666 12:0.02611 13:0.062663 14:0.023499 15:0.052219 16:0.060052 17:0.046997 18:0.086162 19:0.02611 20:0.067885 
-0.1800742143398942 1:0.076389 2:0 3:0.072917 4:0.104167 5:0.017361 6:0.083333 7:0.013889 8:0.072917 9:0.076389 10:0.059028 11:0.013889 12:0.055556 13:0.048611 14:0.052083 15:0.027778 16:0.059028 17:0.052083 18:0.090278 19:0.003472 20:0.020833 
-0.161951009630077 1:0.05 2:0.021429 3:0.035714 4:0.078571 5:0.028571 6:0.121429 7:0.021429 8:0.064286 9:0.085714 10:0.128571 11:0.021429 12:0.007143 13:0.05 14:0.035714 15:0.057143 16:0.064286 17:0.042857 18:0.057143 19:0.014286 20:0.014286 
-0.5910211193355974 1:0.072271 2:0.010324 3:0.070796 4:0.067847 5:0.057522 6:0.056047 7:0.025074 8:0.044248 9:0.069322 10:0.10177 11:0.026549 12:0.042773 13:0.048673 14:0.025074 15:0.039823 16:0.057522 17:0.058997 18:0.070796 19:0.007375 20:0.047198 
-0.192929227277743 1:0.07804 2:0.00726 3:0.085299 4:0.049002 5:0.041742 6:0.088929 7:0.010889 8:0.047187 9:0.068966 10:0.087114 11:0.012704 12:0.059891 13:0.041742 14:0.032668 15:0.025408 16:0.054446 17:0.038113 18:0.088929 19:0.030853 20:0.050817 
-0.0691200139268701 1:0.065649 2:0.003053 3:0.076336 4:0.082443 5:0.036641 6:0.067176 7:0.00916 8:0.087023 9:0.096183 10:0.082443 11:0.012214 12:0.056489 13:0.038168 14:0.044275 15:0.036641 16:0.042748 17:0.058015 18:0.082443 19:0.001527 20:0.021374 
-0.1011061573053564 1:0.066667 2:0.010753 3:0.027957 4:0.047312 5:0.055914 6:0.098925 7:0.019355 8:0.045161 9:0.032258 10:0.094624 11:0.017204 12:0.075269 13:0.055914 14:0.113978 15:0.045161 16:0.053763 17:0.049462 18:0.060215 19:0.012903 20:0.017204 
-0.1256372266395245 1:0.07946 2:0.005997 3:0.077961 4:0.092954 5:0.035982 6:0.086957 7:0.007496 8:0.073463 9:0.094453 10:0.074963 11:0.014993 12:0.041979 13:0.029985 14:0.032984 15:0.044978 16:0.038981 17:0.065967 18:0.073463 19:0.004498 20:0.022489 
-0.07250259824557961 1:0.047368 2:0.010526 3:0.05 4:0.026316 5:0.052632 6:0.055263 7:0.073684 8:0.071053 9:0.042105 10:0.113158 11:0.015789 12:0.026316 13:0.071053 14:0.028947 15:0.042105 16:0.078947 17:0.042105 18:0.057895 19:0.034211 20:0.060526 
-0.02861613489939584 1:0.103448 2:0.011494 3:0.086207 4:0.091954 5:0.057471 6:0.045977 7:0.021073 8:0.047893 9:0.06705 10:0.088123 11:0.017241 12:0.047893 13:0.042146 14:0.036398 15:0.01341 16:0.06705 17:0.028736 18:0.076628 19:0.007663 20:0.042146 
-0.4593102921949719 1:0.0625 2:0.023438 3:0.039063 4:0.054688 5:0.050781 6:0.097656 7:0.035156 8:0.0625 9:0.039063 10:0.070313 11:0.023438 12:0.035156 13:0.054688 14:0.015625 15:0.054688 16:0.097656 17:0.0625 18:0.054688 19:0.015625 20:0.050781 
