svm_type c_svc
kernel_type polynomial
degree 10
gamma 10
coef0 1
nr_class 2
total_sv 23
rho -0.793182
label 1 -1
nr_sv 19 4
SV
0.01290443993824657 1:0.086514 2:0.007634 3:0.040712 4:0.068702 5:0.045802 6:0.081425 7:0.012723 8:0.043257 9:0.043257 10:0.089059 11:0.017812 12:0.040712 13:0.073791 14:0.033079 15:0.071247 16:0.071247 17:0.040712 18:0.086514 19:0.015267 20:0.030534 
0.03807375117455195 1:0.097222 2:0.048611 3:0.0625 4:0.0625 5:0.055556 6:0.041667 7:0.027778 8:0.027778 9:0.0625 10:0.041667 11:0.034722 12:0.034722 13:0.0625 14:0.034722 15:0.0625 16:0.055556 17:0.076389 18:0.083333 19:0.006944 20:0.020833 
0.007532056753800268 1:0 2:0 3:0.077922 4:0.064935 5:0.012987 6:0.077922 7:0.012987 8:0.116883 9:0.051948 10:0.077922 11:0.025974 12:0.051948 13:0.038961 14:0.012987 15:0.142857 16:0.090909 17:0.025974 18:0.051948 19:0.025974 20:0.038961 
0.02016891093980795 1:0.114504 2:0 3:0.068702 4:0.091603 5:0.015267 6:0.053435 7:0.015267 8:0.091603 9:0.030534 10:0.099237 11:0.022901 12:0.045802 13:0.030534 14:0.045802 15:0.076336 16:0.045802 17:0.068702 18:0.068702 19:0.015267 20:0 
0.02625626425884757 1:0.109244 2:0.004202 3:0.07563 4:0.067227 5:0.02521 6:0.067227 7:0.004202 8:0.021008 9:0.037815 10:0.063025 11:0.05042 12:0.029412 13:0.067227 14:0.05042 15:0.12605 16:0.067227 17:0.02521 18:0.088235 19:0.016807 20:0.004202 
0.001605521237214239 1:0 2:0.041667 3:0.208333 4:0.083333 5:0.083333 6:0.041667 7:0.041667 8:0.041667 9:0.083333 10:0 11:0.083333 12:0 13:0.083333 14:0 15:0 16:0 17:0.041667 18:0.083333 19:0.083333 20:0 
0.01305289719215906 1:0.048913 2:0.01087 3:0.054348 4:0.081522 5:0.021739 6:0.048913 7:0.01087 8:0.092391 9:0.043478 10:0.119565 11:0.021739 12:0.103261 13:0.016304 14:0.059783 15:0.070652 16:0.076087 17:0.054348 18:0.043478 19:0.005435 20:0.016304 
0.01633208421699647 1:0.084 2:0.012 3:0.036 4:0.104 5:0.056 6:0.048 7:0.028 8:0.028 9:0.072 10:0.092 11:0.016 12:0.056 13:0.044 14:0.036 15:0.044 16:0.096 17:0.024 18:0.088 19:0.004 20:0.032 
0.1080161164420997 1:0.065292 2:0 3:0.058419 4:0.079038 5:0.027491 6:0.061856 7:0.013746 8:0.075601 9:0.082474 10:0.123711 11:0.034364 12:0.044674 13:0.030928 14:0.044674 15:0.04811 16:0.054983 17:0.058419 18:0.054983 19:0 20:0.041237 
0.001163650910819735 1:0.084871 2:0.012915 3:0.046125 4:0.060886 5:0.042435 6:0.066421 7:0.023985 8:0.046125 9:0.04797 10:0.092251 11:0.02583 12:0.04797 13:0.055351 14:0.04428 15:0.068266 16:0.083026 17:0.064576 18:0.059041 19:0.01107 20:0.016605 
0.04024877710165196 1:0.072464 2:0.021739 3:0.050725 4:0.057971 5:0.050725 6:0.043478 7:0.014493 8:0.057971 9:0.065217 10:0.072464 11:0.014493 12:0.057971 13:0.057971 14:0.050725 15:0.057971 16:0.065217 17:0.043478 18:0.065217 19:0.021739 20:0.057971 
0.0004769996967500934 1:0.084871 2:0.020295 3:0.04059 4:0.079336 5:0.031365 6:0.057196 7:0.02214 8:0.066421 9:0.079336 10:0.094096 11:0.01845 12:0.02952 13:0.04059 14:0.027675 15:0.060886 16:0.071956 17:0.051661 18:0.105166 19:0.005535 20:0.012915 
0.08561901301971828 1:0.047855 2:0.013201 3:0.064356 4:0.051155 5:0.044554 6:0.054455 7:0.028053 8:0.067657 9:0.072607 10:0.084158 11:0.009901 12:0.072607 13:0.069307 14:0.036304 15:0.041254 16:0.077558 17:0.047855 18:0.064356 19:0.013201 20:0.039604 
0.03782762650772087 1:0.039648 2:0.008811 3:0.07489 4:0.066079 5:0.030837 6:0.057269 7:0.004405 8:0.057269 9:0.079295 10:0.061674 11:0.044053 12:0.026432 13:0.066079 14:0.061674 15:0.070485 16:0.123348 17:0.039648 18:0.07489 19:0.008811 20:0.004405 
0.01712768167903313 1:0.056911 2:0.01355 3:0.059621 4:0.084011 5:0.02981 6:0.051491 7:0.0271 8:0.059621 9:0.062331 10:0.078591 11:0.01355 12:0.03794 13:0.03252 14:0.03523 15:0.084011 16:0.075881 17:0.075881 18:0.073171 19:0.02168 20:0.0271 
0.03335517933718939 1:0.052452 2:0.009122 3:0.061574 4:0.078677 5:0.038769 6:0.053592 7:0.013683 8:0.08894 9:0.058153 10:0.125428 11:0.014823 12:0.063854 13:0.026226 14:0.050171 15:0.053592 16:0.055872 17:0.051311 18:0.052452 19:0.007982 20:0.04333 
0.0006822866510801492 1:0.063291 2:0 3:0.050633 4:0.07173 5:0.054852 6:0.029536 7:0.012658 8:0.084388 9:0.097046 10:0.105485 11:0.050633 12:0.067511 13:0.021097 14:0.037975 15:0.037975 16:0.080169 17:0.033755 18:0.042194 19:0.004219 20:0.054852 
0.02255756713875997 1:0.073016 2:0.012698 3:0.057143 4:0.120635 5:0.047619 6:0.069841 7:0.006349 8:0.04127 9:0.04127 10:0.073016 11:0.019048 12:0.04127 13:0.050794 14:0.028571 15:0.066667 16:0.085714 17:0.060317 18:0.069841 19:0.003175 20:0.031746 
0.0275916037956761 1:0.059406 2:0.009901 3:0.049505 4:0.044554 5:0.044554 6:0.056931 7:0.066832 8:0.044554 9:0.049505 10:0.108911 11:0.022277 12:0.042079 13:0.079208 14:0.014851 15:0.044554 16:0.066832 17:0.042079 18:0.066832 19:0.037129 20:0.049505 
-0.1572285167069548 1:0.064317 2:0.013216 3:0.063436 4:0.085463 5:0.05022 6:0.043172 7:0.025551 8:0.065198 9:0.060793 10:0.090749 11:0.038767 12:0.056388 13:0.037004 14:0.036123 15:0.073128 16:0.05022 17:0.046696 18:0.055507 19:0.005286 20:0.038767 
-0.01147705313957101 1:0.087629 2:0.008763 3:0.051546 4:0.133505 5:0.028866 6:0.03866 7:0.019588 8:0.049485 9:0.111856 10:0.101031 11:0.026804 12:0.038144 13:0.016495 14:0.06701 15:0.050515 16:0.054639 17:0.046392 18:0.042784 19:0.004639 20:0.021649 
-0.0005920658826844175 1:0.093082 2:0.008647 3:0.063072 4:0.123601 5:0.027467 6:0.044761 7:0.019329 8:0.0412 9:0.098678 10:0.105799 11:0.018311 12:0.046287 13:0.016277 14:0.072228 15:0.06409 16:0.053917 17:0.034079 18:0.04527 19:0.008138 20:0.015768 
-0.3412947922629132 1:0.058962 2:0.008255 3:0.058962 4:0.071934 5:0.038915 6:0.054245 7:0.020047 8:0.0625 9:0.067217 10:0.095519 11:0.025943 12:0.048349 13:0.068396 14:0.04717 15:0.064858 16:0.066038 17:0.048349 18:0.068396 19:0.005896 20:0.020047 
